<?xml version="1.0"?>
<opencv_storage>
<stage9>
  <maxWeakCount>6</maxWeakCount>
  <stageThreshold>-6.6339367628097534e-01</stageThreshold>
  <weakClassifiers>
    <_>
      <internalNodes>
        0 -1 1216313 1.1619249358773232e-02</internalNodes>
      <leafValues>
        -3.3333334326744080e-01 6.4705884456634521e-01</leafValues></_>
    <_>
      <internalNodes>
        0 -1 654831 -3.5356298089027405e-02</internalNodes>
      <leafValues>
        -7.2060453891754150e-01 3.2159766554832458e-01</leafValues></_>
    <_>
      <internalNodes>
        0 -1 740259 -4.0180706419050694e-03</internalNodes>
      <leafValues>
        7.9918861389160156e-01 -3.1569182872772217e-01</leafValues></_>
    <_>
      <internalNodes>
        0 -1 727297 1.4233300462365150e-03</internalNodes>
      <leafValues>
        -2.7637049555778503e-01 8.8395315408706665e-01</leafValues></_>
    <_>
      <internalNodes>
        0 -1 168588 -2.2632861509919167e-04</internalNodes>
      <leafValues>
        5.8751267194747925e-01 -5.0118356943130493e-01</leafValues></_>
    <_>
      <internalNodes>
        0 -1 400770 -8.6086109280586243e-02</internalNodes>
      <leafValues>
        5.8103662729263306e-01 -5.3880423307418823e-01</leafValues></_></weakClassifiers></stage9>
</opencv_storage>
