<?xml version="1.0"?>
<opencv_storage>
<stage16>
  <maxWeakCount>5</maxWeakCount>
  <stageThreshold>-2.4033223092556000e-01</stageThreshold>
  <weakClassifiers>
    <_>
      <internalNodes>
        0 -1 253818 5.8808661997318268e-02</internalNodes>
      <leafValues>
        2.5316455960273743e-01 -9.5238095521926880e-01</leafValues></_>
    <_>
      <internalNodes>
        0 -1 493230 4.7084677498787642e-04</internalNodes>
      <leafValues>
        -3.6314570903778076e-01 7.5689440965652466e-01</leafValues></_>
    <_>
      <internalNodes>
        0 -1 230329 3.2199113629758358e-03</internalNodes>
      <leafValues>
        -3.4574034810066223e-01 6.8567550182342529e-01</leafValues></_>
    <_>
      <internalNodes>
        0 -1 1169659 -3.7914207205176353e-03</internalNodes>
      <leafValues>
        1. -2.6407745480537415e-01</leafValues></_>
    <_>
      <internalNodes>
        0 -1 495395 -6.0472805052995682e-03</internalNodes>
      <leafValues>
        -5.5194914340972900e-01 5.3854632377624512e-01</leafValues></_></weakClassifiers></stage16>
</opencv_storage>
