<?xml version="1.0"?>
<opencv_storage>
<stage2>
  <maxWeakCount>6</maxWeakCount>
  <stageThreshold>-7.0761394500732422e-01</stageThreshold>
  <weakClassifiers>
    <_>
      <internalNodes>
        0 -1 259100 -1.4466485008597374e-02</internalNodes>
      <leafValues>
        5.4455447196960449e-01 -5.5555558204650879e-01</leafValues></_>
    <_>
      <internalNodes>
        0 -1 83188 -1.6697768587619066e-03</internalNodes>
      <leafValues>
        7.7163511514663696e-01 -4.3655532598495483e-01</leafValues></_>
    <_>
      <internalNodes>
        0 -1 100732 -1.3832766562700272e-03</internalNodes>
      <leafValues>
        4.7926902770996094e-01 -6.7743331193923950e-01</leafValues></_>
    <_>
      <internalNodes>
        0 -1 1100438 -1.3209646567702293e-03</internalNodes>
      <leafValues>
        7.9768788814544678e-01 -4.6108722686767578e-01</leafValues></_>
    <_>
      <internalNodes>
        0 -1 948750 -7.7642075484618545e-04</internalNodes>
      <leafValues>
        7.4089366197586060e-01 -3.9554223418235779e-01</leafValues></_>
    <_>
      <internalNodes>
        0 -1 389542 1.1518958490341902e-03</internalNodes>
      <leafValues>
        -4.3825265765190125e-01 7.7742695808410645e-01</leafValues></_></weakClassifiers></stage2>
</opencv_storage>
