<?xml version="1.0"?>
<opencv_storage>
<cascade>
  <stageType>BOOST</stageType>
  <featureType>HAAR</featureType>
  <height>20</height>
  <width>20</width>
  <stageParams>
    <boostType>GAB</boostType>
    <minHitRate>9.9500000476837158e-01</minHitRate>
    <maxFalseAlarm>5.0000000000000000e-01</maxFalseAlarm>
    <weightTrimRate>9.4999999999999996e-01</weightTrimRate>
    <maxDepth>1</maxDepth>
    <maxWeakCount>100</maxWeakCount></stageParams>
  <featureParams>
    <maxCatCount>0</maxCatCount>
    <featSize>1</featSize>
    <mode>BASIC</mode></featureParams>
  <stageNum>20</stageNum>
  <stages>
    <!-- stage 0 -->
    <_>
      <maxWeakCount>14</maxWeakCount>
      <stageThreshold>-9.6465760469436646e-01</stageThreshold>
      <weakClassifiers>
        <_>
          <internalNodes>
            0 -1 425 -3.2996673136949539e-02</internalNodes>
          <leafValues>
            3.7920936942100525e-01 -3.6122733354568481e-01</leafValues></_>
        <_>
          <internalNodes>
            0 -1 29 -1.2742592021822929e-02</internalNodes>
          <leafValues>
            5.4318875074386597e-01 -2.8062412142753601e-01</leafValues></_>
        <_>
          <internalNodes>
            0 -1 231 -9.5802675932645798e-03</internalNodes>
          <leafValues>
            6.0768759250640869e-01 -1.6183182597160339e-01</leafValues></_>
        <_>
          <internalNodes>
            0 -1 491 -2.6078764349222183e-03</internalNodes>
          <leafValues>
            5.6396293640136719e-01 -1.6300909221172333e-01</leafValues></_>
        <_>
          <internalNodes>
            0 -1 491 2.4130516685545444e-03</internalNodes>
          <leafValues>
            -2.4229981005191803e-01 5.7102525234222412e-01</leafValues></_>
        <_>
          <internalNodes>
            0 -1 55 8.2187894731760025e-03</internalNodes>
          <leafValues>
            -9.4092018902301788e-02 6.0522079467773438e-01</leafValues></_>
        <_>
          <internalNodes>
            0 -1 128 4.4040847569704056e-03</internalNodes>
          <leafValues>
            -1.2176609039306641e-01 6.7211490869522095e-01</leafValues></_>
        <_>
          <internalNodes>
            0 -1 112 -5.7075470685958862e-03</internalNodes>
          <leafValues>
            6.2029618024826050e-01 -1.2866280972957611e-01</leafValues></_>
        <_>
          <internalNodes>
            0 -1 403 -5.6707244366407394e-03</internalNodes>
          <leafValues>
            4.3285661935806274e-01 -1.6891941428184509e-01</leafValues></_>
        <_>
          <internalNodes>
            0 -1 433 5.0868570804595947e-02</internalNodes>
          <leafValues>
            1.3429033756256104e-01 -5.6368446350097656e-01</leafValues></_>
        <_>
          <internalNodes>
            0 -1 335 6.4161121845245361e-02</internalNodes>
          <leafValues>
            9.0607576072216034e-02 -8.3570766448974609e-01</leafValues></_>
        <_>
          <internalNodes>
            0 -1 526 -2.3038624785840511e-03</internalNodes>
          <leafValues>
            4.5067542791366577e-01 -1.8266072869300842e-01</leafValues></_>
        <_>
          <internalNodes>
            0 -1 537 -5.8187227696180344e-03</internalNodes>
          <leafValues>
            7.0015907287597656e-01 -1.2145085632801056e-01</leafValues></_>
        <_>
          <internalNodes>
            0 -1 81 3.2343473285436630e-02</internalNodes>
          <leafValues>
            1.7246636748313904e-01 -5.1347386837005615e-01</leafValues></_></weakClassifiers></_>
    <!-- stage 1 -->
    <_>
      <maxWeakCount>19</maxWeakCount>
      <stageThreshold>-1.2056789398193359e+00</stageThreshold>
      <weakClassifiers>
        <_>
          <internalNodes>
            0 -1 341 -4.3305503204464912e-03</internalNodes>
          <leafValues>
            5.5623102188110352e-01 -1.7086835205554962e-01</leafValues></_>
        <_>
          <internalNodes>
            0 -1 322 -7.2331592440605164e-02</internalNodes>
          <leafValues>
            3.1921178102493286e-01 -3.1100839376449585e-01</leafValues></_>
        <_>
          <internalNodes>
            0 -1 539 -1.9448067760095000e-03</internalNodes>
          <leafValues>
            6.1958342790603638e-01 -1.7528247833251953e-01</leafValues></_>
        <_>
          <internalNodes>
            0 -1 539 1.8788520246744156e-03</internalNodes>
          <leafValues>
            -1.1010153591632843e-01 6.9504845142364502e-01</leafValues></_>
        <_>
          <internalNodes>
            0 -1 187 -3.8259848952293396e-03</internalNodes>
          <leafValues>
            6.5453791618347168e-01 -1.0278635472059250e-01</leafValues></_>
        <_>
          <internalNodes>
            0 -1 511 -3.1735925003886223e-03</internalNodes>
          <leafValues>
            5.2102756500244141e-01 -1.5041305124759674e-01</leafValues></_>
        <_>
          <internalNodes>
            0 -1 155 2.9216245748102665e-03</internalNodes>
          <leafValues>
            -1.7624182999134064e-01 4.3548673391342163e-01</leafValues></_>
        <_>
          <internalNodes>
            0 -1 504 2.9076449573040009e-03</internalNodes>
          <leafValues>
            -1.7513175308704376e-01 3.8091260194778442e-01</leafValues></_>
        <_>
          <internalNodes>
            0 -1 173 1.3613757910206914e-03</internalNodes>
          <leafValues>
            -1.2348612397909164e-01 5.3705465793609619e-01</leafValues></_>
        <_>
          <internalNodes>
            0 -1 15 4.7387778759002686e-03</internalNodes>
          <leafValues>
            -1.4591974020004272e-01 4.6119740605354309e-01</leafValues></_>
        <_>
          <internalNodes>
            0 -1 248 1.0000471025705338e-01</internalNodes>
          <leafValues>
            1.3040965795516968e-01 -6.7105603218078613e-01</leafValues></_>
        <_>
          <internalNodes>
            0 -1 537 -6.0217063874006271e-03</internalNodes>
          <leafValues>
            7.0295977592468262e-01 -1.2835974991321564e-01</leafValues></_>
        <_>
          <internalNodes>
            0 -1 331 -1.4059875905513763e-01</internalNodes>
          <leafValues>
            -7.7323114871978760e-01 9.3039840459823608e-02</leafValues></_>
        <_>
          <internalNodes>
            0 -1 448 -4.1434066370129585e-03</internalNodes>
          <leafValues>
            2.7858287096023560e-01 -2.4287243187427521e-01</leafValues></_>
        <_>
          <internalNodes>
            0 -1 30 -1.5691863372921944e-03</internalNodes>
          <leafValues>
            2.5769391655921936e-01 -2.7303758263587952e-01</leafValues></_>
        <_>
          <internalNodes>
            0 -1 116 8.3999987691640854e-03</internalNodes>
          <leafValues>
            -1.5332181751728058e-01 4.4983533024787903e-01</leafValues></_>
        <_>
          <internalNodes>
            0 -1 222 -5.1871989853680134e-03</internalNodes>
          <leafValues>
            4.5822459459304810e-01 -1.3466095924377441e-01</leafValues></_>
        <_>
          <internalNodes>
            0 -1 143 -4.3624993413686752e-03</internalNodes>
          <leafValues>
            6.0438084602355957e-01 -9.2650882899761200e-02</leafValues></_>
        <_>
          <internalNodes>
            0 -1 310 -2.2247419692575932e-03</internalNodes>
          <leafValues>
            3.9556580781936646e-01 -1.4404900372028351e-01</leafValues></_></weakClassifiers></_>
    <!-- stage 2 -->
    <_>
      <maxWeakCount>22</maxWeakCount>
      <stageThreshold>-1.2139105796813965e+00</stageThreshold>
      <weakClassifiers>
        <_>
          <internalNodes>
            0 -1 71 -8.5403239354491234e-03</internalNodes>
          <leafValues>
            5.2785146236419678e-01 -1.9452589750289917e-01</leafValues></_>
        <_>
          <internalNodes>
            0 -1 510 -1.8552651163190603e-03</internalNodes>
          <leafValues>
            6.8603909015655518e-01 -1.3853831589221954e-01</leafValues></_>
        <_>
          <internalNodes>
            0 -1 34 -3.2253665849566460e-03</internalNodes>
          <leafValues>
            6.9510453939437866e-01 -1.5000042319297791e-01</leafValues></_>
        <_>
          <internalNodes>
            0 -1 281 1.1940016411244869e-03</internalNodes>
          <leafValues>
            -1.5325702726840973e-01 5.4665881395339966e-01</leafValues></_>
        <_>
          <internalNodes>
            0 -1 510 2.3067165166139603e-03</internalNodes>
          <leafValues>
            -1.0739761590957642e-01 6.6191089153289795e-01</leafValues></_>
        <_>
          <internalNodes>
            0 -1 562 -2.6983986608684063e-03</internalNodes>
          <leafValues>
            5.1544684171676636e-01 -1.2455590814352036e-01</leafValues></_>
        <_>
          <internalNodes>
            0 -1 409 9.4939023256301880e-04</internalNodes>
          <leafValues>
            -1.6614088416099548e-01 4.7059166431427002e-01</leafValues></_>
        <_>
          <internalNodes>
            0 -1 376 -6.7079728469252586e-03</internalNodes>
          <leafValues>
            -7.7374422550201416e-01 9.6937239170074463e-02</leafValues></_>
        <_>
          <internalNodes>
            0 -1 476 -2.2266171872615814e-03</internalNodes>
          <leafValues>
            5.6817317008972168e-01 -1.4494448900222778e-01</leafValues></_>
        <_>
          <internalNodes>
            0 -1 452 7.5933635234832764e-03</internalNodes>
          <leafValues>
            2.3048938810825348e-01 -4.0097793936729431e-01</leafValues></_>
        <_>
          <internalNodes>
            0 -1 201 -4.1016135364770889e-03</internalNodes>
          <leafValues>
            6.8161571025848389e-01 -1.1327590048313141e-01</leafValues></_>
        <_>
          <internalNodes>
            0 -1 163 1.0981642641127110e-02</internalNodes>
          <leafValues>
            -1.4021536707878113e-01 4.6843275427818298e-01</leafValues></_>
        <_>
          <internalNodes>
            0 -1 309 4.2066527530550957e-03</internalNodes>
          <leafValues>
            -7.5755231082439423e-02 7.7757120132446289e-01</leafValues></_>
        <_>
          <internalNodes>
            0 -1 67 3.0821900814771652e-02</internalNodes>
          <leafValues>
            1.6381292045116425e-01 -4.6632224321365356e-01</leafValues></_>
        <_>
          <internalNodes>
            0 -1 175 2.1936977282166481e-03</internalNodes>
          <leafValues>
            -1.3034166395664215e-01 6.6047406196594238e-01</leafValues></_>
        <_>
          <internalNodes>
            0 -1 170 1.7257013823837042e-03</internalNodes>
          <leafValues>
            -1.0130617767572403e-01 5.8123379945755005e-01</leafValues></_>
        <_>
          <internalNodes>
            0 -1 356 3.8792472332715988e-02</internalNodes>
          <leafValues>
            1.1399623751640320e-01 -8.4161037206649780e-01</leafValues></_>
        <_>
          <internalNodes>
            0 -1 357 3.9817257784307003e-03</internalNodes>
          <leafValues>
            -1.3292971253395081e-01 6.8596273660659790e-01</leafValues></_>
        <_>
          <internalNodes>
            0 -1 544 -2.2358768619596958e-03</internalNodes>
          <leafValues>
            5.4604256153106689e-01 -8.5390165448188782e-02</leafValues></_>
        <_>
          <internalNodes>
            0 -1 269 -1.3237691018730402e-03</internalNodes>
          <leafValues>
            5.2846980094909668e-01 -1.3167993724346161e-01</leafValues></_>
        <_>
          <internalNodes>
            0 -1 266 -2.3118411190807819e-03</internalNodes>
          <leafValues>
            6.9065248966217041e-01 -6.3979104161262512e-02</leafValues></_>
        <_>
          <internalNodes>
            0 -1 225 -6.0928193852305412e-03</internalNodes>
          <leafValues>
            3.5657450556755066e-01 -1.6257698833942413e-01</leafValues></_></weakClassifiers></_>
    <!-- stage 3 -->
    <_>
      <maxWeakCount>26</maxWeakCount>
      <stageThreshold>-1.1390982866287231e+00</stageThreshold>
      <weakClassifiers>
        <_>
          <internalNodes>
            0 -1 543 -1.7905337736010551e-03</internalNodes>
          <leafValues>
            5.0508475303649902e-01 -1.3484163582324982e-01</leafValues></_>
        <_>
          <internalNodes>
            0 -1 65 5.5327732115983963e-03</internalNodes>
          <leafValues>
            -9.6104122698307037e-02 6.9071733951568604e-01</leafValues></_>
        <_>
          <internalNodes>
            0 -1 62 -1.0623272508382797e-02</internalNodes>
          <leafValues>
            6.3086247444152832e-01 -1.0374327749013901e-01</leafValues></_>
        <_>
          <internalNodes>
            0 -1 6 -1.2741458415985107e-01</internalNodes>
          <leafValues>
            3.1214928627014160e-01 -2.3532967269420624e-01</leafValues></_>
        <_>
          <internalNodes>
            0 -1 533 2.4160314351320267e-03</internalNodes>
          <leafValues>
            -1.0225856304168701e-01 6.0449087619781494e-01</leafValues></_>
        <_>
          <internalNodes>
            0 -1 455 -1.2918067164719105e-02</internalNodes>
          <leafValues>
            5.0195872783660889e-01 -1.3455317914485931e-01</leafValues></_>
        <_>
          <internalNodes>
            0 -1 540 3.9540342986583710e-03</internalNodes>
          <leafValues>
            -1.0715758800506592e-01 5.1044636964797974e-01</leafValues></_>
        <_>
          <internalNodes>
            0 -1 531 2.0783748477697372e-03</internalNodes>
          <leafValues>
            -1.1065221577882767e-01 5.4809206724166870e-01</leafValues></_>
        <_>
          <internalNodes>
            0 -1 571 -1.2863771989941597e-02</internalNodes>
          <leafValues>
            3.4668657183647156e-01 -1.4832559227943420e-01</leafValues></_>
        <_>
          <internalNodes>
            0 -1 37 1.7592536285519600e-02</internalNodes>
          <leafValues>
            9.2704802751541138e-02 -5.5876904726028442e-01</leafValues></_>
        <_>
          <internalNodes>
            0 -1 84 -3.0722029507160187e-02</internalNodes>
          <leafValues>
            -6.6887277364730835e-01 9.3467883765697479e-02</leafValues></_>
        <_>
          <internalNodes>
            0 -1 247 -4.0687531232833862e-02</internalNodes>
          <leafValues>
            -6.7893385887145996e-01 7.7368758618831635e-02</leafValues></_>
        <_>
          <internalNodes>
            0 -1 92 -1.2826513499021530e-02</internalNodes>
          <leafValues>
            5.8680260181427002e-01 -1.0684621334075928e-01</leafValues></_>
        <_>
          <internalNodes>
            0 -1 340 -2.1552136167883873e-03</internalNodes>
          <leafValues>
            3.9634585380554199e-01 -1.4071604609489441e-01</leafValues></_>
        <_>
          <internalNodes>
            0 -1 4 -1.3160049915313721e-01</internalNodes>
          <leafValues>
            -9.2674714326858521e-01 5.6830625981092453e-02</leafValues></_>
        <_>
          <internalNodes>
            0 -1 301 6.5063327550888062e-02</internalNodes>
          <leafValues>
            5.9245727956295013e-02 -6.7143034934997559e-01</leafValues></_>
        <_>
          <internalNodes>
            0 -1 316 -2.8176037594676018e-03</internalNodes>
          <leafValues>
            4.7567561268806458e-01 -1.1577275395393372e-01</leafValues></_>
        <_>
          <internalNodes>
            0 -1 443 -2.5533610023558140e-03</internalNodes>
          <leafValues>
            4.5793437957763672e-01 -1.0340638458728790e-01</leafValues></_>
        <_>
          <internalNodes>
            0 -1 265 4.5742705464363098e-02</internalNodes>
          <leafValues>
            -7.0862263441085815e-02 7.1120983362197876e-01</leafValues></_>
        <_>
          <internalNodes>
            0 -1 268 -6.1589563265442848e-03</internalNodes>
          <leafValues>
            3.4561815857887268e-01 -1.5029864013195038e-01</leafValues></_>
        <_>
          <internalNodes>
            0 -1 23 -2.9072146862745285e-03</internalNodes>
          <leafValues>
            2.1053084731101990e-01 -2.5197526812553406e-01</leafValues></_>
        <_>
          <internalNodes>
            0 -1 172 2.4798110127449036e-02</internalNodes>
          <leafValues>
            1.3121464848518372e-01 -3.9077943563461304e-01</leafValues></_>
        <_>
          <internalNodes>
            0 -1 329 -2.2100429981946945e-02</internalNodes>
          <leafValues>
            3.5844537615776062e-01 -1.6155952215194702e-01</leafValues></_>
        <_>
          <internalNodes>
            0 -1 267 -7.2902590036392212e-02</internalNodes>
          <leafValues>
            -8.6119943857192993e-01 5.9333257377147675e-02</leafValues></_>
        <_>
          <internalNodes>
            0 -1 20 6.9305947981774807e-03</internalNodes>
          <leafValues>
            -7.0600204169750214e-02 7.7914047241210938e-01</leafValues></_>
        <_>
          <internalNodes>
            0 -1 454 -5.3406460210680962e-03</internalNodes>
          <leafValues>
            4.0531212091445923e-01 -1.0691736638545990e-01</leafValues></_></weakClassifiers></_>
    <!-- stage 4 -->
    <_>
      <maxWeakCount>35</maxWeakCount>
      <stageThreshold>-1.0314096212387085e+00</stageThreshold>
      <weakClassifiers>
        <_>
          <internalNodes>
            0 -1 70 -1.1757191270589828e-02</internalNodes>
          <leafValues>
            5.3020131587982178e-01 -1.4337567985057831e-01</leafValues></_>
        <_>
          <internalNodes>
            0 -1 31 -6.8139862269163132e-03</internalNodes>
          <leafValues>
            4.5975708961486816e-01 -1.1929856985807419e-01</leafValues></_>
        <_>
          <internalNodes>
            0 -1 340 -1.7605172470211983e-03</internalNodes>
          <leafValues>
            3.5408157110214233e-01 -1.5680636465549469e-01</leafValues></_>
        <_>
          <internalNodes>
            0 -1 134 -3.1846929341554642e-03</internalNodes>
          <leafValues>
            2.8947457671165466e-01 -1.9526404142379761e-01</leafValues></_>
        <_>
          <internalNodes>
            0 -1 286 1.0745110921561718e-02</internalNodes>
          <leafValues>
            1.1369832605123520e-01 -5.6517338752746582e-01</leafValues></_>
        <_>
          <internalNodes>
            0 -1 80 1.8681123852729797e-02</internalNodes>
          <leafValues>
            1.3551931083202362e-01 -4.5281803607940674e-01</leafValues></_>
        <_>
          <internalNodes>
            0 -1 118 2.8718269895762205e-03</internalNodes>
          <leafValues>
            -6.6048875451087952e-02 6.1401653289794922e-01</leafValues></_>
        <_>
          <internalNodes>
            0 -1 566 4.3390253558754921e-03</internalNodes>
          <leafValues>
            -1.3797608017921448e-01 3.8003316521644592e-01</leafValues></_>
        <_>
          <internalNodes>
            0 -1 522 9.3066552653908730e-03</internalNodes>
          <leafValues>
            1.1616053432226181e-01 -4.5532321929931641e-01</leafValues></_>
        <_>
          <internalNodes>
            0 -1 333 -1.1828167771454901e-04</internalNodes>
          <leafValues>
            -2.5658524036407471e-01 1.7944388091564178e-01</leafValues></_>
        <_>
          <internalNodes>
            0 -1 188 -8.7268529459834099e-03</internalNodes>
          <leafValues>
            2.7277922630310059e-01 -1.4672635495662689e-01</leafValues></_>
        <_>
          <internalNodes>
            0 -1 52 -7.8515987843275070e-03</internalNodes>
          <leafValues>
            1.7198741436004639e-01 -2.3304621875286102e-01</leafValues></_>
        <_>
          <internalNodes>
            0 -1 246 2.6280805468559265e-02</internalNodes>
          <leafValues>
            7.5672276318073273e-02 -7.2110855579376221e-01</leafValues></_>
        <_>
          <internalNodes>
            0 -1 528 -2.3325690999627113e-03</internalNodes>
          <leafValues>
            4.8617300391197205e-01 -1.0221110284328461e-01</leafValues></_>
        <_>
          <internalNodes>
            0 -1 50 -6.4478501677513123e-02</internalNodes>
          <leafValues>
            -8.2567232847213745e-01 5.8945879340171814e-02</leafValues></_>
        <_>
          <internalNodes>
            0 -1 263 -5.6964326649904251e-03</internalNodes>
          <leafValues>
            2.7548596262931824e-01 -1.7625142633914948e-01</leafValues></_>
        <_>
          <internalNodes>
            0 -1 61 -7.9729538410902023e-03</internalNodes>
          <leafValues>
            5.2179408073425293e-01 -7.6003342866897583e-02</leafValues></_>
        <_>
          <internalNodes>
            0 -1 326 -5.7692803442478180e-02</internalNodes>
          <leafValues>
            3.6051926016807556e-01 -1.1930480599403381e-01</leafValues></_>
        <_>
          <internalNodes>
            0 -1 528 1.1232562828809023e-03</internalNodes>
          <leafValues>
            -1.2838433682918549e-01 3.4525349736213684e-01</leafValues></_>
        <_>
          <internalNodes>
            0 -1 472 -1.0634562000632286e-02</internalNodes>
          <leafValues>
            9.1791117191314697e-01 -4.0977306663990021e-02</leafValues></_>
        <_>
          <internalNodes>
            0 -1 2 -1.0335947154089808e-03</internalNodes>
          <leafValues>
            -2.8849247097969055e-01 1.4207796752452850e-01</leafValues></_>
        <_>
          <internalNodes>
            0 -1 368 -2.8549027629196644e-03</internalNodes>
          <leafValues>
            2.7255553007125854e-01 -1.4863683283329010e-01</leafValues></_>
        <_>
          <internalNodes>
            0 -1 394 -1.8518757075071335e-02</internalNodes>
          <leafValues>
            4.0664336085319519e-01 -1.0788690298795700e-01</leafValues></_>
        <_>
          <internalNodes>
            0 -1 136 1.8409476615488529e-03</internalNodes>
          <leafValues>
            -8.8080666959285736e-02 4.8121678829193115e-01</leafValues></_>
        <_>
          <internalNodes>
            0 -1 548 8.0906134098768234e-03</internalNodes>
          <leafValues>
            6.1206862330436707e-02 -7.4387550354003906e-01</leafValues></_>
        <_>
          <internalNodes>
            0 -1 94 9.7618121653795242e-03</internalNodes>
          <leafValues>
            -1.2975233793258667e-01 3.4399372339248657e-01</leafValues></_>
        <_>
          <internalNodes>
            0 -1 465 -7.5148482574149966e-04</internalNodes>
          <leafValues>
            2.1433874964714050e-01 -1.9662828743457794e-01</leafValues></_>
        <_>
          <internalNodes>
            0 -1 359 -1.2701197993010283e-03</internalNodes>
          <leafValues>
            4.0037629008293152e-01 -1.1422215402126312e-01</leafValues></_>
        <_>
          <internalNodes>
            0 -1 360 1.1203045025467873e-02</internalNodes>
          <leafValues>
            1.0604549944400787e-01 -3.8647815585136414e-01</leafValues></_>
        <_>
          <internalNodes>
            0 -1 291 4.1045039892196655e-02</internalNodes>
          <leafValues>
            5.0928752869367599e-02 -7.7456486225128174e-01</leafValues></_>
        <_>
          <internalNodes>
            0 -1 542 -9.0274680405855179e-03</internalNodes>
          <leafValues>
            2.0632675290107727e-01 -1.9846487045288086e-01</leafValues></_>
        <_>
          <internalNodes>
            0 -1 568 6.1875777319073677e-03</internalNodes>
          <leafValues>
            -9.2321000993251801e-02 4.8043116927146912e-01</leafValues></_>
        <_>
          <internalNodes>
            0 -1 547 1.6533090965822339e-03</internalNodes>
          <leafValues>
            -1.6810151934623718e-01 2.4705135822296143e-01</leafValues></_>
        <_>
          <internalNodes>
            0 -1 205 -1.9161396194249392e-03</internalNodes>
          <leafValues>
            4.6555647253990173e-01 -8.8133580982685089e-02</leafValues></_>
        <_>
          <internalNodes>
            0 -1 117 -1.5572393313050270e-02</internalNodes>
          <leafValues>
            3.6863055825233459e-01 -1.0979501157999039e-01</leafValues></_></weakClassifiers></_>
    <!-- stage 5 -->
    <_>
      <maxWeakCount>31</maxWeakCount>
      <stageThreshold>-8.7296324968338013e-01</stageThreshold>
      <weakClassifiers>
        <_>
          <internalNodes>
            0 -1 21 -7.8055765479803085e-03</internalNodes>
          <leafValues>
            5.2542370557785034e-01 -1.4027149975299835e-01</leafValues></_>
        <_>
          <internalNodes>
            0 -1 66 -6.1539295129477978e-03</internalNodes>
          <leafValues>
            3.2640925049781799e-01 -1.6206103563308716e-01</leafValues></_>
        <_>
          <internalNodes>
            0 -1 74 4.3521821498870850e-03</internalNodes>
          <leafValues>
            -1.3559983670711517e-01 5.5588179826736450e-01</leafValues></_>
        <_>
          <internalNodes>
            0 -1 358 1.3859366998076439e-02</internalNodes>
          <leafValues>
            1.6039659082889557e-01 -3.6277353763580322e-01</leafValues></_>
        <_>
          <internalNodes>
            0 -1 511 -5.7825222611427307e-03</internalNodes>
          <leafValues>
            5.5180400609970093e-01 -8.8939473032951355e-02</leafValues></_>
        <_>
          <internalNodes>
            0 -1 464 -1.2358117848634720e-02</internalNodes>
          <leafValues>
            3.9416515827178955e-01 -1.2358239293098450e-01</leafValues></_>
        <_>
          <internalNodes>
            0 -1 292 -7.3179155588150024e-02</internalNodes>
          <leafValues>
            2.7895498275756836e-01 -1.7979033291339874e-01</leafValues></_>
        <_>
          <internalNodes>
            0 -1 550 -2.4750849697738886e-03</internalNodes>
          <leafValues>
            5.6933373212814331e-01 -8.4407992660999298e-02</leafValues></_>
        <_>
          <internalNodes>
            0 -1 372 5.9585766866803169e-03</internalNodes>
          <leafValues>
            -8.3909943699836731e-02 5.4460388422012329e-01</leafValues></_>
        <_>
          <internalNodes>
            0 -1 402 -5.7008853182196617e-03</internalNodes>
          <leafValues>
            6.6663318872451782e-01 -6.4856454730033875e-02</leafValues></_>
        <_>
          <internalNodes>
            0 -1 244 2.4001259356737137e-02</internalNodes>
          <leafValues>
            5.6178025901317596e-02 -8.1373411417007446e-01</leafValues></_>
        <_>
          <internalNodes>
            0 -1 413 1.6318700509145856e-03</internalNodes>
          <leafValues>
            -1.2556022405624390e-01 3.4298947453498840e-01</leafValues></_>
        <_>
          <internalNodes>
            0 -1 214 1.3185278512537479e-02</internalNodes>
          <leafValues>
            8.3616487681865692e-02 -5.8856827020645142e-01</leafValues></_>
        <_>
          <internalNodes>
            0 -1 540 -4.5216698199510574e-03</internalNodes>
          <leafValues>
            4.3952560424804688e-01 -9.8478898406028748e-02</leafValues></_>
        <_>
          <internalNodes>
            0 -1 187 -3.6933068186044693e-03</internalNodes>
          <leafValues>
            4.3559619784355164e-01 -9.5723249018192291e-02</leafValues></_>
        <_>
          <internalNodes>
            0 -1 80 3.3281497657299042e-02</internalNodes>
          <leafValues>
            7.7404163777828217e-02 -6.2284636497497559e-01</leafValues></_>
        <_>
          <internalNodes>
            0 -1 353 4.5113172382116318e-03</internalNodes>
          <leafValues>
            8.6561717092990875e-02 -4.6553191542625427e-01</leafValues></_>
        <_>
          <internalNodes>
            0 -1 180 -4.9978226423263550e-02</internalNodes>
          <leafValues>
            -5.7009655237197876e-01 8.2389436662197113e-02</leafValues></_>
        <_>
          <internalNodes>
            0 -1 351 6.2512182630598545e-03</internalNodes>
          <leafValues>
            -1.3191607594490051e-01 3.6839139461517334e-01</leafValues></_>
        <_>
          <internalNodes>
            0 -1 524 -2.4300944060087204e-03</internalNodes>
          <leafValues>
            5.1626968383789063e-01 -7.2915665805339813e-02</leafValues></_>
        <_>
          <internalNodes>
            0 -1 406 -3.3759430050849915e-02</internalNodes>
          <leafValues>
            -4.9848282337188721e-01 7.6253511011600494e-02</leafValues></_>
        <_>
          <internalNodes>
            0 -1 47 -1.3831964461132884e-03</internalNodes>
          <leafValues>
            -2.9635584354400635e-01 1.3176132738590240e-01</leafValues></_>
        <_>
          <internalNodes>
            0 -1 14 6.5518182236701250e-04</internalNodes>
          <leafValues>
            1.3775476813316345e-01 -2.9799476265907288e-01</leafValues></_>
        <_>
          <internalNodes>
            0 -1 147 -1.6133398748934269e-03</internalNodes>
          <leafValues>
            4.1539338231086731e-01 -9.4413451850414276e-02</leafValues></_>
        <_>
          <internalNodes>
            0 -1 47 2.9164645820856094e-03</internalNodes>
          <leafValues>
            1.0603202134370804e-01 -3.7329280376434326e-01</leafValues></_>
        <_>
          <internalNodes>
            0 -1 147 4.0448438376188278e-03</internalNodes>
          <leafValues>
            -4.5334700495004654e-02 7.7681142091751099e-01</leafValues></_>
        <_>
          <internalNodes>
            0 -1 89 3.0792145058512688e-02</internalNodes>
          <leafValues>
            5.4845459759235382e-02 -8.8066619634628296e-01</leafValues></_>
        <_>
          <internalNodes>
            0 -1 12 -3.8811646401882172e-02</internalNodes>
          <leafValues>
            -5.7011795043945313e-01 5.6085482239723206e-02</leafValues></_>
        <_>
          <internalNodes>
            0 -1 390 -7.0397690869867802e-03</internalNodes>
          <leafValues>
            3.1256592273712158e-01 -1.2671242654323578e-01</leafValues></_>
        <_>
          <internalNodes>
            0 -1 251 -1.9269675016403198e-02</internalNodes>
          <leafValues>
            -7.6218986511230469e-01 5.6580234318971634e-02</leafValues></_>
        <_>
          <internalNodes>
            0 -1 203 -2.6394817978143692e-03</internalNodes>
          <leafValues>
            2.3351724445819855e-01 -1.7955248057842255e-01</leafValues></_></weakClassifiers></_>
    <!-- stage 6 -->
    <_>
      <maxWeakCount>36</maxWeakCount>
      <stageThreshold>-9.6477216482162476e-01</stageThreshold>
      <weakClassifiers>
        <_>
          <internalNodes>
            0 -1 26 4.7666830942034721e-03</internalNodes>
          <leafValues>
            -1.0373444110155106e-01 6.4102566242218018e-01</leafValues></_>
        <_>
          <internalNodes>
            0 -1 85 -7.3758582584559917e-03</internalNodes>
          <leafValues>
            5.2704471349716187e-01 -9.0855225920677185e-02</leafValues></_>
        <_>
          <internalNodes>
            0 -1 122 2.8378569986671209e-03</internalNodes>
          <leafValues>
            -9.4180807471275330e-02 5.7926791906356812e-01</leafValues></_>
        <_>
          <internalNodes>
            0 -1 310 5.9247110038995743e-03</internalNodes>
          <leafValues>
            -9.7753964364528656e-02 4.6090555191040039e-01</leafValues></_>
        <_>
          <internalNodes>
            0 -1 428 -4.3162763118743896e-02</internalNodes>
          <leafValues>
            1.8770255148410797e-01 -2.5152882933616638e-01</leafValues></_>
        <_>
          <internalNodes>
            0 -1 283 2.9606823809444904e-03</internalNodes>
          <leafValues>
            -1.0253107547760010e-01 4.6496737003326416e-01</leafValues></_>
        <_>
          <internalNodes>
            0 -1 537 8.2012172788381577e-03</internalNodes>
          <leafValues>
            -5.9668429195880890e-02 6.5337562561035156e-01</leafValues></_>
        <_>
          <internalNodes>
            0 -1 536 -4.3272301554679871e-03</internalNodes>
          <leafValues>
            3.6928343772888184e-01 -1.0477065294981003e-01</leafValues></_>
        <_>
          <internalNodes>
            0 -1 379 -1.0580075904726982e-02</internalNodes>
          <leafValues>
            -6.5350705385208130e-01 7.8173562884330750e-02</leafValues></_>
        <_>
          <internalNodes>
            0 -1 355 -2.8847327455878258e-02</internalNodes>
          <leafValues>
            -5.2459603548049927e-01 8.1082053482532501e-02</leafValues></_>
        <_>
          <internalNodes>
            0 -1 438 1.9964398816227913e-03</internalNodes>
          <leafValues>
            -1.6159226000308990e-01 2.5859516859054565e-01</leafValues></_>
        <_>
          <internalNodes>
            0 -1 440 5.3249642252922058e-02</internalNodes>
          <leafValues>
            6.1771281063556671e-02 -7.0111697912216187e-01</leafValues></_>
        <_>
          <internalNodes>
            0 -1 343 6.5059391781687737e-03</internalNodes>
          <leafValues>
            -1.2210280448198318e-01 3.3249288797378540e-01</leafValues></_>
        <_>
          <internalNodes>
            0 -1 138 2.3960661143064499e-02</internalNodes>
          <leafValues>
            7.7514305710792542e-02 -5.9594559669494629e-01</leafValues></_>
        <_>
          <internalNodes>
            0 -1 337 -1.9608490169048309e-02</internalNodes>
          <leafValues>
            -6.0851824283599854e-01 6.2022287398576736e-02</leafValues></_>
        <_>
          <internalNodes>
            0 -1 380 2.5275340303778648e-02</internalNodes>
          <leafValues>
            4.4460374861955643e-02 -7.8837776184082031e-01</leafValues></_>
        <_>
          <internalNodes>
            0 -1 245 -1.6839993186295033e-03</internalNodes>
          <leafValues>
            3.8751092553138733e-01 -1.0676754266023636e-01</leafValues></_>
        <_>
          <internalNodes>
            0 -1 317 7.6394989155232906e-03</internalNodes>
          <leafValues>
            9.6072867512702942e-02 -4.4134801626205444e-01</leafValues></_>
        <_>
          <internalNodes>
            0 -1 546 6.1973552219569683e-03</internalNodes>
          <leafValues>
            -9.6541270613670349e-02 4.2203640937805176e-01</leafValues></_>
        <_>
          <internalNodes>
            0 -1 120 6.5231453627347946e-03</internalNodes>
          <leafValues>
            -1.1333762109279633e-01 3.8830173015594482e-01</leafValues></_>
        <_>
          <internalNodes>
            0 -1 215 3.2049175351858139e-02</internalNodes>
          <leafValues>
            5.2796937525272369e-02 -8.2308393716812134e-01</leafValues></_>
        <_>
          <internalNodes>
            0 -1 346 1.6415949910879135e-02</internalNodes>
          <leafValues>
            5.4779704660177231e-02 -6.5217494964599609e-01</leafValues></_>
        <_>
          <internalNodes>
            0 -1 126 -8.7430730462074280e-02</internalNodes>
          <leafValues>
            -6.8926733732223511e-01 5.4627738893032074e-02</leafValues></_>
        <_>
          <internalNodes>
            0 -1 572 8.2117889542132616e-04</internalNodes>
          <leafValues>
            1.1280787736177444e-01 -3.3577221632003784e-01</leafValues></_>
        <_>
          <internalNodes>
            0 -1 184 1.3883095234632492e-03</internalNodes>
          <leafValues>
            -1.2814344465732574e-01 3.3667504787445068e-01</leafValues></_>
        <_>
          <internalNodes>
            0 -1 211 -1.1403134558349848e-03</internalNodes>
          <leafValues>
            2.7905339002609253e-01 -1.4830946922302246e-01</leafValues></_>
        <_>
          <internalNodes>
            0 -1 204 1.7497343942523003e-03</internalNodes>
          <leafValues>
            -1.6100552678108215e-01 2.4710787832736969e-01</leafValues></_>
        <_>
          <internalNodes>
            0 -1 144 -1.4193261973559856e-02</internalNodes>
          <leafValues>
            -4.8566487431526184e-01 8.2519747316837311e-02</leafValues></_>
        <_>
          <internalNodes>
            0 -1 166 5.3479326888918877e-03</internalNodes>
          <leafValues>
            -7.0122718811035156e-02 5.8866488933563232e-01</leafValues></_>
        <_>
          <internalNodes>
            0 -1 564 -2.4401978589594364e-03</internalNodes>
          <leafValues>
            2.6972496509552002e-01 -1.3925945758819580e-01</leafValues></_>
        <_>
          <internalNodes>
            0 -1 320 1.9592959433794022e-02</internalNodes>
          <leafValues>
            5.1413051784038544e-02 -7.9824191331863403e-01</leafValues></_>
        <_>
          <internalNodes>
            0 -1 22 -5.1341496407985687e-02</internalNodes>
          <leafValues>
            -9.0961742401123047e-01 2.7311973273754120e-02</leafValues></_>
        <_>
          <internalNodes>
            0 -1 462 3.5879723727703094e-03</internalNodes>
          <leafValues>
            -5.9559676796197891e-02 7.4159455299377441e-01</leafValues></_>
        <_>
          <internalNodes>
            0 -1 435 -4.1083201766014099e-02</internalNodes>
          <leafValues>
            -4.4274643063545227e-01 9.6383169293403625e-02</leafValues></_>
        <_>
          <internalNodes>
            0 -1 310 1.1203641071915627e-02</internalNodes>
          <leafValues>
            -5.0475150346755981e-02 7.8246802091598511e-01</leafValues></_>
        <_>
          <internalNodes>
            0 -1 572 -6.8074942100793123e-04</internalNodes>
          <leafValues>
            -2.9466006159782410e-01 1.3292649388313293e-01</leafValues></_></weakClassifiers></_>
    <!-- stage 7 -->
    <_>
      <maxWeakCount>31</maxWeakCount>
      <stageThreshold>-8.2608282566070557e-01</stageThreshold>
      <weakClassifiers>
        <_>
          <internalNodes>
            0 -1 381 6.1841318383812904e-03</internalNodes>
          <leafValues>
            -8.7691068649291992e-02 6.9426751136779785e-01</leafValues></_>
        <_>
          <internalNodes>
            0 -1 314 -4.5358878560364246e-03</internalNodes>
          <leafValues>
            4.4958770275115967e-01 -1.2425736337900162e-01</leafValues></_>
        <_>
          <internalNodes>
            0 -1 227 -6.1332926154136658e-02</internalNodes>
          <leafValues>
            1.8588462471961975e-01 -2.5744944810867310e-01</leafValues></_>
        <_>
          <internalNodes>
            0 -1 56 -2.0064411684870720e-02</internalNodes>
          <leafValues>
            6.5529054403305054e-01 -3.7607319653034210e-02</leafValues></_>
        <_>
          <internalNodes>
            0 -1 64 2.7223604265600443e-03</internalNodes>
          <leafValues>
            -1.3041464984416962e-01 3.7597471475601196e-01</leafValues></_>
        <_>
          <internalNodes>
            0 -1 297 -1.4241196215152740e-02</internalNodes>
          <leafValues>
            4.1095593571662903e-01 -8.1580951809883118e-02</leafValues></_>
        <_>
          <internalNodes>
            0 -1 284 5.6543992832303047e-03</internalNodes>
          <leafValues>
            -1.0292618721723557e-01 4.2294707894325256e-01</leafValues></_>
        <_>
          <internalNodes>
            0 -1 78 -4.5892179012298584e-02</internalNodes>
          <leafValues>
            -6.3548642396926880e-01 8.0267116427421570e-02</leafValues></_>
        <_>
          <internalNodes>
            0 -1 218 -3.2408718019723892e-02</internalNodes>
          <leafValues>
            -6.1496853828430176e-01 6.7173756659030914e-02</leafValues></_>
        <_>
          <internalNodes>
            0 -1 532 2.5674221105873585e-03</internalNodes>
          <leafValues>
            -7.4973732233047485e-02 4.8095801472663879e-01</leafValues></_>
        <_>
          <internalNodes>
            0 -1 549 4.9433568492531776e-03</internalNodes>
          <leafValues>
            -7.5371555984020233e-02 4.9498590826988220e-01</leafValues></_>
        <_>
          <internalNodes>
            0 -1 514 -2.0477237179875374e-02</internalNodes>
          <leafValues>
            -4.1676893830299377e-01 9.0635687112808228e-02</leafValues></_>
        <_>
          <internalNodes>
            0 -1 477 -9.1447066515684128e-03</internalNodes>
          <leafValues>
            6.7376434803009033e-01 -7.2408609092235565e-02</leafValues></_>
        <_>
          <internalNodes>
            0 -1 529 6.6177129745483398e-02</internalNodes>
          <leafValues>
            4.8347320407629013e-02 -9.1411793231964111e-01</leafValues></_>
        <_>
          <internalNodes>
            0 -1 497 -1.6962147783488035e-03</internalNodes>
          <leafValues>
            2.6492589712142944e-01 -1.2881903350353241e-01</leafValues></_>
        <_>
          <internalNodes>
            0 -1 490 6.2967566773295403e-03</internalNodes>
          <leafValues>
            -1.2424060702323914e-01 3.1256923079490662e-01</leafValues></_>
        <_>
          <internalNodes>
            0 -1 450 4.8459894955158234e-02</internalNodes>
          <leafValues>
            -6.1413943767547607e-02 5.7206445932388306e-01</leafValues></_>
        <_>
          <internalNodes>
            0 -1 325 6.7141741514205933e-02</internalNodes>
          <leafValues>
            -7.5084507465362549e-02 4.2712748050689697e-01</leafValues></_>
        <_>
          <internalNodes>
            0 -1 505 -8.4030407015234232e-04</internalNodes>
          <leafValues>
            -2.1595300734043121e-01 1.5502943098545074e-01</leafValues></_>
        <_>
          <internalNodes>
            0 -1 76 1.6771439462900162e-02</internalNodes>
          <leafValues>
            -5.2261710166931152e-02 6.2265336513519287e-01</leafValues></_>
        <_>
          <internalNodes>
            0 -1 426 2.5580007582902908e-02</internalNodes>
          <leafValues>
            -5.1073957234621048e-02 6.7027860879898071e-01</leafValues></_>
        <_>
          <internalNodes>
            0 -1 0 4.4203273137100041e-04</internalNodes>
          <leafValues>
            1.3264499604701996e-01 -2.6059088110923767e-01</leafValues></_>
        <_>
          <internalNodes>
            0 -1 554 -4.2108699679374695e-02</internalNodes>
          <leafValues>
            8.2283926010131836e-01 -4.4383708387613297e-02</leafValues></_>
        <_>
          <internalNodes>
            0 -1 98 -1.3051003217697144e-02</internalNodes>
          <leafValues>
            5.7489931583404541e-01 -4.9575109034776688e-02</leafValues></_>
        <_>
          <internalNodes>
            0 -1 46 -4.4316274579614401e-04</internalNodes>
          <leafValues>
            -2.2581166028976440e-01 1.6614286601543427e-01</leafValues></_>
        <_>
          <internalNodes>
            0 -1 114 3.5787725355476141e-03</internalNodes>
          <leafValues>
            -7.0086896419525146e-02 5.6530576944351196e-01</leafValues></_>
        <_>
          <internalNodes>
            0 -1 114 -1.5665662940591574e-03</internalNodes>
          <leafValues>
            3.4497255086898804e-01 -9.4476550817489624e-02</leafValues></_>
        <_>
          <internalNodes>
            0 -1 8 -7.0484296884387732e-04</internalNodes>
          <leafValues>
            -3.4341874718666077e-01 1.1273642629384995e-01</leafValues></_>
        <_>
          <internalNodes>
            0 -1 41 2.1497469395399094e-02</internalNodes>
          <leafValues>
            5.9714108705520630e-02 -5.9075719118118286e-01</leafValues></_>
        <_>
          <internalNodes>
            0 -1 11 -1.6905352473258972e-01</internalNodes>
          <leafValues>
            -8.5978507995605469e-01 3.1032791361212730e-02</leafValues></_>
        <_>
          <internalNodes>
            0 -1 298 -3.7224106490612030e-02</internalNodes>
          <leafValues>
            3.4788221120834351e-01 -1.0911729186773300e-01</leafValues></_></weakClassifiers></_>
    <!-- stage 8 -->
    <_>
      <maxWeakCount>42</maxWeakCount>
      <stageThreshold>-9.4589716196060181e-01</stageThreshold>
      <weakClassifiers>
        <_>
          <internalNodes>
            0 -1 375 1.2239336967468262e-02</internalNodes>
          <leafValues>
            -7.8260868787765503e-02 7.3333334922790527e-01</leafValues></_>
        <_>
          <internalNodes>
            0 -1 91 -4.9075786955654621e-03</internalNodes>
          <leafValues>
            4.9472773075103760e-01 -1.0752917826175690e-01</leafValues></_>
        <_>
          <internalNodes>
            0 -1 96 9.3430193373933434e-04</internalNodes>
          <leafValues>
            -1.4329256117343903e-01 2.9947897791862488e-01</leafValues></_>
        <_>
          <internalNodes>
            0 -1 254 -2.4969279766082764e-02</internalNodes>
          <leafValues>
            -7.1732831001281738e-01 5.5315900593996048e-02</leafValues></_>
        <_>
          <internalNodes>
            0 -1 383 -3.4937958698719740e-03</internalNodes>
          <leafValues>
            -4.0501186251640320e-01 1.1614933609962463e-01</leafValues></_>
        <_>
          <internalNodes>
            0 -1 185 -6.1803273856639862e-03</internalNodes>
          <leafValues>
            5.6465309858322144e-01 -7.0300646126270294e-02</leafValues></_>
        <_>
          <internalNodes>
            0 -1 183 1.5914948657155037e-02</internalNodes>
          <leafValues>
            6.9903016090393066e-02 -4.6912318468093872e-01</leafValues></_>
        <_>
          <internalNodes>
            0 -1 302 -4.6831313520669937e-03</internalNodes>
          <leafValues>
            4.2931729555130005e-01 -8.4269046783447266e-02</leafValues></_>
        <_>
          <internalNodes>
            0 -1 442 1.0081561282277107e-02</internalNodes>
          <leafValues>
            8.0337971448898315e-02 -4.9446254968643188e-01</leafValues></_>
        <_>
          <internalNodes>
            0 -1 220 -2.7661805506795645e-03</internalNodes>
          <leafValues>
            5.0926887989044189e-01 -7.0306964218616486e-02</leafValues></_>
        <_>
          <internalNodes>
            0 -1 414 2.0125261507928371e-03</internalNodes>
          <leafValues>
            1.1556468158960342e-01 -3.5923367738723755e-01</leafValues></_>
        <_>
          <internalNodes>
            0 -1 260 -5.9636766090989113e-03</internalNodes>
          <leafValues>
            5.2023220062255859e-01 -6.5561741590499878e-02</leafValues></_>
        <_>
          <internalNodes>
            0 -1 533 6.8672734778374434e-04</internalNodes>
          <leafValues>
            -1.3001818954944611e-01 2.6539158821105957e-01</leafValues></_>
        <_>
          <internalNodes>
            0 -1 319 2.2193318232893944e-02</internalNodes>
          <leafValues>
            5.2759837359189987e-02 -6.0786122083663940e-01</leafValues></_>
        <_>
          <internalNodes>
            0 -1 512 -3.8516554050147533e-03</internalNodes>
          <leafValues>
            3.9963790774345398e-01 -9.5423012971878052e-02</leafValues></_>
        <_>
          <internalNodes>
            0 -1 521 -1.4737717574462295e-03</internalNodes>
          <leafValues>
            -4.1171953082084656e-01 1.0114039480686188e-01</leafValues></_>
        <_>
          <internalNodes>
            0 -1 377 8.7805856019258499e-03</internalNodes>
          <leafValues>
            4.2242467403411865e-02 -8.0667352676391602e-01</leafValues></_>
        <_>
          <internalNodes>
            0 -1 422 -4.1398834437131882e-02</internalNodes>
          <leafValues>
            -4.5678964257240295e-01 6.7038089036941528e-02</leafValues></_>
        <_>
          <internalNodes>
            0 -1 570 -9.7020692192018032e-04</internalNodes>
          <leafValues>
            -2.9995882511138916e-01 1.1133528500795364e-01</leafValues></_>
        <_>
          <internalNodes>
            0 -1 519 1.0028444230556488e-03</internalNodes>
          <leafValues>
            -1.1149865388870239e-01 3.5085844993591309e-01</leafValues></_>
        <_>
          <internalNodes>
            0 -1 401 2.5590606965124607e-03</internalNodes>
          <leafValues>
            9.2420123517513275e-02 -3.9839130640029907e-01</leafValues></_>
        <_>
          <internalNodes>
            0 -1 506 5.6877764873206615e-03</internalNodes>
          <leafValues>
            -1.0025947540998459e-01 3.4392234683036804e-01</leafValues></_>
        <_>
          <internalNodes>
            0 -1 43 -3.6100260913372040e-02</internalNodes>
          <leafValues>
            -6.3605934381484985e-01 5.3519506007432938e-02</leafValues></_>
        <_>
          <internalNodes>
            0 -1 95 -1.5501192212104797e-01</internalNodes>
          <leafValues>
            6.6049391031265259e-01 -5.4410465061664581e-02</leafValues></_>
        <_>
          <internalNodes>
            0 -1 127 2.2134990431368351e-03</internalNodes>
          <leafValues>
            -7.2584658861160278e-02 4.1355991363525391e-01</leafValues></_>
        <_>
          <internalNodes>
            0 -1 371 -2.6871925219893456e-03</internalNodes>
          <leafValues>
            2.9161909222602844e-01 -1.0570326447486877e-01</leafValues></_>
        <_>
          <internalNodes>
            0 -1 341 -6.3868351280689240e-03</internalNodes>
          <leafValues>
            4.6931901574134827e-01 -7.3984317481517792e-02</leafValues></_>
        <_>
          <internalNodes>
            0 -1 312 -5.0742905586957932e-03</internalNodes>
          <leafValues>
            -5.5657261610031128e-01 6.6510580480098724e-02</leafValues></_>
        <_>
          <internalNodes>
            0 -1 361 1.3732921797782183e-03</internalNodes>
          <leafValues>
            1.1728313565254211e-01 -3.0708262324333191e-01</leafValues></_>
        <_>
          <internalNodes>
            0 -1 110 -9.1712474822998047e-02</internalNodes>
          <leafValues>
            -8.3311307430267334e-01 3.6764916032552719e-02</leafValues></_>
        <_>
          <internalNodes>
            0 -1 537 -4.8078931868076324e-03</internalNodes>
          <leafValues>
            3.7193894386291504e-01 -9.6516937017440796e-02</leafValues></_>
        <_>
          <internalNodes>
            0 -1 523 -4.6411878429353237e-03</internalNodes>
          <leafValues>
            1.7681007087230682e-01 -2.1111717820167542e-01</leafValues></_>
        <_>
          <internalNodes>
            0 -1 489 1.8247559666633606e-02</internalNodes>
          <leafValues>
            -8.2087390124797821e-02 4.8664411902427673e-01</leafValues></_>
        <_>
          <internalNodes>
            0 -1 295 -2.7392312884330750e-02</internalNodes>
          <leafValues>
            -3.6891174316406250e-01 1.0252919793128967e-01</leafValues></_>
        <_>
          <internalNodes>
            0 -1 278 2.2754436358809471e-02</internalNodes>
          <leafValues>
            6.8782739341259003e-02 -5.0392812490463257e-01</leafValues></_>
        <_>
          <internalNodes>
            0 -1 541 -2.3587383329868317e-02</internalNodes>
          <leafValues>
            -7.6026052236557007e-01 4.3740518391132355e-02</leafValues></_>
        <_>
          <internalNodes>
            0 -1 190 -3.8280487060546875e-03</internalNodes>
          <leafValues>
            6.4486008882522583e-01 -6.3122682273387909e-02</leafValues></_>
        <_>
          <internalNodes>
            0 -1 49 1.6187706496566534e-03</internalNodes>
          <leafValues>
            8.6458809673786163e-02 -4.6022433042526245e-01</leafValues></_>
        <_>
          <internalNodes>
            0 -1 483 -1.3444591313600540e-02</internalNodes>
          <leafValues>
            -4.4729498028755188e-01 7.7074520289897919e-02</leafValues></_>
        <_>
          <internalNodes>
            0 -1 101 3.9302716031670570e-03</internalNodes>
          <leafValues>
            -1.0219033062458038e-01 3.9976021647453308e-01</leafValues></_>
        <_>
          <internalNodes>
            0 -1 17 -1.3700476288795471e-01</internalNodes>
          <leafValues>
            -7.7393382787704468e-01 4.1555557399988174e-02</leafValues></_>
        <_>
          <internalNodes>
            0 -1 378 -7.5048981234431267e-03</internalNodes>
          <leafValues>
            -3.8053739070892334e-01 8.4068119525909424e-02</leafValues></_></weakClassifiers></_>
    <!-- stage 9 -->
    <_>
      <maxWeakCount>38</maxWeakCount>
      <stageThreshold>-8.8984537124633789e-01</stageThreshold>
      <weakClassifiers>
        <_>
          <internalNodes>
            0 -1 124 6.8599418736994267e-03</internalNodes>
          <leafValues>
            -1.0761155188083649e-01 4.7859922051429749e-01</leafValues></_>
        <_>
          <internalNodes>
            0 -1 473 -1.2710841838270426e-03</internalNodes>
          <leafValues>
            3.6122053861618042e-01 -1.1124617606401443e-01</leafValues></_>
        <_>
          <internalNodes>
            0 -1 128 -4.3052565306425095e-03</internalNodes>
          <leafValues>
            4.0686506032943726e-01 -1.1811625957489014e-01</leafValues></_>
        <_>
          <internalNodes>
            0 -1 339 2.2276207804679871e-02</internalNodes>
          <leafValues>
            2.9300583526492119e-02 -8.0128556489944458e-01</leafValues></_>
        <_>
          <internalNodes>
            0 -1 238 4.1677683591842651e-02</internalNodes>
          <leafValues>
            1.3365121185779572e-01 -2.8445631265640259e-01</leafValues></_>
        <_>
          <internalNodes>
            0 -1 259 -1.2394390068948269e-03</internalNodes>
          <leafValues>
            3.2586222887039185e-01 -1.1200397461652756e-01</leafValues></_>
        <_>
          <internalNodes>
            0 -1 431 -1.0899164713919163e-02</internalNodes>
          <leafValues>
            2.3190453648567200e-01 -1.5499518811702728e-01</leafValues></_>
        <_>
          <internalNodes>
            0 -1 411 -5.6516183540225029e-03</internalNodes>
          <leafValues>
            -3.7838035821914673e-01 1.1200860887765884e-01</leafValues></_>
        <_>
          <internalNodes>
            0 -1 109 4.6628294512629509e-04</internalNodes>
          <leafValues>
            1.2325733155012131e-01 -2.7563774585723877e-01</leafValues></_>
        <_>
          <internalNodes>
            0 -1 31 -1.0127255693078041e-02</internalNodes>
          <leafValues>
            4.1116479039192200e-01 -7.5417205691337585e-02</leafValues></_>
        <_>
          <internalNodes>
            0 -1 69 -1.3869889080524445e-03</internalNodes>
          <leafValues>
            2.3673297464847565e-01 -1.7829672992229462e-01</leafValues></_>
        <_>
          <internalNodes>
            0 -1 3 -9.3390077352523804e-02</internalNodes>
          <leafValues>
            -6.3145041465759277e-01 5.1973134279251099e-02</leafValues></_>
        <_>
          <internalNodes>
            0 -1 253 3.6818049848079681e-03</internalNodes>
          <leafValues>
            1.0597111284732819e-01 -3.3886140584945679e-01</leafValues></_>
        <_>
          <internalNodes>
            0 -1 25 -7.4138596653938293e-02</internalNodes>
          <leafValues>
            -6.3537406921386719e-01 5.9586927294731140e-02</leafValues></_>
        <_>
          <internalNodes>
            0 -1 352 -5.3662867285311222e-03</internalNodes>
          <leafValues>
            -4.9150276184082031e-01 5.6279465556144714e-02</leafValues></_>
        <_>
          <internalNodes>
            0 -1 466 -5.1960283890366554e-03</internalNodes>
          <leafValues>
            5.0987619161605835e-01 -7.4484162032604218e-02</leafValues></_>
        <_>
          <internalNodes>
            0 -1 467 -2.4646623060107231e-03</internalNodes>
          <leafValues>
            3.0470490455627441e-01 -1.1196489632129669e-01</leafValues></_>
        <_>
          <internalNodes>
            0 -1 274 4.4621434062719345e-03</internalNodes>
          <leafValues>
            -1.1659535765647888e-01 3.0900770425796509e-01</leafValues></_>
        <_>
          <internalNodes>
            0 -1 393 5.8542069047689438e-02</internalNodes>
          <leafValues>
            3.6585628986358643e-02 -7.6241374015808105e-01</leafValues></_>
        <_>
          <internalNodes>
            0 -1 432 -7.8042049426585436e-04</internalNodes>
          <leafValues>
            -3.2049977779388428e-01 9.7815714776515961e-02</leafValues></_>
        <_>
          <internalNodes>
            0 -1 365 -4.2808081954717636e-02</internalNodes>
          <leafValues>
            -6.7366909980773926e-01 5.0279952585697174e-02</leafValues></_>
        <_>
          <internalNodes>
            0 -1 305 -2.8427885845303535e-03</internalNodes>
          <leafValues>
            3.2985514402389526e-01 -1.0588710010051727e-01</leafValues></_>
        <_>
          <internalNodes>
            0 -1 493 -6.2612652778625488e-02</internalNodes>
          <leafValues>
            -6.6854417324066162e-01 5.0026990473270416e-02</leafValues></_>
        <_>
          <internalNodes>
            0 -1 24 -1.6092607751488686e-02</internalNodes>
          <leafValues>
            -6.7828828096389771e-01 5.6444782763719559e-02</leafValues></_>
        <_>
          <internalNodes>
            0 -1 148 4.3732700869441032e-03</internalNodes>
          <leafValues>
            -8.3769723773002625e-02 4.2905026674270630e-01</leafValues></_>
        <_>
          <internalNodes>
            0 -1 153 -2.4562119506299496e-03</internalNodes>
          <leafValues>
            4.1439384222030640e-01 -8.1094853579998016e-02</leafValues></_>
        <_>
          <internalNodes>
            0 -1 551 -1.9480755145195872e-04</internalNodes>
          <leafValues>
            -2.0523516833782196e-01 1.6656015813350677e-01</leafValues></_>
        <_>
          <internalNodes>
            0 -1 526 -4.8528676852583885e-03</internalNodes>
          <leafValues>
            4.0616583824157715e-01 -9.3787826597690582e-02</leafValues></_>
        <_>
          <internalNodes>
            0 -1 306 -2.1031204611063004e-02</internalNodes>
          <leafValues>
            -8.5507237911224365e-01 4.3538771569728851e-02</leafValues></_>
        <_>
          <internalNodes>
            0 -1 280 -2.5172801688313484e-03</internalNodes>
          <leafValues>
            3.5308095812797546e-01 -9.8767496645450592e-02</leafValues></_>
        <_>
          <internalNodes>
            0 -1 236 -6.6608235239982605e-02</internalNodes>
          <leafValues>
            -6.8184328079223633e-01 5.3024422377347946e-02</leafValues></_>
        <_>
          <internalNodes>
            0 -1 307 -2.7735971380025148e-03</internalNodes>
          <leafValues>
            3.0258080363273621e-01 -1.1948402971029282e-01</leafValues></_>
        <_>
          <internalNodes>
            0 -1 328 -6.1338786035776138e-03</internalNodes>
          <leafValues>
            3.9230066537857056e-01 -9.0728871524333954e-02</leafValues></_>
        <_>
          <internalNodes>
            0 -1 18 2.4540245532989502e-02</internalNodes>
          <leafValues>
            7.9775355756282806e-02 -3.9641103148460388e-01</leafValues></_>
        <_>
          <internalNodes>
            0 -1 348 -1.0507327504456043e-02</internalNodes>
          <leafValues>
            -4.3005084991455078e-01 8.6494170129299164e-02</leafValues></_>
        <_>
          <internalNodes>
            0 -1 559 -1.0194161906838417e-02</internalNodes>
          <leafValues>
            3.9958977699279785e-01 -9.0134449303150177e-02</leafValues></_>
        <_>
          <internalNodes>
            0 -1 323 5.3883446380496025e-03</internalNodes>
          <leafValues>
            7.4577435851097107e-02 -5.4386520385742188e-01</leafValues></_>
        <_>
          <internalNodes>
            0 -1 560 2.0352013409137726e-02</internalNodes>
          <leafValues>
            -6.0815960168838501e-02 6.8109220266342163e-01</leafValues></_></weakClassifiers></_>
    <!-- stage 10 -->
    <_>
      <maxWeakCount>42</maxWeakCount>
      <stageThreshold>-9.4734603166580200e-01</stageThreshold>
      <weakClassifiers>
        <_>
          <internalNodes>
            0 -1 33 -1.0424090549349785e-02</internalNodes>
          <leafValues>
            4.6564885973930359e-01 -1.0720562189817429e-01</leafValues></_>
        <_>
          <internalNodes>
            0 -1 249 -1.1993327643722296e-03</internalNodes>
          <leafValues>
            2.8039735555648804e-01 -1.5188142657279968e-01</leafValues></_>
        <_>
          <internalNodes>
            0 -1 57 -1.5017975121736526e-02</internalNodes>
          <leafValues>
            3.7413740158081055e-01 -1.3203690946102142e-01</leafValues></_>
        <_>
          <internalNodes>
            0 -1 9 -3.4310646355152130e-02</internalNodes>
          <leafValues>
            -8.2175219058990479e-01 3.8392186164855957e-02</leafValues></_>
        <_>
          <internalNodes>
            0 -1 61 1.4454813674092293e-02</internalNodes>
          <leafValues>
            -3.8309309631586075e-02 7.3225092887878418e-01</leafValues></_>
        <_>
          <internalNodes>
            0 -1 143 -4.6713678166270256e-03</internalNodes>
          <leafValues>
            3.8793715834617615e-01 -5.9015266597270966e-02</leafValues></_>
        <_>
          <internalNodes>
            0 -1 42 7.0173535495996475e-03</internalNodes>
          <leafValues>
            4.6111274510622025e-02 -6.0067766904830933e-01</leafValues></_>
        <_>
          <internalNodes>
            0 -1 186 3.2579111866652966e-03</internalNodes>
          <leafValues>
            -4.3576437979936600e-02 5.8558350801467896e-01</leafValues></_>
        <_>
          <internalNodes>
            0 -1 527 1.2827055528759956e-02</internalNodes>
          <leafValues>
            4.6719003468751907e-02 -5.6338220834732056e-01</leafValues></_>
        <_>
          <internalNodes>
            0 -1 415 -1.3104212470352650e-02</internalNodes>
          <leafValues>
            -4.5939773321151733e-01 9.9073097109794617e-02</leafValues></_>
        <_>
          <internalNodes>
            0 -1 176 -3.9056437090039253e-03</internalNodes>
          <leafValues>
            3.0319929122924805e-01 -1.2941573560237885e-01</leafValues></_>
        <_>
          <internalNodes>
            0 -1 321 7.4858721345663071e-03</internalNodes>
          <leafValues>
            -1.1804330348968506e-01 2.9581764340400696e-01</leafValues></_>
        <_>
          <internalNodes>
            0 -1 388 7.0204967632889748e-03</internalNodes>
          <leafValues>
            1.1762659251689911e-01 -3.0076411366462708e-01</leafValues></_>
        <_>
          <internalNodes>
            0 -1 197 4.4514061883091927e-03</internalNodes>
          <leafValues>
            -8.9153349399566650e-02 4.0171232819557190e-01</leafValues></_>
        <_>
          <internalNodes>
            0 -1 108 6.3813000917434692e-02</internalNodes>
          <leafValues>
            1.3202001154422760e-01 -2.7449014782905579e-01</leafValues></_>
        <_>
          <internalNodes>
            0 -1 308 1.2341928668320179e-02</internalNodes>
          <leafValues>
            -8.4575183689594269e-02 4.5294371247291565e-01</leafValues></_>
        <_>
          <internalNodes>
            0 -1 206 -1.9662290811538696e-02</internalNodes>
          <leafValues>
            2.3741659522056580e-01 -1.4695160090923309e-01</leafValues></_>
        <_>
          <internalNodes>
            0 -1 73 -4.9668908119201660e-02</internalNodes>
          <leafValues>
            -8.3752804994583130e-01 3.8078524172306061e-02</leafValues></_>
        <_>
          <internalNodes>
            0 -1 277 9.5833428204059601e-03</internalNodes>
          <leafValues>
            -4.8844859004020691e-02 7.3978096246719360e-01</leafValues></_>
        <_>
          <internalNodes>
            0 -1 315 7.3047047480940819e-03</internalNodes>
          <leafValues>
            6.4232014119625092e-02 -5.4882800579071045e-01</leafValues></_>
        <_>
          <internalNodes>
            0 -1 537 -6.2903156504034996e-03</internalNodes>
          <leafValues>
            4.3567466735839844e-01 -8.2174681127071381e-02</leafValues></_>
        <_>
          <internalNodes>
            0 -1 160 1.5214891172945499e-03</internalNodes>
          <leafValues>
            9.0513765811920166e-02 -4.1345825791358948e-01</leafValues></_>
        <_>
          <internalNodes>
            0 -1 488 -9.9271629005670547e-03</internalNodes>
          <leafValues>
            3.8398528099060059e-01 -1.0052267462015152e-01</leafValues></_>
        <_>
          <internalNodes>
            0 -1 386 3.9410364115610719e-04</internalNodes>
          <leafValues>
            1.8179468810558319e-01 -1.9500169157981873e-01</leafValues></_>
        <_>
          <internalNodes>
            0 -1 276 2.3208957165479660e-02</internalNodes>
          <leafValues>
            7.3513358831405640e-02 -4.9862504005432129e-01</leafValues></_>
        <_>
          <internalNodes>
            0 -1 158 -2.2907564416527748e-03</internalNodes>
          <leafValues>
            -4.7664263844490051e-01 6.4410842955112457e-02</leafValues></_>
        <_>
          <internalNodes>
            0 -1 106 -3.6572939157485962e-01</internalNodes>
          <leafValues>
            -8.0116420984268188e-01 3.9402067661285400e-02</leafValues></_>
        <_>
          <internalNodes>
            0 -1 535 -3.7497590528801084e-04</internalNodes>
          <leafValues>
            -2.7349403500556946e-01 1.3812424242496490e-01</leafValues></_>
        <_>
          <internalNodes>
            0 -1 535 2.6873702881857753e-04</internalNodes>
          <leafValues>
            1.4660847187042236e-01 -2.7417615056037903e-01</leafValues></_>
        <_>
          <internalNodes>
            0 -1 446 -1.3468157500028610e-02</internalNodes>
          <leafValues>
            -6.7940682172775269e-01 4.7328650951385498e-02</leafValues></_>
        <_>
          <internalNodes>
            0 -1 86 -7.8846830874681473e-03</internalNodes>
          <leafValues>
            7.2908818721771240e-01 -4.7002889215946198e-02</leafValues></_>
        <_>
          <internalNodes>
            0 -1 482 -9.6482946537435055e-04</internalNodes>
          <leafValues>
            2.4451200664043427e-01 -1.3633267581462860e-01</leafValues></_>
        <_>
          <internalNodes>
            0 -1 262 -5.4216319695115089e-03</internalNodes>
          <leafValues>
            2.7969852089881897e-01 -1.1877442896366119e-01</leafValues></_>
        <_>
          <internalNodes>
            0 -1 470 3.3702035434544086e-03</internalNodes>
          <leafValues>
            -1.0547428578138351e-01 3.1329885125160217e-01</leafValues></_>
        <_>
          <internalNodes>
            0 -1 217 1.3088680570945144e-03</internalNodes>
          <leafValues>
            -1.2833786010742188e-01 2.4754875898361206e-01</leafValues></_>
        <_>
          <internalNodes>
            0 -1 345 -6.1568249948322773e-03</internalNodes>
          <leafValues>
            -5.3941375017166138e-01 5.8475308120250702e-02</leafValues></_>
        <_>
          <internalNodes>
            0 -1 112 -1.1303037405014038e-02</internalNodes>
          <leafValues>
            5.8355504274368286e-01 -5.9108652174472809e-02</leafValues></_>
        <_>
          <internalNodes>
            0 -1 369 2.7837794274091721e-02</internalNodes>
          <leafValues>
            6.6466100513935089e-02 -5.7471913099288940e-01</leafValues></_>
        <_>
          <internalNodes>
            0 -1 13 6.9767032982781529e-04</internalNodes>
          <leafValues>
            9.9591098725795746e-02 -3.4212008118629456e-01</leafValues></_>
        <_>
          <internalNodes>
            0 -1 318 -6.5666094422340393e-02</internalNodes>
          <leafValues>
            -6.1239218711853027e-01 5.6400351226329803e-02</leafValues></_>
        <_>
          <internalNodes>
            0 -1 481 1.6031470149755478e-02</internalNodes>
          <leafValues>
            8.4830865263938904e-02 -3.9615210890769958e-01</leafValues></_>
        <_>
          <internalNodes>
            0 -1 434 1.8427659571170807e-01</internalNodes>
          <leafValues>
            -4.4308736920356750e-02 8.6944913864135742e-01</leafValues></_></weakClassifiers></_>
    <!-- stage 11 -->
    <_>
      <maxWeakCount>42</maxWeakCount>
      <stageThreshold>-1.0257631540298462e+00</stageThreshold>
      <weakClassifiers>
        <_>
          <internalNodes>
            0 -1 27 -7.8503191471099854e-03</internalNodes>
          <leafValues>
            6.5333330631256104e-01 -7.8400000929832458e-02</leafValues></_>
        <_>
          <internalNodes>
            0 -1 39 1.3330977410078049e-02</internalNodes>
          <leafValues>
            -1.0518310964107513e-01 6.3474386930465698e-01</leafValues></_>
        <_>
          <internalNodes>
            0 -1 32 -7.9714171588420868e-03</internalNodes>
          <leafValues>
            3.8317987322807312e-01 -9.6645034849643707e-02</leafValues></_>
        <_>
          <internalNodes>
            0 -1 195 1.8795683979988098e-02</internalNodes>
          <leafValues>
            -3.1715359538793564e-02 7.0932418107986450e-01</leafValues></_>
        <_>
          <internalNodes>
            0 -1 460 -9.8396902903914452e-03</internalNodes>
          <leafValues>
            4.0561941266059875e-01 -9.3631267547607422e-02</leafValues></_>
        <_>
          <internalNodes>
            0 -1 137 1.0182095691561699e-02</internalNodes>
          <leafValues>
            -7.0887155830860138e-02 5.9213548898696899e-01</leafValues></_>
        <_>
          <internalNodes>
            0 -1 285 -9.7887944430112839e-03</internalNodes>
          <leafValues>
            -8.7526071071624756e-01 5.3154844790697098e-02</leafValues></_>
        <_>
          <internalNodes>
            0 -1 10 -1.8691483885049820e-02</internalNodes>
          <leafValues>
            4.6329614520072937e-01 -7.2332501411437988e-02</leafValues></_>
        <_>
          <internalNodes>
            0 -1 151 4.9002826213836670e-02</internalNodes>
          <leafValues>
            5.0028048455715179e-02 -7.2059172391891479e-01</leafValues></_>
        <_>
          <internalNodes>
            0 -1 293 7.3630407452583313e-02</internalNodes>
          <leafValues>
            -6.2344986945390701e-02 4.5003473758697510e-01</leafValues></_>
        <_>
          <internalNodes>
            0 -1 226 8.9677348732948303e-02</internalNodes>
          <leafValues>
            5.9117369353771210e-02 -6.0057806968688965e-01</leafValues></_>
        <_>
          <internalNodes>
            0 -1 82 -1.5062034362927079e-03</internalNodes>
          <leafValues>
            2.4595423042774200e-01 -1.4194102585315704e-01</leafValues></_>
        <_>
          <internalNodes>
            0 -1 416 -7.6094823889434338e-03</internalNodes>
          <leafValues>
            -6.1413234472274780e-01 4.9269121140241623e-02</leafValues></_>
        <_>
          <internalNodes>
            0 -1 458 -5.7892007753252983e-03</internalNodes>
          <leafValues>
            3.6895781755447388e-01 -1.0346736013889313e-01</leafValues></_>
        <_>
          <internalNodes>
            0 -1 288 6.8297595717012882e-03</internalNodes>
          <leafValues>
            6.0218438506126404e-02 -4.9505060911178589e-01</leafValues></_>
        <_>
          <internalNodes>
            0 -1 495 2.9512979090213776e-03</internalNodes>
          <leafValues>
            -1.0211482644081116e-01 3.7299004197120667e-01</leafValues></_>
        <_>
          <internalNodes>
            0 -1 436 5.5457209236919880e-03</internalNodes>
          <leafValues>
            1.0203547030687332e-01 -3.3684572577476501e-01</leafValues></_>
        <_>
          <internalNodes>
            0 -1 439 1.0335626080632210e-02</internalNodes>
          <leafValues>
            1.2813057005405426e-01 -3.2982221245765686e-01</leafValues></_>
        <_>
          <internalNodes>
            0 -1 518 3.0037444084882736e-03</internalNodes>
          <leafValues>
            -7.5749196112155914e-02 5.4854053258895874e-01</leafValues></_>
        <_>
          <internalNodes>
            0 -1 552 -3.4062383929267526e-04</internalNodes>
          <leafValues>
            -2.6659828424453735e-01 1.5035289525985718e-01</leafValues></_>
        <_>
          <internalNodes>
            0 -1 540 -6.6602700389921665e-03</internalNodes>
          <leafValues>
            5.2375328540802002e-01 -7.2740994393825531e-02</leafValues></_>
        <_>
          <internalNodes>
            0 -1 563 -2.6140410918742418e-03</internalNodes>
          <leafValues>
            4.3379226326942444e-01 -6.4779639244079590e-02</leafValues></_>
        <_>
          <internalNodes>
            0 -1 113 -2.0618099719285965e-02</internalNodes>
          <leafValues>
            -6.0959118604660034e-01 5.7100474834442139e-02</leafValues></_>
        <_>
          <internalNodes>
            0 -1 309 -2.9930206947028637e-03</internalNodes>
          <leafValues>
            3.9918944239616394e-01 -9.1825254261493683e-02</leafValues></_>
        <_>
          <internalNodes>
            0 -1 286 -7.0429965853691101e-03</internalNodes>
          <leafValues>
            -4.0229222178459167e-01 1.0109090805053711e-01</leafValues></_>
        <_>
          <internalNodes>
            0 -1 257 -3.3377356827259064e-02</internalNodes>
          <leafValues>
            -6.1460721492767334e-01 6.0641258955001831e-02</leafValues></_>
        <_>
          <internalNodes>
            0 -1 202 -7.6469093561172485e-02</internalNodes>
          <leafValues>
            -6.4277231693267822e-01 4.7342248260974884e-02</leafValues></_>
        <_>
          <internalNodes>
            0 -1 334 2.1944617852568626e-02</internalNodes>
          <leafValues>
            5.0962004810571671e-02 -6.2282234430313110e-01</leafValues></_>
        <_>
          <internalNodes>
            0 -1 349 -1.0353452526032925e-03</internalNodes>
          <leafValues>
            2.4869677424430847e-01 -1.5260177850723267e-01</leafValues></_>
        <_>
          <internalNodes>
            0 -1 430 -6.0804851353168488e-02</internalNodes>
          <leafValues>
            5.1213455200195313e-01 -7.4840426445007324e-02</leafValues></_>
        <_>
          <internalNodes>
            0 -1 456 -2.5418456643819809e-02</internalNodes>
          <leafValues>
            -6.3012206554412842e-01 6.3122034072875977e-02</leafValues></_>
        <_>
          <internalNodes>
            0 -1 142 -9.6061360090970993e-03</internalNodes>
          <leafValues>
            -3.0482158064842224e-01 1.0457529127597809e-01</leafValues></_>
        <_>
          <internalNodes>
            0 -1 347 -1.6332983970642090e-02</internalNodes>
          <leafValues>
            -5.7634973526000977e-01 6.0569379478693008e-02</leafValues></_>
        <_>
          <internalNodes>
            0 -1 156 3.1852645333856344e-03</internalNodes>
          <leafValues>
            -9.3511328101158142e-02 3.6802083253860474e-01</leafValues></_>
        <_>
          <internalNodes>
            0 -1 189 1.1211782693862915e-02</internalNodes>
          <leafValues>
            1.0425116866827011e-01 -3.1477341055870056e-01</leafValues></_>
        <_>
          <internalNodes>
            0 -1 516 3.2561137340962887e-03</internalNodes>
          <leafValues>
            -8.1134729087352753e-02 4.0084064006805420e-01</leafValues></_>
        <_>
          <internalNodes>
            0 -1 174 -3.0097421258687973e-03</internalNodes>
          <leafValues>
            3.5430869460105896e-01 -9.2681623995304108e-02</leafValues></_>
        <_>
          <internalNodes>
            0 -1 242 -3.0353622511029243e-02</internalNodes>
          <leafValues>
            -6.6710603237152100e-01 5.6670714169740677e-02</leafValues></_>
        <_>
          <internalNodes>
            0 -1 230 2.2093364968895912e-03</internalNodes>
          <leafValues>
            -1.2827615439891815e-01 2.9436182975769043e-01</leafValues></_>
        <_>
          <internalNodes>
            0 -1 300 5.7153687812387943e-03</internalNodes>
          <leafValues>
            8.2481697201728821e-02 -4.4381844997406006e-01</leafValues></_>
        <_>
          <internalNodes>
            0 -1 104 -1.4096708036959171e-03</internalNodes>
          <leafValues>
            -2.8799900412559509e-01 1.3002277910709381e-01</leafValues></_>
        <_>
          <internalNodes>
            0 -1 421 -1.5711989253759384e-03</internalNodes>
          <leafValues>
            -4.4020974636077881e-01 8.6287587881088257e-02</leafValues></_></weakClassifiers></_>
    <!-- stage 12 -->
    <_>
      <maxWeakCount>41</maxWeakCount>
      <stageThreshold>-7.8336966037750244e-01</stageThreshold>
      <weakClassifiers>
        <_>
          <internalNodes>
            0 -1 75 -1.0211812332272530e-02</internalNodes>
          <leafValues>
            5.8857142925262451e-01 -8.4081634879112244e-02</leafValues></_>
        <_>
          <internalNodes>
            0 -1 561 1.0895110666751862e-02</internalNodes>
          <leafValues>
            -6.2565721571445465e-02 6.4143109321594238e-01</leafValues></_>
        <_>
          <internalNodes>
            0 -1 154 -1.4065015129745007e-03</internalNodes>
          <leafValues>
            3.3848878741264343e-01 -1.4826919138431549e-01</leafValues></_>
        <_>
          <internalNodes>
            0 -1 91 6.6065089777112007e-03</internalNodes>
          <leafValues>
            -6.8129643797874451e-02 5.1982706785202026e-01</leafValues></_>
        <_>
          <internalNodes>
            0 -1 139 -3.8502821698784828e-03</internalNodes>
          <leafValues>
            6.2754100561141968e-01 -7.5815655291080475e-02</leafValues></_>
        <_>
          <internalNodes>
            0 -1 103 5.3010962437838316e-04</internalNodes>
          <leafValues>
            1.3928410410881042e-01 -2.7528390288352966e-01</leafValues></_>
        <_>
          <internalNodes>
            0 -1 264 2.3637726902961731e-02</internalNodes>
          <leafValues>
            -5.1925212144851685e-02 6.3380461931228638e-01</leafValues></_>
        <_>
          <internalNodes>
            0 -1 444 -7.0714801549911499e-03</internalNodes>
          <leafValues>
            -5.6442326307296753e-01 7.5756445527076721e-02</leafValues></_>
        <_>
          <internalNodes>
            0 -1 424 -2.3273497819900513e-02</internalNodes>
          <leafValues>
            4.0847361087799072e-01 -8.7083213031291962e-02</leafValues></_>
        <_>
          <internalNodes>
            0 -1 399 4.5983061194419861e-02</internalNodes>
          <leafValues>
            -5.8759577572345734e-02 5.2449357509613037e-01</leafValues></_>
        <_>
          <internalNodes>
            0 -1 387 1.9117172807455063e-02</internalNodes>
          <leafValues>
            -1.2998308241367340e-01 2.9134207963943481e-01</leafValues></_>
        <_>
          <internalNodes>
            0 -1 79 -2.9125854372978210e-02</internalNodes>
          <leafValues>
            -6.3666981458663940e-01 5.2967973053455353e-02</leafValues></_>
        <_>
          <internalNodes>
            0 -1 88 9.4626564532518387e-03</internalNodes>
          <leafValues>
            1.0683253407478333e-01 -4.0209934115409851e-01</leafValues></_>
        <_>
          <internalNodes>
            0 -1 294 6.1494084075093269e-03</internalNodes>
          <leafValues>
            -6.5533190965652466e-02 5.9691601991653442e-01</leafValues></_>
        <_>
          <internalNodes>
            0 -1 344 -8.1988079473376274e-03</internalNodes>
          <leafValues>
            -6.4417272806167603e-01 5.9455938637256622e-02</leafValues></_>
        <_>
          <internalNodes>
            0 -1 224 -5.9756848961114883e-02</internalNodes>
          <leafValues>
            -5.5432921648025513e-01 6.0882810503244400e-02</leafValues></_>
        <_>
          <internalNodes>
            0 -1 58 -6.9339349865913391e-02</internalNodes>
          <leafValues>
            3.1324610114097595e-01 -1.3694776594638824e-01</leafValues></_>
        <_>
          <internalNodes>
            0 -1 350 3.7677919026464224e-03</internalNodes>
          <leafValues>
            -1.1368791759014130e-01 3.6172693967819214e-01</leafValues></_>
        <_>
          <internalNodes>
            0 -1 336 3.5322492476552725e-04</internalNodes>
          <leafValues>
            2.0610131323337555e-01 -1.9882237911224365e-01</leafValues></_>
        <_>
          <internalNodes>
            0 -1 512 1.1551966890692711e-03</internalNodes>
          <leafValues>
            -1.3387855887413025e-01 2.9139333963394165e-01</leafValues></_>
        <_>
          <internalNodes>
            0 -1 567 -1.6361600719392300e-03</internalNodes>
          <leafValues>
            2.0352084934711456e-01 -1.6126371920108795e-01</leafValues></_>
        <_>
          <internalNodes>
            0 -1 400 6.3075171783566475e-03</internalNodes>
          <leafValues>
            -1.1175009608268738e-01 3.1135556101799011e-01</leafValues></_>
        <_>
          <internalNodes>
            0 -1 384 3.5428209230303764e-03</internalNodes>
          <leafValues>
            -9.5083206892013550e-02 3.6805129051208496e-01</leafValues></_>
        <_>
          <internalNodes>
            0 -1 500 -3.2794132828712463e-02</internalNodes>
          <leafValues>
            -4.0237072110176086e-01 8.6725622415542603e-02</leafValues></_>
        <_>
          <internalNodes>
            0 -1 423 9.5426114276051521e-03</internalNodes>
          <leafValues>
            -5.5663309991359711e-02 7.2418951988220215e-01</leafValues></_>
        <_>
          <internalNodes>
            0 -1 501 1.1798173189163208e-02</internalNodes>
          <leafValues>
            6.7008346319198608e-02 -6.3926178216934204e-01</leafValues></_>
        <_>
          <internalNodes>
            0 -1 474 -2.0980532281100750e-03</internalNodes>
          <leafValues>
            3.1796523928642273e-01 -1.2605309486389160e-01</leafValues></_>
        <_>
          <internalNodes>
            0 -1 38 2.6460103690624237e-02</internalNodes>
          <leafValues>
            4.3258339166641235e-02 -9.1720020771026611e-01</leafValues></_>
        <_>
          <internalNodes>
            0 -1 207 -1.6767405904829502e-03</internalNodes>
          <leafValues>
            3.6608457565307617e-01 -1.0316162556409836e-01</leafValues></_>
        <_>
          <internalNodes>
            0 -1 556 -8.7334273848682642e-04</internalNodes>
          <leafValues>
            -3.1930878758430481e-01 1.1087226122617722e-01</leafValues></_>
        <_>
          <internalNodes>
            0 -1 324 -5.0624781288206577e-03</internalNodes>
          <leafValues>
            2.2628131508827209e-01 -1.5283559262752533e-01</leafValues></_>
        <_>
          <internalNodes>
            0 -1 486 -1.1140193790197372e-02</internalNodes>
          <leafValues>
            4.5211473107337952e-01 -8.1761069595813751e-02</leafValues></_>
        <_>
          <internalNodes>
            0 -1 392 1.4758780598640442e-02</internalNodes>
          <leafValues>
            8.0945238471031189e-02 -4.6042570471763611e-01</leafValues></_>
        <_>
          <internalNodes>
            0 -1 367 -1.7368812114000320e-03</internalNodes>
          <leafValues>
            -3.2435905933380127e-01 1.0963784158229828e-01</leafValues></_>
        <_>
          <internalNodes>
            0 -1 370 2.9131004703231156e-04</internalNodes>
          <leafValues>
            1.4470951259136200e-01 -2.4227954447269440e-01</leafValues></_>
        <_>
          <internalNodes>
            0 -1 181 -4.8182681202888489e-03</internalNodes>
          <leafValues>
            3.4436166286468506e-01 -9.6856340765953064e-02</leafValues></_>
        <_>
          <internalNodes>
            0 -1 53 -1.6424134373664856e-02</internalNodes>
          <leafValues>
            2.1933268010616302e-01 -1.5689732134342194e-01</leafValues></_>
        <_>
          <internalNodes>
            0 -1 296 -2.7328167110681534e-02</internalNodes>
          <leafValues>
            -8.4148406982421875e-01 5.2450921386480331e-02</leafValues></_>
        <_>
          <internalNodes>
            0 -1 502 -2.6600046548992395e-03</internalNodes>
          <leafValues>
            5.2234494686126709e-01 -7.7314540743827820e-02</leafValues></_>
        <_>
          <internalNodes>
            0 -1 35 3.6710582673549652e-02</internalNodes>
          <leafValues>
            -3.2083421945571899e-02 8.5436713695526123e-01</leafValues></_>
        <_>
          <internalNodes>
            0 -1 235 -5.4472953081130981e-02</internalNodes>
          <leafValues>
            4.9998658895492554e-01 -6.5816268324851990e-02</leafValues></_></weakClassifiers></_>
    <!-- stage 13 -->
    <_>
      <maxWeakCount>33</maxWeakCount>
      <stageThreshold>-8.8054513931274414e-01</stageThreshold>
      <weakClassifiers>
        <_>
          <internalNodes>
            0 -1 412 -3.2570827752351761e-03</internalNodes>
          <leafValues>
            5.8454108238220215e-01 -1.0142497718334198e-01</leafValues></_>
        <_>
          <internalNodes>
            0 -1 40 -1.2031273916363716e-02</internalNodes>
          <leafValues>
            7.2820633649826050e-01 -5.0939176231622696e-02</leafValues></_>
        <_>
          <internalNodes>
            0 -1 558 1.8126886337995529e-02</internalNodes>
          <leafValues>
            -7.8875944018363953e-02 7.8951722383499146e-01</leafValues></_>
        <_>
          <internalNodes>
            0 -1 7 -1.5902829170227051e-01</internalNodes>
          <leafValues>
            2.4356646835803986e-01 -1.8893229961395264e-01</leafValues></_>
        <_>
          <internalNodes>
            0 -1 275 7.5586950406432152e-03</internalNodes>
          <leafValues>
            -1.2733934819698334e-01 3.1764769554138184e-01</leafValues></_>
        <_>
          <internalNodes>
            0 -1 31 -1.0020215064287186e-02</internalNodes>
          <leafValues>
            4.5750001072883606e-01 -9.0852804481983185e-02</leafValues></_>
        <_>
          <internalNodes>
            0 -1 492 3.7889650557190180e-03</internalNodes>
          <leafValues>
            1.4282497763633728e-01 -2.7980539202690125e-01</leafValues></_>
        <_>
          <internalNodes>
            0 -1 354 -9.2263072729110718e-02</internalNodes>
          <leafValues>
            -7.8994524478912354e-01 6.9932788610458374e-02</leafValues></_>
        <_>
          <internalNodes>
            0 -1 192 -9.7431251779198647e-03</internalNodes>
          <leafValues>
            5.1350784301757813e-01 -8.4356404840946198e-02</leafValues></_>
        <_>
          <internalNodes>
            0 -1 16 1.0358498990535736e-01</internalNodes>
          <leafValues>
            7.0910573005676270e-02 -6.0745817422866821e-01</leafValues></_>
        <_>
          <internalNodes>
            0 -1 165 -4.1027520783245564e-03</internalNodes>
          <leafValues>
            7.2248786687850952e-01 -6.5966695547103882e-02</leafValues></_>
        <_>
          <internalNodes>
            0 -1 178 -4.6811103820800781e-03</internalNodes>
          <leafValues>
            8.8576692342758179e-01 -3.5926390439271927e-02</leafValues></_>
        <_>
          <internalNodes>
            0 -1 182 -2.0280608907341957e-02</internalNodes>
          <leafValues>
            -7.1523773670196533e-01 5.6457541882991791e-02</leafValues></_>
        <_>
          <internalNodes>
            0 -1 141 1.1198926717042923e-02</internalNodes>
          <leafValues>
            7.9108722507953644e-02 -4.9724102020263672e-01</leafValues></_>
        <_>
          <internalNodes>
            0 -1 208 -1.4355396851897240e-03</internalNodes>
          <leafValues>
            2.6996546983718872e-01 -1.4405831694602966e-01</leafValues></_>
        <_>
          <internalNodes>
            0 -1 479 1.0584490373730659e-02</internalNodes>
          <leafValues>
            -7.1074403822422028e-02 5.2202492952346802e-01</leafValues></_>
        <_>
          <internalNodes>
            0 -1 475 -7.1922820061445236e-03</internalNodes>
          <leafValues>
            3.8576549291610718e-01 -1.0190118849277496e-01</leafValues></_>
        <_>
          <internalNodes>
            0 -1 234 -1.9674951210618019e-02</internalNodes>
          <leafValues>
            5.1899790763854980e-01 -7.5560227036476135e-02</leafValues></_>
        <_>
          <internalNodes>
            0 -1 229 1.0991249000653625e-03</internalNodes>
          <leafValues>
            1.4406263828277588e-01 -3.0221533775329590e-01</leafValues></_>
        <_>
          <internalNodes>
            0 -1 555 -1.4488123357295990e-02</internalNodes>
          <leafValues>
            -5.0363063812255859e-01 7.2492703795433044e-02</leafValues></_>
        <_>
          <internalNodes>
            0 -1 77 2.4424789473414421e-02</internalNodes>
          <leafValues>
            5.9542685747146606e-02 -6.3786906003952026e-01</leafValues></_>
        <_>
          <internalNodes>
            0 -1 21 5.8410847559571266e-03</internalNodes>
          <leafValues>
            -1.0339609533548355e-01 4.2639812827110291e-01</leafValues></_>
        <_>
          <internalNodes>
            0 -1 565 1.4203272759914398e-02</internalNodes>
          <leafValues>
            -7.0999197661876678e-02 6.0319662094116211e-01</leafValues></_>
        <_>
          <internalNodes>
            0 -1 427 -3.3575827255845070e-03</internalNodes>
          <leafValues>
            2.9902383685112000e-01 -1.3127227127552032e-01</leafValues></_>
        <_>
          <internalNodes>
            0 -1 45 -3.3383410423994064e-02</internalNodes>
          <leafValues>
            -5.6162434816360474e-01 7.7602207660675049e-02</leafValues></_>
        <_>
          <internalNodes>
            0 -1 503 -2.9390284791588783e-02</internalNodes>
          <leafValues>
            -8.7129074335098267e-01 3.7378139793872833e-02</leafValues></_>
        <_>
          <internalNodes>
            0 -1 513 -2.1410444751381874e-03</internalNodes>
          <leafValues>
            3.4192276000976563e-01 -1.4749939739704132e-01</leafValues></_>
        <_>
          <internalNodes>
            0 -1 193 -5.5775120854377747e-03</internalNodes>
          <leafValues>
            -6.1334913969039917e-01 7.3694460093975067e-02</leafValues></_>
        <_>
          <internalNodes>
            0 -1 408 2.3250330239534378e-02</internalNodes>
          <leafValues>
            5.6058004498481750e-02 -6.5237718820571899e-01</leafValues></_>
        <_>
          <internalNodes>
            0 -1 289 1.0985730215907097e-02</internalNodes>
          <leafValues>
            7.6449260115623474e-02 -4.9338021874427795e-01</leafValues></_>
        <_>
          <internalNodes>
            0 -1 520 2.0378348417580128e-03</internalNodes>
          <leafValues>
            -7.7150560915470123e-02 5.6043821573257446e-01</leafValues></_>
        <_>
          <internalNodes>
            0 -1 221 -1.9957311451435089e-03</internalNodes>
          <leafValues>
            4.3838867545127869e-01 -9.4080209732055664e-02</leafValues></_>
        <_>
          <internalNodes>
            0 -1 521 -4.1180453263223171e-04</internalNodes>
          <leafValues>
            -2.9799696803092957e-01 1.5716877579689026e-01</leafValues></_></weakClassifiers></_>
    <!-- stage 14 -->
    <_>
      <maxWeakCount>35</maxWeakCount>
      <stageThreshold>-9.0293008089065552e-01</stageThreshold>
      <weakClassifiers>
        <_>
          <internalNodes>
            0 -1 381 1.0203087702393532e-02</internalNodes>
          <leafValues>
            -6.1255741864442825e-02 8.5106384754180908e-01</leafValues></_>
        <_>
          <internalNodes>
            0 -1 270 3.3580891788005829e-02</internalNodes>
          <leafValues>
            4.4452406466007233e-02 -7.1918469667434692e-01</leafValues></_>
        <_>
          <internalNodes>
            0 -1 441 -2.3298356682062149e-03</internalNodes>
          <leafValues>
            4.0119197964668274e-01 -1.0502480715513229e-01</leafValues></_>
        <_>
          <internalNodes>
            0 -1 199 -2.5813113898038864e-02</internalNodes>
          <leafValues>
            3.1067606806755066e-01 -1.3003110885620117e-01</leafValues></_>
        <_>
          <internalNodes>
            0 -1 272 1.3087926432490349e-02</internalNodes>
          <leafValues>
            -1.9047500193119049e-01 2.9170131683349609e-01</leafValues></_>
        <_>
          <internalNodes>
            0 -1 122 2.9811300337314606e-03</internalNodes>
          <leafValues>
            -6.2948897480964661e-02 5.6454735994338989e-01</leafValues></_>
        <_>
          <internalNodes>
            0 -1 538 3.0124301556497812e-03</internalNodes>
          <leafValues>
            -8.6123771965503693e-02 5.0807118415832520e-01</leafValues></_>
        <_>
          <internalNodes>
            0 -1 51 -2.6292569935321808e-02</internalNodes>
          <leafValues>
            3.4518989920616150e-01 -1.1447589099407196e-01</leafValues></_>
        <_>
          <internalNodes>
            0 -1 457 -2.3094094358384609e-03</internalNodes>
          <leafValues>
            3.6337253451347351e-01 -1.0340956598520279e-01</leafValues></_>
        <_>
          <internalNodes>
            0 -1 145 2.4498004466295242e-02</internalNodes>
          <leafValues>
            5.6234508752822876e-02 -7.1010899543762207e-01</leafValues></_>
        <_>
          <internalNodes>
            0 -1 162 3.6236463347449899e-04</internalNodes>
          <leafValues>
            1.6966554522514343e-01 -2.2407676279544830e-01</leafValues></_>
        <_>
          <internalNodes>
            0 -1 534 -2.4763905094005167e-04</internalNodes>
          <leafValues>
            2.1034930646419525e-01 -1.7422291636466980e-01</leafValues></_>
        <_>
          <internalNodes>
            0 -1 83 3.3997786231338978e-03</internalNodes>
          <leafValues>
            1.2424650043249130e-01 -3.3512324094772339e-01</leafValues></_>
        <_>
          <internalNodes>
            0 -1 107 -1.5537816286087036e-01</internalNodes>
          <leafValues>
            -9.0188199281692505e-01 3.0429288744926453e-02</leafValues></_>
        <_>
          <internalNodes>
            0 -1 396 -6.3469298183917999e-03</internalNodes>
          <leafValues>
            2.2258470952510834e-01 -1.7449858784675598e-01</leafValues></_>
        <_>
          <internalNodes>
            0 -1 330 3.8160063326358795e-02</internalNodes>
          <leafValues>
            7.2894401848316193e-02 -5.9591436386108398e-01</leafValues></_>
        <_>
          <internalNodes>
            0 -1 213 5.3243460133671761e-03</internalNodes>
          <leafValues>
            -1.2430521845817566e-01 3.6130577325820923e-01</leafValues></_>
        <_>
          <internalNodes>
            0 -1 152 1.7364278435707092e-02</internalNodes>
          <leafValues>
            6.2857247889041901e-02 -7.4159592390060425e-01</leafValues></_>
        <_>
          <internalNodes>
            0 -1 59 1.7601851373910904e-02</internalNodes>
          <leafValues>
            9.5786169171333313e-02 -3.8064342737197876e-01</leafValues></_>
        <_>
          <internalNodes>
            0 -1 228 -3.2415883615612984e-03</internalNodes>
          <leafValues>
            4.2503342032432556e-01 -9.4464354217052460e-02</leafValues></_>
        <_>
          <internalNodes>
            0 -1 260 -1.0092101991176605e-02</internalNodes>
          <leafValues>
            9.1830617189407349e-01 -4.1199535131454468e-02</leafValues></_>
        <_>
          <internalNodes>
            0 -1 125 2.3830980062484741e-02</internalNodes>
          <leafValues>
            6.4965821802616119e-02 -6.9004017114639282e-01</leafValues></_>
        <_>
          <internalNodes>
            0 -1 327 -3.1473428010940552e-02</internalNodes>
          <leafValues>
            4.0211477875709534e-01 -1.0501839965581894e-01</leafValues></_>
        <_>
          <internalNodes>
            0 -1 451 -1.4702877402305603e-01</internalNodes>
          <leafValues>
            -6.7979133129119873e-01 7.3659129440784454e-02</leafValues></_>
        <_>
          <internalNodes>
            0 -1 418 1.7149001359939575e-02</internalNodes>
          <leafValues>
            1.1125677078962326e-01 -3.2285127043724060e-01</leafValues></_>
        <_>
          <internalNodes>
            0 -1 397 -1.0617190040647984e-02</internalNodes>
          <leafValues>
            2.8384649753570557e-01 -1.4300486445426941e-01</leafValues></_>
        <_>
          <internalNodes>
            0 -1 410 -1.3233739882707596e-02</internalNodes>
          <leafValues>
            -6.8146491050720215e-01 5.7183619588613510e-02</leafValues></_>
        <_>
          <internalNodes>
            0 -1 525 -2.1177485585212708e-02</internalNodes>
          <leafValues>
            -7.2939354181289673e-01 6.1088204383850098e-02</leafValues></_>
        <_>
          <internalNodes>
            0 -1 304 6.2289950437843800e-03</internalNodes>
          <leafValues>
            -1.0037038475275040e-01 4.3862184882164001e-01</leafValues></_>
        <_>
          <internalNodes>
            0 -1 566 2.8513735160231590e-03</internalNodes>
          <leafValues>
            -1.3556401431560516e-01 3.0350357294082642e-01</leafValues></_>
        <_>
          <internalNodes>
            0 -1 157 1.1327186599373817e-02</internalNodes>
          <leafValues>
            -5.3269468247890472e-02 7.4525159597396851e-01</leafValues></_>
        <_>
          <internalNodes>
            0 -1 256 -8.4426980465650558e-03</internalNodes>
          <leafValues>
            -6.0617804527282715e-01 7.7723883092403412e-02</leafValues></_>
        <_>
          <internalNodes>
            0 -1 363 9.0063605457544327e-03</internalNodes>
          <leafValues>
            9.0579882264137268e-02 -4.0394717454910278e-01</leafValues></_>
        <_>
          <internalNodes>
            0 -1 271 -4.2208889499306679e-03</internalNodes>
          <leafValues>
            2.5219559669494629e-01 -1.5257965028285980e-01</leafValues></_>
        <_>
          <internalNodes>
            0 -1 84 1.7388712614774704e-02</internalNodes>
          <leafValues>
            7.5831145048141479e-02 -5.3700202703475952e-01</leafValues></_></weakClassifiers></_>
    <!-- stage 15 -->
    <_>
      <maxWeakCount>38</maxWeakCount>
      <stageThreshold>-8.8023620843887329e-01</stageThreshold>
      <weakClassifiers>
        <_>
          <internalNodes>
            0 -1 250 -1.9220798276364803e-03</internalNodes>
          <leafValues>
            3.1548756361007690e-01 -1.8814139068126678e-01</leafValues></_>
        <_>
          <internalNodes>
            0 -1 404 -9.2645203694701195e-03</internalNodes>
          <leafValues>
            7.9548931121826172e-01 -5.2876703441143036e-02</leafValues></_>
        <_>
          <internalNodes>
