SVM-light Version V6.02
0 # kernel type
3 # kernel parameter -d 
1 # kernel parameter -g 
1 # kernel parameter -s 
1 # kernel parameter -r 
empty# kernel parameter -u 
1089 # highest feature index 
1500 # number of training documents 
107 # number of support vectors plus 1 
-0.80980381 # threshold b, each following line is a SV (starting with alpha*y)
-0.0043521730754673364 1:0.3912138 2:0.3912138 3:0.3912138 4:0.29277861 5:0.32455951 6:0.17050339 7:0.1823817 8:0.36125681 9:0.3912138 10:0.52244049 11:0.2355973 12:0.41565809 13:0.31003001 14:0.1487904 15:0.25097549 16:0.1244053 17:0.1545774 18:0.52244049 19:0.39657229 20:0.19581141 21:0.33380869 22:0.1975092 23:0.39657229 24:0.39657229 25:0.39657229 26:0.14460389 27:0.39657229 28:0.43108329 29:0.34815589 30:0.2100186 31:0.1233498 32:0.2238674 33:0.2383678 34:0.38823211 35:0.43108329 36:0.43108329 37:0.49456301 38:0.49456301 39:0.1479979 40:0.3231006 41:0.1483518 42:0.188272 43:0.03571194 44:0.27614391 45:0.49456301 46:0.46934551 47:0.34644949 48:0.1131966 49:0.1213344 50:0.32617909 51:0.4692277 52:0.13703731 53:0.248661 54:0.46934551 55:0.47167119 56:0.2740702 57:0.077964611 58:0.42009619 59:0.47167119 60:0.1749395 61:0.078053303 62:0.1830238 63:0.47167119 64:0.40450001 65:0.40450001 66:0.2467995 67:0.3672258 68:0.3106803 69:0.2102333 70:0.070661142 71:0.40450001 72:0.40450001 73:0.37129411 74:0.36711881 75:0.131669 76:0.35357511 77:0.37129411 78:0.37129411 79:0.17281701 80:0.37129411 81:0.37129411 82:0.34991351 83:0.34991351 84:0.1999007 85:0.34991351 86:0.34991351 87:0.34991351 88:0.34991351 89:0.31538481 90:0.34991351 91:0.3793065 92:0.21477941 93:0.094021752 94:0.2792846 95:0.3793065 96:0.3793065 97:0.3793065 98:0.3793065 99:0.3793065 100:0.33277869 101:0.33277869 102:0.33277869 103:0.33277869 104:0.33277869 105:0.33277869 106:0.33277869 107:0.33277869 108:0.33277869 109:0.36099601 110:0.36099601 111:0.36099601 112:0.36099601 113:0.36099601 114:0.32933471 115:0.2147329 116:0.2447717 117:0.36099601 118:0.40349731 119:0.40349731 120:0.22531611 121:0.23642039 122:0.40349731 123:0.35761759 124:0.1946121 125:0.26889139 126:0.40349731 127:0.47843251 128:0.37910089 129:0.102678 130:0.087183326 131:0.2689549 132:0.2490157 133:0.1110039 134:0.47843251 135:0.47843251 136:0.47662681 137:0.29802039 138:0.2225647 139:0.3646923 140:0.2352118 141:0.21005221 142:0.1585227 143:0.3807435 144:0.47662681 145:0.37845799 146:0.26841879 147:0.1970773 148:0.37845799 149:0.37845799 150:0.37845799 151:0.37845799 152:0.1610842 153:0.37845799 154:0.41251051 155:0.41251051 156:0.1449962 157:0.41251051 158:0.3113319 159:0.1117801 160:0.40954411 161:0.1305631 162:0.41251051 163:0.42830271 164:0.35001439 165:0.25082231 166:0.313292 167:0.42830271 168:0.33942449 169:0.076319173 170:0.20195191 171:0.42830271 172:0.3966445 173:0.3966445 174:0.1450801 175:0.15802041 176:0.3966445 177:0.3966445 178:0.077831663 179:0.3966445 180:0.3966445 181:0.38038471 182:0.2521472 183:0.38038471 184:0.38038471 185:0.38038471 186:0.2449341 187:0.066888072 188:0.38038471 189:0.38038471 190:0.41287261 191:0.1306549 192:0.15295909 193:0.41287261 194:0.41287261 195:0.41287261 196:0.27252749 197:0.16975901 198:0.41287261 199:0.31371149 200:0.35249811 201:0.35249811 202:0.35249811 203:0.35249811 204:0.35249811 205:0.33961701 206:0.1928584 207:0.35249811 208:0.49257869 209:0.244908 210:0.49257869 211:0.1017711 212:0.22461531 213:0.25750139 214:0.063846193 215:0.2756927 216:0.49257869 217:0.40851659 218:0.40851659 219:0.40851659 220:0.02220257 221:0.17954651 222:0.29604971 223:0.2027673 224:0.40851659 225:0.40851659 226:0.52222461 227:0.52222461 228:0.1735903 229:0.02654594 230:0.01505029 231:0.037413821 232:0.017194159 233:0.37930039 234:0.52222461 235:0.48797289 236:0.48797289 237:0.017023651 238:0.0047409148 239:0.00068627938 240:0.099977627 241:0.1798548 242:0.48797289 243:0.48797289 244:0.51442772 245:0.2341613 246:0.066678166 247:0.25992751 248:0.12764581 249:0.1112479 250:0.21317931 251:0.51442772 252:0.51442772 253:0.55866301 254:0.48691481 255:0.1417498 256:0.1394389 257:0.062569991 258:0.077026553 259:0.2052404 260:0.2040066 261:0.55866301 262:0.64328271 263:0.28000391 264:0.1137399 265:0.0089645796 266:0.067481384 267:0.16458809 268:0.100239 269:0.1812242 270:0.64328271 271:0.57179523 272:0.1932601 273:0.03437192 274:0.01787425 275:0.019562401 276:0.047874462 277:0.037025869 278:0.54543102 279:0.57179523 280:0.49329019 281:0.49329019 282:0.131249 283:0.042059921 284:0.025201499 285:0.041056 286:0.020396771 287:0.49329019 288:0.49329019 289:0.49230611 290:0.40786681 291:0.23142271 292:0.13781971 293:0.1268914 294:0.1723015 295:0.088089332 296:0.466795 297:0.49230611 298:0.139476 299:0.39181679 300:0.39869571 301:0.39869571 302:0.39869571 303:0.39869571 304:0.39869571 305:0.064258367 306:0.15531491 307:0.4053663 308:0.26544261 309:0.4053663 310:0.4053663 311:0.4053663 312:0.16072971 313:0.26330081 314:0.093382843 315:0.4053663 316:0.27434719 317:0.075506262 318:0.19562019 319:0.3472212 320:0.4822962 321:0.4822962 322:0.2376263 323:0.41598389 324:0.2462869 325:0.37767711 326:0.37767711 327:0.37767711 328:0.26376399 329:0.1603352 330:0.2123865 331:0.37767711 332:0.37767711 333:0.37767711 334:0.44720459 335:0.29357651 336:0.1661043 337:0.008304107 338:0.02949395 339:0.2843388 340:0.44720459 341:0.44720459 342:0.44720459 343:0.370992 344:0.077402249 345:0.1936833 346:0.35634089 347:0.370992 348:0.370992 349:0.370992 350:0.370992 351:0.370992 352:0.42413649 353:0.1743414 354:0.12802839 355:0.1074919 356:0.19484159 357:0.42413649 358:0.42413649 359:0.42413649 360:0.42413649 361:0.39555451 362:0.39555451 363:0.1003487 364:0.082081087 365:0.2011494 366:0.39555451 367:0.39555451 368:0.39555451 369:0.39555451 370:0.35185131 371:0.35185131 372:0.26233861 373:0.35185131 374:0.2471194 375:0.35185131 376:0.35185131 377:0.35185131 378:0.35185131 379:0.34882611 380:0.34882611 381:0.34882611 382:0.34882611 383:0.30332819 384:0.22967251 385:0.34882611 386:0.34882611 387:0.34882611 388:0.34934309 389:0.34934309 390:0.34934309 391:0.34934309 392:0.1420732 393:0.34934309 394:0.34934309 395:0.34934309 396:0.34934309 397:0.03740713 398:0.13379981 399:0.4761247 400:0.4761247 401:0.4761247 402:0.4761247 403:0.1446771 404:0.16104899 405:0.14931761 406:0.00067924598 407:0.053079139 408:0.47705781 409:0.59725922 410:0.59725922 411:0.2206192 412:0.0390439 413:0 414:0 415:0.0031099671 416:0.03862153 417:0.1587178 418:0.55903482 419:0.55903482 420:0.55903482 421:0.1684452 422:0.037281562 423:0.0200378 424:0.4022575 425:0.096471481 426:0.1695129 427:0.32910419 428:0.4022575 429:0.4022575 430:0.4022575 431:0.20143279 432:0.4022575 433:0.57026941 434:0.1198956 435:0.057926551 436:0.18425021 437:0.4920238 438:0.1525248 439:0.1063969 440:0.1246633 441:0.57026941 442:0.41357309 443:0.2316263 444:0.41357309 445:0.2355438 446:0.34662339 447:0.083323009 448:0.27472821 449:0.41357309 450:0.41357309 451:0.34860191 452:0.34860191 453:0.34860191 454:0.30301169 455:0.2441677 456:0.3405045 457:0.34860191 458:0.34860191 459:0.34860191 460:0.36090109 461:0.36090109 462:0.36090109 463:0.23025 464:0.17785449 465:0.36090109 466:0.36090109 467:0.36090109 468:0.36090109 469:0.3447755 470:0.3447755 471:0.2135279 472:0.3447755 473:0.3447755 474:0.3447755 475:0.3447755 476:0.3447755 477:0.3447755 478:0.36297011 479:0.36297011 480:0.196044 481:0.36297011 482:0.36297011 483:0.26209739 484:0.36297011 485:0.31426391 486:0.36297011 487:0.3421222 488:0.2453589 489:0.3421222 490:0.3421222 491:0.3421222 492:0.3421222 493:0.3421222 494:0.3421222 495:0.3421222 496:0.0085702129 497:0.1197501 498:0.40564749 499:0.44790071 500:0.44790071 501:0.44790071 502:0.44790071 503:0.1165634 504:0.022698799 505:0 506:0.002984039 507:0.1117183 508:0.64236557 509:0.73707789 510:0.1026466 511:0.1170442 512:0 513:0 514:0.18110029 515:0.15894569 516:0.15295979 517:0.53764409 518:0.53764409 519:0.53764409 520:0.1746776 521:0.1121571 522:0.053832699 523:0.30250239 524:0.32627231 525:0.3611944 526:0.3611944 527:0.3611944 528:0.3611944 529:0.3558706 530:0.139568 531:0.3611944 532:0.37767589 533:0.37767589 534:0.33454919 535:0.37767589 536:0.37767589 537:0.37767589 538:0.14245909 539:0.090414517 540:0.37767589 541:0.27418271 542:0.35994959 543:0.3239516 544:0.35994959 545:0.35994959 546:0.1972324 547:0.35994959 548:0.35994959 549:0.35994959 550:0.21480531 551:0.254704 552:0.17328981 553:0.38616449 554:0.38616449 555:0.38616449 556:0.38616449 557:0.33088079 558:0.38616449 559:0.3635473 560:0.32814229 561:0.20805959 562:0.3635473 563:0.3317757 564:0.3635473 565:0.27293459 566:0.3635473 567:0.3635473 568:0.34152591 569:0.28780061 570:0.34152591 571:0.3118962 572:0.34152591 573:0.34152591 574:0.34152591 575:0.34152591 576:0.34152591 577:0.37929109 578:0.1437647 579:0.37929109 580:0.37929109 581:0.29658279 582:0.31625459 583:0.37929109 584:0.37929109 585:0.26125729 586:0.2309202 587:0.13692041 588:0.41122669 589:0.41122669 590:0.41122669 591:0.33905399 592:0.41122669 593:0.27097279 594:0.2429141 595:0.01407794 596:0.096066967 597:0.44129989 598:0.44129989 599:0.44129989 600:0.44129989 601:0.44129989 602:0.1021547 603:0.044735529 604:0.25755689 605:0.025812469 606:0.27147871 607:0.2408496 608:0.78620172 609:0.27558291 610:0.18178891 611:0.00087850977 612:0.25755689 613:0.1697568 614:0.048819281 615:0.2584064 616:0.3941057 617:0.60031128 618:0.60031128 619:0.051487919 620:0.099148661 621:0.086506419 622:0.39912999 623:0.34899759 624:0.25473401 625:0.36804959 626:0.39912999 627:0.39912999 628:0.1406166 629:0.12989061 630:0.39912999 631:0.3738983 632:0.1126341 633:0.3738983 634:0.3738983 635:0.3738983 636:0.3738983 637:0.2367045 638:0.2979084 639:0.3738983 640:0.37499389 641:0.1082587 642:0.1827141 643:0.37674111 644:0.37674111 645:0.37674111 646:0.37674111 647:0.31755611 648:0.37674111 649:0.3869696 650:0.26175219 651:0.1543736 652:0.3869696 653:0.3869696 654:0.3869696 655:0.2497858 656:0.30441481 657:0.3869696 658:0.34817609 659:0.2426061 660:0.2984587 661:0.34817609 662:0.34817609 663:0.34817609 664:0.34817609 665:0.34817609 666:0.34817609 667:0.34812239 668:0.34812239 669:0.1721931 670:0.34430659 671:0.34812239 672:0.34812239 673:0.34812239 674:0.34812239 675:0.34812239 676:0.33277869 677:0.33277869 678:0.33277869 679:0.33277869 680:0.33277869 681:0.33277869 682:0.33277869 683:0.33277869 684:0.33277869 685:0.34634221 686:0.34634221 687:0.34634221 688:0.34634221 689:0.34634221 690:0.34634221 691:0.1921352 692:0.34634221 693:0.34634221 694:0.1008424 695:0.2842589 696:0.43463629 697:0.31300351 698:0.43463629 699:0.43463629 700:0.43463629 701:0.1848667 702:0.1300163 703:0.35378361 704:0.35378361 705:0.35378361 706:0.35378361 707:0.35378361 708:0.086878993 709:0.35378361 710:0.3358238 711:0.35378361 712:0.1801957 713:0.39772671 714:0.30093971 715:0.39772671 716:0.39772671 717:0.3070699 718:0.31279191 719:0.2193501 720:0.39772671 721:0.33890739 722:0.27883339 723:0.33890739 724:0.33890739 725:0.33890739 726:0.33890739 727:0.33890739 728:0.33890739 729:0.33890739 730:0.35557461 731:0.35557461 732:0.35557461 733:0.2943911 734:0.15731549 735:0.35557461 736:0.35557461 737:0.35557461 738:0.35557461 739:0.3549293 740:0.30765751 741:0.3549293 742:0.1909485 743:0.3549293 744:0.33089381 745:0.3549293 746:0.3549293 747:0.3549293 748:0.4095906 749:0.4095906 750:0.1885455 751:0.174676 752:0.1822201 753:0.2404591 754:0.4095906 755:0.4095906 756:0.4095906 757:0.3688212 758:0.3688212 759:0.25208411 760:0.28993139 761:0.2052054 762:0.35560381 763:0.3688212 764:0.3688212 765:0.3688212 766:0.3518039 767:0.3518039 768:0.234129 769:0.3518039 770:0.3518039 771:0.29186109 772:0.33747551 773:0.3518039 774:0.3518039 775:0.3848494 776:0.3848494 777:0.080594681 778:0.30001879 779:0.3848494 780:0.3848494 781:0.1048523 782:0.3848494 783:0.3848494 784:0.36707601 785:0.27387941 786:0.36707601 787:0.36707601 788:0.36707601 789:0.36707601 790:0.2802678 791:0.18521249 792:0.36707601 793:0.10741 794:0.35088411 795:0.35088411 796:0.35088411 797:0.35088411 798:0.35088411 799:0.35088411 800:0.35088411 801:0.35088411 802:0.2619665 803:0.34058231 804:0.34058231 805:0.34058231 806:0.34058231 807:0.34058231 808:0.34058231 809:0.34058231 810:0.34058231 811:0.35045341 812:0.35045341 813:0.35045341 814:0.35045341 815:0.35045341 816:0.35045341 817:0.27946019 818:0.2422345 819:0.35045341 820:0.38040751 821:0.38040751 822:0.38040751 823:0.1944284 824:0.38040751 825:0.38040751 826:0.27308309 827:0.1247552 828:0.38040751 829:0.36858869 830:0.36858869 831:0.36858869 832:0.073139817 833:0.20149671 834:0.36772501 835:0.36858869 836:0.36858869 837:0.36858869 838:0.41215581 839:0.41215581 840:0.13881721 841:0.0115812 842:0.1418834 843:0.32708639 844:0.41215581 845:0.41215581 846:0.41215581 847:0.48460251 848:0.48460251 849:0.1845274 850:0.02968538 851:0.063717648 852:0.02585838 853:0.2656711 854:0.42473519 855:0.48460251 856:0.38157979 857:0.38157979 858:0.38157979 859:0.1930308 860:0.2446081 861:0.1596083 862:0.38157979 863:0.38157979 864:0.38157979 865:0.26348761 866:0.31646559 867:0.34371701 868:0.34371701 869:0.34371701 870:0.34371701 871:0.34371701 872:0.34371701 873:0.34371701 874:0.3669571 875:0.3136242 876:0.35337329 877:0.3669571 878:0.3669571 879:0.3669571 880:0.26298249 881:0.1750817 882:0.3669571 883:0.36968791 884:0.36968791 885:0.36968791 886:0.36968791 887:0.36968791 888:0.36968791 889:0.1815657 890:0.081587933 891:0.36968791 892:0.33277869 893:0.33277869 894:0.33277869 895:0.33277869 896:0.33277869 897:0.33277869 898:0.33277869 899:0.33277869 900:0.33277869 901:0.36357459 902:0.36357459 903:0.36357459 904:0.1863842 905:0.28798509 906:0.36357459 907:0.36357459 908:0.2925306 909:0.36357459 910:0.3676644 911:0.31464639 912:0.3676644 913:0.070547909 914:0.33263731 915:0.3676644 916:0.32529119 917:0.3676644 918:0.3676644 919:0.41227049 920:0.41227049 921:0.3328487 922:0.03421269 923:0.3545385 924:0.2007229 925:0.1951095 926:0.41227049 927:0.41227049 928:0.43798551 929:0.43798551 930:0.1570197 931:0.1046163 932:0.02520572 933:0.01527095 934:0.43798551 935:0.43798551 936:0.43798551 937:0.43523639 938:0.2116009 939:0.048922431 940:0.02907192 941:0.02202482 942:0.43523639 943:0.43523639 944:0.43523639 945:0.43523639 946:0.59703672 947:0.4183014 948:0.03558572 949:0.001685239 950:0.041723859 951:0.13106941 952:0.082993567 953:0.2812112 954:0.59703672 955:0.4820196 956:0.40510979 957:0.3079834 958:0.092686817 959:0.048514131 960:0.1752523 961:0.096934803 962:0.46955079 963:0.4820196 964:0.52954859 965:0.15098239 966:0.2515693 967:0.1389055 968:0.1436583 969:0.1372955 970:0.092633411 971:0.52954859 972:0.52954859 973:0.60357708 974:0.18975089 975:0.05433296 976:0.098003201 977:0.1940784 978:0.1289137 979:0.064356111 980:0.397962 981:0.60357708 982:0.51878732 983:0.3743794 984:0.1196691 985:0.22156531 986:0.05139152 987:0.28784379 988:0.37125289 989:0.1721707 990:0.51878732 991:0.3210856 992:0.3641564 993:0.3641564 994:0.3641564 995:0.3641564 996:0.2040358 997:0.3641564 998:0.2365927 999:0.3641564 1000:0.4017739 1001:0.4017739 1002:0.3056007 1003:0.23526309 1004:0.4017739 1005:0.2939302 1006:0.2260343 1007:0.2531212 1008:0.4017739 1009:0.48707771 1010:0.1734928 1011:0.048022889 1012:0.070260443 1013:0.48289821 1014:0.2065637 1015:0.21797299 1016:0.3999148 1017:0.48707771 1018:0.50727159 1019:0.12620971 1020:0.02233544 1021:0.1461008 1022:0.50727159 1023:0.111706 1024:0.13533901 1025:0.39292791 1026:0.50727159 1027:0.45094541 1028:0.32648319 1029:0.097286582 1030:0.17505971 1031:0.3473852 1032:0.2895579 1033:0.1849819 1034:0.45094541 1035:0.45094541 1036:0.46177271 1037:0.22832771 1038:0.19311631 1039:0.020389039 1040:0.1531036 1041:0.30644429 1042:0.38534871 1043:0.46177271 1044:0.46177271 1045:0.53939289 1046:0.4565686 1047:0.3698068 1048:0.1131965 1049:0.1478903 1050:0.023126259 1051:0.035825562 1052:0.17609259 1053:0.53939289 1054:0.50583851 1055:0.50583851 1056:0.1256469 1057:0.041557219 1058:0.1915745 1059:0.1334924 1060:0.2217795 1061:0.32574391 1062:0.50583851 1063:0.39987519 1064:0.18235961 1065:0.2794174 1066:0.39987519 1067:0.39987519 1068:0.2148177 1069:0.32438001 1070:0.30611521 1071:0.39987519 1072:0.365356 1073:0.32038069 1074:0.1492366 1075:0.26556411 1076:0.365356 1077:0.365356 1078:0.365356 1079:0.365356 1080:0.365356 1081:0.4610101 1082:0.4610101 1083:0.1005219 1084:0.1699504 1085:0.3990227 1086:0.13259269 1087:0.1100118 1088:0.36043581 1089:0.4610101 #
0.0035455821313625955 1:0.4980166 2:0.19636419 3:0.032928851 4:0.015944541 5:0.1293838 6:0.031850129 7:0.4396733 8:0.4980166 9:0.4980166 10:0.68675393 11:0.065758109 12:0 13:0 14:0.024743849 15:0.001129112 16:0.02360161 17:0.2106837 18:0.68675393 19:0.65753287 20:0.02722477 21:0 22:0.01832778 23:0.1347975 24:0.1612889 25:0.1659676 26:0.236495 27:0.65753287 28:0.3970443 29:0.034696572 30:0.0059291008 31:0.24624319 32:0.3970443 33:0.38201839 34:0.3970443 35:0.3970443 36:0.3970443 37:0.4686718 38:0.4686718 39:0.16755231 40:0.104606 41:0.094799958 42:0.023205761 43:0.26108241 44:0.4686718 45:0.4686718 46:0.44227609 47:0.44227609 48:0.23825251 49:0.03328174 50:0.02307215 51:0.088055827 52:0.44227609 53:0.38339499 54:0.44227609 55:0.33340859 56:0.33340859 57:0.33340859 58:0.33340859 59:0.33340859 60:0.33340859 61:0.33340859 62:0.33340859 63:0.32768679 64:0.11271 65:0.079522014 66:0.39721549 67:0.39721549 68:0.39721549 69:0.39721549 70:0.39721549 71:0.39721549 72:0.1741364 73:0.1173923 74:0.0080329934 75:0.1108004 76:0.27876559 77:0.4453305 78:0.31375489 79:0.4453305 80:0.4453305 81:0.4453305 82:0.36481109 83:0.24195521 84:0.407381 85:0.27623981 86:0.15470921 87:0.2005503 88:0.407381 89:0.407381 90:0.407381 91:0.37352541 92:0.37352541 93:0.37352541 94:0.37352541 95:0.37352541 96:0.31852239 97:0.28684759 98:0.24308459 99:0.2362916 100:0.42127231 101:0.42127231 102:0.22424319 103:0.3266063 104:0.078625597 105:0.19265869 106:0.29266781 107:0.42127231 108:0.42127231 109:0.67221242 110:0.016972199 111:0.01219506 112:0 113:0.0024859491 114:0.01077089 115:0.1231101 116:0.2717261 117:0.67221242 118:0.49416071 119:0.1327287 120:0.30166081 121:0.036227431 122:0.32016909 123:0.41861069 124:0.2391019 125:0.2486631 126:0.49416071 127:0.35565749 128:0.35565749 129:0.35565749 130:0.2659713 131:0.35565749 132:0.35565749 133:0.35565749 134:0.25491789 135:0.31901291 136:0.49694899 137:0.49694899 138:0.49694899 139:0.07434725 140:0.1450461 141:0.022940939 142:0.079999842 143:0.1845279 144:0.43199441 145:0.60605139 146:0.4273001 147:0.093378581 148:0.01210353 149:0 150:0.01668092 151:0.1614347 152:0.2038653 153:0.60605139 154:0.58551252 155:0.18872739 156:0.1049391 157:0.0093697831 158:0.00096226583 159:0.05059075 160:0.20472591 161:0.4661682 162:0.58551252 163:0.1995014 164:0.065041311 165:0.040992741 166:0.01233433 167:0.038506661 168:0.1560953 169:0.374428 170:0.62523949 171:0.62523949 172:0.05975502 173:0.0086127706 174:0.00062013621 175:0.0002862846 176:0.016253039 177:0.042317081 178:0.34543541 179:0.65893692 180:0.65893692 181:0.03223354 182:0.02184231 183:0.1401449 184:0.058165319 185:0.01520147 186:0.1074222 187:0.60574329 188:0.60574329 189:0.4730657 190:0.26354 191:0.1411579 192:0.41600981 193:0.41600981 194:0.41600981 195:0.2550022 196:0.41600981 197:0.37632591 198:0.086956009 199:0.37456769 200:0.37456769 201:0.36997709 202:0.32462621 203:0.1698198 204:0.37456769 205:0.16949791 206:0.3677232 207:0.37456769 208:0.45955011 209:0.45955011 210:0.27387571 211:0.15417591 212:0.036124561 213:0.054892778 214:0.2181018 215:0.45955011 216:0.45955011 217:0.46968779 218:0.46968779 219:0.46968779 220:0.25913531 221:0.084595487 222:0.153715 223:0.2637369 224:0.1619636 225:0.37384939 226:0.56501418 227:0.56501418 228:0.56501418 229:0.1164813 230:0.045369372 231:0.02553574 232:0.032966658 233:0.083308667 234:0.1110376 235:0.49799871 236:0.49799871 237:0.2739543 238:0.01344883 239:0.029380791 240:0.098260231 241:0.2393444 242:0.49799871 243:0.32860681 244:0.46487671 245:0.34140849 246:0.033504661 247:0.044440411 248:0.1105059 249:0.32116929 250:0.45675391 251:0.3456777 252:0.46487671 253:0.57477611 254:0.024708411 255:0.0078153918 256:0.0059789438 257:0.01356366 258:0.02543647 259:0.040244918 260:0.57477611 261:0.57477611 262:0.02958172 263:0.002838888 264:0 265:0 266:0 267:0.0455603 268:0.57483357 269:0.57483357 270:0.57483357 271:0.199285 272:0.0023657009 273:0 274:0 275:0.01387967 276:0.041792352 277:0.40621439 278:0.62732261 279:0.62732261 280:0.038386028 281:0.0002111963 282:0.02033616 283:0.076965347 284:0.01202892 285:0.2348984 286:0.63356519 287:0.63356519 288:0.35739601 289:0.016140079 290:0.00028213311 291:0.0079449136 292:0.02881418 293:0.021459199 294:0.48395339 295:0.73962319 296:0.45776501 297:0.01417234 298:0.3482869 299:0.220079 300:0.31457779 301:0.3482869 302:0.3482869 303:0.3482869 304:0.3482869 305:0.3482869 306:0.3482869 307:0.28699651 308:0.4946816 309:0.52246451 310:0.48200989 311:0.21780419 312:0.1256716 313:0.075279213 314:0.1711434 315:0.25340429 316:0.39431781 317:0.5970493 318:0.5970493 319:0.34926161 320:0.045434479 321:0.02463267 322:0.01777852 323:0.02469763 324:0.005953772 325:0.41270229 326:0.60545057 327:0.60545057 328:0.27048999 329:0.08129552 330:0.065868087 331:0.0051577431 332:0.076374523 333:0.022770559 334:0.4053303 335:0.42488179 336:0.42488179 337:0.110965 338:0.01101537 339:0.1023294 340:0.42488179 341:0.42488179 342:0.29403919 343:0.007252058 344:0.0072335959 345:0.004759843 346:0.0050646332 347:0.030969961 348:0.5248071 349:0.59452909 350:0.59452909 351:0.1029519 352:0.1122807 353:0.033943292 354:0.03328624 355:0.003630321 356:0.43145299 357:0.4456782 358:0.4456782 359:0.4456782 360:0.4456782 361:0.47381139 362:0.061620671 363:0.058959428 364:0.037904609 365:0.18474869 366:0.2333163 367:0.47381139 368:0.47381139 369:0.47381139 370:0.50308561 371:0.0234132 372:0.0034442591 373:0.001149463 374:0.032654881 375:0.088426232 376:0.4756507 377:0.50308561 378:0.50308561 379:0.061375499 380:0 381:0.002034277 382:0.0075804908 383:0.02950467 384:0.56997168 385:0.56997168 386:0.56997168 387:0.1225002 388:0.069625288 389:0 390:0.0001195053 391:0.00044532231 392:0.002195494 393:0.63119692 394:0.63119692 395:0.43213961 396:0.072674192 397:0.03589464 398:0.065297507 399:0.51332712 400:0.51332712 401:0.51332712 402:0.24677651 403:0.14244939 404:0.28534019 405:0.1902559 406:0.05787167 407:0.453962 408:0.6131537 409:0.6131537 410:0.1600924 411:0.073002622 412:0.01491743 413:0.035694622 414:0.0087556886 415:0.47888979 416:0.49889061 417:0.49889061 418:0.49889061 419:0.1365853 420:0.0013639 421:0.0082539953 422:0.01671185 423:0.001225967 424:0.54296762 425:0.54296762 426:0.54296762 427:0.2441937 428:0.065873399 429:0.026630361 430:0.089046761 431:0.023888029 432:0.1922425 433:0.057880361 434:0.42986971 435:0.42986971 436:0.32088241 437:0.1425661 438:0.2885417 439:0.42986971 440:0.42986971 441:0.21600281 442:0.0085604033 443:0.03910549 444:0.027076701 445:0.038077779 446:0.38463879 447:0.51737732 448:0.51737732 449:0.51737732 450:0.20015679 451:0.00190163 452:0.00038638039 453:0.0018595461 454:0.0039666672 455:0.52589548 456:0.52589548 457:0.52589548 458:0.40550041 459:0.02442182 460:0.33382839 461:0.1245732 462:0.19434319 463:0.4788518 464:0.4788518 465:0.4788518 466:0.29466861 467:0.1088813 468:0.20953821 469:0.35389069 470:0.230306 471:0.35389069 472:0.2583656 473:0.35389069 474:0.35389069 475:0.35389069 476:0.35389069 477:0.35389069 478:0.01178559 479:0.02257232 480:0.039997369 481:0.0091355424 482:0.1430674 483:0.61127728 484:0.61127728 485:0.46969241 486:0.056268081 487:0.109103 488:0 489:0 490:0.04831164 491:0.064071268 492:0.64188492 493:0.64188492 494:0.36799881 495:0.1256721 496:0.1859121 497:0.23506141 498:0.51911408 499:0.55685532 500:0.55685532 501:0 502:0 503:0.0004875758 504:0.122339 505:0.0036451039 506:0.029850651 507:0.53961372 508:0.53961372 509:0.53961372 510:0.3325341 511:0.070155554 512:0.066365384 513:0.01589812 514:0.39851981 515:0.39851981 516:0.3080737 517:0.39851981 518:0.39851981 519:0.35086289 520:0.17328081 521:0.2396303 522:0.2351246 523:0.35777229 524:0.35777229 525:0.27598259 526:0.17320541 527:0.35777229 528:0.35777229 529:0.34964669 530:0.35777229 531:0.35777229 532:0.045073088 533:0.27246991 534:0.42808631 535:0.42808631 536:0.42808631 537:0.42808631 538:0.27724391 539:0.1029374 540:0.31457981 541:0.3042672 542:0.3542605 543:0.33316141 544:0.3542605 545:0.3542605 546:0.3542605 547:0.1997067 548:0.3542605 549:0.3542605 550:0.1215201 551:0.2178266 552:0.3929427 553:0.50158042 554:0.50158042 555:0.50158042 556:0.085378833 557:0.092825592 558:0.087843247 559:0.07336171 560:0.054399151 561:0.19543029 562:0.5534507 563:0.5534507 564:0.5534507 565:0.1490172 566:0.043582309 567:0.070074648 568:0.3498196 569:0.3498196 570:0.3498196 571:0.31419209 572:0.3498196 573:0.30229741 574:0.3498196 575:0.3498196 576:0.26863 577:0.34848711 578:0.25088981 579:0.4278779 580:0.1222973 581:0.4278779 582:0.4278779 583:0.4278779 584:0.1498647 585:0.2039679 586:0.08904776 587:0.000220698 588:0.00066041021 589:0.01883846 590:0.5655266 591:0.5655266 592:0.5655266 593:0.13657001 594:0.089193702 595:0.21520729 596:0.2032183 597:0.105754 598:0.59963739 599:0.59963739 600:0.29531071 601:0.00039467579 602:0.15637191 603:0.2538231 604:0.072321087 605:0.0034791301 606:0.01151527 607:0.43587241 608:0.47549701 609:0.47549701 610:0.3655237 611:0.32437491 612:0.3299534 613:0.4136644 614:0.4136644 615:0.084566534 616:0.023571029 617:0.2378339 618:0.38324079 619:0.3166213 620:0.4136644 621:0.4136644 622:0.30649379 623:0.26181179 624:0.033295501 625:0.2423133 626:0.57174939 627:0.57174939 628:0.27345419 629:0.1780217 630:0.1082537 631:0.0088028051 632:0.001411179 633:0.10251 634:0.56531578 635:0.56531578 636:0.56531578 637:0.151969 638:0.04120459 639:0.01512135 640:0.33570111 641:0.33570111 642:0.33570111 643:0.33570111 644:0.33570111 645:0.33570111 646:0.3083567 647:0.33570111 648:0.33570111 649:0.4194968 650:0.4194968 651:0.4194968 652:0.4194968 653:0.2273996 654:0.096109442 655:0.051520988 656:0.22873449 657:0.4194968 658:0.62342912 659:0.078409068 660:0.19006521 661:0.1614812 662:0.29507041 663:0.17884649 664:0.089655668 665:0.144942 666:0.62342912 667:0.68249208 668:0.018315651 669:0.03509637 670:0.005818971 671:0.1126563 672:0.00180052 673:0.034557771 674:0.2147231 675:0.68249208 676:0.54106098 677:0.089544788 678:0.1555074 679:0.03420737 680:0.1908668 681:0.1121349 682:0.3647348 683:0.4401091 684:0.54106098 685:0.218536 686:0.065040991 687:0.1138428 688:0.2464281 689:0.58677769 690:0.58677769 691:0.3726185 692:0.070067711 693:0.18998811 694:0.068642803 695:0.1431551 696:0.49690369 697:0.3786943 698:0.53291821 699:0.53291821 700:0.017895561 701:0.0147231 702:0.1030015 703:0.1230745 704:0.1293329 705:0.1576467 706:0.25358641 707:0.65244502 708:0.65244502 709:0.02434657 710:0.055081312 711:0.1321273 712:0.4519321 713:0.32808149 714:0.079247467 715:0.093795128 716:0.4519321 717:0.4519321 718:0.118586 719:0.2042973 720:0.4519321 721:0.0194578 722:0.0068460279 723:0 724:0.17922451 725:0.56377208 726:0.56377208 727:0.56377208 728:0.090444393 729:0.01125076 730:0.028301161 731:0.036707941 732:0.0045727259 733:0.050362911 734:0.47041211 735:0.47041211 736:0.47041211 737:0.47041211 738:0.3247242 739:0.2239224 740:0.025844751 741:0.045561001 742:0.031723451 743:0.207084 744:0.2802788 745:0.52263731 746:0.52263731 747:0.52263731 748:0.663571 749:0.030034641 750:0.01016231 751:0.003673706 752:0.00025883241 753:0.001467831 754:0.0096581997 755:0.33407781 756:0.663571 757:0.69868952 758:0.079562351 759:0.00041776951 760:0.00054984802 761:0.0003107783 762:0.0007317171 763:0.0015166129 764:0.1017737 765:0.69868952 766:0.69147509 767:0.01346461 768:0.0026977251 769:0.020986689 770:0.01721919 771:0 772:0.0065981988 773:0.1893473 774:0.69147509 775:0.4032411 776:0.0027260261 777:0.022913231 778:0.3036333 779:0.4032411 780:0.4032411 781:0.3003819 782:0.4032411 783:0.4032411 784:0.1661018 785:0.3556802 786:0.43980819 787:0.43980819 788:0.43980819 789:0.43980819 790:0.1242422 791:0.086389281 792:0.21185911 793:0.224922 794:0.4246062 795:0.31019831 796:0.38101289 797:0.4246062 798:0.4246062 799:0.35775179 800:0.01875989 801:0.1859172 802:0.038596641 803:0.07808011 804:0.04035474 805:0.094154477 806:0.56396592 807:0.56396592 808:0.56396592 809:0.1394053 810:0.051788319 811:0.20806821 812:0.14838471 813:0.0681412 814:0.072654717 815:0.42906451 816:0.42906451 817:0.42906451 818:0.42906451 819:0.42906451 820:0.018811069 821:0 822:0 823:0 824:0.2070455 825:0.56005812 826:0.56005812 827:0.56005812 828:0.1009484 829:0.0064053931 830:0.0069834278 831:0 832:0 833:0.004257991 834:0.076780424 835:0.57395291 836:0.57395291 837:0.57395291 838:0.32889849 839:0.026729491 840:0.024798941 841:0.001784423 842:0.001537387 843:0.001687696 844:0.161017 845:0.65498942 846:0.65498942 847:0.65097189 848:0.077067308 849:0.0023094469 850:0.00016617771 851:0 852:0 853:0.0032673529 854:0.37418801 855:0.65097189 856:0.6887778 857:0.17373019 858:0 859:0 860:0 861:0 862:0 863:0.1187953 864:0.6887778 865:0.59715962 866:0.3869153 867:0.172111 868:0.2524744 869:0.03303273 870:0 871:0.0123346 872:0.1911172 873:0.59715962 874:0.26160091 875:0.3153379 876:0.4898698 877:0.4898698 878:0.4898698 879:0.240005 880:0.059251752 881:0.1013552 882:0.1895548 883:0.2078312 884:0.061279651 885:0.51282418 886:0.51282418 887:0.51282418 888:0.32917461 889:0.1384099 890:0.1172434 891:0.13305689 892:0.4313632 893:0.4313632 894:0.1204772 895:0.02153817 896:0.038994931 897:0.22095411 898:0.4313632 899:0.4313632 900:0.4313632 901:0.01485518 902:0.01551531 903:0.031390101 904:0.0067096679 905:0.047061399 906:0.57283461 907:0.57283461 908:0.57283461 909:0.07845521 910:0.053888239 911:0.0090260645 912:0.068604387 913:0.084862277 914:0.02417386 915:0.56280702 916:0.56280702 917:0.56280702 918:0.1692529 919:0.2757473 920:0.063714191 921:0.1282986 922:0.04824122 923:0.099910691 924:0.4707526 925:0.4707526 926:0.4707526 927:0.4707526 928:0.03911455 929:0.007091566 930:0.01600311 931:0.01233289 932:0.0088343332 933:0.1244295 934:0.57059997 935:0.57059997 936:0.57059997 937:0.44051069 938:0.01975273 939:0.0077898791 940:0.0026176691 941:0.00067333848 942:0.0060998159 943:0.28621209 944:0.59898108 945:0.59898108 946:0.69854897 947:0.001226956 948:0.001409623 949:0.0001430041 950:0.002052631 951:0 952:0 953:0.1306819 954:0.69854897 955:0.70445108 956:0.01207892 957:0.008693425 958:0.002672232 959:0.00079721533 960:0 961:0 962:0.01536446 963:0.70445108 964:0.65362352 965:0.36224371 966:0.080027983 967:0.03102869 968:0 969:0.01522804 970:0.0081370063 971:0.01189171 972:0.65362352 973:0.4074941 974:0.4074941 975:0.4074941 976:0.4074941 977:0.4074941 978:0.1113859 979:0.03641998 980:0.0093815671 981:0.38968039 982:0.38695139 983:0.44128901 984:0.44128901 985:0.44128901 986:0.44128901 987:0.13422631 988:0.01383648 989:0.1230131 990:0.18323819 991:0.36977619 992:0.075078987 993:0.1016207 994:0.0095024696 995:0.063065477 996:0.091351077 997:0.52587628 998:0.52587628 999:0.52587628 1000:0.01195672 1001:0 1002:0.02578236 1003:0.023502611 1004:0.1995267 1005:0.37547219 1006:0.63632458 1007:0.63632458 1008:0.040970881 1009:0.051034492 1010:0.0038840971 1011:0.03068864 1012:0.027293811 1013:0.2416922 1014:0.52103251 1015:0.56245852 1016:0.56245852 1017:0.16573469 1018:0.40247369 1019:0.01875096 1020:0.0233234 1021:0.007306369 1022:0.32144579 1023:0.42704591 1024:0.42704591 1025:0.42704591 1026:0.42704591 1027:0.1839406 1028:0.12893531 1029:0.19828589 1030:0.123834 1031:0.42206001 1032:0.42206001 1033:0.42206001 1034:0.42206001 1035:0.42206001 1036:0.44177911 1037:0.44177911 1038:0.44177911 1039:0.160018 1040:0.1426 1041:0.099930592 1042:0.16627879 1043:0.36240399 1044:0.44177911 1045:0.61616188 1046:0.055477101 1047:0.1696642 1048:0.06399595 1049:0.42562011 1050:0.07823398 1051:0.083764121 1052:0.065485768 1053:0.61616188 1054:0.41412109 1055:0.36786959 1056:0.41412109 1057:0.41412109 1058:0.41412109 1059:0.04465368 1060:0.030505231 1061:0.01136372 1062:0.41412109 1063:0.40539831 1064:0.40539831 1065:0.40539831 1066:0.40539831 1067:0.40539831 1068:0.095408119 1069:0.0088090161 1070:0.026135409 1071:0.40539831 1072:0.41440141 1073:0.41440141 1074:0.41440141 1075:0.41440141 1076:0.41440141 1077:0.21411879 1078:0.02547654 1079:0.00831798 1080:0.30108541 1081:0.56961238 1082:0.56961238 1083:0.56961238 1084:0.029702939 1085:0.1117233 1086:0.001323801 1087:0.0071180472 1088:0.0055075129 1089:0.086545616 #
0.0083138614086875652 1:0 2:0.71640491 3:0.68927193 4:0 5:0 6:0 7:0 8:0 9:0 10:0.43887079 11:0.62937647 12:0.62937647 13:0.048222199 14:0 15:0 16:0 17:0 18:0.080954723 19:0.57382578 20:0.57382578 21:0.57382578 22:0.056129221 23:0 24:0 25:0 26:0 27:0.057372071 28:0.59733379 29:0.59733379 30:0.4491362 31:0.083818778 32:0.0080182254 33:0.03155775 34:0.046879441 35:0.066262484 36:0.25302681 37:0.53909791 38:0.53909791 39:0.30062991 40:0.002632231 41:0.03265452 42:0.074662827 43:0.05359951 44:0.15112101 45:0.53909791 46:0.66608322 47:0.03575369 48:0.0031091699 49:0.003973952 50:0.055026781 51:0.093093976 52:0.092995837 53:0.29046589 54:0.66608322 55:0.3993296 56:0.045381669 57:0.007156543 58:0.001108032 59:0.01472375 60:0.01389977 61:0.02830426 62:0.64450681 63:0.64450681 64:0.2239645 65:0.02724967 66:0.0073361481 67:0.01371119 68:0.0099558663 69:0 70:0.1148425 71:0.68145603 72:0.68145603 73:0.30294511 74:0.036639761 75:0.0023075331 76:0.00086205092 77:0.0002190308 78:0.0015928 79:0.1246918 80:0.66508842 81:0.66508842 82:0.1438636 83:0.028285081 84:0 85:0 86:0.00059361238 87:0.02834232 88:0.56921452 89:0.56921452 90:0.56921452 91:0.1974638 92:0 93:0 94:0 95:0.03142393 96:0.37110451 97:0.68379682 98:0.3238602 99:0.49296269 100:0 101:0.56002009 102:0.62788743 103:0.52461678 104:0.1031641 105:0 106:0 107:0 108:0 109:0.032578658 110:0.7009061 111:0.7009061 112:0.095740169 113:0.0057632769 114:0.01090255 115:0 116:0 117:0.0092119342 118:0.45695239 119:0.5654301 120:0.5654301 121:0.211431 122:0.02883257 123:0.060363639 124:0.004055182 125:0.0062494031 126:0.31127509 127:0.53034711 128:0.53034711 129:0.3654725 130:0.1118071 131:0.03633853 132:0.0125437 133:0.0081173526 134:0.057312459 135:0.53034711 136:0.6673227 137:0.25453979 138:0.1678443 139:0.01233409 140:0.058669779 141:0.01791806 142:0.023063179 143:0.072728813 144:0.6673227 145:0.69731671 146:0.02845343 147:0.00270232 148:0.01487722 149:0.063336127 150:0.04227164 151:0.086603858 152:0.078747883 153:0.69731671 154:0.6902768 155:0.15518241 156:0.01551438 157:0.0059021879 158:0.01532292 159:0.031294052 160:0.0621568 161:0.1034912 162:0.6902768 163:0.54890108 164:0.54890108 165:0.067777231 166:0.066272832 167:0.048121531 168:0 169:0.02378222 170:0.2806673 171:0.54890108 172:0.48150909 173:0.48150909 174:0.1791157 175:0.0047409888 176:0.005364689 177:0.0014449341 178:0.1888146 179:0.48150909 180:0.48150909 181:0.13032231 182:0.12954 183:0.0055581792 184:0.002344725 185:0.0024368661 186:0.02216769 187:0.62471068 188:0.62471068 189:0.42300999 190:0.0051532649 191:0 192:0 193:0 194:0.0492968 195:0.2286393 196:0.68495989 197:0.68495989 198:0.0094527639 199:0 200:0.143778 201:0.67235368 202:0.67235368 203:0.26171869 204:0 205:0 206:0 207:0 208:0.077152237 209:0.47038031 210:0.7336508 211:0.46056661 212:0.04867905 213:0.064653717 214:0.05366965 215:0.067886561 216:0.032603368 217:0.36061221 218:0.28638631 219:0.36061221 220:0.098350897 221:0.3527889 222:0.36061221 223:0.36061221 224:0.36061221 225:0.36061221 226:0.41006649 227:0.31796491 228:0.1622446 229:0.27779251 230:0.41006649 231:0.41006649 232:0.211799 233:0.27172211 234:0.41006649 235:0.66755378 236:0.1935017 237:0.086567797 238:0.04800823 239:0.128116 240:0.061543889 241:0.02413216 242:0.1845371 243:0.66755378 244:0.70041049 245:0.05237855 246:0.034045789 247:0.025740201 248:0 249:0.0010552061 250:0.00071035081 251:0.085390992 252:0.70041049 253:0.56233478 254:0.3844355 255:0.2006744 256:0.3318404 257:0.1087058 258:0.1436597 259:0.025870129 260:0.1750439 261:0.56233478 262:0.53659499 263:0.53659499 264:0.33093539 265:0.2498619 266:0.072010718 267:0.053648971 268:0.06292922 269:0.046471689 270:0.4823277 271:0.4847191 272:0.4847191 273:0.2344256 274:0.08554098 275:0.16881859 276:0.1370555 277:0.4847191 278:0.33766839 279:0.25831071 280:0.41989481 281:0.32301319 282:0.1393313 283:0.124811 284:0.098121509 285:0.27821919 286:0.53456682 287:0.53456682 288:0.1430541 289:0.03191641 290:0.082448989 291:0.085667282 292:0.127379 293:0.29117021 294:0.64826548 295:0.64826548 296:0.19187009 297:0.0075292168 298:0.064028211 299:0.08023607 300:0.67902631 301:0.67902631 302:0.2457075 303:0.0097725959 304:0.0078926384 305:0.00018303801 306:0.00051921129 307:0.29920349 308:0.3233895 309:0.57438368 310:0.57438368 311:0.1870423 312:0.041312151 313:0.1328335 314:0.25396359 315:0.1466082 316:0.3351669 317:0.2034013 318:0.054812498 319:0.34326321 320:0.4086774 321:0.39223441 322:0.2578271 323:0.4086774 324:0.4086774 325:0.0081730708 326:0.0084951362 327:0.0063353428 328:0.48700669 329:0.66718519 330:0.52890247 331:0.12756249 332:0.1064634 333:0.059197169 334:0.29257911 335:0.083677277 336:0.088335209 337:0.1615157 338:0.41697481 339:0.41697481 340:0.41697481 341:0.41697481 342:0.41697481 343:0.4798592 344:0.4798592 345:0.4798592 346:0.1690314 347:0.105061 348:0.030538211 349:0.05424469 350:0.1751096 351:0.4798592 352:0.39911431 353:0.39911431 354:0.39911431 355:0.39911431 356:0.39911431 357:0.081825107 358:0.037623841 359:0.33793679 360:0.2779198 361:0.1804202 362:0.47521961 363:0.47521961 364:0.47521961 365:0.47521961 366:0.21599381 367:0.068570383 368:0.03959294 369:0.080277987 370:0.51805317 371:0.51805317 372:0.51805317 373:0.2464786 374:0.27453089 375:0.05465243 376:0.14230271 377:0.14093921 378:0.1023176 379:0.59608018 380:0.59608018 381:0.4006457 382:0.051536381 383:0.04542397 384:0.1434143 385:0.21423741 386:0.09725824 387:0.2055826 388:0.23268069 389:0.48264939 390:0.16320729 391:0.1128975 392:0.2104447 393:0.55221152 394:0.55221152 395:0.023817129 396:0.115253 397:0.060534298 398:0.03754355 399:0.56652492 400:0.56652492 401:0.56652492 402:0.1116193 403:0.097307317 404:0.03402685 405:0.057721339 406:0.36314851 407:0.17721359 408:0.2045223 409:0.36314851 410:0.36314851 411:0.36314851 412:0.36314851 413:0.36314851 414:0.36314851 415:0.1717736 416:0.049632169 417:0.1005848 418:0.59969288 419:0.59969288 420:0.1901464 421:0.32363859 422:0.1241905 423:0.2762993 424:0.034707218 425:0.00082494877 426:0.0089710467 427:0.5225324 428:0.5225324 429:0.38434991 430:0.2719858 431:0.2793918 432:0.38425851 433:0.049910512 434:0.066272467 435:0.40261441 436:0.40261441 437:0.40261441 438:0.40261441 439:0.1284705 440:0.40261441 441:0.40261441 442:0.34310371 443:0.5073632 444:0.5073632 445:0.5073632 446:0.28856549 447:0.033300061 448:0.01064372 449:0.1276789 450:0.064547837 451:0.1571164 452:0.47285441 453:0.47285441 454:0.47285441 455:0.47285441 456:0.065193072 457:0.081680283 458:0.2143912 459:0.139072 460:0.0041482658 461:0.49496281 462:0.49496281 463:0.49496281 464:0.49496281 465:0.1199608 466:0.0096785109 467:0.02211833 468:0.01064023 469:0.040386211 470:0.70124859 471:0.70124859 472:0.071543843 473:0.044983801 474:0.0145697 475:0.01321968 476:0.0038464291 477:0.018048329 478:0.2143458 479:0.4482331 480:0.4482331 481:0.063249797 482:0.29407629 483:0.4482331 484:0.26134211 485:0.2726365 486:0.33723599 487:0.22377069 488:0.024133099 489:0.0044448711 490:0.00053651311 491:0.49852309 492:0.49852309 493:0.49852309 494:0.2251835 495:0.38478789 496:0.2678459 497:0.41859439 498:0.41859439 499:0.41859439 500:0.41859439 501:0.41859439 502:0.075202294 503:0.078584149 504:0.1901041 505:0.4274852 506:0.4274852 507:0.1827032 508:0.01511692 509:0.028531151 510:0.2181484 511:0.4274852 512:0.4274852 513:0.4274852 514:0.38074151 515:0.2865698 516:0.26761121 517:0.3141748 518:0.303168 519:0.30733749 520:0.38074151 521:0.34999001 522:0.38074151 523:0.26951829 524:0.3646355 525:0.3646355 526:0.34151089 527:0.3646355 528:0.16751219 529:0.3646355 530:0.33798161 531:0.3646355 532:0.1226452 533:0.44787979 534:0.44787979 535:0.44787979 536:0.44787979 537:0.212643 538:0.068822376 539:0.2001166 540:0.29681459 541:0.37346339 542:0.37346339 543:0.37346339 544:0.37346339 545:0.37346339 546:0.1227222 547:0.069883414 548:0.37346339 549:0.37346339 550:0.41983959 551:0.29592589 552:0.41983959 553:0.41983959 554:0.41983959 555:0.2344517 556:0.04360671 557:0.1136369 558:0.36522639 559:0.037402771 560:0.1347087 561:0.49961081 562:0.49961081 563:0.49961081 564:0.2573953 565:0.05003668 566:0.27686629 567:0.28499311 568:0.47053301 569:0.47053301 570:0.47053301 571:0.17372739 572:0.090735957 573:0.02133069 574:0.03613979 575:0.2636666 576:0.47053301 577:0.2638379 578:0.40814689 579:0.37366551 580:0.076160319 581:0.1140425 582:0.3186605 583:0.40814689 584:0.40814689 585:0.40814689 586:0.1187624 587:0.01553702 588:0.070230328 589:0.52676737 590:0.52676737 591:0.52676737 592:0.1792639 593:0.1150917 594:0.31245431 595:0.3207165 596:0.33136281 597:0.35719699 598:0.35719699 599:0.29986349 600:0.35719699 601:0.35719699 602:0.23644079 603:0.35719699 604:0.45560461 605:0.23773479 606:0.2453703 607:0.15924589 608:0.023564041 609:0.1500261 610:0.45560461 611:0.45560461 612:0.45560461 613:0.42006129 614:0.42006129 615:0.37922549 616:0.30353609 617:0.093169138 618:0.062018991 619:0.2285801 620:0.4070963 621:0.42006129 622:0.45005691 623:0.45005691 624:0.45005691 625:0.17165419 626:0.38518861 627:0.26265669 628:0.24115761 629:0.1120298 630:0.26517799 631:0.35250261 632:0.35250261 633:0.35250261 634:0.28395611 635:0.35250261 636:0.35250261 637:0.33150509 638:0.24577069 639:0.35250261 640:0.40845349 641:0.40845349 642:0.40845349 643:0.270156 644:0.1639241 645:0.29805619 646:0.2037845 647:0.31362659 648:0.40845349 649:0.3781369 650:0.3781369 651:0.3781369 652:0.3781369 653:0.3781369 654:0.3781369 655:0.1444736 656:0.082057267 657:0.33270249 658:0.34380469 659:0.2257252 660:0.34380469 661:0.34380469 662:0.34380469 663:0.34380469 664:0.34380469 665:0.34380469 666:0.34380469 667:0.55513072 668:0.25495741 669:0.083048657 670:0.1835365 671:0.019421499 672:0.0038331151 673:0.056461979 674:0.51860428 675:0.55513072 676:0.18865199 677:0.38697809 678:0.099606238 679:0.18491369 680:0.095798343 681:0.1234286 682:0.37795001 683:0.54672939 684:0.54672939 685:0.1458489 686:0.062029149 687:0.29665729 688:0.56756729 689:0.56756729 690:0.1282599 691:0.077458553 692:0.26288581 693:0.38129061 694:0.203667 695:0.26839769 696:0.1732181 697:0.16212121 698:0.45218009 699:0.45218009 700:0.45218009 701:0.1736736 702:0.42674911 703:0.25898701 704:0.3811712 705:0.3811712 706:0.3811712 707:0.3519327 708:0.052099239 709:0.27584279 710:0.3811712 711:0.3811712 712:0.43083611 713:0.43083611 714:0.43083611 715:0.43083611 716:0.31021971 717:0.072203442 718:0.1177801 719:0.1796156 720:0.32501349 721:0.215286 722:0.37265551 723:0.37265551 724:0.37265551 725:0.37265551 726:0.37265551 727:0.24939559 728:0.37265551 729:0.233448 730:0.37428421 731:0.37428421 732:0.37428421 733:0.2904653 734:0.37428421 735:0.32433829 736:0.1996731 737:0.2576485 738:0.37428421 739:0.3367945 740:0.3367945 741:0.3367945 742:0.3367945 743:0.31450951 744:0.3367945 745:0.3367945 746:0.3220329 747:0.3367945 748:0.36929861 749:0.47369879 750:0.47369879 751:0.47369879 752:0.18740021 753:0.028599801 754:0.03145846 755:0.01136294 756:0.3855646 757:0.44385919 758:0.44385919 759:0.44385919 760:0.43989629 761:0.065121002 762:0.01085701 763:0.031930771 764:0.092927709 765:0.44385919 766:0.53711969 767:0.53711969 768:0.13261969 769:0.1045502 770:0.090738133 771:0.098473407 772:0.077700868 773:0.27686989 774:0.53711969 775:0.4025526 776:0.4025526 777:0.4025526 778:0.4025526 779:0.271541 780:0.1446768 781:0.1169816 782:0.2781814 783:0.4025526 784:0.1213743 785:0.33235559 786:0.53450513 787:0.53450513 788:0.53450513 789:0.02874958 790:0.023935379 791:0.02741522 792:0.1011544 793:0.036488429 794:0.2580061 795:0.085935771 796:0.1097497 797:0.54692388 798:0.54692388 799:0.54692388 800:0.097004756 801:0.02055965 802:0.091362908 803:0.43399489 804:0.43399489 805:0.38782409 806:0.2478033 807:0.43399489 808:0.43399489 809:0.1355119 810:0.061105169 811:0.2246135 812:0.50383919 813:0.50383919 814:0.50383919 815:0.2681869 816:0.1311956 817:0.2030654 818:0.12893391 819:0.18962841 820:0.51384473 821:0.52711219 822:0.42413339 823:0.48552811 824:0.060435209 825:0.041308582 826:0.1380278 827:0.068048283 828:0.090468183 829:0.39269999 830:0.39269999 831:0.39269999 832:0.049106859 833:0.39269999 834:0.39269999 835:0.28133991 836:0.28649971 837:0.2477188 838:0.33614951 839:0.33614951 840:0.33614951 841:0.33614951 842:0.33614951 843:0.33614951 844:0.33614951 845:0.30441681 846:0.33614951 847:0.4221051 848:0.4221051 849:0.4221051 850:0.4221051 851:0.4221051 852:0.114237 853:0.079049408 854:0.04717413 855:0.2887826 856:0.4590207 857:0.2718482 858:0.4590207 859:0.4590207 860:0.4590207 861:0.01406924 862:0.039557438 863:0.049800981 864:0.2728931 865:0.35167041 866:0.35167041 867:0.34584919 868:0.35167041 869:0.35167041 870:0.35167041 871:0.32081389 872:0.1786637 873:0.35167041 874:0.1388355 875:0.43268451 876:0.59810829 877:0.59810829 878:0.2180264 879:0.1063229 880:0.076507412 881:0.02640608 882:0.081724867 883:0.02523089 884:0.45651609 885:0.61456048 886:0.61456048 887:0.1715651 888:0.001800843 889:0.001484536 890:0.00088714721 891:0.0031901631 892:0 893:0 894:0 895:0.025517451 896:0.1106546 897:0.69208872 898:0.69208872 899:0.1490707 900:0 901:0.0172507 902:0.1076985 903:0.1587747 904:0.040070809 905:0.007793807 906:0.2299847 907:0.67082429 908:0.67082429 909:0.040338218 910:0.1075315 911:0.42817 912:0.42817 913:0.42817 914:0.079149216 915:0.068700187 916:0.42817 917:0.42817 918:0.2377557 919:0.36031979 920:0.57370758 921:0.57370758 922:0.13391221 923:0.04958868 924:0.040776581 925:0.1242292 926:0.2698012 927:0.30964541 928:0.40539631 929:0.3963978 930:0.03389281 931:0.0078035691 932:0.14039829 933:0.3999052 934:0.40563729 935:0.40563729 936:0.40563729 937:0.51448667 938:0.3930037 939:0.070198856 940:0.0126922 941:0.021414589 942:0.1135538 943:0.3338424 944:0.42558649 945:0.51448667 946:0.45528889 947:0.45528889 948:0.33725601 949:0.4153809 950:0.1052297 951:0.005438922 952:0.01082277 953:0.2758359 954:0.45528889 955:0.4562628 956:0.4562628 957:0.4562628 958:0.4562628 959:0.3264294 960:0.03548754 961:0.023765581 962:0.079150863 963:0.2193042 964:0.061806019 965:0.6286267 966:0.6286267 967:0.36214331 968:0.1566819 969:0.1564413 970:0.036936849 971:0.02716955 972:0.1314813 973:0.0162856 974:0.69536269 975:0.69536269 976:0.1592982 977:0.0049149408 978:0.0086774155 979:0.0043997732 980:0.0072011729 981:0.01371624 982:0.01340318 983:0.59598541 984:0.59598541 985:0.52375108 986:0.095691033 987:0 988:0 989:0 990:0.00022029869 991:0 992:0 993:0 994:0 995:0 996:0.65881759 997:0.65881759 998:0.35403579 999:0 1000:0.015816269 1001:0.01336788 1002:0.02172952 1003:0 1004:0 1005:0.1066734 1006:0.66643351 1007:0.66643351 1008:0.30462971 1009:0.070572518 1010:0.038871229 1011:0.29545271 1012:0.064239711 1013:0.051131699 1014:0.02544323 1015:0.54570383 1016:0.54570383 1017:0.54570383 1018:0.076304004 1019:0.030605059 1020:0.1095578 1021:0.021408571 1022:0.055799741 1023:0.02527743 1024:0.39081511 1025:0.63949442 1026:0.63949442 1027:0.36863589 1028:0.1562016 1029:0.03235285 1030:0.0049754749 1031:0.31927839 1032:0.05433603 1033:0.1846716 1034:0.58896589 1035:0.58896589 1036:0.56471938 1037:0.43582761 1038:0.1337925 1039:0.05493132 1040:0.25428179 1041:0.047172379 1042:0.081012242 1043:0.26876351 1044:0.56471938 1045:0.53507388 1046:0.53507388 1047:0.072622053 1048:0.076039113 1049:0.34900051 1050:0.01955479 1051:0.019795191 1052:0.045961838 1053:0.53507388 1054:0.55701518 1055:0.55701518 1056:0.55701518 1057:0.1293277 1058:0.19585919 1059:0.035080671 1060:0.019139679 1061:0.0006648078 1062:0.083402053 1063:0.38341591 1064:0.63348478 1065:0.63348478 1066:0.033255991 1067:0.086079717 1068:0 1069:0 1070:0.0099344747 1071:0.18827391 1072:0.2464774 1073:0.67248279 1074:0.67248279 1075:0.01020579 1076:0.0036357129 1077:0 1078:0 1079:0.0016518059 1080:0.1671799 1081:0 1082:0.70450008 1083:0.70450008 1084:0.018076271 1085:0 1086:0 1087:0 1088:0 1089:0 #
-0.0083138614086875652 1:0.3714689 2:0.3714689 3:0.1535154 4:0.1059306 5:0.36546651 6:0.3714689 7:0.3714689 8:0.3714689 9:0.3714689 10:0.3860133 11:0.3860133 12:0.25540861 13:0.2456197 14:0.28920501 15:0.2145129 16:0.3860133 17:0.38065809 18:0.3860133 19:0.38086721 20:0.38086721 21:0.21328861 22:0.2767036 23:0.38086721 24:0.34271851 25:0.38086721 26:0.1771528 27:0.38086721 28:0.37608191 29:0.37608191 30:0.1751691 31:0.3244912 32:0.37608191 33:0.13052291 34:0.3688359 35:0.37608191 36:0.37608191 37:0.4190287 38:0.30062461 39:0.14320999 40:0.2222555 41:0.27411541 42:0.24094141 43:0.4190287 44:0.4190287 45:0.4190287 46:0.2566565 47:0.0089804837 48:0.01552426 49:0.022974599 50:0.086323351 51:0.3664591 52:0.56373543 53:0.56373543 54:0.3876974 55:0.1929249 56:0.073551968 57:0.29072681 58:0.40745041 59:0.40745041 60:0.40745041 61:0.40745041 62:0.40745041 63:0.1967191 64:0.27291349 65:0.055339638 66:0.26249781 67:0.3119767 68:0.41226521 69:0.41226521 70:0.41226521 71:0.41226521 72:0.26879841 73:0.2460847 74:0.091958202 75:0.363976 76:0.363976 77:0.363976 78:0.363976 79:0.363976 80:0.363976 81:0.363976 82:0.34799781 83:0.1917301 84:0.34799781 85:0.34799781 86:0.3347322 87:0.34799781 88:0.34799781 89:0.34799781 90:0.34799781 91:0.3785525 92:0.1149391 93:0.27481329 94:0.086300403 95:0.36211851 96:0.39542279 97:0.39542279 98:0.39542279 99:0.39542279 100:0.37965301 101:0.37965301 102:0.047797579 103:0.31402999 104:0.2035369 105:0.36496371 106:0.37965301 107:0.37965301 108:0.37965301 109:0.46471161 110:0.46471161 111:0.46471161 112:0.1585038 113:0.053520009 114:0.1573309 115:0.2382874 116:0.14835399 117:0.46471161 118:0.37078711 119:0.37078711 120:0.37078711 121:0.1296722 122:0.2894612 123:0.26607209 124:0.37078711 125:0.37078711 126:0.37078711 127:0.40376729 128:0.3277196 129:0.4558821 130:0.4558821 131:0.31872419 132:0.081317969 133:0.1883543 134:0.3273803 135:0.2418853 136:0.46782061 137:0.29733419 138:0.38180009 139:0.32142079 140:0.083495833 141:0.035942782 142:0.0176955 143:0.45994371 144:0.46782061 145:0.48234421 146:0.1934984 147:0.082568102 148:0.001128732 149:0.05471212 150:0.1315476 151:0.48234421 152:0.48234421 153:0.48234421 154:0.38743851 155:0.38743851 156:0.31798521 157:0.18840779 158:0.27706411 159:0.1794706 160:0.38743851 161:0.38743851 162:0.38743851 163:0.198149 164:0.2845076 165:0.081317239 166:0.1761677 167:0.4094032 168:0.4094032 169:0.4094032 170:0.4094032 171:0.4094032 172:0.079956457 173:0.0439067 174:0.083191447 175:0.1644288 176:0.47733241 177:0.47733241 178:0.47733241 179:0.47733241 180:0.2038848 181:0.33277869 182:0.33277869 183:0.33277869 184:0.33277869 185:0.33277869 186:0.33277869 187:0.33277869 188:0.33277869 189:0.33277869 190:0.1435829 191:0.38651931 192:0.38651931 193:0.29137519 194:0.29674259 195:0.38651931 196:0.38651931 197:0.38651931 198:0.2357569 199:0.2013537 200:0.40517241 201:0.196197 202:0.29524601 203:0.2803292 204:0.39889771 205:0.41496599 206:0.41496599 207:0.28876609 208:0.46975279 209:0.46975279 210:0.46975279 211:0.23349009 212:0.2084505 213:0.19099499 214:0.2008141 215:0.21464901 216:0.33534461 217:0.38418239 218:0.38418239 219:0.38418239 220:0.29884061 221:0.2420669 222:0.095299363 223:0.31811509 224:0.38418239 225:0.38418239 226:0.39108559 227:0.39108559 228:0.39108559 229:0.32210919 230:0.2295633 231:0.054593358 232:0.39108559 233:0.39108559 234:0.26817739 235:0.50761497 236:0.50761497 237:0.40804869 238:0.116971 239:0.063277267 240:0.054395411 241:0.1606556 242:0.094615817 243:0.50761497 244:0.42768621 245:0.42768621 246:0.2488514 247:0.1160088 248:0.067976438 249:0.34492189 250:0.42768621 251:0.25512511 252:0.42768621 253:0.33817911 254:0.39763081 255:0.21192691 256:0.39763081 257:0.39763081 258:0.30101919 259:0.39763081 260:0.26021421 261:0.21444011 262:0.02993256 263:0.051792029 264:0.40653929 265:0.40653929 266:0.40653929 267:0.40653929 268:0.40653929 269:0.36661541 270:0.17771479 271:0.031063089 272:0.01305704 273:0.41493341 274:0.41493341 275:0.41493341 276:0.41493341 277:0.41493341 278:0.35534441 279:0.087184921 280:0.1211817 281:0.2003897 282:0.40985331 283:0.40985331 284:0.40985331 285:0.28679311 286:0.40985331 287:0.40985331 288:0.1375341 289:0.27582589 290:0.15550511 291:0.2852748 292:0.39952669 293:0.39952669 294:0.39952669 295:0.39952669 296:0.3417373 297:0.243094 298:0.1051844 299:0.2094008 300:0.087778732 301:0.33836699 302:0.30294529 303:0.49144211 304:0.49144211 305:0.49144211 306:0.04074477 307:0.2504307 308:0.37649611 309:0.37649611 310:0.28918049 311:0.37649611 312:0.28901839 313:0.37649611 314:0.37649611 315:0.2400407 316:0.36848119 317:0.30213279 318:0.36848119 319:0.2150438 320:0.36848119 321:0.2100483 322:0.36848119 323:0.36848119 324:0.36848119 325:0.35569581 326:0.062691256 327:0.05135775 328:0.05767097 329:0.078201838 330:0.1324043 331:0.52746958 332:0.52746958 333:0.52746958 334:0.38032019 335:0.2148288 336:0.1008283 337:0.13497379 338:0.0054891291 339:0.024228809 340:0.50830668 341:0.50830668 342:0.50830668 343:0.36982301 344:0.37300581 345:0.12871321 346:0.37300581 347:0.2097057 348:0.321394 349:0.37300581 350:0.37300581 351:0.37300581 352:0.1721929 353:0.36186239 354:0.30245629 355:0.36186239 356:0.36186239 357:0.36186239 358:0.32441151 359:0.36186239 360:0.3395431 361:0.0023960569 362:0.0038249211 363:0.2547383 364:0.55614758 365:0.55614758 366:0.55614758 367:0.039367329 368:0.0091357687 369:0.00071618578 370:0.0033579359 371:0.003843738 372:0.46666181 373:0.5203135 374:0.5203135 375:0.47086 376:0.1025749 377:0.039415348 378:0.042046841 379:0.076434858 380:0.1853551 381:0.46992469 382:0.46992469 383:0.46992469 384:0.44069391 385:0.20434991 386:0.17842139 387:0.1575291 388:0.3720552 389:0.1008981 390:0.13087 391:0.3720552 392:0.3720552 393:0.3720552 394:0.3720552 395:0.3720552 396:0.3720552 397:0.070800491 398:0.056726579 399:0.21926039 400:0.42338121 401:0.1054769 402:0.49807009 403:0.49807009 404:0.49807009 405:0.064197779 406:0.0029901059 407:0.048732921 408:0.41881511 409:0.31865019 410:0.41881511 411:0.41881511 412:0.41881511 413:0.41881511 414:0.1219173 415:0.007652855 416:0.01364111 417:0.1004069 418:0.1442541 419:0.48213291 420:0.48213291 421:0.48213291 422:0.48213291 423:0.1850425 424:0.093847103 425:0.04830683 426:0.2421506 427:0.35821441 428:0.39947811 429:0.39947811 430:0.39947811 431:0.39947811 432:0.39947811 433:0.33980161 434:0.02303117 435:0.093379393 436:0.45837319 437:0.15861779 438:0.071572207 439:0.45837319 440:0.45837319 441:0.45837319 442:0.4879081 443:0.04529056 444:0.045042921 445:0.1613058 446:0.080209479 447:0.079852417 448:0.4879081 449:0.4879081 450:0.4879081 451:0.42176849 452:0.1481436 453:0.05349208 454:0.1341731 455:0.2520574 456:0.42176849 457:0.42176849 458:0.42176849 459:0.42176849 460:0.3125433 461:0.1128255 462:0.0148639 463:0.40973231 464:0.40973231 465:0.40973231 466:0.40973231 467:0.3733623 468:0.27267441 469:0.032012898 470:0.065523081 471:0.077391453 472:0.60400182 473:0.60400182 474:0.48075241 475:0.13464449 476:0.058945712 477:0.017279411 478:0.3945947 479:0.3945947 480:0.2744019 481:0.32065669 482:0.3945947 483:0.3945947 484:0.368821 485:0.17191841 486:0.1718608 487:0.3692376 488:0.32352951 489:0.3692376 490:0.1423168 491:0.3692376 492:0.3447527 493:0.3692376 494:0.26617491 495:0.3692376 496:0.1177771 497:0.041134588 498:0.091893278 499:0.1549813 500:0.46847311 501:0.46847311 502:0.46847311 503:0.46847311 504:0.26348701 505:0.038177039 506:0.04818387 507:0.13368221 508:0.067443147 509:0.37914431 510:0.50204343 511:0.50204343 512:0.50204343 513:0.26247671 514:0.068216242 515:0.2114521 516:0.03993861 517:0.04236073 518:0.43770269 519:0.4832412 520:0.4832412 521:0.4832412 522:0.22420681 523:0.20487469 524:0.3714281 525:0.3714281 526:0.3666555 527:0.3714281 528:0.31618431 529:0.3714281 530:0.3714281 531:0.173531 532:0.079809777 533:0.52631569 534:0.53069752 535:0.53069752 536:0.35159609 537:0.1089964 538:0.063089907 539:0.037339721 540:0.084663972 541:0.20243441 542:0.29459441 543:0.3834486 544:0.3834486 545:0.34693861 546:0.1134602 547:0.3834486 548:0.3834486 549:0.3834486 550:0.36233419 551:0.36233419 552:0.36233419 553:0.36233419 554:0.1640176 555:0.2246678 556:0.36233419 557:0.36233419 558:0.36233419 559:0.36509299 560:0.36149609 561:0.22653361 562:0.34493059 563:0.36509299 564:0.36509299 565:0.36509299 566:0.36509299 567:0.17004161 568:0.050766811 569:0.088671647 570:0.085554063 571:0.28912881 572:0.51160651 573:0.51160651 574:0.51160651 575:0.29449901 576:0.1469091 577:0.1803077 578:0.1318005 579:0.40563479 580:0.33001611 581:0.40563479 582:0.40563479 583:0.40563479 584:0.40563479 585:0.1202375 586:0.34910879 587:0.2766014 588:0.34910879 589:0.33092621 590:0.34910879 591:0.34910879 592:0.28147781 593:0.34910879 594:0.34910879 595:0.1553032 596:0.101127 597:0.003089865 598:0.01521498 599:0.43841389 600:0.43841389 601:0.43841389 602:0.43841389 603:0.43841389 604:0.29969129 605:0.094251826 606:0.3581149 607:0.3581149 608:0.3581149 609:0.3581149 610:0.3581149 611:0.3581149 612:0.3581149 613:0.25776821 614:0.1773916 615:0.2281691 616:0.26841351 617:0.4330045 618:0.4330045 619:0.4330045 620:0.4330045 621:0.1538955 622:0.1194605 623:0.1173125 624:0.3197754 625:0.1221656 626:0.482225 627:0.31772199 628:0.482225 629:0.482225 630:0.22671489 631:0.34045029 632:0.33340389 633:0.37598279 634:0.37598279 635:0.32571119 636:0.097904071 637:0.31650779 638:0.37598279 639:0.35949951 640:0.45701289 641:0.45701289 642:0.45701289 643:0.45701289 644:0.2842229 645:0.20266379 646:0.01907064 647:0.01179999 648:0.1939939 649:0.2945652 650:0.3704927 651:0.3704927 652:0.3704927 653:0.3704927 654:0.3704927 655:0.29491219 656:0.1824792 657:0.32083279 658:0.092287317 659:0.1815941 660:0.39002451 661:0.39002451 662:0.39002451 663:0.39002451 664:0.39002451 665:0.38148201 666:0.2201952 667:0.1122624 668:0.02940806 669:0.2839449 670:0.38773569 671:0.38773569 672:0.38773569 673:0.38773569 674:0.38773569 675:0.38773569 676:0.0293948 677:0.1420432 678:0.41758171 679:0.41758171 680:0.41758171 681:0.41758171 682:0.41758171 683:0.31489441 684:0.061296511 685:0.3472259 686:0.3472259 687:0.3472259 688:0.3472259 689:0.3472259 690:0.3472259 691:0.3472259 692:0.30713981 693:0.24131989 694:0.108535 695:0.34340921 696:0.0478798 697:0.129674 698:0.2171542 699:0.4470908 700:0.4470908 701:0.4470908 702:0.4470908 703:0.1733532 704:0.095196851 705:0.07125137 706:0.21173289 707:0.44854379 708:0.44854379 709:0.44854379 710:0.44854379 711:0.3189545 712:0.01078803 713:0.01262888 714:0.01970127 715:0.27037829 716:0.47700101 717:0.47700101 718:0.47700101 719:0.47700101 720:0.1065229 721:0.038551912 722:0.0047365651 723:0.03316652 724:0.2958678 725:0.4587208 726:0.39167181 727:0.4587208 728:0.4587208 729:0.3472611 730:0.32274619 731:0.15834039 732:0.3936367 733:0.3936367 734:0.30190179 735:0.06066687 736:0.3936367 737:0.3936367 738:0.39013609 739:0.4509733 740:0.4509733 741:0.4509733 742:0.28983721 743:0.090405539 744:0.15892769 745:0.1773276 746:0.18194941 747:0.4509733 748:0.34320289 749:0.34320289 750:0.34320289 751:0.34320289 752:0.34320289 753:0.2329485 754:0.34320289 755:0.34320289 756:0.34320289 757:0.33277869 758:0.33277869 759:0.33277869 760:0.33277869 761:0.33277869 762:0.33277869 763:0.33277869 764:0.33277869 765:0.33277869 766:0.152045 767:0.1950191 768:0.23820999 769:0.38259721 770:0.38259721 771:0.38259721 772:0.38259721 773:0.38259721 774:0.38259721 775:0.054593109 776:0.28691259 777:0.4377695 778:0.4377695 779:0.4377695 780:0.42590001 781:0.36515409 782:0.094490193 783:0.1083736 784:0.3043901 785:0.37077591 786:0.37077591 787:0.2778374 788:0.37077591 789:0.37077591 790:0.37077591 791:0.040003251 792:0.37077591 793:0.3625772 794:0.3625772 795:0.3625772 796:0.36204749 797:0.2028369 798:0.3625772 799:0.1881035 800:0.3625772 801:0.3625772 802:0.3233197 803:0.15494309 804:0.22567099 805:0.1636425 806:0.40357319 807:0.42991379 808:0.42991379 809:0.42991379 810:0.26852849 811:0.098648436 812:0.047173411 813:0.04019843 814:0.125131 815:0.44066411 816:0.44066411 817:0.44066411 818:0.44066411 819:0.43546319 820:0.01041408 821:0.0040481011 822:0.03429424 823:0.4091796 824:0.43919861 825:0.27821231 826:0.52390432 827:0.52390432 828:0.082401313 829:0.2068252 830:0.044609912 831:0.17176931 832:0.2487642 833:0.1662918 834:0.079353981 835:0.61075282 836:0.61075282 837:0.2788527 838:0.4777261 839:0.1769377 840:0.2145668 841:0.061149091 842:0.025779851 843:0.02428491 844:0.4777261 845:0.4777261 846:0.4777261 847:0.46456489 848:0.46456489 849:0.46456489 850:0.165351 851:0.150023 852:0.041485451 853:0.1330885 854:0.25059119 855:0.46456489 856:0.39562699 857:0.39562699 858:0.25508189 859:0.1442802 860:0.2985689 861:0.1960026 862:0.39562699 863:0.39562699 864:0.39562699 865:0.40547949 866:0.38103271 867:0.1094855 868:0.3758589 869:0.40547949 870:0.40547949 871:0.1264572 872:0.1544683 873:0.40547949 874:0.36687011 875:0.36687011 876:0.36687011 877:0.36687011 878:0.36687011 879:0.36687011 880:0.36453539 881:0.2307258 882:0.051500481 883:0.26405481 884:0.3905457 885:0.3905457 886:0.3905457 887:0.3905457 888:0.3905457 889:0.34521919 890:0.1543244 891:0.14405259 892:0.63754082 893:0.1128118 894:0.21899711 895:0.1938387 896:0.073374107 897:0.26192561 898:0.0082786223 899:0.091658533 900:0.63754082 901:0.452966 902:0.07214278 903:0.1577467 904:0.452966 905:0.4244228 906:0.2526654 907:0.27354711 908:0.1762097 909:0.452966 910:0.29981101 911:0.1878857 912:0.01589039 913:0.2442681 914:0.26243371 915:0.2976706 916:0.4664599 917:0.4664599 918:0.4664599 919:0.26916751 920:0.1637335 921:0.080957577 922:0.1371516 923:0.20892499 924:0.45474821 925:0.45474821 926:0.45474821 927:0.45474821 928:0.32348171 929:0.1535418 930:0.4321329 931:0.140655 932:0.1105675 933:0.2974956 934:0.4321329 935:0.4321329 936:0.4321329 937:0.47282961 938:0.2947903 939:0.1101298 940:0.0074840989 941:0.029416019 942:0.032477152 943:0.47282961 944:0.47282961 945:0.47282961 946:0.41496319 947:0.41496319 948:0.41496319 949:0.048564199 950:0.029846201 951:0.0104645 952:0.41496319 953:0.3626619 954:0.41496319 955:0.46022871 956:0.175706 957:0.19241039 958:0.1824168 959:0.135031 960:0.1695812 961:0.46022871 962:0.46022871 963:0.46022871 964:0.3429763 965:0.3429763 966:0.3429763 967:0.3429763 968:0.3429763 969:0.25813979 970:0.3429763 971:0.32635579 972:0.3429763 973:0.34747919 974:0.34747919 975:0.34747919 976:0.34747919 977:0.30120391 978:0.34747919 979:0.34747919 980:0.33082029 981:0.26816371 982:0.26358679 983:0.3998757 984:0.3998757 985:0.3998757 986:0.29084939 987:0.21761081 988:0.33462569 989:0.27383441 990:0.35765651 991:0.51035613 992:0.51035613 993:0.037869669 994:0 995:0.04771575 996:0.072649568 997:0.39753219 998:0.21562061 999:0.51035613 1000:0.45748219 1001:0.1337022 1002:0.081830829 1003:0.2633965 1004:0.37996891 1005:0.1842066 1006:0.3087104 1007:0.45748219 1008:0.45748219 1009:0.4786498 1010:0.4786498 1011:0.1555769 1012:0.08277268 1013:0.28153521 1014:0.086301267 1015:0.1487564 1016:0.40988821 1017:0.4786498 1018:0.44916111 1019:0.41655871 1020:0.1410145 1021:0.1634874 1022:0.18507481 1023:0.031893682 1024:0.36724931 1025:0.44916111 1026:0.44916111 1027:0.43106931 1028:0.2279584 1029:0.1189547 1030:0.1304885 1031:0.41571519 1032:0.1554943 1033:0.3976073 1034:0.43106931 1035:0.43106931 1036:0.45133549 1037:0.3381862 1038:0.021163739 1039:0.02029269 1040:0.24827529 1041:0.061697681 1042:0.45133549 1043:0.45133549 1044:0.45133549 1045:0.43928781 1046:0.43921319 1047:0.1269321 1048:0.077820957 1049:0.087718457 1050:0.030760691 1051:0.43928781 1052:0.43928781 1053:0.43928781 1054:0.38771769 1055:0.38771769 1056:0.2398275 1057:0.2847847 1058:0.35865009 1059:0.2160203 1060:0.2844511 1061:0.38771769 1062:0.38771769 1063:0.3849178 1064:0.3849178 1065:0.3849178 1066:0.3849178 1067:0.3849178 1068:0.16010711 1069:0.1333148 1070:0.25254151 1071:0.3849178 1072:0.34157619 1073:0.34157619 1074:0.34157619 1075:0.34157619 1076:0.34157619 1077:0.2513814 1078:0.34157619 1079:0.34157619 1080:0.34157619 1081:0.37887481 1082:0.37887481 1083:0.37887481 1084:0.37887481 1085:0.37887481 1086:0.29641491 1087:0.27469081 1088:0.053029042 1089:0.33519441 #
-0.0083138614086875652 1:0.4296242 2:0.4296242 3:0.092030004 4:0.087466054 5:0.1752447 6:0.16122331 7:0.4296242 8:0.4296242 9:0.4296242 10:0.40169749 11:0.40169749 12:0.2995429 13:0.063980363 14:0.2026508 15:0.2330149 16:0.40169749 17:0.40169749 18:0.40169749 19:0.45801431 20:0.1831852 21:0.064259052 22:0.018549491 23:0.1318596 24:0.31764701 25:0.45801431 26:0.45801431 27:0.45801431 28:0.3537519 29:0.3537519 30:0.30570251 31:0.16440441 32:0.3537519 33:0.3537519 34:0.3537519 35:0.3537519 36:0.3537519 37:0.42706051 38:0.42706051 39:0.33528641 40:0.13162281 41:0.099791892 42:0.27314681 43:0.2278199 44:0.42706051 45:0.42706051 46:0.69102001 47:0.1518732 48:0.025741089 49:0.047963411 50:0.054521129 51:0.027468059 52:0.049350038 53:0.076768987 54:0.69102001 55:0.56763768 56:0.1136175 57:0.041123491 58:0.27447209 59:0.36983001 60:0.05862239 61:0.33063 62:0.1021993 63:0.56763768 64:0.41399369 65:0.078342907 66:0.07867568 67:0.41399369 68:0.41399369 69:0.093367547 70:0.41399369 71:0.34331501 72:0.41399369 73:0.3664355 74:0.3664355 75:0.3664355 76:0.3664355 77:0.25068411 78:0.24418341 79:0.26119241 80:0.3664355 81:0.3664355 82:0.37202501 83:0.37202501 84:0.37202501 85:0.37202501 86:0.2154261 87:0.079568259 88:0.33634561 89:0.37202501 90:0.37202501 91:0.382608 92:0.35401291 93:0.382608 94:0.382608 95:0.30296201 96:0.2098292 97:0.1951475 98:0.33376679 99:0.382608 100:0.42196959 101:0.42196959 102:0.1159072 103:0.052087769 104:0.2929706 105:0.059277579 106:0.42196959 107:0.42196959 108:0.42196959 109:0.51010698 110:0.31291831 111:0.48631141 112:0.040608801 113:0.36833179 114:0.02940166 115:0.01247766 116:0.041628338 117:0.51010698 118:0.6989274 119:0.077528849 120:0.041900702 121:0.01314615 122:0.036884781 123:0.02382287 124:0.02343869 125:0.074881554 126:0.6989274 127:0.70101058 128:0.044003289 129:0.01726873 130:0 131:0.0134158 132:0.033716321 133:0.04602056 134:0.067090154 135:0.70101058 136:0.69543302 137:0.066920988 138:0.040422071 139:0 140:0.03701067 141:0.088353813 142:0.075958051 143:0.06888786 144:0.69543302 145:0.69774449 146:0.0583371 147:0.023001719 148:0.0079558305 149:0.02154444 150:0.04812621 151:0.056987491 152:0.096521832 153:0.69774449 154:0.62446868 155:0.1757485 156:0.0088172201 157:0.1167712 158:0.34647641 159:0.073149338 160:0.1219603 161:0.1702086 162:0.62446868 163:0.57485342 164:0.068598799 165:0.0080155833 166:0.112952 167:0.50070292 168:0.073325537 169:0.09885326 170:0.2235328 171:0.57485342 172:0.48754361 173:0.078751221 174:0.0254225 175:0.041391179 176:0.1870869 177:0.027800441 178:0.48754361 179:0.48754361 180:0.48754361 181:0.3664676 182:0.3664676 183:0.3664676 184:0.3664676 185:0.3664676 186:0.085665457 187:0.3664676 188:0.2211573 189:0.3664676 190:0.38268831 191:0.38268831 192:0.3592836 193:0.38268831 194:0.38268831 195:0.1631925 196:0.38268831 197:0.14893191 198:0.29330501 199:0.36287811 200:0.0063769389 201:0.039165702 202:0.35953501 203:0.39859739 204:0.3130143 205:0.39859739 206:0.39859739 207:0.39859739 208:0.4363735 209:0.1676295 210:0.4363735 211:0.4363735 212:0.4363735 213:0.1230313 214:0.01282104 215:0.01145416 216:0.4363735 217:0.69095898 218:0.054086011 219:0.075627372 220:0.02782052 221:0.151132 222:0.059872221 223:0.0137978 224:0.047106251 225:0.69095898 226:0.6989255 227:0.077887028 228:0.043434601 229:0.01374356 230:0.077395312 231:0.036017179 232:0.003235942 233:0.024283789 234:0.6989255 235:0.59711242 236:0.35081789 237:0.18436959 238:0.079797387 239:0.29764211 240:0.099885918 241:0.031350121 242:0.1340438 243:0.59711242 244:0.66894221 245:0.070637517 246:0.041934378 247:0.029324049 248:0.26152131 249:0.13450921 250:0.060890149 251:0.023511531 252:0.66894221 253:0.69382912 254:0.1492295 255:0.052839272 256:0.041447781 257:0.043744951 258:0.0093948636 259:0.007452304 260:0.03793928 261:0.69382912 262:0.67662948 263:0.1751904 264:0.066494852 265:0.094504952 266:0.053622231 267:0.005662539 268:0.1231833 269:0.1243549 270:0.67662948 271:0.42456341 272:0.02753189 273:0.015793569 274:0.31506029 275:0.529477 276:0.1298396 277:0.529477 278:0.33671239 279:0.1525206 280:0.3851184 281:0.27185601 282:0.1650663 283:0.1590329 284:0.52921319 285:0.2238884 286:0.433341 287:0.28304541 288:0.3490887 289:0.39320719 290:0.39320719 291:0.3386974 292:0.295533 293:0.1001869 294:0.2041578 295:0.35192469 296:0.39320719 297:0.39320719 298:0.45723411 299:0.041825529 300:0.081614546 301:0.46432781 302:0.46432781 303:0.22575749 304:0.1977578 305:0.20251741 306:0.46432781 307:0.02860032 308:0.01434889 309:0.22459529 310:0.61576909 311:0.61576909 312:0.41712481 313:0.076896667 314:0.0445714 315:0.046356771 316:0.37824121 317:0.37824121 318:0.1068547 319:0.092583671 320:0.37824121 321:0.37824121 322:0.3432686 323:0.37824121 324:0.37824121 325:0.1859224 326:0.40336069 327:0.40336069 328:0.40336069 329:0.40336069 330:0.12908 331:0.31093559 332:0.3802233 333:0.2295467 334:0.22592311 335:0.35980961 336:0.35980961 337:0.35980961 338:0.35980961 339:0.1977959 340:0.35980961 341:0.35980961 342:0.35980961 343:0.33984581 344:0.33984581 345:0.33984581 346:0.26952389 347:0.33984581 348:0.33984581 349:0.33984581 350:0.33984581 351:0.33984581 352:0.38888681 353:0.1589532 354:0.15894359 355:0.38888681 356:0.38888681 357:0.30387661 358:0.38888681 359:0.31157631 360:0.38888681 361:0.33975741 362:0.4729262 363:0.4729262 364:0.4729262 365:0.40107349 366:0.075254798 367:0.1579379 368:0.129364 369:0.025709631 370:0.032609139 371:0.041463271 372:0.1837905 373:0.58813119 374:0.77220333 375:0.1159179 376:0.00053223578 377:0.0055526588 378:0.0081906831 379:0.33271751 380:0.15325721 381:0.081713632 382:0.31829041 383:0.6528551 384:0.30228809 385:0.022685731 386:0.29079291 387:0.38553151 388:0.37596771 389:0.37596771 390:0.37596771 391:0.37596771 392:0.37596771 393:0.049503598 394:0.065814734 395:0.37596771 396:0.37596771 397:0.1870078 398:0.09916918 399:0.1860621 400:0.50026602 401:0.50026602 402:0.27598631 403:0.49172339 404:0.28687689 405:0.1216022 406:0.01243383 407:0.01187251 408:0.024905041 409:0.69357407 410:0.69357407 411:0.1558287 412:0.071897447 413:0.02299338 414:0.0094914064 415:0.34074509 416:0.34074509 417:0.34074509 418:0.34074509 419:0.34074509 420:0.34074509 421:0.34074509 422:0.27205041 423:0.33141181 424:0.34779131 425:0.34779131 426:0.34779131 427:0.34779131 428:0.34779131 429:0.34779131 430:0.34779131 431:0.34779131 432:0.1698665 433:0.148522 434:0.35568261 435:0.35568261 436:0.35568261 437:0.35568261 438:0.35568261 439:0.35568261 440:0.35568261 441:0.29802099 442:0.34451541 443:0.3359957 444:0.2298445 445:0.34451541 446:0.34451541 447:0.34451541 448:0.34451541 449:0.34451541 450:0.34451541 451:0.3574546 452:0.25312531 453:0.1947805 454:0.3574546 455:0.3574546 456:0.3574546 457:0.3574546 458:0.3574546 459:0.3574546 460:0.38812789 461:0.38664871 462:0.4033241 463:0.4033241 464:0.4033241 465:0.30621171 466:0.13552959 467:0.26959911 468:0.15166339 469:0.015781021 470:0.0043436298 471:0.53234798 472:0.53234798 473:0.53234798 474:0.37972221 475:0.001705849 476:0.002565769 477:0.0058377059 478:0.34692231 479:0.29435489 480:0.4445318 481:0.4445318 482:0.4445318 483:0.33280769 484:0.108399 485:0.12640449 486:0.2392588 487:0.37496841 488:0.37496841 489:0.37496841 490:0.37496841 491:0.37496841 492:0.29165921 493:0.21831191 494:0.1761706 495:0.35984179 496:0.114076 497:0.1669347 498:0.2173501 499:0.53982002 500:0.62684321 501:0.44316089 502:0.1196948 503:0.05137299 504:0.089019403 505:0 506:0.00037097911 507:0.0098180147 508:0.25258771 509:0.82981348 510:0.48895219 511:0.01192207 512:0.002876075 513:0.002629756 514:0.1855147 515:0.31104061 516:0.3764832 517:0.3764832 518:0.3764832 519:0.3764832 520:0.3764832 521:0.3764832 522:0.1209934 523:0.3486008 524:0.1560031 525:0.3486008 526:0.3486008 527:0.3486008 528:0.3486008 529:0.3486008 530:0.3486008 531:0.3486008 532:0.35979229 533:0.19674049 534:0.35979229 535:0.35979229 536:0.35979229 537:0.35979229 538:0.35979229 539:0.22703581 540:0.35979229 541:0.4271166 542:0.2173755 543:0.0912771 544:0.38460061 545:0.4271166 546:0.4271166 547:0.064886443 548:0.24146961 549:0.4271166 550:0.30438951 551:0.36528569 552:0.2587876 553:0.3726663 554:0.3726663 555:0.3726663 556:0.093905658 557:0.3726663 558:0.3726663 559:0.084881403 560:0.14516421 561:0.45858809 562:0.58851808 563:0.58851808 564:0.12743241 565:0.038476601 566:0.116228 567:0.1777851 568:0.0096283248 569:0.01888049 570:0.08681839 571:0.69259709 572:0.69259709 573:0.1603604 574:0.001060167 575:0.00088849332 576:0.00083507219 577:0.33040619 578:0.39389741 579:0.41349599 580:0.44680041 581:0.44680041 582:0.38123539 583:0.01036669 584:0.070362829 585:0.1028331 586:0.40322691 587:0.31591219 588:0.25882661 589:0.40322691 590:0.40322691 591:0.40322691 592:0.086565807 593:0.093418181 594:0.40322691 595:0.42534259 596:0.25401631 597:0.42534259 598:0.42534259 599:0.42534259 600:0.1789943 601:0.066609956 602:0.046358041 603:0.41101879 604:0.031571981 605:0.0679719 606:0.41443339 607:0.5123226 608:0.69778442 609:0.25724751 610:0.0027115319 611:0.003392572 612:0.0094823232 613:0.27987179 614:0.39602491 615:0.40376431 616:0.40376431 617:0.40376431 618:0.40376431 619:0.1398093 620:0.21452279 621:0.2076856 622:0.3642436 623:0.28877571 624:0.3642436 625:0.3642436 626:0.3642436 627:0.3642436 628:0.1726256 629:0.2951771 630:0.3642436 631:0.3781794 632:0.1897659 633:0.2146672 634:0.3545391 635:0.3781794 636:0.3781794 637:0.27079961 638:0.3781794 639:0.3781794 640:0.38572371 641:0.2377819 642:0.1191015 643:0.3790186 644:0.4540672 645:0.4540672 646:0.02530038 647:0.1145856 648:0.4540672 649:0.37635079 650:0.37635079 651:0.37635079 652:0.37635079 653:0.37635079 654:0.2175419 655:0.1208654 656:0.37635079 657:0.29063269 658:0.031223791 659:0.4778572 660:0.28892049 661:0.4778572 662:0.4778572 663:0.34626839 664:0.01556121 665:0.28727299 666:0.1518712 667:0.01407585 668:0.03484733 669:0.01907164 670:0.3299104 671:0.92617619 672:0.14914 673:0.001378278 674:0.001252668 675:0.009694322 676:0.4508498 677:0.38292691 678:0.33754399 679:0.38634399 680:0.4508498 681:0.25398639 682:0.05577682 683:0.13761079 684:0.3042663 685:0.37011081 686:0.37011081 687:0.37011081 688:0.37011081 689:0.37011081 690:0.37011081 691:0.028563039 692:0.19134469 693:0.37011081 694:0.4503009 695:0.4503009 696:0.4503009 697:0.38473219 698:0.1717933 699:0.024584601 700:0.0079586636 701:0.078858651 702:0.4503009 703:0.18582889 704:0.47457111 705:0.47457111 706:0.47457111 707:0.47457111 708:0.2230638 709:0.040574972 710:0.066286929 711:0.063709959 712:0.3815814 713:0.3815814 714:0.3815814 715:0.3815814 716:0.3815814 717:0.34144539 718:0.02397983 719:0.073496282 720:0.3815814 721:0.33793041 722:0.33793041 723:0.33793041 724:0.28818071 725:0.33793041 726:0.33793041 727:0.33793041 728:0.33793041 729:0.33793041 730:0.36768511 731:0.32313621 732:0.36768511 733:0.36768511 734:0.36768511 735:0.25700131 736:0.1212672 737:0.36768511 738:0.36768511 739:0.36526361 740:0.36526361 741:0.36526361 742:0.36526361 743:0.36526361 744:0.231318 745:0.094445959 746:0.36526361 747:0.36526361 748:0.26702151 749:0.20927159 750:0.35483599 751:0.35483599 752:0.35483599 753:0.35483599 754:0.35483599 755:0.35483599 756:0.35483599 757:0.06916187 758:0.39956149 759:0.44140041 760:0.38561511 761:0.52312487 762:0.42476359 763:0.098242767 764:0.1290922 765:0.080057181 766:0.043642811 767:0.0294204 768:0.032683149 769:0.19706041 770:0.95445663 771:0.1910297 772:0.002981341 773:0.0071667321 774:0.01633624 775:0.34776521 776:0.25638911 777:0.35709271 778:0.2237054 779:0.55603802 780:0.26021549 781:0.27369681 782:0.3856532 783:0.1722887 784:0.35374501 785:0.35374501 786:0.35374501 787:0.35374501 788:0.34360361 789:0.27189341 790:0.25964561 791:0.35374501 792:0.3337405 793:0.35785639 794:0.35785639 795:0.35785639 796:0.2233659 797:0.3359116 798:0.29958931 799:0.32192561 800:0.35785639 801:0.35785639 802:0.40703771 803:0.2036182 804:0.40703771 805:0.28712469 806:0.40703771 807:0.3836467 808:0.1998505 809:0.1489597 810:0.40703771 811:0.58198351 812:0.28731129 813:0.13106529 814:0.2464412 815:0.2189263 816:0.04369868 817:0.021319769 818:0.32561791 819:0.58198351 820:0.4726446 821:0.096485637 822:0.2281161 823:0.17243379 824:0.44085479 825:0.14630219 826:0.1351411 827:0.4726446 828:0.4726446 829:0.4602145 830:0.072940283 831:0.2367429 832:0.1900526 833:0.4602145 834:0.32341459 835:0.30954751 836:0.2492124 837:0.4602145 838:0.4253521 839:0.1900207 840:0.4253521 841:0.4253521 842:0.4253521 843:0.1280323 844:0.1421521 845:0.1357263 846:0.4253521 847:0.40781039 848:0.087401234 849:0.40781039 850:0.36229879 851:0.4033691 852:0.1463674 853:0.087516896 854:0.40781039 855:0.40781039 856:0.39043301 857:0.25150889 858:0.39043301 859:0.39043301 860:0.39043301 861:0.097105309 862:0.093733288 863:0.39043301 864:0.39043301 865:0.021972399 866:0.026704511 867:0.47527331 868:0.61754549 869:0.61754549 870:0.049771301 871:0.008342037 872:0.0164907 873:0.034779549 874:0.3403371 875:0.33209559 876:0.35008201 877:0.49064919 878:0.49064919 879:0.1903581 880:0.2255441 881:0.17948531 882:0.21361379 883:0.26453221 884:0.48033899 885:0.48033899 886:0.48033899 887:0.2842091 888:0.03169832 889:0.1981474 890:0.15380681 891:0.29723731 892:0.39050329 893:0.39050329 894:0.3517012 895:0.39050329 896:0.39050329 897:0.3035602 898:0.3360396 899:0.1213323 900:0.2064964 901:0.33277869 902:0.33277869 903:0.33277869 904:0.33277869 905:0.33277869 906:0.33277869 907:0.33277869 908:0.33277869 909:0.33277869 910:0.40387839 911:0.32446659 912:0.40387839 913:0.40387839 914:0.40387839 915:0.1216647 916:0.044957832 917:0.24140149 918:0.40387839 919:0.4069379 920:0.041718598 921:0.4069379 922:0.4069379 923:0.4069379 924:0.01335779 925:0.02062194 926:0.4069379 927:0.4069379 928:0.70298058 929:0.0069596041 930:0.024653049 931:0.01267117 932:0.043935161 933:0.0047126678 934:0.01438834 935:0.040532511 936:0.70298058 937:0.69674081 938:0.0067564412 939:0.1233642 940:0.04053589 941:0.070337631 942:0.0003540153 943:0 944:0.017154019 945:0.69674081 946:0.56814069 947:0.060215179 948:0.050277799 949:0.0040055281 950:0.01355137 951:0.001921193 952:0.140064 953:0.56814069 954:0.56814069 955:0.49730381 956:0.08041878 957:0.4631013 958:0.1028928 959:0.05839343 960:0.027480491 961:0.1319771 962:0.49730381 963:0.49730381 964:0.44002059 965:0.042593211 966:0.44002059 967:0.44002059 968:0.44002059 969:0.072093211 970:0.050655849 971:0.1339269 972:0.44002059 973:0.40657541 974:0.40657541 975:0.21470159 976:0.40657541 977:0.40657541 978:0.1257389 979:0.33368841 980:0.39644641 981:0.065568872 982:0.05943545 983:0.2153824 984:0.55208009 985:0.55208009 986:0.55208009 987:0.0046257339 988:0.1049742 989:0.12521259 990:0.05889032 991:0.43471789 992:0.43471789 993:0.1615271 994:0.43471789 995:0.43471789 996:0.1351757 997:0.033770628 998:0.072493471 999:0.43471789 1000:0.40384841 1001:0.40384841 1002:0.40384841 1003:0.40384841 1004:0.40384841 1005:0.055911612 1006:0.045576669 1007:0.1104601 1008:0.40384841 1009:0.32651049 1010:0.37657061 1011:0.37657061 1012:0.37657061 1013:0.37657061 1014:0.37657061 1015:0.37657061 1016:0.1362415 1017:0.14224809 1018:0.40612441 1019:0.2627666 1020:0.19702929 1021:0.040559862 1022:0.40612441 1023:0.29153761 1024:0.40612441 1025:0.37641579 1026:0.40612441 1027:0.4674139 1028:0.060764171 1029:0.037258461 1030:0.0064736442 1031:0.4674139 1032:0.035546832 1033:0.4674139 1034:0.3391788 1035:0.4674139 1036:0.43815041 1037:0.40674391 1038:0.4329868 1039:0.1334565 1040:0.43815041 1041:0 1042:0.17933179 1043:0.1296429 1044:0.43815041 1045:0.4561325 1046:0.25354701 1047:0.38936919 1048:0.1090966 1049:0.40215871 1050:0.18462519 1051:0.34121221 1052:0.1982166 1053:0.4561325 1054:0.50172698 1055:0.26286429 1056:0.2485372 1057:0.12898821 1058:0.50172698 1059:0.1320975 1060:0.216555 1061:0.1671733 1062:0.50172698 1063:0.41547319 1064:0.41547319 1065:0.37502709 1066:0.37236509 1067:0.41547319 1068:0.096649207 1069:0.1246719 1070:0.03453178 1071:0.41547319 1072:0.35751829 1073:0.35751829 1074:0.35751829 1075:0.35751829 1076:0.31524259 1077:0.048114359 1078:0.35751829 1079:0.35751829 1080:0.35751829 1081:0.43156651 1082:0.43156651 1083:0.31167641 1084:0.1618403 1085:0.2437399 1086:0.065468051 1087:0.29510689 1088:0.4035126 1089:0.43156651 #
0.0083138614086875652 1:0.1656708 2:0.57788169 3:0.57788169 4:0.49951899 5:0.2174594 6:0 7:0.002342592 8:0.0061291638 9:0.045139089 10:0.5100165 11:0.5100165 12:0.5100165 13:0.04631985 14:0.1111823 15:0.1566007 16:0.1462488 17:0.1065334 18:0.3778716 19:0.39194021 20:0.39194021 21:0.1623296 22:0.084129021 23:0.32694089 24:0.39194021 25:0.39194021 26:0.29610831 27:0.39194021 28:0.4680872 29:0.4680872 30:0.0122056 31:0.0096266707 32:0.072839431 33:0.2101365 34:0.26305389 35:0.4680872 36:0.4680872 37:0.5445314 38:0.32348359 39:0.0076020379 40:0.0022148441 41:0.01407203 42:0.0020775259 43:0.01059103 44:0.5445314 45:0.5445314 46:0.57198352 47:0.57198352 48:0.1063565 49:0.0019000201 50:0.02381002 51:0 52:0 53:0.030178631 54:0.57198352 55:0.50215918 56:0.50215918 57:0.50215918 58:0.1312453 59:0.061895091 60:0.05551267 61:0.055855948 62:0.021884169 63:0.4590821 64:0.32210901 65:0.4636063 66:0.4636063 67:0.4636063 68:0.28267381 69:0.1862874 70:0.1681432 71:0.030860379 72:0.32092169 73:0.02747347 74:0.56832278 75:0.56832278 76:0.4774518 77:0.076377943 78:0.02316197 79:0.1891399 80:0.2005448 81:0.19304401 82:0.01519525 83:0.1272231 84:0.1714306 85:0.116084 86:0.34385791 87:0.49322709 88:0.49322709 89:0.49322709 90:0.29620281 91:0.1153443 92:0.25063989 93:0.39329559 94:0.39329559 95:0.39329559 96:0.39329559 97:0.39329559 98:0.33871439 99:0.1783579 100:0.030092539 101:0.24556109 102:0.54970849 103:0.54970849 104:0.54970849 105:0.1572759 106:0.027146099 107:0.019888621 108:0.029970599 109:0.1883629 110:0.33702591 111:0.2583088 112:0.4030827 113:0.4030827 114:0.4030827 115:0.4030827 116:0.2070765 117:0.2956337 118:0.4418802 119:0.4418802 120:0.4418802 121:0.1363492 122:0.230903 123:0.37578261 124:0.2384478 125:0.12851641 126:0.3511669 127:0.50680578 128:0.50680578 129:0.50680578 130:0.31940711 131:0.1079239 132:0.025621209 133:0.15482271 134:0.088422827 135:0.27976531 136:0.49382499 137:0.49382499 138:0.49382499 139:0.051028881 140:0.0073612132 141:0 142:0.0149442 143:0.12935971 144:0.49382499 145:0.69146639 146:0.1483832 147:0.0095946919 148:0.00041012769 149:0.001133799 150:0.001475697 151:0.023590131 152:0.1190634 153:0.69146639 154:0.46837851 155:0.22356071 156:0.15803 157:0.117247 158:0.0046106628 159:0.2364732 160:0.4388006 161:0.46837851 162:0.46837851 163:0.2010019 164:0.2241452 165:0.44890609 166:0.1195368 167:0.00025376939 168:0.3547765 169:0.44890609 170:0.44890609 171:0.40020961 172:0.095266327 173:0.1547282 174:0.52957457 175:0.087680757 176:2.209915e-005 177:0.15826669 178:0.54499668 179:0.54499668 180:0.2330507 181:0.30627269 182:0.3628394 183:0.3861624 184:0.3861624 185:0.3861624 186:0.29147071 187:0.3861624 188:0.1685966 189:0.2466194 190:0.29834029 191:0.1204719 192:0.1233804 193:0.395872 194:0.395872 195:0.395872 196:0.30615169 197:0.395872 198:0.395872 199:0.002616955 200:0 201:0.4044269 202:0.6438424 203:0.6438424 204:0.01540334 205:0.025623679 206:0.0061039268 207:0.002616955 208:0.02929008 209:0.02364517 210:0.36692321 211:0.45493779 212:0.45493779 213:0.45493779 214:0.45493779 215:0.1755131 216:0.026970919 217:0.4229953 218:0.4229953 219:0.4229953 220:0.41857201 221:0.20991109 222:0.26218459 223:0.2059588 224:0.26122671 225:0.24563231 226:0.56116068 227:0.56116068 228:0.56116068 229:0.074242279 230:0.03095945 231:0.008643847 232:0.027218141 233:0.070815057 234:0.193368 235:0.52805078 236:0.52805078 237:0.52805078 238:0.085654996 239:0.05400455 240:0 241:0.09253899 242:0.136437 243:0.34753701 244:0.45306271 245:0.36120641 246:0.24392021 247:0.30990189 248:0.058908939 249:0.085800797 250:0.28781679 251:0.45306271 252:0.45306271 253:0.47942641 254:0.072456338 255:0.053404931 256:0.090063334 257:0.2121778 258:0.1207475 259:0.47942641 260:0.47942641 261:0.47942641 262:0.3742072 263:0.00025179749 264:0 265:0 266:0.0075679119 267:0.25597119 268:0.51292223 269:0.51292223 270:0.51292223 271:0.1359815 272:0.01559634 273:0.0049168752 274:0 275:9.1073663e-005 276:0.017503479 277:0.57015842 278:0.57015842 279:0.57015842 280:0.41271311 281:0.41271311 282:0.3841697 283:0.34734681 284:0.1096424 285:0.064010017 286:0.1737632 287:0.41271311 288:0.41271311 289:0.33907571 290:0.21862049 291:0.31570181 292:0.3840493 293:0.3840493 294:0.3840493 295:0.3840493 296:0.2088616 297:0.31643251 298:0.058199741 299:0.02284658 300:0.1944641 301:0.67290193 302:0.67290193 303:0.2123525 304:0.01808583 305:0.02007011 306:0.01181255 307:0.1325642 308:0.1201044 309:0.53702998 310:0.56722993 311:0.56722993 312:0.13482501 313:0.02172946 314:0.075850502 315:0.077676684 316:0.4159461 317:0.4159461 318:0.4159461 319:0.4015601 320:0.1856159 321:0.131579 322:0.1200487 323:0.27635419 324:0.4159461 325:0.48519811 326:0.2884967 327:0.05882388 328:0.001380635 329:0.001301182 330:0 331:0.44967541 332:0.48519811 333:0.48519811 334:0.26154149 335:0.095460072 336:0.067078032 337:0.0027671859 338:0.031702548 339:0.02596245 340:0.4619056 341:0.5903582 342:0.5903582 343:0.28522211 344:0.081646517 345:0.12784021 346:0.1481806 347:0.1747314 348:0.1118647 349:0.52453101 350:0.52453101 351:0.52453101 352:0.1831819 353:0.37469551 354:0.38231611 355:0.38231611 356:0.38231611 357:0.047629219 358:0.38231611 359:0.38231611 360:0.29854941 361:0.40851009 362:0.40851009 363:0.40851009 364:0.39189231 365:0.086619027 366:0.001462233 367:0.020780969 368:0.40851009 369:0.40851009 370:0.2611824 371:0.046707571 372:0.026230751 373:0 374:0.0054204119 375:0.041976009 376:0.43719819 377:0.60413092 378:0.60413092 379:0.085725993 380:0.064761087 381:0.04697749 382:0.001874413 383:0.057529919 384:0.5356378 385:0.5356378 386:0.5356378 387:0.34185389 388:0.32633379 389:0.085379623 390:0.1334592 391:0.070445754 392:0.26795459 393:0.48753369 394:0.48753369 395:0.3638826 396:0.4230659 397:0.28325519 398:0.40615919 399:0.065621488 400:0.02467704 401:0.44636309 402:0.44636309 403:0.3740674 404:0.32615921 405:0.31724021 406:0.36544141 407:0.36544141 408:0.36544141 409:0.36544141 410:0.36544141 411:0.36544141 412:0.36490911 413:0.18251801 414:0.1690944 415:0.3452149 416:0.3452149 417:0.3452149 418:0.3452149 419:0.3452149 420:0.3452149 421:0.3452149 422:0.3452149 423:0.2077605 424:0.28697801 425:0.16937 426:0.1381866 427:0.039061081 428:0.028236 429:0.14012749 430:0.5299719 431:0.5299719 432:0.5299719 433:0.02361205 434:9.1945607e-005 435:0 436:0 437:0.0063987249 438:0.01351707 439:0.57546282 440:0.57546282 441:0.57546282 442:0.082623176 443:0.0019373799 444:0 445:0 446:0.01622016 447:0.033829309 448:0.57330543 449:0.57330543 450:0.57330543 451:0.28982699 452:0.01986056 453:0.24999399 454:0.41814891 455:0.41814891 456:0.069250703 457:0.38677919 458:0.41814891 459:0.41230139 460:0.3712258 461:0.37548169 462:0.37548169 463:0.37548169 464:0.37548169 465:0.1085878 466:0.02701772 467:0.37548169 468:0.37548169 469:0.1235735 470:0.077663779 471:0.03114206 472:0.036552031 473:0.030480679 474:0.49258071 475:0.49258071 476:0.49258071 477:0.49258071 478:0.03515964 479:0.009530223 480:0.005807376 481:0 482:0.43479291 483:0.62431473 484:0.62431473 485:0.1516466 486:0.02875182 487:0.065787353 488:0.03596973 489:0.0512181 490:0.16665959 491:0.65154958 492:0.65154958 493:0.3253172 494:0.01159149 495:0.049752511 496:0.34160411 497:0.34160411 498:0.34160411 499:0.34160411 500:0.25107819 501:0.34160411 502:0.34160411 503:0.34160411 504:0.34160411 505:0.3915208 506:0.3559939 507:0.2156481 508:0.275123 509:0.15305699 510:0.33253521 511:0.3915208 512:0.3915208 513:0.3915208 514:0.040577319 515:0.01033213 516:0.026381969 517:0.04104368 518:0.052068241 519:0.23704819 520:0.61592352 521:0.61592352 522:0.41483709 523:0.034752849 524:0.001858136 525:0.0091018947 526:0.0026797331 527:0.02141192 528:0.1105838 529:0.6455099 530:0.6455099 531:0.38236219 532:0.27717489 533:0 534:0 535:0 536:0.016201099 537:0.051576771 538:0.5235166 539:0.56591988 540:0.56591988 541:0.04870249 542:9.7378441e-005 543:0 544:0.0050826948 545:0.01532385 546:0.031806279 547:0.52661908 548:0.59710377 549:0.59710377 550:0.2461298 551:0.061100461 552:0.1050403 553:0.221919 554:0.20939741 555:0.0035167399 556:0.40870589 557:0.57392257 558:0.57392257 559:0.26570109 560:0.17243861 561:0.22038551 562:0.43556491 563:0.43556491 564:0.43556491 565:0.2768071 566:0.36148679 567:0.26514539 568:0.02565 569:0.045262001 570:0.060933951 571:0.22573081 572:0.5359441 573:0.5359441 574:0.5359441 575:0.27337801 576:0.028812179 577:0.001264081 578:0.001226939 579:0.003671471 580:0.051828749 581:0.60481852 582:0.60481852 583:0.50955111 584:0.001805641 585:0.001264081 586:0.074063882 587:0.002619429 588:0.022599779 589:0.094120443 590:0.62845588 591:0.62845588 592:0.40443611 593:0.1410526 594:0.074063882 595:0.42303041 596:0.1377258 597:0.20337281 598:0.42303041 599:0.42303041 600:0.42303041 601:0.32104579 602:0.046262469 603:0.338254 604:0.1815585 605:0.075306207 606:0.1462291 607:0.46354479 608:0.46354479 609:0.46354479 610:0.46354479 611:0.12702081 612:0.2443832 613:0.34513241 614:0.1113426 615:0.063465163 616:0.092730694 617:0.2272305 618:0.1756646 619:0.46367681 620:0.52588958 621:0.52588958 622:0.054998301 623:0.01136512 624:0.0069696791 625:0.00081861293 626:0.03323577 627:0.06546969 628:0.57320207 629:0.57320207 630:0.57320207 631:0.020321161 632:0 633:0.001311989 634:0.0006056744 635:0.001969707 636:0.02077827 637:0.2089007 638:0.68870711 639:0.68870711 640:0.01356628 641:4.900684e-006 642:0 643:0.00488385 644:0.01288192 645:0.0077802981 646:0.53958732 647:0.59266073 648:0.59266073 649:0.1918436 650:0.007202466 651:0.005790296 652:0.0050401432 653:0.025011409 654:0.2433649 655:0.57763588 656:0.57763588 657:0.4797278 658:0.35322061 659:0.2845763 660:0.35322061 661:0.35322061 662:0.35322061 663:0.2052653 664:0.35322061 665:0.35322061 666:0.35322061 667:0.105731 668:0.076084472 669:0.2034429 670:0.48730949 671:0.48730949 672:0.48730949 673:0.46835741 674:0.064566277 675:0.02892977 676:0.0075408979 677:0.001500467 678:0.0072810929 679:0.48925501 680:0.48925501 681:0.48925501 682:0.48925501 683:0.1920027 684:0.025582921 685:0.1110491 686:0.06656374 687:0.2692565 688:0.47590539 689:0.47590539 690:0.47590539 691:0.39339659 692:0.22543 693:0.14473259 694:0.2179987 695:0.1187187 696:0.1214277 697:0.478508 698:0.478508 699:0.478508 700:0.478508 701:0.001604363 702:0.054554678 703:0.02763357 704:0.01541262 705:0.015764309 706:0.021237331 707:0.142186 708:0.69669223 709:0.69669223 710:0.01575854 711:0.01092833 712:0.063867889 713:0.104883 714:0.13775399 715:0.002366408 716:0.55146682 717:0.55146682 718:0.55146682 719:0.1450507 720:0.16445421 721:0.34657419 722:0.28061801 723:0.25307921 724:0.05427837 725:0.3933242 726:0.33376569 727:0.3933242 728:0.3933242 729:0.3933242 730:0.046387039 731:0.2751646 732:0.35154971 733:0.39615619 734:0.39615619 735:0.099443443 736:0.39615619 737:0.39615619 738:0.39615619 739:0.4334546 740:0.4334546 741:0.3138018 742:0.30177861 743:0.10821 744:0 745:0.4334546 746:0.4334546 747:0.20709281 748:0.18836319 749:0.4377183 750:0.29459131 751:0.32052121 752:0.4377183 753:0.05761975 754:0.4377183 755:0.4377183 756:0.03032681 757:0.3681595 758:0.3681595 759:0.3681595 760:0.25715721 761:0.3681595 762:0.2758922 763:0.3681595 764:0.3681595 765:0.2020566 766:0.15272181 767:0.4017567 768:0.4017567 769:0.23536029 770:0.4017567 771:0.3882204 772:0.4017567 773:0.3459357 774:0.035326339 775:0.023309501 776:0.45566529 777:0.45566529 778:0.1774926 779:0.45566529 780:0.2807503 781:0.45566529 782:0.23228081 783:0.01015643 784:0.079437472 785:0.13522699 786:0.30769071 787:0.45824221 788:0.45824221 789:0.45824221 790:0.45824221 791:0.1832203 792:0.05137315 793:0.0037871299 794:0.016041109 795:0.1451866 796:0.62591481 797:0.62591481 798:0.37016761 799:0.227672 800:0 801:0.001598704 802:0.0002353803 803:0.001725333 804:0.02111616 805:0.46162581 806:0.51034492 807:0.51034492 808:0.51034492 809:0.0002015544 810:0.0002761372 811:0.0022822521 812:0 813:0 814:0.029844951 815:0.4511272 816:0.57706279 817:0.57706279 818:0.35122859 819:0.021490831 820:0.2380614 821:0 822:0 823:0.1256385 824:0.44330251 825:0.44330251 826:0.44330251 827:0.44330251 828:0.37019649 829:0.01306159 830:0.083197176 831:0.19991221 832:0.54424793 833:0.54424793 834:0.54424793 835:0.23881669 836:0.042497799 837:0.0071233148 838:0.1901827 839:0.3834368 840:0.38057679 841:0.3834368 842:0.3834368 843:0.3834368 844:0.3834368 845:0.27007151 846:0.084283262 847:0.3839528 848:0.3839528 849:0.3839528 850:0.3403216 851:0.1830444 852:0.28155169 853:0.2374254 854:0.34859559 855:0.3839528 856:0.62881249 857:0.62881249 858:0.34010521 859:0.046444219 860:0.078316122 861:0.001410931 862:0.020918449 863:0.02171107 864:0.27935401 865:0.57402003 866:0.57402003 867:0.57402003 868:0.01702488 869:0.01490378 870:0.0027595609 871:0.0029465279 872:0.0049691768 873:0.072236739 874:0.5268442 875:0.5268442 876:0.5268442 877:0.074458674 878:0.2919786 879:0.218665 880:0.040527981 881:0.045980129 882:0.1402757 883:0.3599098 884:0.3599098 885:0.3599098 886:0.3599098 887:0.3599098 888:0.3599098 889:0.28508869 890:0.091559611 891:0.3599098 892:0.002233295 893:0 894:0.0061248932 895:0.6281839 896:0.6281839 897:0.4253298 898:0.15318459 899:0.0089300424 900:0.002233295 901:0.0140359 902:0.0055149249 903:0.049313512 904:0.67356122 905:0.67356122 906:0.27777389 907:0.075803839 908:0.01845145 909:0.001448165 910:0.14684521 911:0.067687593 912:0.053160459 913:0.26198769 914:0.43644071 915:0.43783399 916:0.43783399 917:0.43783399 918:0.36392519 919:0.057065569 920:0.00358077 921:0 922:0.001302059 923:0.1171514 924:0.1224497 925:0.67396241 926:0.67396241 927:0.22985131 928:0.1045445 929:0.01694837 930:0 931:0.01188366 932:0.47628859 933:0.47628859 934:0.47628859 935:0.47628859 936:0.27655271 937:0.033888899 938:0.032688871 939:0.0075013991 940:0.00014679341 941:0.075054891 942:0.48842031 943:0.49951649 944:0.49951649 945:0.49951649 946:0.49458811 947:0.49458811 948:0.080365866 949:0 950:0.006477084 951:0.047589529 952:0.088460088 953:0.49458811 954:0.49458811 955:0.56673127 956:0.56673127 957:0.56673127 958:0.01430336 959:0.0078036189 960:0.007006783 961:0.005303015 962:0.02308654 963:0.172951 964:0.53409648 965:0.53409648 966:0.53409648 967:0.32542631 968:0.1430424 969:0.024752781 970:0.02355532 971:0.083948813 972:0.065654293 973:0.37865219 974:0.37865219 975:0.37865219 976:0.37865219 977:0.37865219 978:0.32083949 979:0.1374255 980:0.1188638 981:0.37865219 982:0.49407089 983:0.49407089 984:0.49407089 985:0.30679789 986:0.26278031 987:0.086205304 988:0.05383037 989:0.0080688177 990:0.29862151 991:0.0082413694 992:0.01789964 993:0.115166 994:0.53946722 995:0.53946722 996:0.53946722 997:0.1011302 998:0.2944271 999:0.1047481 1000:0.0049386672 1001:0.01831682 1002:0.098305427 1003:0.57183093 1004:0.57183093 1005:0.57183093 1006:0.026195411 1007:0.048528772 1008:0.015909459 1009:0.1639955 1010:0.32721779 1011:0.40816921 1012:0.40816921 1013:0.40816921 1014:0.2424722 1015:0.1208256 1016:0.40816921 1017:0.3495087 1018:0.2721352 1019:0.1044028 1020:0.1729878 1021:0.30156019 1022:0.43994099 1023:0.018961839 1024:0.44565299 1025:0.44565299 1026:0.44565299 1027:0.51694947 1028:0.073374793 1029:0.017783569 1030:0.018942 1031:0.094209209 1032:0.027752271 1033:0.3686884 1034:0.53654891 1035:0.53654891 1036:0.5229103 1037:0.5229103 1038:0.064538941 1039:0 1040:0.062440731 1041:0.022692081 1042:0.1598459 1043:0.37462321 1044:0.5229103 1045:0.57169998 1046:0.47571781 1047:0.079920329 1048:0 1049:0.065722249 1050:0.001285802 1051:0.04667592 1052:0.3184571 1053:0.57169998 1054:0.56145102 1055:0.56145102 1056:0.1734044 1057:0.0090489807 1058:0.054313499 1059:0.0044328212 1060:0.049965791 1061:0.1144322 1062:0.56145102 1063:0.42367399 1064:0.42367399 1065:0.42367399 1066:0.42367399 1067:0.2187425 1068:0.23949111 1069:0.039391361 1070:0.08920949 1071:0.40380049 1072:0.2547113 1073:0.38543251 1074:0.42644641 1075:0.42644641 1076:0.42644641 1077:0.42644641 1078:0.1669572 1079:0.1493565 1080:0.068524659 1081:0.33917791 1082:0.31455839 1083:0.33917791 1084:0.33917791 1085:0.33917791 1086:0.3039282 1087:0.33917791 1088:0.33917791 1089:0.33917791 #
