SVM-light Version V6.02
0 # kernel type
3 # kernel parameter -d 
1 # kernel parameter -g 
1 # kernel parameter -s 
1 # kernel parameter -r 
empty# kernel parameter -u 
1089 # highest feature index 
783 # number of training documents 
52 # number of support vectors plus 1 
-0.058432219 # threshold b, each following line is a SV (starting with alpha*y)
0.004978814848671461 1:0.38417339 2:0.3087317 3:0.38417339 4:0.1237394 5:0.38417339 6:0 7:0.38417339 8:0.38417339 9:0.38417339 10:0.37709299 11:0.37709299 12:0.37709299 13:0.006306374 14:0.37709299 15:0.028263221 16:0.37709299 17:0.37709299 18:0.37709299 19:0.42511049 20:0.186379 21:0.42511049 22:0 23:0.42511049 24:0.05116456 25:0.42511049 26:0.2341025 27:0.42511049 28:0.378831 29:0.36328891 30:0.378831 31:0.0035434479 32:0.378831 33:0.0560937 34:0.378831 35:0.378831 36:0.378831 37:0.17029279 38:0.52155519 39:0.52155519 40:0.52155519 41:0.1775828 42:0 43:0.25935891 44:0.093326643 45:0.2054743 46:0.4314211 47:0.4314211 48:0.4314211 49:0.14539041 50:0.043384399 51:0 52:0.2050586 53:0.4314211 54:0.4314211 55:0.148974 56:0.077900209 57:0.079919927 58:0.018535201 59:0.1429019 60:0.17715199 61:0.6173712 62:0.6173712 63:0.380454 64:0.3242439 65:0.032515179 66:0.069828913 67:0.12696961 68:0.4361625 69:0.4361625 70:0.4361625 71:0.4361625 72:0.3278777 73:0.44054431 74:0.29781711 75:0.44054431 76:0.2783426 77:0.44054431 78:0.038314559 79:0.21794219 80:0.06438791 81:0.44054431 82:0.41348961 83:0.26668441 84:0.41348961 85:0.41348961 86:0.41348961 87:0 88:0.2507197 89:0.083786301 90:0.41348961 91:0.44211239 92:0.1074718 93:0.1186642 94:0.1093429 95:0.44211239 96:0.054593321 97:0.44211239 98:0.4161281 99:0.44211239 100:0.3835752 101:0.3835752 102:0.207432 103:0.265255 104:0.3835752 105:0 106:0.3835752 107:0.3835752 108:0.3835752 109:0.3806558 110:0.3806558 111:0.3806558 112:0 113:0.3806558 114:0.1110022 115:0.3806558 116:0.3806558 117:0.33835289 118:0.4149836 119:0.2627821 120:0.36548579 121:0.1182189 122:0.4149836 123:0.21900789 124:0.4149836 125:0.20599639 126:0.4149836 127:0.1206237 128:0.53012061 129:0.53012061 130:0.53012061 131:0.32341751 132:0.102091 133:0.067757688 134:0.05063751 135:0.1220478 136:0.01271464 137:0.38163331 138:0.6522072 139:0.62660778 140:0.16522869 141:0.041346829 142:0.016952001 143:0.01052017 144:0.01622642 145:0.37723681 146:0.37723681 147:0.37723681 148:0.28776059 149:0.37723681 150:0.087065317 151:0.2280324 152:0.37723681 153:0.37723681 154:0.1526444 155:0.01357784 156:0.048551738 157:0.062217429 158:0.080025882 159:0.392349 160:0.62153947 161:0.62153947 162:0.1763995 163:0.04577348 164:0 165:0.006314679 166:0.01291656 167:0.01087587 168:0.54551429 169:0.58821809 170:0.58821809 171:0.046038099 172:0.39991421 173:0.04671168 174:0.1898035 175:0.102325 176:0.39991421 177:0.39991421 178:0.39991421 179:0.38427851 180:0.39991421 181:0.39568931 182:0.14781021 183:0.39568931 184:0.39568931 185:0.39568931 186:0.0032577219 187:0.39568931 188:0.18646251 189:0.39568931 190:0.4610903 191:0.1463034 192:0.1042447 193:0.1233751 194:0.4610903 195:0.21882001 196:0.4610903 197:0.22271471 198:0.4610903 199:0.42280871 200:0.2190793 201:0.22976381 202:0.1792798 203:0.42280871 204:0 205:0.42280871 206:0.38442031 207:0.42280871 208:0.41145569 209:0.41145569 210:0.33901921 211:0.1107307 212:0.41145569 213:0 214:0.397695 215:0.18261901 216:0.41145569 217:0.4783251 218:0.4783251 219:0.4783251 220:0.4783251 221:0.21046589 222:0 223:0.062969603 224:0.02104333 225:0.17702781 226:0.045517672 227:0.57298732 228:0.57298732 229:0.57298732 230:0.082943939 231:0 232:0.01592971 233:0.0053234319 234:0.01006441 235:0.050579678 236:0.58413291 237:0.58413291 238:0.42973351 239:0.31262901 240:0.01969794 241:0.1398332 242:0.055511441 243:0.061284501 244:0.42612749 245:0.42839301 246:0.42839301 247:0.01172004 248:0.1574706 249:0.036509991 250:0.23191939 251:0.42839301 252:0.42839301 253:0.18598381 254:0.063755684 255:0.054210741 256:0.021942141 257:0.1255134 258:0.41242161 259:0.5714218 260:0.5714218 261:0.33664221 262:0.04615806 263:0.007798295 264:0.024037929 265:0.001437037 266:0.062321741 267:0.39224619 268:0.64325982 269:0.64325982 270:0.074156404 271:0.058754109 272:0.018605851 273:0.05567579 274:0 275:0.081589743 276:0.41784659 277:0.62614608 278:0.62614608 279:0.1465601 280:0.4166964 281:0.1627354 282:0.4330669 283:0 284:0.21257161 285:0.01344683 286:0.4330669 287:0.4330669 288:0.4330669 289:0.37630469 290:0.37630469 291:0.37630469 292:0 293:0.37630469 294:0.25568181 295:0.37630469 296:0.28501949 297:0.37630469 298:0.44495499 299:0.2144372 300:0.44495499 301:0.24643929 302:0.44495499 303:0 304:0.25548539 305:0.1778408 306:0.44495499 307:0.1641324 308:0.54145539 309:0.54145539 310:0.54145539 311:0.26603341 312:0 313:0.081316367 314:0.027174501 315:0.1000327 316:0.1154135 317:0.67506438 318:0.67506438 319:0.26055059 320:0.01275478 321:0 322:0.01351788 323:0.0045174379 324:0.016253009 325:0.21363349 326:0.56832361 327:0.56832361 328:0.51478207 329:0.1218739 330:0.003462194 331:0.04613281 332:0.1009215 333:0.1025802 334:0.084287889 335:0.68635219 336:0.68635219 337:0.14307091 338:0.1129569 339:0.01412801 340:0.083754212 341:0.031976141 342:0.049191389 343:0.20008411 344:0.52974838 345:0.52974838 346:0.1763078 347:0.3991046 348:0.058307201 349:0.1174135 350:0.3640655 351:0.2308916 352:0.24646351 353:0.2256338 354:0.2178006 355:0.0085697398 356:0.2486665 357:0.33884969 358:0.55868047 359:0.55868047 360:0.1853472 361:0.069667064 362:0.022586901 363:0.048183471 364:0.029996609 365:0.1201371 366:0.38576609 367:0.61452049 368:0.61452049 369:0.25837901 370:0.0063554579 371:0.001542915 372:0.00461698 373:0 374:0.1431684 375:0.1397405 376:0.69019067 377:0.69019067 378:0.0171801 379:0.08065322 380:0.01015992 381:0.030402269 382:0 383:0.1352405 384:0.3018468 385:0.65654802 386:0.65654802 387:0.1200039 388:0.3841753 389:0.14713471 390:0.1722156 391:0.2435392 392:0.3841753 393:0.3841753 394:0.3841753 395:0.3841753 396:0.3841753 397:0.2370998 398:0.52744091 399:0.52744091 400:0.52744091 401:0.2445422 402:0 403:0.054940321 404:0.091787517 405:0.1808047 406:0.02880241 407:0.59434283 408:0.68228012 409:0.41410261 410:0.03801205 411:0 412:0 413:0 414:0.02615411 415:0.2135241 416:0.64356291 417:0.64356291 418:0.25434539 419:0.035725549 420:0 421:0.16448051 422:0.054966569 423:0.1535994 424:0.091790408 425:0.69359219 426:0.69359219 427:0.078694157 428:0.051530018 429:0.01423969 430:0.087168463 431:0.05112664 432:0.056985371 433:0.1348272 434:0.52685809 435:0.52685809 436:0.01823177 437:0.52685809 438:0.14478759 439:0.2736153 440:0.1742004 441:0.1315857 442:0.3949756 443:0.319444 444:0.3949756 445:0.020045459 446:0.3949756 447:0.048086509 448:0.33356711 449:0.3949756 450:0.3949756 451:0.29064459 452:0.26281989 453:0.38095459 454:0.25855851 455:0.38095459 456:0.25172409 457:0.38095459 458:0.38095459 459:0.3632113 460:0.1440846 461:0.0080258464 462:0.032094151 463:0.1913961 464:0.39255369 465:0.41974229 466:0.53930652 467:0.53930652 468:0.15537649 469:0.025277 470:0.041704241 471:0.05754647 472:0 473:0.092306592 474:0.1258962 475:0.69305861 476:0.69305861 477:0.048588779 478:0.05762329 479:0.2071787 480:0.13552751 481:0 482:0.03153839 483:0.20441499 484:0.66464221 485:0.66464221 486:0.04974902 487:0.1429545 488:0.01253883 489:0.01174907 490:0.075439721 491:0.1878335 492:0.52950889 493:0.56091511 494:0.56091511 495:0.15186711 496:0.03004596 497:0.3839179 498:0.3839179 499:0.3839179 500:0.3839179 501:0.3839179 502:0.3839179 503:0.3321476 504:0.024126111 505:0.100249 506:0.2727842 507:0.4967066 508:0.2419804 509:0.4967066 510:0.1701332 511:0.33032969 512:0.45303291 513:0.1236405 514:0.16917869 515:0.39203301 516:0.39203301 517:0.39203301 518:0.39203301 519:0.39203301 520:0.39203301 521:0.1774255 522:0.1176583 523:0.204942 524:0.4212414 525:0.4212414 526:0.1236418 527:0.4212414 528:0.1802711 529:0.4212414 530:0.37108901 531:0.2419119 532:0.37122831 533:0.21436369 534:0.37122831 535:0.37122831 536:0.37122831 537:0 538:0.37122831 539:0.3513926 540:0.37122831 541:0.43803799 542:0.2633135 543:0.43803799 544:0.05171347 545:0.43803799 546:0 547:0.302026 548:0.25472969 549:0.43803799 550:0.39825091 551:0.1441216 552:0.1429932 553:0.056396831 554:0.39825091 555:0.39825091 556:0.39825091 557:0.39825091 558:0.39825091 559:0.40220591 560:0.111473 561:0.097731113 562:0.05819428 563:0.40220591 564:0.40220591 565:0.40220591 566:0.40220591 567:0.40220591 568:0.1121065 569:0.211052 570:0.43276161 571:0.3458645 572:0.40377101 573:0.2843537 574:0.43276161 575:0.43276161 576:0.1149264 577:0.1932559 578:0.39738351 579:0.39738351 580:0.155082 581:0.39738351 582:0.39738351 583:0.39738351 584:0.3381235 585:0.17531709 586:0.074373409 587:0.26880801 588:0.41602549 589:0.36580241 590:0.41602549 591:0.41602549 592:0.41602549 593:0.29770949 594:0.057476539 595:0.14815781 596:0.1001974 597:0.153299 598:0.3752521 599:0.3264553 600:0.45897791 601:0.45897791 602:0.45897791 603:0.2460798 604:0.1129645 605:0.024592539 606:0.029060779 607:0.01379715 608:0.29476771 609:0.246758 610:0.63534242 611:0.63534242 612:0.15543041 613:0.086615346 614:0.086027071 615:0.1674616 616:0.043974228 617:0.47250861 618:0.37527549 619:0.53634763 620:0.53634763 621:0.1016376 622:0.05250717 623:0.0030537469 624:0.025470041 625:0.02058593 626:0.1925876 627:0.2183034 628:0.63770771 629:0.63770771 630:0.3028298 631:0.38457599 632:0.039480861 633:0.1181416 634:0.2075454 635:0.4100987 636:0.34159839 637:0.4100987 638:0.4100987 639:0.4100987 640:0.3858403 641:0.26198509 642:0.3858403 643:0.3858403 644:0.3858403 645:0.01027248 646:0.2892178 647:0.3152664 648:0.3858403 649:0.38808209 650:0.2039559 651:0.38808209 652:0.21775571 653:0.38808209 654:0.058833901 655:0.38808209 656:0.38808209 657:0.38808209 658:0.2499318 659:0.55915642 660:0.55915642 661:0.440119 662:0.2285085 663:0.0077501871 664:0.04571211 665:0.0143021 666:0.24158549 667:0.1235861 668:0.55884677 669:0.55884677 670:0.55884677 671:0.1770875 672:0.01751902 673:0.094023012 674:0.03142086 675:0.02687433 676:0.2129079 677:0.62523592 678:0.62523592 679:0.32299021 680:0.2299477 681:0.02766324 682:0.082187667 683:0.027465681 684:0.033387039 685:0.096727788 686:0.68178391 687:0.68178391 688:0.211611 689:0.090795778 690:0.0183019 691:0 692:0 693:0.028654691 694:0.40263709 695:0.0092747994 696:0.059332099 697:0.1402553 698:0.40263709 699:0.40263709 700:0.40263709 701:0.40263709 702:0.40263709 703:0.042720161 704:0.004516019 705:0.01351365 706:0.029685579 707:0.1135123 708:0.49282941 709:0.59950018 710:0.59950018 711:0.12860011 712:0.02372322 713:0.01250379 714:0.058119759 715:0.048531391 716:0.1275685 717:0.40918279 718:0.63305312 719:0.63305312 720:0.044837121 721:0.1241351 722:0.035417989 723:0.1846914 724:0.1609952 725:0.066157781 726:0.47146061 727:0.56899887 728:0.56899887 729:0.2084523 730:0.097362123 731:0.0056058201 732:0.016774731 733:0.006030004 734:0.1871365 735:0.25855169 736:0.59054089 737:0.59054089 738:0.43003321 739:0.37963179 740:0.2792381 741:0.3445721 742:0.1077045 743:0.37963179 744:0.2594257 745:0.37963179 746:0.37963179 747:0.37963179 748:0.21784431 749:0.54854298 750:0.54854298 751:0.37802511 752:0.4254089 753:0 754:0.016698441 755:0.042386089 756:0.1389823 757:0.040332381 758:0.56120878 759:0.57820863 760:0.57820863 761:0.083031043 762:0 763:0.02063176 764:0.0068947719 765:0.040332381 766:0.096096389 767:0.64350748 768:0.64350748 769:0.32097971 770:0.1631736 771:0 772:0.1330037 773:0.04444753 774:0.082571223 775:0.19456451 776:0.67381781 777:0.67381781 778:0.21286909 779:0.02537179 780:0 781:0.01329526 782:0.004443048 783:0.034690659 784:0.47455171 785:0.47455171 786:0.47455171 787:0.1587604 788:0.26290509 789:0 790:0.0111749 791:0.0037344641 792:0.47455171 793:0.68336999 794:0 795:0.02440083 796:0.049911469 797:0.1465206 798:0.075991943 799:0.1561133 800:0.066992722 801:0.68336999 802:0.67712522 803:0.054327451 804:0.049138531 805:0.1033683 806:0.098614313 807:0.094929412 808:0.1744796 809:0.104941 810:0.67712522 811:0.45927861 812:0.4066411 813:0.086799152 814:0.02888312 815:0.0469395 816:0.2020867 817:0.45927861 818:0.3818827 819:0.45927861 820:0.075297877 821:0.030513 822:0.03035653 823:0.0030177189 824:0.061881531 825:0.2435779 826:0.65244198 827:0.65244198 828:0.26727149 829:0.1222944 830:0.000167308 831:0.00050064729 832:0 833:0.1787048 834:0.47786921 835:0.5734722 836:0.5734722 837:0.24755269 838:0.40370119 839:0.34334099 840:0.24777851 841:0.007531127 842:0.2399082 843:0.29499099 844:0.41190651 845:0.41190651 846:0.41190651 847:0.37495911 848:0.58917511 849:0.58917511 850:0.1024454 851:0.1564703 852:0.009148174 853:0.052774612 854:0.12925769 855:0.32359481 856:0.1236543 857:0.59467453 858:0.59467453 859:0.36533421 860:0.2660301 861:0 862:0.2041288 863:0.1279199 864:0.096036717 865:0.073743246 866:0.6091345 867:0.6091345 868:0.36007029 869:0.13870659 870:0.02133422 871:0.1053862 872:0.28074619 873:0.084382072 874:0.38774911 875:0.38774911 876:0.38774911 877:0.25744191 878:0.34628651 879:0.138629 880:0.1974099 881:0.38774911 882:0.38774911 883:0.35778621 884:0.32405069 885:0.35778621 886:0.096993767 887:0.35778621 888:0.33755451 889:0.35778621 890:0.35778621 891:0.35778621 892:0.70177788 893:0.04166197 894:0 895:0 896:0.04625769 897:0 898:0.006045368 899:0.0640155 900:0.70177788 901:0.70377618 902:0.017258169 903:0 904:0 905:0.037181191 906:0 907:0 908:0.026310461 909:0.70377618 910:0.6558696 911:0.2094316 912:0.007606545 913:0 914:0.038370341 915:0.03387101 916:0.16774189 917:0.24175601 918:0.6558696 919:0.4225359 920:0.27924949 921:0.1325272 922:0 923:0.4225359 924:0.086904407 925:0.4225359 926:0.4225359 927:0.4225359 928:0.1218644 929:0.092665084 930:0.05327718 931:0 932:0.15211549 933:0.2238884 934:0.64125168 935:0.64125168 936:0.2676734 937:0.42061749 938:0.27605751 939:0.1217701 940:0.070554078 941:0.42061749 942:0.1232446 943:0.42061749 944:0.42061749 945:0.42061749 946:0.3722972 947:0.54645002 948:0.54645002 949:0.1034062 950:0.31738791 951:0.052297808 952:0.039444249 953:0.2155748 954:0.31069469 955:0.29796201 956:0.58298463 957:0.58298463 958:0.39673701 959:0.25193509 960:0 961:0.015794439 962:0.064048938 963:0.02078514 964:0.3979173 965:0.3979173 966:0.3979173 967:0.12505519 968:0.3979173 969:0.0088728797 970:0.1740063 971:0.3979173 972:0.3979173 973:0.43705589 974:0.43705589 975:0.43705589 976:0.003711405 977:0.14076769 978:0.1081785 979:0.1671281 980:0.43705589 981:0.41484839 982:0.38790011 983:0.38790011 984:0.38790011 985:0 986:0.38790011 987:0.38790011 988:0.276878 989:0.26644051 990:0.31006491 991:0.53444147 992:0.2637766 993:0.124863 994:0.2050842 995:0.53444147 996:0.0789885 997:0.065068811 998:0.0088400207 999:0.53444147 1000:0.60388148 1001:0.060960151 1002:0.037567351 1003:0.079121023 1004:0.4610396 1005:0 1006:0.037810419 1007:0.1981156 1008:0.60388148 1009:0.667867 1010:0.1169371 1011:0.07378985 1012:0.074674733 1013:0.21326999 1014:0 1015:0.073971853 1016:0.1599641 1017:0.667867 1018:0.50516838 1019:0.2061224 1020:0.2401133 1021:0.0060318038 1022:0.50516838 1023:0.0089276247 1024:0.27043611 1025:0.2365941 1026:0.50516838 1027:0.1280665 1028:0.081184357 1029:0.02818674 1030:0 1031:0.3433755 1032:0.32896489 1033:0.51722139 1034:0.51722139 1035:0.45813471 1036:0.33078521 1037:0.2396487 1038:0.3960574 1039:0.097870283 1040:0.27600241 1041:0.34057471 1042:0.3960574 1043:0.3960574 1044:0.3960574 1045:0.272241 1046:0.61462748 1047:0.61462748 1048:0.3523075 1049:0.13353109 1050:0.019446131 1051:0.029670799 1052:0.048505321 1053:0.1365709 1054:0.51180351 1055:0.51180351 1056:0.51180351 1057:0.2196535 1058:0.2437143 1059:0 1060:0.13516051 1061:0.158335 1062:0.2409928 1063:0.37291411 1064:0.37291411 1065:0.37291411 1066:0.151062 1067:0.37291411 1068:0 1069:0.37291411 1070:0.37291411 1071:0.37291411 1072:0.43914849 1073:0.43914849 1074:0.1600717 1075:0.01605032 1076:0.43914849 1077:0.32239649 1078:0.25620511 1079:0.16954879 1080:0.43914849 1081:0.3676697 1082:0.3676697 1083:0.3676697 1084:0.1990114 1085:0.3676697 1086:0.1773582 1087:0.33790401 1088:0.3676697 1089:0.3676697 #
-0.0072004781960900094 1:0.33954421 2:0.33954421 3:0.33954421 4:0.27255341 5:0.33954421 6:0.33954421 7:0.33954421 8:0.33954421 9:0.33954421 10:0.3568531 11:0.3568531 12:0.3568531 13:0.085668951 14:0.3568531 15:0.31254849 16:0.3568531 17:0.3568531 18:0.3568531 19:0.1684785 20:0.3478756 21:0.3478756 22:0.3478756 23:0.3478756 24:0.3478756 25:0.3478756 26:0.3478756 27:0.3478756 28:0.33817691 29:0.33817691 30:0.33817691 31:0.33817691 32:0.33817691 33:0.3334085 34:0.3100563 35:0.33817691 36:0.32115951 37:0.33856899 38:0.33856899 39:0.33856899 40:0.33856899 41:0.33856899 42:0.33856899 43:0.30035281 44:0.3224948 45:0.33856899 46:0.34606189 47:0.34606189 48:0.34606189 49:0.34606189 50:0.34606189 51:0.34606189 52:0.34606189 53:0.1961415 54:0.34606189 55:0.3472667 56:0.26614019 57:0.3472667 58:0.3472667 59:0.3472667 60:0.3472667 61:0.3472667 62:0.2855531 63:0.3472667 64:0.43528011 65:0.43528011 66:0.43528011 67:0.43528011 68:0.43528011 69:0.1859089 70:0.09069021 71:0.018416621 72:0.071988873 73:0.37749329 74:0.37749329 75:0.37749329 76:0.37749329 77:0.37749329 78:0.29661471 79:0.29121989 80:0.17549931 81:0.28307831 82:0.39569691 83:0.39569691 84:0.39569691 85:0.224319 86:0.20286129 87:0.25652301 88:0.236413 89:0.39569691 90:0.39569691 91:0.3762123 92:0.3762123 93:0.20787241 94:0.3762123 95:0.3762123 96:0.1280168 97:0.3461481 98:0.33037159 99:0.3762123 100:0.37313259 101:0.37313259 102:0.37313259 103:0.29223141 104:0.37313259 105:0.1515007 106:0.22924431 107:0.37313259 108:0.37313259 109:0.3495307 110:0.3495307 111:0.3495307 112:0.3495307 113:0.3495307 114:0.2397676 115:0.28951269 116:0.3495307 117:0.3495307 118:0.35416901 119:0.35416901 120:0.35416901 121:0.35416901 122:0.31500831 123:0.22451469 124:0.3069374 125:0.35416901 126:0.35416901 127:0.39889011 128:0.39889011 129:0.39889011 130:0.39889011 131:0.35860389 132:0.140396 133:0.14515319 134:0.30169731 135:0.31490231 136:0.4592618 137:0.39319539 138:0.39976501 139:0.26858991 140:0.302784 141:0.2040699 142:0.1478714 143:0.17839859 144:0.4592618 145:0.53512311 146:0.34036371 147:0.31717169 148:0.27698749 149:0.065654151 150:0.1373608 151:0.090578489 152:0.31207719 153:0.53512311 154:0.4256523 155:0.4256523 156:0.4256523 157:0.41295251 158:0.2317659 159:0.08868441 160:0.063942149 161:0.18662751 162:0.4256523 163:0.37351599 164:0.37351599 165:0.37351599 166:0.37351599 167:0.37351599 168:0.1352931 169:0.03694132 170:0.37351599 171:0.37351599 172:0.40903041 173:0.40903041 174:0.40903041 175:0.40903041 176:0.3836965 177:0.2039642 178:0.087505423 179:0.1759598 180:0.31503469 181:0.35549471 182:0.35549471 183:0.35549471 184:0.35549471 185:0.35549471 186:0.2559199 187:0.21521591 188:0.35549471 189:0.35549471 190:0.37505451 191:0.28033251 192:0.1218723 193:0.37505451 194:0.37505451 195:0.2425255 196:0.37505451 197:0.37505451 198:0.37505451 199:0.46896619 200:0.4066045 201:0.22943319 202:0.079401001 203:0.24548569 204:0.072508126 205:0.2289964 206:0.46176401 207:0.46896619 208:0.45188701 209:0.45188701 210:0.1559031 211:0.14731009 212:0.40729809 213:0.092169538 214:0.1385579 215:0.37853599 216:0.45188701 217:0.38794109 218:0.38794109 219:0.38794109 220:0.38794109 221:0.38794109 222:0.1649757 223:0.1071046 224:0.25896311 225:0.37132549 226:0.48845199 227:0.1785692 228:0.092791282 229:0.48845199 230:0.48845199 231:0.01370093 232:0.0094150268 233:0.0024962651 234:0.48845199 235:0.51062649 236:0.28742889 237:0.0951254 238:0.3423599 239:0.51062649 240:0.02861863 241:0.01358397 242:0.052951761 243:0.51062649 244:0.69651008 245:0.07754004 246:0.097478867 247:0.03231407 248:0.057133701 249:0.0046976628 250:0.01524761 251:0.052121829 252:0.69651008 253:0.53146189 254:0.080672212 255:0.056827541 256:0.2225167 257:0.43912369 258:0.36782071 259:0.1161737 260:0.170059 261:0.53146189 262:0.4061847 263:0.037293479 264:0.032572091 265:0.099860601 266:0.4061847 267:0.39823121 268:0.4061847 269:0.4061847 270:0.4061847 271:0.2178621 272:0.049633749 273:0.089887671 274:0.40146631 275:0.4388805 276:0.077260368 277:0.4388805 278:0.4388805 279:0.4388805 280:0.36606079 281:0.34439281 282:0.36606079 283:0.3595809 284:0.186646 285:0.20880359 286:0.36606079 287:0.36606079 288:0.36606079 289:0.36123541 290:0.36123541 291:0.36123541 292:0.36123541 293:0.36123541 294:0.1952894 295:0.2116978 296:0.36123541 297:0.36123541 298:0.49233389 299:0.1517431 300:0.066251487 301:0.082119919 302:0.2010451 303:0.035477631 304:0.41883799 305:0.50067198 306:0.50067198 307:0.42790419 308:0.1719332 309:0.42790419 310:0.093076952 311:0.1825134 312:0.093167067 313:0.42790419 314:0.42790419 315:0.42790419 316:0.4067643 317:0.4067643 318:0.4067643 319:0.4067643 320:0.28379571 321:0.18499079 322:0.1345823 323:0.1891468 324:0.4067643 325:0.40417609 326:0.40417609 327:0.40417609 328:0.40417609 329:0.40417609 330:0.097015031 331:0.01785123 332:0.077984244 333:0.40417609 334:0.41809499 335:0.41809499 336:0.27864709 337:0.20992319 338:0.41809499 339:0.36912119 340:0.1899181 341:0.050778441 342:0.41809499 343:0.38658279 344:0.38658279 345:0.2280957 346:0.1029648 347:0.19191369 348:0.38658279 349:0.38658279 350:0.38658279 351:0.38658279 352:0.41041249 353:0.134993 354:0.19022021 355:0.1396118 356:0.41041249 357:0.41041249 358:0.41041249 359:0.28250581 360:0.41041249 361:0.3393296 362:0.02275053 363:0.05463624 364:0.072123177 365:0.42121121 366:0.41900069 367:0.42121121 368:0.42121121 369:0.40512371 370:0.1097388 371:0.07220643 372:0.1234432 373:0.068249382 374:0.41092321 375:0.15234829 376:0.60190672 377:0.60190672 378:0.20046461 379:0.06126092 380:0.02491623 381:0.024239831 382:0.033869971 383:0.36420581 384:0.43328491 385:0.56815118 386:0.56815118 387:0.1491472 388:0.36930779 389:0.33910319 390:0.35926011 391:0.2002786 392:0.36930779 393:0.36930779 394:0.36930779 395:0.36930779 396:0.1737774 397:0.42340061 398:0.33815289 399:0.01811727 400:0.06108455 401:0.28575769 402:0.28041771 403:0.42340061 404:0.42340061 405:0.42340061 406:0.1499944 407:0.52998507 408:0.52998507 409:0.055582151 410:0.52076173 411:0.1300431 412:0.120383 413:0.13487899 414:0.29421541 415:0.1734578 416:0.59133679 417:0.59133679 418:0.26977119 419:0.35127729 420:0.073728867 421:0.02984428 422:0.069433317 423:0.239436 424:0.37058899 425:0.37058899 426:0.37058899 427:0.37058899 428:0.34182101 429:0.1002746 430:0.2130349 431:0.37058899 432:0.37058899 433:0.3237597 434:0.3588489 435:0.1207707 436:0.14846329 437:0.38104421 438:0.38104421 439:0.38104421 440:0.38104421 441:0.38104421 442:0.042363491 443:0.17421199 444:0.3473345 445:0.4067739 446:0.4067739 447:0.4067739 448:0.4067739 449:0.4067739 450:0.1258 451:0.12679709 452:0.1041389 453:0.38358149 454:0.42864251 455:0.42864251 456:0.3836931 457:0.42864251 458:0.3108522 459:0.1631207 460:0.03648087 461:0.02024455 462:0.04502387 463:0.13331591 464:0.37444001 465:0.50581777 466:0.52792221 467:0.52792221 468:0.14044949 469:0.034624491 470:0.1163985 471:0.082424708 472:0.041926499 473:0.48552331 474:0.46131131 475:0.48552331 476:0.48552331 477:0.22769479 478:0.01508212 479:0.090418667 480:0.3478359 481:0.36083239 482:0.45395759 483:0.45395759 484:0.45395759 485:0.339169 486:0.051036451 487:0.20898999 488:0.1138377 489:0.42000011 490:0.37904659 491:0.44119939 492:0.44119939 493:0.44119939 494:0.075801767 495:0.17077529 496:0.242037 497:0.191881 498:0.064477563 499:0.02401698 500:0.50522918 501:0.14050379 502:0.33061871 503:0.50522918 504:0.50522918 505:0.181383 506:0.4402304 507:0.4402304 508:0.39239961 509:0.4402304 510:0.093257897 511:0.33596209 512:0.2275998 513:0.2322666 514:0.35770261 515:0.35770261 516:0.35770261 517:0.35770261 518:0.3194423 519:0.1018511 520:0.3410311 521:0.35770261 522:0.35770261 523:0.4295257 524:0.27613309 525:0.073855281 526:0.076599263 527:0.1547125 528:0.38240391 529:0.4295257 530:0.4295257 531:0.4295257 532:0.32046139 533:0.40440041 534:0.40440041 535:0.1091772 536:0.1679271 537:0.241375 538:0.40440041 539:0.40440041 540:0.37513271 541:0.03011797 542:0.50402468 543:0.50402468 544:0.50402468 545:0.34049991 546:0.1782233 547:0.2125693 548:0.1972021 549:0.01258086 550:0.01199299 551:0.38901639 552:0.5062992 553:0.5062992 554:0.5062992 555:0.2370611 556:0.1276233 557:0.044314008 558:0 559:0.08578302 560:0.1600555 561:0.2940495 562:0.41799811 563:0.41799811 564:0.41799811 565:0.41799811 566:0.41799811 567:0.05263662 568:0.1046466 569:0.2434101 570:0.34510031 571:0.261834 572:0.44410869 573:0.37639761 574:0.44410869 575:0.44410869 576:0.065882318 577:0.034596551 578:0.46877769 579:0.46877769 580:0.4502399 581:0.46877769 582:0.2016796 583:0.26240039 584:0.1342698 585:0.067750379 586:0.1529794 587:0.366404 588:0.41155851 589:0.41155851 590:0.41155851 591:0.39610609 592:0.25535721 593:0.106354 594:0.31092489 595:0.41021079 596:0.001901691 597:0.0001005478 598:0 599:0.3931081 600:0.41021079 601:0.41021079 602:0.41021079 603:0.41021079 604:0.39929521 605:0.0097138304 606:0.005884551 607:0.058986109 608:0.4408384 609:0.2349415 610:0.4408384 611:0.4408384 612:0.4408384 613:0.40225631 614:0.1199556 615:0.3500326 616:0.1399239 617:0.40225631 618:0.1744706 619:0.40225631 620:0.40225631 621:0.40225631 622:0.3480038 623:0.3480038 624:0.3480038 625:0.3331798 626:0.3480038 627:0.1943386 628:0.3480038 629:0.3480038 630:0.3480038 631:0.44952309 632:0.44952309 633:0.44952309 634:0.2743656 635:0.44952309 636:0.05921616 637:0.01268496 638:0.0092442594 639:0.32893199 640:0.2163925 641:0.58661258 642:0.58661258 643:0.26652089 644:0.29152551 645:0.13338611 646:0.21334741 647:0.15036391 648:0.13095561 649:0.21820749 650:0.3625949 651:0.3625949 652:0.1686344 653:0.3625949 654:0.3625949 655:0.3625949 656:0.3625949 657:0.3625949 658:0.39125791 659:0.39125791 660:0.39125791 661:0.39125791 662:0.39125791 663:0.28943971 664:0.08914654 665:0.083830073 666:0.36321861 667:0.382153 668:0.382153 669:0.382153 670:0.382153 671:0.382153 672:0.232783 673:0.382153 674:0.24519759 675:0.075011261 676:0.202737 677:0.48356321 678:0.48356321 679:0.1749046 680:0.48356321 681:0.31019321 682:0.33495301 683:0.1042818 684:0.05184871 685:0.35482201 686:0.3468599 687:0.35482201 688:0.26125729 689:0.35482201 690:0.35482201 691:0.35482201 692:0.22911941 693:0.35482201 694:0.48789141 695:0.0154932 696:0.01400833 697:0.034201 698:0.1616814 699:0.1234027 700:0.48789141 701:0.48789141 702:0.48789141 703:0.53532082 704:0.004822277 705:0 706:0.069381602 707:0.13212471 708:0.200069 709:0.53532082 710:0.26949459 711:0.53532082 712:0.4155544 713:0.117103 714:0.2275743 715:0.1035281 716:0.4155544 717:0.2370656 718:0.4155544 719:0.4155544 720:0.4155544 721:0.35667619 722:0.1586988 723:0.35667619 724:0.28412291 725:0.35667619 726:0.35667619 727:0.35667619 728:0.35667619 729:0.35667619 730:0.40305039 731:0.24477381 732:0.40305039 733:0.2779187 734:0.19192199 735:0.098682597 736:0.40305039 737:0.40305039 738:0.40305039 739:0.4575085 740:0.4575085 741:0.4575085 742:0.05893258 743:0.1794484 744:0.1165318 745:0.094957247 746:0.31607381 747:0.4575085 748:0.35266829 749:0.35266829 750:0.35266829 751:0.35266829 752:0.35266829 753:0.35266829 754:0.1384864 755:0.3266094 756:0.35266829 757:0.4096967 758:0.4096967 759:0.35523549 760:0.4096967 761:0.4096967 762:0.21031541 763:0.086092509 764:0.085151456 765:0.373382 766:0.40009499 767:0.1581327 768:0.40009499 769:0.40009499 770:0.40009499 771:0.2057098 772:0.3200244 773:0.40009499 774:0.160887 775:0.26244909 776:0.071991958 777:0.3709071 778:0.3709071 779:0.3709071 780:0.3709071 781:0.31706959 782:0.3709071 783:0.365839 784:0.40988469 785:0.2746684 786:0.1038887 787:0.08659856 788:0.24928521 789:0.40988469 790:0.40988469 791:0.40988469 792:0.40988469 793:0.44550419 794:0.29097101 795:0.41050339 796:0.1497743 797:0.243376 798:0.3446773 799:0.2550917 800:0.28264171 801:0.44550419 802:0.44107711 803:0.44107711 804:0.28211531 805:0.170498 806:0.089523613 807:0.29083019 808:0.29508561 809:0.3515909 810:0.44107711 811:0.40322569 812:0.40322569 813:0.089297108 814:0.0065544941 815:0.1173461 816:0.40153411 817:0.40322569 818:0.40322569 819:0.40322569 820:0.51029128 821:0.1242215 822:0.03977656 823:0.0088867592 824:0.03108697 825:0.2439936 826:0.51029128 827:0.36894521 828:0.51029128 829:0.63360918 830:0.23047949 831:0.068874203 832:0.078811809 833:0.02963029 834:0.081170619 835:0.29790279 836:0.1745396 837:0.63360918 838:0.59250712 839:0.45510831 840:0.171763 841:0.0230859 842:0.14791431 843:0.104827 844:0.017840169 845:0.147002 846:0.59250712 847:0.36129841 848:0.36129841 849:0.239822 850:0.27335149 851:0.36129841 852:0.36129841 853:0.28449151 854:0.36129841 855:0.36129841 856:0.28049141 857:0.36735871 858:0.36735871 859:0.2286974 860:0.36735871 861:0.36735871 862:0.36735871 863:0.36735871 864:0.2358754 865:0.03103062 866:0.47897959 867:0.47897959 868:0.47897959 869:0.47897959 870:0.235264 871:0.047132101 872:0.1136573 873:0.077964537 874:0.1278788 875:0.073549233 876:0.37493461 877:0.37493461 878:0.37493461 879:0.37493461 880:0.37493461 881:0.37493461 882:0.3619886 883:0.33927709 884:0.1336816 885:0.1902394 886:0.30136901 887:0.38371149 888:0.38371149 889:0.38371149 890:0.38371149 891:0.38371149 892:0.54017168 893:0.54017168 894:0.32254669 895:0.0032168259 896:0.01009875 897:0.01433692 898:0.01036119 899:0.121604 900:0.54017168 901:0.64193618 902:0.38250279 903:0.1448625 904:0.01232017 905:0.001405457 906:0.0058154622 907:0.0096699987 908:0.043038558 909:0.64193618 910:0.57028061 911:0.57028061 912:0.13280641 913:0.0026508479 914:0.0022828439 915:0.0090796808 916:0.01220621 917:0.027645711 918:0.57028061 919:0.56082332 920:0.56082332 921:0.2158922 922:0.0073844688 923:0.001885708 924:0.0049746959 925:0.01084504 926:0.063413613 927:0.56082332 928:0.60917968 929:0.43752351 930:0.12965859 931:0.01019888 932:0.015526 933:0.0027514 934:0.002157127 935:0.2076586 936:0.60917968 937:0.4427574 938:0.4427574 939:0.118807 940:0.003565181 941:0.031411368 942:0.017096151 943:0.4427574 944:0.4427574 945:0.4427574 946:0.4027684 947:0.4027684 948:0.24527781 949:0.051951069 950:0.090296581 951:0.33741799 952:0.4027684 953:0.4027684 954:0.4027684 955:0.36068961 956:0.4938525 957:0.4938525 958:0.1598677 959:0.46149841 960:0.19193541 961:0.2097906 962:0.093464553 963:0.2215056 964:0.1820413 965:0.51727909 966:0.51727909 967:0.28627539 968:0.51727909 969:0.15790071 970:0.085232049 971:0.092285037 972:0.19051111 973:0.30079049 974:0.003250787 975:0.19237091 976:0.1268201 977:0.41286799 978:0.41286799 979:0.41286799 980:0.41286799 981:0.41286799 982:0.4374274 983:0.4374274 984:0.077456139 985:0.030414371 986:0.05951206 987:0.16867299 988:0.4374274 989:0.4374274 990:0.4374274 991:0.4432953 992:0.2051525 993:0.41304871 994:0.29479179 995:0.1395497 996:0.16785941 997:0.4432953 998:0.2424662 999:0.4432953 1000:0.4634901 1001:0.4333488 1002:0.44392809 1003:0.15296219 1004:0.29185209 1005:0.23271281 1006:0.063897133 1007:0.1185229 1008:0.4634901 1009:0.43473321 1010:0.43473321 1011:0.34111911 1012:0.110194 1013:0.11745 1014:0.075742468 1015:0.43473321 1016:0.30273581 1017:0.43473321 1018:0.36246479 1019:0.36246479 1020:0.36246479 1021:0.36246479 1022:0.3388721 1023:0.36246479 1024:0.21017011 1025:0.22155879 1026:0.36246479 1027:0.3937169 1028:0.3937169 1029:0.25224531 1030:0.1751474 1031:0.3937169 1032:0.27213541 1033:0.229434 1034:0.3937169 1035:0.3937169 1036:0.31478339 1037:0.29286951 1038:0.1700784 1039:0.082402132 1040:0.30152279 1041:0.2260292 1042:0.45928541 1043:0.45928541 1044:0.45928541 1045:0.3396306 1046:0.3396306 1047:0.3396306 1048:0.30851471 1049:0.3396306 1050:0.33803079 1051:0.3396306 1052:0.30832919 1053:0.3396306 1054:0.2517201 1055:0.56551951 1056:0.56551951 1057:0.2514309 1058:0.3063722 1059:0.1168994 1060:0.045519009 1061:0.07459332 1062:0.336128 1063:0.42149791 1064:0.36564091 1065:0.42149791 1066:0.2858859 1067:0.42149791 1068:0.1699692 1069:0.1268478 1070:0.1573011 1071:0.42149791 1072:0.62713689 1073:0.1115717 1074:0.0634524 1075:0.090580814 1076:0.37194651 1077:0.1509784 1078:0.04761925 1079:0.13802721 1080:0.62713689 1081:0.62489051 1082:0.15209 1083:0.070515282 1084:0.085102841 1085:0.2458892 1086:0.069297977 1087:0.21118081 1088:0.25995621 1089:0.62489051 #
-0.0051889435760034165 1:0.1673021 2:0.1372319 3:0.54058141 4:0.51622647 5:0.54058141 6:0.2096253 7:0.2027168 8:0.075705372 9:0.07787431 10:0.43849891 11:0.3250874 12:0.1916538 13:0.0045851339 14:0.43849891 15:0.055453449 16:0.28457981 17:0.43849891 18:0.43849891 19:0.4113104 20:0.4113104 21:0.2364829 22:0 23:0.29586071 24:0.080945633 25:0.4113104 26:0.4113104 27:0.4113104 28:0.4324798 29:0.3391782 30:0.4324798 31:0 32:0.4324798 33:0 34:0.24486279 35:0.2693046 36:0.4324798 37:0.42285329 38:0.2380835 39:0.42285329 40:0 41:0.42285329 42:0.04170236 43:0.42285329 44:0.20815431 45:0.42285329 46:0.4265607 47:0.1146151 48:0.3089824 49:0 50:0.4265607 51:0.127887 52:0.37810189 53:0.4265607 54:0.4265607 55:0.4243429 56:0.22242489 57:0.1075252 58:0.26415101 59:0.4243429 60:0.088062719 61:0.3700383 62:0.4243429 63:0.4243429 64:0.4226571 65:0.2058537 66:0.30262911 67:0.02880552 68:0.46499619 69:0.1397668 70:0.46499619 71:0.29627371 72:0.3770555 73:0.45798099 74:0.26736471 75:0.45798099 76:0 77:0.45798099 78:0 79:0.27644289 80:0.09238252 81:0.45798099 82:0.41245729 83:0.35666341 84:0.41245729 85:0 86:0.41245729 87:0.25001499 88:0.2492189 89:0.25212941 90:0.41245729 91:0.39299381 92:0.39299381 93:0.39299381 94:0 95:0.39299381 96:0.064777903 97:0.3756648 98:0.2802375 99:0.39299381 100:0.38131091 101:0.38131091 102:0.2272056 103:0.38131091 104:0.38131091 105:0.3548404 106:0.33711371 107:0.1765442 108:0.3037284 109:0.47440201 110:0.47440201 111:0.1236057 112:0.008442048 113:0.2302877 114:0.033634789 115:0.1597475 116:0.47440201 117:0.47440201 118:0.43392029 119:0.43392029 120:0.1815761 121:0.14538381 122:0.01118033 123:0 124:0.43392029 125:0.43392029 126:0.43392029 127:0.4602524 128:0.4602524 129:0.2400976 130:0.032471139 131:0.29806349 132:0 133:0.023032529 134:0.4602524 135:0.4602524 136:0.4961313 137:0.3974981 138:0.1713907 139:0 140:0.0466174 141:0.07550393 142:0.24769451 143:0.4961313 144:0.4961313 145:0.40247619 146:0.1110283 147:0.1920433 148:0.04710564 149:0.40247619 150:0.40247619 151:0.3669019 152:0.40247619 153:0.40247619 154:0.3708339 155:0.182456 156:0.3708339 157:0.01950999 158:0.3708339 159:0.3708339 160:0.3708339 161:0.3708339 162:0.3708339 163:0.37411961 164:0.20108519 165:0.3232612 166:0.32153931 167:0.37411961 168:0.37411961 169:0.30878979 170:0.30451351 171:0.37411961 172:0.40657651 173:0.29585779 174:0.40657651 175:0.1854627 176:0.36932161 177:0.2185144 178:0.1692494 179:0.40657651 180:0.40657651 181:0.4543241 182:0.410999 183:0.2783359 184:0 185:0.29646301 186:0.055784859 187:0.1970726 188:0.4543241 189:0.4543241 190:0.42693311 191:0.2120463 192:0.1133478 193:0 194:0.42693311 195:0.1629857 196:0.42693311 197:0.42693311 198:0.42693311 199:0.4205437 200:0.14780369 201:0.41874889 202:0.4205437 203:0.4205437 204:0.1226208 205:0.117926 206:0.24946301 207:0.4205437 208:0.57877451 209:0.31879899 210:0.1632217 211:0.1243477 212:0.3863292 213:0.02859267 214:0.12698729 215:0.1197111 216:0.57877451 217:0.41581589 218:0.41581589 219:0.41581589 220:0.32872009 221:0.41581589 222:0.047752239 223:0.1011675 224:0.103729 225:0.41581589 226:0.47242689 227:0.47242689 228:0.47242689 229:0.2113997 230:0.4706341 231:0.04586371 232:0.002919921 233:0.050585121 234:0.23422781 235:0.39324361 236:0.39324361 237:0.2009863 238:0.16213299 239:0.39324361 240:0.039316591 241:0.39324361 242:0.39324361 243:0.39324361 244:0.35220331 245:0.093298838 246:0.049725249 247:0.32966489 248:0.44689959 249:0.184449 250:0.44689959 251:0.44689959 252:0.34417039 253:0.42767951 254:0.42767951 255:0.16708919 256:0.1348505 257:0.17313521 258:0.071412593 259:0.42767951 260:0.42767951 261:0.42767951 262:0.31831151 263:0.2295161 264:0.1618299 265:0.03250362 266:0.41896719 267:0.33531421 268:0.41896719 269:0.41896719 270:0.41896719 271:0.38466299 272:0.2993654 273:0.16886079 274:0.091843359 275:0.36022249 276:0.38466299 277:0.38466299 278:0.38466299 279:0.38466299 280:0.4900032 281:0.150933 282:0.077400982 283:0.098961689 284:0.26780829 285:0.01218443 286:0.40541551 287:0.4900032 288:0.4900032 289:0.49342719 290:0.37549639 291:0.14075971 292:0.11181 293:0.035181198 294:0.023683559 295:0.29924831 296:0.49342719 297:0.49342719 298:0.51609361 299:0.51609361 300:0.40103269 301:0.055310171 302:0.033959951 303:0 304:0.0211532 305:0.1740714 306:0.51609361 307:0.56494349 308:0.56494349 309:0.1315504 310:0.1236786 311:0.064366058 312:0 313:0.0051650978 314:0.01018024 315:0.56494349 316:0.46169499 317:0.40683949 318:0.12874191 319:0.079102866 320:0.39368361 321:0.09060929 322:0.065988563 323:0.46169499 324:0.46169499 325:0.33544749 326:0.33544749 327:0.33544749 328:0.31056139 329:0.33544749 330:0.33544749 331:0.33544749 332:0.33544749 333:0.33544749 334:0.39430881 335:0.39430881 336:0.39430881 337:0.39430881 338:0.39430881 339:0.06691929 340:0.2194154 341:0.1027748 342:0.39430881 343:0.3768276 344:0.3500241 345:0.3768276 346:0.3768276 347:0.3768276 348:0.1070451 349:0.3768276 350:0.1013202 351:0.3768276 352:0.4857285 353:0.24637841 354:0.048859589 355:0.1274018 356:0.164358 357:0.0099919764 358:0.4857285 359:0.42534459 360:0.4857285 361:0.3260546 362:0.1022158 363:0.1657465 364:0.380059 365:0.380059 366:0.380059 367:0.3602041 368:0.380059 369:0.380059 370:0.1357455 371:0.074274771 372:0.22739799 373:0.2000704 374:0.45517129 375:0.45517129 376:0.4312174 377:0.45517129 378:0.26885009 379:0.34806061 380:0.1717476 381:0.36253229 382:0.36253229 383:0.36253229 384:0.2390746 385:0.36253229 386:0.36253229 387:0.36253229 388:0.36093381 389:0.34210131 390:0.36093381 391:0.36093381 392:0.2262395 393:0.21572439 394:0.36093381 395:0.36093381 396:0.36093381 397:0.23301791 398:0.55891389 399:0.55891389 400:0.55891389 401:0.044380039 402:0.001658113 403:0 404:0 405:0.031537101 406:0.42918429 407:0.42918429 408:0.42918429 409:0.42918429 410:0.42918429 411:0.04268685 412:0.064642683 413:0.1842858 414:0.186426 415:0.4132933 416:0.4132933 417:0.1145645 418:0.1886338 419:0.4132933 420:0.15741339 421:0.2613965 422:0.4132933 423:0.4132933 424:0.2859464 425:0.1045962 426:0.19648281 427:0.0071685752 428:0.42102969 429:0.42102969 430:0.42102969 431:0.42102969 432:0.3941668 433:0.29885191 434:0.3612026 435:0.38125879 436:0.38125879 437:0.38125879 438:0.38125879 439:0.31214601 440:0.1252806 441:0.28609061 442:0.36497641 443:0.36497641 444:0.36497641 445:0.36497641 446:0.26187271 447:0.28532681 448:0.36497641 449:0.2170673 450:0.36497641 451:0.19106551 452:0.090478383 453:0.16786259 454:0.33342841 455:0.496483 456:0.2455734 457:0.496483 458:0.4332208 459:0.26461169 460:0.081260428 461:0.29865319 462:0.19898769 463:0.27941439 464:0.48602211 465:0.48602211 466:0.48602211 467:0.25803629 468:0.08028172 469:0.02630825 470:0.28991249 471:0.077914551 472:0.1660869 473:0.47219169 474:0.47219169 475:0.47219169 476:0.40238091 477:0.21466561 478:0.40592331 479:0.42502779 480:0.062432129 481:0.1037327 482:0.42502779 483:0.42502779 484:0.42502779 485:0.26755261 486:0.1488056 487:0.4601472 488:0.4601472 489:0.16566069 490:0.068116598 491:0.4601472 492:0.12658571 493:0.4296014 494:0.2283612 495:0.2745612 496:0.016391231 497:0.16683941 498:0.54856062 499:0.54856062 500:0.54856062 501:0.25176319 502:0.002902345 503:0 504:0.016391231 505:0.36368099 506:0.38545471 507:0.38545471 508:0.38545471 509:0.38545471 510:0.30474299 511:0.3846558 512:0.16718709 513:0.028359249 514:0.37991801 515:0.37991801 516:0.37991801 517:0.37991801 518:0.16962209 519:0.063008606 520:0.37991801 521:0.37991801 522:0.31214851 523:0.1223896 524:0.1502056 525:0.41386929 526:0.48517299 527:0.48517299 528:0.48517299 529:0.1500666 530:0.1120389 531:0.2123065 532:0.20135979 533:0.1142751 534:0.2024205 535:0.46998239 536:0.46998239 537:0.46998239 538:0.46998239 539:0.1238198 540:0.043152388 541:0.36833021 542:0.1585649 543:0.36833021 544:0.36833021 545:0.1466534 546:0.36833021 547:0.36833021 548:0.36833021 549:0.36833021 550:0.2256698 551:0.4012703 552:0.4012703 553:0.4012703 554:0.4012703 555:0.29349059 556:0.1999588 557:0.1177072 558:0.4012703 559:0.3609052 560:0.3609052 561:0.3609052 562:0.3609052 563:0.3609052 564:0.25867191 565:0.1330992 566:0.3609052 567:0.3609052 568:0.045420621 569:0.46559861 570:0.19803619 571:0.4589763 572:0.46559861 573:0.46559861 574:0.2256785 575:0.2022623 576:0.0349572 577:0.1521599 578:0.2170928 579:0.14979459 580:0.2756575 581:0.52772409 582:0.52772409 583:0.5020858 584:0.077722512 585:0.1044325 586:0.4160811 587:0.4160811 588:0.4160811 589:0.14603759 590:0.4160811 591:0 592:0.19213089 593:0.26830009 594:0.4160811 595:0.32807481 596:0.001587297 597:0.09974236 598:0.1618529 599:0.44748849 600:0.44748849 601:0.22531229 602:0.44748849 603:0.44748849 604:0.4089019 605:0.1029572 606:0.1037215 607:0.22856981 608:0.29378361 609:0.4089019 610:0.4089019 611:0.4089019 612:0.4089019 613:0.45408529 614:0.45408529 615:0.1272883 616:0.077570759 617:0.022571919 618:0.033942658 619:0.38315731 620:0.45408529 621:0.45408529 622:0.4581123 623:0.4581123 624:0.4581123 625:0.4581123 626:0.35926369 627:0.1009032 628:0.02796305 629:0.068804108 630:0.1057761 631:0.40159661 632:0.40159661 633:0.40159661 634:0.40159661 635:0.1557951 636:0.1564111 637:0.37940159 638:0.059624411 639:0.39323249 640:0.4026503 641:0.29034749 642:0.2269671 643:0.096731037 644:0.34208649 645:0.4026503 646:0.4026503 647:0.29201481 648:0.4026503 649:0.42749801 650:0.40144289 651:0.42749801 652:0.26984999 653:0.1565897 654:0.039521068 655:0.068218678 656:0.42749801 657:0.42749801 658:0.42868131 659:0.42868131 660:0.42868131 661:0.1817207 662:0.1396503 663:0.15419149 664:0.024079639 665:0.42868131 666:0.42868131 667:0.34921691 668:0.4764128 669:0.19921941 670:0.3014226 671:0.4764128 672:0.4764128 673:0.04234511 674:0.1975189 675:0.14502031 676:0.16862489 677:0.092646092 678:0.25862411 679:0.5063659 680:0.5063659 681:0.5063659 682:0.299999 683:0.088347808 684:0.15496659 685:0.39329049 686:0.3400456 687:0.42119661 688:0.1168026 689:0.42119661 690:0 691:0.42119661 692:0.17240231 693:0.3871679 694:0.65848339 695:0.0022478709 696:0.0081936093 697:0.003001017 698:0.039262589 699:0.069459923 700:0.048558891 701:0.34266561 702:0.65848339 703:0.65236253 704:0.007316703 705:0.00088342867 706:0 707:0.074517816 708:0.065998808 709:0.072571397 710:0.356516 711:0.65236253 712:0.60026389 713:0.47624111 714:0.006707177 715:0 716:0.01148694 717:0.056941669 718:0.089644387 719:0.1873817 720:0.60026389 721:0.26341999 722:0.34663019 723:0.42017719 724:0.1327519 725:0.42017719 726:0.42017719 727:0.42017719 728:0.27168041 729:0.092905492 730:0.34399611 731:0.32631749 732:0.34399611 733:0.34399611 734:0.34399611 735:0.34399611 736:0.34399611 737:0.29934609 738:0.3007859 739:0.1701262 740:0.25158799 741:0.45349199 742:0.45349199 743:0.45349199 744:0.1943742 745:0.45349199 746:0.18432941 747:0.094085597 748:0.30667099 749:0.1942464 750:0.41031519 751:0.41031519 752:0.41031519 753:0.072295792 754:0.1307773 755:0.41031519 756:0.41031519 757:0.43706849 758:0.43706849 759:0.085993707 760:0.0432887 761:0.43706849 762:0.13012061 763:0.1195394 764:0.43706849 765:0.43706849 766:0.38711211 767:0.38711211 768:0.19538809 769:0.38711211 770:0.38711211 771:0.38711211 772:0.2685464 773:0.17417461 774:0.32591891 775:0.26068291 776:0.32111141 777:0.3740935 778:0.3740935 779:0.3740935 780:0.3740935 781:0.3740935 782:0.26803771 783:0.2315606 784:0.37674731 785:0.37674731 786:0.35344431 787:0.34706309 788:0.37674731 789:0.1293115 790:0.37674731 791:0.1563531 792:0.37674731 793:0.43299729 794:0.037783261 795:0.1235961 796:0.021548299 797:0.43299729 798:0.20266619 799:0.43299729 800:0.43299729 801:0.43299729 802:0.25709009 803:0.052022699 804:0.1180664 805:0 806:0.51636112 807:0.2810263 808:0.51636112 809:0.51636112 810:0.1823176 811:0.1736462 812:0.073900953 813:0.0236238 814:0 815:0.31943801 816:0.46291551 817:0.46291551 818:0.46291551 819:0.46291551 820:0.1628827 821:0.01028485 822:0.0092532886 823:0.01516762 824:0.4214192 825:0.49300539 826:0.49300539 827:0.49300539 828:0.2477227 829:0.4512772 830:0.1973139 831:0.38308001 832:0.026479909 833:0.084889457 834:0.13300741 835:0.4512772 836:0.416242 837:0.4512772 838:0.45321089 839:0.45321089 840:0.45321089 841:0.3788411 842:0.1868304 843:0.044611041 844:0.01551734 845:0.007148352 846:0.4456057 847:0.3693096 848:0.3693096 849:0.3693096 850:0.3693096 851:0.3693096 852:0.21650399 853:0.27091429 854:0.2402173 855:0.3693096 856:0.39539579 857:0.39539579 858:0.39539579 859:0.36733869 860:0.39539579 861:0.1879297 862:0.087677903 863:0.1908351 864:0.39539579 865:0.35867041 866:0.35867041 867:0.35867041 868:0.35867041 869:0.35867041 870:0.15074749 871:0.27219129 872:0.35740301 873:0.35867041 874:0.37935719 875:0.37935719 876:0.32036671 877:0.37935719 878:0.1625893 879:0.06057056 880:0.37935719 881:0.37935719 882:0.37935719 883:0.33792961 884:0.32240129 885:0.326116 886:0.33792961 887:0.33792961 888:0.3180424 889:0.33792961 890:0.33792961 891:0.33792961 892:0.41263959 893:0.41263959 894:0.41263959 895:0 896:0.41263959 897:0.080196053 898:0.35054779 899:0.1233112 900:0.41263959 901:0.40879869 902:0.091957927 903:0.27517241 904:0 905:0.40879869 906:0.27596799 907:0.40879869 908:0.40879869 909:0.40879869 910:0.2461234 911:0.03070751 912:0.091888487 913:0 914:0.4137713 915:0.4343074 916:0.4343074 917:0.4343074 918:0.4343074 919:0.41714871 920:0.01935078 921:0.057904821 922:0.12917501 923:0.41714871 924:0.41714871 925:0.32458279 926:0.41714871 927:0.41714871 928:0.5167895 929:0.036325891 930:0.093156792 931:0.090702757 932:0.5167895 933:0.29621959 934:0.152142 935:0.2539818 936:0.5167895 937:0.4332678 938:0.2649734 939:0.1045521 940:0.30386069 941:0.4332678 942:0.1612246 943:0.2128879 944:0.4332678 945:0.4332678 946:0.35679269 947:0.35679269 948:0.3442722 949:0.35679269 950:0.35679269 951:0 952:0.33779541 953:0.35679269 954:0.35679269 955:0.35783699 956:0.35783699 957:0.35783699 958:0.35783699 959:0.35783699 960:0 961:0.34604341 962:0.35783699 963:0.3292338 964:0.36986849 965:0.283279 966:0.36986849 967:0.1711525 968:0.36986849 969:0.2568047 970:0.36986849 971:0.36986849 972:0.36986849 973:0.46971029 974:0.2230379 975:0.052177139 976:0.14778911 977:0.19010919 978:0.048433959 979:0.46971029 980:0.46971029 981:0.46971029 982:0.35925359 983:0.35925359 984:0.22088321 985:0.3409583 986:0.2387253 987:0.35925359 988:0.35925359 989:0.35925359 990:0.35925359 991:0.39447871 992:0.39447871 993:0.39447871 994:0 995:0.39447871 996:0.1550732 997:0.39447871 998:0.1957821 999:0.39447871 1000:0.43693981 1001:0.034329679 1002:0.053149451 1003:0.2456242 1004:0.43693981 1005:0.2992222 1006:0.43693981 1007:0.27946591 1008:0.43693981 1009:0.40924859 1010:0.001351484 1011:0.0040441388 1012:0.06092814 1013:0.41289559 1014:0.41289559 1015:0.41289559 1016:0.37779549 1017:0.41289559 1018:0.41315249 1019:0.1927972 1020:0.26251799 1021:0.01755764 1022:0.41315249 1023:0.1897441 1024:0.41315249 1025:0.41315249 1026:0.41315249 1027:0.38668329 1028:0.29635349 1029:0.38668329 1030:0.1911412 1031:0.38668329 1032:0.08626692 1033:0.34163529 1034:0.38668329 1035:0.38668329 1036:0.38202721 1037:0.34167311 1038:0.19875281 1039:0.25548831 1040:0.38202721 1041:0.38202721 1042:0.3703582 1043:0.23177961 1044:0.38202721 1045:0.37721959 1046:0.37721959 1047:0.3530798 1048:0.075630821 1049:0.37721959 1050:0.1099018 1051:0.37721959 1052:0.37721959 1053:0.37721959 1054:0.398408 1055:0.398408 1056:0.3237243 1057:0.398408 1058:0.398408 1059:0 1060:0.27504611 1061:0.1480788 1062:0.398408 1063:0.49175259 1064:0.15417659 1065:0.47483951 1066:0.067908771 1067:0.49175259 1068:0 1069:0.1191121 1070:0.039805278 1071:0.49175259 1072:0.4172816 1073:0.3067944 1074:0.4172816 1075:0.3379693 1076:0.4172816 1077:0.07462278 1078:0.2397923 1079:0.1670953 1080:0.4172816 1081:0.3511816 1082:0.36640841 1083:0.38745129 1084:0.38745129 1085:0.38745129 1086:0.38745129 1087:0.27049601 1088:0.081222549 1089:0.2414673 #
-0.0018961362826419303 1:0.3714689 2:0.3714689 3:0.1535154 4:0.1059306 5:0.36546651 6:0.3714689 7:0.3714689 8:0.3714689 9:0.3714689 10:0.3860133 11:0.3860133 12:0.25540861 13:0.2456197 14:0.28920501 15:0.2145129 16:0.3860133 17:0.38065809 18:0.3860133 19:0.38086721 20:0.38086721 21:0.21328861 22:0.2767036 23:0.38086721 24:0.34271851 25:0.38086721 26:0.1771528 27:0.38086721 28:0.37608191 29:0.37608191 30:0.1751691 31:0.3244912 32:0.37608191 33:0.13052291 34:0.3688359 35:0.37608191 36:0.37608191 37:0.4190287 38:0.30062461 39:0.14320999 40:0.2222555 41:0.27411541 42:0.24094141 43:0.4190287 44:0.4190287 45:0.4190287 46:0.2566565 47:0.0089804837 48:0.01552426 49:0.022974599 50:0.086323351 51:0.3664591 52:0.56373543 53:0.56373543 54:0.3876974 55:0.1929249 56:0.073551968 57:0.29072681 58:0.40745041 59:0.40745041 60:0.40745041 61:0.40745041 62:0.40745041 63:0.1967191 64:0.27291349 65:0.055339638 66:0.26249781 67:0.3119767 68:0.41226521 69:0.41226521 70:0.41226521 71:0.41226521 72:0.26879841 73:0.2460847 74:0.091958202 75:0.363976 76:0.363976 77:0.363976 78:0.363976 79:0.363976 80:0.363976 81:0.363976 82:0.34799781 83:0.1917301 84:0.34799781 85:0.34799781 86:0.3347322 87:0.34799781 88:0.34799781 89:0.34799781 90:0.34799781 91:0.3785525 92:0.1149391 93:0.27481329 94:0.086300403 95:0.36211851 96:0.39542279 97:0.39542279 98:0.39542279 99:0.39542279 100:0.37965301 101:0.37965301 102:0.047797579 103:0.31402999 104:0.2035369 105:0.36496371 106:0.37965301 107:0.37965301 108:0.37965301 109:0.46471161 110:0.46471161 111:0.46471161 112:0.1585038 113:0.053520009 114:0.1573309 115:0.2382874 116:0.14835399 117:0.46471161 118:0.37078711 119:0.37078711 120:0.37078711 121:0.1296722 122:0.2894612 123:0.26607209 124:0.37078711 125:0.37078711 126:0.37078711 127:0.40376729 128:0.3277196 129:0.4558821 130:0.4558821 131:0.31872419 132:0.081317969 133:0.1883543 134:0.3273803 135:0.2418853 136:0.46782061 137:0.29733419 138:0.38180009 139:0.32142079 140:0.083495833 141:0.035942782 142:0.0176955 143:0.45994371 144:0.46782061 145:0.48234421 146:0.1934984 147:0.082568102 148:0.001128732 149:0.05471212 150:0.1315476 151:0.48234421 152:0.48234421 153:0.48234421 154:0.38743851 155:0.38743851 156:0.31798521 157:0.18840779 158:0.27706411 159:0.1794706 160:0.38743851 161:0.38743851 162:0.38743851 163:0.198149 164:0.2845076 165:0.081317239 166:0.1761677 167:0.4094032 168:0.4094032 169:0.4094032 170:0.4094032 171:0.4094032 172:0.079956457 173:0.0439067 174:0.083191447 175:0.1644288 176:0.47733241 177:0.47733241 178:0.47733241 179:0.47733241 180:0.2038848 181:0.33277869 182:0.33277869 183:0.33277869 184:0.33277869 185:0.33277869 186:0.33277869 187:0.33277869 188:0.33277869 189:0.33277869 190:0.1435829 191:0.38651931 192:0.38651931 193:0.29137519 194:0.29674259 195:0.38651931 196:0.38651931 197:0.38651931 198:0.2357569 199:0.2013537 200:0.40517241 201:0.196197 202:0.29524601 203:0.2803292 204:0.39889771 205:0.41496599 206:0.41496599 207:0.28876609 208:0.46975279 209:0.46975279 210:0.46975279 211:0.23349009 212:0.2084505 213:0.19099499 214:0.2008141 215:0.21464901 216:0.33534461 217:0.38418239 218:0.38418239 219:0.38418239 220:0.29884061 221:0.2420669 222:0.095299363 223:0.31811509 224:0.38418239 225:0.38418239 226:0.39108559 227:0.39108559 228:0.39108559 229:0.32210919 230:0.2295633 231:0.054593358 232:0.39108559 233:0.39108559 234:0.26817739 235:0.50761497 236:0.50761497 237:0.40804869 238:0.116971 239:0.063277267 240:0.054395411 241:0.1606556 242:0.094615817 243:0.50761497 244:0.42768621 245:0.42768621 246:0.2488514 247:0.1160088 248:0.067976438 249:0.34492189 250:0.42768621 251:0.25512511 252:0.42768621 253:0.33817911 254:0.39763081 255:0.21192691 256:0.39763081 257:0.39763081 258:0.30101919 259:0.39763081 260:0.26021421 261:0.21444011 262:0.02993256 263:0.051792029 264:0.40653929 265:0.40653929 266:0.40653929 267:0.40653929 268:0.40653929 269:0.36661541 270:0.17771479 271:0.031063089 272:0.01305704 273:0.41493341 274:0.41493341 275:0.41493341 276:0.41493341 277:0.41493341 278:0.35534441 279:0.087184921 280:0.1211817 281:0.2003897 282:0.40985331 283:0.40985331 284:0.40985331 285:0.28679311 286:0.40985331 287:0.40985331 288:0.1375341 289:0.27582589 290:0.15550511 291:0.2852748 292:0.39952669 293:0.39952669 294:0.39952669 295:0.39952669 296:0.3417373 297:0.243094 298:0.1051844 299:0.2094008 300:0.087778732 301:0.33836699 302:0.30294529 303:0.49144211 304:0.49144211 305:0.49144211 306:0.04074477 307:0.2504307 308:0.37649611 309:0.37649611 310:0.28918049 311:0.37649611 312:0.28901839 313:0.37649611 314:0.37649611 315:0.2400407 316:0.36848119 317:0.30213279 318:0.36848119 319:0.2150438 320:0.36848119 321:0.2100483 322:0.36848119 323:0.36848119 324:0.36848119 325:0.35569581 326:0.062691256 327:0.05135775 328:0.05767097 329:0.078201838 330:0.1324043 331:0.52746958 332:0.52746958 333:0.52746958 334:0.38032019 335:0.2148288 336:0.1008283 337:0.13497379 338:0.0054891291 339:0.024228809 340:0.50830668 341:0.50830668 342:0.50830668 343:0.36982301 344:0.37300581 345:0.12871321 346:0.37300581 347:0.2097057 348:0.321394 349:0.37300581 350:0.37300581 351:0.37300581 352:0.1721929 353:0.36186239 354:0.30245629 355:0.36186239 356:0.36186239 357:0.36186239 358:0.32441151 359:0.36186239 360:0.3395431 361:0.0023960569 362:0.0038249211 363:0.2547383 364:0.55614758 365:0.55614758 366:0.55614758 367:0.039367329 368:0.0091357687 369:0.00071618578 370:0.0033579359 371:0.003843738 372:0.46666181 373:0.5203135 374:0.5203135 375:0.47086 376:0.1025749 377:0.039415348 378:0.042046841 379:0.076434858 380:0.1853551 381:0.46992469 382:0.46992469 383:0.46992469 384:0.44069391 385:0.20434991 386:0.17842139 387:0.1575291 388:0.3720552 389:0.1008981 390:0.13087 391:0.3720552 392:0.3720552 393:0.3720552 394:0.3720552 395:0.3720552 396:0.3720552 397:0.070800491 398:0.056726579 399:0.21926039 400:0.42338121 401:0.1054769 402:0.49807009 403:0.49807009 404:0.49807009 405:0.064197779 406:0.0029901059 407:0.048732921 408:0.41881511 409:0.31865019 410:0.41881511 411:0.41881511 412:0.41881511 413:0.41881511 414:0.1219173 415:0.007652855 416:0.01364111 417:0.1004069 418:0.1442541 419:0.48213291 420:0.48213291 421:0.48213291 422:0.48213291 423:0.1850425 424:0.093847103 425:0.04830683 426:0.2421506 427:0.35821441 428:0.39947811 429:0.39947811 430:0.39947811 431:0.39947811 432:0.39947811 433:0.33980161 434:0.02303117 435:0.093379393 436:0.45837319 437:0.15861779 438:0.071572207 439:0.45837319 440:0.45837319 441:0.45837319 442:0.4879081 443:0.04529056 444:0.045042921 445:0.1613058 446:0.080209479 447:0.079852417 448:0.4879081 449:0.4879081 450:0.4879081 451:0.42176849 452:0.1481436 453:0.05349208 454:0.1341731 455:0.2520574 456:0.42176849 457:0.42176849 458:0.42176849 459:0.42176849 460:0.3125433 461:0.1128255 462:0.0148639 463:0.40973231 464:0.40973231 465:0.40973231 466:0.40973231 467:0.3733623 468:0.27267441 469:0.032012898 470:0.065523081 471:0.077391453 472:0.60400182 473:0.60400182 474:0.48075241 475:0.13464449 476:0.058945712 477:0.017279411 478:0.3945947 479:0.3945947 480:0.2744019 481:0.32065669 482:0.3945947 483:0.3945947 484:0.368821 485:0.17191841 486:0.1718608 487:0.3692376 488:0.32352951 489:0.3692376 490:0.1423168 491:0.3692376 492:0.3447527 493:0.3692376 494:0.26617491 495:0.3692376 496:0.1177771 497:0.041134588 498:0.091893278 499:0.1549813 500:0.46847311 501:0.46847311 502:0.46847311 503:0.46847311 504:0.26348701 505:0.038177039 506:0.04818387 507:0.13368221 508:0.067443147 509:0.37914431 510:0.50204343 511:0.50204343 512:0.50204343 513:0.26247671 514:0.068216242 515:0.2114521 516:0.03993861 517:0.04236073 518:0.43770269 519:0.4832412 520:0.4832412 521:0.4832412 522:0.22420681 523:0.20487469 524:0.3714281 525:0.3714281 526:0.3666555 527:0.3714281 528:0.31618431 529:0.3714281 530:0.3714281 531:0.173531 532:0.079809777 533:0.52631569 534:0.53069752 535:0.53069752 536:0.35159609 537:0.1089964 538:0.063089907 539:0.037339721 540:0.084663972 541:0.20243441 542:0.29459441 543:0.3834486 544:0.3834486 545:0.34693861 546:0.1134602 547:0.3834486 548:0.3834486 549:0.3834486 550:0.36233419 551:0.36233419 552:0.36233419 553:0.36233419 554:0.1640176 555:0.2246678 556:0.36233419 557:0.36233419 558:0.36233419 559:0.36509299 560:0.36149609 561:0.22653361 562:0.34493059 563:0.36509299 564:0.36509299 565:0.36509299 566:0.36509299 567:0.17004161 568:0.050766811 569:0.088671647 570:0.085554063 571:0.28912881 572:0.51160651 573:0.51160651 574:0.51160651 575:0.29449901 576:0.1469091 577:0.1803077 578:0.1318005 579:0.40563479 580:0.33001611 581:0.40563479 582:0.40563479 583:0.40563479 584:0.40563479 585:0.1202375 586:0.34910879 587:0.2766014 588:0.34910879 589:0.33092621 590:0.34910879 591:0.34910879 592:0.28147781 593:0.34910879 594:0.34910879 595:0.1553032 596:0.101127 597:0.003089865 598:0.01521498 599:0.43841389 600:0.43841389 601:0.43841389 602:0.43841389 603:0.43841389 604:0.29969129 605:0.094251826 606:0.3581149 607:0.3581149 608:0.3581149 609:0.3581149 610:0.3581149 611:0.3581149 612:0.3581149 613:0.25776821 614:0.1773916 615:0.2281691 616:0.26841351 617:0.4330045 618:0.4330045 619:0.4330045 620:0.4330045 621:0.1538955 622:0.1194605 623:0.1173125 624:0.3197754 625:0.1221656 626:0.482225 627:0.31772199 628:0.482225 629:0.482225 630:0.22671489 631:0.34045029 632:0.33340389 633:0.37598279 634:0.37598279 635:0.32571119 636:0.097904071 637:0.31650779 638:0.37598279 639:0.35949951 640:0.45701289 641:0.45701289 642:0.45701289 643:0.45701289 644:0.2842229 645:0.20266379 646:0.01907064 647:0.01179999 648:0.1939939 649:0.2945652 650:0.3704927 651:0.3704927 652:0.3704927 653:0.3704927 654:0.3704927 655:0.29491219 656:0.1824792 657:0.32083279 658:0.092287317 659:0.1815941 660:0.39002451 661:0.39002451 662:0.39002451 663:0.39002451 664:0.39002451 665:0.38148201 666:0.2201952 667:0.1122624 668:0.02940806 669:0.2839449 670:0.38773569 671:0.38773569 672:0.38773569 673:0.38773569 674:0.38773569 675:0.38773569 676:0.0293948 677:0.1420432 678:0.41758171 679:0.41758171 680:0.41758171 681:0.41758171 682:0.41758171 683:0.31489441 684:0.061296511 685:0.3472259 686:0.3472259 687:0.3472259 688:0.3472259 689:0.3472259 690:0.3472259 691:0.3472259 692:0.30713981 693:0.24131989 694:0.108535 695:0.34340921 696:0.0478798 697:0.129674 698:0.2171542 699:0.4470908 700:0.4470908 701:0.4470908 702:0.4470908 703:0.1733532 704:0.095196851 705:0.07125137 706:0.21173289 707:0.44854379 708:0.44854379 709:0.44854379 710:0.44854379 711:0.3189545 712:0.01078803 713:0.01262888 714:0.01970127 715:0.27037829 716:0.47700101 717:0.47700101 718:0.47700101 719:0.47700101 720:0.1065229 721:0.038551912 722:0.0047365651 723:0.03316652 724:0.2958678 725:0.4587208 726:0.39167181 727:0.4587208 728:0.4587208 729:0.3472611 730:0.32274619 731:0.15834039 732:0.3936367 733:0.3936367 734:0.30190179 735:0.06066687 736:0.3936367 737:0.3936367 738:0.39013609 739:0.4509733 740:0.4509733 741:0.4509733 742:0.28983721 743:0.090405539 744:0.15892769 745:0.1773276 746:0.18194941 747:0.4509733 748:0.34320289 749:0.34320289 750:0.34320289 751:0.34320289 752:0.34320289 753:0.2329485 754:0.34320289 755:0.34320289 756:0.34320289 757:0.33277869 758:0.33277869 759:0.33277869 760:0.33277869 761:0.33277869 762:0.33277869 763:0.33277869 764:0.33277869 765:0.33277869 766:0.152045 767:0.1950191 768:0.23820999 769:0.38259721 770:0.38259721 771:0.38259721 772:0.38259721 773:0.38259721 774:0.38259721 775:0.054593109 776:0.28691259 777:0.4377695 778:0.4377695 779:0.4377695 780:0.42590001 781:0.36515409 782:0.094490193 783:0.1083736 784:0.3043901 785:0.37077591 786:0.37077591 787:0.2778374 788:0.37077591 789:0.37077591 790:0.37077591 791:0.040003251 792:0.37077591 793:0.3625772 794:0.3625772 795:0.3625772 796:0.36204749 797:0.2028369 798:0.3625772 799:0.1881035 800:0.3625772 801:0.3625772 802:0.3233197 803:0.15494309 804:0.22567099 805:0.1636425 806:0.40357319 807:0.42991379 808:0.42991379 809:0.42991379 810:0.26852849 811:0.098648436 812:0.047173411 813:0.04019843 814:0.125131 815:0.44066411 816:0.44066411 817:0.44066411 818:0.44066411 819:0.43546319 820:0.01041408 821:0.0040481011 822:0.03429424 823:0.4091796 824:0.43919861 825:0.27821231 826:0.52390432 827:0.52390432 828:0.082401313 829:0.2068252 830:0.044609912 831:0.17176931 832:0.2487642 833:0.1662918 834:0.079353981 835:0.61075282 836:0.61075282 837:0.2788527 838:0.4777261 839:0.1769377 840:0.2145668 841:0.061149091 842:0.025779851 843:0.02428491 844:0.4777261 845:0.4777261 846:0.4777261 847:0.46456489 848:0.46456489 849:0.46456489 850:0.165351 851:0.150023 852:0.041485451 853:0.1330885 854:0.25059119 855:0.46456489 856:0.39562699 857:0.39562699 858:0.25508189 859:0.1442802 860:0.2985689 861:0.1960026 862:0.39562699 863:0.39562699 864:0.39562699 865:0.40547949 866:0.38103271 867:0.1094855 868:0.3758589 869:0.40547949 870:0.40547949 871:0.1264572 872:0.1544683 873:0.40547949 874:0.36687011 875:0.36687011 876:0.36687011 877:0.36687011 878:0.36687011 879:0.36687011 880:0.36453539 881:0.2307258 882:0.051500481 883:0.26405481 884:0.3905457 885:0.3905457 886:0.3905457 887:0.3905457 888:0.3905457 889:0.34521919 890:0.1543244 891:0.14405259 892:0.63754082 893:0.1128118 894:0.21899711 895:0.1938387 896:0.073374107 897:0.26192561 898:0.0082786223 899:0.091658533 900:0.63754082 901:0.452966 902:0.07214278 903:0.1577467 904:0.452966 905:0.4244228 906:0.2526654 907:0.27354711 908:0.1762097 909:0.452966 910:0.29981101 911:0.1878857 912:0.01589039 913:0.2442681 914:0.26243371 915:0.2976706 916:0.4664599 917:0.4664599 918:0.4664599 919:0.26916751 920:0.1637335 921:0.080957577 922:0.1371516 923:0.20892499 924:0.45474821 925:0.45474821 926:0.45474821 927:0.45474821 928:0.32348171 929:0.1535418 930:0.4321329 931:0.140655 932:0.1105675 933:0.2974956 934:0.4321329 935:0.4321329 936:0.4321329 937:0.47282961 938:0.2947903 939:0.1101298 940:0.0074840989 941:0.029416019 942:0.032477152 943:0.47282961 944:0.47282961 945:0.47282961 946:0.41496319 947:0.41496319 948:0.41496319 949:0.048564199 950:0.029846201 951:0.0104645 952:0.41496319 953:0.3626619 954:0.41496319 955:0.46022871 956:0.175706 957:0.19241039 958:0.1824168 959:0.135031 960:0.1695812 961:0.46022871 962:0.46022871 963:0.46022871 964:0.3429763 965:0.3429763 966:0.3429763 967:0.3429763 968:0.3429763 969:0.25813979 970:0.3429763 971:0.32635579 972:0.3429763 973:0.34747919 974:0.34747919 975:0.34747919 976:0.34747919 977:0.30120391 978:0.34747919 979:0.34747919 980:0.33082029 981:0.26816371 982:0.26358679 983:0.3998757 984:0.3998757 985:0.3998757 986:0.29084939 987:0.21761081 988:0.33462569 989:0.27383441 990:0.35765651 991:0.51035613 992:0.51035613 993:0.037869669 994:0 995:0.04771575 996:0.072649568 997:0.39753219 998:0.21562061 999:0.51035613 1000:0.45748219 1001:0.1337022 1002:0.081830829 1003:0.2633965 1004:0.37996891 1005:0.1842066 1006:0.3087104 1007:0.45748219 1008:0.45748219 1009:0.4786498 1010:0.4786498 1011:0.1555769 1012:0.08277268 1013:0.28153521 1014:0.086301267 1015:0.1487564 1016:0.40988821 1017:0.4786498 1018:0.44916111 1019:0.41655871 1020:0.1410145 1021:0.1634874 1022:0.18507481 1023:0.031893682 1024:0.36724931 1025:0.44916111 1026:0.44916111 1027:0.43106931 1028:0.2279584 1029:0.1189547 1030:0.1304885 1031:0.41571519 1032:0.1554943 1033:0.3976073 1034:0.43106931 1035:0.43106931 1036:0.45133549 1037:0.3381862 1038:0.021163739 1039:0.02029269 1040:0.24827529 1041:0.061697681 1042:0.45133549 1043:0.45133549 1044:0.45133549 1045:0.43928781 1046:0.43921319 1047:0.1269321 1048:0.077820957 1049:0.087718457 1050:0.030760691 1051:0.43928781 1052:0.43928781 1053:0.43928781 1054:0.38771769 1055:0.38771769 1056:0.2398275 1057:0.2847847 1058:0.35865009 1059:0.2160203 1060:0.2844511 1061:0.38771769 1062:0.38771769 1063:0.3849178 1064:0.3849178 1065:0.3849178 1066:0.3849178 1067:0.3849178 1068:0.16010711 1069:0.1333148 1070:0.25254151 1071:0.3849178 1072:0.34157619 1073:0.34157619 1074:0.34157619 1075:0.34157619 1076:0.34157619 1077:0.2513814 1078:0.34157619 1079:0.34157619 1080:0.34157619 1081:0.37887481 1082:0.37887481 1083:0.37887481 1084:0.37887481 1085:0.37887481 1086:0.29641491 1087:0.27469081 1088:0.053029042 1089:0.33519441 #
-0.0043323475462775651 1:0.095199503 2:0.43474871 3:0.43474871 4:0.43474871 5:0.43474871 6:0.41070351 7:0.1161804 8:0.2152946 9:0.045182481 10:0.076441169 11:0.36913121 12:0.373588 13:0.373588 14:0.373588 15:0.373588 16:0.373588 17:0.373588 18:0.1294551 19:0.2448701 20:0.2159235 21:0.4102954 22:0.4102954 23:0.4102954 24:0.4102954 25:0.4102954 26:0.15186509 27:0.15666009 28:0.41884029 29:0.39923391 30:0.41884029 31:0.41884029 32:0.41884029 33:0.04765654 34:0.1988325 35:0.2998741 36:0.054677028 37:0.32392499 38:0.26939601 39:0.3679561 40:0.3679561 41:0.3679561 42:0.080448247 43:0.3679561 44:0.3679561 45:0.3679561 46:0.4909704 47:0.1493955 48:0.36682621 49:0.1640373 50:0.0538482 51:0.018318269 52:0.29140419 53:0.4909704 54:0.4909704 55:0.45382321 56:0.1662177 57:0.151509 58:0.2708376 59:0.2137402 60:0.04498741 61:0.45382321 62:0.45382321 63:0.45382321 64:0.1589382 65:0.09434966 66:0.39694849 67:0.39881551 68:0.39881551 69:0.094951607 70:0.39881551 71:0.39881551 72:0.39881551 73:0.3680253 74:0.3680253 75:0.3680253 76:0.3680253 77:0.32830831 78:0.3680253 79:0.3680253 80:0.2406503 81:0.134047 82:0.3269597 83:0.34710711 84:0.34710711 85:0.34710711 86:0.28630179 87:0.29113609 88:0.34710711 89:0.34710711 90:0.34710711 91:0.3720164 92:0.3720164 93:0.3720164 94:0.1261265 95:0.3720164 96:0.171331 97:0.3720164 98:0.34733811 99:0.3720164 100:0.4063026 101:0.4063026 102:0.4063026 103:0.4063026 104:0.4063026 105:0.38210869 106:0.1369603 107:0.041999001 108:0.063269697 109:0.4389357 110:0.30145079 111:0.15241671 112:0.08153975 113:0.2874549 114:0.1468835 115:0.4389357 116:0.4389357 117:0.4389357 118:0.37755689 119:0.3006947 120:0.37755689 121:0.37755689 122:0.37755689 123:0.1543209 124:0.16340309 125:0.37755689 126:0.37755689 127:0.35555139 128:0.35555139 129:0.35555139 130:0.29801199 131:0.35555139 132:0.1761457 133:0.35555139 134:0.35555139 135:0.343669 136:0.34335709 137:0.23112109 138:0.34335709 139:0.34335709 140:0.34335709 141:0.34335709 142:0.34335709 143:0.34335709 144:0.34335709 145:0.001670553 146:0.31180611 147:0.37013251 148:0.37013251 149:0.37013251 150:0.37013251 151:0.36887959 152:0.37013251 153:0.27930951 154:0.1421598 155:0.2290612 156:0.25250381 157:0.37854579 158:0.37854579 159:0.37854579 160:0.37854579 161:0.37854579 162:0.37854579 163:0.042859629 164:0.109949 165:0.23841649 166:0.1174664 167:0.16431651 168:0.35300201 169:0.59471238 170:0.59471238 171:0.22476511 172:0.2350672 173:0.1514428 174:0.078375489 175:0.154341 176:0.4793143 177:0.4229998 178:0.4793143 179:0.4793143 180:0.1374847 181:0.35435161 182:0.22740559 183:0.33587539 184:0.353255 185:0.35435161 186:0.33946979 187:0.35435161 188:0.35435161 189:0.29940769 190:0.35324001 191:0.17498121 192:0.35324001 193:0.35324001 194:0.35324001 195:0.35324001 196:0.35324001 197:0.30397809 198:0.35324001 199:0.3854827 200:0.3854827 201:0.3854827 202:0.3854827 203:0.3854827 204:0.2062038 205:0.046762351 206:0.2446647 207:0.3854827 208:0.39154249 209:0.39154249 210:0.36900499 211:0.1756296 212:0.26032129 213:0.067762703 214:0.3788099 215:0.39154249 216:0.39154249 217:0.38786051 218:0.38786051 219:0.20783401 220:0.38786051 221:0.38786051 222:0.1503963 223:0.16642299 224:0.38786051 225:0.38786051 226:0.35330191 227:0.32881811 228:0.35330191 229:0.35330191 230:0.35330191 231:0.1208026 232:0.35330191 233:0.35330191 234:0.35330191 235:0.35140029 236:0.27925071 237:0.23266511 238:0.35140029 239:0.35140029 240:0.35140029 241:0.35140029 242:0.35140029 243:0.35140029 244:0.33879039 245:0.1830502 246:0.1019311 247:0.31187391 248:0.31573209 249:0.40011701 250:0.40011701 251:0.40011701 252:0.40011701 253:0.059046879 254:0.076653197 255:0.1830958 256:0.38842389 257:0.44309381 258:0.44309381 259:0.44309381 260:0.44309381 261:0.1283979 262:0.36007971 263:0.36007971 264:0.36007971 265:0.36007971 266:0.28121999 267:0.36007971 268:0.36007971 269:0.36007971 270:0.098569602 271:0.1168973 272:0.1129601 273:0.1233548 274:0.1361147 275:0.34884921 276:0.51908082 277:0.51908082 278:0.51908082 279:0.067948647 280:0.1237542 281:0.01151286 282:0.0048125312 283:0.050591569 284:0.4638702 285:0.4638702 286:0.4638702 287:0.4638702 288:0.34151751 289:0.31129351 290:0.082904637 291:0.1509947 292:0.068563089 293:0.45119521 294:0.45119521 295:0.45119521 296:0.45119521 297:0.2234004 298:0.4721038 299:0.4190338 300:0.26688501 301:0.1658019 302:0.121622 303:0.1218158 304:0.2132273 305:0.4473438 306:0.4721038 307:0.46486959 308:0.46486959 309:0.2092576 310:0.1508631 311:0.1614328 312:0.0049786191 313:0.1957241 314:0.46486959 315:0.46486959 316:0.40136519 317:0.40136519 318:0.40136519 319:0.3859621 320:0.40136519 321:0.17294741 322:0.057050351 323:0.091585279 324:0.40136519 325:0.1385318 326:0.43631861 327:0.43631861 328:0.43631861 329:0.43631861 330:0.1381515 331:0.43586791 332:0.01871166 333:0.074417353 334:0.41310209 335:0.41310209 336:0.41310209 337:0.41310209 338:0.41310209 339:0.027926121 340:0.3198064 341:0.19051839 342:0.057037741 343:0.36729601 344:0.2902911 345:0.26090339 346:0.2001529 347:0.36729601 348:0.36729601 349:0.36729601 350:0.36729601 351:0.35971931 352:0.058177538 353:0.020050591 354:0.021873729 355:0.4065451 356:0.4065451 357:0.4065451 358:0.4065451 359:0.4065451 360:0.4065451 361:0.1655909 362:0.33604881 363:0.34972569 364:0.34972569 365:0.34972569 366:0.34972569 367:0.34972569 368:0.34972569 369:0.34972569 370:0.22920971 371:0.057422969 372:0.1059042 373:0.14018489 374:0.45950899 375:0.45950899 376:0.45950899 377:0.45950899 378:0.2532075 379:0.2186252 380:0.0654203 381:0.05743714 382:0.1117535 383:0.4726963 384:0.4726963 385:0.4726963 386:0.4726963 387:0.1834311 388:0.37550509 389:0.37550509 390:0.29520541 391:0.1144008 392:0.2253399 393:0.37445489 394:0.37550509 395:0.37550509 396:0.37550509 397:0.37142119 398:0.37142119 399:0.37142119 400:0.37142119 401:0.1748839 402:0.0053856438 403:0.37142119 404:0.37142119 405:0.37142119 406:0.40596059 407:0.40596059 408:0.25164169 409:0.40596059 410:0.01297221 411:0.1720605 412:0.28076261 413:0.40596059 414:0.40596059 415:0.34200391 416:0.34200391 417:0.34200391 418:0.24667691 419:0.34200391 420:0.34200391 421:0.34200391 422:0.34200391 423:0.34200391 424:0.12661789 425:0.2081701 426:0.4014557 427:0.4014557 428:0.4014557 429:0.4014557 430:0.25653699 431:0.37632051 432:0.29073641 433:0.20345511 434:0.1639785 435:0.43790871 436:0.43790871 437:0.43790871 438:0.28429821 439:0.43790871 440:0.1829882 441:0.2144216 442:0.1418124 443:0.34044191 444:0.38137269 445:0.38137269 446:0.38137269 447:0.3139686 448:0.38137269 449:0.19481289 450:0.37665591 451:0.01293417 452:0.037144031 453:0.16374449 454:0.4015862 455:0.4015862 456:0.4015862 457:0.4015862 458:0.4015862 459:0.4015862 460:0.01816659 461:0.056125648 462:0.39405221 463:0.41059721 464:0.41059721 465:0.34886971 466:0.41059721 467:0.41059721 468:0.2026587 469:0.2485857 470:0.185716 471:0.13401569 472:0.26974109 473:0.40223771 474:0.40223771 475:0.40223771 476:0.40223771 477:0.40223771 478:0.031872239 479:0.03460421 480:0.01441611 481:0.053353891 482:0.4699491 483:0.52260047 484:0.52260047 485:0.4599905 486:0.1041502 487:0.35917711 488:0.35917711 489:0.168602 490:0.35917711 491:0.35917711 492:0.35917711 493:0.35917711 494:0.2697804 495:0.3480722 496:0.48898691 497:0.1628283 498:0.1027655 499:0.034145258 500:0.01474776 501:0.01504289 502:0.48898691 503:0.48898691 504:0.48898691 505:0.40763199 506:0.30350199 507:0.1080116 508:0.40763199 509:0.2250634 510:0.1033216 511:0.40763199 512:0.40763199 513:0.40763199 514:0.43254441 515:0.43123311 516:0.056444708 517:0.1137102 518:0.089559577 519:0.1928768 520:0.43254441 521:0.43254441 522:0.43254441 523:0.3047367 524:0.053425491 525:0.33745739 526:0.1788597 527:0.38846669 528:0.38846669 529:0.38846669 530:0.38846669 531:0.38846669 532:0.39660099 533:0.3508046 534:0.16684 535:0.39660099 536:0.39660099 537:0.39660099 538:0.39660099 539:0.096786924 540:0.2220569 541:0.059170309 542:0.1998411 543:0.39316621 544:0.51313251 545:0.51313251 546:0.51313251 547:0.074107289 548:0.012359 549:0.036037739 550:0 551:0.069484077 552:0.39526719 553:0.49682781 554:0.49682781 555:0.27584139 556:0.1156942 557:0.49682781 558:0.063136667 559:0.0056917681 560:0.049425419 561:0.2241047 562:0.43388849 563:0.43388849 564:0.43388849 565:0.43388849 566:0.43388849 567:0.04088233 568:0.1523529 569:0.1828053 570:0.13471641 571:0.42020339 572:0.42020339 573:0.42020339 574:0.42020339 575:0.42020339 576:0.1953717 577:0.069721207 578:0.054964229 579:0.02340138 580:0.1063242 581:0.33410561 582:0.49514091 583:0.49514091 584:0.49514091 585:0.35805029 586:0.079519033 587:0.020379821 588:0.097003803 589:0.4708381 590:0.2382133 591:0.4708381 592:0.4708381 593:0.4708381 594:0.18881039 595:0.48552361 596:0.13833781 597:0.022219719 598:0.001151407 599:0.1249711 600:0.13026071 601:0.48552361 602:0.48552361 603:0.48552361 604:0.40173361 605:0.05940159 606:0.041486721 607:0.34725809 608:0.40173361 609:0.25139469 610:0.40173361 611:0.40173361 612:0.40173361 613:0.43020111 614:0.081581227 615:0.02241241 616:0.1547772 617:0.43020111 618:0.43020111 619:0.43020111 620:0.1980495 621:0.43020111 622:0.43716791 623:0.22745749 624:0.25164559 625:0.003560561 626:0.1064819 627:0.3236613 628:0.43716791 629:0.43716791 630:0.43716791 631:0.37723401 632:0.13140631 633:0.1309053 634:0.217489 635:0.39295381 636:0.39295381 637:0.39295381 638:0.39295381 639:0.39295381 640:0.024333499 641:0.017389821 642:0.13186871 643:0.55506587 644:0.55506587 645:0.55506587 646:0.2257145 647:0.029440841 648:0.0080556888 649:0.0009304728 650:0.0040028971 651:0.096086472 652:0.4156324 653:0.84968859 654:0.29226831 655:0.0453091 656:0.0087096374 657:0.0009304728 658:3.611562e-005 659:0 660:0.0047528972 661:0.3545751 662:0.74800217 663:0.52574712 664:0.1399121 665:0.1062787 666:3.611562e-005 667:0.1470615 668:0.052096728 669:0.12768801 670:0.43677261 671:0.43677261 672:0.43677261 673:0.43677261 674:0.43677261 675:0.033763111 676:0.28260219 677:0.05870536 678:0.34048849 679:0.3644895 680:0.3644895 681:0.3644895 682:0.3644895 683:0.3644895 684:0.3644895 685:0.058122989 686:0.38401279 687:0.38401279 688:0.35905761 689:0.38401279 690:0.38401279 691:0.38401279 692:0.34276649 693:0.095102914 694:0.4259637 695:0.2001932 696:0.048618939 697:0.062702537 698:0.2052961 699:0.4259637 700:0.4259637 701:0.4259637 702:0.4259637 703:0.35443941 704:0.03538198 705:0.019906851 706:0.02488667 707:0.4255062 708:0.4255062 709:0.4255062 710:0.4255062 711:0.37898889 712:0.43522629 713:0.02221155 714:0.0060282969 715:0.035152309 716:0.43522629 717:0.43522629 718:0.43522629 719:0.2162815 720:0.43522629 721:0.40160671 722:0.37949941 723:0.1470937 724:0.061045229 725:0.40160671 726:0.40160671 727:0.40160671 728:0.1420043 729:0.40160671 730:0.27254179 731:0.240465 732:0.1550668 733:0.075013541 734:0.40844691 735:0.40844691 736:0.40844691 737:0.40844691 738:0.40844691 739:0.076790482 740:0.01686395 741:0.064032272 742:0.4280225 743:0.48596609 744:0.48596609 745:0.48596609 746:0.1150661 747:0.28272301 748:0.17569789 749:0.1504028 750:0.16159721 751:0.43091229 752:0.60250622 753:0.35549459 754:0.48733869 755:0.01651418 756:0.03914579 757:0.1833871 758:0.054496702 759:0.2379505 760:0.58647072 761:0.58647072 762:0.32285321 763:0.3279593 764:0.02618265 765:0.02345429 766:0.1656103 767:0.016189709 768:0.057581779 769:0.33444831 770:0.51335901 771:0.51335901 772:0.51335901 773:0.1387984 774:0.2052688 775:0.27053931 776:0.14894889 777:0.35877529 778:0.35877529 779:0.35877529 780:0.35877529 781:0.35877529 782:0.35877529 783:0.35877529 784:0.019312469 785:0.3514556 786:0.44549951 787:0.44549951 788:0.44549951 789:0.44549951 790:0.2662307 791:0.077147737 792:0.03076007 793:0.36985391 794:0.36985391 795:0.1567837 796:0.131934 797:0.36985391 798:0.36985391 799:0.36985391 800:0.36546621 801:0.36985391 802:0.1751744 803:0.35301301 804:0.35301301 805:0.31171179 806:0.35301301 807:0.35301301 808:0.35301301 809:0.35301301 810:0.3477264 811:0.35721359 812:0.088010378 813:0.283135 814:0.34641331 815:0.38474721 816:0.38474721 817:0.38474721 818:0.2617625 819:0.38474721 820:0.35498279 821:0.35498279 822:0.35498279 823:0.35498279 824:0.35498279 825:0.2828432 826:0.3033683 827:0.26142749 828:0.35498279 829:0.33240509 830:0.1576326 831:0.36498219 832:0.3490817 833:0.36498219 834:0.2703594 835:0.36498219 836:0.36498219 837:0.36498219 838:0.1811996 839:0.062033769 840:0.1457092 841:0.35358369 842:0.41993999 843:0.41993999 844:0.41993999 845:0.32783011 846:0.41993999 847:0.140388 848:0.4298631 849:0.4298631 850:0.4298631 851:0.4298631 852:0.33768949 853:0.34711859 854:0.0372173 855:0.030940531 856:0.3251605 857:0.19409551 858:0.41190919 859:0.41190919 860:0.41190919 861:0.41190919 862:0.41190919 863:0.049284238 864:0.041326039 865:0.31598869 866:0.1325352 867:0.245902 868:0.42660031 869:0.42660031 870:0.42660031 871:0.42660031 872:0.122681 873:0.27359569 874:0.35117519 875:0.35117519 876:0.35117519 877:0.18860009 878:0.3335447 879:0.33124819 880:0.35117519 881:0.35117519 882:0.35117519 883:0.38129461 884:0.26934609 885:0.38129461 886:0.38129461 887:0.38129461 888:0.1084813 889:0.1989014 890:0.38129461 891:0.38129461 892:0.35701901 893:0.35701901 894:0.35298899 895:0.1030937 896:0.35701901 897:0.35701901 898:0.35701901 899:0.3105287 900:0.35701901 901:0.3599337 902:0.3599337 903:0.3599337 904:0.3599337 905:0.3599337 906:0.34808671 907:0.24723689 908:0.3599337 909:0.1918329 910:0.28993389 911:0.35961521 912:0.35961521 913:0.35961521 914:0.35961521 915:0.35961521 916:0.3308377 917:0.35961521 918:0.1641745 919:0.3334676 920:0.3334676 921:0.3334676 922:0.3334676 923:0.3334676 924:0.32720491 925:0.3334676 926:0.3334676 927:0.3334676 928:0.38638031 929:0.31611159 930:0.186116 931:0.1462658 932:0.38638031 933:0.30615649 934:0.38638031 935:0.38638031 936:0.38638031 937:0.2198825 938:0.42031479 939:0.42031479 940:0.42031479 941:0.42031479 942:0.123111 943:0.31800061 944:0.346288 945:0.067813016 946:0.0057344609 947:0.49407381 948:0.49407381 949:0.49407381 950:0.49407381 951:0.1193283 952:0.056392021 953:0.0342572 954:0.0019733859 955:0 956:0.15017471 957:0.45994979 958:0.45994979 959:0.45994979 960:0.41400099 961:0.38997701 962:0.1212977 963:0 964:0.36124581 965:0.18066721 966:0.224188 967:0.36124581 968:0.36124581 969:0.36124581 970:0.36124581 971:0.36124581 972:0.36124581 973:0.35790649 974:0.35790649 975:0.27488181 976:0.1555154 977:0.35790649 978:0.35790649 979:0.35790649 980:0.35790649 981:0.35790649 982:0.37340069 983:0.3413043 984:0.2779215 985:0.30526409 986:0.37340069 987:0.110517 988:0.37340069 989:0.37340069 990:0.37340069 991:0.3954424 992:0.2832725 993:0.30016261 994:0.1281461 995:0.1655716 996:0.3954424 997:0.3954424 998:0.3954424 999:0.3954424 1000:0.33592591 1001:0.33592591 1002:0.3063888 1003:0.33592591 1004:0.33592591 1005:0.33592591 1006:0.33592591 1007:0.33592591 1008:0.33592591 1009:0.1092579 1010:0.29216829 1011:0.35938969 1012:0.37065041 1013:0.37065041 1014:0.37065041 1015:0.37065041 1016:0.37065041 1017:0.2879712 1018:0.36568621 1019:0.36568621 1020:0.36568621 1021:0.3286505 1022:0.36568621 1023:0.36218289 1024:0.31819099 1025:0.2398483 1026:0.25195381 1027:0.36847621 1028:0.2389812 1029:0.36847621 1030:0.26257589 1031:0.36847621 1032:0.36847621 1033:0.36847621 1034:0.2358222 1035:0.36847621 1036:0.2048389 1037:0.4624534 1038:0.4624534 1039:0.2281431 1040:0.4624534 1041:0.1667459 1042:0.065227993 1043:0.1177327 1044:0.4624534 1045:0.0839127 1046:0.43892139 1047:0.43892139 1048:0.1140986 1049:0.43892139 1050:0.43892139 1051:0.2439937 1052:0.07264211 1053:0.37435061 1054:0 1055:0.0257877 1056:0.23946451 1057:0.26411051 1058:0.46571499 1059:0.46571499 1060:0.46571499 1061:0.46571499 1062:0.004901798 1063:0.43001461 1064:0.1085774 1065:0.019296231 1066:0.087193497 1067:0.3660095 1068:0.43001461 1069:0.43001461 1070:0.43001461 1071:0.3198863 1072:0.37984151 1073:0.31039849 1074:0.2437278 1075:0.2559478 1076:0.37984151 1077:0.2314035 1078:0.37984151 1079:0.37984151 1080:0.37984151 1081:0.195347 1082:0.35748461 1083:0.35748461 1084:0.35748461 1085:0.35748461 1086:0.2523911 1087:0.35748461 1088:0.35748461 1089:0.35748461 #
0.0079892160292448517 1:0.65873522 2:0.071837433 3:0.0090428013 4:0.018496901 5:0.14916959 6:0.053397171 7:0.058767129 8:0.30235511 9:0.65873522 10:0.56200838 11:0.20093741 12:0.020340459 13:0 14:0.076027691 15:0.0072626779 16:0.0143235 17:0.56200838 18:0.56200838 19:0.55601901 20:0.2937893 21:0.158594 22:0.036895271 23:0.14440051 24:0.1657079 25:0.1339999 26:0.4438934 27:0.55601901 28:0.36223999 29:0.36223999 30:0.36223999 31:0.2337001 32:0.36223999 33:0.33366331 34:0.2076703 35:0.36223999 36:0.36223999 37:0.38207969 38:0.38207969 39:0.38207969 40:0.25534481 41:0.38207969 42:0.1835148 43:0.14626899 44:0.38207969 45:0.38207969 46:0.3562389 47:0.42918631 48:0.42918631 49:0.018114431 50:0.042083919 51:0.049395129 52:0.38309181 53:0.40608561 54:0.42918631 55:0.40075839 56:0.40075839 57:0.080656931 58:0.099350847 59:0.40075839 60:0.1263981 61:0.40075839 62:0.40075839 63:0.40075839 64:0.095853917 65:0.21300229 66:0.55428278 67:0.55428278 68:0.55428278 69:0.1218359 70:0.03594052 71:0.01540034 72:0.042960919 73:0.16678759 74:0.453255 75:0.453255 76:0.453255 77:0.453255 78:0.3152529 79:0.059268311 80:0.0066300971 81:0.2072511 82:0.35285291 83:0.35285291 84:0.35285291 85:0.35285291 86:0.35285291 87:0.35285291 88:0.35285291 89:0.02081205 90:0.35285291 91:0.3866297 92:0.3866297 93:0.3866297 94:0.2265909 95:0.2722899 96:0.3470332 97:0.26485819 98:0.28660119 99:0.3866297 100:0.69244468 101:0.01375095 102:0.01427003 103:0.02918911 104:0.1430577 105:0.01301763 106:0.01432676 107:0.1097414 108:0.69244468 109:0.68992108 110:0.068671927 111:0.01515629 112:0.001161688 113:0.082740873 114:0.01846214 115:0.023010289 116:0.168722 117:0.68992108 118:0.52068943 119:0.52068943 120:0.31917599 121:0.032102671 122:0.2136955 123:0.1040465 124:0.1046609 125:0.1053491 126:0.52068943 127:0.39056951 128:0.39056951 129:0.39056951 130:0.2212366 131:0.39056951 132:0.1761336 133:0.39056951 134:0.2061974 135:0.33300081 136:0.089896947 137:0.65024698 138:0.65024698 139:0.28718001 140:0.1736517 141:0.032466762 142:0.070694491 143:0.091885842 144:0.1125261 145:0.1457697 146:0.43582281 147:0.43582281 148:0.1113185 149:0.29921511 150:0.0034656031 151:0.3357051 152:0.43582281 153:0.43582281 154:0.094702981 155:0.062162232 156:0.1012634 157:0.2374008 158:0.52488512 159:0.1248755 160:0.52488512 161:0.52488512 162:0.27056411 163:0.2318134 164:0.1283558 165:0.39096189 166:0.39096189 167:0.39096189 168:0.39096189 169:0.39096189 170:0.39096189 171:0.09367311 172:0.36677191 173:0.2885927 174:0.36677191 175:0.36677191 176:0.2838867 177:0.36677191 178:0.36677191 179:0.36677191 180:0.1591498 181:0.4328852 182:0.4328852 183:0.4328852 184:0.4328852 185:0.37014961 186:0.12599111 187:0.1881274 188:0.043244742 189:0.23658191 190:0.34706631 191:0.34706631 192:0.34706631 193:0.34706631 194:0.34706631 195:0.34706631 196:0.34706631 197:0.1813616 198:0.34706631 199:0.66763651 200:0.1083867 201:0.05459315 202:0.038775709 203:0.081830047 204:0 205:0.001220019 206:0.28094241 207:0.66763651 208:0.65247411 209:0.117102 210:0.05503545 211:0.05309473 212:0.088421777 213:0.002572265 214:0.098707713 215:0.323901 216:0.65247411 217:0.4164581 218:0.4164581 219:0.1843697 220:0.4164581 221:0.4164581 222:0.22348949 223:0.1720359 224:0.1229502 225:0.4164581 226:0.38152799 227:0.38541809 228:0.38541809 229:0.38541809 230:0.38541809 231:0.37696981 232:0.211353 233:0.1144323 234:0.2377526 235:0.133384 236:0.66459858 237:0.66459858 238:0.20402449 239:0.1775009 240:0.001429542 241:0.01306685 242:0.040012781 243:0.1314721 244:0.071076132 245:0.42095771 246:0.42095771 247:0.28289059 248:0.15836591 249:0.090717293 250:0.42095771 251:0.4105913 252:0.42095771 253:0.081567392 254:0.1018597 255:0.1197603 256:0.074003533 257:0.064231023 258:0.2490865 259:0.61166948 260:0.61166948 261:0.377619 262:0.027930381 263:0.01027057 264:0.02787796 265:0.03405185 266:0.19594429 267:0.56180722 268:0.56180722 269:0.56180722 270:0.079319358 271:0.044170208 272:0.067889519 273:0.076435089 274:0.1363343 275:0.041315019 276:0.4726612 277:0.6070649 278:0.6070649 279:0.02789198 280:0.2164105 281:0.40708211 282:0.28861371 283:0.40708211 284:0.15063711 285:0.34653381 286:0.40708211 287:0.40708211 288:0.2452783 289:0.34040359 290:0.34040359 291:0.34040359 292:0.34040359 293:0.34040359 294:0.34040359 295:0.26382211 296:0.34040359 297:0.34040359 298:0.66389579 299:0.09765929 300:0.0089413421 301:0 302:0.00080372568 303:0.0079968199 304:0.017602891 305:0.31916311 306:0.66389579 307:0.51598948 308:0.51598948 309:0.2789413 310:0.1864004 311:0.1004324 312:0.001537138 313:0.062091012 314:0.2638438 315:0.51598948 316:0.39841101 317:0.39841101 318:0.39841101 319:0.39841101 320:0.39841101 321:0.080830202 322:0.1436989 323:0.12825289 324:0.39841101 325:0.33819631 326:0.52943277 327:0.52943277 328:0.3244921 329:0.3542895 330:0.13054781 331:0.075473361 332:0.025793919 333:0.2559635 334:0.1010606 335:0.67372859 336:0.67372859 337:0.25212759 338:0.094276316 339:0 340:0.0071476051 341:0.00238861 342:0.052222729 343:0.141991 344:0.43696761 345:0.43696761 346:0.157134 347:0.43696761 348:0.07335452 349:0.3656624 350:0.43696761 351:0.2189298 352:0.075109482 353:0.064216889 354:0.1224737 355:0.0020657559 356:0.2013675 357:0.1396209 358:0.66953111 359:0.66953111 360:0.1093621 361:0.068843223 362:0.020727349 363:0.062024031 364:0 365:0.1275944 366:0.119079 367:0.68724883 368:0.68724883 369:0.095085852 370:0.036009431 371:0.022140151 372:0.068117231 373:0.0065238192 374:0.022683879 375:0.2144974 376:0.68422377 377:0.68422377 378:0.0620653 379:0.001656829 380:0.004268439 381:0.01146129 382:0.016708869 383:0.02441372 384:0.2049268 385:0.68182367 386:0.68182367 387:0.1428407 388:0.059801519 389:0.37715051 390:0.37715051 391:0.35753021 392:0.24124929 393:0.30889231 394:0.37715051 395:0.37715051 396:0.37715051 397:0.49376819 398:0.37305301 399:0.20445409 400:0.01558598 401:0.25576371 402:0.49376819 403:0.025050789 404:0.12803049 405:0.49376819 406:0.49307829 407:0.52875662 408:0.52875662 409:0.078602523 410:0.24139 411:0.1573014 412:0.039607659 413:0.053953461 414:0.3142536 415:0.2167204 416:0.57451153 417:0.57451153 418:0.3197487 419:0.3437852 420:0.063506261 421:0.1534497 422:0.17458449 423:0.09317451 424:0.056614891 425:0.69072503 426:0.69072503 427:0.1190257 428:0.12825251 429:0 430:0.041163661 431:0.056084622 432:0.01554172 433:0.1358961 434:0.5292291 435:0.5292291 436:0.2346615 437:0.5292291 438:0.052683052 439:0.20520461 440:0.1449226 441:0.1226534 442:0.39994419 443:0.17475989 444:0.39994419 445:0.064714327 446:0.39994419 447:0.039285809 448:0.39994419 449:0.39994419 450:0.39994419 451:0.37551841 452:0.16342171 453:0.41187349 454:0 455:0.41187349 456:0.086107522 457:0.41187349 458:0.41187349 459:0.37708259 460:0.049440149 461:0.01534544 462:0.045919269 463:0 464:0.064695843 465:0.23385669 466:0.68020701 467:0.68020701 468:0.064681403 469:0.087961867 470:0.02004645 471:0.05998645 472:0 473:0.056853991 474:0.1012098 475:0.69078511 476:0.69078511 477:0.1162871 478:0.03655095 479:0.03086482 480:0.02741845 481:0.01487833 482:0.05712029 483:0.2239096 484:0.68224329 485:0.68224329 486:0.074950397 487:0.064822927 488:0.028005971 489:0.071918279 490:0.02623642 491:0.030290021 492:0.29309931 493:0.66269892 494:0.66269892 495:0.13180581 496:0.3730835 497:0.1162016 498:0.15643559 499:0.1324863 500:0.40571791 501:0.40571791 502:0.40571791 503:0.3778888 504:0.40571791 505:0.1487232 506:0.4043394 507:0.4043394 508:0.202135 509:0.4043394 510:0.33850119 511:0.4043394 512:0.3944329 513:0.094137609 514:0.1104509 515:0.3838889 516:0.3838889 517:0.3838889 518:0.3838889 519:0.3838889 520:0.3838889 521:0.31355241 522:0.037768159 523:0.1889042 524:0.47842869 525:0.47842869 526:0.1839392 527:0.40054399 528:0.076990098 529:0.4716453 530:0.26223591 531:0.1016612 532:0.42756581 533:0.42756581 534:0.23305079 535:0.0007404263 536:0.42756581 537:0.13420551 538:0.42756581 539:0.25661421 540:0.3553924 541:0.45197511 542:0.25004491 543:0.24968819 544:0 545:0.45197511 546:0.095794953 547:0.45197511 548:0.2105135 549:0.45197511 550:0.39473301 551:0.2704033 552:0.38938791 553:0 554:0.39473301 555:0.1909482 556:0.39473301 557:0.33406249 558:0.39473301 559:0.37498379 560:0.1800475 561:0.37498379 562:0.2793304 563:0.37498379 564:0.205266 565:0.37498379 566:0.37498379 567:0.37498379 568:0.1001626 569:0.25827771 570:0.42868289 571:0.2576834 572:0.1388014 573:0.3965914 574:0.4952839 575:0.4952839 576:0.031316269 577:0.1659181 578:0.16752391 579:0.40602249 580:0.40602249 581:0.40602249 582:0.40602249 583:0.40602249 584:0.30474281 585:0.1523525 586:0.35359669 587:0.04696802 588:0.32284001 589:0.3696118 590:0.094150797 591:0.29375979 592:0.45070511 593:0.45070511 594:0.35495579 595:0.1137739 596:0.01500982 597:0.0046158568 598:0.1484049 599:0.1901032 600:0.42515999 601:0.5764966 602:0.5764966 603:0.27826479 604:0.0060670571 605:0.00064996822 606:0.002383884 607:0.07780648 608:0.068818644 609:0.56065029 610:0.56065029 611:0.56065029 612:0.2014505 613:0.116037 614:0.004619482 615:0.02280526 616:0.053936429 617:0.2041903 618:0.39984101 619:0.61203289 620:0.61203289 621:0.16198359 622:0.1370618 623:0.01174918 624:0.046273131 625:0.0090842489 626:0.191863 627:0.40325621 628:0.59380978 629:0.59380978 630:0.26129651 631:0.4099068 632:0.4099068 633:0.2703113 634:0 635:0.22769891 636:0.17570519 637:0.4099068 638:0.4099068 639:0.4099068 640:0.39139131 641:0.39139131 642:0.39139131 643:0.2149982 644:0.39139131 645:0.017044879 646:0.39139131 647:0.1745061 648:0.39139131 649:0.3896994 650:0.3896994 651:0.3896994 652:0.049972281 653:0.3896994 654:0.081437849 655:0.3896994 656:0.2752884 657:0.3896994 658:0.28173181 659:0.4859134 660:0.4859134 661:0.23060291 662:0.4859134 663:0.077831611 664:0.3009989 665:0.087872773 666:0.2233399 667:0.095789723 668:0.68184799 669:0.68184799 670:0.18025739 671:0.1077639 672:0.036688808 673:0.061943822 674:0.055021118 675:0.04321957 676:0.20184609 677:0.61161882 678:0.61161882 679:0.30304509 680:0.29339689 681:0.046129871 682:0.03620379 683:0.01826697 684:0.1526625 685:0.4434987 686:0.4434987 687:0.4434987 688:0.4434987 689:0.1888309 690:0.22340479 691:0.26525819 692:0.2229355 693:0.056362029 694:0.355252 695:0.355252 696:0.20212691 697:0.355252 698:0.34716839 699:0.355252 700:0.355252 701:0.355252 702:0.27900809 703:0.18267681 704:0.2188089 705:0.04827584 706:0.2271883 707:0.4085454 708:0.36315671 709:0.51979637 710:0.51979637 711:0.1429929 712:0.01965918 713:0.024860371 714:0.0072722901 715:0.0091975126 716:0.081372127 717:0.31432679 718:0.66435719 719:0.66435719 720:0.063732237 721:0.1191923 722:0.061663669 723:0.0436159 724:0 725:0.22707979 726:0.43441129 727:0.56972438 728:0.56972438 729:0.29146031 730:0.1744979 731:0.094309241 732:0.18211649 733:0 734:0.2368075 735:0.2149349 736:0.62032747 737:0.62032747 738:0.22228131 739:0.41258669 740:0.26366219 741:0.41258669 742:0.05825156 743:0.41258669 744:0.1056095 745:0.41258669 746:0.24632271 747:0.41258669 748:0.17811871 749:0.50234109 750:0.50234109 751:0.017344709 752:0.50234109 753:0.01742636 754:0.27001071 755:0.29728419 756:0.21054371 757:0.15360621 758:0.6710158 759:0.6710158 760:0.1136109 761:0.2141699 762:0.05270591 763:0.065130167 764:0.03095636 765:0.049269401 766:0.15176331 767:0.55236453 768:0.55236453 769:0.55236453 770:0.173281 771:0.04991274 772:0.059629399 773:0.095514089 774:0.1045751 775:0.066894457 776:0.64722443 777:0.64722443 778:0.36982721 779:0.031291019 780:0.042549439 781:0.027395809 782:0.025512939 783:0.1014967 784:0.147963 785:0.4313328 786:0.4313328 787:0.4313328 788:0.4313328 789:0.4313328 790:0.089486301 791:0.098423474 792:0.16082069 793:0.33277869 794:0.33277869 795:0.33277869 796:0.33277869 797:0.33277869 798:0.33277869 799:0.33277869 800:0.33277869 801:0.33277869 802:0.3528657 803:0.3528657 804:0.3528657 805:0.3528657 806:0.3528657 807:0.23211791 808:0.3528657 809:0.26645169 810:0.3528657 811:0.096241929 812:0.1246822 813:0.041030671 814:0.092520587 815:0.058139659 816:0.25831369 817:0.72361952 818:0.59973651 819:0.065648623 820:0.02278512 821:0.017294981 822:0.004304111 823:0 824:0.044558302 825:0.2124484 826:0.68551028 827:0.68551028 828:0.073152013 829:0.05862404 830:0.089620121 831:0.072681613 832:0 833:0.43361449 834:0.3571595 835:0.56741369 836:0.56741369 837:0.1344686 838:0.19675741 839:0.2018639 840:0.5229758 841:0.0043715229 842:0.090827636 843:0.095147774 844:0.5229758 845:0.5229758 846:0.27835509 847:0.124197 848:0.63079172 849:0.63079172 850:0.034887761 851:0.24387901 852:0 853:0.1803232 854:0.24786019 855:0.1668407 856:0.086851992 857:0.64106268 858:0.64106268 859:0.2854135 860:0.2755166 861:0.003320388 862:0.068301141 863:0.03739066 864:0.02625197 865:0.038932629 866:0.62597197 867:0.62597197 868:0.42531571 869:0.03763843 870:0.026691951 871:0.1013377 872:0.090418391 873:0.08417397 874:0.1055497 875:0.41567811 876:0.41567811 877:0.41567811 878:0.1653892 879:0.39844811 880:0.41544741 881:0.2114286 882:0.25085631 883:0.1333234 884:0.1711396 885:0.1236793 886:0.1312447 887:0.66662931 888:0.66662931 889:0.063316949 890:0.1193127 891:0.08201056 892:0.37479791 893:0.37479791 894:0.37479791 895:0.37479791 896:0.37479791 897:0.37479791 898:0.34351951 899:0.1246953 900:0.1409259 901:0.35786149 902:0.35786149 903:0.35786149 904:0.35786149 905:0.35786149 906:0.35786149 907:0.23902839 908:0.20696861 909:0.35786149 910:0.13951559 911:0.35862339 912:0.35245931 913:0.35862339 914:0.35862339 915:0.35862339 916:0.35862339 917:0.35862339 918:0.28471151 919:0.00047068071 920:0.1348962 921:0.26658431 922:0.10993 923:0.2282384 924:0.49601039 925:0.49601039 926:0.49601039 927:0.32175389 928:0.0021695809 929:0.00083643082 930:0.0025029129 931:0.025847809 932:0.1146728 933:0.56555712 934:0.56555712 935:0.56555712 936:0.14477021 937:0.41855791 938:0.38361859 939:0.34570861 940:0.070717163 941:0.15009061 942:0.19148991 943:0.41855791 944:0.41855791 945:0.37332669 946:0.2152396 947:0.6010254 948:0.6010254 949:0.1801215 950:0.1361582 951:0.074179642 952:0.30475229 953:0.1737022 954:0.2137194 955:0.1055706 956:0.654688 957:0.654688 958:0.32132021 959:0.1356345 960:0.022598609 961:0.04968404 962:0.0032278521 963:0.021280801 964:0.13933299 965:0.53143758 966:0.53143758 967:0.45248371 968:0.43422809 969:0.037037101 970:0.04940819 971:0.080865979 972:0.08233726 973:0.089676723 974:0.3644056 975:0.3644056 976:0.28148001 977:0.3644056 978:0.3644056 979:0.3644056 980:0.3644056 981:0.33516839 982:0.064622819 983:0.2246929 984:0.05628093 985:0.44174841 986:0.58688122 987:0.58688122 988:0.2056537 989:0.079622917 990:0.060625121 991:0.33972719 992:0.33972719 993:0.33928731 994:0.33972719 995:0.33972719 996:0.33972719 997:0.33972719 998:0.33972719 999:0.27127069 1000:0.36082259 1001:0.36082259 1002:0.36082259 1003:0.36082259 1004:0.36082259 1005:0.20663939 1006:0.205778 1007:0.36082259 1008:0.36082259 1009:0.2145644 1010:0.38510311 1011:0.38510311 1012:0.38510311 1013:0.38510311 1014:0.38510311 1015:0.12784129 1016:0.2096303 1017:0.38510311 1018:0.33626631 1019:0.37647581 1020:0.26766649 1021:0.37647581 1022:0.37647581 1023:0.37647581 1024:0.37647581 1025:0.2017334 1026:0.2493027 1027:0.24379291 1028:0.090974227 1029:0.082947873 1030:0.067096911 1031:0.196449 1032:0.39609289 1033:0.49007809 1034:0.49007809 1035:0.49007809 1036:0.1413599 1037:0.048964769 1038:0.3155773 1039:0.1901973 1040:0.42149171 1041:0.42149171 1042:0.42149171 1043:0.42149171 1044:0.35640451 1045:0.1105283 1046:0.54479599 1047:0.54479599 1048:0.1005397 1049:0.4789691 1050:0.3312695 1051:0.01468438 1052:0.1230634 1053:0.15530039 1054:0.18991169 1055:0.4244388 1056:0.4244388 1057:0.4244388 1058:0.34042409 1059:0.1623262 1060:0.2568537 1061:0.17575081 1062:0.4244388 1063:0.20908821 1064:0.30700889 1065:0.36771891 1066:0.36771891 1067:0.36771891 1068:0.2169123 1069:0.36771891 1070:0.36771891 1071:0.36771891 1072:0.34782049 1073:0.34782049 1074:0.2260212 1075:0.34782049 1076:0.34782049 1077:0.34782049 1078:0.31398359 1079:0.34782049 1080:0.34782049 1081:0.14986721 1082:0.14125951 1083:0.1132905 1084:0.49423629 1085:0.55857623 1086:0.55857623 1087:0.03558556 1088:0.096770927 1089:0.2454749 #
