SVM-light Version V6.02
0 # kernel type
3 # kernel parameter -d 
1 # kernel parameter -g 
1 # kernel parameter -s 
1 # kernel parameter -r 
empty# kernel parameter -u 
1089 # highest feature index 
730 # number of training documents 
47 # number of support vectors plus 1 
0.53128462 # threshold b, each following line is a SV (starting with alpha*y)
-0.0083113460275383196 1:0.09298224 2:0.69126672 3:0.69126672 4:0.141148 5:0.066042677 6:0.0070960838 7:0 8:0 9:0.066479281 10:0.22958811 11:0.48466891 12:0.48466891 13:0.48466891 14:0.48466891 15:0.030612061 16:0 17:0 18:0.043538351 19:0.2348493 20:0.04792355 21:0.39545381 22:0.39545381 23:0.39545381 24:0.017214971 25:0.39545381 26:0.39545381 27:0.39545381 28:0.3848699 29:0.3848699 30:0.3848699 31:0.2196046 32:0.2678223 33:0.080233708 34:0.35935801 35:0.3848699 36:0.3848699 37:0.38568851 38:0.3325108 39:0.38568851 40:0.38568851 41:0.38568851 42:0.194537 43:0.2379321 44:0.2175979 45:0.38568851 46:0.6536423 47:0.1120382 48:0.084966019 49:0.03728376 50:0.16505881 51:0.05535705 52:0.01634798 53:0.29536399 54:0.6536423 55:0.53743201 56:0.53743201 57:0.072757043 58:0.1201189 59:0.32763869 60:0.01890319 61:0.00074477919 62:0.026576171 63:0.53743201 64:0.3750208 65:0.3750208 66:0.1024304 67:0.21875469 68:0.3750208 69:0.30669859 70:0.3750208 71:0.3750208 72:0.3750208 73:0.2931987 74:0.1146328 75:0.1067391 76:0.23656911 77:0.37985891 78:0.41385639 79:0.41385639 80:0.41385639 81:0.41385639 82:0.34999949 83:0.27918479 84:0.34999949 85:0.34123021 86:0.34999949 87:0.34999949 88:0.25908101 89:0.34999949 90:0.34999949 91:0.38943771 92:0.38943771 93:0.38943771 94:0.38943771 95:0.38943771 96:0.1221566 97:0.01152117 98:0.26661581 99:0.38943771 100:0.25566781 101:0.53990012 102:0.53990012 103:0.53990012 104:0.05801167 105:0.075505123 106:0 107:0 108:0.2137752 109:0.036429591 110:0.21487071 111:0.68732989 112:0.68732989 113:0.0057393298 114:0.007470028 115:0 116:0 117:0.02661285 118:0.001829632 119:0.038690422 120:0.70370078 121:0.70370078 122:0.01417753 123:0 124:0 125:0.01028506 126:0.02790527 127:0.07996729 128:0.1708733 129:0.62926078 130:0.62926078 131:0.01158147 132:0 133:0 134:0.031904168 135:0.4062444 136:0.47190061 137:0.49553701 138:0.50103629 139:0.50103629 140:0.025999 141:0 142:0 143:0.01468636 144:0.15421639 145:0.49781871 146:0.49781871 147:0.49781871 148:0.057822179 149:0.0032710079 150:0.0081722587 151:0.01770236 152:0 153:0.49781871 154:0.51514798 155:0.51514798 156:0.31754339 157:0.029006099 158:0 159:0.00082687661 160:0.094948404 161:0.29670119 162:0.51514798 163:0.40316409 164:0.1402431 165:0.03178715 166:0.006768662 167:0.40316409 168:0.40316409 169:0.40316409 170:0.40316409 171:0.40316409 172:0.068194941 173:0.03938606 174:0.037440442 175:0.25655389 176:0.46623239 177:0.46623239 178:0.46623239 179:0.46623239 180:0.2289739 181:0.33277869 182:0.33277869 183:0.33277869 184:0.33277869 185:0.33277869 186:0.33277869 187:0.33277869 188:0.33277869 189:0.33277869 190:0.36350751 191:0.36350751 192:0.36350751 193:0.36350751 194:0.36350751 195:0.36350751 196:0.2037278 197:0.17291459 198:0.36350751 199:0.1181225 200:0.2273318 201:0.66676831 202:0.66676831 203:0.1859781 204:0.005171658 205:0 206:0 207:0.062739633 208:0.00091006327 209:0.038426131 210:0.70391089 211:0.70391089 212:0.022692259 213:0.0001801162 214:0 215:0 216:0 217:0 218:0.1599721 219:0.69550908 220:0.69550908 221:0 222:0 223:0 224:0 225:0 226:0.0049875178 227:0.38554689 228:0.61710829 229:0.61710829 230:0.28900129 231:0 232:0 233:0 234:0 235:0.1156219 236:0.52121472 237:0.52121472 238:0.52121472 239:0.4076668 240:0.01049613 241:0.0094604651 242:0.001446703 243:0.0061676251 244:0.52093369 245:0.52093369 246:0.52093369 247:0.1336665 248:0.030356441 249:0.1629011 250:0.2413068 251:0.05108941 252:0.27297911 253:0.44641471 254:0.44641471 255:0.44641471 256:0.16793831 257:0.056565572 258:0.14412761 259:0.18799479 260:0.33298469 261:0.44641471 262:0.3702684 263:0.3702684 264:0.3099218 265:0.1419429 266:0.3702684 267:0.2559455 268:0.3593047 269:0.3702684 270:0.3702684 271:0.02498485 272:0.037568439 273:0.041218981 274:0.26357901 275:0.48071429 276:0.4729636 277:0.48071429 278:0.48071429 279:0.070970342 280:0.17099079 281:0.085864559 282:0.30360869 283:0.39461249 284:0.39461249 285:0.39461249 286:0.39461249 287:0.39461249 288:0.29778159 289:0.2361393 290:0.21814039 291:0.37751541 292:0.34137431 293:0.37751541 294:0.37751541 295:0.37751541 296:0.25249881 297:0.37751541 298:0.0078951493 299:0.046746049 300:0.7032299 301:0.7032299 302:0.039714761 303:0.0073997499 304:0 305:0 306:0.0059829289 307:0.001280983 308:0.2174698 309:0.68768942 310:0.68768942 311:0.0026096089 312:0 313:0 314:0 315:0 316:0.01091283 317:0.57547939 318:0.57547939 319:0.57547939 320:0.02458678 321:0 322:0 323:0 324:0 325:0.02881767 326:0.5682857 327:0.5682857 328:0.5682857 329:0.15699971 330:0 331:0 332:0 333:0 334:0.4364281 335:0.4364281 336:0.4364281 337:0.4364281 338:0.4364281 339:0.088891231 340:0.033766601 341:0.09476573 342:0.1589679 343:0.3651002 344:0.3651002 345:0.27311361 346:0.3651002 347:0.3651002 348:0.1130709 349:0.3304354 350:0.3651002 351:0.3651002 352:0.34673151 353:0.34673151 354:0.3457925 355:0.34673151 356:0.34673151 357:0.1881606 358:0.34673151 359:0.34673151 360:0.34673151 361:0.36498219 362:0.36498219 363:0.2134409 364:0.20563141 365:0.330515 366:0.36498219 367:0.36498219 368:0.36498219 369:0.36498219 370:0.107014 371:0.088843577 372:0.0089284861 373:0.1269754 374:0.49528739 375:0.49528739 376:0.49528739 377:0.4620474 378:0.100444 379:0.03860762 380:0.01559931 381:0.02598908 382:0.1153121 383:0.4931269 384:0.4931269 385:0.4931269 386:0.4931269 387:0.081681982 388:0.1768627 389:0.2332561 390:0.35543561 391:0.3615624 392:0.3615624 393:0.3615624 394:0.3615624 395:0.3615624 396:0.3615624 397:0.01268337 398:0.001432981 399:0.70450091 400:0.70450091 401:0.00058582542 402:0.00058970368 403:0 404:0 405:0.01268337 406:0.001274818 407:0.20670369 408:0.68934411 409:0.68934411 410:0 411:0 412:0 413:0 414:0 415:0.0035871151 416:0.47779241 417:0.61005682 418:0.61005682 419:0.1392504 420:0.0420633 421:0.0048916382 422:0.0093619917 423:0 424:0.025277689 425:0.41112721 426:0.53996158 427:0.53996158 428:0.4636499 429:0.1572054 430:0.04400821 431:0.01430242 432:0 433:0.38407969 434:0.38407969 435:0.38407969 436:0.38407969 437:0.38407969 438:0.30319181 439:0.064088359 440:0.1225858 441:0.38407969 442:0.37130141 443:0.37130141 444:0.37130141 445:0.37130141 446:0.37130141 447:0.1245301 448:0.1254186 449:0.37130141 450:0.37130141 451:0.39297891 452:0.31263849 453:0.39297891 454:0.1099192 455:0.29137549 456:0.1708423 457:0.39297891 458:0.39297891 459:0.39297891 460:0.37284759 461:0.21355771 462:0.2659269 463:0.1295003 464:0.38247201 465:0.38247201 466:0.372733 467:0.38247201 468:0.38247201 469:0.22691961 470:0.19214641 471:0.1188134 472:0.2243975 473:0.41061279 474:0.41061279 475:0.41061279 476:0.41061279 477:0.41061279 478:0.01201063 479:0.0087414905 480:0.0086340019 481:0.056584589 482:0.49749571 483:0.49749571 484:0.49749571 485:0.49749571 486:0.03906396 487:0.071051903 488:0.093128353 489:0.24900091 490:0.246604 491:0.41456541 492:0.41456541 493:0.41456541 494:0.41456541 495:0.41456541 496:0.05587972 497:0.16464099 498:0.6882652 499:0.6882652 500:0.1116938 501:0 502:0 503:0 504:0.054832421 505:0.032432001 506:0.50292557 507:0.50292557 508:0.50292557 509:0.48145831 510:0.033909321 511:0.032248329 512:0.01448906 513:0.030345811 514:0.20118479 515:0.45997161 516:0.45997161 517:0.45997161 518:0.45997161 519:0.25561911 520:0.19185279 521:0.073080681 522:0.033841461 523:0.1699551 524:0.48125511 525:0.48125511 526:0.48125511 527:0.48125511 528:0.151701 529:0.102901 530:0.079252593 531:0 532:0.067835167 533:0.50015342 534:0.50015342 535:0.50015342 536:0.35655931 537:0.1270694 538:0.27161571 539:0.1095284 540:0.1043555 541:0.36022311 542:0.36022311 543:0.36022311 544:0.36022311 545:0.36022311 546:0.29511911 547:0.30856329 548:0.18849429 549:0.36022311 550:0.35245141 551:0.35245141 552:0.35245141 553:0.2089157 554:0.35245141 555:0.28858069 556:0.35245141 557:0.35245141 558:0.35245141 559:0.33480331 560:0.33480331 561:0.33480331 562:0.33480331 563:0.33480331 564:0.31608319 565:0.33480331 566:0.33480331 567:0.33480331 568:0.3583625 569:0.3583625 570:0.25682461 571:0.1774683 572:0.3583625 573:0.3583625 574:0.3583625 575:0.3583625 576:0.3583625 577:0.073454253 578:0.044294789 579:0.0041645621 580:0.04526896 581:0.50393158 582:0.50393158 583:0.50393158 584:0.46958551 585:0.05649171 586:0.034601491 587:0.033485521 588:0.019993231 589:0.2187414 590:0.4772442 591:0.4772442 592:0.4772442 593:0.4772442 594:0.1833545 595:0.060765881 596:0.49713531 597:0.49713531 598:0.49713531 599:0.49713531 600:0.01402798 601:0.007807482 602:0.00031728929 603:0.05010375 604:0.25228649 605:0.39680681 606:0.39680681 607:0.39680681 608:0.39680681 609:0.39680681 610:0.1432222 611:0.1246798 612:0.3302294 613:0.3957147 614:0.3957147 615:0.3957147 616:0.3957147 617:0.3957147 618:0.3957147 619:0.17422339 620:0.1152758 621:0.1134188 622:0.41637889 623:0.41637889 624:0.41637889 625:0.41637889 626:0.41637889 627:0.228185 628:0.1793398 629:0.1897902 630:0.093445897 631:0.34738901 632:0.3893638 633:0.3893638 634:0.3893638 635:0.3893638 636:0.2094617 637:0.21061739 638:0.1708106 639:0.3893638 640:0.37761611 641:0.37761611 642:0.37761611 643:0.37761611 644:0.37761611 645:0.083252072 646:0.35105661 647:0.27020961 648:0.28297111 649:0.3416006 650:0.3416006 651:0.3416006 652:0.3416006 653:0.3416006 654:0.25111619 655:0.3416006 656:0.3416006 657:0.3416006 658:0.34915641 659:0.34915641 660:0.34915641 661:0.28332081 662:0.30668801 663:0.30120119 664:0.34915641 665:0.34915641 666:0.34915641 667:0.35477111 668:0.35477111 669:0.27757341 670:0.1958843 671:0.35477111 672:0.35477111 673:0.35477111 674:0.35477111 675:0.35477111 676:0.1244381 677:0.1952427 678:0.078229517 679:0.29757401 680:0.4568094 681:0.4568094 682:0.4568094 683:0.4568094 684:0.1116386 685:0.04818039 686:0.035149898 687:0.0064559998 688:0.3217752 689:0.4690631 690:0.4690631 691:0.4690631 692:0.4690631 693:0.089979284 694:0.047947709 695:0.34789619 696:0.53754598 697:0.53754598 698:0.53754598 699:0.037961401 700:0.029639499 701:0.033803839 702:0.031171599 703:0.2624431 704:0.44686019 705:0.44686019 706:0.44686019 707:0.44686019 708:0.2258278 709:0.2142164 710:0.1214205 711:0.12764829 712:0.378732 713:0.38467681 714:0.38467681 715:0.38467681 716:0.38467681 717:0.32314539 718:0.38467681 719:0.050404891 720:0.076643258 721:0.37833199 722:0.37833199 723:0.37833199 724:0.37833199 725:0.37833199 726:0.37833199 727:0.3385129 728:0.060640261 729:0.1383518 730:0.36554781 731:0.36554781 732:0.36554781 733:0.36554781 734:0.36554781 735:0.36554781 736:0.12468 737:0.21313471 738:0.36554781 739:0.3329784 740:0.3329784 741:0.33117369 742:0.3329784 743:0.3329784 744:0.3329784 745:0.3329784 746:0.3329784 747:0.3329784 748:0.2917175 749:0.32213011 750:0.35315311 751:0.35315311 752:0.35315311 753:0.35315311 754:0.35315311 755:0.35315311 756:0.24351969 757:0.21365499 758:0.31248221 759:0.36314341 760:0.36314341 761:0.35148069 762:0.36032441 763:0.36314341 764:0.36314341 765:0.26872531 766:0.29978901 767:0.33666801 768:0.33666801 769:0.33666801 770:0.33666801 771:0.33666801 772:0.33666801 773:0.33666801 774:0.33666801 775:0.35437199 776:0.35437199 777:0.21944129 778:0.35437199 779:0.35437199 780:0.31175879 781:0.35437199 782:0.35437199 783:0.31246489 784:0.045964502 785:0.01157594 786:0.01415556 787:0.13599581 788:0.4959811 789:0.48131311 790:0.4959811 791:0.4959811 792:0.066710956 793:0.18363319 794:0.39417329 795:0.39417329 796:0.39417329 797:0.39417329 798:0.39417329 799:0.38943031 800:0.1279503 801:0.13210119 802:0.37342441 803:0.37342441 804:0.37342441 805:0.37342441 806:0.37342441 807:0.37342441 808:0.1234723 809:0.1235616 810:0.3592791 811:0.34867689 812:0.34867689 813:0.34867689 814:0.34867689 815:0.34867689 816:0.34867689 817:0.34867689 818:0.2061386 819:0.3209267 820:0.27853611 821:0.28500721 822:0.26796341 823:0.35726151 824:0.35726151 825:0.35726151 826:0.35726151 827:0.35726151 828:0.35726151 829:0.3728435 830:0.2893447 831:0.3728435 832:0.2027975 833:0.3728435 834:0.3728435 835:0.1932729 836:0.3728435 837:0.3728435 838:0.2312724 839:0.3519997 840:0.27508119 841:0.3519997 842:0.3519997 843:0.3519997 844:0.3519997 845:0.3519997 846:0.3519997 847:0.34779629 848:0.34779629 849:0.34779629 850:0.34779629 851:0.34779629 852:0.1697859 853:0.34779629 854:0.34779629 855:0.34779629 856:0.35948199 857:0.35948199 858:0.35948199 859:0.35948199 860:0.35948199 861:0.17753769 862:0.35948199 863:0.24555629 864:0.35948199 865:0.37760821 866:0.37760821 867:0.37760821 868:0.2715013 869:0.37760821 870:0.1369579 871:0.3660785 872:0.37760821 873:0.23833521 874:0.36695629 875:0.19322661 876:0.16303919 877:0.35280901 878:0.36695629 879:0.36695629 880:0.36695629 881:0.36695629 882:0.36695629 883:0.40177089 884:0.060187578 885:0.04510786 886:0.1476813 887:0.40177089 888:0.40177089 889:0.40177089 890:0.40177089 891:0.40177089 892:0.47206339 893:0.47206339 894:0.31916249 895:0.34953091 896:0.2500025 897:0.16810741 898:0.016983179 899:0.108014 900:0.47206339 901:0.53136629 902:0.3379007 903:0.36368299 904:0.336409 905:0.2196821 906:0.081534363 907:0.045797799 908:0.1156478 909:0.53136629 910:0.49153331 911:0.43118861 912:0.1203886 913:0.46206489 914:0.1869445 915:0.02764084 916:0.1639206 917:0.18808921 918:0.49153331 919:0.4816969 920:0.4816969 921:0.1672457 922:0.2432778 923:0.25230739 924:0.21858349 925:0.2911402 926:0.12544911 927:0.4816969 928:0.4590638 929:0.1336225 930:0.31889921 931:0.1769678 932:0.1951611 933:0.41399139 934:0.3545824 935:0.29641339 936:0.4590638 937:0.3714309 938:0.27557051 939:0.1298697 940:0.3714309 941:0.27517 942:0.3714309 943:0.3714309 944:0.3714309 945:0.3714309 946:0.3572042 947:0.3572042 948:0.3572042 949:0.3572042 950:0.2822215 951:0.1877349 952:0.3572042 953:0.34054199 954:0.3572042 955:0.3890444 956:0.3890444 957:0.3890444 958:0.26744661 959:0.3890444 960:0.19684149 961:0.1762166 962:0.31306419 963:0.3890444 964:0.3619867 965:0.3619867 966:0.246998 967:0.1346648 968:0.3619867 969:0.3619867 970:0.3619867 971:0.3619867 972:0.3619867 973:0.3748419 974:0.3748419 975:0.1073136 976:0.034547739 977:0.3748419 978:0.3748419 979:0.3748419 980:0.3748419 981:0.3748419 982:0.37048721 983:0.35986891 984:0.2839987 985:0.2418009 986:0.37048721 987:0.37048721 988:0.2033865 989:0.37048721 990:0.37048721 991:0.66770458 992:0.061438859 993:0.0099518672 994:0.003258164 995:0.1139083 996:0.029685421 997:0.02866332 998:0.28829309 999:0.66770458 1000:0.68613058 1001:0.019197689 1002:0.0013208661 1003:0.0031634129 1004:0.163018 1005:0.044821508 1006:0.088744737 1007:0.1214919 1008:0.68613058 1009:0.70241332 1010:0.05381956 1011:0.0051970002 1012:0.0046285782 1013:0.043367092 1014:0.0005581968 1015:0.01119231 1016:0.03560961 1017:0.70241332 1018:0.70258892 1019:0.067934677 1020:0.0026859129 1021:0.0021155961 1022:0.03238092 1023:7.381865e-005 1024:0.0068807299 1025:0.001285828 1026:0.70258892 1027:0.70246363 1028:0.01456803 1029:0.0038976299 1030:0.00088896259 1031:0.048109509 1032:0.024141699 1033:0.046148859 1034:0.02867339 1035:0.70246363 1036:0.70272052 1037:0.036566749 1038:0.006070341 1039:0.003486946 1040:0.047052871 1041:0.0092515172 1042:0.01195975 1043:0.039041549 1044:0.70272052 1045:0.69961911 1046:0.02184399 1047:0.01306295 1048:0.016796101 1049:0.022344731 1050:0.0035899749 1051:0.028488999 1052:0.1087596 1053:0.69961911 1054:0.53584379 1055:0.1034437 1056:0.0061130808 1057:0.0029097479 1058:0.02811919 1059:0.0043494231 1060:0.34886539 1061:0.53584379 1062:0.53584379 1063:0.65904468 1064:0.2033153 1065:0.00253047 1066:0.0043175351 1067:0.14748929 1068:0.1776395 1069:0.141735 1070:0.099903353 1071:0.65904468 1072:0.53029078 1073:0.3013157 1074:0.02888005 1075:0.097480223 1076:0.2776005 1077:0.4282949 1078:0.25828099 1079:0.062867291 1080:0.53029078 1081:0.62868053 1082:0.24000581 1083:0.03736474 1084:0.01197473 1085:0.1188965 1086:0.1644007 1087:0.046078689 1088:0.31751421 1089:0.62868053 #
-0.0019430160007306997 1:0.4440802 2:0.03093797 3:0.092578202 4:0 5:0.4440802 6:0 7:0.4440802 8:0.4440802 9:0.4440802 10:0.4357188 11:0.068268821 12:0.2042855 13:0 14:0.4357188 15:0 16:0.4357188 17:0.4357188 18:0.4357188 19:0.44543841 20:0.01868074 21:0.05589968 22:0 23:0.44543841 24:0 25:0.44543841 26:0.44543841 27:0.44543841 28:0.46139571 29:0.047300171 30:0.1415401 31:0 32:0.46139571 33:0 34:0.46139571 35:0.3486782 36:0.46139571 37:0.4750517 38:0.0037512979 39:0.01122531 40:0 41:0.4750517 42:0 43:0.4750517 44:0.30400401 45:0.4750517 46:0.44600451 47:0.054379649 48:0.1627242 49:0 50:0.44600451 51:0.227137 52:0.44600451 53:0.3447282 54:0.44600451 55:0.3417398 56:0.1011159 57:0.3025769 58:0 59:0.45694631 60:0.148505 61:0.45694631 62:0.45694631 63:0.35835591 64:0.1295495 65:0 66:0 67:0 68:0.56242841 69:0.1021034 70:0.56242841 71:0.56242841 72:0.134902 73:0.25934121 74:0 75:0 76:0 77:0.53545523 78:0 79:0.53545523 80:0.53545523 81:0.25934121 82:0.37012729 83:0 84:0 85:0 86:0.49027711 87:0 88:0.49027711 89:0.49027711 90:0.37012729 91:0.33731461 92:0 93:0 94:0 95:0.50576228 96:0 97:0.50576228 98:0.50576228 99:0.33731461 100:0.41304719 101:0.1322329 102:0.39568999 103:0 104:0.41304719 105:0 106:0.41304719 107:0.37334391 108:0.41304719 109:0.3369543 110:0.14665779 111:0.4149237 112:0 113:0.4149237 114:0 115:0.4149237 116:0.4149237 117:0.4149237 118:0.461918 119:0.028237579 120:0.084497273 121:0 122:0.461918 123:0 124:0.461918 125:0.36602721 126:0.461918 127:0.47125879 128:0.069928139 129:0.2092517 130:0 131:0.47125879 132:0 133:0.47125879 134:0.24140701 135:0.47125879 136:0.47420621 137:0.0047350042 138:0.01416894 139:0 140:0.47420621 141:0 142:0.47420621 143:0.30911869 144:0.47420621 145:0.41648519 146:0.0079147499 147:0.023683909 148:0 149:0.54369563 150:0.074070632 151:0.54369563 152:0.22434551 153:0.41648519 154:0.22671761 155:0.029224491 156:0.08745078 157:0 158:0.59128678 159:0.027782571 160:0.59128678 161:0.42752841 162:0.22671761 163:0.076352268 164:0.07695163 165:0.2302677 166:0 167:0.55282211 168:0 169:0.55282211 170:0.55282211 171:0.1134376 172:0.05645889 173:0.022237079 174:0.073887423 175:0.0150258 176:0.57166761 177:0 178:0.57166761 179:0.57166761 180:0.067175612 181:0.2685172 182:0 183:0.03200493 184:0.065465353 185:0.53078133 186:0 187:0.53078133 188:0.53078133 189:0.2685172 190:0.2103626 191:0 192:0 193:0 194:0.58464879 195:0 196:0.58464879 197:0.4711993 198:0.2103626 199:0.04368246 200:0.16631889 201:0.49768779 202:0 203:0.57157922 204:0 205:0.57157922 206:0.2484262 207:0.04368246 208:0.02799743 209:0.087303907 210:0.26124561 211:0 212:0.63833582 213:0 214:0.63833582 215:0.3181867 216:0.02799743 217:0.35031751 218:0.01294862 219:0.038747068 220:0 221:0.56806701 222:0 223:0.56806701 224:0.31908241 225:0.35031751 226:0.41634309 227:0.1376809 228:0.4119921 229:0 230:0.41634309 231:0 232:0.41634309 233:0.33731461 234:0.41634309 235:0.37714061 236:0.091003202 237:0.2723152 238:0 239:0.61358351 240:0 241:0.47467729 242:0.15862919 243:0.37714061 244:0.54951751 245:0.01127614 246:0.033742379 247:0 248:0.60124803 249:0 250:0.1566878 251:0.052362438 252:0.54951751 253:0.2547859 254:0 255:0 256:0 257:0.58576459 258:0 259:0.58576459 260:0.42199379 261:0.2547859 262:0.38944751 263:0.0050883051 264:0.01522609 265:0 266:0.43963 267:0.2656751 268:0.43963 269:0.43963 270:0.43963 271:0.07803981 272:0.04639468 273:0.1744477 274:0.072855078 275:0.57145798 276:0.026321109 277:0.57145798 278:0.53466588 279:0.103064 280:0.036524531 281:0.049225941 282:0.29847059 283:0.3092114 284:0.6160816 285:0 286:0.6160816 287:0.21200959 288:0.036524531 289:0.2487856 290:0.1164011 291:0.3483153 292:0 293:0.54586059 294:0 295:0.54586059 296:0.37411219 297:0.2487856 298:0.34931159 299:0.01113982 300:0.033334479 301:0 302:0.8185814 303:0 304:0.26229641 305:0.087655097 306:0.34931159 307:0.33423439 308:0.00365473 309:0.0109363 310:0 311:0.65806741 312:0 313:0.55043858 314:0.1839474 315:0.33423439 316:0.46858001 317:0 318:0 319:0 320:0.49646291 321:0 322:0.49646291 323:0.2509113 324:0.46858001 325:0.40784079 326:0.1038374 327:0.31071979 328:0 329:0.47878769 330:0 331:0.47878769 332:0.31103891 333:0.40784079 334:0.20063791 335:0.069487803 336:0.2079332 337:0 338:0.56904137 339:0.44939071 340:0.56904137 341:0.127175 342:0.20063791 343:0.52590549 344:0.18297289 345:0.03536905 346:0 347:0.52590549 348:0.095333017 349:0.36673871 350:0.1069828 351:0.50183052 352:0.1687969 353:0.27931571 354:0 355:0 356:0.62759417 357:0 358:0.62759417 359:0.29524919 360:0.1109197 361:0.1074205 362:0.043952242 363:0.1315214 364:0 365:0.56056923 366:0.1304132 367:0.56056923 368:0.53977031 369:0.1637015 370:0.098202743 371:0.01229974 372:0.03680538 373:0 374:0.60936272 375:0.3743057 376:0.60936272 377:0.296525 378:0.109947 379:0.022350561 380:0.01095509 381:0.032781679 382:0 383:0.66970623 384:0.029163171 385:0.66970623 386:0.3053804 387:0.022350561 388:0.3999421 389:0.13556141 390:0.40565041 391:0 392:0.45667699 393:0 394:0.45667699 395:0.27476189 396:0.3999421 397:0.56514353 398:0 399:0 400:0 401:0.56514353 402:0 403:0.1804402 404:0.060300089 405:0.56514353 406:0.47557211 407:0.0575299 408:0.17215081 409:0 410:0.47557211 411:0 412:0.47557211 413:0.24006081 414:0.47557211 415:0.4513509 416:0.01160487 417:0.03472605 418:0 419:0.55630732 420:0 421:0.49844289 422:0.1665713 423:0.4513509 424:0.49156699 425:0.068340138 426:0.20449901 427:0 428:0.51745772 429:0 430:0.42128649 431:0.1407869 432:0.49156699 433:0.50576007 434:0.019273389 435:0.057673112 436:0.131953 437:0.71029741 438:0.0126228 439:0.2780382 440:0.090853453 441:0.35463449 442:0.45041189 443:0.110222 444:0 445:0.0227472 446:0.45041189 447:0.45041189 448:0.020296071 449:0.41344789 450:0.45041189 451:0.49875709 452:0.1092669 453:0.001763596 454:0.034451 455:0.49875709 456:0.40904889 457:0.032546729 458:0.25929329 459:0.49875709 460:0.1686819 461:0.2256162 462:0.18744729 463:0 464:0.5584861 465:0 466:0.49179921 467:0.53075951 468:0.21083561 469:0.1471587 470:0.078756317 471:0.23566809 472:0 473:0.62465471 474:0.1162426 475:0.62465471 476:0.30791339 477:0.1471587 478:0.03283878 479:0.082914472 480:0.2481107 481:0 482:0.89211911 483:0.089598253 484:0.32799941 485:0.094973661 486:0.03283878 487:0.53470802 488:0.1139374 489:0.34094319 490:0 491:0.53470802 492:0 493:0.083216503 494:0.02780957 495:0.53470802 496:0.42969009 497:0.08996392 498:0.2692053 499:0 500:0.62609112 501:0 502:0.36968139 503:0.1235413 504:0.42969009 505:0.3316524 506:0.26561359 507:0.55662441 508:0 509:0.55662441 510:0 511:0.27528179 512:0.091994591 513:0.3316524 514:0.2250044 515:0.1297289 516:0.3881968 517:0 518:0.66027713 519:0 520:0.50957167 521:0.1702904 522:0.2250044 523:0.28456041 524:0.2184885 525:0.48945451 526:0 527:0.48945451 528:0 529:0.48945451 530:0.2583175 531:0.28456041 532:0.39679739 533:0.06226895 534:0.1863317 535:0.067250133 536:0.54839748 537:0 538:0.54839748 539:0.22487611 540:0.37670559 541:0.44555789 542:0.01556679 543:0.0125375 544:0.024395259 545:0.44555789 546:0.44555789 547:0.044107519 548:0.44555789 549:0.44555789 550:0.56284869 551:0.01404828 552:0.0169577 553:0.05042031 554:0.56284869 555:0.1710642 556:0.0001977963 557:0.1081356 558:0.56284869 559:0.20701011 560:0.4821403 561:0.54877198 562:0 563:0.54877198 564:0 565:0.2702356 566:0.1239267 567:0.1688807 568:0.12743039 569:0.54394209 570:0.54394209 571:0 572:0.54394209 573:0.086405993 574:0.2653116 575:0.074545987 576:0.085422702 577:0.067495979 578:0.35725939 579:0.42808121 580:0 581:0.75745958 582:0.091295719 583:0.29555199 584:0.083852962 585:0.023111049 586:0.18569601 587:0.083775349 588:0.25068691 589:0 590:0.87071693 591:0 592:0.2913053 593:0.097349368 594:0.18569601 595:0.44042021 596:0.047058851 597:0.14081749 598:0 599:0.52530742 600:0 601:0.52530742 602:0.18131261 603:0.44042021 604:0.4473187 605:0.2480319 606:0.50203931 607:0 608:0.50203931 609:0 610:0.16204479 611:0.054152679 612:0.4473187 613:0.1111268 614:0.36452511 615:0.62412542 616:0 617:0.62412542 618:0 619:0.2266884 620:0.07575547 621:0.1111268 622:0.28240839 623:0.42891139 624:0.56574363 625:0 626:0.56574363 627:0 628:0.098312952 629:0.032854538 630:0.28240839 631:0.3319495 632:0.3956477 633:0.55504072 634:0 635:0.55504072 636:0 637:0.03547601 638:0.01185549 639:0.3319495 640:0.4428516 641:0.4428516 642:0.4428516 643:0.038240451 644:0.4428516 645:0 646:0.1103057 647:0.036862262 648:0.4428516 649:0.43472159 650:0.314208 651:0.4051255 652:0.1671312 653:0.43472159 654:0 655:0.35223141 656:0.1177098 657:0.43472159 658:0.1574522 659:0.47710669 660:0.5964725 661:0 662:0.5964725 663:0 664:0.068866096 665:0.023013899 666:0.1574522 667:0.054690391 668:0.37546241 669:0.64547932 670:0 671:0.64547932 672:0.084414661 673:0.080215417 674:0.01301527 675:0.050752029 676:0.0096293585 677:0.36087039 678:0.64318389 679:0 680:0.64318389 681:0.085449703 682:0.1639702 683:0.040835589 684:0.0056427042 685:0.14734051 686:0.34472141 687:0.55127382 688:0 689:0.55127382 690:0 691:0.44932321 692:0.1501563 693:0.14734051 694:0.39426991 695:0.47441581 696:0.47441581 697:0 698:0.47441581 699:0 700:0.090737432 701:0.03032293 702:0.39426991 703:0.44621581 704:0.44621581 705:0.44621581 706:0 707:0.44621581 708:0 709:0 710:0 711:0.44621581 712:0.17053141 713:0.55864698 714:0.55864698 715:0 716:0.55864698 717:0 718:0 719:0 720:0.17053141 721:0.44621581 722:0.44621581 723:0.44621581 724:0 725:0.44621581 726:0 727:0 728:0 729:0.44621581 730:0.34504309 731:0.50228608 732:0.50228608 733:0 734:0.50228608 735:0 736:0 737:0 738:0.34504309 739:0.31327611 740:0.47876221 741:0.47876221 742:0 743:0.47876221 744:0 745:0.31640771 746:0.1057381 747:0.31327611 748:0.26625201 749:0.4841356 750:0.4841356 751:0.067817032 752:0.4841356 753:0 754:0.36193109 755:0.1209513 756:0.26625201 757:0.41102669 758:0.2429633 759:0.51772541 760:0.017002219 761:0.51772541 762:0 763:0.2352899 764:0.078629963 765:0.41102669 766:0.1902775 767:0.51584262 768:0.55813658 769:0 770:0.55813658 771:0.098089851 772:0.1487689 773:0.033690471 774:0.1902775 775:0.1105221 776:0.4540635 777:0.55122358 778:0.1453391 779:0.55122358 780:0.094088763 781:0.34129441 782:0.098682977 783:0.1105221 784:0.1353469 785:0.55350041 786:0.55350041 787:0.18572091 788:0.55350041 789:0 790:0.06186587 791:0.02067454 792:0.1353469 793:0.35320121 794:0.4979414 795:0.4979414 796:0.041081771 797:0.4979414 798:0 799:0 800:0 801:0.35320121 802:0.45316461 803:0.4062008 804:0.45316461 805:0.1458443 806:0.36550051 807:0 808:0.2314253 809:0.077338263 810:0.45316461 811:0.36483851 812:0.48389551 813:0.48389551 814:0.1616867 815:0.48389551 816:0 817:0.01762818 818:0.005891026 819:0.36483851 820:0.329173 821:0.57674342 822:0.57674342 823:0 824:0.3350603 825:0 826:0 827:0 828:0.329173 829:0.32009521 830:0.53110689 831:0.53110689 832:0.070640132 833:0.48500341 834:0 835:0.01269789 836:0.004243413 837:0.29612261 838:0.41462341 839:0.45050201 840:0.45050201 841:0.082288899 842:0.45050201 843:0 844:0.22501209 845:0.075195082 846:0.38945481 847:0.34568769 848:0.438099 849:0.438099 850:0.42311701 851:0.438099 852:0 853:0.040282171 854:0.01346159 855:0.34568769 856:0.44489509 857:0.44489509 858:0.44489509 859:0.075003043 860:0.44489509 861:0 862:0.01564762 863:0.0052291732 864:0.44489509 865:0.2801896 866:0.52842039 867:0.52842039 868:0 869:0.52842039 870:0 871:0.004835336 872:0.001615889 873:0.2801896 874:0.034761351 875:0.50006521 876:0.53279543 877:0.4173995 878:0.53279543 879:0 880:0.01448323 881:0.0048400522 882:0.034761351 883:0.1234472 884:0.51966691 885:0.55271918 886:0.28796899 887:0.55271918 888:0 889:0.0047504511 890:0.0015875211 891:0.1234472 892:0.45119271 893:0.38271409 894:0.45119271 895:0.18634249 896:0.45119271 897:0 898:0 899:0 900:0.45119271 901:0.4441047 902:0.4441047 903:0.4441047 904:0.049791969 905:0.4441047 906:0 907:0.079009727 908:0.02640366 909:0.4441047 910:0.41636309 911:0.46377981 912:0.46377981 913:0.05772163 914:0.46377981 915:0 916:0.0062932 917:0.002103077 918:0.41636309 919:0.40091079 920:0.47703689 921:0.47703689 922:0 923:0.47703689 924:0 925:0 926:0 927:0.3896322 928:0.1989567 929:0.50468969 930:0.50468969 931:0.33786169 932:0.50468969 933:0 934:0.21787339 935:0.072809577 936:0.15594859 937:0.4064523 938:0.4064523 939:0.4064523 940:0.093102813 941:0.4064523 942:0 943:0.38086039 944:0.127277 945:0.4064523 946:0.3877022 947:0.47897771 948:0.47897771 949:0.078012884 950:0.47897771 951:0 952:0.01485418 953:0.0049640061 954:0.3877022 955:0.28827789 956:0.52224457 957:0.52224457 958:0 959:0.52224457 960:0 961:0.096526831 962:0.03225765 963:0.28827789 964:0.35212031 965:0.49694079 966:0.49694079 967:0.073045582 968:0.49694079 969:0 970:0.028026801 971:0.0093660885 972:0.35212031 973:0.1261829 974:0.4281339 975:0.52119762 976:0.48616681 977:0.52119762 978:0 979:0 980:0 981:0.1261829 982:0.222121 983:0.47929561 984:0.50420213 985:0.3976495 986:0.50420213 987:0 988:0 989:0 990:0.222121 991:0.45191541 992:0.45191541 993:0.45191541 994:0 995:0.4225823 996:0 997:0 998:0 999:0.45191541 1000:0.42075059 1001:0.46235621 1002:0.46235621 1003:0 1004:0.46235621 1005:0 1006:0 1007:0 1008:0.42075059 1009:0.44568849 1010:0.44568849 1011:0.44568849 1012:0 1013:0.44568849 1014:0 1015:0.046043761 1016:0.01538702 1017:0.44568849 1018:0.42840549 1019:0.42840549 1020:0.42840549 1021:0.31746531 1022:0.2941196 1023:0 1024:0.25853521 1025:0.086397909 1026:0.42840549 1027:0.44428331 1028:0.44428331 1029:0.44428331 1030:0.092278488 1031:0.44428331 1032:0 1033:0.0098803435 1034:0.0033018449 1035:0.44428331 1036:0.43802729 1037:0.41762611 1038:0.46746191 1039:0 1040:0.46746191 1041:0 1042:0.01130827 1043:0.0037790351 1044:0.43802729 1045:0.3120971 1046:0.51092279 1047:0.51092279 1048:0.13023689 1049:0.51092279 1050:0 1051:0 1052:0 1053:0.3120971 1054:0.43941441 1055:0.43941441 1056:0.43941441 1057:0.1393818 1058:0.43941441 1059:0 1060:0.098374233 1061:0.03287502 1062:0.43941441 1063:0.38283131 1064:0.46576509 1065:0.46576509 1066:0.27168509 1067:0.46576509 1068:0 1069:0.02719273 1070:0.0090873567 1071:0.35120031 1072:0.19168369 1073:0.4845936 1074:0.4845936 1075:0.46602771 1076:0.4845936 1077:0 1078:0 1079:0 1080:0.19168369 1081:0.215826 1082:0.49233711 1083:0.52763617 1084:0.30864379 1085:0.52763617 1086:0 1087:0.079985969 1088:0.02672991 1089:0.215826 #
-0.0036581948238443448 1:0.32474279 2:0.34151801 3:0.2023489 4:0.3496353 5:0.3496353 6:0.3496353 7:0.3496353 8:0.3496353 9:0.3496353 10:0.34679499 11:0.34679499 12:0.34679499 13:0.34679499 14:0.34679499 15:0.34679499 16:0.18547431 17:0.34679499 18:0.34679499 19:0.37026641 20:0.37026641 21:0.37026641 22:0.2445717 23:0.21261141 24:0.2621043 25:0.37026641 26:0.37026641 27:0.37026641 28:0.36051059 29:0.36051059 30:0.36051059 31:0.02087068 32:0.36051059 33:0.3479653 34:0.36051059 35:0.36051059 36:0.30834299 37:0.3061676 38:0.35859579 39:0.35859579 40:0.05041628 41:0.35859579 42:0.35859579 43:0.35859579 44:0.35859579 45:0.35859579 46:0.40241909 47:0.178837 48:0.2629638 49:0.2125791 50:0.40241909 51:0.40241909 52:0.1998788 53:0.40241909 54:0.40241909 55:0.40910611 56:0.1924507 57:0.40910611 58:0.31688389 59:0.40910611 60:0.22428399 61:0.1810687 62:0.32542261 63:0.40910611 64:0.50218958 65:0.26840851 66:0.051078182 67:0.27354601 68:0.50218958 69:0.2499736 70:0.110087 71:0.1196485 72:0.50218958 73:0.45970389 74:0.088547699 75:0.1162363 76:0.18027011 77:0.45970389 78:0.1714049 79:0.45970389 80:0.2585907 81:0.45970389 82:0.3676638 83:0.3676638 84:0.21594881 85:0.3676638 86:0.3676638 87:0.3676638 88:0.3676638 89:0.1565685 90:0.33781499 91:0.34077781 92:0.34077781 93:0.34077781 94:0.34077781 95:0.34077781 96:0.34077781 97:0.25992081 98:0.34077781 99:0.34077781 100:0.37377429 101:0.37377429 102:0.33081919 103:0.18172 104:0.1247355 105:0.37377429 106:0.37377429 107:0.37377429 108:0.37377429 109:0.34446359 110:0.34446359 111:0.34446359 112:0.2175249 113:0.34446359 114:0.34446359 115:0.34446359 116:0.34446359 117:0.34446359 118:0.34831569 119:0.34831569 120:0.34831569 121:0.34831569 122:0.29474479 123:0.34831569 124:0.2457201 125:0.34831569 126:0.34831569 127:0.3384712 128:0.3384712 129:0.3384712 130:0.3384712 131:0.3159298 132:0.30800551 133:0.3384712 134:0.3384712 135:0.3384712 136:0.36907399 137:0.36907399 138:0.36907399 139:0.36907399 140:0.28998959 141:0.283822 142:0.36907399 143:0.36907399 144:0.1198746 145:0.33524081 146:0.33524081 147:0.33524081 148:0.33524081 149:0.33524081 150:0.33524081 151:0.31234521 152:0.33524081 153:0.33524081 154:0.43071371 155:0.140294 156:0.098245203 157:0.2029068 158:0.43071371 159:0.21152771 160:0.43071371 161:0.3720091 162:0.43071371 163:0.53886199 164:0.33920649 165:0.03045336 166:0.2017535 167:0.47708961 168:0.09924674 169:0.080059864 170:0.1153573 171:0.53886199 172:0.44075021 173:0.32952991 174:0.44075021 175:0.2300362 176:0.44075021 177:0.1867996 178:0.1432506 179:0.04040692 180:0.44075021 181:0.39604801 182:0.35801941 183:0.2165959 184:0.3891387 185:0.39604801 186:0.39604801 187:0.39604801 188:0.1180429 189:0.16784631 190:0.34095371 191:0.34095371 192:0.2580654 193:0.34095371 194:0.34095371 195:0.34095371 196:0.34095371 197:0.34095371 198:0.34095371 199:0.3423723 200:0.3423723 201:0.3423723 202:0.3423723 203:0.2425472 204:0.3423723 205:0.3423723 206:0.3423723 207:0.3423723 208:0.1409293 209:0.35095739 210:0.35095739 211:0.35095739 212:0.35095739 213:0.3382822 214:0.35095739 215:0.35095739 216:0.35095739 217:0.3421461 218:0.3421461 219:0.3421461 220:0.3421461 221:0.3421461 222:0.2450913 223:0.3421461 224:0.3421461 225:0.3421461 226:0.3430793 227:0.3430793 228:0.3430793 229:0.3430793 230:0.3430793 231:0.3430793 232:0.3430793 233:0.23440389 234:0.3430793 235:0.35288551 236:0.35288551 237:0.35288551 238:0.35288551 239:0.35288551 240:0.2471129 241:0.35288551 242:0.35288551 243:0.25241271 244:0.33412239 245:0.33412239 246:0.32180619 247:0.33412239 248:0.33412239 249:0.33412239 250:0.33412239 251:0.33412239 252:0.33412239 253:0.37375641 254:0.28615129 255:0.0443784 256:0.37375641 257:0.37375641 258:0.35322279 259:0.37375641 260:0.29862741 261:0.37375641 262:0.3895267 263:0.34302661 264:0.1311664 265:0.3895267 266:0.3895267 267:0.34587249 268:0.1978848 269:0.30907321 270:0.3895267 271:0.35684931 272:0.35684931 273:0.30839989 274:0.35684931 275:0.29976451 276:0.35684931 277:0.2177548 278:0.35684931 279:0.35684931 280:0.34741929 281:0.34741929 282:0.1880729 283:0.34352019 284:0.34741929 285:0.34741929 286:0.34489161 287:0.34741929 288:0.34741929 289:0.3753303 290:0.3753303 291:0.28045821 292:0.3753303 293:0.3753303 294:0.1510867 295:0.22255149 296:0.3753303 297:0.3753303 298:0.33819669 299:0.33819669 300:0.28566551 301:0.33819669 302:0.33819669 303:0.33819669 304:0.33819669 305:0.33819669 306:0.33819669 307:0.3786262 308:0.3786262 309:0.3786262 310:0.3786262 311:0.3786262 312:0.1215781 313:0.213958 314:0.3786262 315:0.27479351 316:0.36300161 317:0.36300161 318:0.36300161 319:0.36300161 320:0.36300161 321:0.1618901 322:0.36300161 323:0.21857169 324:0.36300161 325:0.34853229 326:0.34853229 327:0.34853229 328:0.33181739 329:0.34853229 330:0.34853229 331:0.34853229 332:0.1899773 333:0.34853229 334:0.32133529 335:0.32549199 336:0.37700391 337:0.37700391 338:0.37700391 339:0.21096539 340:0.37700391 341:0.2934272 342:0.29647699 343:0.35121909 344:0.35121909 345:0.35121909 346:0.35121909 347:0.35121909 348:0.35121909 349:0.35121909 350:0.098245569 351:0.35121909 352:0.37196451 353:0.1544604 354:0.2306587 355:0.37196451 356:0.37196451 357:0.29845789 358:0.37196451 359:0.37196451 360:0.37196451 361:0.36155039 362:0.36155039 363:0.36155039 364:0.36155039 365:0.2339125 366:0.16322421 367:0.36155039 368:0.36155039 369:0.36155039 370:0.33648551 371:0.33648551 372:0.3014262 373:0.33648551 374:0.33648551 375:0.33648551 376:0.33648551 377:0.33648551 378:0.33648551 379:0.29746789 380:0.35115871 381:0.2117016 382:0.35115871 383:0.35115871 384:0.35115871 385:0.35115871 386:0.35115871 387:0.35115871 388:0.35223231 389:0.35223231 390:0.3368637 391:0.35223231 392:0.35223231 393:0.30037439 394:0.21993931 395:0.35223231 396:0.35223231 397:0.071319751 398:0.1258802 399:0.017766779 400:0.4286525 401:0.60898387 402:0.60898387 403:0.2119727 404:0.046840779 405:0.0089038964 406:0.440164 407:0.40363631 408:0.3034476 409:0.35769409 410:0.440164 411:0.440164 412:0.026039969 413:0.1381653 414:0.107957 415:0.39555699 416:0.39555699 417:0.39233589 418:0.39555699 419:0.39555699 420:0.39555699 421:0.1527465 422:0.064180247 423:0.1798425 424:0.389162 425:0.389162 426:0.38444051 427:0.389162 428:0.389162 429:0.389162 430:0.094297104 431:0.1599416 432:0.23792671 433:0.3282527 434:0.20918889 435:0.31661049 436:0.3935433 437:0.3935433 438:0.3935433 439:0.1077103 440:0.33646631 441:0.3935433 442:0.3642534 443:0.1537803 444:0.3642534 445:0.3642534 446:0.3642534 447:0.3642534 448:0.3642534 449:0.20964 450:0.3642534 451:0.34842199 452:0.17490619 453:0.34079561 454:0.34842199 455:0.34842199 456:0.34842199 457:0.34842199 458:0.34842199 459:0.34842199 460:0.35197291 461:0.07351242 462:0.35197291 463:0.35197291 464:0.35197291 465:0.35197291 466:0.35197291 467:0.35197291 468:0.35197291 469:0.37066671 470:0.1058541 471:0.37066671 472:0.37066671 473:0.37066671 474:0.31068739 475:0.26785749 476:0.37066671 477:0.36034489 478:0.29287991 479:0.36221549 480:0.36221549 481:0.35174879 482:0.30552971 483:0.36221549 484:0.36221549 485:0.19371811 486:0.36221549 487:0.2415597 488:0.47041589 489:0.47041589 490:0.082715534 491:0.4249419 492:0.47041589 493:0.09711156 494:0.23547959 495:0.14414629 496:0.0095820939 497:0 498:0 499:0.34234181 500:0.63745862 501:0.63745862 502:0.2520856 503:0 504:0.0095820939 505:0 506:0 507:0 508:0.079242669 509:0.65997082 510:0.65997082 511:0.34060079 512:0 513:0 514:0 515:0 516:0.061039358 517:0.42514449 518:0.55526543 519:0.55526543 520:0.40397051 521:0.1735705 522:0.004822107 523:0 524:0.3782472 525:0.42824161 526:0.35846019 527:0.4898341 528:0.4898341 529:0.1160736 530:0.2117105 531:0.044528719 532:0.4001562 533:0.4001562 534:0.4001562 535:0.25163749 536:0.4001562 537:0.32172069 538:0.1091324 539:0.1290039 540:0.4001562 541:0.4373768 542:0.14233389 543:0.1799612 544:0.3552576 545:0.4373768 546:0.4373768 547:0.35077199 548:0.047802929 549:0.34286499 550:0.34949329 551:0.34949329 552:0.167068 553:0.34949329 554:0.34949329 555:0.34949329 556:0.33701271 557:0.34949329 558:0.34949329 559:0.34663329 560:0.084441729 561:0.32290149 562:0.36718231 563:0.36718231 564:0.36718231 565:0.36718231 566:0.36718231 567:0.30110979 568:0.1476734 569:0.1115723 570:0.41571611 571:0.30878651 572:0.41571611 573:0.41571611 574:0.41571611 575:0.41571611 576:0.046289761 577:0.32677779 578:0.35749871 579:0.35749871 580:0.35749871 581:0.35749871 582:0.35749871 583:0.27031171 584:0.2230344 585:0.35749871 586:0.366997 587:0.41884381 588:0.41884381 589:0.41884381 590:0.3967118 591:0.39615449 592:0.045677532 593:0.032872658 594:0.131731 595:0.0089920228 596:0 597:0 598:0.095930994 599:0.62406331 600:0.62406331 601:0.45331511 602:0 603:0.0089920228 604:0 605:0 606:0 607:0.12607139 608:0.57074457 609:0.57074457 610:0.57074457 611:0.034036599 612:0 613:0 614:0 615:0 616:0.039324831 617:0.64085013 618:0.64085013 619:0.4131102 620:0.0042022639 621:0 622:0.1695911 623:0.1025768 624:0.052194599 625:0.27943829 626:0.4857665 627:0.4857665 628:0.29798749 629:0.4857665 630:0.27991271 631:0.4402644 632:0.15919439 633:0.1469714 634:0.1816974 635:0.4402644 636:0.3027477 637:0.22058509 638:0.4402644 639:0.4402644 640:0.29218251 641:0.1080169 642:0.4632141 643:0.31903151 644:0.4632141 645:0.32294121 646:0.031356681 647:0.3043544 648:0.41172001 649:0.3918905 650:0.26847571 651:0.1908558 652:0.32911691 653:0.3918905 654:0.3918905 655:0.106635 656:0.3918905 657:0.3918905 658:0.38020819 659:0.38020819 660:0.15410189 661:0.30503079 662:0.38020819 663:0.38020819 664:0.1098207 665:0.38020819 666:0.38020819 667:0.27171749 668:0.25307709 669:0.3609826 670:0.3609826 671:0.3609826 672:0.3609826 673:0.3609826 674:0.3609826 675:0.2768831 676:0.2263345 677:0.34246531 678:0.36983061 679:0.36983061 680:0.36983061 681:0.27672291 682:0.36983061 683:0.25951189 684:0.36983061 685:0.41183239 686:0.41183239 687:0.41183239 688:0.41183239 689:0.41183239 690:0.059088901 691:0.1404527 692:0.22585779 693:0.2713415 694:0.031225961 695:0 696:0.28052619 697:0.2267372 698:0.52691782 699:0.52691782 700:0.52691782 701:0.1704611 702:0.04091252 703:0.001151965 704:0 705:0 706:0.2111325 707:0.60160702 708:0.60160702 709:0.47480091 710:0.01075935 711:0.001151965 712:0 713:0 714:0 715:0.076039299 716:0.57401669 717:0.57401669 718:0.57401669 719:0.00080380269 720:0 721:0.2054283 722:0.068925582 723:0.019180831 724:0.34955871 725:0.5195334 726:0.5195334 727:0.5195334 728:0.1225277 729:0.02329655 730:0.3479178 731:0.34685901 732:0.3479178 733:0.3450698 734:0.3479178 735:0.3479178 736:0.3479178 737:0.212991 738:0.3264055 739:0.2285333 740:0.37668961 741:0.44579241 742:0.44579241 743:0.44579241 744:0.28310749 745:0.1132695 746:0.1258188 747:0.31051871 748:0.40735841 749:0.27171081 750:0.40735841 751:0.29509321 752:0.34251511 753:0.19000369 754:0.16607919 755:0.39522281 756:0.40735841 757:0.36971259 758:0.36971259 759:0.290914 760:0.36971259 761:0.2798782 762:0.36971259 763:0.25567651 764:0.29075089 765:0.36971259 766:0.076288506 767:0.114718 768:0.2100371 769:0.31760159 770:0.48264149 771:0.48264149 772:0.48264149 773:0.3236452 774:0.1662472 775:0.22912779 776:0.35281 777:0.35281 778:0.26953861 779:0.35281 780:0.35281 781:0.35281 782:0.35281 783:0.35281 784:0.35239279 785:0.35239279 786:0.35239279 787:0.2872963 788:0.35239279 789:0.2113656 790:0.35239279 791:0.35239279 792:0.35239279 793:0.069209397 794:0.2454337 795:0.29094169 796:0.13003141 797:0.496061 798:0.496061 799:0.496061 800:0.27789599 801:0.1140477 802:0.001309966 803:0 804:0 805:0.05435171 806:0.57475412 807:0.57475412 808:0.57475412 809:0.016624879 810:0.001309966 811:0 812:0 813:0 814:0.1078395 815:0.57208592 816:0.57208592 817:0.57208592 818:0.028480479 819:0 820:0.170638 821:0.40994209 822:0.40994209 823:0.1351317 824:0.40994209 825:0.40994209 826:0.40994209 827:0.31049591 828:0.1088883 829:0.38591191 830:0.38591191 831:0.38591191 832:0.1257924 833:0.3354823 834:0.32646611 835:0.3706249 836:0.38591191 837:0.16768301 838:0.3488844 839:0.3488844 840:0.3488844 841:0.3488844 842:0.3488844 843:0.3488844 844:0.22608081 845:0.3055478 846:0.3488844 847:0.42164221 848:0.42164221 849:0.38966531 850:0.3273043 851:0.29547819 852:0.17895859 853:0.18239319 854:0.2255518 855:0.42164221 856:0.37230879 857:0.37230879 858:0.2356388 859:0.37230879 860:0.37230879 861:0.29822379 862:0.14189629 863:0.37230879 864:0.37230879 865:0.039426729 866:0.18600319 867:0.2333179 868:0.46700209 869:0.46700209 870:0.46700209 871:0.46700209 872:0.13312601 873:0.1210792 874:0.34682369 875:0.34682369 876:0.34682369 877:0.34682369 878:0.34682369 879:0.34682369 880:0.3198657 881:0.2285039 882:0.34682369 883:0.40434569 884:0.1598399 885:0.35397741 886:0.098238602 887:0.1341043 888:0.40434569 889:0.40434569 890:0.40434569 891:0.40434569 892:0.028770961 893:0.040675469 894:0.0082946541 895:0 896:0.57447118 897:0.57447118 898:0.57447118 899:0.02886156 900:0.028770961 901:0 902:0 903:0 904:0.042409342 905:0.57244658 906:0.57244658 907:0.57244658 908:0.096953437 909:0 910:0 911:0 912:0 913:0.080268636 914:0.572061 915:0.572061 916:0.572061 917:0.07799565 918:0 919:0.39409739 920:0.39409739 921:0.39409739 922:0.081238933 923:0.39409739 924:0.39409739 925:0.1063549 926:0.2151164 927:0.39409739 928:0.37257591 929:0.37257591 930:0.37257591 931:0.37257591 932:0.37257591 933:0.28437331 934:0.081042729 935:0.27561691 936:0.37257591 937:0.3508572 938:0.3508572 939:0.3508572 940:0.16677921 941:0.3508572 942:0.3508572 943:0.3508572 944:0.32706821 945:0.3508572 946:0.51004499 947:0.4895471 948:0.27814829 949:0.095376194 950:0.03826236 951:0.033425469 952:0.35970849 953:0.1285429 954:0.51004499 955:0.53624582 956:0.33873111 957:0.1184469 958:0.3288857 959:0.27774221 960:0.26245469 961:0.1023338 962:0.1615423 963:0.53624582 964:0.25778079 965:0.1318268 966:0.3243036 967:0.40790981 968:0.50466222 969:0.50466222 970:0.151024 971:0.1566115 972:0.28786129 973:0.33518761 974:0.33518761 975:0.33518761 976:0.33518761 977:0.31280139 978:0.33518761 979:0.33518761 980:0.33518761 981:0.33518761 982:0.38014179 983:0.231171 984:0.38014179 985:0.36466259 986:0.2210855 987:0.1958719 988:0.38014179 989:0.38014179 990:0.38014179 991:0.01259748 992:0 993:0 994:0 995:0.57559681 996:0.57559681 997:0.57559681 998:0 999:0.01259748 1000:0 1001:0 1002:0 1003:0 1004:0.57258302 1005:0.57258302 1006:0.57258302 1007:0.1035793 1008:0 1009:0 1010:0 1011:0 1012:0 1013:0.57471383 1014:0.57471383 1015:0.57471383 1016:0.058079891 1017:0 1018:0.3100692 1019:0.31915399 1020:0.40725249 1021:0.31243819 1022:0.40725249 1023:0.2982384 1024:0.085636623 1025:0.40725249 1026:0.3262949 1027:0.36211181 1028:0.36211181 1029:0.36211181 1030:0.3094157 1031:0.36211181 1032:0.3294872 1033:0.073023729 1034:0.36211181 1035:0.36211181 1036:0.4373965 1037:0.15874159 1038:0.159354 1039:0.2876142 1040:0.4373965 1041:0.2694101 1042:0.4001351 1043:0.23596419 1044:0.4373965 1045:0.439239 1046:0.164958 1047:0.14877249 1048:0.3035892 1049:0.27105939 1050:0.0943655 1051:0.439239 1052:0.439239 1053:0.439239 1054:0.4965705 1055:0.4965705 1056:0.2417722 1057:0.05881064 1058:0.1807898 1059:0.1108457 1060:0.13548709 1061:0.36062819 1062:0.4965705 1063:0.31775811 1064:0.20471551 1065:0.2456331 1066:0.33505389 1067:0.43763971 1068:0.43763971 1069:0.43763971 1070:0.028248981 1071:0.32368109 1072:0.3378067 1073:0.37236789 1074:0.3466762 1075:0.37236789 1076:0.37236789 1077:0.37236789 1078:0.37236789 1079:0.2099773 1080:0.15685169 1081:0.3809385 1082:0.19729491 1083:0.1357123 1084:0.27567181 1085:0.3809385 1086:0.3809385 1087:0.3809385 1088:0.37052089 1089:0.3809385 #
-0.0062719717483712368 1:0.57097119 2:0.57097119 3:0.1071423 4:0 5:0.069244087 6:0 7:0 8:0 9:0.57097119 10:0.60972953 11:0.60972953 12:0.2236758 13:0 14:0.03208793 15:0 16:0 17:0.015814111 18:0.44616279 19:0.56504983 20:0.56504983 21:0.04449863 22:0 23:0.017332939 24:0 25:0 26:0.18502191 27:0.56504983 28:0.61114478 29:0.29826161 30:0.001647521 31:0 32:0.01184563 33:0 34:0 35:0.39723921 36:0.61114478 37:0.65093172 38:0.35779819 39:0 40:0 41:0.0139661 42:0 43:0 44:0.13365071 45:0.65093172 46:0.59525442 47:0.52329069 48:0 49:0 50:0.01074439 51:0.02381759 52:0.05506188 53:0.088616572 54:0.59525442 55:0.4067809 56:0.055785362 57:0 58:0 59:0.4067809 60:0.4067809 61:0.4067809 62:0.4067809 63:0.4067809 64:0.41094619 65:0.1476227 66:0.040366761 67:0.04545835 68:0.41094619 69:0.41094619 70:0.39948279 71:0.3678489 72:0.41094619 73:0.47781381 74:0.072601631 75:0.17025229 76:0.17882159 77:0.47781381 78:0.468687 79:0.1032705 80:0.1172309 81:0.47781381 82:0.4420591 83:0.074943073 84:0.064873368 85:0.07578937 86:0.4420591 87:0.4420591 88:0.2538822 89:0.36591539 90:0.4420591 91:0.41776949 92:0.41776949 93:0.1316454 94:0.1034544 95:0.2040152 96:0.2313319 97:0.41776949 98:0.41776949 99:0.41776949 100:0.58931267 101:0.58931267 102:0.35165289 103:0.02747531 104:0 105:0 106:0 107:0 108:0.4184759 109:0.626867 110:0.626867 111:0.27749911 112:0 113:0 114:0 115:0 116:0 117:0.36167809 118:0.56523043 119:0.56523043 120:0.1587518 121:0 122:0 123:0 124:0 125:0.1034278 126:0.56523043 127:0.53749073 128:0.5322215 129:0.002061442 130:0 131:0 132:0 133:0.0094074951 134:0.36535919 135:0.53749073 136:0.4956387 137:0.4956387 138:0.04380836 139:0 140:0 141:0 142:0.1603587 143:0.48004419 144:0.4956387 145:0.5089497 146:0.5089497 147:0.021455221 148:0 149:0.019616749 150:0.03583838 151:0.1160563 152:0.4496989 153:0.5089497 154:0.3885586 155:0.13336881 156:0 157:0 158:0.4067362 159:0.4067362 160:0.4067362 161:0.4067362 162:0.4067362 163:0.39521629 164:0.2182828 165:0.099952497 166:0.035187889 167:0.39521629 168:0.39521629 169:0.39521629 170:0.39521629 171:0.39521629 172:0.48821989 173:0.061246309 174:0.043232791 175:0.1178277 176:0.48821989 177:0.48821989 178:0.076677144 179:0.1276955 180:0.48821989 181:0.35194641 182:0.34974131 183:0.35194641 184:0.30085239 185:0.35194641 186:0.35194641 187:0.3117764 188:0.25906909 189:0.35194641 190:0.4051491 191:0.4051491 192:0.31374171 193:0.1699824 194:0.20467 195:0.077497572 196:0.4051491 197:0.4051491 198:0.4051491 199:0.51790953 200:0.51790953 201:0.51790953 202:0.31826329 203:0.01905705 204:0 205:0 206:0.028122479 207:0.29612741 208:0.50763482 209:0.50763482 210:0.50763482 211:0.38368201 212:0.01348764 213:0 214:0 215:0.001840958 216:0.27286199 217:0.53919202 218:0.53919202 219:0.29930961 220:0.074432932 221:0 222:0 223:0 224:0.1652419 225:0.53919202 226:0.53514618 227:0.368117 228:0 229:0 230:0 231:0 232:0.001049478 233:0.53514618 234:0.53514618 235:0.50261319 236:0.50261319 237:0.4503766 238:0.01224714 239:0 240:0 241:0.01759281 242:0.18390609 243:0.50261319 244:0.420481 245:0.420481 246:0.33771089 247:0.01399198 248:0.0084391655 249:0.02815732 250:0.41650209 251:0.420481 252:0.420481 253:0.3869555 254:0.3125841 255:0.0042742812 256:0 257:0.3869555 258:0.3869555 259:0.3869555 260:0.3869555 261:0.3869555 262:0.40590629 263:0.40590629 264:0.16979709 265:0.02545898 266:0.25694641 267:0.27684799 268:0.40590629 269:0.40590629 270:0.40590629 271:0.40417421 272:0.40417421 273:0.1161278 274:0.1382433 275:0.1087128 276:0.3671011 277:0.40417421 278:0.40417421 279:0.40417421 280:0.3945528 281:0.3945528 282:0.2789844 283:0.3945528 284:0.02563489 285:0.15844931 286:0.3377918 287:0.3945528 288:0.3945528 289:0.4171893 290:0.3274647 291:0.094855167 292:0.083372809 293:0.049157251 294:0.4171893 295:0.4171893 296:0.4171893 297:0.4171893 298:0.43925041 299:0.43925041 300:0.43925041 301:0.43925041 302:0.23619729 303:0.01778383 304:0.0086942008 305:0.13166919 306:0.3877252 307:0.29423669 308:0.54387492 309:0.54387492 310:0.54387492 311:0.10969 312:0 313:0 314:0.01077066 315:0.091899917 316:0.43516189 317:0.43516189 318:0.43516189 319:0.3505505 320:0.101833 321:0 322:0.0056152218 323:0.32388619 324:0.43516189 325:0.47463641 326:0.47463641 327:0.32309511 328:0.04344219 329:0.2917878 330:0 331:0.022542959 332:0.35706341 333:0.47463641 334:0.45122299 335:0.45122299 336:0.45122299 337:0.31156179 338:0.1998599 339:0 340:0 341:0.2099272 342:0.45122299 343:0.40357131 344:0.40357131 345:0.40357131 346:0.401746 347:0.2759161 348:0.025119521 349:0.22607809 350:0.23498359 351:0.40357131 352:0.3572329 353:0.39390969 354:0.1221214 355:0.081616737 356:0.39390969 357:0.39390969 358:0.39390969 359:0.29285929 360:0.3747651 361:0.39239371 362:0.39239371 363:0.39239371 364:0.093077406 365:0.2382706 366:0.39239371 367:0.39239371 368:0.082503162 369:0.39239371 370:0.43549019 371:0.2022742 372:0.30219409 373:0.2183369 374:0.1576359 375:0.43549019 376:0.43549019 377:0.17968559 378:0.43549019 379:0.40708151 380:0.1161077 381:0.40708151 382:0.27476239 383:0.2060169 384:0.40708151 385:0.1895742 386:0.40708151 387:0.40708151 388:0.31477311 389:0.071024291 390:0.132881 391:0.40332219 392:0.41370019 393:0.41370019 394:0.1637785 395:0.41370019 396:0.41370019 397:0.21371441 398:0.44705531 399:0.44705531 400:0.44705531 401:0.44705531 402:0.3559235 403:0.02977268 404:0 405:0.1511921 406:0.26980889 407:0.47484899 408:0.47484899 409:0.47484899 410:0.47484899 411:0.050921619 412:0.024894681 413:0 414:0.1316096 415:0.43342221 416:0.3478578 417:0.43342221 418:0.34387249 419:0.43342221 420:0 421:0.046170011 422:0.05353941 423:0.43342221 424:0.4177672 425:0.4177672 426:0.36041129 427:0.092596076 428:0.4177672 429:0 430:0.1841978 431:0.3539913 432:0.4177672 433:0.4445729 434:0.38766459 435:0.4445729 436:0.2142662 437:0.4445729 438:0 439:0 440:0.093729481 441:0.4445729 442:0.3991729 443:0.36992511 444:0.3991729 445:0.3819842 446:0.3991729 447:0.1903314 448:0.1814353 449:0.082187846 450:0.3991729 451:0.17282981 452:0.245768 453:0.1035196 454:0.40948689 455:0.59181023 456:0.59181023 457:0.1032796 458:0.1034822 459:0.059743289 460:0.35029551 461:0.35029551 462:0.35029551 463:0.21779349 464:0.35029551 465:0.35029551 466:0.35029551 467:0.3001954 468:0.35029551 469:0.3829703 470:0.22530679 471:0.24865159 472:0.059879769 473:0.3829703 474:0.3829703 475:0.3829703 476:0.3829703 477:0.3829703 478:0.40435341 479:0.0589718 480:0.01783658 481:0.1056167 482:0.40435341 483:0.40435341 484:0.40435341 485:0.40435341 486:0.40435341 487:0.45672211 488:0.01697186 489:0.060082991 490:0.127774 491:0.45672211 492:0.45672211 493:0.3022114 494:0.22249 495:0.45672211 496:0.15138219 497:0.32873949 498:0.4637256 499:0.27446041 500:0.4637256 501:0.4637256 502:0.33017829 503:0.15620141 504:0.1025314 505:0.21644621 506:0.19883659 507:0.2694909 508:0.067906022 509:0.54351801 510:0.071265943 511:0.51533508 512:0.4959664 513:0.1375027 514:0.38312769 515:0.1125121 516:0.36128241 517:0.050325241 518:0.4037281 519:0.2318815 520:0.4037281 521:0.4037281 522:0.40088069 523:0.43991739 524:0.3072964 525:0.43991739 526:0.2079218 527:0.43991739 528:0.089199699 529:0.19815169 530:0.1913456 531:0.43991739 532:0.4192003 533:0.30540979 534:0.4192003 535:0.1362485 536:0.4192003 537:0 538:0.40357041 539:0.1348661 540:0.4192003 541:0.422741 542:0.15239979 543:0.422741 544:0.04465026 545:0.422741 546:0.35552251 547:0.3469252 548:0.094682232 549:0.422741 550:0.15558501 551:0.1463587 552:0.47520751 553:0.47520751 554:0.47520751 555:0.47520751 556:0.1521596 557:0.1054133 558:0.1098762 559:0.37288299 560:0.37288299 561:0.37288299 562:0.37288299 563:0.245179 564:0.37288299 565:0.1090931 566:0.30001721 567:0.37288299 568:0.33953011 569:0.33953011 570:0.33953011 571:0.33953011 572:0.27269429 573:0.33953011 574:0.33953011 575:0.33953011 576:0.33953011 577:0.24757969 578:0.098682351 579:0.1179187 580:0.29029629 581:0.40662691 582:0.40662691 583:0.40662691 584:0.40662691 585:0.40662691 586:0.3867062 587:0.28414369 588:0.2460317 589:0.2833035 590:0.3867062 591:0.3867062 592:0.33452711 593:0.25403029 594:0.3867062 595:0.027208149 596:0.082392409 597:0.25427541 598:0.26985139 599:0.4644011 600:0.4644011 601:0.4644011 602:0.4465903 603:0.062520668 604:0.1208935 605:0.2176355 606:0.2895731 607:0.42372069 608:0.42372069 609:0.3363848 610:0.42372069 611:0.42372069 612:0.13646451 613:0.37872231 614:0.31381401 615:0.2335972 616:0.1232215 617:0.37872231 618:0.37872231 619:0.37872231 620:0.37872231 621:0.33291551 622:0.3891542 623:0.1725615 624:0.3891542 625:0.2047645 626:0.3891542 627:0.2277066 628:0.3891542 629:0.33963361 630:0.3891542 631:0.3044537 632:0.1666187 633:0.4221608 634:0.1244227 635:0.4221608 636:0 637:0.38336551 638:0.4221608 639:0.4221608 640:0.3884719 641:0.2279247 642:0.3189511 643:0.301714 644:0.3884719 645:0.1307146 646:0.36149761 647:0.3884719 648:0.3884719 649:0.213394 650:0.30072939 651:0.44464359 652:0.44464359 653:0.44464359 654:0.44464359 655:0.2054541 656:0.049665399 657:0.1551571 658:0.3613376 659:0.26644659 660:0.35520199 661:0.3613376 662:0.28940541 663:0.3613376 664:0.25029519 665:0.3613376 666:0.3613376 667:0.39341149 668:0.39341149 669:0.39341149 670:0.39341149 671:0.28353909 672:0.2534422 673:0.14027689 674:0.2406275 675:0.39341149 676:0.3936604 677:0.3936604 678:0.3936604 679:0.3936604 680:0.3936604 681:0.2075454 682:0.074871346 683:0.1325725 684:0.3936604 685:0.39751321 686:0.39751321 687:0.39751321 688:0.39751321 689:0.39751321 690:0.086864032 691:0.1375985 692:0.1464577 693:0.39751321 694:0.044408321 695:0.00071955798 696:0.0021531919 697:0 698:0.49555159 699:0.49555159 700:0.49555159 701:0.49555159 702:0.1038648 703:0.37850541 704:0.153651 705:0.1613498 706:0.29492021 707:0.37850541 708:0.37850541 709:0.37850541 710:0.37850541 711:0.37850541 712:0.405166 713:0.2120268 714:0.19928271 715:0.040830299 716:0.405166 717:0.2980254 718:0.405166 719:0.405166 720:0.405166 721:0.39651951 722:0.072742127 723:0.21767139 724:0 725:0.39651951 726:0.39651951 727:0.39651951 728:0.39651951 729:0.39651951 730:0.37817049 731:0.354781 732:0.37817049 733:0 734:0.2136198 735:0.331141 736:0.37817049 737:0.37817049 738:0.37817049 739:0.2055919 740:0.114222 741:0.30111769 742:0.39286089 743:0.39286089 744:0.39286089 745:0.39286089 746:0.39286089 747:0.2799826 748:0.35971981 749:0.4349716 750:0.4349716 751:0.4349716 752:0.4349716 753:0.25989759 754:0.1883375 755:0.05062395 756:0.06224959 757:0.39910051 758:0.39910051 759:0.084863953 760:0.39910051 761:0.39910051 762:0.3531872 763:0.19517671 764:0.17195889 765:0.39910051 766:0.40408519 767:0.40408519 768:0.3893117 769:0.40408519 770:0.40408519 771:0.15402269 772:0.01958726 773:0.0621976 774:0.40408519 775:0.40541971 776:0.40541971 777:0.40541971 778:0.40541971 779:0.34830531 780:0.1304152 781:0.0053857099 782:0.1891308 783:0.40541971 784:0.3806915 785:0.3806915 786:0.3806915 787:0.3806915 788:0.3806915 789:0.045116391 790:0.1086241 791:0.3358658 792:0.3806915 793:0.1779083 794:0.027298881 795:0 796:0 797:0.26739499 798:0.3907344 799:0.4961434 800:0.4961434 801:0.4961434 802:0.55657691 803:0.1628855 804:0 805:0 806:0.080033801 807:0.01861603 808:0.1783946 809:0.55657691 810:0.55657691 811:0.50297409 812:0.01215325 813:0 814:0 815:0.02919258 816:0.069819652 817:0.47974291 818:0.50297409 819:0.50297409 820:0.49215111 821:0.1244336 822:0.02728617 823:0 824:0.0068377238 825:0.099793032 826:0.49215111 827:0.49215111 828:0.49215111 829:0.51412398 830:0.29533789 831:0.1546378 832:0 833:0.0022758041 834:0.061580479 835:0.29489061 836:0.51412398 837:0.51412398 838:0.30741599 839:0.1384567 840:0.3708798 841:0.3708798 842:0.3708798 843:0.2393925 844:0.3708798 845:0.3708798 846:0.3708798 847:0.2078719 848:0.38648191 849:0.38648191 850:0.38648191 851:0.38648191 852:0.38648191 853:0.069036178 854:0.38648191 855:0.2279319 856:0.39242759 857:0.2726067 858:0.345238 859:0.39242759 860:0.39242759 861:0.187683 862:0.1532577 863:0.35758281 864:0.39242759 865:0.38399321 866:0.38399321 867:0.38399321 868:0.38399321 869:0.38399321 870:0.2177007 871:0.15780281 872:0.1978977 873:0.38399321 874:0.35341009 875:0.35341009 876:0.14918271 877:0.35341009 878:0.35341009 879:0.3161054 880:0.35341009 881:0.35341009 882:0.35341009 883:0.37270239 884:0.30746809 885:0.2408305 886:0.37270239 887:0.3144244 888:0.3403185 889:0.2709851 890:0.37270239 891:0.37270239 892:0.20828231 893:0.1109409 894:0 895:0 896:0.065440007 897:0.073100239 898:0.5565151 899:0.5565151 900:0.5565151 901:0.55583388 902:0.1125542 903:0 904:0 905:0.004343431 906:0 907:0.2343248 908:0.55583388 909:0.55583388 910:0.53939831 911:0.13373309 912:0 913:0 914:0 915:0.043683618 916:0.3193258 917:0.53939831 918:0.53939831 919:0.54565048 920:0.1492983 921:0 922:0 923:0 924:0.01207883 925:0.2809121 926:0.54565048 927:0.54565048 928:0.51712137 929:0.1139762 930:0.075353839 931:0 932:0 933:0 934:0.4170408 935:0.51712137 936:0.51712137 937:0.42262691 938:0.42262691 939:0.42262691 940:0.25782961 941:0.01480673 942:0.0059652119 943:0.1896835 944:0.42262691 945:0.42262691 946:0.44270381 947:0.44270381 948:0.44270381 949:0.44270381 950:0.0304645 951:0.01883344 952:0.0082737189 953:0.1195555 954:0.44270381 955:0.44292969 956:0.16638701 957:0.28137699 958:0.38210481 959:0.44292969 960:0.36316091 961:0.12833349 962:0.076146133 963:0.44292969 964:0.38989419 965:0.12997919 966:0.30652851 967:0.38989419 968:0.38989419 969:0.1287227 970:0.3295351 971:0.38989419 972:0.38989419 973:0.34426111 974:0.3245196 975:0.34426111 976:0.34426111 977:0.34426111 978:0.25849739 979:0.33664861 980:0.34426111 981:0.34426111 982:0.39858049 983:0.25916311 984:0.36397949 985:0.39858049 986:0.39858049 987:0.2287174 988:0.1883506 989:0.2704044 990:0.39858049 991:0.49461281 992:0 993:0 994:0 995:0.090768307 996:0.090850838 997:0.49461281 998:0.49461281 999:0.49461281 1000:0.57210898 1001:0.0042730388 1002:0 1003:0 1004:0.02809215 1005:0.034527458 1006:0.1868722 1007:0.55022627 1008:0.57210898 1009:0.53635383 1010:0.2057678 1011:0.041924361 1012:0 1013:0.032254569 1014:0 1015:0.29407299 1016:0.53635383 1017:0.53635383 1018:0.58870769 1019:0.187066 1020:0.01382886 1021:0 1022:0.095981836 1023:0 1024:0.078017414 1025:0.50048381 1026:0.58870769 1027:0.55759609 1028:0.029477989 1029:0.004652346 1030:0 1031:0.2385641 1032:0 1033:0.062352009 1034:0.55759609 1035:0.55759609 1036:0.43014359 1037:0.14572839 1038:0.43014359 1039:0.43014359 1040:0.2110732 1041:0 1042:0.090385333 1043:0.42620549 1044:0.43014359 1045:0.40697759 1046:0.27637109 1047:0.40697759 1048:0.40697759 1049:0.40697759 1050:0.1070137 1051:0.1327679 1052:0.24964041 1053:0.40697759 1054:0.51071489 1055:0.20874231 1056:0.24715871 1057:0.15011621 1058:0.51071489 1059:0.187942 1060:0.052002281 1061:0.21722791 1062:0.51071489 1063:0.39156231 1064:0.39156231 1065:0.2167958 1066:0.29421809 1067:0.39156231 1068:0.27562419 1069:0.1412431 1070:0.39156231 1071:0.39156231 1072:0.35328969 1073:0.35328969 1074:0.3071247 1075:0.35328969 1076:0.35328969 1077:0.35328969 1078:0.1686697 1079:0.35328969 1080:0.35328969 1081:0.39919531 1082:0.39919531 1083:0.34782881 1084:0.39919531 1085:0.39919531 1086:0.21206041 1087:0.14898451 1088:0.1052471 1089:0.39919531 #
-0.0083113460275383196 1:0.005623247 2:0.0049370872 3:0.01477365 4:0.52580631 5:0.58614028 6:0.58614028 7:0.1739203 8:0 9:0.005623247 10:0 11:0.003531524 12:0.01426651 13:0.551346 14:0.551346 15:0.551346 16:0.2409627 17:0.039532378 18:0.15068249 19:0.47979939 20:0.1971398 21:0.16934811 22:0.2333958 23:0.47979939 24:0.25937819 25:0.27976099 26:0.19242071 27:0.47979939 28:0.47102621 29:0.2821075 30:0.078296833 31:0.091354281 32:0.09625306 33:0.067135967 34:0.47102621 35:0.47102621 36:0.47102621 37:0.55635089 38:0.5375405 39:0.089604907 40:0.02304657 41:0.020398039 42:0.03499978 43:0.119673 44:0.2488355 45:0.55635089 46:0.70106441 47:0.030742681 48:0.085603371 49:0.019680491 50:0.0073010032 51:0.01153922 52:0.0077680582 53:0.03334434 54:0.70106441 55:0.70414603 56:0.0072421669 57:0.02167128 58:0 59:0.022189001 60:0.005604127 61:0.01192029 62:0.01182794 63:0.70414603 64:0.69691467 65:0.063530266 66:0.023988791 67:0.004235744 68:0.040503189 69:0.01893585 70:0.035673629 71:0.1173103 72:0.69691467 73:0.52372873 74:0.4867582 75:0.1337572 76:0.01145085 77:0.1806704 78:0.069010466 79:0.370298 80:0.12925 81:0.52372873 82:0.4158701 83:0.20433161 84:0.078844197 85:0.1488453 86:0.4158701 87:0.4158701 88:0.4158701 89:0.2469478 90:0.4158701 91:0.37422329 92:0.37422329 93:0.37422329 94:0.37422329 95:0.37422329 96:0.29626459 97:0.1357373 98:0.22317231 99:0.37422329 100:0.0080446117 101:0.02467135 102:0.02570932 103:0.2466653 104:0.6734795 105:0.6734795 106:0.1543934 107:0.0068636718 108:0.0080446117 109:0 110:0.00078821398 111:0.002358628 112:0.56574208 113:0.56574208 114:0.56574208 115:0.17963611 116:0.02742205 117:0.033631381 118:0.3834627 119:0.31767339 120:0.3834627 121:0.3834627 122:0.3834627 123:0.2040381 124:0.30525321 125:0.1588195 126:0.3834627 127:0.44856331 128:0.1717505 129:0.4420847 130:0.1357094 131:0.1828043 132:0.094879918 133:0.32861269 134:0.44647649 135:0.44856331 136:0.53225923 137:0.53225923 138:0.1877587 139:0.039955031 140:0.2446741 141:0.1017909 142:0.17581689 143:0.082444973 144:0.53225923 145:0.67088211 146:0.126029 147:0.090188973 148:0.01362551 149:0.1926128 150:0.04517575 151:0.073254026 152:0.1562923 153:0.67088211 154:0.65514988 155:0.18499111 156:0.060995769 157:0.098389357 158:0.039542578 159:0.1056345 160:0.078410611 161:0.26176929 162:0.65514988 163:0.66729492 164:0.1607604 165:0.0047274269 166:0.021365991 167:0.058898579 168:0.1151707 169:0.1546814 170:0.1891845 171:0.66729492 172:0.3794961 173:0.3794961 174:0.2148947 175:0.22063901 176:0.3794961 177:0.20959909 178:0.3794961 179:0.37057969 180:0.3794961 181:0.1737473 182:0.066019438 183:0.27902049 184:0.46283361 185:0.47912571 186:0.32653919 187:0.47912571 188:0.28378519 189:0.14938439 190:0.1928758 191:0.41020969 192:0.1799154 193:0.33617711 194:0.4722898 195:0.24785949 196:0.3525182 197:0.4031308 198:0.27046189 199:0.01435361 200:0.025810899 201:0.036845211 202:0.41060621 203:0.63461411 204:0.63461411 205:0.1305051 206:0.01136463 207:0.01435361 208:0 209:0 210:0 211:0.1896231 212:0.66123688 213:0.66123688 214:0.25893891 215:0.12618969 216:0 217:0.29068121 218:0.1271262 219:0.2267174 220:0.34758961 221:0.52591097 222:0.52591097 223:0.28006151 224:0.1786204 225:0.2415932 226:0.34557781 227:0.34557781 228:0.34557781 229:0.2028676 230:0.34557781 231:0.34557781 232:0.34557781 233:0.34557781 234:0.34557781 235:0.37341991 236:0.3268964 237:0.33550209 238:0.2116559 239:0.37341991 240:0.21349271 241:0.35874709 242:0.37341991 243:0.37341991 244:0.35725471 245:0.35725471 246:0.35725471 247:0.35725471 248:0.35725471 249:0.28964141 250:0.35725471 251:0.1382823 252:0.35725471 253:0.37337729 254:0.2344252 255:0.37337729 256:0.37337729 257:0.2708979 258:0.1773849 259:0.37337729 260:0.37337729 261:0.37337729 262:0.45192081 263:0.45192081 264:0.054196041 265:0.2250803 266:0.2157453 267:0.17591131 268:0.21786889 269:0.45192081 270:0.45192081 271:0.34703529 272:0.34703529 273:0.32350159 274:0.34703529 275:0.34703529 276:0.34703529 277:0.34703529 278:0.34703529 279:0.2210096 280:0.075131953 281:0.1144606 282:0.4151116 283:0.55291909 284:0.55291909 285:0.33041361 286:0.25869301 287:0.1226936 288:0.028754739 289:0.3738946 290:0.3738946 291:0.1084784 292:0.3738946 293:0.3738946 294:0.1672653 295:0.34312761 296:0.3738946 297:0.3738946 298:0.066966183 299:0 300:0.02912711 301:0.2343353 302:0.5820263 303:0.5820263 304:0.49725419 305:0.05527322 306:0.078207649 307:0 308:0 309:0 310:0.1658313 311:0.64805073 312:0.64805073 313:0.35509261 314:0 315:0 316:0.3120119 317:0.1468831 318:0.264606 319:0.43690151 320:0.47214079 321:0.47214079 322:0.27796069 323:0.23308849 324:0.1950198 325:0.46980211 326:0.44223401 327:0.21996839 328:0.1139658 329:0.1165328 330:0.40925381 331:0.26108199 332:0.2184075 333:0.46980211 334:0.4657397 335:0.32863149 336:0.44083229 337:0.1390841 338:0.1265326 339:0.01187145 340:0.082341209 341:0.4657397 342:0.4657397 343:0.38411039 344:0.38411039 345:0.2896204 346:0.38411039 347:0.14623991 348:0.124869 349:0.3709453 350:0.38411039 351:0.38411039 352:0.36533251 353:0.36533251 354:0.33836851 355:0.36533251 356:0.1816261 357:0.36533251 358:0.31965801 359:0.2816883 360:0.36533251 361:0.3523092 362:0.3523092 363:0.3523092 364:0.3523092 365:0.25207159 366:0.3523092 367:0.25315541 368:0.3523092 369:0.3523092 370:0.33820331 371:0.33820331 372:0.33820331 373:0.33820331 374:0.33820331 375:0.33820331 376:0.33820331 377:0.2856034 378:0.33820331 379:0.1517752 380:0.38344619 381:0.137848 382:0.61209291 383:0.61209291 384:0.2059177 385:0.095683813 386:0.030261509 387:0.05505668 388:0.33277869 389:0.33277869 390:0.33277869 391:0.33277869 392:0.33277869 393:0.33277869 394:0.33277869 395:0.33277869 396:0.33277869 397:0.1147097 398:0.1543784 399:0.070062891 400:0.1171427 401:0.55258483 402:0.55258483 403:0.55258483 404:0.070668019 405:0.13347609 406:0 407:0.00053178548 408:0.02048371 409:0.09906356 410:0.66804969 411:0.66804969 412:0.30081251 413:0.004903967 414:0.0020492419 415:0.40101531 416:0.105599 417:0.1231142 418:0.27334201 419:0.40101531 420:0.40101531 421:0.30150169 422:0.40101531 423:0.40101531 424:0.63428652 425:0.34959841 426:0.081228577 427:0.15514331 428:0.072181642 429:0.1121532 430:0.076153502 431:0.1120442 432:0.63428652 433:0.61073852 434:0.098244794 435:0.05824203 436:0.047128819 437:0.02831235 438:0.02864885 439:0.079072364 440:0.47408739 441:0.61073852 442:0.64333153 443:0.2155235 444:0.020442421 445:0.0014504211 446:0.0055789761 447:0.006949394 448:0.1288141 449:0.31981769 450:0.64333153 451:0.5336141 452:0.4699685 453:0.045989599 454:0.056503389 455:0.0099574486 456:0.29350361 457:0.29965901 458:0.151545 459:0.5336141 460:0.48710921 461:0.201141 462:0.158793 463:0.24607711 464:0.0201049 465:0.48710921 466:0.3871128 467:0.082590848 468:0.48710921 469:0.43300629 470:0.4004854 471:0.37318099 472:0.43300629 473:0.1875899 474:0.1189885 475:0.27550229 476:0.091043323 477:0.43300629 478:0.41613561 479:0.41613561 480:0.1444144 481:0.41613561 482:0.41613561 483:0.26895741 484:0.1367497 485:0.2422235 486:0.36414441 487:0.34016371 488:0.34016371 489:0.34016371 490:0.34016371 491:0.34016371 492:0.30589941 493:0.34016371 494:0.3050366 495:0.34016371 496:0.022470649 497:0.01312138 498:0.029594891 499:0.086563267 500:0.57004923 501:0.57004923 502:0.57004923 503:0.092539109 504:0.042777799 505:0 506:0.0089695035 507:0.04999201 508:0.1713872 509:0.61233997 510:0.61233997 511:0.45804831 512:0.046061091 513:0.0090833828 514:0.26988301 515:0.068041988 516:0.2785317 517:0.51661777 518:0.51661777 519:0.51661777 520:0.11871 521:0.02394706 522:0.15635461 523:0.40284091 524:0.40284091 525:0.29508629 526:0.40284091 527:0.40284091 528:0.2861945 529:0.1089473 530:0.06098406 531:0.40284091 532:0.39754221 533:0.2703709 534:0.39754221 535:0.39754221 536:0.2185507 537:0.20366821 538:0.2085277 539:0.39754221 540:0.39754221 541:0.40744069 542:0.40744069 543:0.40744069 544:0.40744069 545:0.32521579 546:0.18398941 547:0.048036121 548:0.15480711 549:0.40744069 550:0.37485069 551:0.3204127 552:0.2264567 553:0.37485069 554:0.37485069 555:0.29233211 556:0.339454 557:0.28207931 558:0.37485069 559:0.41179439 560:0.19938099 561:0.2300833 562:0.41179439 563:0.41179439 564:0.1753834 565:0.1567246 566:0.41179439 567:0.41179439 568:0.4045434 569:0.1027144 570:0.074144207 571:0.4045434 572:0.4045434 573:0.4045434 574:0.30341661 575:0.26376641 576:0.4045434 577:0.2593452 578:0.14703511 579:0.078622773 580:0.28008589 581:0.52019399 582:0.52019399 583:0.44330341 584:0.084000871 585:0.27661961 586:0.3588278 587:0.32373461 588:0.23248219 589:0.25498739 590:0.3588278 591:0.3588278 592:0.3588278 593:0.3588278 594:0.3588278 595:0.028132031 596:0.034327138 597:0.004324846 598:0.03080043 599:0.57416058 600:0.57416058 601:0.57416058 602:0.031864472 603:0.036511511 604:0 605:0.00069004192 606:0.0079120146 607:0.047159869 608:0.57477307 609:0.57477307 610:0.57477307 611:0.029685371 612:0 613:0.01917818 614:0.076846763 615:0.090743467 616:0.49601829 617:0.49601829 618:0.49601829 619:0.45930609 620:0.1327161 621:0.1177302 622:0.35952991 623:0.35952991 624:0.35952991 625:0.35952991 626:0.35952991 627:0.35952991 628:0.2497299 629:0.1709118 630:0.35952991 631:0.3630102 632:0.3630102 633:0.3630102 634:0.3630102 635:0.1277497 636:0.3084701 637:0.30698711 638:0.3630102 639:0.3630102 640:0.3504965 641:0.3504965 642:0.3504965 643:0.3504965 644:0.3504965 645:0.1171138 646:0.3504965 647:0.3504965 648:0.3504965 649:0.36137411 650:0.36137411 651:0.36137411 652:0.36137411 653:0.30866891 654:0.1861641 655:0.28793859 656:0.36137411 657:0.36137411 658:0.40369609 659:0.40369609 660:0.2324982 661:0.33678749 662:0.19734991 663:0.13751739 664:0.3445951 665:0.40369609 666:0.40369609 667:0.17769749 668:0.1672098 669:0.26533929 670:0.4099842 671:0.4099842 672:0.4099842 673:0.4099842 674:0.4099842 675:0.15977789 676:0.049625419 677:0.0263134 678:0.069268763 679:0.56519198 680:0.56519198 681:0.56519198 682:0.1268723 683:0.105485 684:0.029206431 685:0.34914929 686:0.31186041 687:0.34914929 688:0.34914929 689:0.34914929 690:0.34914929 691:0.21428441 692:0.34914929 693:0.34914929 694:0.1032015 695:0.079580434 696:0.002034721 697:0.060555492 698:0.55969691 699:0.55969691 700:0.55969691 701:0.091702767 702:0.15989029 703:0 704:0 705:0 706:0 707:0.48887989 708:0.48887989 709:0.48887989 710:0.48887989 711:0.1977444 712:0.31198299 713:0.1343244 714:0.40179279 715:0.3822999 716:0.40179279 717:0.40179279 718:0.40179279 719:0.2958228 720:0.03457756 721:0.3977395 722:0.3977395 723:0.3553907 724:0.3977395 725:0.2498055 726:0.3795954 727:0.2122848 728:0.13226549 729:0.35507691 730:0.49612829 731:0.49612829 732:0.028274169 733:0.03299221 734:0.01160666 735:0.045542561 736:0.079842657 737:0.49612829 738:0.49612829 739:0.56511807 740:0.1174215 741:0.0493978 742:0.03381338 743:0.038799621 744:0.042362768 745:0.1249398 746:0.56511807 747:0.56511807 748:0.45442519 749:0.45442519 750:0.27826491 751:0.028483391 752:0.039103542 753:0.1112783 754:0.2780236 755:0.45442519 756:0.45442519 757:0.35840991 758:0.31915289 759:0.35428199 760:0.35840991 761:0.091788657 762:0.3439934 763:0.35840991 764:0.35840991 765:0.35840991 766:0.38040769 767:0.38040769 768:0.38040769 769:0.38040769 770:0.38040769 771:0.13665991 772:0.091233917 773:0.3234989 774:0.37549731 775:0.43442491 776:0.43442491 777:0.43442491 778:0.43442491 779:0.43442491 780:0.1231034 781:0.05508592 782:0.1299814 783:0.1301979 784:0.48813021 785:0.48813021 786:0.37118179 787:0.1765396 788:0.13562819 789:0.1673598 790:0.038945321 791:0.2518895 792:0.48813021 793:0.24245571 794:0.02579096 795:0.009225647 796:0.3754189 797:0.39888361 798:0.39888361 799:0.39888361 800:0.39888361 801:0.39888361 802:0.01559271 803:0.144481 804:0.2159882 805:0.3270165 806:0.40964669 807:0.40964669 808:0.40964669 809:0.40964669 810:0.38724381 811:0.13367081 812:0.057411529 813:0.4339821 814:0.4339821 815:0.1793028 816:0.4339821 817:0.4339821 818:0.4339821 819:0.025479089 820:0.37464279 821:0.37464279 822:0.37464279 823:0.37464279 824:0.1105467 825:0.37464279 826:0.37464279 827:0.37464279 828:0.039189689 829:0.36584979 830:0.34300971 831:0.36584979 832:0.2513707 833:0.1114702 834:0.36584979 835:0.36584979 836:0.36584979 837:0.36584979 838:0.43859419 839:0.1702262 840:0.1939725 841:0.1559545 842:0.1320283 843:0.3432256 844:0.43859419 845:0.43859419 846:0.43859419 847:0.45428589 848:0.26935011 849:0.082527347 850:0.050337531 851:0.093592227 852:0.28161329 853:0.45428589 854:0.45428589 855:0.45428589 856:0.44825301 857:0.1032417 858:0.1988771 859:0.40508229 860:0.036518648 861:0.28681809 862:0.30794391 863:0.44825301 864:0.44825301 865:0.435967 866:0.435967 867:0.31802729 868:0.3650668 869:0.030387869 870:0.0050948588 871:0.003383284 872:0.435967 873:0.435967 874:0.49380961 875:0.4509038 876:0.2022664 877:0.071236327 878:0.06313879 879:0.080051214 880:0.061879359 881:0.49380961 882:0.49380961 883:0.54648441 884:0.3101595 885:0.05770608 886:0.0039305012 887:0.0083126808 888:0.095397033 889:0.0164971 890:0.53690428 891:0.54648441 892:0.2436576 893:0.024076041 894:0.4357067 895:0.4357067 896:0.4357067 897:0.4357067 898:0.2342162 899:0.1344001 900:0.3215853 901:0.01145318 902:0.03755191 903:0.41144159 904:0.51385832 905:0.51385832 906:0.51385832 907:0.1722849 908:0.046881478 909:0.0033789771 910:0.0004864168 911:0.017005511 912:0.4700425 913:0.61386561 914:0.61386561 915:0.132851 916:0.036471091 917:0 918:0 919:0.067796797 920:0.1211634 921:0.56812263 922:0.56812263 923:0.56812263 924:0.053780951 925:0.055876661 926:0 927:0.027302461 928:0.4408775 929:0.26568541 930:0.4408775 931:0.4408775 932:0.37449709 933:0.066496529 934:0.052759409 935:0.0078607351 936:0.4408775 937:0.449624 938:0.449624 939:0.449624 940:0.449624 941:0.1564609 942:0.060615689 943:0.038067471 944:0.01180528 945:0.39638239 946:0.53021389 947:0.53021389 948:0.37926671 949:0.018514231 950:0.061750211 951:0.054629251 952:0.01342582 953:0.01268421 954:0.53021389 955:0.55992669 956:0.55992669 957:0.1507991 958:0.14789189 959:0.095510937 960:0.00080990669 961:0.0041822619 962:0.01009659 963:0.55992669 964:0.61068392 965:0.47040051 966:0.1435799 967:0.066475958 968:0.03784088 969:0.01295353 970:0.00056371232 971:0.011045 972:0.61068392 973:0.57465458 974:0.57465458 975:0.02117143 976:0.034675129 977:0.02690096 978:0.0212347 979:0.0063705319 980:0.02668611 981:0.57465458 982:0.59980482 983:0.5221858 984:0.02504003 985:0.0045925248 986:4.1489799e-005 987:0.00048997859 988:0.001044636 989:0.033943541 990:0.59980482 991:0.36373311 992:0.1703046 993:0.20310061 994:0.36373311 995:0.36373311 996:0.36373311 997:0.36373311 998:0.36373311 999:0.36373311 1000:0.07323017 1001:0.1696424 1002:0.08390604 1003:0.22731981 1004:0.4686828 1005:0.4686828 1006:0.4686828 1007:0.4686828 1008:0.1543007 1009:0.0028255889 1010:0 1011:0.016198659 1012:0.28554371 1013:0.47574979 1014:0.47574979 1015:0.47574979 1016:0.47574979 1017:0.089950264 1018:0.1375964 1019:0.15253741 1020:0.42270541 1021:0.50174189 1022:0.50174189 1023:0.50174189 1024:0.081800573 1025:0.095456474 1026:0.055411451 1027:0.45380089 1028:0.2293482 1029:0.45380089 1030:0.2884326 1031:0.45380089 1032:0.055939481 1033:0.069700673 1034:0.1671671 1035:0.45380089 1036:0.54027271 1037:0.54027271 1038:0.33008519 1039:0.01077774 1040:0.098913141 1041:0 1042:0.0076164389 1043:0.0025452811 1044:0.54027271 1045:0.58664501 1046:0.49608481 1047:0.2427735 1048:0.00080178719 1049:0.01402103 1050:0 1051:0.01246235 1052:0.02111805 1053:0.58664501 1054:0.57446682 1055:0.57446682 1056:0.062457599 1057:0.0022054659 1058:0.01760673 1059:0 1060:0.0023291451 1061:0.0024488829 1062:0.57446682 1063:0.56903052 1064:0.56903052 1065:0.139017 1066:0.0027148391 1067:0.059802949 1068:0 1069:0.0043839188 1070:0.001465029 1071:0.56903052 1072:0.57568759 1073:0.57568759 1074:0 1075:0 1076:0.001693704 1077:0 1078:0 1079:0 1080:0.57568759 1081:0.57568842 1082:0.57568842 1083:0 1084:0 1085:0 1086:0 1087:0 1088:0 1089:0.57568842 #
0.0083113460275383196 1:0.34536189 2:0.34536189 3:0.34536189 4:0.34536189 5:0.34536189 6:0.34536189 7:0.323744 8:0.34536189 9:0.2383596 10:0.32327631 11:0.19381601 12:0.1849432 13:0.25198129 14:0.34245801 15:0.4401651 16:0.4401651 17:0.4401651 18:0.2394135 19:0.39172241 20:0.39172241 21:0.39172241 22:0.39172241 23:0.39172241 24:0.31722111 25:0.25780001 26:0.2031174 27:0.1432059 28:0.51820302 29:0.51820302 30:0.51820302 31:0.25252631 32:0.2036823 33:0.1105605 34:0.01295541 35:0.02487831 36:0.26637441 37:0.55235469 38:0.55235469 39:0.1832407 40:0.070001811 41:0.058104608 42:0.0084039234 43:0.055993639 44:0.1847637 45:0.55235469 46:0.55876452 47:0.18023171 48:0.02157036 49:0.01187442 50:0.049226929 51:0.0076252208 52:0.14898209 53:0.55876452 54:0.55876452 55:0.5046792 56:0.061011732 57:0.033304591 58:0.001527831 59:0.093310706 60:0.080834582 61:0.1083449 62:0.50502342 63:0.67210633 64:0.56455839 65:0.074239276 66:0.038554061 67:0.00074649003 68:0.080996737 69:0.022167919 70:0.1553501 71:0.56455839 72:0.56455839 73:0.32729059 74:0.23218121 75:0.33831969 76:0.031797212 77:0.41142461 78:0.2056953 79:0.41142461 80:0.41142461 81:0.41142461 82:0.1106102 83:0.3562724 84:0.3562724 85:0.3562724 86:0.3562724 87:0.31525239 88:0.3562724 89:0.35105801 90:0.3562724 91:0.3882162 92:0.118422 93:0.41593969 94:0.41593969 95:0.41593969 96:0.41593969 97:0.18279611 98:0.1432406 99:0.2918112 100:0.19836199 101:0.3850939 102:0.3850939 103:0.3850939 104:0.3850939 105:0.32541779 106:0.2301164 107:0.23763169 108:0.3850939 109:0.26483351 110:0.3771027 111:0.3771027 112:0.3771027 113:0.3771027 114:0.31807551 115:0.31510779 116:0.17574459 117:0.35485059 118:0.19510271 119:0.65773833 120:0.65773833 121:0.24410731 122:0.1380806 123:0.066689201 124:0.067283161 125:0.027881689 126:0.041505571 127:0.16984721 128:0.46826661 129:0.46826661 130:0.46826661 131:0.46826661 132:0.2892684 133:0.041559432 134:0.045013409 135:0.044169191 136:0.3660686 137:0.3660686 138:0.3660686 139:0.3660686 140:0.3660686 141:0.3660686 142:0.19024719 143:0.1486785 144:0.3660686 145:0.37355521 146:0.1660637 147:0.082701273 148:0.051472589 149:0.2639809 150:0.43283391 151:0.43283391 152:0.43283391 153:0.43283391 154:0.089527518 155:0.12841199 156:0.2500031 157:0.20764939 158:0.43112469 159:0.43112469 160:0.43112469 161:0.43112469 162:0.34942091 163:0.24274831 164:0.1652938 165:0.32281369 166:0.17509741 167:0.39368781 168:0.39368781 169:0.39368781 170:0.39368781 171:0.39368781 172:0.032680109 173:0.0086745108 174:0.0092685549 175:0.018338541 176:0.49608111 177:0.4803353 178:0.49608111 179:0.49608111 180:0.1564244 181:0.089303561 182:0.16825581 183:0.09819781 184:0.14982469 185:0.1288761 186:0.29016101 187:0.6308009 188:0.6308009 189:0.1694241 190:0.33007401 191:0.053430341 192:0.2336061 193:0.36384821 194:0.41943201 195:0.41943201 196:0.41943201 197:0.26242661 198:0.31687811 199:0.1715951 200:0.20488159 201:0.52668679 202:0.52668679 203:0.52603853 204:0.106703 205:0.0437987 206:0.043700941 207:0.27675009 208:0.1034834 209:0.53474611 210:0.53474611 211:0.53474611 212:0.34371829 213:0.056195311 214:0.066614248 215:0.0089677349 216:0.01651538 217:0.051821079 218:0.58743548 219:0.58743548 220:0.36881241 221:0.062044661 222:0.078960463 223:0.32339299 224:0.2234098 225:0.026195381 226:0.02248954 227:0.098895557 228:0.242276 229:0.47154871 230:0.51764911 231:0.51764911 232:0.4028987 233:0.068347313 234:0.0238366 235:0.2350291 236:0.222165 237:0.35696 238:0.38018489 239:0.38018489 240:0.38018489 241:0.38018489 242:0.2315854 243:0.36385629 244:0.1441537 245:0.1591551 246:0.30228901 247:0.41193891 248:0.4473334 249:0.4473334 250:0.4473334 251:0.2639198 252:0.1355488 253:0.096334927 254:0.2988914 255:0.27511439 256:0.26444399 257:0.3736853 258:0.39122111 259:0.39122111 260:0.39122111 261:0.39122111 262:0.3825821 263:0.2026775 264:0.3825821 265:0.3825821 266:0.3825821 267:0.3825821 268:0.12716851 269:0.2892409 270:0.35131511 271:0.1144611 272:0.089417487 273:0.42555219 274:0.4871949 275:0.4871949 276:0.40820491 277:0.37202269 278:0.087357543 279:0.074572861 280:0.02984638 281:0.035053089 282:0.035937291 283:0.020273721 284:0.056276679 285:0.1051163 286:0.6933825 287:0.6933825 288:0.1161085 289:0.04117246 290:0.039237961 291:0.1384203 292:0.0571598 293:0.482636 294:0.482636 295:0.482636 296:0.482636 297:0.1943382 298:0.058884788 299:0.051111829 300:0.49002251 301:0.49002251 302:0.49002251 303:0.49002251 304:0.15233169 305:0.033827879 306:0.064718217 307:0 308:0.03008388 309:0.3958551 310:0.45762339 311:0.45762339 312:0.45762339 313:0.45762339 314:0.01208366 315:0 316:0.082989521 317:0.094469391 318:0.2086512 319:0.23236319 320:0.1643746 321:0.57603091 322:0.57603091 323:0.3803502 324:0.213541 325:0.025100701 326:0.18566839 327:0.51169491 328:0.56254619 329:0.56254619 330:0.1047617 331:0.094293483 332:0.16146509 333:0.13636141 334:0.191265 335:0.35378081 336:0.35378081 337:0.35378081 338:0.35378081 339:0.28940791 340:0.35378081 341:0.35378081 342:0.35378081 343:0.14556199 344:0.15685891 345:0.1840854 346:0.1312743 347:0.31324479 348:0.2171081 349:0.382328 350:0.55052519 351:0.55052519 352:0.2219072 353:0.01180525 354:0.0142911 355:0.0093597202 356:0.02134094 357:0.037339691 358:0.21738321 359:0.66878402 360:0.66878402 361:0.42496169 362:0.42496169 363:0.42496169 364:0.2130672 365:0.1035118 366:0.072813012 367:0.1771397 368:0.42496169 369:0.42496169 370:0.3604975 371:0.3604975 372:0.3604975 373:0.3604975 374:0.3604975 375:0.28315729 376:0.3604975 377:0.3604975 378:0.080691174 379:0.074737489 380:0.051670901 381:0.1836693 382:0.043503858 383:0.3259297 384:0.51594973 385:0.51594973 386:0.51594973 387:0.2147609 388:0.1010545 389:0.0053944471 390:0.01614218 391:0 392:0.31990111 393:0.53321737 394:0.53321737 395:0.53321737 396:0.1699241 397:0.068979532 398:0.01959659 399:0.01461642 400:0.094314873 401:0.69473588 402:0.69473588 403:0.095288202 404:0.018437039 405:0.063859493 406:0 407:0 408:0 409:0.034796111 410:0.57060152 411:0.57060152 412:0.57060152 413:0.1278016 414:0 415:0.0039010651 416:0.0080034211 417:0.01693826 418:0.035274532 419:0.079837359 420:0.69914001 421:0.69914001 422:0.085684933 423:0.010051 424:0.035602599 425:0.1388092 426:0.044490129 427:0.40340421 428:0.60030347 429:0.60030347 430:0.25129199 431:0.1566819 432:0.018186551 433:0.35308671 434:0.35308671 435:0.35308671 436:0.1788075 437:0.35308671 438:0.35308671 439:0.32313561 440:0.33475679 441:0.35308671 442:0.62373507 443:0.3120071 444:0.086990237 445:0.071428411 446:0.1123028 447:0.01524604 448:0.047422711 449:0.30094919 450:0.62373507 451:0.51904392 452:0.38597161 453:0.005894165 454:0.02095945 455:0.041898321 456:0.0035869789 457:0.188096 458:0.51904392 459:0.51904392 460:0.35435179 461:0.35435179 462:0.35435179 463:0.35435179 464:0.1834134 465:0.28959131 466:0.35435179 467:0.35435179 468:0.35435179 469:0.043942969 470:0.1146377 471:0.39471221 472:0.4211047 473:0.33939901 474:0.4211047 475:0.4211047 476:0.4211047 477:0.020355869 478:0.042627309 479:0 480:0.02253578 481:0.047413189 482:0.51332062 483:0.51332062 484:0.51332062 485:0.41775489 486:0.1590192 487:0.1402397 488:0 489:0.0075743399 490:0.52181327 491:0.52181327 492:0.52181327 493:0.35889491 494:0.082594313 495:0.1502313 496:0.01498355 497:0.00081613928 498:0 499:0.055579972 500:0.69597048 501:0.69597048 502:0.1427007 503:0.020026481 504:0.0149683 505:0.059737202 506:0 507:0 508:0.02051937 509:0.53073519 510:0.53073519 511:0.53073519 512:0.36856309 513:0.099155843 514:0.0085538859 515:0.00039313329 516:0.001176405 517:0.003182587 518:0.062102359 519:0.69104391 520:0.69104391 521:0.1805771 522:0.038324598 523:0.1613977 524:0.37040439 525:0.37040439 526:0.37040439 527:0.37040439 528:0.37040439 529:0.37040439 530:0.37040439 531:0.099269159 532:0.42270681 533:0.42270681 534:0.42270681 535:0.138467 536:0.05098683 537:0.1879306 538:0.27754819 539:0.38331389 540:0.42270681 541:0.65508002 542:0.1624746 543:0.01577333 544:0.0058005191 545:0.0212698 546:0.01115496 547:0.070800662 548:0.32082719 549:0.65508002 550:0.56909192 551:0.078720242 552:0.030150739 553:0.017921399 554:0.06208919 555:0.04714283 556:0.095999569 557:0.56909192 558:0.56909192 559:0.40808931 560:0.34754029 561:0.2310071 562:0.073870949 563:0.095350623 564:0.37560421 565:0.40808931 566:0.40808931 567:0.40808931 568:0.1146817 569:0.2116694 570:0.2314437 571:0.1362718 572:0.3517226 573:0.58412743 574:0.58412743 575:0.2405332 576:0.01002873 577:0.055079889 578:0.01606405 579:0.0052468572 580:0.01073233 581:0.44559509 582:0.6253112 583:0.6253112 584:0.079580739 585:0.05836004 586:0.1002045 587:0.045527369 588:0.042271279 589:0.6794858 590:0.6794858 591:0.2207561 592:0.03837762 593:0.004487264 594:0.075419717 595:0.01365879 596:7.651616e-005 597:0 598:0.41679159 599:0.6758067 600:0.57890397 601:0.1646204 602:0.0151258 603:0.01335631 604:0.007269721 605:0 606:0 607:0.053528201 608:0.57142252 609:0.57142252 610:0.57142252 611:0.1072703 612:0.01726036 613:0.01485099 614:0.031781979 615:0.0071741752 616:0.016709421 617:0.32875231 618:0.61874378 619:0.61874378 620:0.34234861 621:0.035950679 622:0.18312851 623:0.2256199 624:0.40477079 625:0.40477079 626:0.40477079 627:0.40477079 628:0.40477079 629:0.27046701 630:0.1384442 631:0.33415651 632:0.33415651 633:0.32356539 634:0.33370569 635:0.33415651 636:0.33415651 637:0.3326318 638:0.33415651 639:0.33415651 640:0.46776599 641:0.43144539 642:0.1293664 643:0.1237245 644:0.22477099 645:0.16188981 646:0.20974711 647:0.46776599 648:0.46776599 649:0.39217401 650:0.1740962 651:0.33350429 652:0.39217401 653:0.2386836 654:0.1690432 655:0.39217401 656:0.39217401 657:0.39217401 658:0.03166724 659:0.04342252 660:0.25848091 661:0.43658441 662:0.43658441 663:0.43658441 664:0.43658441 665:0.39519921 666:0.085628279 667:0.022653021 668:0.055821031 669:0.037772842 670:0.19021779 671:0.59468448 672:0.59468448 673:0.48485991 674:0.09928441 675:0.024027919 676:0.005280837 677:0.01220259 678:0.0140575 679:0.01533969 680:0.57516968 681:0.57516968 682:0.57516968 683:0.034289312 684:0.0032064579 685:0.03569407 686:0.01888404 687:0.01946497 688:0.69336188 689:0.69336188 690:0.1505871 691:0.077681467 692:0.01066727 693:0.02725492 694:0.032566559 695:0 696:0.0052378331 697:0.2301196 698:0.53455889 699:0.53455889 700:0.53455889 701:0.28718841 702:0.02969471 703:0.027418541 704:0.0068365601 705:0.001122157 706:0.029934259 707:0.17821009 708:0.62250012 709:0.62250012 710:0.42933711 711:0.031414241 712:0.01022115 713:0.0520612 714:0.027801629 715:0.060277749 716:0.37936091 717:0.64048088 718:0.64048088 719:0.1481881 720:0.0088596595 721:0.35108709 722:0.33862239 723:0.2363047 724:0.29396361 725:0.35108709 726:0.35108709 727:0.35108709 728:0.35108709 729:0.35108709 730:0.47561741 731:0.39549291 732:0.13659251 733:0.068650112 734:0.15990309 735:0.2468508 736:0.22433101 737:0.47561741 738:0.47561741 739:0.47690031 740:0.23436829 741:0.04720737 742:0.01131755 743:0.02942273 744:0.1063508 745:0.1147391 746:0.58485037 747:0.58485037 748:0.50676483 749:0.41276029 750:0.23476361 751:0.13346229 752:0.02467945 753:0.060331091 754:0.085748963 755:0.47583449 756:0.50676483 757:0.3963542 758:0.41803479 759:0.41803479 760:0.41803479 761:0.41803479 762:0.29866499 763:0.154965 764:0.1065226 765:0.123098 766:0.150509 767:0.1263207 768:0.45948449 769:0.45948449 770:0.45948449 771:0.45948449 772:0.30241039 773:0.042501058 774:0.13797951 775:0.037995178 776:0.078782022 777:0.22122671 778:0.1364966 779:0.48943979 780:0.58135188 781:0.58135188 782:0.051926579 783:0.028004769 784:0.022968009 785:0.02783474 786:0.54273999 787:0.56518638 788:0.56518638 789:0.18367501 790:0.1593968 791:0.0052619679 792:0.021076489 793:0.034350481 794:0.01536241 795:0.058530439 796:0.2652868 797:0.41492161 798:0.53924298 799:0.53924298 800:0.40662241 801:0.01811973 802:0.019987199 803:0.01254491 804:0.0044918619 805:0.01973589 806:0.055121992 807:0.3108353 808:0.66806519 809:0.66806519 810:0.0091962088 811:0.0079342835 812:0.035022698 813:0.01343833 814:0.1419234 815:0.53336167 816:0.56953353 817:0.56953353 818:0.1958272 819:0.033771589 820:0.2907556 821:0.38959101 822:0.26204571 823:0.40875179 824:0.40875179 825:0.40875179 826:0.24471191 827:0.26926741 828:0.23938601 829:0.14425381 830:0.1839287 831:0.09256535 832:0.1661704 833:0.42542461 834:0.42542461 835:0.42542461 836:0.42542461 837:0.42542461 838:0.38821009 839:0.34563461 840:0.1178971 841:0.37724459 842:0.38821009 843:0.2025739 844:0.27673179 845:0.38821009 846:0.38821009 847:0.46562749 848:0.4543463 849:0.094181933 850:0.1904137 851:0.2029853 852:0.1392564 853:0.1810213 854:0.46562749 855:0.46562749 856:0.172765 857:0.25599301 858:0.28191429 859:0.37151691 860:0.37151691 861:0.37151691 862:0.37151691 863:0.37151691 864:0.36236501 865:0.2334076 866:0.37755191 867:0.37755191 868:0.37755191 869:0.37755191 870:0.37755191 871:0.37755191 872:0.2351153 873:0.1766279 874:0.0555223 875:0.68126732 876:0.68126732 877:0.20262089 878:0.065043069 879:0.09795177 880:0.071292877 881:0.031900089 882:0.02975774 883:0.080256499 884:0.54721689 885:0.54721689 886:0.54721689 887:0.27138239 888:0.034549531 889:0.03107688 890:0.0626963 891:0.1000825 892:0.08454711 893:0.2460254 894:0.26196161 895:0.47854891 896:0.47854891 897:0.47854891 898:0.3587352 899:0.2012872 900:0.051818501 901:0.1306808 902:0.019020051 903:0.063462131 904:0.096643053 905:0.1937339 906:0.53192037 907:0.63417208 908:0.47454339 909:0.1225732 910:0.01386088 911:0 912:0.0034899539 913:0.079166882 914:0.1533654 915:0.39336139 916:0.83597863 917:0.32761309 918:0.027224541 919:0.1309253 920:0.01937631 921:0.047939539 922:0.28582039 923:0.45086229 924:0.45086229 925:0.45086229 926:0.44908091 927:0.2872003 928:0.3500123 929:0.3500123 930:0.26496211 931:0.2621792 932:0.3500123 933:0.3500123 934:0.3500123 935:0.3500123 936:0.3500123 937:0.078181602 938:0.48869181 939:0.52010161 940:0.52010161 941:0.32697901 942:0.1525005 943:0.18098991 944:0.17769369 945:0.119826 946:0.34595981 947:0.26124099 948:0.3586292 949:0.46559629 950:0.1507124 951:0.065146737 952:0.03874968 953:0.46559629 954:0.46559629 955:0.39196381 956:0.39196381 957:0.39196381 958:0.39196381 959:0.39196381 960:0.1944215 961:0.08355093 962:0.1717263 963:0.39196381 964:0.065212667 965:0.68815303 966:0.68815303 967:0.12692121 968:0.1077318 969:0.06014882 970:0.096252427 971:0.032681201 972:0.0101355 973:0.14776701 974:0.64976013 975:0.64976013 976:0.1323228 977:0.16158549 978:0.05298683 979:0.077252097 980:0.26095319 981:0.082524776 982:0.1576452 983:0.37079611 984:0.37079611 985:0.37079611 986:0.37079611 987:0.36047909 988:0.37079611 989:0.37079611 990:0.12868419 991:0.05124164 992:0.073135458 993:0.45573941 994:0.45573941 995:0.45573941 996:0.45573941 997:0.3032676 998:0.2446311 999:0.069742613 1000:0.34526101 1001:0.34526101 1002:0.34526101 1003:0.34526101 1004:0.34526101 1005:0.20714509 1006:0.34526101 1007:0.34526101 1008:0.34526101 1009:0.02857223 1010:0.039375499 1011:0.0038904031 1012:0.03366356 1013:0.20702431 1014:0.47436699 1015:0.59289348 1016:0.59289348 1017:0.1401297 1018:0.01547382 1019:0.0031056921 1020:0.01439783 1021:0.01786717 1022:0.085534677 1023:0.082852192 1024:0.57135463 1025:0.57135463 1026:0.57135463 1027:0.4984495 1028:0.3010394 1029:0.2075827 1030:0.1299981 1031:0.094194487 1032:0.068915308 1033:0.29228291 1034:0.4984495 1035:0.4984495 1036:0.2237667 1037:0.2466563 1038:0.44673619 1039:0.44673619 1040:0.13007221 1041:0.1566994 1042:0.21180239 1043:0.44673619 1044:0.44673619 1045:0.41954029 1046:0.085263193 1047:0.08161518 1048:0.1240306 1049:0.2016183 1050:0.093915947 1051:0.1090694 1052:0.6030274 1053:0.6030274 1054:0.52588898 1055:0.52588898 1056:0.52588898 1057:0.0663829 1058:0.165888 1059:0.03330294 1060:0.0037805829 1061:0.037211411 1062:0.36143711 1063:0.25687301 1064:0.52212942 1065:0.52212942 1066:0.3080315 1067:0.49853021 1068:0.1553753 1069:0.092507817 1070:0.086298242 1071:0.001084704 1072:0.3016997 1073:0.36662099 1074:0.36662099 1075:0.1829267 1076:0.36662099 1077:0.36662099 1078:0.36662099 1079:0.36662099 1080:0.25570789 1081:0.3385818 1082:0.28198579 1083:0.3385818 1084:0.3385818 1085:0.3385818 1086:0.3385818 1087:0.3385818 1088:0.3385818 1089:0.3385818 #
