SVM-light Version V6.02
0 # kernel type
3 # kernel parameter -d 
1 # kernel parameter -g 
1 # kernel parameter -s 
1 # kernel parameter -r 
empty# kernel parameter -u 
1089 # highest feature index 
912 # number of training documents 
88 # number of support vectors plus 1 
0.30715768 # threshold b, each following line is a SV (starting with alpha*y)
0.006512590384980403 1:0.41363201 2:0.20070709 3:0.41363201 4:0 5:0.41363201 6:0 7:0.41363201 8:0.3164292 9:0.41363201 10:0.1737842 11:0.092187613 12:0.1512122 13:0.051577851 14:0.58545637 15:0.58545637 16:0.4533278 17:0.12925839 18:0.14898621 19:0.3697581 20:0.1597625 21:0.1171946 22:0.3697581 23:0.3697581 24:0.3697581 25:0.3697581 26:0.3697581 27:0.3697581 28:0.3675032 29:0.27129009 30:0.3675032 31:0.32216331 32:0.3675032 33:0.3675032 34:0.29619151 35:0.2364708 36:0.3675032 37:0.3212643 38:0.33910939 39:0.33910939 40:0.33910939 41:0.33910939 42:0.29737991 43:0.33910939 44:0.33910939 45:0.33910939 46:0.3919591 47:0.3919591 48:0.3919591 49:0.3919591 50:0.38249859 51:0.1389329 52:0.1988195 53:0.1509566 54:0.3919591 55:0.37575239 56:0.50579888 57:0.50579888 58:0.50579888 59:0.2569941 60:0 61:0.01219277 62:0.02551868 63:0.13933849 64:0.4691627 65:0.4691627 66:0.39598379 67:0.153497 68:0.2316227 69:0 70:0.36452541 71:0.121818 72:0.41635889 73:0.49437201 74:0.49437201 75:0.49437201 76:0.2085645 77:0.03098046 78:0.02623532 79:0.092802249 80:0.1958252 81:0.41200069 82:0.3504416 83:0.3504416 84:0.3504416 85:0.23589259 86:0.29466221 87:0.34230351 88:0.3504416 89:0.3504416 90:0.3504416 91:0.19800401 92:0.28051439 93:0.39023989 94:0.34921181 95:0.39023989 96:0.33814421 97:0.39023989 98:0.39023989 99:0.18102071 100:0.1483511 101:0.17706551 102:0.52984738 103:0 104:0.53530967 105:0.1293288 106:0.53530967 107:0.2207002 108:0.1483511 109:0.29381931 110:0.3712559 111:0.32221419 112:0 113:0.52138418 114:0.23532289 115:0.52138418 116:0.1619387 117:0.20377959 118:0.3978003 119:0.3978003 120:0.3978003 121:0 122:0.3978003 123:0.068546087 124:0.29804161 125:0.3335765 126:0.3978003 127:0.45209759 128:0.20380171 129:0.2398677 130:0 131:0.23318949 132:0.1564171 133:0.45209759 134:0.45209759 135:0.45209759 136:0.42472181 137:0.42472181 138:0.30217299 139:0.33381829 140:0.1191759 141:0.033189092 142:0.23697101 143:0.42472181 144:0.42472181 145:0.42689741 146:0.42689741 147:0.42689741 148:0.42689741 149:0.207874 150:0.07028465 151:0.079101853 152:0.1735512 153:0.42689741 154:0.34243301 155:0.51992917 156:0.51992917 157:0.51992917 158:0.2009712 159:0 160:0.04259593 161:0.04794687 162:0.1485436 163:0.48961699 164:0.48961699 165:0.48961699 166:0.26968631 167:0.1423683 168:0.1189467 169:0 170:0.025974991 171:0.4100157 172:0.55337071 173:0.55337071 174:0.55337071 175:0.1131249 176:0.01486407 177:0.117136 178:0.074924164 179:0.069988608 180:0.1963817 181:0.42728981 182:0.42728981 183:0.42728981 184:0.4220238 185:0.42728981 186:0.14248919 187:0.1265277 188:0.1245006 189:0.1884366 190:0.14281499 191:0.087148033 192:0.36558861 193:0.3475624 194:0.58470857 195:0.51450789 196:0.30776861 197:0.043303821 198:0.092286028 199:0.30932391 200:0.043441661 201:0.0075413529 202:0.01542571 203:0.51451772 204:0.1123349 205:0.51451772 206:0.51451772 207:0.30032229 208:0.4590134 209:0.4590134 210:0.1345491 211:0.1086622 212:0.4590134 213:0 214:0.33226731 215:0.111038 216:0.4590134 217:0.49514061 218:0.45315579 219:0.1185355 220:0.003713236 221:0.49514061 222:0 223:0.062678456 224:0.1903127 225:0.49514061 226:0.64657402 227:0.2606293 228:0.25079659 229:0 230:0.13444351 231:0 232:0.043857329 233:0.081263907 234:0.64657402 235:0.5246672 236:0.5246672 237:0.40562081 238:0.0047189901 239:0.053392511 240:0.009303933 241:0.004971385 242:0.037689772 243:0.5246672 244:0.41317031 245:0.60903221 246:0.60903221 247:0.2346538 248:0.077195726 249:0.034893759 250:0.01705895 251:0.042027101 252:0.1306614 253:0.4318108 254:0.4318108 255:0.4318108 256:0.4318108 257:0.38027951 258:0 259:0.02548841 260:0.038749721 261:0.3210617 262:0.50069642 263:0.50069642 264:0.48921019 265:0.035707429 266:0.044145901 267:0.0091233496 268:0.0097255083 269:0.01342604 270:0.50069642 271:0.46319649 272:0.46319649 273:0.34441999 274:0.073588811 275:0.1118261 276:0.2001884 277:0.2254844 278:0.3524999 279:0.46319649 280:0.2277 281:0.35834411 282:0.21309 283:0.074665166 284:0.39111441 285:0.39111441 286:0.39111441 287:0.39111441 288:0.39111441 289:0.054748621 290:0.092788696 291:0.2838617 292:0.01498923 293:0.54276967 294:0.54276967 295:0.54276967 296:0.1262311 297:0.049388509 298:0.3562344 299:0.163581 300:0.36887151 301:0.1005778 302:0.4916085 303:0.042031821 304:0.4916085 305:0.30125809 306:0.3454929 307:0.4214772 308:0.45032939 309:0.45032939 310:0.45032939 311:0.45032939 312:0 313:0.0075548538 314:0.0025247061 315:0.081296533 316:0.48893839 317:0.48893839 318:0.48893839 319:0.1949904 320:0.023159981 321:0 322:0 323:0.017768521 324:0.48893839 325:0.63798249 326:0.63798249 327:0.1079348 328:0 329:0.0025552439 330:0 331:0 332:0.0043258131 333:0.40977049 334:0.61335838 335:0.61335838 336:0.38171729 337:0.1034135 338:0.074371047 339:0 340:0.0033624759 341:0.1195606 342:0.25538021 343:0.39958629 344:0.57964551 345:0.57964551 346:0.32596731 347:0.19480669 348:0 349:0.04428836 350:0.1131169 351:0.060030099 352:0.52729273 353:0.52801532 354:0.52801532 355:0.3300027 356:0.1207599 357:0.0070357011 358:0.036849011 359:0.1832128 360:0.02509868 361:0.64454019 362:0.64454019 363:0.40050349 364:0.00041040141 365:0.034994669 366:0.0084051182 367:0.01328469 368:0.02193284 369:0.018572221 370:0.4792116 371:0.4792116 372:0.1368397 373:0 374:0.4792116 375:0.45437139 376:0.073144063 377:0.2035713 378:0.1852366 379:0.01105568 380:0.039468989 381:0.04846853 382:0.09079922 383:0.68825948 384:0.68825948 385:0.14995991 386:0.086146303 387:0.059530519 388:0.043911129 389:0.073185109 390:0.28675151 391:0.1385905 392:0.52526468 393:0.52526468 394:0.52526468 395:0.23748501 396:0.043911129 397:0.36222181 398:0.36222181 399:0.36222181 400:0.084188484 401:0.36222181 402:0.36222181 403:0.36222181 404:0.26619709 405:0.36222181 406:0.051168691 407:0.53327519 408:0.53327519 409:0.53327519 410:0.37116149 411:0.025431439 412:0.019249139 413:0.00122069 414:0.01136213 415:0.50873488 416:0.50873488 417:0.50873488 418:0.42713061 419:0.074152052 420:0.16382191 421:0.047186479 422:0 423:0.038498651 424:0.57319993 425:0.57319993 426:0.57319993 427:0.055844389 428:0.008018407 429:0.03335641 430:0.016307401 431:0 432:0.063565388 433:0.58376908 434:0.58376908 435:0.48831981 436:0.086357601 437:0.05860519 438:0 439:0.031064151 440:0.081257381 441:0.2359699 442:0.28775251 443:0.62423551 444:0.62423551 445:0.2163409 446:0.21556529 447:0 448:0.1461796 449:0.1219704 450:0.045923639 451:0.37647009 452:0.40256861 453:0.40256861 454:0.15302689 455:0.136197 456:0.044432599 457:0.40256861 458:0.40256861 459:0.40256861 460:0.43615249 461:0.43615249 462:0.06121527 463:0 464:0.18580151 465:0.078920327 466:0.43615249 467:0.43615249 468:0.43615249 469:0.48529169 470:0.21252181 471:0.1097523 472:0.1215125 473:0.48529169 474:0.3805033 475:0.081785403 476:0.2553052 477:0.48529169 478:0.036458839 479:0.0068615749 480:0.01094024 481:0.026519811 482:0.69802612 483:0.69802612 484:0.1221173 485:0.01284989 486:0.035692912 487:0.13705669 488:0.1009462 489:0.1768771 490:0.4594059 491:0.4594059 492:0.4594059 493:0.4594059 494:0.23704 495:0.1864078 496:0.4302344 497:0.4302344 498:0.4302344 499:0.39180699 500:0.4302344 501:0.1489609 502:0.1505094 503:0.1146344 504:0.2092828 505:0.3688558 506:0.61159629 507:0.61159629 508:0.30490729 509:0.079790577 510:0.04469699 511:0.090079777 512:0.0068309568 513:0.01565114 514:0.35074759 515:0.63976502 516:0.63976502 517:0.18958101 518:0.026280031 519:0.069582641 520:0.095258459 521:0.001326501 522:0.037961539 523:0.56710428 524:0.56710428 525:0.56710428 526:0.01065164 527:0.052695259 528:0.030969599 529:0.03766267 530:0.031924631 531:0.1524083 532:0.4750002 533:0.4750002 534:0.4750002 535:0.30117151 536:0.38552809 537:0.081407472 538:0.066917203 539:0.094460957 540:0.2429318 541:0.57226598 542:0.57226598 543:0.57226598 544:0.06242919 545:0.074065179 546:0 547:0.040468059 548:0.017338 549:0.02233725 550:0.40471649 551:0.40471649 552:0.40471649 553:0.1070889 554:0.04139553 555:0.001699144 556:0.40471649 557:0.40471649 558:0.40471649 559:0.37662101 560:0.01124229 561:0.0091916509 562:0.037900079 563:0.1558526 564:0.1097343 565:0.41205579 566:0.56776673 567:0.56776673 568:0.40158969 569:0.01366575 570:0.02412712 571:0.1428168 572:0.42581621 573:0.42581621 574:0.42581621 575:0.29669651 576:0.42581621 577:0.049078509 578:0.035504911 579:0.04291115 580:0.1911189 581:0.67708611 582:0.67708611 583:0.177177 584:0.030417649 585:0.04467053 586:0.35088491 587:0.35088491 588:0.338633 589:0.1413531 590:0.35088491 591:0.35088491 592:0.35088491 593:0.35088491 594:0.35088491 595:0.36873299 596:0.36873299 597:0.305372 598:0.23398399 599:0.36873299 600:0.36873299 601:0.31668389 602:0.26116419 603:0.36873299 604:0.51099348 605:0.51099348 606:0.51099348 607:0.1681314 608:0.34690499 609:0.1091955 610:0.1101863 611:0.03772686 612:0.1935308 613:0.1158073 614:0.39195591 615:0.39195591 616:0.39195591 617:0.39195591 618:0.39195591 619:0.175689 620:0.30659509 621:0.2994307 622:0.40047461 623:0.40047461 624:0.40047461 625:0.095979713 626:0.32447109 627:0.2288188 628:0.16507021 629:0.40047461 630:0.40047461 631:0.1231255 632:0.1300007 633:0.39537859 634:0.39537859 635:0.39537859 636:0.39537859 637:0.39537859 638:0.39537859 639:0.1613844 640:0.34739101 641:0.4057591 642:0.4057591 643:0.2317104 644:0.29264811 645:0.051130101 646:0.27341801 647:0.4057591 648:0.4057591 649:0.45283821 650:0.45283821 651:0.15911929 652:0 653:0.3871797 654:0 655:0 656:0.45283821 657:0.45283821 658:0.41298851 659:0.41298851 660:0.40896901 661:0.41298851 662:0.41298851 663:0.1215659 664:0.1006444 665:0.2303194 666:0.26158389 667:0.13384829 668:0.32583079 669:0.4716692 670:0.4716692 671:0.4716692 672:0.43253541 673:0.1238164 674:0.021738719 675:0.030037981 676:0.02171286 677:0.02381159 678:0.1181847 679:0.38264 680:0.62543058 681:0.62543058 682:0.2224599 683:0.0070151179 684:0.02171286 685:0.41160679 686:0.2820712 687:0.41160679 688:0.41160679 689:0.41160679 690:0.31171039 691:0.23335969 692:0.03807912 693:0.29252961 694:0.35087559 695:0.35087559 696:0.35087559 697:0.21444771 698:0.35087559 699:0.35087559 700:0.29784369 701:0.35087559 702:0.35087559 703:0.36476579 704:0.27978671 705:0.36476579 706:0.1916046 707:0.36476579 708:0.36476579 709:0.36476579 710:0.28816369 711:0.36476579 712:0.42728809 713:0.1028174 714:0.1500558 715:0.13820571 716:0.32458961 717:0.42728809 718:0.32845649 719:0.42728809 720:0.42728809 721:0.47058931 722:0.051276341 723:0.063207403 724:0.0043538362 725:0.029836429 726:0.1072569 727:0.4242439 728:0.53580523 729:0.53580523 730:0.1818416 731:0.061257679 732:0.0031556459 733:0.1430459 734:0.231548 735:0.3401362 736:0.5060789 737:0.5060789 738:0.5060789 739:0.40805811 740:0.029607231 741:0 742:0.053519718 743:0.054226179 744:0.057877071 745:0.23891979 746:0.61653018 747:0.61653018 748:0.34923941 749:0.4188464 750:0.35600671 751:0.06922292 752:0.024206869 753:0.2000002 754:0.4188464 755:0.4188464 756:0.4188464 757:0.62951458 758:0.62951458 759:0.43207669 760:0.072113998 761:0.0036871859 762:0.01454213 763:0.027875111 764:0.019077821 765:0.088774659 766:0.41332039 767:0.41332039 768:0.41332039 769:0.2391624 770:0.41332039 771:0.41332039 772:0.181063 773:0.022845309 774:0.2262702 775:0.0155051 776:0.02231982 777:0.048884071 778:0.14966521 779:0.69458652 780:0.69458652 781:0.048941068 782:0.001452975 783:0.0155051 784:0.01430637 785:0.01321572 786:0.082987256 787:0.3508423 788:0.82943618 789:0.40688249 790:0.085241944 791:0.01943104 792:0.01430637 793:0.039539289 794:0.03131875 795:0.06740278 796:0.061226781 797:0.56827128 798:0.56827128 799:0.56827128 800:0.1135628 801:0.042378481 802:0.031646751 803:0.065299787 804:0.056972671 805:0.082117788 806:0.62921423 807:0.62921423 808:0.42342949 809:0.066262208 810:0.054393511 811:0.46926051 812:0.2263177 813:0.31908339 814:0.14902849 815:0.46926051 816:0.132112 817:0.064620443 818:0.3712464 819:0.46926051 820:0.42488769 821:0.2269789 822:0.1545511 823:0.0105523 824:0.038999509 825:0.097510643 826:0.44042051 827:0.51662111 828:0.51662111 829:0.28959921 830:0.1142898 831:0.0095269429 832:0.0101157 833:0.2139577 834:0.04501494 835:0.53221482 836:0.53221482 837:0.53221482 838:0.41295141 839:0.023073411 840:0.055708028 841:0.023981171 842:0.077740394 843:0.1442773 844:0.47663841 845:0.53193247 846:0.53193247 847:0.2789945 848:0.20986269 849:0.13291501 850:0.050844699 851:0.01055287 852:0.1926181 853:0.4989922 854:0.53214067 855:0.53214067 856:0.1970327 857:0.29591629 858:0.1800458 859:0.087270677 860:0 861:0.098226517 862:0.38187841 863:0.57978868 864:0.57978868 865:0.2022692 866:0.041868281 867:0.044788029 868:0.1699864 869:0.4294515 870:0.4294515 871:0.4294515 872:0.4294515 873:0.4294515 874:0.007351167 875:0.01232375 876:0.052504539 877:0.57021648 878:0.57021648 879:0.57021648 880:0.1186841 881:0.03840619 882:0.01848343 883:0.078084387 884:0.043972049 885:0.2670112 886:0.53165269 887:0.55076861 888:0.55076861 889:0.13607781 890:0.034829549 891:0.078084387 892:0.007928241 893:0.00191601 894:0.005733409 895:0.54735839 896:0.58750743 897:0.58750743 898:0.062826417 899:0.0096446909 900:0.007928241 901:0 902:0.002634652 903:0.0078838579 904:0 905:0.70726132 906:0.70050567 907:0.0421976 908:0.01279185 909:0 910:0.139715 911:0.09731324 912:0.374946 913:0.17130449 914:0.61053872 915:0.61053872 916:0.1694358 917:0.035217129 918:0.139715 919:0.3556346 920:0.37718111 921:0.37718111 922:0.1593869 923:0.37718111 924:0.02089549 925:0.36412469 926:0.37718111 927:0.37718111 928:0.2124958 929:0.1080241 930:0.40037641 931:0.1879497 932:0.1586155 933:0.29660261 934:0.4581998 935:0.4581998 936:0.4581998 937:0.46118799 938:0.055956271 939:0.1703236 940:0.0058937478 941:0.09210787 942:0.3224223 943:0.46118799 944:0.46118799 945:0.46118799 946:0.1285938 947:0.01970933 948:0.058977671 949:0 950:0.01821523 951:0.059279751 952:0.50824398 953:0.59644091 954:0.59644091 955:0.29817179 956:0 957:0 958:0 959:0 960:0.03882305 961:0.47858909 962:0.58083522 963:0.58083522 964:0.2213663 965:0.039786682 966:0.1190565 967:0.1089359 968:0.098736107 969:0.04755637 970:0.5495072 971:0.5495072 972:0.5495072 973:0.3635647 974:0.30175591 975:0.40229699 976:0.4265295 977:0.4265295 978:0.01206832 979:0.13021301 980:0.2185802 981:0.4265295 982:0.13193621 983:0.18170039 984:0.5334388 985:0.5334388 986:0.5334388 987:0.069701433 988:0.2363231 989:0.1262369 990:0.1180554 991:0.000209406 992:0.016485911 993:0.081063859 994:0.50026977 995:0.60650867 996:0.60650867 997:0.031818371 998:0.01063315 999:0.000209406 1000:0 1001:0.021818681 1002:0.1484935 1003:0.26939681 1004:0.66261423 1005:0.66261423 1006:0.13469429 1007:0.045012459 1008:0 1009:0.03426823 1010:0.0071577192 1011:0.02750802 1012:0.01245576 1013:0.68261719 1014:0.68261719 1015:0.2300299 1016:0.070905477 1017:0.03426823 1018:0.38429609 1019:0.086111628 1020:0.2591739 1021:0.003058444 1022:0.4565801 1023:0.0089672273 1024:0.4565801 1025:0.4565801 1026:0.38429609 1027:0.40860471 1028:0.19785319 1029:0.40860471 1030:0.1964815 1031:0.40860471 1032:0.023213711 1033:0.40860471 1034:0.2878184 1035:0.40860471 1036:0.42865011 1037:0.17367449 1038:0.42865011 1039:0.01488662 1040:0.37867451 1041:0.0067423498 1042:0.42865011 1043:0.29483879 1044:0.42865011 1045:0.3827633 1046:0.035959359 1047:0.1076039 1048:0 1049:0.24320631 1050:0 1051:0.50872082 1052:0.50872082 1053:0.50872082 1054:0.52879208 1055:0 1056:0 1057:0 1058:0.0059925918 1059:0.01835083 1060:0.39431399 1061:0.52879208 1062:0.52879208 1063:0.1613774 1064:0.00073043158 1065:0.002185721 1066:0 1067:0.04261703 1068:0.0122513 1069:0.56754392 1070:0.56754392 1071:0.56754392 1072:0.48794049 1073:0.18589421 1074:0.081566483 1075:0.071284138 1076:0.4363614 1077:0.043613311 1078:0.2055822 1079:0.48794049 1080:0.48794049 1081:0.2622017 1082:0.074011832 1083:0.15815461 1084:0.1272188 1085:0.45379671 1086:0.37838361 1087:0.45379671 1088:0.45379671 1089:0.34507021 #
-0.0070561678736082937 1:0.3763741 2:0.2469213 3:0.31593141 4:0.38867921 5:0.38867921 6:0.38867921 7:0.38867921 8:0.1737005 9:0.2433493 10:0.36730969 11:0.38180771 12:0.38180771 13:0.38180771 14:0.38180771 15:0.3253274 16:0.091094323 17:0.1851081 18:0.36022159 19:0.1152805 20:0.54783738 21:0.66095817 22:0.48237449 23:0.097232759 24:0.031290241 25:0.001336191 26:0 27:0 28:0.51784492 29:0.51784492 30:0.51784492 31:0.21925931 32:0.3425816 33:0.078199752 34:0.052093521 35:0.1180975 36:0.046104331 37:0.42943409 38:0.1433823 39:0.06351281 40:0.030637391 41:0.42943409 42:0.42943409 43:0.2193429 44:0.42943409 45:0.42943409 46:0.54864651 47:0.065145008 48:0.086436257 49:0.053056162 50:0.15521289 51:0.1719428 52:0.1526331 53:0.54864651 54:0.54864651 55:0.56625718 56:0.13014039 57:0.06359417 58:0.1227727 59:0.1610672 60:0.50355917 61:0.06862852 62:0.18103249 63:0.56625718 64:0.55966443 65:0.03271053 66:0.01399539 67:0.39468661 68:0.1079603 69:0.26083699 70:0.20527931 71:0.2984769 72:0.55966443 73:0.58691949 74:0.0473199 75:0.00052126509 76:0.01106095 77:0.20777451 78:0.3346166 79:0.2427472 80:0.29793271 81:0.58691949 82:0.39924979 83:0.02970577 84:0.4224802 85:0.4224802 86:0.4224802 87:0.2496933 88:0.23104291 89:0.076231673 90:0.4224802 91:0.28155139 92:0.29161161 93:0.4044773 94:0.4044773 95:0.4044773 96:0.3772918 97:0.33532491 98:0.2091589 99:0.2056841 100:0.2848902 101:0.4459902 102:0.4459902 103:0.4459902 104:0.4459902 105:0.2954995 106:0.0383159 107:0.1017257 108:0.140062 109:0.1518987 110:0.46493259 111:0.58978409 112:0.58978409 113:0.2084742 114:0.040957611 115:0.053251509 116:0.02687758 117:0.1024093 118:0.0079450393 119:0.2139173 120:0.71057338 121:0.66329932 122:0.046822421 123:0.0031770491 124:0 125:0 126:0.0002412584 127:0.26547861 128:0.48197949 129:0.48197949 130:0.48197949 131:0.46872929 132:0.01497413 133:0.0110089 134:0.04760588 135:0.073996127 136:0.41704139 137:0.41704139 138:0.41704139 139:0.41704139 140:0.41704139 141:0.029511649 142:0.054670841 143:0.108539 144:0.33252949 145:0.4574689 146:0.4574689 147:0.4574689 148:0.4574689 149:0.083535463 150:0.0060032462 151:0.0113509 152:0.057296041 153:0.3845692 154:0.43256181 155:0.4511182 156:0.4511182 157:0.4511182 158:0.2183619 159:0.096630819 160:0.0099238567 161:0.01694143 162:0.3747752 163:0.3893764 164:0.3893764 165:0.3893764 166:0.35441411 167:0.3893764 168:0.3091298 169:0.121613 170:0.045606449 171:0.3893764 172:0.35165191 173:0.35165191 174:0.35165191 175:0.35165191 176:0.3185268 177:0.35165191 178:0.34591421 179:0.18280131 180:0.35165191 181:0.01214943 182:0.165591 183:0.21889929 184:0.64004838 185:0.68728268 186:0.095516726 187:0.1102329 188:0.1068434 189:0.05426364 190:0.208584 191:0.37046629 192:0.25102839 193:0.38440469 194:0.39301941 195:0.39301941 196:0.39301941 197:0.32742131 198:0.184231 199:0.32967949 200:0.41687691 201:0.41687691 202:0.41687691 203:0.41687691 204:0.213185 205:0.1202668 206:0.244904 207:0.26853621 208:0.072037391 209:0.1078902 210:0.40144271 211:0.40144271 212:0.36975741 213:0.3075223 214:0.40144271 215:0.40144271 216:0.32131669 217:0.39405939 218:0.23101769 219:0.39405939 220:0.39405939 221:0.099175513 222:0.034080882 223:0.39405939 224:0.39405939 225:0.39405939 226:0.540941 227:0.540941 228:0.32264799 229:0.084870547 230:0.056419861 231:0.01448133 232:0.03855649 233:0.023710171 234:0.540941 235:0.54241252 236:0.54241252 237:0.30110911 238:0.1397544 239:0.041205939 240:0 241:0.00084652909 242:0.007263355 243:0.54241252 244:0.56850833 245:0.56850833 246:0.1445158 247:0.04187955 248:0.02346731 249:0 250:0 251:0.039093301 252:0.56850833 253:0.56639582 254:0.36306521 255:0.43998909 256:0.1641809 257:0.01873984 258:0 259:0.0024567309 260:0.0040639639 261:0.56639582 262:0.58772492 263:0.47071919 264:0.26378939 265:0.1074529 266:0.021740681 267:0.0077284318 268:0.0070273681 269:0.001085783 270:0.58772492 271:0.49683279 272:0.47998479 273:0.30459589 274:0.139974 275:0.3910667 276:0.050899461 277:0.035352912 278:0.042678881 279:0.49683279 280:0.21320251 281:0.458639 282:0.458639 283:0.458639 284:0.458639 285:0.1636975 286:0.1371889 287:0.132002 288:0.21336029 289:0.3693499 290:0.3693499 291:0.3693499 292:0.3693499 293:0.3693499 294:0.26313871 295:0.19237991 296:0.26747301 297:0.3693499 298:0.31895041 299:0.46066719 300:0.46066719 301:0.46066719 302:0.28427541 303:0.071028657 304:0.101401 305:0.1323005 306:0.37865981 307:0.3647325 308:0.3647325 309:0.3647325 310:0.31471229 311:0.176599 312:0.26066491 313:0.3647325 314:0.3647325 315:0.3647325 316:0.47363031 317:0.47363031 318:0.47363031 319:0.01863974 320:0.020712409 321:0.0281348 322:0.28356451 323:0.1921961 324:0.45097241 325:0.43445331 326:0.43445331 327:0.43445331 328:0.1220809 329:0.4023895 330:0.2472032 331:0.04954705 332:0.016612981 333:0.43445331 334:0.49517459 335:0.48100469 336:0.24109051 337:0.067704372 338:0.2514188 339:0.37682721 340:0.072391883 341:0.01157044 342:0.49517459 343:0.69504082 344:0.056829751 345:0.058869932 346:0.033823408 347:0.07355126 348:0.086502843 349:0.01213088 350:0.077584267 351:0.69504082 352:0.70076478 353:0.077874728 354:0.034269329 355:0.02012717 356:0.0047382 357:0.030525099 358:0.032939039 359:0.034332119 360:0.70076478 361:0.7003867 362:0.0737096 363:0.01050436 364:0.0073080831 365:0.02176976 366:0.0070308582 367:0.028888641 368:0.070503794 369:0.7003867 370:0.6578272 371:0.09350659 372:0.081242241 373:0.03565 374:0.1611636 375:0.054320749 376:0.21065 377:0.1950558 378:0.6578272 379:0.30835679 380:0.31261119 381:0.34217039 382:0.34217039 383:0.34217039 384:0.34217039 385:0.34217039 386:0.33325151 387:0.32758489 388:0.35387501 389:0.35387501 390:0.35387501 391:0.35387501 392:0.35387501 393:0.29011101 394:0.30411431 395:0.3094267 396:0.3129409 397:0.50097573 398:0.36642891 399:0.48310059 400:0.1663139 401:0.1081675 402:0.01472727 403:0.15693291 404:0.24734931 405:0.50097573 406:0.4414832 407:0.4414832 408:0.4414832 409:0.43488881 410:0.023392441 411:0.0063854712 412:0.046658989 413:0.15513539 414:0.4414832 415:0.1570843 416:0.62724918 417:0.62724918 418:0.39761949 419:0.1185242 420:0.04954711 421:0.0047758282 422:0.035703178 423:0.079227023 424:0.03133779 425:0.55186141 426:0.55186141 427:0.55186141 428:0.2388387 429:0.128131 430:0.03402473 431:0.017065121 432:0.070311204 433:0.4226656 434:0.4226656 435:0.4226656 436:0.31768969 437:0.31929341 438:0.25247359 439:0.033428669 440:0.1160071 441:0.4226656 442:0.52782422 443:0.52782422 444:0.36592191 445:0.05117004 446:0.096486673 447:0.081667662 448:0.0087210629 449:0.079756707 450:0.52782422 451:0.4861241 452:0.4861241 453:0.04348379 454:0.01985695 455:0.1928287 456:0.09139318 457:0.045357581 458:0.4861241 459:0.4861241 460:0.41287059 461:0.28486669 462:0.07989227 463:0.369957 464:0.41287059 465:0.25016961 466:0.16444451 467:0.41287059 468:0.41287059 469:0.39241949 470:0.3597067 471:0.033285551 472:0.39241949 473:0.39241949 474:0.39241949 475:0.1420199 476:0.2746774 477:0.39241949 478:0.32976481 479:0.358116 480:0.358116 481:0.358116 482:0.358116 483:0.358116 484:0.31862041 485:0.358116 486:0.12913489 487:0.33743039 488:0.33743039 489:0.33743039 490:0.33743039 491:0.33743039 492:0.33743039 493:0.29283869 494:0.33743039 495:0.33743039 496:0.5017094 497:0.5017094 498:0.5017094 499:0.02813822 500:0.03377879 501:0.01493479 502:0.0301628 503:0.084620498 504:0.479193 505:0.1586148 506:0.66335452 507:0.66335452 508:0.27594149 509:0.069275327 510:0.046001319 511:0.028839169 512:0.020569131 513:0.06186109 514:0.1263172 515:0.56419277 516:0.56419277 517:0.56419277 518:0.1131076 519:0.1031562 520:0.0059111882 521:0 522:0 523:0.02309824 524:0.33013481 525:0.6377598 526:0.6377598 527:0.1485464 528:0.1880407 529:0.04963614 530:0.074795537 531:0.071774408 532:0.37149519 533:0.37149519 534:0.37149519 535:0.37149519 536:0.34273681 537:0.2341744 538:0.1148053 539:0.34750351 540:0.37149519 541:0.51273203 542:0.51273203 543:0.1313556 544:0.082164861 545:0.1721978 546:0.1920283 547:0.14980841 548:0.30532309 549:0.51273203 550:0.39987659 551:0.30622801 552:0.070223399 553:0.087276541 554:0.39987659 555:0.39987659 556:0.30029109 557:0.39987659 558:0.39987659 559:0.3797794 560:0.1268151 561:0.1115546 562:0.3198199 563:0.3797794 564:0.3797794 565:0.3797794 566:0.3797794 567:0.3797794 568:0.42223769 569:0.20324069 570:0.028971029 571:0.41414851 572:0.42223769 573:0.40716591 574:0.198339 575:0.2052816 576:0.42223769 577:0.2390205 578:0.31689921 579:0.1674477 580:0.2243316 581:0.44936061 582:0.2903426 583:0.44936061 584:0.44936061 585:0.26366341 586:0.36053091 587:0.36053091 588:0.1400378 589:0.32984561 590:0.36053091 591:0.29680601 592:0.36053091 593:0.36053091 594:0.36053091 595:0.26547489 596:0.62836862 597:0.62836862 598:0.34172189 599:0.052635912 600:0.038977008 601:0.02357458 602:0.02834864 603:0.1055083 604:0.33965549 605:0.52343267 606:0.52343267 607:0.52343267 608:0.1648571 609:0.087455913 610:0.095986493 611:0.1056966 612:0.047433499 613:0.00332267 614:0.1436339 615:0.68637222 616:0.68637222 617:0.052035362 618:0.1539028 619:0.052882571 620:0.033202671 621:0 622:0.37773481 623:0.37773481 624:0.37773481 625:0.37773481 626:0.37773481 627:0.37773481 628:0.32206941 629:0.1613234 630:0.1018366 631:0.37555599 632:0.37555599 633:0.37555599 634:0.37555599 635:0.27520981 636:0.19433001 637:0.1910224 638:0.37555599 639:0.37555599 640:0.36899039 641:0.36899039 642:0.2766062 643:0.28919679 644:0.3668465 645:0.36899039 646:0.1442976 647:0.36899039 648:0.36899039 649:0.34083691 650:0.2828812 651:0.34083691 652:0.34083691 653:0.3215341 654:0.34083691 655:0.34083691 656:0.34083691 657:0.34083691 658:0.37234831 659:0.1957438 660:0.37234831 661:0.37234831 662:0.37234831 663:0.21916901 664:0.36897889 665:0.28384471 666:0.37234831 667:0.4473848 668:0.34331241 669:0.097562417 670:0.4473848 671:0.4473848 672:0.1804917 673:0.064024068 674:0.1756708 675:0.4473848 676:0.23982561 677:0.076215953 678:0.061136082 679:0.28100231 680:0.4645859 681:0.23156869 682:0.4645859 683:0.42992309 684:0.42331591 685:0.35955891 686:0.21969029 687:0.031126941 688:0.021975281 689:0.44129711 690:0.44129711 691:0.44129711 692:0.42427841 693:0.2288058 694:0.2614693 695:0.61923462 696:0.61923462 697:0.37724161 698:0.063304856 699:0.085523807 700:0.046628028 701:0.0096631618 702:0.051452361 703:0.084650032 704:0.25046179 705:0.67607367 706:0.67607367 707:0.055028532 708:0.029038601 709:0.051213089 710:0.049613439 711:0.015715821 712:0 713:0.0050857998 714:0.7025544 715:0.7025544 716:0.027319331 717:0.040764648 718:0.03633089 719:0.045469388 720:0 721:0.37459701 722:0.37459701 723:0.37459701 724:0.37459701 725:0.2579639 726:0.26979271 727:0.37459701 728:0.2185422 729:0.32794651 730:0.54281092 731:0.54281092 732:0.1031637 733:0.15546951 734:0.078347757 735:0.02684701 736:0.061644971 737:0.2552951 738:0.54281092 739:0.53803313 740:0.28372189 741:0.19192401 742:0.052919708 743:0.05354986 744:0.042102929 745:0.037607949 746:0.53803313 747:0.53803313 748:0.46036121 749:0.36315951 750:0.1368145 751:0.46036121 752:0.1196701 753:0.18231671 754:0.065970562 755:0.39634451 756:0.46036121 757:0.3650001 758:0.340826 759:0.3650001 760:0.3650001 761:0.21167471 762:0.18982729 763:0.3650001 764:0.3650001 765:0.3650001 766:0.43633059 767:0.0004478129 768:0.017772591 769:0.1124899 770:0.1753549 771:0.43633059 772:0.43633059 773:0.43633059 774:0.43633059 775:0.1822948 776:0 777:0.016771119 778:0.080566801 779:0.4516688 780:0.37345141 781:0.4516688 782:0.4516688 783:0.4516688 784:0.058536179 785:0.0012606781 786:0.0026413491 787:0.05930993 788:0.50094771 789:0.50094771 790:0.50094771 791:0.48093379 792:0.06245983 793:0.098211512 794:0.56112528 795:0.56112528 796:0.56112528 797:0.095229283 798:0.077276006 799:0.093689457 800:0.031418681 801:0.1239413 802:0 803:0.023577189 804:0.70306438 805:0.70306438 806:0.06186204 807:0 808:0 809:0 810:0 811:0 812:0 813:0.67759848 814:0.67759848 815:0.27378121 816:0 817:0 818:0 819:0 820:0 821:0.02159423 822:0.56598091 823:0.56598091 824:0.56598091 825:0.077315703 826:0.1354633 827:0.092470437 828:0 829:0.025957249 830:0.1987685 831:0.45841181 832:0.45841181 833:0.45841181 834:0.45841181 835:0.2694034 836:0.2018912 837:0.03653482 838:0.3605054 839:0.3605054 840:0.3605054 841:0.3605054 842:0.3605054 843:0.3605054 844:0.2437434 845:0.1650406 846:0.3605054 847:0.2842105 848:0.3712112 849:0.3712112 850:0.2280068 851:0.3712112 852:0.3712112 853:0.3712112 854:0.3712112 855:0.19168229 856:0.2080337 857:0.3868812 858:0.35904759 859:0.2325085 860:0.3868812 861:0.3868812 862:0.3868812 863:0.3868812 864:0.14661621 865:0.1597462 866:0.1156142 867:0.1989271 868:0.46188581 869:0.46188581 870:0.46188581 871:0.46188581 872:0.2406164 873:0.075357601 874:0.38257769 875:0.38257769 876:0.1211606 877:0.38257769 878:0.38257769 879:0.38257769 880:0.2750406 881:0.1663018 882:0.38257769 883:0.3787483 884:0.0065314798 885:0.1581063 886:0.2135891 887:0.44284841 888:0.44284841 889:0.44284841 890:0.2550661 891:0.3578586 892:0.01754096 893:0.049425092 894:0.7024231 895:0.7024231 896:0.05597809 897:0 898:0 899:0 900:0.01754096 901:0.03151064 902:0.023505781 903:0.69277728 904:0.69277728 905:0.1070596 906:0.023454189 907:0.01717044 908:0.001336155 909:0.1391027 910:0.2022745 911:0.034994472 912:0.48666829 913:0.48666829 914:0.48666829 915:0.065543413 916:0.036174711 917:0.00332841 918:0.48666829 919:0.3144697 920:0.058899861 921:0.3561267 922:0.49063519 923:0.49063519 924:0.1773355 925:0.1096265 926:0.01668483 927:0.49063519 928:0.1469461 929:0.33150169 930:0.4070994 931:0.4070994 932:0.4070994 933:0.4070994 934:0.1272538 935:0.1400122 936:0.4070994 937:0.4216885 938:0.4216885 939:0.4216885 940:0.4216885 941:0.3011173 942:0.1019736 943:0.070898473 944:0.024182539 945:0.4216885 946:0.3902275 947:0.3902275 948:0.3902275 949:0.3902275 950:0.3902275 951:0.039895959 952:0.1656799 953:0.2310735 954:0.3902275 955:0.3575564 956:0.3575564 957:0.3575564 958:0.2396351 959:0.3575564 960:0.2099441 961:0.3575564 962:0.3575564 963:0.3575564 964:0.45576769 965:0.1548132 966:0.45576769 967:0.3148348 968:0.45576769 969:0.1868331 970:0.05120666 971:0.062720843 972:0.45576769 973:0.39009589 974:0.39009589 975:0.3620804 976:0.39009589 977:0.39009589 978:0.30485171 979:0.01368614 980:0.1049026 981:0.39009589 982:0.42980841 983:0.065551318 984:0.12578399 985:0.4278577 986:0.42980841 987:0.42980841 988:0.17552041 989:0.150922 990:0.42980841 991:0.062874772 992:0.064505033 993:0.58926737 994:0.58926737 995:0.53572643 996:0.02395419 997:0 998:0 999:0.062874772 1000:0.42107329 1001:0.3693192 1002:0.42107329 1003:0.42107329 1004:0.373833 1005:0.035691161 1006:0.042403851 1007:0.085808963 1008:0.42107329 1009:0.48057851 1010:0.2568998 1011:0.1609098 1012:0.0460172 1013:0.1295788 1014:0.015937081 1015:0.43735719 1016:0.48057851 1017:0.48057851 1018:0.53081048 1019:0.1293745 1020:0.02103092 1021:0.02810234 1022:0.26240411 1023:0.001388663 1024:0.250184 1025:0.53081048 1026:0.53081048 1027:0.46338081 1028:0.46338081 1029:0.42967421 1030:0.01016788 1031:0.2296723 1032:0.0087774973 1033:0.02714622 1034:0.33603531 1035:0.46338081 1036:0.54222572 1037:0.2199554 1038:0.070328951 1039:0.0067283488 1040:0.241762 1041:0.032172952 1042:0.1694912 1043:0.51476657 1044:0.54222572 1045:0.43727621 1046:0.03631575 1047:0.01192979 1048:0.02780956 1049:0.43727621 1050:0.43727621 1051:0.43727621 1052:0.1932486 1053:0.43727621 1054:0.22638249 1055:0.37857601 1056:0.37857601 1057:0.32272801 1058:0.37857601 1059:0.37857601 1060:0.2601147 1061:0.37857601 1062:0.2378165 1063:0.31492001 1064:0.34446779 1065:0.40420699 1066:0.40420699 1067:0.40420699 1068:0.2844547 1069:0.1199085 1070:0.17118309 1071:0.40420699 1072:0.37150079 1073:0.29037431 1074:0.2363712 1075:0.34177399 1076:0.37150079 1077:0.37150079 1078:0.22186939 1079:0.37150079 1080:0.37150079 1081:0.42712119 1082:0.01364566 1083:0.03686263 1084:0.27113789 1085:0.42712119 1086:0.2051605 1087:0.38581279 1088:0.42712119 1089:0.42712119 #
-0.0049099835354526247 1:0.50269902 2:0.021936459 3:0 4:0.01145635 5:0.052845221 6:0.064698063 7:0.47882119 8:0.50269902 9:0.50269902 10:0.57588959 11:0.0076258988 12:0.016305599 13:0.021302501 14:0.0063802819 15:0.000374319 16:0.26116961 17:0.51178449 18:0.57588959 19:0.3644636 20:0.3644636 21:0.2578603 22:0.3644636 23:0.3644636 24:0.005541448 25:0.3644636 26:0.3644636 27:0.3644636 28:0.39674181 29:0.39674181 30:0.3757934 31:0.39674181 32:0.39674181 33:0.1989187 34:0.076348491 35:0.14965899 36:0.39674181 37:0.37719309 38:0.37719309 39:0.37719309 40:0.19993851 41:0.37719309 42:0.37719309 43:0.3138288 44:0.064186729 45:0.37719309 46:0.28535971 47:0.37925789 48:0.37925789 49:0.3355172 50:0.37925789 51:0.37925789 52:0.37925789 53:0.059741061 54:0.2818816 55:0.3651984 56:0.3651984 57:0.3651984 58:0.18165129 59:0.3651984 60:0.2505219 61:0.3651984 62:0.3168177 63:0.3651984 64:0.53529388 65:0.1456708 66:0.0080257924 67:0.0078729093 68:0.022171609 69:0.16029049 70:0.29581141 71:0.53529388 72:0.53529388 73:0.50765133 74:0.086147167 75:0.068239734 76:0.044930939 77:0.01016716 78:0.1529865 79:0.50765133 80:0.42917991 81:0.50765133 82:0.56289709 83:0.01283566 84:0.03078785 85:0.02052404 86:0.0081954766 87:0.022359369 88:0.2042516 89:0.56289709 90:0.56289709 91:0.54114199 92:0 93:0.001222083 94:0.1054319 95:0.068142913 96:0.2782082 97:0.1514305 98:0.54114199 99:0.54114199 100:0.3884415 101:0.001500782 102:0 103:0 104:0.001778705 105:0.0055112322 106:0.02704349 107:0.58382761 108:0.70741057 109:0.48445141 110:0.00086478039 111:0.0028314509 112:0.01040928 113:0 114:0 115:0.02131311 116:0.42942771 117:0.756818 118:0.53782171 119:0.05928256 120:0.02683858 121:0.2649954 122:0.2277265 123:0 124:0.02358065 125:0.53782171 126:0.53782171 127:0.43110809 128:0.43110809 129:0.1138107 130:0.17848469 131:0.20648549 132:0.43110809 133:0.24101581 134:0.32671461 135:0.43110809 136:0.38133931 137:0.38133931 138:0.1129755 139:0.0082389861 140:0.33292809 141:0.38133931 142:0.38133931 143:0.38133931 144:0.38133931 145:0.3697117 146:0.3697117 147:0.31094441 148:0.1064268 149:0.35617641 150:0.36220279 151:0.3401075 152:0.32327601 153:0.3697117 154:0.4293437 155:0.39583081 156:0.30866289 157:0.0086168144 158:0.00051032531 159:0.079611257 160:0.4293437 161:0.4293437 162:0.4293437 163:0.49473399 164:0.26859161 165:0.052042101 166:0.001854096 167:0.0001325269 168:0.1848495 169:0.38955241 170:0.49473399 171:0.49473399 172:0.4830609 173:0.1647879 174:0.02218266 175:0.0067019211 176:0.1505293 177:0.106924 178:0.4830609 179:0.4830609 180:0.4830609 181:0.47705901 182:0.00060310989 183:0.00037736801 184:0.02020962 185:0.2016906 186:0.209298 187:0.47705901 188:0.47705901 189:0.47705901 190:0.41908261 191:0.39275169 192:0.068535827 193:0.2174245 194:0.211358 195:0.20590261 196:0.41908261 197:0.41908261 198:0.41908261 199:0.49014631 200:0.25430861 201:0.40043771 202:0.1345056 203:0.051935401 204:0 205:0.097550742 206:0.49971861 207:0.49971861 208:0.39446741 209:0.2458767 210:0.1992282 211:0.046649821 212:0 213:0.01288766 214:0.1636111 215:0.59547943 216:0.59547943 217:0.61495352 218:0.29847449 219:0.059309792 220:0 221:0 222:0.003150512 223:0.035959899 224:0.37896791 225:0.61495352 226:0.53456092 227:0.25976881 228:0.052130848 229:0.0064146412 230:0.023098109 231:0.01278042 232:0.25779861 233:0.53456092 234:0.53456092 235:0.56338042 236:0.56338042 237:0.01481672 238:0.00042897969 239:0.024173521 240:0.1274137 241:0.071228974 242:0.1416674 243:0.56338042 244:0.55691969 245:0.55691969 246:0.097793333 247:0.01805906 248:0.064921901 249:0.095243581 250:0.042980582 251:0.1973244 252:0.55691969 253:0.466308 254:0.466308 255:0.466308 256:0.13343661 257:0.1248285 258:0.0487414 259:0.1306901 260:0.26967871 261:0.466308 262:0.41272071 263:0.41272071 264:0.41272071 265:0.3886888 266:0.15687031 267:0.046494789 268:0.1770301 269:0.32455301 270:0.41272071 271:0.40995851 272:0.40654221 273:0.40995851 274:0.1242275 275:0.033162989 276:0.047393098 277:0.40995851 278:0.37361181 279:0.40995851 280:0.55634338 281:0.02988711 282:0.1051564 283:0.1176348 284:0.1821195 285:0.096560359 286:0.42073089 287:0.3607122 288:0.55634338 289:0.42932129 290:0.16782171 291:0.1104161 292:0.4176921 293:0.132669 294:0.1613085 295:0.42932129 296:0.42932129 297:0.42932129 298:0.46887919 299:0.46887919 300:0.46887919 301:0.46887919 302:0.3161605 303:0.01285598 304:0.018730531 305:0.01147506 306:0.1237763 307:0.358064 308:0.358064 309:0.358064 310:0.30966571 311:0.358064 312:0.055327199 313:0.358064 314:0.358064 315:0.358064 316:0.47367549 317:0.47367549 318:0.34481919 319:0.01516091 320:0.098296203 321:0.022837229 322:0.25155061 323:0.359961 324:0.47367549 325:0.368 326:0.368 327:0.1347416 328:0.1737822 329:0.368 330:0.368 331:0.368 332:0.368 333:0.368 334:0.38888481 335:0.27494001 336:0.1125545 337:0.38888481 338:0.38888481 339:0.38888481 340:0.22917239 341:0.31492451 342:0.38888481 343:0.35044569 344:0.35044569 345:0.35044569 346:0.31914181 347:0.35044569 348:0.35044569 349:0.35044569 350:0.30503839 351:0.2544122 352:0.077376619 353:0.31881279 354:0.46711969 355:0.46711969 356:0.46711969 357:0.46711969 358:0.074479647 359:0.089317679 360:0.037113611 361:0.045617189 362:0.1519635 363:0.2786423 364:0.6079247 365:0.6079247 366:0.34586269 367:0.1375037 368:0.091781206 369:0.070835613 370:0.2259016 371:0.3437902 372:0.3437902 373:0.3437902 374:0.3437902 375:0.3437902 376:0.3437902 377:0.3437902 378:0.3437902 379:0.048587341 380:0.1038374 381:0.39528239 382:0.39528239 383:0.39528239 384:0.39528239 385:0.39528239 386:0.39528239 387:0.213118 388:0.3474122 389:0.3474122 390:0.29237741 391:0.3474122 392:0.3474122 393:0.3474122 394:0.32362199 395:0.28660381 396:0.3474122 397:0.64743078 398:0.1211226 399:0.235295 400:0.2243043 401:0.1168759 402:0.083707362 403:0.1127112 404:0.038542431 405:0.64743078 406:0.66908699 407:0.13124231 408:0.089612879 409:0.131432 410:0.1749002 411:0.067948647 412:0.097639851 413:0.1034198 414:0.66908699 415:0.67881888 416:0.1042225 417:0.13756479 418:0.037096791 419:0.058997761 420:0.022507031 421:0.1102552 422:0.15597101 423:0.67881888 424:0.56894678 425:0.2327159 426:0.1153933 427:0.2153268 428:0.35137111 429:0.25844431 430:0.084670193 431:0.1888267 432:0.56894678 433:0.39242399 434:0.39242399 435:0.39242399 436:0.39242399 437:0.39242399 438:0.27835709 439:0.0044680168 440:0.037565921 441:0.3836441 442:0.1817884 443:0.40415749 444:0.40415749 445:0.40415749 446:0.40415749 447:0.3055605 448:0.1829327 449:0.13916659 450:0.40415749 451:0.040730331 452:0.2685855 453:0.34053779 454:0.48210651 455:0.48210651 456:0.48210651 457:0.1160865 458:0.1660393 459:0.25902981 460:0.0059548821 461:0.059347119 462:0.2482394 463:0.46344519 464:0.46344519 465:0.46344519 466:0.46344519 467:0.26214051 468:0.048446681 469:0.045203891 470:0 471:0.25137609 472:0.3938764 473:0.3938764 474:0.3938764 475:0.3938764 476:0.3938764 477:0.3938764 478:0.0077389251 479:0.0095199207 480:0.27397659 481:0.46481121 482:0.46481121 483:0.46481121 484:0.46481121 485:0.2314893 486:0.04856411 487:0.25289631 488:0.079021983 489:0.3911247 490:0.3911247 491:0.3911247 492:0.3911247 493:0.3911247 494:0.1623717 495:0.36692551 496:0.62941021 497:0.092593841 498:0.01792568 499:0.019807359 500:0.01850404 501:0.1231539 502:0.185772 503:0.37695289 504:0.62941021 505:0.6259529 506:0.34382519 507:0.125962 508:0.14327221 509:0.050806969 510:0.085167237 511:0.042308401 512:0.209481 513:0.6259529 514:0.55228943 515:0.209823 516:0.05277583 517:0.04612124 518:0.01159871 519:0.005900803 520:0.1943984 521:0.54547173 522:0.55228943 523:0.504655 524:0.50099337 525:0.087229952 526:0.030749731 527:0.078465573 528:0.04191868 529:0.18241709 530:0.42996231 531:0.504655 532:0.42889029 533:0.42889029 534:0.1435089 535:0.2159895 536:0.2203332 537:0.26897749 538:0.2679297 539:0.42889029 540:0.42889029 541:0.37983611 542:0.37983611 543:0.24581911 544:0.37983611 545:0.37983611 546:0.37983611 547:0.1458683 548:0.221016 549:0.37983611 550:0.17061999 551:0.104095 552:0.1843646 553:0.45221469 554:0.5313102 555:0.5313102 556:0.046839751 557:0.247632 558:0.29692101 559:0.0031173241 560:0.091259018 561:0.32433859 562:0.25203389 563:0.58915079 564:0.58915079 565:0.32617429 566:0.12701941 567:0.01848826 568:0.047286872 569:0.001584987 570:0.046576481 571:0.4171353 572:0.4171353 573:0.4171353 574:0.4171353 575:0.4171353 576:0.3484478 577:0.090466097 578:0.0045034941 579:0.01212647 580:0.198419 581:0.43541449 582:0.43541449 583:0.43541449 584:0.43541449 585:0.43541449 586:0.062868632 587:0.001197235 588:0.033995051 589:0.43753251 590:0.43753251 591:0.43753251 592:0.43753251 593:0.43753251 594:0.1826105 595:0.63091701 596:0.095938273 597:0.08864826 598:0.097111203 599:0.040142059 600:0.0083124889 601:0.03006885 602:0.41049999 603:0.63091701 604:0.67290902 605:0.2487192 606:0.046755038 607:0.067443937 608:0.032554138 609:0.01764749 610:0.01455104 611:0.1322508 612:0.67290902 613:0.66364592 614:0.22424909 615:0.1584595 616:0.098161608 617:0.043154441 618:0.0003028455 619:0.0133813 620:0.1595268 621:0.66364592 622:0.49444789 623:0.3683556 624:0.1806456 625:0.080629632 626:0.24663331 627:0.089682467 628:0.13392121 629:0.49444789 630:0.49444789 631:0.39689341 632:0.2388546 633:0.074218623 634:0.066291057 635:0.39689341 636:0.37610999 637:0.39689341 638:0.39689341 639:0.39689341 640:0.367549 641:0.367549 642:0.19288249 643:0.1160964 644:0.367549 645:0.367549 646:0.367549 647:0.367549 648:0.367549 649:0.3390241 650:0.2087225 651:0.3400287 652:0.2229366 653:0.37930951 654:0.31126371 655:0.37930951 656:0.37930951 657:0.37930951 658:0.042134728 659:0.040857989 660:0.44262379 661:0.1266395 662:0.44262379 663:0.44262379 664:0.44262379 665:0.3706336 666:0.23465709 667:0.2690413 668:0.088605009 669:0.045721881 670:0.1184322 671:0.42412549 672:0.42412549 673:0.42412549 674:0.42412549 675:0.42412549 676:0.40569991 677:0.060076471 678:0.01324955 679:0.1171599 680:0.40569991 681:0.40569991 682:0.40569991 683:0.3943015 684:0.40569991 685:0.039957751 686:0 687:0.02351162 688:0.5455572 689:0.5455572 690:0.5455572 691:0.30065531 692:0.082970493 693:0.04718703 694:0.3433384 695:0.3433384 696:0.34003389 697:0.3433384 698:0.28673011 699:0.3433384 700:0.3433384 701:0.32368129 702:0.3233518 703:0.36883259 704:0.36883259 705:0.36883259 706:0.36883259 707:0.36883259 708:0.2766161 709:0.24091341 710:0.21338861 711:0.36883259 712:0.41634181 713:0.41634181 714:0.41634181 715:0.41634181 716:0.32331011 717:0.2024361 718:0.1463356 719:0.056520939 720:0.363814 721:0.39331099 722:0.39331099 723:0.39331099 724:0.28722259 725:0.39331099 726:0.30120611 727:0.078399137 728:0.2079297 729:0.39331099 730:0.34078619 731:0.075646937 732:0.38787681 733:0.2050301 734:0.38787681 735:0.38787681 736:0.28282121 737:0.38787681 738:0.38787681 739:0.43762311 740:0.079002097 741:0.1254033 742:0.213302 743:0.25106859 744:0.31475699 745:0.43762311 746:0.43762311 747:0.43762311 748:0.4575094 749:0.2378698 750:0.046718478 751:0.25231451 752:0.4575094 753:0.13484611 754:0.2432173 755:0.40953651 756:0.4575094 757:0.42076239 758:0.42076239 759:0.2062296 760:0.07277108 761:0.35655251 762:0.2703352 763:0.1989866 764:0.42076239 765:0.42076239 766:0.51393241 767:0.3468802 768:0.147064 769:0.030091841 770:0.051854569 771:0.069244772 772:0.2283524 773:0.51393241 774:0.51393241 775:0.36387229 776:0.33639291 777:0.086687453 778:0.36387229 779:0.36387229 780:0.28508171 781:0.36387229 782:0.36387229 783:0.36387229 784:0.1058649 785:0.059647009 786:0.037214499 787:0.31510651 788:0.61668563 789:0.61668563 790:0.27718839 791:0.1192084 792:0.16356739 793:0.38650841 794:0.38650841 795:0.028479271 796:0.124493 797:0.28895801 798:0.38650841 799:0.38650841 800:0.38650841 801:0.38650841 802:0.36798391 803:0.36798391 804:0.36798391 805:0.36798391 806:0.36798391 807:0.36798391 808:0.36798391 809:0.14743049 810:0.1634088 811:0.3658689 812:0.3658689 813:0.3658689 814:0.3658689 815:0.3658689 816:0.3658689 817:0.3658689 818:0.1529198 819:0.1895773 820:0.33732849 821:0.33732849 822:0.33732849 823:0.33732849 824:0.33732849 825:0.33732849 826:0.29377791 827:0.33732849 828:0.33732849 829:0.37131569 830:0.34635699 831:0.37131569 832:0.37131569 833:0.37131569 834:0.20696039 835:0.079009213 836:0.37131569 837:0.37131569 838:0.46046641 839:0.38147309 840:0.37469631 841:0.34190279 842:0.082108967 843:0.02961831 844:0.1201459 845:0.382716 846:0.46046641 847:0.69502169 848:0.1037132 849:0.038025979 850:0.02042464 851:0.06213497 852:0.019588949 853:0.032591071 854:0.095001459 855:0.69502169 856:0.64297807 857:0.1844772 858:0.111119 859:0.01358077 860:0.022985009 861:0.01878207 862:0.03065744 863:0.34402639 864:0.64297807 865:0.56204098 866:0.16968881 867:0.1014384 868:0.054105312 869:0.01316916 870:0.01411058 871:0.065828681 872:0.56204098 873:0.56204098 874:0.4474085 875:0.4474085 876:0.22792859 877:0.3079145 878:0.2027611 879:0.060766172 880:0.213642 881:0.39723721 882:0.4474085 883:0.237525 884:0.4030953 885:0.21448851 886:0.2449183 887:0.40847671 888:0.40847671 889:0.060103901 890:0.40847671 891:0.40847671 892:0.4479734 893:0.4479734 894:0.36599419 895:0.084257454 896:0.1163455 897:0.1115613 898:0.1605345 899:0.4479734 900:0.4479734 901:0.4716306 902:0.4716306 903:0.39378551 904:0.051976129 905:0.025694409 906:0.059025791 907:0.2290388 908:0.3370629 909:0.4716306 910:0.37342739 911:0.1480058 912:0.2345292 913:0.28752661 914:0.37342739 915:0.37342739 916:0.37342739 917:0.37342739 918:0.37342739 919:0.25397131 920:0.1726266 921:0.38904461 922:0.38904461 923:0.38904461 924:0.38904461 925:0.30758369 926:0.2245564 927:0.38904461 928:0.3727279 929:0.32627979 930:0.3727279 931:0.3727279 932:0.3727279 933:0.3727279 934:0.19148099 935:0.1399865 936:0.3727279 937:0.54739249 938:0.46649909 939:0.21631069 940:0.30846691 941:0.102241 942:0.048004679 943:0.087514378 944:0.1235971 945:0.54739249 946:0.56655759 947:0.3614361 948:0.21301299 949:0.1279943 950:0.114061 951:0.058365881 952:0.1047327 953:0.36412761 954:0.56655759 955:0.46748859 956:0.46748859 957:0.192882 958:0.096975662 959:0.070112333 960:0.054619681 961:0.25814989 962:0.46748859 963:0.46748859 964:0.34549129 965:0.34549129 966:0.2040443 967:0.34549129 968:0.34549129 969:0.34549129 970:0.34549129 971:0.34549129 972:0.34549129 973:0.36548361 974:0.36548361 975:0.36548361 976:0.36548361 977:0.36548361 978:0.22102 979:0.1115827 980:0.36548361 981:0.36548361 982:0.36507639 983:0.36507639 984:0.30646411 985:0.25103751 986:0.36507639 987:0.36507639 988:0.1993185 989:0.36507639 990:0.36507639 991:0.397192 992:0.397192 993:0.1877939 994:0.06593702 995:0.16201849 996:0.3759793 997:0.397192 998:0.397192 999:0.397192 1000:0.4498255 1001:0.4498255 1002:0.2509746 1003:0.14842311 1004:0.1372253 1005:0.069378681 1006:0.27833939 1007:0.4498255 1008:0.4498255 1009:0.42880809 1010:0.08065825 1011:0.04988309 1012:0.13806149 1013:0.42880809 1014:0.21972591 1015:0.42880809 1016:0.42880809 1017:0.42880809 1018:0.35195759 1019:0.35195759 1020:0.35195759 1021:0.074096538 1022:0.35195759 1023:0.35195759 1024:0.35195759 1025:0.35195759 1026:0.35195759 1027:0.33736181 1028:0.33736181 1029:0.33736181 1030:0.29347101 1031:0.33736181 1032:0.33736181 1033:0.33736181 1034:0.33736181 1035:0.33736181 1036:0.3682079 1037:0.3682079 1038:0.14967459 1039:0.34926271 1040:0.196143 1041:0.3682079 1042:0.3682079 1043:0.3682079 1044:0.3682079 1045:0.3598367 1046:0.33794239 1047:0.3598367 1048:0.3598367 1049:0.29841891 1050:0.1274808 1051:0.3598367 1052:0.3598367 1053:0.3598367 1054:0.41877121 1055:0.26145169 1056:0.24651121 1057:0.090384416 1058:0.37162891 1059:0.2158116 1060:0.38435939 1061:0.41877121 1062:0.41877121 1063:0.1786405 1064:0.076640531 1065:0.00707833 1066:0.060558829 1067:0.48329809 1068:0.48329809 1069:0.48329809 1070:0.48329809 1071:0.1391445 1072:0.3839843 1073:0.1017084 1074:0.036085341 1075:0.376766 1076:0.3839843 1077:0.3839843 1078:0.3839843 1079:0.32456839 1080:0.3839843 1081:0.3498196 1082:0.3498196 1083:0.13234439 1084:0.3498196 1085:0.3498196 1086:0.3498196 1087:0.3498196 1088:0.3498196 1089:0.3498196 #
-0.007764486456217883 1:0.42154291 2:0.42154291 3:0.40006581 4:0.1134119 5:0.2312631 6:0.18254609 7:0.1589805 8:0.42154291 9:0.42154291 10:0.45841351 11:0.25316989 12:0.1527705 13:0.095719554 14:0.1575 15:0.1828859 16:0.45841351 17:0.45841351 18:0.45841351 19:0.43799809 20:0.044257239 21:0.071872473 22:0.052987631 23:0.16273101 24:0.43799809 25:0.43799809 26:0.43799809 27:0.43799809 28:0.18467709 29:0.2094205 30:0.18157651 31:0.022971051 32:0.42055649 33:0.42055649 34:0.42055649 35:0.42055649 36:0.42055649 37:0.2250817 38:0.2669802 39:0.39969599 40:0.28429729 41:0.39969599 42:0.25685069 43:0.39969599 44:0.39969599 45:0.29705569 46:0.37723681 47:0.1912291 48:0.37723681 49:0.2209397 50:0.37723681 51:0.2387525 52:0.37723681 53:0.37723681 54:0.37723681 55:0.44777331 56:0.1161233 57:0.17911839 58:0.091405436 59:0.42046821 60:0.33245051 61:0.44777331 62:0.2297495 63:0.44777331 64:0.42846069 65:0.094534792 66:0.03198804 67:0.2105311 68:0.42846069 69:0.42846069 70:0.42846069 71:0.15343881 72:0.42846069 73:0.33413339 74:0.32171541 75:0.33413339 76:0.33413339 77:0.33413339 78:0.33413339 79:0.33413339 80:0.33413339 81:0.33413339 82:0.37799129 83:0.37799129 84:0.37799129 85:0.37799129 86:0.205171 87:0.2045128 88:0.37799129 89:0.234603 90:0.37799129 91:0.36680239 92:0.36680239 93:0.36680239 94:0.36680239 95:0.28803971 96:0.079885639 97:0.36680239 98:0.31578931 99:0.36680239 100:0.52811998 101:0.36484441 102:0.049890328 103:0.04937534 104:0.033319522 105:0.02116734 106:0.135635 107:0.52811998 108:0.52811998 109:0.69074512 110:0.047027301 111:0.01314941 112:0.02412815 113:0.018731199 114:0.060315039 115:0.0732878 116:0.1628515 117:0.69074512 118:0.59132421 119:0.088223599 120:0.1974601 121:0.040435899 122:0.018605281 123:0.047892909 124:0.42604139 125:0.249413 126:0.59132421 127:0.54131031 128:0.45180601 129:0.1795423 130:0.0083338944 131:0.03656837 132:0.1366917 133:0.37608501 134:0.1032727 135:0.54131031 136:0.46829289 137:0.46829289 138:0.46829289 139:0.043531161 140:0.02550572 141:0.039419211 142:0.19033501 143:0.27893171 144:0.46829289 145:0.65124822 146:0.1096533 147:0.1296284 148:0.02605911 149:0.068084963 150:0.01388922 151:0.072415113 152:0.32507059 153:0.65124822 154:0.6889379 155:0.1042557 156:0.019519759 157:0.004987692 158:0.052793689 159:0.039199531 160:0.04817342 161:0.16103411 162:0.6889379 163:0.42668021 164:0.055784129 165:0.0052158139 166:0.4077543 167:0.42668021 168:0.30434239 169:0.3774904 170:0.2122352 171:0.42668021 172:0.5208497 173:0.1146912 174:0.02186602 175:0.097983569 176:0.5208497 177:0.083698593 178:0.1020663 179:0.37455189 180:0.5208497 181:0.52787107 182:0.52787107 183:0.29783621 184:0.065313391 185:0.020374971 186:0 187:0.1176342 188:0.2270674 189:0.52787107 190:0.42910171 191:0.42910171 192:0.42910171 193:0.42910171 194:0.1882385 195:0 196:0.121332 197:0.1578517 198:0.42910171 199:0.44924119 200:0.031276919 201:0.0040137079 202:0.1757931 203:0.32816079 204:0.22057921 205:0.44924119 206:0.44924119 207:0.44924119 208:0.48454049 209:0.077380039 210:0.0149651 211:0.0273112 212:0.135573 213:0.1752279 214:0.48454049 215:0.48454049 216:0.48454049 217:0.47133729 218:0.1940356 219:0.47133729 220:0.01148722 221:0.47133729 222:0.2488814 223:0.049823061 224:0.06671232 225:0.47133729 226:0.62636638 227:0.058942609 228:0.1456553 229:0.0002926396 230:0.29424781 231:0.041237511 232:0.01751288 233:0.30951199 234:0.62636638 235:0.55404222 236:0.26089051 237:0.05316636 238:0.003440938 239:0.05077564 240:0.001436925 241:0.0098287649 242:0.55404222 243:0.55404222 244:0.48004821 245:0.4287174 246:0.062348951 247:0.003091906 248:0.24092039 249:0.27505001 250:0.38245249 251:0.25817069 252:0.48004821 253:0.40951881 254:0.23566981 255:0.37598279 256:0.068963028 257:0.1337578 258:0.3248632 259:0.40951881 260:0.40951881 261:0.40951881 262:0.3975817 263:0.32053521 264:0.3975817 265:0.1474534 266:0.386549 267:0.1924188 268:0.229811 269:0.3975817 270:0.3975817 271:0.51668447 272:0.51668447 273:0.27168149 274:0.030819651 275:0.2640343 276:0.025010349 277:0.1274903 278:0.1805467 279:0.51668447 280:0.4246825 281:0.38295129 282:0.041355599 283:0.080023207 284:0.4246825 285:0.1850027 286:0.4246825 287:0.29213879 288:0.4246825 289:0.44143689 290:0.44143689 291:0.2412941 292:0.19035091 293:0.44143689 294:0.2628653 295:0.1237287 296:0.19303121 297:0.44143689 298:0.43191341 299:0.0204066 300:0.0034046259 301:0.2298803 302:0.43191341 303:0.098318107 304:0.43191341 305:0.43191341 306:0.43191341 307:0.42588931 308:0.1354333 309:0.1545312 310:0.1443232 311:0.42588931 312:0.16058061 313:0.42588931 314:0.42588931 315:0.42588931 316:0.050111528 317:0.02758739 318:0.091252893 319:0.48221561 320:0.79003161 321:0.3241024 322:0.036784079 323:0.1084676 324:0.075323783 325:0.47046471 326:0.1598549 327:0.080793001 328:0.1380173 329:0.50042868 330:0.190658 331:0.1024777 332:0.41812101 333:0.50042868 334:0.54870838 335:0.27010131 336:0.0596973 337:0.049885228 338:0.1047279 339:0.01061435 340:0.034500081 341:0.54870838 342:0.54870838 343:0.36618349 344:0.36618349 345:0.36618349 346:0.36618349 347:0.31189069 348:0.1177046 349:0.2840232 350:0.36618349 351:0.36618349 352:0.34296989 353:0.29540661 354:0.34296989 355:0.34296989 356:0.34296989 357:0.34296989 358:0.34296989 359:0.34296989 360:0.29310369 361:0.27735731 362:0.35264039 363:0.35264039 364:0.2453519 365:0.35264039 366:0.35264039 367:0.35264039 368:0.35264039 369:0.3364827 370:0.4065659 371:0.4065659 372:0.4065659 373:0.1754964 374:0.4065659 375:0.073893793 376:0.083203807 377:0.35535479 378:0.4065659 379:0.040107928 380:0.06853094 381:0.019852251 382:0.29989821 383:0.91523552 384:0.18215621 385:0.1108355 386:0.095052958 387:0.0455404 388:0.42167351 389:0.2127836 390:0.42167351 391:0.42167351 392:0.42167351 393:0.1431495 394:0.1660589 395:0.1157611 396:0.42167351 397:0.4855901 398:0.30752549 399:0.12627859 400:0.29017729 401:0.4855901 402:0.073582731 403:0.1776816 404:0.2367494 405:0.4855901 406:0.3527188 407:0.034514342 408:0.3527188 409:0.3527188 410:0.3527188 411:0.3527188 412:0.3527188 413:0.3527188 414:0.3527188 415:0.055059768 416:0.002431588 417:0.3263914 418:0.5368014 419:0.5368014 420:0.5368014 421:0.069933072 422:0.1024761 423:0.072187997 424:0.37262589 425:0.37262589 426:0.37262589 427:0.37262589 428:0.37262589 429:0.37262589 430:0.082573943 431:0.13231871 432:0.37262589 433:0.4310272 434:0.4310272 435:0.40618181 436:0.1004297 437:0.086774647 438:0.043913871 439:0.2608228 440:0.4310272 441:0.4310272 442:0.38653359 443:0.38653359 444:0.38653359 445:0.38653359 446:0.38653359 447:0.271312 448:0.1280923 449:0.098341942 450:0.38653359 451:0.368615 452:0.368615 453:0.368615 454:0.368615 455:0.368615 456:0.368615 457:0.2821621 458:0.26200339 459:0.1810905 460:0.077688977 461:0.38335389 462:0.38335389 463:0.38335389 464:0.38335389 465:0.38335389 466:0.32712901 467:0.38335389 468:0.036876071 469:0.189421 470:0.1491363 471:0.1465176 472:0.4949424 473:0.64388508 474:0.29710039 475:0.1897992 476:0.28160441 477:0.2254612 478:0.003229758 479:0.029554909 480:0.057340529 481:0.41112921 482:0.90164232 483:0.064001247 484:0.01029767 485:0.01416839 486:0.021051539 487:0.080234431 488:0.36688831 489:0.5029406 490:0.5029406 491:0.5029406 492:0.2065699 493:0.092107557 494:0.062313721 495:0.2001168 496:0.35068029 497:0.35068029 498:0.35068029 499:0.35068029 500:0.35068029 501:0.1126182 502:0.35068029 503:0.35068029 504:0.35068029 505:0.27413201 506:0.19942041 507:0.37331951 508:0.37331951 509:0.37331951 510:0.37331951 511:0.37331951 512:0.37331951 513:0.2124823 514:0.001265591 515:0.005919164 516:0.022948241 517:0.52282143 518:0.59067422 519:0.59067422 520:0.1441908 521:0.040049508 522:0.003078124 523:0.3534458 524:0.37779519 525:0.37779519 526:0.1547889 527:0.37779519 528:0.37779519 529:0.2912851 530:0.37779519 531:0.2210179 532:0.36816359 533:0.36816359 534:0.3456102 535:0.1778549 536:0.17882 537:0.36816359 538:0.36816359 539:0.36816359 540:0.36816359 541:0.349792 542:0.349792 543:0.30088949 544:0.349792 545:0.2224628 546:0.349792 547:0.349792 548:0.349792 549:0.349792 550:0.3466239 551:0.3466239 552:0.3466239 553:0.3466239 554:0.1880216 555:0.3466239 556:0.3466239 557:0.3466239 558:0.3466239 559:0.2735917 560:0.1916085 561:0.3786689 562:0.3786689 563:0.3786689 564:0.27955219 565:0.2992501 566:0.3786689 567:0.3786689 568:0.1956293 569:0.10715 570:0.1761294 571:0.50218642 572:0.50218642 573:0.50218642 574:0.2692253 575:0.057514209 576:0.28608981 577:0.00058410899 578:0.0235088 579:0.076767571 580:0.55177218 581:0.82358658 582:0.049609348 583:0.01050202 584:0.0032208881 585:0.002390133 586:0.2301286 587:0.41739661 588:0.43800709 589:0.43800709 590:0.43800709 591:0.3940447 592:0.05356656 593:0.030890319 594:0.18384799 595:0.4090811 596:0.32263941 597:0.1370243 598:0.1996855 599:0.4090811 600:0.2217366 601:0.33854201 602:0.4090811 603:0.4090811 604:0.34365371 605:0.34365371 606:0.3403506 607:0.34365371 608:0.34365371 609:0.34365371 610:0.34365371 611:0.2324708 612:0.34365371 613:0.019236 614:0.03042482 615:0.38252211 616:0.51853132 617:0.51853132 618:0.45959941 619:0.3047685 620:0.053642001 621:0.049600929 622:0.16143849 623:0.063005663 624:0.15994599 625:0.4448925 626:0.4448925 627:0.4448925 628:0.3805325 629:0.43733671 630:0.1004236 631:0.34116599 632:0.1571006 633:0.1805118 634:0.37027949 635:0.37027949 636:0.37027949 637:0.37027949 638:0.37027949 639:0.37027949 640:0.350348 641:0.350348 642:0.22197901 643:0.350348 644:0.29667971 645:0.350348 646:0.350348 647:0.350348 648:0.350348 649:0.2538594 650:0.2913712 651:0.1821814 652:0.36828181 653:0.36828181 654:0.36828181 655:0.36828181 656:0.36828181 657:0.36828181 658:0.355367 659:0.33759171 660:0.25260451 661:0.3645049 662:0.3645049 663:0.3645049 664:0.1672616 665:0.3645049 666:0.3645049 667:0.193362 668:0.43366641 669:0.26883161 670:0.43366641 671:0.43366641 672:0.31538719 673:0.1603411 674:0.092543527 675:0.43366641 676:0.00060001318 677:0.0079378067 678:0.44125259 679:0.63182539 680:0.63182539 681:0.0136373 682:0.01397693 683:0.01167317 684:0.00060779479 685:0.1392424 686:0.33414441 687:0.45738599 688:0.45738599 689:0.45738599 690:0.45738599 691:0.14247601 692:0.03208407 693:0.079081468 694:0.68675399 695:0.086326487 696:0.02263087 697:0.02099872 698:0.036444388 699:0.02097887 700:0.025020581 701:0.19769271 702:0.68675399 703:0.55661899 704:0.1209931 705:0.023568841 706:0.1126543 707:0.1633213 708:0.27441111 709:0.4399128 710:0.22673251 711:0.55661899 712:0.41996181 713:0.1026059 714:0.29870039 715:0.41996181 716:0.41996181 717:0.38240501 718:0.36839411 719:0.080873221 720:0.28011259 721:0.1353204 722:0.071519949 723:0.4424147 724:0.46888629 725:0.46888629 726:0.46888629 727:0.1956221 728:0.2461013 729:0.1332754 730:0.40162349 731:0.20813181 732:0.12615331 733:0.16224851 734:0.32237011 735:0.40162349 736:0.40162349 737:0.40162349 738:0.40162349 739:0.3666862 740:0.25156641 741:0.1287977 742:0.3666862 743:0.3666862 744:0.3666862 745:0.3666862 746:0.33122411 747:0.3666862 748:0.36483979 749:0.2317578 750:0.10434 751:0.36483979 752:0.36483979 753:0.36483979 754:0.36483979 755:0.36483979 756:0.36483979 757:0.358275 758:0.358275 759:0.358275 760:0.28686669 761:0.358275 762:0.3274413 763:0.349583 764:0.2071161 765:0.358275 766:0.1633115 767:0.30202839 768:0.3229107 769:0.53053302 770:0.62579799 771:0.2194372 772:0.096716769 773:0.07502874 774:0.1880534 775:0.0067121489 776:0.0062895259 777:0.20270079 778:0.68945777 779:0.68945777 780:0.02642142 781:0.019629439 782:0.0077196672 783:0.0099016614 784:0.1515203 785:0.078507401 786:0.19124331 787:0.53747982 788:0.53747982 789:0.53747982 790:0.1668725 791:0.1090225 792:0.15016881 793:0.47395709 794:0.33191079 795:0.079845838 796:0.34391779 797:0.22988071 798:0.23323201 799:0.083322287 800:0.44383669 801:0.47395709 802:0.4790256 803:0.37099209 804:0.02377468 805:0.089055598 806:0.114345 807:0.31072959 808:0.2259651 809:0.4790256 810:0.4790256 811:0.41435131 812:0.41435131 813:0.31136751 814:0.37812889 815:0.41435131 816:0.23744281 817:0.1076832 818:0.034738909 819:0.41435131 820:0.4521912 821:0.28456599 822:0.4521912 823:0.2909621 824:0.4521912 825:0.092356041 826:0.032693751 827:0.048379488 828:0.4521912 829:0.57336092 830:0.095185407 831:0.27908731 832:0.0503769 833:0.27179971 834:0.029784231 835:0.24500971 836:0.33542451 837:0.57336092 838:0.4757807 839:0.020823469 840:0.01093298 841:0.086904787 842:0.29354391 843:0.01441215 844:0.47081259 845:0.4757807 846:0.4757807 847:0.4517355 848:0.03479559 849:0.1465219 850:0.072021209 851:0.4517355 852:0.202382 853:0.4517355 854:0.33226979 855:0.4517355 856:0.39338651 857:0.1345216 858:0.25997129 859:0.0606809 860:0.39338651 861:0.39338651 862:0.37801719 863:0.3805232 864:0.39338651 865:0.4615882 866:0.079693198 867:0.1091405 868:0.22524349 869:0.51297092 870:0.28528529 871:0.1144142 872:0.4196153 873:0.42322761 874:0.049208801 875:0.032820702 876:0.1016515 877:0.31539109 878:0.86476618 879:0.353306 880:0.03920614 881:0.048470229 882:0.039183971 883:0.087566167 884:0.084107727 885:0.060283981 886:0.45063499 887:0.47807869 888:0.47807869 889:0.47807869 890:0.28266761 891:0.090543807 892:0.3504456 893:0.3504456 894:0.3504456 895:0.3504456 896:0.3504456 897:0.3504456 898:0.1636526 899:0.3317101 900:0.3504456 901:0.351735 902:0.082132027 903:0.351735 904:0.351735 905:0.351735 906:0.351735 907:0.351735 908:0.351735 909:0.351735 910:0.33960021 911:0.32911009 912:0.33960021 913:0.33960021 914:0.33960021 915:0.33960021 916:0.2845965 917:0.33960021 918:0.33960021 919:0.1876139 920:0.33547479 921:0.4883604 922:0.4883604 923:0.4883604 924:0.048186149 925:0.06895335 926:0.041238699 927:0.35087791 928:0.4330399 929:0.16866671 930:0.4330399 931:0.28025749 932:0.4330399 933:0.0078053479 934:0.1956578 935:0.31661391 936:0.4330399 937:0.55841798 938:0.019228149 939:0.0026784169 940:0.0057258252 941:0.0028356819 942:0.00079803937 943:0.27526551 944:0.54274571 945:0.55841798 946:0.69683301 947:0.01232139 948:0.00669104 949:0.02777243 950:0.1338032 951:0.029775189 952:0.03103595 953:0.034213491 954:0.69683301 955:0.54472202 956:0.007454094 957:0.045654781 958:0.02326915 959:0.146405 960:0.050138231 961:0.2788623 962:0.54472202 963:0.54472202 964:0.48281461 965:0.079184078 966:0.25326201 967:0.038817089 968:0.4068253 969:0.01362984 970:0.2413232 971:0.48281461 972:0.48281461 973:0.4744871 974:0.1371695 975:0.4744871 976:0.1878096 977:0.4744871 978:0.19172341 979:0.059301909 980:0.018612601 981:0.4744871 982:0.4518272 983:0.084495626 984:0.0130912 985:0.055237219 986:0.4518272 987:0.4518272 988:0.4518272 989:0.2811777 990:0.29911989 991:0.38095191 992:0.34006089 993:0.38095191 994:0.1511043 995:0.38095191 996:0.34546891 997:0.1129155 998:0.38095191 999:0.38095191 1000:0.38586661 1001:0.22073489 1002:0.38586661 1003:0.2092088 1004:0.38586661 1005:0.38586661 1006:0.1853904 1007:0.35329589 1008:0.38586661 1009:0.42961159 1010:0.42961159 1011:0.42961159 1012:0.095476203 1013:0.42961159 1014:0.1437677 1015:0.045772411 1016:0.2024796 1017:0.42961159 1018:0.4370884 1019:0.37742129 1020:0.4370884 1021:0.292247 1022:0.4370884 1023:0.053448629 1024:0.0218997 1025:0.01604162 1026:0.4370884 1027:0.39967051 1028:0.39698979 1029:0.43003231 1030:0.43003231 1031:0.43003231 1032:0.062609904 1033:0.081029028 1034:0.1410886 1035:0.30527371 1036:0.35041699 1037:0.35041699 1038:0.35041699 1039:0.35041699 1040:0.35041699 1041:0.1302797 1042:0.35041699 1043:0.34638321 1044:0.35041699 1045:0.3748678 1046:0.25345549 1047:0.3748678 1048:0.29809389 1049:0.3748678 1050:0 1051:0.3748678 1052:0.3748678 1053:0.3748678 1054:0.3676368 1055:0.1650746 1056:0.3676368 1057:0.151591 1058:0.3676368 1059:0.3676368 1060:0.3676368 1061:0.3676368 1062:0.3676368 1063:0.417759 1064:0.25501671 1065:0.20050479 1066:0.01843103 1067:0.39070851 1068:0.20265099 1069:0.417759 1070:0.41588849 1071:0.417759 1072:0.38762921 1073:0.0049155741 1074:0.1098642 1075:0.40473959 1076:0.40473959 1077:0.40473959 1078:0.40473959 1079:0.1305339 1080:0.4016344 1081:0.42926621 1082:0.036456741 1083:0.091842823 1084:0.1331698 1085:0.42926621 1086:0.42926621 1087:0.42926621 1088:0.2164863 1089:0.42926621 #
-0.0083229953393431175 1:0.41856241 2:0.28264251 3:0.092984922 4:0.094709881 5:0.38892719 6:0.41856241 7:0.41856241 8:0.21511289 9:0.41856241 10:0.5361374 11:0.1765082 12:0.028358839 13:0 14:0.2320043 15:0.1451195 16:0.48989421 17:0.27003321 18:0.5361374 19:0.4209868 20:0.1839363 21:0.2087819 22:0.16826411 23:0.4209868 24:0.062529221 25:0.4209868 26:0.4209868 27:0.4209868 28:0.3470332 29:0.1868698 30:0.3470332 31:0.34436601 32:0.3470332 33:0.3470332 34:0.3470332 35:0.3470332 36:0.3470332 37:0.26993179 38:0.34561089 39:0.34561089 40:0.29589769 41:0.34561089 42:0.34561089 43:0.34561089 44:0.34561089 45:0.34561089 46:0.3752192 47:0.3010489 48:0.3752192 49:0.2376651 50:0.3752192 51:0.066330329 52:0.3752192 53:0.3752192 54:0.3752192 55:0.3576366 56:0.3576366 57:0.3576366 58:0.3576366 59:0.34990889 60:0.1379568 61:0.3226749 62:0.33364639 63:0.3576366 64:0.33672979 65:0.33672979 66:0.33672979 67:0.33672979 68:0.2992321 69:0.33672979 70:0.33672979 71:0.33672979 72:0.33672979 73:0.37982529 74:0.37982529 75:0.37982529 76:0.37982529 77:0.3096267 78:0.1538083 79:0.12646399 80:0.37329641 81:0.37982529 82:0.33830029 83:0.33830029 84:0.33830029 85:0.33830029 86:0.32629639 87:0.29836321 88:0.33830029 89:0.33830029 90:0.33830029 91:0.33284569 92:0.3539359 93:0.29462871 94:0.131276 95:0.3622939 96:0.3622939 97:0.3622939 98:0.3622939 99:0.3622939 100:0.37832031 101:0.3959094 102:0.2915774 103:0.3959094 104:0.33072689 105:0.3959094 106:0.3959094 107:0.1641344 108:0.067852013 109:0.36714989 110:0.38112369 111:0.38112369 112:0.018020559 113:0.38112369 114:0.38112369 115:0.1837879 116:0.38112369 117:0.31782761 118:0.39873511 119:0.39873511 120:0.39873511 121:0.040817 122:0.371883 123:0.1180966 124:0.21715949 125:0.39873511 126:0.39873511 127:0.35865521 128:0.31485319 129:0.35865521 130:0.1886647 131:0.3129085 132:0.34729019 133:0.35865521 134:0.35865521 135:0.35865521 136:0.34308869 137:0.34308869 138:0.34308869 139:0.23429289 140:0.34308869 141:0.34308869 142:0.34308869 143:0.34308869 144:0.34308869 145:0.23054761 146:0.1758794 147:0.39539 148:0.39539 149:0.39539 150:0.2034276 151:0.29818609 152:0.39539 153:0.39539 154:0.35912901 155:0.35912901 156:0.34746411 157:0.35912901 158:0.35912901 159:0.27339929 160:0.1645958 161:0.35912901 162:0.35912901 163:0.2582038 164:0.3765204 165:0.3765204 166:0.3765204 167:0.3765204 168:0.3765204 169:0.1578702 170:0.2324658 171:0.3765204 172:0.33968911 173:0.33968911 174:0.33968911 175:0.31413701 176:0.33968911 177:0.33968911 178:0.30033809 179:0.33968911 180:0.33968911 181:0.36781311 182:0.36781311 183:0.25460631 184:0.27045491 185:0.36781311 186:0.36781311 187:0.2159546 188:0.36781311 189:0.36781311 190:0.33700809 191:0.31386459 192:0.33700809 193:0.33700809 194:0.33700809 195:0.33700809 196:0.33700809 197:0.3210929 198:0.33700809 199:0.0287237 200:0.29336491 201:0.4271681 202:0.4271681 203:0.4271681 204:0.4271681 205:0.40514621 206:0.1201712 207:0.01923603 208:0.1284586 209:0.21814241 210:0.3919715 211:0.1007298 212:0.3919715 213:0.3919715 214:0.3919715 215:0.3919715 216:0.3919715 217:0.427827 218:0.073329203 219:0.1971992 220:0.1414852 221:0.2553001 222:0.36622611 223:0.427827 224:0.427827 225:0.427827 226:0.33277869 227:0.33277869 228:0.33277869 229:0.33277869 230:0.33277869 231:0.33277869 232:0.33277869 233:0.33277869 234:0.33277869 235:0.33502829 236:0.33502829 237:0.33502829 238:0.33502829 239:0.33502829 240:0.33502829 241:0.33502829 242:0.31416729 243:0.33502829 244:0.27805939 245:0.37182891 246:0.37182891 247:0.37182891 248:0.37182891 249:0.2250873 250:0.28502861 251:0.37182891 252:0.30948171 253:0.36512661 254:0.36512661 255:0.36512661 256:0.29575181 257:0.36512661 258:0.30805361 259:0.1764085 260:0.3409968 261:0.36512661 262:0.3693212 263:0.34268421 264:0.1569339 265:0.2101621 266:0.3693212 267:0.3693212 268:0.3693212 269:0.3578977 270:0.3693212 271:0.39430511 272:0.26313099 273:0.045183491 274:0.17317089 275:0.34265241 276:0.39430511 277:0.39430511 278:0.39430511 279:0.39430511 280:0.35540739 281:0.1381804 282:0.36750269 283:0.36750269 284:0.36750269 285:0.32865709 286:0.2600258 287:0.36750269 288:0.36750269 289:0.39043859 290:0.2083375 291:0.3957983 292:0.3957983 293:0.3957983 294:0.3957983 295:0.1332082 296:0.37180179 297:0.1326385 298:0.085939012 299:0.1830809 300:0.4501206 301:0.49150801 302:0.49150801 303:0.2271046 304:0.046340059 305:0.39669871 306:0.23942509 307:0.22710641 308:0.46460941 309:0.46460941 310:0.46460941 311:0.46460941 312:0.1430288 313:0.05708063 314:0.098849148 315:0.2164436 316:0.41386241 317:0.41386241 318:0.27824649 319:0.28864041 320:0.41386241 321:0.2689648 322:0.1599644 323:0.2281931 324:0.41386241 325:0.35836431 326:0.28105581 327:0.35836431 328:0.35836431 329:0.35836431 330:0.35836431 331:0.241707 332:0.297414 333:0.35836431 334:0.28612521 335:0.3575975 336:0.3575975 337:0.3575975 338:0.3575975 339:0.3575975 340:0.34779871 341:0.16229521 342:0.3575975 343:0.3631247 344:0.3631247 345:0.32860029 346:0.3631247 347:0.116969 348:0.35292399 349:0.30142829 350:0.3631247 351:0.3631247 352:0.41788661 353:0.41788661 354:0.41788661 355:0.056174658 356:0.1049093 357:0.28888401 358:0.1583164 359:0.41788661 360:0.41788661 361:0.44799119 362:0.44799119 363:0.3522068 364:0.2270804 365:0.063730016 366:0.1124856 367:0.35402951 368:0.27526379 369:0.44799119 370:0.39687121 371:0.37317359 372:0.055385049 373:0.39687121 374:0.3102439 375:0.1101604 376:0.39687121 377:0.33955231 378:0.39687121 379:0.33242959 380:0.19871999 381:0.19503801 382:0.3670364 383:0.3670364 384:0.3670364 385:0.3670364 386:0.3670364 387:0.3670364 388:0.14624681 389:0.1812883 390:0.1229896 391:0.4919959 392:0.51562101 393:0.51562101 394:0.28171131 395:0.090219937 396:0.2533367 397:0.38677961 398:0.38677961 399:0.38677961 400:0.38677961 401:0.38677961 402:0.084617637 403:0.070633113 404:0.29393211 405:0.38677961 406:0.2481266 407:0.51355988 408:0.51355988 409:0.44094411 410:0.22242559 411:0 412:0.00065947691 413:0.33768639 414:0.2188133 415:0.36832339 416:0.45346421 417:0.45346421 418:0.26815721 419:0.3314341 420:0.1168806 421:0.056502081 422:0.2104962 423:0.45346421 424:0.38377121 425:0.38377121 426:0.38377121 427:0.38377121 428:0.38377121 429:0.2450255 430:0.051235061 431:0.22320791 432:0.38377121 433:0.09049803 434:0.42028889 435:0.42028889 436:0.42028889 437:0.42028889 438:0.42028889 439:0.047968209 440:0.040229041 441:0.31698361 442:0.33342969 443:0.37961841 444:0.37961841 445:0.37961841 446:0.37961841 447:0.37961841 448:0.04256596 449:0.28779981 450:0.28256121 451:0.36177331 452:0.36177331 453:0.2159604 454:0.36177331 455:0.36177331 456:0.36177331 457:0.183268 458:0.36177331 459:0.36177331 460:0.34074211 461:0.34074211 462:0.34074211 463:0.34074211 464:0.34074211 465:0.34074211 466:0.34074211 467:0.26029599 468:0.34074211 469:0.33888939 470:0.33888939 471:0.33888939 472:0.33888939 473:0.33888939 474:0.2790086 475:0.33888939 476:0.33888939 477:0.33888939 478:0.19784039 479:0.1481452 480:0.46406609 481:0.46406609 482:0.46406609 483:0.46406609 484:0.1501293 485:0.1435544 486:0.1723388 487:0.042661522 488:0.1088604 489:0.38679111 490:0.521321 491:0.521321 492:0.521321 493:0.1150032 494:0.029610761 495:0.045678411 496:0.3665382 497:0.3665382 498:0.3665382 499:0.3665382 500:0.3665382 501:0.36471829 502:0.1794651 503:0.3586075 504:0.1753867 505:0.38052899 506:0.38052899 507:0.38052899 508:0.38052899 509:0.2060155 510:0.1135593 511:0.26841429 512:0.38052899 513:0.38052899 514:0.4195388 515:0.4195388 516:0.4195388 517:0.4195388 518:0.07618995 519:0.030305799 520:0.1129255 521:0.31027269 522:0.4195388 523:0.40886021 524:0.40886021 525:0.40886021 526:0.40886021 527:0.40886021 528:0.14148331 529:0.1367836 530:0.2100319 531:0.27792391 532:0.1492704 533:0.46876979 534:0.46876979 535:0.46876979 536:0.46876979 537:0.2739825 538:0.0207572 539:0.093268313 540:0.09929546 541:0.35082641 542:0.36488709 543:0.36488709 544:0.36488709 545:0.36488709 546:0.36488709 547:0.002588982 548:0.2727873 549:0.36488709 550:0.2309572 551:0.38628769 552:0.21351101 553:0.38628769 554:0.38628769 555:0.38628769 556:0.043626562 557:0.38628769 558:0.38628769 559:0.35904479 560:0.35904479 561:0.35904479 562:0.35904479 563:0.35904479 564:0.20748191 565:0.2257698 566:0.35904479 567:0.35904479 568:0.36616239 569:0.36616239 570:0.145209 571:0.36616239 572:0.36616239 573:0.1916558 574:0.36616239 575:0.36616239 576:0.36616239 577:0.069725432 578:0.29121029 579:0.45863301 580:0.45863301 581:0.45863301 582:0.45863301 583:0.14633501 584:0.1801451 585:0.1025207 586:0.072234727 587:0.2029873 588:0.46699539 589:0.46699539 590:0.46699539 591:0.46699539 592:0.14516971 593:0.21702731 594:0.091650687 595:0.35445729 596:0.35445729 597:0.35445729 598:0.35445729 599:0.35445729 600:0.35445729 601:0.30010861 602:0.35445729 603:0.1640529 604:0.3377606 605:0.3377606 606:0.3377606 607:0.3377606 608:0.2897718 609:0.3377606 610:0.3377606 611:0.3377606 612:0.3377606 613:0.39895171 614:0.39895171 615:0.39895171 616:0.2169807 617:0.1410374 618:0.109357 619:0.3482399 620:0.39895171 621:0.39895171 622:0.39357471 623:0.1985855 624:0.39357471 625:0.39357471 626:0.39357471 627:0.39357471 628:0.36510569 629:0.1188433 630:0.1862814 631:0.34810171 632:0.33469769 633:0.34810171 634:0.34810171 635:0.34810171 636:0.26576611 637:0.29465061 638:0.34810171 639:0.34810171 640:0.40671769 641:0.05562865 642:0.1991106 643:0.26437131 644:0.40671769 645:0.237084 646:0.40671769 647:0.40671769 648:0.40671769 649:0.39322609 650:0.26008219 651:0.21033891 652:0.39322609 653:0.17341881 654:0.3136439 655:0.39322609 656:0.37044901 657:0.39322609 658:0.40849319 659:0.26256141 660:0.40849319 661:0.25142041 662:0.34626919 663:0.35313699 664:0.1296915 665:0.31896749 666:0.40849319 667:0.34523249 668:0.34523249 669:0.34523249 670:0.34523249 671:0.33405551 672:0.22507641 673:0.34523249 674:0.34523249 675:0.34523249 676:0.05603027 677:0.2095622 678:0.4885934 679:0.4885934 680:0.4885934 681:0.39599261 682:0.21850009 683:0.1449343 684:0.079595387 685:0.057892561 686:0.073868953 687:0.4429951 688:0.4429951 689:0.4429951 690:0.4429951 691:0.4429951 692:0.05882223 693:0.04564302 694:0.42965791 695:0.240511 696:0.1253707 697:0.26182279 698:0.42965791 699:0.04305084 700:0.33662489 701:0.42965791 702:0.42965791 703:0.2086609 704:0.2009127 705:0.34533891 706:0.1420192 707:0.39312571 708:0.39312571 709:0.39312571 710:0.39312571 711:0.39312571 712:0.3751336 713:0.3697024 714:0.218178 715:0.1784901 716:0.2765609 717:0.3751336 718:0.3751336 719:0.3751336 720:0.3751336 721:0.14862999 722:0.077625647 723:0.2077789 724:0.45924789 725:0.45924789 726:0.45924789 727:0.45924789 728:0.26377729 729:0.1044559 730:0.36327431 731:0.13437299 732:0.2335313 733:0.36327431 734:0.36327431 735:0.36327431 736:0.36327431 737:0.36327431 738:0.36327431 739:0.40315399 740:0.2484419 741:0.1759728 742:0.1549724 743:0.3267985 744:0.34976649 745:0.40315399 746:0.40315399 747:0.40315399 748:0.36664879 749:0.36664879 750:0.32027051 751:0.2313942 752:0.36664879 753:0.36664879 754:0.36664879 755:0.18339141 756:0.36664879 757:0.454413 758:0.03114946 759:0.454413 760:0.1377712 761:0.454413 762:0.3612555 763:0.05568929 764:0.1262465 765:0.454413 766:0.4420341 767:0.31662479 768:0.2899377 769:0.32824671 770:0.20371731 771:0.2059841 772:0.40913871 773:0.24781179 774:0.4420341 775:0.38849041 776:0.38849041 777:0.38849041 778:0.38849041 779:0.38849041 780:0.300322 781:0.31584671 782:0.1414952 783:0.1775434 784:0.13855059 785:0.1430244 786:0.48260549 787:0.48260549 788:0.48260549 789:0.45547399 790:0.09933462 791:0.087459303 792:0.17840999 793:0.40068579 794:0.28889051 795:0.095879182 796:0.1474527 797:0.2808181 798:0.40068579 799:0.40068579 800:0.40068579 801:0.40068579 802:0.37140161 803:0.19979499 804:0.2779727 805:0.37140161 806:0.37140161 807:0.37140161 808:0.2268648 809:0.37140161 810:0.37140161 811:0.40219259 812:0.40219259 813:0.1463294 814:0.15954059 815:0.099708423 816:0.40219259 817:0.40219259 818:0.3610827 819:0.40219259 820:0.3710258 821:0.2086238 822:0.098457679 823:0.3852559 824:0.25132191 825:0.3852559 826:0.3852559 827:0.3852559 828:0.3852559 829:0.22312979 830:0.1732478 831:0.1312464 832:0.26163879 833:0.40754059 834:0.40754059 835:0.40754059 836:0.40754059 837:0.40754059 838:0.32543901 839:0.34822679 840:0.34822679 841:0.34822679 842:0.34822679 843:0.2043943 844:0.34822679 845:0.34822679 846:0.34822679 847:0.1596345 848:0.3210645 849:0.2747114 850:0.40908059 851:0.40908059 852:0.34018999 853:0.27161169 854:0.40908059 855:0.3167628 856:0.30280089 857:0.068753861 858:0.13911369 859:0.40589151 860:0.52881062 861:0.52881062 862:0.20994771 863:0.18858381 864:0.2743721 865:0.34697509 866:0.34697509 867:0.34697509 868:0.26765639 869:0.28662071 870:0.34697509 871:0.34697509 872:0.34697509 873:0.34697509 874:0.36258101 875:0.36258101 876:0.33881551 877:0.36258101 878:0.36258101 879:0.26768649 880:0.14538009 881:0.36258101 882:0.36258101 883:0.39006439 884:0.26216111 885:0.39006439 886:0.39006439 887:0.39006439 888:0.3360807 889:0.1491884 890:0.1772455 891:0.39006439 892:0.41067591 893:0.30277979 894:0.172913 895:0.26036891 896:0.41067591 897:0.119704 898:0.34290439 899:0.41067591 900:0.41067591 901:0.48276219 902:0.1004533 903:0.05417072 904:0.28134581 905:0.48276219 906:0.12765069 907:0.15787859 908:0.40323561 909:0.48276219 910:0.55577707 911:0.55577707 912:0.04476887 913:0.096105613 914:0.2141726 915:0.032489151 916:0.056023359 917:0.080503963 918:0.55577707 919:0.42948681 920:0.42948681 921:0.089840338 922:0.02609564 923:0.19161759 924:0.1671686 925:0.42948681 926:0.42948681 927:0.42948681 928:0.37400439 929:0.37400439 930:0.095845409 931:0.089005709 932:0.37400439 933:0.37400439 934:0.37400439 935:0.37400439 936:0.37400439 937:0.438122 938:0.27780321 939:0.099753439 940:0.1828298 941:0.438122 942:0.3600148 943:0.074963517 944:0.40495521 945:0.438122 946:0.46658459 947:0.36099631 948:0.1042198 949:0.1063895 950:0.46658459 951:0.13881519 952:0.1883609 953:0.36740661 954:0.46658459 955:0.44242871 956:0.080809399 957:0.1291611 958:0.28265801 959:0.44242871 960:0.075373366 961:0.3847523 962:0.3892653 963:0.44242871 964:0.36202899 965:0.27799901 966:0.30659521 967:0.31744701 968:0.36202899 969:0.26268169 970:0.36202899 971:0.36202899 972:0.36202899 973:0.3623454 974:0.3623454 975:0.3623454 976:0.3623454 977:0.3623454 978:0.3623454 979:0.18151771 980:0.2106463 981:0.3623454 982:0.35060179 983:0.2186075 984:0.35060179 985:0.35060179 986:0.35060179 987:0.35060179 988:0.29708049 989:0.35060179 990:0.35060179 991:0.40637031 992:0.1546659 993:0.40637031 994:0.40637031 995:0.40637031 996:0.36500189 997:0.014332 998:0.1135914 999:0.40637031 1000:0.51915872 1001:0.059369501 1002:0.06214644 1003:0.41664711 1004:0.51915872 1005:0.06061893 1006:0.0057551749 1007:0.039349642 1008:0.51915872 1009:0.4785395 1010:0.048318699 1011:0.030124091 1012:0.2526367 1013:0.4785395 1014:0.27503839 1015:0.361173 1016:0.1872451 1017:0.4785395 1018:0.46987301 1019:0.187986 1020:0.16809019 1021:0.22046 1022:0.46987301 1023:0.43004689 1024:0.121385 1025:0.1452395 1026:0.46987301 1027:0.449705 1028:0.086045958 1029:0.05210612 1030:0.22687601 1031:0.449705 1032:0.40967011 1033:0.15246519 1034:0.3689681 1035:0.449705 1036:0.464892 1037:0.1537535 1038:0.071852848 1039:0.14278419 1040:0.464892 1041:0.464892 1042:0.041434798 1043:0.28275651 1044:0.464892 1045:0.56524879 1046:0.0484621 1047:0.028621729 1048:0.090464167 1049:0.56524879 1050:0.1434281 1051:0.02781482 1052:0.056036308 1053:0.56524879 1054:0.53961152 1055:0.09031269 1056:0.1346405 1057:0.2130322 1058:0.53961152 1059:0.070310049 1060:0.025983259 1061:0.2092452 1062:0.53961152 1063:0.51064122 1064:0.1080959 1065:0.120121 1066:0.063495956 1067:0.51064122 1068:0.2066953 1069:0.089780219 1070:0.3629159 1071:0.51064122 1072:0.39741749 1073:0.39741749 1074:0.39741749 1075:0.066204272 1076:0.39741749 1077:0.34484559 1078:0.23565941 1079:0.16580009 1080:0.39741749 1081:0.363565 1082:0.363565 1083:0.34500349 1084:0.1564327 1085:0.363565 1086:0.363565 1087:0.33002529 1088:0.2881926 1089:0.363565 #
0.0083229953393431175 1:0.50018162 2:0.40244359 3:0.1014669 4:0 5:0.02896847 6:0 7:0.26714081 8:0.50018162 9:0.50018162 10:0.60675317 11:0.1176088 12:0.057577658 13:0.01395045 14:0.098488078 15:0 16:0.1945304 17:0.4390434 18:0.60675317 19:0.39486319 20:0.39486319 21:0.39486319 22:0.143604 23:0.1965002 24:0.146492 25:0.3684786 26:0.39486319 27:0.39486319 28:0.093138218 29:0.090433031 30:0.19255529 31:0.019169111 32:0.4794243 33:0.4794243 34:0.4794243 35:0.4794243 36:0.1467067 37:0.24250519 38:0.4620623 39:0.4620623 40:0.4620623 41:0.32663411 42:0.088577792 43:0.28698021 44:0.1545788 45:0.27437741 46:0.42903849 47:0.37697339 48:0.42903849 49:0.33068031 50:0.42903849 51:0.061701741 52:0.063472152 53:0.01113071 54:0.42903849 55:0.2486065 56:0.37167519 57:0.37167519 58:0.37167519 59:0.37167519 60:0.37167519 61:0.37167519 62:0.24072 63:0.21835899 64:0.4148137 65:0.4148137 66:0.4148137 67:0.4148137 68:0.4148137 69:0.094298333 70:0.29253021 71:0.092015103 72:0.1804755 73:0.52778912 74:0.52778912 75:0.52778912 76:0.03027511 77:0.083577372 78:0 79:0.1217038 80:0.040671349 81:0.36698449 82:0.44033021 83:0.44033021 84:0.44033021 85:0.1398358 86:0.33089891 87:0.1256955 88:0.3008827 89:0.2894443 90:0.3078531 91:0.1041188 92:0.06040474 93:0.055276409 94:0.1014949 95:0.4938595 96:0.4938595 97:0.4938595 98:0.47124499 99:0.1160092 100:0.62376279 101:0.4186219 102:0.1882779 103:0.01248369 104:0.0573465 105:0.01475344 106:0.02733152 107:0.022584431 108:0.62376279 109:0.61295182 110:0.3738066 111:0.055243969 112:0.017847709 113:0.25278881 114:0 115:0.0703471 116:0.1746632 117:0.61295182 118:0.39810291 119:0.39810291 120:0.39810291 121:0.25340751 122:0.23360801 123:0.1150528 124:0.31082851 125:0.36529401 126:0.39810291 127:0.33879721 128:0.36284819 129:0.36595851 130:0.095324449 131:0.36595851 132:0.26680791 133:0.36595851 134:0.36595851 135:0.36595851 136:0.4171074 137:0.4171074 138:0.4171074 139:0.097533762 140:0.2945967 141:0.01480436 142:0.17152619 143:0.4171074 144:0.4171074 145:0.3723731 146:0.3723731 147:0.3723731 148:0.087293513 149:0.35348701 150:0.2050558 151:0.35825971 152:0.3723731 153:0.3723731 154:0.40884691 155:0.47576001 156:0.47576001 157:0.47576001 158:0.1992711 159:0.059718288 160:0.082873844 161:0.1773582 162:0.25971201 163:0.30056629 164:0.49594459 165:0.49594459 166:0.49594459 167:0.38212889 168:0.01250206 169:0.004897879 170:0.0081355888 171:0.1433688 172:0.47478291 173:0.47478291 174:0.47478291 175:0.064794533 176:0.18057521 177:0.04505403 178:0.1542636 179:0.1759249 180:0.47478291 181:0.36096299 182:0.28419319 183:0.36096299 184:0.25223449 185:0.36096299 186:0.36096299 187:0.36096299 188:0.26502809 189:0.36096299 190:0.28733301 191:0.073926963 192:0.2351391 193:0.48592779 194:0.48592779 195:0.48592779 196:0.2398794 197:0.092808187 198:0.27802509 199:0.40901271 200:0.40901271 201:0.40901271 202:0.076691411 203:0.38094771 204:0.09063521 205:0.39242509 206:0.1163342 207:0.40901271 208:0.39962509 209:0.39962509 210:0.38764089 211:0.127535 212:0.39962509 213:0 214:0.39962509 215:0.1759997 216:0.39962509 217:0.41350749 218:0.26530549 219:0.41350749 220:0.07574904 221:0.41350749 222:0 223:0.41350749 224:0.25456211 225:0.41350749 226:0.4007962 227:0.27633739 228:0.39480129 229:0.02005288 230:0.4007962 231:0 232:0.4007962 233:0.34758219 234:0.4007962 235:0.36518911 236:0.36518911 237:0.36518911 238:0.36518911 239:0.36518911 240:0 241:0.2506189 242:0.36518911 243:0.36518911 244:0.48553309 245:0.48553309 246:0.48553309 247:0.33223981 248:0.27527431 249:0 250:0.065827154 251:0.274676 252:0.1482691 253:0.44849959 254:0.44849959 255:0.44849959 256:0.2663362 257:0.33114111 258:0 259:0.1299718 260:0.22206341 261:0.38114309 262:0.31200641 263:0.63912117 264:0.63912117 265:0.18210711 266:0.093775518 267:0 268:0.02829993 269:0.032019019 270:0.1885106 271:0.46832171 272:0.46832171 273:0.43073681 274:0.03111412 275:0.30511719 276:0.38068289 277:0.18220919 278:0.2373516 279:0.20644011 280:0.30493629 281:0.056359351 282:0.027809899 283:0.001131182 284:0.57250148 285:0.57250148 286:0.36380899 287:0.29697859 288:0.1458659 289:0.2865237 290:0.074900627 291:0.31888539 292:0.53721571 293:0.53721571 294:0.095090076 295:0.2264452 296:0.25685811 297:0.31897381 298:0.49093151 299:0.49093151 300:0.2874501 301:0 302:0.41182831 303:0 304:0.020860661 305:0.13924921 306:0.49093151 307:0.63135701 308:0.37809089 309:0.1846647 310:0 311:0.1166952 312:0 313:0.050262261 314:0.057230558 315:0.63135701 316:0.43080351 317:0.43080351 318:0.43080351 319:0.35495469 320:0.32601759 321:0 322:0.022164291 323:0.1433823 324:0.43080351 325:0.39713249 326:0.39713249 327:0.39713249 328:0.31991521 329:0.29609391 330:0 331:0.1320772 332:0.39713249 333:0.39713249 334:0.4106859 335:0.4106859 336:0.4106859 337:0.40616629 338:0.36127359 339:0.1142051 340:0.1553117 341:0.26511699 342:0.29490209 343:0.2751601 344:0.65883952 345:0.65883952 346:0.1092809 347:0.082693487 348:0.048913281 349:0.094192572 350:0.081509717 351:0.1134963 352:0.28175089 353:0.61589879 354:0.61589879 355:0.25225669 356:0.1016142 357:0.016642621 358:0.23038881 359:0.1491058 360:0.079100579 361:0.28667629 362:0.58238459 363:0.58238459 364:0.1469581 365:0.1969482 366:0.0054694172 367:0.36755061 368:0.1349097 369:0.1412394 370:0.2991434 371:0.4256711 372:0.4256711 373:0.35652941 374:0.4256711 375:0.4256711 376:0.1499031 377:0.085279413 378:0.1569103 379:0.02929038 380:0.02157042 381:0.041095741 382:0.018066561 383:0.70282018 384:0.70282018 385:0.035155009 386:0.0090886308 387:0.020364519 388:0.27700409 389:0.087324888 390:0.36490381 391:0.36490381 392:0.36490381 393:0.36490381 394:0.36490381 395:0.33625689 396:0.36490381 397:0.45187581 398:0.45187581 399:0.45187581 400:0.45187581 401:0.1167412 402:0.1165161 403:0.056538921 404:0.1313998 405:0.36201161 406:0.44848159 407:0.350173 408:0.30091709 409:0.29054251 410:0.2114732 411:0.32347381 412:0.1679735 413:0.34364271 414:0.44848159 415:0.4778975 416:0.4778975 417:0.4778975 418:0.18795019 419:0.16858891 420:0.038062271 421:0.088872313 422:0.092673272 423:0.4778975 424:0.49880221 425:0.49880221 426:0.49880221 427:0.39714411 428:0.24174289 429:0 430:0.044225261 431:0.045451339 432:0.1685898 433:0.54733789 434:0.57167548 435:0.57167548 436:0.1641445 437:0.038940601 438:0.03661764 439:0.053337291 440:0.037536591 441:0.083860546 442:0.52673668 443:0.52673668 444:0.52673668 445:0.16776159 446:0.022561351 447:0.1444232 448:0.074785814 449:0.030900281 450:0.32607689 451:0.3694877 452:0.3694877 453:0.3694877 454:0.3694877 455:0.1358667 456:0.14899909 457:0.3694877 458:0.3694877 459:0.3694877 460:0.39912441 461:0.04455382 462:0.067225426 463:0.02296132 464:0.092774488 465:0.0180353 466:0.52265859 467:0.52265859 468:0.52265859 469:0.39089081 470:0.30201909 471:0.084573463 472:0.1955404 473:0.39089081 474:0.39089081 475:0.3090511 476:0.39089081 477:0.39089081 478:0.034621369 479:0.021920411 480:0.01327011 481:0.1125493 482:0.69876122 483:0.69876122 484:0.039096002 485:0.01451659 486:0.01511249 487:0.32136369 488:0.1078634 489:0.0574646 490:0.33720589 491:0.44603851 492:0.44603851 493:0.32212111 494:0.27212879 495:0.43348449 496:0.29469061 497:0.34706521 498:0.34706521 499:0.34706521 500:0.34706521 501:0.33268681 502:0.34706521 503:0.34706521 504:0.2761952 505:0.3026233 506:0.49776331 507:0.49776331 508:0.36583519 509:0.43216309 510:0.13188051 511:0.1990096 512:0.1512828 513:0.086179323 514:0.43998259 515:0.43998259 516:0.43998259 517:0.43998259 518:0.4162229 519:0.1209985 520:0.14227121 521:0.1072263 522:0.040568151 523:0.56586528 524:0.56586528 525:0.56586528 526:0.09439858 527:0.053606909 528:0.020317061 529:0.02879457 530:0.071196876 531:0.12507311 532:0.43772599 533:0.43772599 534:0.43772599 535:0.43772599 536:0.43772599 537:0.1196502 538:0.067452744 539:0.01151438 540:0.1364143 541:0.53392643 542:0.53392643 543:0.53392643 544:0.26315519 545:0.15701631 546:0.043827359 547:0.077006057 548:0.06616433 549:0.1824901 550:0.46889159 551:0.46889159 552:0.27057081 553:0.1672443 554:0.098537996 555:0.0170091 556:0.068564169 557:0.46889159 558:0.46889159 559:0.43711749 560:0.055383582 561:0.15695029 562:0.43711749 563:0.38985729 564:0.065549582 565:0.2176245 566:0.43711749 567:0.43711749 568:0.18193521 569:0.01810866 570:0.085092261 571:0.4630689 572:0.4630689 573:0.4630689 574:0.29175359 575:0.27154639 576:0.39057609 577:0.005041433 578:0.02843122 579:0.093279183 580:0.45619789 581:0.62233162 582:0.62233162 583:0.038292799 584:0.006482875 585:0.0057780449 586:0.19573981 587:0.1825873 588:0.2196369 589:0.5482263 590:0.5482263 591:0.471733 592:0.1541182 593:0.02781539 594:0.1626976 595:0.22295021 596:0.27393681 597:0.3573609 598:0.3573609 599:0.32471591 600:0.3573609 601:0.3573609 602:0.3573609 603:0.3573609 604:0.1445618 605:0.1807598 606:0.3203049 607:0.1562667 608:0.46709481 609:0.1459475 610:0.46709481 611:0.46709481 612:0.37271249 613:0.084983528 614:0.29956001 615:0.22306851 616:0.3989186 617:0.3989186 618:0.3989186 619:0.3989186 620:0.3989186 621:0.23155279 622:0.48238531 623:0.321163 624:0.1230799 625:0.1280901 626:0.070649698 627:0.046810381 628:0.3184993 629:0.50935823 630:0.50935823 631:0.2416728 632:0.063508578 633:0.1608724 634:0.38897201 635:0.38897201 636:0.38897201 637:0.38897201 638:0.38897201 639:0.38897201 640:0.06630712 641:0.054417361 642:0.1957266 643:0.067841157 644:0.1702181 645:0.097192809 646:0.4373123 647:0.59753722 648:0.59753722 649:0.4729526 650:0.29249969 651:0.31862289 652:0.20738681 653:0.01915909 654:0.074168503 655:0.29710209 656:0.4729526 657:0.4729526 658:0.47607139 659:0.47607139 660:0.47607139 661:0.47607139 662:0.2426468 663:0.00162772 664:0.021359609 665:0.052589409 666:0.162994 667:0.415369 668:0.415369 669:0.37517431 670:0.39983189 671:0.415369 672:0.38989699 673:0.02443824 674:0.029805111 675:0.15533809 676:0.085199557 677:0.09530621 678:0.079978377 679:0.1988699 680:0.68006581 681:0.68006581 682:0.055842072 683:0.04421524 684:0.029509719 685:0.15320741 686:0.0090921475 687:0.069158353 688:0.3174181 689:0.51407552 690:0.51407552 691:0.51407552 692:0.2224416 693:0.15320741 694:0.35365129 695:0.35365129 696:0.35365129 697:0.35365129 698:0.1315832 699:0.35365129 700:0.35365129 701:0.32197469 702:0.35365129 703:0.4231739 704:0.36386901 705:0.2462814 706:0.0010673481 707:0.28126249 708:0.085459039 709:0.4231739 710:0.4231739 711:0.4231739 712:0.3876228 713:0.2389798 714:0.1936691 715:0 716:0.3876228 717:0.3876228 718:0.3876228 719:0.3876228 720:0.3876228 721:0.1783473 722:0.073241532 723:0.089274459 724:0.007815605 725:0.1201647 726:0.1333081 727:0.55289102 728:0.55289102 729:0.55289102 730:0.03603971 731:0.01497627 732:0.043855291 733:0.046638001 734:0.021764969 735:0.071037993 736:0.5724631 737:0.5724631 738:0.5724631 739:0.1218532 740:0.016799839 741:0.05187358 742:0.003276919 743:0.02190152 744:0.047876991 745:0.5697096 746:0.5697096 747:0.5697096 748:0.3797203 749:0.40308321 750:0.21776579 751:0.26122051 752:0.086858749 753:0.27693501 754:0.40390009 755:0.40390009 756:0.40390009 757:0.41961759 758:0.41961759 759:0.41961759 760:0.41961759 761:0.0099499524 762:0.090731137 763:0.1184341 764:0.36611649 765:0.36755079 766:0.41946769 767:0.39712399 768:0.26018599 769:0.28785729 770:0.41946769 771:0.30643311 772:0.22716971 773:0.1190671 774:0.41946769 775:0.054547891 776:0.02673714 777:0.038016021 778:0.1188246 779:0.69734639 780:0.69734639 781:0.02569177 782:0.016468029 783:0.01638124 784:0.072792508 785:0.046642002 786:0.093779393 787:0.083547831 788:0.68676871 789:0.6774115 790:0.1850003 791:0.055132549 792:0.04574905 793:0.4610641 794:0.4610641 795:0.4610641 796:0.2345234 797:0.09288808 798:0.030421151 799:0.15566251 800:0.23725189 801:0.4610641 802:0.35994121 803:0.25469849 804:0.27209669 805:0 806:0.2298537 807:0.3695637 808:0.43013871 809:0.43013871 810:0.40962049 811:0.40595669 812:0.1630329 813:0.1113916 814:0 815:0.36462641 816:0.40595669 817:0.40595669 818:0.40595669 819:0.40595669 820:0.48497081 821:0.1881395 822:0.075630307 823:0.042871408 824:0.04436316 825:0.097195826 826:0.48497081 827:0.48497081 828:0.48497081 829:0.39094049 830:0.052004669 831:0.071287073 832:0.088928163 833:0.24050459 834:0.4385339 835:0.4385339 836:0.4385339 837:0.4385339 838:0.47658369 839:0.17258041 840:0.1596377 841:0.056915872 842:0.1110191 843:0.12601081 844:0.47658369 845:0.47658369 846:0.47658369 847:0.17036261 848:0.091367327 849:0.0091125723 850:0.027206499 851:0.026525071 852:0.018895609 853:0.56424302 854:0.56424302 855:0.56424302 856:0.061934061 857:0.095491514 858:0.051211741 859:0.0095280148 860:0.01759376 861:0.0071617099 862:0.30752331 863:0.66436738 864:0.66436738 865:0.44555941 866:0.38879061 867:0.1341356 868:0.21401329 869:0.15093391 870:0.01225088 871:0.40261221 872:0.44555941 873:0.44555941 874:0.13836969 875:0.2305737 876:0.17829619 877:0.4786706 878:0.66431957 879:0.46335411 880:0 881:0.023177121 882:0.059896901 883:0.1675889 884:0.2244411 885:0.051915739 886:0.53222841 887:0.53222841 888:0.53222841 889:0.2350954 890:0.078564882 891:0.047815479 892:0.4832437 893:0.4832437 894:0.36118889 895:0 896:0.2632443 897:0 898:0.1694174 899:0.25718209 900:0.4832437 901:0.39405441 902:0.39405441 903:0.22464991 904:0.1123098 905:0.39405441 906:0.036185011 907:0.39405441 908:0.39405441 909:0.39405441 910:0.44865859 911:0.44865859 912:0.3282364 913:0.0080481824 914:0.4080556 915:0.0057771639 916:0.1214314 917:0.32022259 918:0.44865859 919:0.3739574 920:0.3739574 921:0.32742709 922:0 923:0.3739574 924:0.22358631 925:0.3739574 926:0.3739574 927:0.3739574 928:0.1947874 929:0.1618287 930:0.390147 931:0.22210149 932:0.390147 933:0.390147 934:0.390147 935:0.390147 936:0.3486678 937:0.35197929 938:0.35197929 939:0.35197929 940:0.3503404 941:0.35197929 942:0.35197929 943:0.2950072 944:0.25621921 945:0.3187792 946:0.43305719 947:0.28448349 948:0.084300943 949:0.0086101042 950:0.27655479 951:0.28447449 952:0.43305719 953:0.43305719 954:0.43305719 955:0.1929722 956:0.0057504931 957:0.033566121 958:0.033460889 959:0.17317431 960:0.1150063 961:0.5512898 962:0.5512898 963:0.5512898 964:0.25680649 965:0.2108689 966:0.049136899 967:0.0084001031 968:0.037633941 969:0.070801944 970:0.54014701 971:0.54014701 972:0.54014701 973:0.39623851 974:0.39623851 975:0.39623851 976:0.39623851 977:0.39623851 978:0.034745712 979:0.05765076 980:0.22244319 981:0.39623851 982:0.082882486 983:0.32445121 984:0.37120849 985:0.55592012 986:0.55592012 987:0.30469689 988:0.16630539 989:0.01526397 990:0.075430468 991:0.3710286 992:0.3710286 993:0.3710286 994:0.34053919 995:0.3710286 996:0.1588881 997:0.3710286 998:0.1706095 999:0.3710286 1000:0.3871145 1001:0.3871145 1002:0.3871145 1003:0.3679359 1004:0.3871145 1005:0.0090309139 1006:0.29788041 1007:0.1832836 1008:0.37271699 1009:0.46077991 1010:0.46077991 1011:0.38177109 1012:0.0094711948 1013:0.46077991 1014:0 1015:0.016045749 1016:0.005362222 1017:0.46077991 1018:0.42990941 1019:0.42990941 1020:0.42990941 1021:0 1022:0.42990941 1023:0.024055559 1024:0.2431808 1025:0.1089927 1026:0.42990941 1027:0.099230878 1028:0.3091878 1029:0.4161368 1030:0.4161368 1031:0.4161368 1032:0.4161368 1033:0.40236729 1034:0.145245 1035:0.1213427 1036:0.3465552 1037:0.3465552 1038:0.3161149 1039:0.3465552 1040:0.3465552 1041:0.3465552 1042:0.3465552 1043:0.3465552 1044:0.2364424 1045:0.3855584 1046:0.3855584 1047:0.100125 1048:0.04628909 1049:0.30339539 1050:0.3855584 1051:0.3855584 1052:0.3855584 1053:0.3855584 1054:0.38454971 1055:0.38454971 1056:0.21546011 1057:0.1593246 1058:0.31830019 1059:0.2892119 1060:0.38454971 1061:0.38454971 1062:0.38454971 1063:0.3767865 1064:0.34269321 1065:0.15088271 1066:0.2013327 1067:0.3250483 1068:0.3767865 1069:0.3767865 1070:0.3767865 1071:0.3767865 1072:0.35617909 1073:0.35617909 1074:0.2373427 1075:0.2281771 1076:0.35617909 1077:0.35617909 1078:0.35617909 1079:0.35617909 1080:0.35617909 1081:0.32389489 1082:0.24404 1083:0.35799441 1084:0.35799441 1085:0.35799441 1086:0.35799441 1087:0.35799441 1088:0.3412168 1089:0.27336949 #
