SVM-light Version V6.02
0 # kernel type
3 # kernel parameter -d 
1 # kernel parameter -g 
1 # kernel parameter -s 
1 # kernel parameter -r 
empty# kernel parameter -u 
1089 # highest feature index 
781 # number of training documents 
56 # number of support vectors plus 1 
0.38716082 # threshold b, each following line is a SV (starting with alpha*y)
-0.005643753167247122 1:0.3912138 2:0.3912138 3:0.3912138 4:0.29277861 5:0.32455951 6:0.17050339 7:0.1823817 8:0.36125681 9:0.3912138 10:0.52244049 11:0.2355973 12:0.41565809 13:0.31003001 14:0.1487904 15:0.25097549 16:0.1244053 17:0.1545774 18:0.52244049 19:0.39657229 20:0.19581141 21:0.33380869 22:0.1975092 23:0.39657229 24:0.39657229 25:0.39657229 26:0.14460389 27:0.39657229 28:0.43108329 29:0.34815589 30:0.2100186 31:0.1233498 32:0.2238674 33:0.2383678 34:0.38823211 35:0.43108329 36:0.43108329 37:0.49456301 38:0.49456301 39:0.1479979 40:0.3231006 41:0.1483518 42:0.188272 43:0.03571194 44:0.27614391 45:0.49456301 46:0.46934551 47:0.34644949 48:0.1131966 49:0.1213344 50:0.32617909 51:0.4692277 52:0.13703731 53:0.248661 54:0.46934551 55:0.47167119 56:0.2740702 57:0.077964611 58:0.42009619 59:0.47167119 60:0.1749395 61:0.078053303 62:0.1830238 63:0.47167119 64:0.40450001 65:0.40450001 66:0.2467995 67:0.3672258 68:0.3106803 69:0.2102333 70:0.070661142 71:0.40450001 72:0.40450001 73:0.37129411 74:0.36711881 75:0.131669 76:0.35357511 77:0.37129411 78:0.37129411 79:0.17281701 80:0.37129411 81:0.37129411 82:0.34991351 83:0.34991351 84:0.1999007 85:0.34991351 86:0.34991351 87:0.34991351 88:0.34991351 89:0.31538481 90:0.34991351 91:0.3793065 92:0.21477941 93:0.094021752 94:0.2792846 95:0.3793065 96:0.3793065 97:0.3793065 98:0.3793065 99:0.3793065 100:0.33277869 101:0.33277869 102:0.33277869 103:0.33277869 104:0.33277869 105:0.33277869 106:0.33277869 107:0.33277869 108:0.33277869 109:0.36099601 110:0.36099601 111:0.36099601 112:0.36099601 113:0.36099601 114:0.32933471 115:0.2147329 116:0.2447717 117:0.36099601 118:0.40349731 119:0.40349731 120:0.22531611 121:0.23642039 122:0.40349731 123:0.35761759 124:0.1946121 125:0.26889139 126:0.40349731 127:0.47843251 128:0.37910089 129:0.102678 130:0.087183326 131:0.2689549 132:0.2490157 133:0.1110039 134:0.47843251 135:0.47843251 136:0.47662681 137:0.29802039 138:0.2225647 139:0.3646923 140:0.2352118 141:0.21005221 142:0.1585227 143:0.3807435 144:0.47662681 145:0.37845799 146:0.26841879 147:0.1970773 148:0.37845799 149:0.37845799 150:0.37845799 151:0.37845799 152:0.1610842 153:0.37845799 154:0.41251051 155:0.41251051 156:0.1449962 157:0.41251051 158:0.3113319 159:0.1117801 160:0.40954411 161:0.1305631 162:0.41251051 163:0.42830271 164:0.35001439 165:0.25082231 166:0.313292 167:0.42830271 168:0.33942449 169:0.076319173 170:0.20195191 171:0.42830271 172:0.3966445 173:0.3966445 174:0.1450801 175:0.15802041 176:0.3966445 177:0.3966445 178:0.077831663 179:0.3966445 180:0.3966445 181:0.38038471 182:0.2521472 183:0.38038471 184:0.38038471 185:0.38038471 186:0.2449341 187:0.066888072 188:0.38038471 189:0.38038471 190:0.41287261 191:0.1306549 192:0.15295909 193:0.41287261 194:0.41287261 195:0.41287261 196:0.27252749 197:0.16975901 198:0.41287261 199:0.31371149 200:0.35249811 201:0.35249811 202:0.35249811 203:0.35249811 204:0.35249811 205:0.33961701 206:0.1928584 207:0.35249811 208:0.49257869 209:0.244908 210:0.49257869 211:0.1017711 212:0.22461531 213:0.25750139 214:0.063846193 215:0.2756927 216:0.49257869 217:0.40851659 218:0.40851659 219:0.40851659 220:0.02220257 221:0.17954651 222:0.29604971 223:0.2027673 224:0.40851659 225:0.40851659 226:0.52222461 227:0.52222461 228:0.1735903 229:0.02654594 230:0.01505029 231:0.037413821 232:0.017194159 233:0.37930039 234:0.52222461 235:0.48797289 236:0.48797289 237:0.017023651 238:0.0047409148 239:0.00068627938 240:0.099977627 241:0.1798548 242:0.48797289 243:0.48797289 244:0.51442772 245:0.2341613 246:0.066678166 247:0.25992751 248:0.12764581 249:0.1112479 250:0.21317931 251:0.51442772 252:0.51442772 253:0.55866301 254:0.48691481 255:0.1417498 256:0.1394389 257:0.062569991 258:0.077026553 259:0.2052404 260:0.2040066 261:0.55866301 262:0.64328271 263:0.28000391 264:0.1137399 265:0.0089645796 266:0.067481384 267:0.16458809 268:0.100239 269:0.1812242 270:0.64328271 271:0.57179523 272:0.1932601 273:0.03437192 274:0.01787425 275:0.019562401 276:0.047874462 277:0.037025869 278:0.54543102 279:0.57179523 280:0.49329019 281:0.49329019 282:0.131249 283:0.042059921 284:0.025201499 285:0.041056 286:0.020396771 287:0.49329019 288:0.49329019 289:0.49230611 290:0.40786681 291:0.23142271 292:0.13781971 293:0.1268914 294:0.1723015 295:0.088089332 296:0.466795 297:0.49230611 298:0.139476 299:0.39181679 300:0.39869571 301:0.39869571 302:0.39869571 303:0.39869571 304:0.39869571 305:0.064258367 306:0.15531491 307:0.4053663 308:0.26544261 309:0.4053663 310:0.4053663 311:0.4053663 312:0.16072971 313:0.26330081 314:0.093382843 315:0.4053663 316:0.27434719 317:0.075506262 318:0.19562019 319:0.3472212 320:0.4822962 321:0.4822962 322:0.2376263 323:0.41598389 324:0.2462869 325:0.37767711 326:0.37767711 327:0.37767711 328:0.26376399 329:0.1603352 330:0.2123865 331:0.37767711 332:0.37767711 333:0.37767711 334:0.44720459 335:0.29357651 336:0.1661043 337:0.008304107 338:0.02949395 339:0.2843388 340:0.44720459 341:0.44720459 342:0.44720459 343:0.370992 344:0.077402249 345:0.1936833 346:0.35634089 347:0.370992 348:0.370992 349:0.370992 350:0.370992 351:0.370992 352:0.42413649 353:0.1743414 354:0.12802839 355:0.1074919 356:0.19484159 357:0.42413649 358:0.42413649 359:0.42413649 360:0.42413649 361:0.39555451 362:0.39555451 363:0.1003487 364:0.082081087 365:0.2011494 366:0.39555451 367:0.39555451 368:0.39555451 369:0.39555451 370:0.35185131 371:0.35185131 372:0.26233861 373:0.35185131 374:0.2471194 375:0.35185131 376:0.35185131 377:0.35185131 378:0.35185131 379:0.34882611 380:0.34882611 381:0.34882611 382:0.34882611 383:0.30332819 384:0.22967251 385:0.34882611 386:0.34882611 387:0.34882611 388:0.34934309 389:0.34934309 390:0.34934309 391:0.34934309 392:0.1420732 393:0.34934309 394:0.34934309 395:0.34934309 396:0.34934309 397:0.03740713 398:0.13379981 399:0.4761247 400:0.4761247 401:0.4761247 402:0.4761247 403:0.1446771 404:0.16104899 405:0.14931761 406:0.00067924598 407:0.053079139 408:0.47705781 409:0.59725922 410:0.59725922 411:0.2206192 412:0.0390439 413:0 414:0 415:0.0031099671 416:0.03862153 417:0.1587178 418:0.55903482 419:0.55903482 420:0.55903482 421:0.1684452 422:0.037281562 423:0.0200378 424:0.4022575 425:0.096471481 426:0.1695129 427:0.32910419 428:0.4022575 429:0.4022575 430:0.4022575 431:0.20143279 432:0.4022575 433:0.57026941 434:0.1198956 435:0.057926551 436:0.18425021 437:0.4920238 438:0.1525248 439:0.1063969 440:0.1246633 441:0.57026941 442:0.41357309 443:0.2316263 444:0.41357309 445:0.2355438 446:0.34662339 447:0.083323009 448:0.27472821 449:0.41357309 450:0.41357309 451:0.34860191 452:0.34860191 453:0.34860191 454:0.30301169 455:0.2441677 456:0.3405045 457:0.34860191 458:0.34860191 459:0.34860191 460:0.36090109 461:0.36090109 462:0.36090109 463:0.23025 464:0.17785449 465:0.36090109 466:0.36090109 467:0.36090109 468:0.36090109 469:0.3447755 470:0.3447755 471:0.2135279 472:0.3447755 473:0.3447755 474:0.3447755 475:0.3447755 476:0.3447755 477:0.3447755 478:0.36297011 479:0.36297011 480:0.196044 481:0.36297011 482:0.36297011 483:0.26209739 484:0.36297011 485:0.31426391 486:0.36297011 487:0.3421222 488:0.2453589 489:0.3421222 490:0.3421222 491:0.3421222 492:0.3421222 493:0.3421222 494:0.3421222 495:0.3421222 496:0.0085702129 497:0.1197501 498:0.40564749 499:0.44790071 500:0.44790071 501:0.44790071 502:0.44790071 503:0.1165634 504:0.022698799 505:0 506:0.002984039 507:0.1117183 508:0.64236557 509:0.73707789 510:0.1026466 511:0.1170442 512:0 513:0 514:0.18110029 515:0.15894569 516:0.15295979 517:0.53764409 518:0.53764409 519:0.53764409 520:0.1746776 521:0.1121571 522:0.053832699 523:0.30250239 524:0.32627231 525:0.3611944 526:0.3611944 527:0.3611944 528:0.3611944 529:0.3558706 530:0.139568 531:0.3611944 532:0.37767589 533:0.37767589 534:0.33454919 535:0.37767589 536:0.37767589 537:0.37767589 538:0.14245909 539:0.090414517 540:0.37767589 541:0.27418271 542:0.35994959 543:0.3239516 544:0.35994959 545:0.35994959 546:0.1972324 547:0.35994959 548:0.35994959 549:0.35994959 550:0.21480531 551:0.254704 552:0.17328981 553:0.38616449 554:0.38616449 555:0.38616449 556:0.38616449 557:0.33088079 558:0.38616449 559:0.3635473 560:0.32814229 561:0.20805959 562:0.3635473 563:0.3317757 564:0.3635473 565:0.27293459 566:0.3635473 567:0.3635473 568:0.34152591 569:0.28780061 570:0.34152591 571:0.3118962 572:0.34152591 573:0.34152591 574:0.34152591 575:0.34152591 576:0.34152591 577:0.37929109 578:0.1437647 579:0.37929109 580:0.37929109 581:0.29658279 582:0.31625459 583:0.37929109 584:0.37929109 585:0.26125729 586:0.2309202 587:0.13692041 588:0.41122669 589:0.41122669 590:0.41122669 591:0.33905399 592:0.41122669 593:0.27097279 594:0.2429141 595:0.01407794 596:0.096066967 597:0.44129989 598:0.44129989 599:0.44129989 600:0.44129989 601:0.44129989 602:0.1021547 603:0.044735529 604:0.25755689 605:0.025812469 606:0.27147871 607:0.2408496 608:0.78620172 609:0.27558291 610:0.18178891 611:0.00087850977 612:0.25755689 613:0.1697568 614:0.048819281 615:0.2584064 616:0.3941057 617:0.60031128 618:0.60031128 619:0.051487919 620:0.099148661 621:0.086506419 622:0.39912999 623:0.34899759 624:0.25473401 625:0.36804959 626:0.39912999 627:0.39912999 628:0.1406166 629:0.12989061 630:0.39912999 631:0.3738983 632:0.1126341 633:0.3738983 634:0.3738983 635:0.3738983 636:0.3738983 637:0.2367045 638:0.2979084 639:0.3738983 640:0.37499389 641:0.1082587 642:0.1827141 643:0.37674111 644:0.37674111 645:0.37674111 646:0.37674111 647:0.31755611 648:0.37674111 649:0.3869696 650:0.26175219 651:0.1543736 652:0.3869696 653:0.3869696 654:0.3869696 655:0.2497858 656:0.30441481 657:0.3869696 658:0.34817609 659:0.2426061 660:0.2984587 661:0.34817609 662:0.34817609 663:0.34817609 664:0.34817609 665:0.34817609 666:0.34817609 667:0.34812239 668:0.34812239 669:0.1721931 670:0.34430659 671:0.34812239 672:0.34812239 673:0.34812239 674:0.34812239 675:0.34812239 676:0.33277869 677:0.33277869 678:0.33277869 679:0.33277869 680:0.33277869 681:0.33277869 682:0.33277869 683:0.33277869 684:0.33277869 685:0.34634221 686:0.34634221 687:0.34634221 688:0.34634221 689:0.34634221 690:0.34634221 691:0.1921352 692:0.34634221 693:0.34634221 694:0.1008424 695:0.2842589 696:0.43463629 697:0.31300351 698:0.43463629 699:0.43463629 700:0.43463629 701:0.1848667 702:0.1300163 703:0.35378361 704:0.35378361 705:0.35378361 706:0.35378361 707:0.35378361 708:0.086878993 709:0.35378361 710:0.3358238 711:0.35378361 712:0.1801957 713:0.39772671 714:0.30093971 715:0.39772671 716:0.39772671 717:0.3070699 718:0.31279191 719:0.2193501 720:0.39772671 721:0.33890739 722:0.27883339 723:0.33890739 724:0.33890739 725:0.33890739 726:0.33890739 727:0.33890739 728:0.33890739 729:0.33890739 730:0.35557461 731:0.35557461 732:0.35557461 733:0.2943911 734:0.15731549 735:0.35557461 736:0.35557461 737:0.35557461 738:0.35557461 739:0.3549293 740:0.30765751 741:0.3549293 742:0.1909485 743:0.3549293 744:0.33089381 745:0.3549293 746:0.3549293 747:0.3549293 748:0.4095906 749:0.4095906 750:0.1885455 751:0.174676 752:0.1822201 753:0.2404591 754:0.4095906 755:0.4095906 756:0.4095906 757:0.3688212 758:0.3688212 759:0.25208411 760:0.28993139 761:0.2052054 762:0.35560381 763:0.3688212 764:0.3688212 765:0.3688212 766:0.3518039 767:0.3518039 768:0.234129 769:0.3518039 770:0.3518039 771:0.29186109 772:0.33747551 773:0.3518039 774:0.3518039 775:0.3848494 776:0.3848494 777:0.080594681 778:0.30001879 779:0.3848494 780:0.3848494 781:0.1048523 782:0.3848494 783:0.3848494 784:0.36707601 785:0.27387941 786:0.36707601 787:0.36707601 788:0.36707601 789:0.36707601 790:0.2802678 791:0.18521249 792:0.36707601 793:0.10741 794:0.35088411 795:0.35088411 796:0.35088411 797:0.35088411 798:0.35088411 799:0.35088411 800:0.35088411 801:0.35088411 802:0.2619665 803:0.34058231 804:0.34058231 805:0.34058231 806:0.34058231 807:0.34058231 808:0.34058231 809:0.34058231 810:0.34058231 811:0.35045341 812:0.35045341 813:0.35045341 814:0.35045341 815:0.35045341 816:0.35045341 817:0.27946019 818:0.2422345 819:0.35045341 820:0.38040751 821:0.38040751 822:0.38040751 823:0.1944284 824:0.38040751 825:0.38040751 826:0.27308309 827:0.1247552 828:0.38040751 829:0.36858869 830:0.36858869 831:0.36858869 832:0.073139817 833:0.20149671 834:0.36772501 835:0.36858869 836:0.36858869 837:0.36858869 838:0.41215581 839:0.41215581 840:0.13881721 841:0.0115812 842:0.1418834 843:0.32708639 844:0.41215581 845:0.41215581 846:0.41215581 847:0.48460251 848:0.48460251 849:0.1845274 850:0.02968538 851:0.063717648 852:0.02585838 853:0.2656711 854:0.42473519 855:0.48460251 856:0.38157979 857:0.38157979 858:0.38157979 859:0.1930308 860:0.2446081 861:0.1596083 862:0.38157979 863:0.38157979 864:0.38157979 865:0.26348761 866:0.31646559 867:0.34371701 868:0.34371701 869:0.34371701 870:0.34371701 871:0.34371701 872:0.34371701 873:0.34371701 874:0.3669571 875:0.3136242 876:0.35337329 877:0.3669571 878:0.3669571 879:0.3669571 880:0.26298249 881:0.1750817 882:0.3669571 883:0.36968791 884:0.36968791 885:0.36968791 886:0.36968791 887:0.36968791 888:0.36968791 889:0.1815657 890:0.081587933 891:0.36968791 892:0.33277869 893:0.33277869 894:0.33277869 895:0.33277869 896:0.33277869 897:0.33277869 898:0.33277869 899:0.33277869 900:0.33277869 901:0.36357459 902:0.36357459 903:0.36357459 904:0.1863842 905:0.28798509 906:0.36357459 907:0.36357459 908:0.2925306 909:0.36357459 910:0.3676644 911:0.31464639 912:0.3676644 913:0.070547909 914:0.33263731 915:0.3676644 916:0.32529119 917:0.3676644 918:0.3676644 919:0.41227049 920:0.41227049 921:0.3328487 922:0.03421269 923:0.3545385 924:0.2007229 925:0.1951095 926:0.41227049 927:0.41227049 928:0.43798551 929:0.43798551 930:0.1570197 931:0.1046163 932:0.02520572 933:0.01527095 934:0.43798551 935:0.43798551 936:0.43798551 937:0.43523639 938:0.2116009 939:0.048922431 940:0.02907192 941:0.02202482 942:0.43523639 943:0.43523639 944:0.43523639 945:0.43523639 946:0.59703672 947:0.4183014 948:0.03558572 949:0.001685239 950:0.041723859 951:0.13106941 952:0.082993567 953:0.2812112 954:0.59703672 955:0.4820196 956:0.40510979 957:0.3079834 958:0.092686817 959:0.048514131 960:0.1752523 961:0.096934803 962:0.46955079 963:0.4820196 964:0.52954859 965:0.15098239 966:0.2515693 967:0.1389055 968:0.1436583 969:0.1372955 970:0.092633411 971:0.52954859 972:0.52954859 973:0.60357708 974:0.18975089 975:0.05433296 976:0.098003201 977:0.1940784 978:0.1289137 979:0.064356111 980:0.397962 981:0.60357708 982:0.51878732 983:0.3743794 984:0.1196691 985:0.22156531 986:0.05139152 987:0.28784379 988:0.37125289 989:0.1721707 990:0.51878732 991:0.3210856 992:0.3641564 993:0.3641564 994:0.3641564 995:0.3641564 996:0.2040358 997:0.3641564 998:0.2365927 999:0.3641564 1000:0.4017739 1001:0.4017739 1002:0.3056007 1003:0.23526309 1004:0.4017739 1005:0.2939302 1006:0.2260343 1007:0.2531212 1008:0.4017739 1009:0.48707771 1010:0.1734928 1011:0.048022889 1012:0.070260443 1013:0.48289821 1014:0.2065637 1015:0.21797299 1016:0.3999148 1017:0.48707771 1018:0.50727159 1019:0.12620971 1020:0.02233544 1021:0.1461008 1022:0.50727159 1023:0.111706 1024:0.13533901 1025:0.39292791 1026:0.50727159 1027:0.45094541 1028:0.32648319 1029:0.097286582 1030:0.17505971 1031:0.3473852 1032:0.2895579 1033:0.1849819 1034:0.45094541 1035:0.45094541 1036:0.46177271 1037:0.22832771 1038:0.19311631 1039:0.020389039 1040:0.1531036 1041:0.30644429 1042:0.38534871 1043:0.46177271 1044:0.46177271 1045:0.53939289 1046:0.4565686 1047:0.3698068 1048:0.1131965 1049:0.1478903 1050:0.023126259 1051:0.035825562 1052:0.17609259 1053:0.53939289 1054:0.50583851 1055:0.50583851 1056:0.1256469 1057:0.041557219 1058:0.1915745 1059:0.1334924 1060:0.2217795 1061:0.32574391 1062:0.50583851 1063:0.39987519 1064:0.18235961 1065:0.2794174 1066:0.39987519 1067:0.39987519 1068:0.2148177 1069:0.32438001 1070:0.30611521 1071:0.39987519 1072:0.365356 1073:0.32038069 1074:0.1492366 1075:0.26556411 1076:0.365356 1077:0.365356 1078:0.365356 1079:0.365356 1080:0.365356 1081:0.4610101 1082:0.4610101 1083:0.1005219 1084:0.1699504 1085:0.3990227 1086:0.13259269 1087:0.1100118 1088:0.36043581 1089:0.4610101 #
-0.0027628396109366286 1:0.44005409 2:0.2670784 3:0.44005409 4:0.44005409 5:0.19636419 6:0 7:0.30396429 8:0.1368567 9:0.44005409 10:0.080051944 11:0.1487785 12:0.4639191 13:0.4639191 14:0.4639191 15:0.4639191 16:0.3158592 17:0.070125692 18:0.035422131 19:0.001651103 20:0.0020828941 21:0.0062233419 22:0.092685379 23:0.6989823 24:0.6989823 25:0.084735617 26:0.0072278678 27:0.001132474 28:0.084383354 29:0.05001881 30:0.043442111 31:0.47297201 32:0.54015058 33:0.54015058 34:0.4066934 35:0.049727179 36:0.089420646 37:0.2090667 38:0.1018872 39:0.2216873 40:0.20211481 41:0.48789349 42:0.48789349 43:0.48789349 44:0.2349495 45:0.28586721 46:0.032152209 47:0.036403392 48:0.43703371 49:0.43703371 50:0.43703371 51:0.43703371 52:0.2374182 53:0.37414581 54:0.18146349 55:0.40715799 56:0.1009852 57:0.052989941 58:0.40715799 59:0.40715799 60:0.38974431 61:0.3481856 62:0.2160608 63:0.40715799 64:0.42151919 65:0.1157514 66:0.37570101 67:0.42151919 68:0.42151919 69:0.089574747 70:0.1669883 71:0.30759889 72:0.42151919 73:0.12526821 74:0.36505651 75:0.4345139 76:0.4345139 77:0.4345139 78:0.4345139 79:0.1092193 80:0.1887002 81:0.2096549 82:0.33277869 83:0.33277869 84:0.33277869 85:0.33277869 86:0.33277869 87:0.33277869 88:0.33277869 89:0.33277869 90:0.33277869 91:0.2186006 92:0.36182961 93:0.36182961 94:0.36182961 95:0.36182961 96:0.36182961 97:0.17931589 98:0.36182961 99:0.36182961 100:0.27974319 101:0.43695551 102:0.4726997 103:0.4726997 104:0.35127291 105:0 106:0.26412579 107:0.088266417 108:0.27974319 109:0.1413127 110:0.16413359 111:0.4746702 112:0.4746702 113:0.4746702 114:0.4746702 115:0.16464379 116:0.0050912499 117:0.1413127 118:0.003339347 119:9.2478353e-005 120:0.002186934 121:0.52306509 122:0.70831722 123:0.46537909 124:0.03184421 125:0.00027114351 126:0.003339347 127:0.066853389 128:0.0064713061 129:0.1008887 130:0.52921981 131:0.52921981 132:0.52921981 133:0.32195479 134:0.1675595 135:0.089850597 136:0.1115473 137:0.098457202 138:0.042723801 139:0.1783755 140:0.4787111 141:0.4787111 142:0.44460091 143:0.4787111 144:0.2329721 145:0.2988728 146:0.099755473 147:0.049418319 148:0.40565389 149:0.46189341 150:0.46189341 151:0.46189341 152:0.23153199 153:0.1883335 154:0.3623904 155:0.3623904 156:0.1395608 157:0.3623904 158:0.3623904 159:0.31518811 160:0.3078942 161:0.35514221 162:0.3623904 163:0.39771929 164:0.1801177 165:0.1196814 166:0.39771929 167:0.39771929 168:0.28444871 169:0.278292 170:0.39771929 171:0.39771929 172:0.36068481 173:0.36574829 174:0.1221592 175:0.36574829 176:0.36574829 177:0.36574829 178:0.25451559 179:0.36574829 180:0.34306279 181:0.33954361 182:0.33954361 183:0.33954361 184:0.33954361 185:0.33954361 186:0.33954361 187:0.33954361 188:0.2725597 189:0.33954361 190:0.2195206 191:0.159851 192:0.3633844 193:0.3633844 194:0.3633844 195:0.3633844 196:0.3633844 197:0.3633844 198:0.36102441 199:0.28704119 200:0.29249489 201:0.47015101 202:0.47015101 203:0.47015101 204:0 205:0.27132651 206:0.090672627 207:0.28704119 208:0.067501463 209:0.062684514 210:0.40123871 211:0.51677477 212:0.51677477 213:0.4926382 214:0.2034761 215:0.05095936 216:0.067501463 217:0.001534426 218:0 219:0.006049728 220:0.59701139 221:0.73518991 222:0.30869389 223:0.02000415 224:0.001128027 225:0.001534426 226:0.30877811 227:0.01422101 228:0.1078546 229:0.52455658 230:0.52455658 231:0.52455658 232:0.1210649 233:0.067242898 234:0.20718449 235:0.41608369 236:0.31084889 237:0.40434581 238:0.1893128 239:0.41608369 240:0.27506769 241:0.206947 242:0.249029 243:0.41608369 244:0.42509231 245:0.42509231 246:0.42509231 247:0.17385641 248:0.42509231 249:0.18994521 250:0.035331398 251:0.1571072 252:0.42509231 253:0.40481809 254:0.40481809 255:0.33819079 256:0.2258072 257:0.40481809 258:0.33952501 259:0.092621267 260:0.2263342 261:0.40481809 262:0.41579431 263:0.18423811 264:0.071900927 265:0.41579431 266:0.41579431 267:0.41579431 268:0.2656289 269:0.41579431 270:0.1474773 271:0.36482999 272:0.36482999 273:0.36482999 274:0.36482999 275:0.36482999 276:0.2702657 277:0.2013282 278:0.29012561 279:0.36482999 280:0.33277869 281:0.33277869 282:0.33277869 283:0.33277869 284:0.33277869 285:0.33277869 286:0.33277869 287:0.33277869 288:0.33277869 289:0.26567599 290:0.1901522 291:0.35651019 292:0.35651019 293:0.35651019 294:0.35651019 295:0.35651019 296:0.35651019 297:0.35651019 298:0.25748149 299:0.077185594 300:0.29810229 301:0.45471779 302:0.45471779 303:0.45276651 304:0.37586781 305:0.090726502 306:0.25748149 307:0.036826171 308:0.022578809 309:0.1117736 310:0.59460229 311:0.66540092 312:0.3973625 313:0.1467662 314:0.04352222 315:0.036826171 316:0 317:0.0080524301 318:0.07140407 319:0.64111239 320:0.73353702 321:0.19143321 322:0.042025901 323:0.00058853981 324:0 325:0.3765969 326:0.063573137 327:0.4656336 328:0.45628059 329:0.4656336 330:0.3819949 331:0.1213964 332:0.01431801 333:0.2163303 334:0.50515562 335:0.23312411 336:0.50515562 337:0.077893756 338:0.3261742 339:0.2198797 340:0.1030441 341:0.060326941 342:0.50515562 343:0.46328151 344:0.46328151 345:0.46328151 346:0.1205132 347:0.1996669 348:0.081156723 349:0.039114669 350:0.27266651 351:0.46328151 352:0.3488676 353:0.3488676 354:0.3488676 355:0.3468017 356:0.3488676 357:0.3488676 358:0.1558297 359:0.3488676 360:0.3488676 361:0.36074969 362:0.22511961 363:0.2061175 364:0.36074969 365:0.36074969 366:0.36074969 367:0.36074969 368:0.36074969 369:0.3498435 370:0.34183839 371:0.32131639 372:0.34183839 373:0.34183839 374:0.27452859 375:0.34183839 376:0.34183839 377:0.34183839 378:0.34183839 379:0.35410991 380:0.1947476 381:0.28421569 382:0.35410991 383:0.35410991 384:0.35410991 385:0.35410991 386:0.35410991 387:0.35410991 388:0.4516128 389:0.077906623 390:0.1529716 391:0.4516128 392:0.4516128 393:0.3418189 394:0.084709249 395:0.16182379 396:0.4516128 397:0.1229635 398:0.039283719 399:0.31571719 400:0.5729779 401:0.5729779 402:0.27707741 403:0.34390539 404:0.1056774 405:0.1229635 406:0.02484093 407:0 408:0.23465049 409:0.66314101 410:0.66314101 411:0.220704 412:0.090793967 413:0.02487462 414:0.02484093 415:0 416:0.00066065899 417:0.079507813 418:0.668513 419:0.668513 420:0.30228731 421:0.042508882 422:0.00059427979 423:0 424:0.096511379 425:0.0092911767 426:0.25870499 427:0.5934183 428:0.5934183 429:0.44685331 430:0.099093318 431:0.0098456936 432:0.06213364 433:0.36667681 434:0.18224271 435:0.36667681 436:0.36667681 437:0.36667681 438:0.36667681 439:0.36667681 440:0.1481934 441:0.36667681 442:0.34962419 443:0.34962419 444:0.34962419 445:0.34962419 446:0.34791231 447:0.34962419 448:0.34962419 449:0.1407278 450:0.34962419 451:0.3497327 452:0.3497327 453:0.3497327 454:0.3497327 455:0.3497327 456:0.32693151 457:0.3395015 458:0.3254858 459:0.2384419 460:0.33998701 461:0.33998701 462:0.28373691 463:0.33998701 464:0.33998701 465:0.32704511 466:0.33998701 467:0.33998701 468:0.33998701 469:0.3494581 470:0.224563 471:0.36244029 472:0.22927371 473:0.33830181 474:0.36244029 475:0.36244029 476:0.36244029 477:0.36244029 478:0.05417233 479:0.063541032 480:0.23107859 481:0.43252569 482:0.43252569 483:0.43252569 484:0.43252569 485:0.4254536 486:0.077364348 487:0.40592331 488:0.048630431 489:0.1433838 490:0.40592331 491:0.40592331 492:0.40592331 493:0.40592331 494:0.31744969 495:0.2199503 496:0.063046463 497:0.028740309 498:0.17176551 499:0.24101999 500:0.66417837 501:0.6538825 502:0.1671529 503:0.01907979 504:0.063046463 505:0.1248683 506:0.02941261 507:0.1911345 508:0.65025473 509:0.65025473 510:0.28103441 511:0.01684567 512:0 513:0.1248683 514:0 515:0.001161693 516:0.047600791 517:0.69925177 518:0.69925177 519:0.1031088 520:0.047063071 521:0 522:0 523:0.01843461 524:0.066770613 525:0.2277153 526:0.60770619 527:0.60770619 528:0.44251099 529:0.051359542 530:0 531:0.01456685 532:0.3342748 533:0.38240409 534:0.32690781 535:0.38240409 536:0.38240409 537:0.38240409 538:0.38240409 539:0.1069033 540:0.1870258 541:0.062306639 542:0.40005049 543:0.40005049 544:0.40005049 545:0.40005049 546:0.40005049 547:0.40005049 548:0.066138133 549:0.16584601 550:0.1385193 551:0.35535991 552:0.35535991 553:0.35535991 554:0.35535991 555:0.35535991 556:0.35535991 557:0.30544609 558:0.35535991 559:0.2450421 560:0.35942549 561:0.35942549 562:0.25367931 563:0.3112722 564:0.35942549 565:0.35942549 566:0.35942549 567:0.35942549 568:0.37048841 569:0.2312557 570:0.37048841 571:0.34840339 572:0.2984511 573:0.21459959 574:0.37048841 575:0.37048841 576:0.37048841 577:0.2152335 578:0.1579362 579:0.38590959 580:0.38590959 581:0.38590959 582:0.38590959 583:0.38590959 584:0.1769689 585:0.38590959 586:0.36172429 587:0.36172429 588:0.36172429 589:0.36172429 590:0.36172429 591:0.36172429 592:0.16662879 593:0.2295852 594:0.36172429 595:0.05547512 596:0.039868239 597:0.1193005 598:0.1459104 599:0.67508042 600:0.67508042 601:0.1962184 602:0.0050025121 603:0.05547512 604:0.032550659 605:0.02715895 606:0.1066393 607:0.69443291 608:0.69443291 609:0.1068018 610:0.053837631 611:0.0077302339 612:0.032550659 613:0 614:7.6569668e-005 615:0.1734716 616:0.66968697 617:0.66968697 618:0.2573944 619:0.0029207431 620:0 621:0 622:0.040736079 623:0.043251678 624:0.55174768 625:0.55174768 626:0.55174768 627:0.26269871 628:0.064901441 629:0.05105466 630:0.043058429 631:0.34379721 632:0.34379721 633:0.34379721 634:0.34379721 635:0.34379721 636:0.34379721 637:0.34379721 638:0.22581621 639:0.34379721 640:0.35098389 641:0.35098389 642:0.35098389 643:0.35098389 644:0.35098389 645:0.35098389 646:0.35098389 647:0.1047657 648:0.35098389 649:0.34817341 650:0.34817341 651:0.34817341 652:0.34817341 653:0.25993291 654:0.34817341 655:0.34817341 656:0.28351969 657:0.34817341 658:0.3432849 659:0.3432849 660:0.3432849 661:0.3432849 662:0.2788052 663:0.30647379 664:0.3432849 665:0.3432849 666:0.3432849 667:0.3758817 668:0.3758817 669:0.3758817 670:0.3758817 671:0.319489 672:0.1744484 673:0.34676209 674:0.1925097 675:0.3758817 676:0.056495931 677:0.1738434 678:0.4810136 679:0.4810136 680:0.4810136 681:0.47646099 682:0.049607899 683:0.061021078 684:0.18563581 685:0.36754221 686:0.36754221 687:0.3551501 688:0.1549672 689:0.36754221 690:0.1888335 691:0.36754221 692:0.36754221 693:0.36754221 694:0.044906139 695:0.03534615 696:0.1057688 697:0.1904844 698:0.87291598 699:0.35654911 700:0.2181484 701:0.042867988 702:0.044906139 703:0.021694509 704:0.062080961 705:0.1989067 706:0.67072457 707:0.67072457 708:0.1511129 709:0.1585696 710:0.0349617 711:0.021694509 712:0.001433138 713:0.001046057 714:0.55440658 715:0.55440658 716:0.55440658 717:0.16144229 718:0.1172556 719:0.180104 720:0.01052446 721:0.1193616 722:0.1739071 723:0.43709919 724:0.43709919 725:0.43709919 726:0.36690289 727:0.26566309 728:0.363267 729:0.20203529 730:0.34893659 731:0.23512299 732:0.34893659 733:0.29821759 734:0.34893659 735:0.34893659 736:0.34893659 737:0.34893659 738:0.34893659 739:0.3507224 740:0.3507224 741:0.3507224 742:0.3507224 743:0.3507224 744:0.3507224 745:0.25777921 746:0.26268351 747:0.3507224 748:0.3460128 749:0.33605191 750:0.3460128 751:0.3460128 752:0.3460128 753:0.3460128 754:0.3460128 755:0.2133958 756:0.3460128 757:0.3673144 758:0.3673144 759:0.3673144 760:0.3673144 761:0.3673144 762:0.3673144 763:0.094114728 764:0.20744491 765:0.3673144 766:0.36017361 767:0.36017361 768:0.36017361 769:0.36017361 770:0.36017361 771:0.14667331 772:0.36017361 773:0.25848261 774:0.36017361 775:0.22527879 776:0.44620809 777:0.44620809 778:0.44620809 779:0.44620809 780:0.3034586 781:0.2271761 782:0.03003642 783:0.061542589 784:0.3386263 785:0.3386263 786:0.2815572 787:0.3386263 788:0.3386263 789:0.3386263 790:0.3386263 791:0.3386263 792:0.3386263 793:0.091604047 794:0.050062541 795:0.16260681 796:0.026184579 797:0.878102 798:0.4138073 799:0.03493632 800:0.023968659 801:0.095495626 802:0.033849709 803:0.095251977 804:0.3607938 805:0.63552678 806:0.63552678 807:0.1998328 808:0.0042273258 809:0.058415748 810:0.045954078 811:0.0061112149 812:0.00424068 813:0.56670058 814:0.56670058 815:0.56670058 816:0.17286129 817:0.0060794419 818:0.03004034 819:0.0040573161 820:0.098303743 821:0.4314726 822:0.4801271 823:0.4801271 824:0.4801271 825:0.2562528 826:0.1583668 827:0.1218811 828:0.046966389 829:0.3525843 830:0.3525843 831:0.3525843 832:0.3525843 833:0.3525843 834:0.3525843 835:0.34361169 836:0.090546101 837:0.3525843 838:0.348259 839:0.348259 840:0.348259 841:0.348259 842:0.348259 843:0.348259 844:0.348259 845:0.348259 846:0.1620056 847:0.34997711 848:0.34997711 849:0.34997711 850:0.34997711 851:0.16321319 852:0.34997711 853:0.33537611 854:0.34997711 855:0.34997711 856:0.3435885 857:0.3435885 858:0.3435885 859:0.3435885 860:0.3435885 861:0.3435885 862:0.2283475 863:0.3435885 864:0.3435885 865:0.3224501 866:0.29400629 867:0.34294951 868:0.34294951 869:0.34294951 870:0.34294951 871:0.34294951 872:0.34294951 873:0.31697589 874:0.36826301 875:0.36826301 876:0.36826301 877:0.36826301 878:0.36826301 879:0.36826301 880:0.28512681 881:0.27835351 882:0.1543922 883:0.348914 884:0.348914 885:0.348914 886:0.348914 887:0.24291679 888:0.348914 889:0.348914 890:0.348914 891:0.2920934 892:0.044556301 893:0.02831316 894:0.119688 895:0.57979572 896:0.68393183 897:0.40555349 898:0.036015481 899:0.058540419 900:0.054192591 901:0.01388691 902:0.01107131 903:0.18933541 904:0.68748409 905:0.68748409 906:0.086847037 907:0.0067203478 908:0.058833081 909:0.025612401 910:0.032902721 911:0.0164668 912:0.56982809 913:0.56982809 914:0.56982809 915:0.13282961 916:0.032945462 917:0.01065034 918:0.00121297 919:0.1361737 920:0.40204531 921:0.40204531 922:0.40204531 923:0.40204531 924:0.40204531 925:0.40204531 926:0.082545713 927:0.02799328 928:0.41107789 929:0.41107789 930:0.41107789 931:0.41107789 932:0.30449411 933:0.17628171 934:0.224566 935:0.050523318 936:0.37838989 937:0.38703409 938:0.38703409 939:0.38703409 940:0.38703409 941:0.38703409 942:0.2191667 943:0.38703409 944:0.169549 945:0.1434575 946:0.37079641 947:0.37079641 948:0.37079641 949:0.37079641 950:0.36963671 951:0.3006478 952:0.3085787 953:0.1541844 954:0.31673571 955:0.3526805 956:0.3526805 957:0.3526805 958:0.3526805 959:0.29082781 960:0.3526805 961:0.3526805 962:0.2030039 963:0.3526805 964:0.35793889 965:0.35793889 966:0.35793889 967:0.35793889 968:0.35793889 969:0.30628291 970:0.33509481 971:0.35793889 972:0.1469852 973:0.33313519 974:0.37260389 975:0.37260389 976:0.37260389 977:0.37260389 978:0.34751931 979:0.37260389 980:0.2408945 981:0.1110407 982:0.25469309 983:0.36746621 984:0.36746621 985:0.36746621 986:0.36746621 987:0.33536819 988:0.36746621 989:0.3227306 990:0.19918931 991:0.1348626 992:0.02734606 993:0.097130664 994:0.378683 995:0.87030411 996:0 997:0.053959519 998:0.1763314 999:0.16766401 1000:0.01797195 1001:0.01462138 1002:0.5753513 1003:0.5753513 1004:0.5753513 1005:0.0040958081 1006:0.0040900968 1007:0.01336581 1008:0.02045827 1009:0.047669809 1010:0.076998733 1011:0.57141018 1012:0.57141018 1013:0.57141018 1014:0.077529803 1015:0.019190179 1016:0.006026485 1017:0.01218393 1018:0.37365389 1019:0.38371181 1020:0.38371181 1021:0.38371181 1022:0.38371181 1023:0.38371181 1024:0.1885408 1025:0.024163799 1026:0.29024819 1027:0.40923151 1028:0.40923151 1029:0.40923151 1030:0.37849319 1031:0.2593646 1032:0.25604159 1033:0.1431877 1034:0.1715896 1035:0.40923151 1036:0.3792558 1037:0.3792558 1038:0.3792558 1039:0.3792558 1040:0.30214879 1041:0.02067221 1042:0.3792558 1043:0.3792558 1044:0.203666 1045:0.3749398 1046:0.3749398 1047:0.3749398 1048:0.3749398 1049:0.27406371 1050:0.1190029 1051:0.3749398 1052:0.28893849 1053:0.34727031 1054:0.33277869 1055:0.33277869 1056:0.33277869 1057:0.33277869 1058:0.33277869 1059:0.33277869 1060:0.33277869 1061:0.33277869 1062:0.33277869 1063:0.34675169 1064:0.34675169 1065:0.34675169 1066:0.34675169 1067:0.34675169 1068:0.34675169 1069:0.31961051 1070:0.34569579 1071:0.2312113 1072:0.12587459 1073:0.34757301 1074:0.41753039 1075:0.3504917 1076:0.41753039 1077:0.41753039 1078:0.41753039 1079:0.1967233 1080:0.017512821 1081:0.33575511 1082:0.43087649 1083:0.43087649 1084:0.43087649 1085:0.43087649 1086:0.30563 1087:0.1860975 1088:0.072418153 1089:0.084022373 #
-0.0031172053669848076 1:0.00267789 2:0 3:0.1123963 4:0.62097949 5:0.62097949 6:0.4501484 7:0.085370272 8:0 9:0.00267789 10:0.05244178 11:0.051553961 12:0.21578141 13:0.42760581 14:0.43272069 15:0.43272069 16:0.43272069 17:0.43272069 18:0.108961 19:0.119965 20:0.196586 21:0.39852431 22:0.36303321 23:0.41466719 24:0.41466719 25:0.41466719 26:0.3124699 27:0.1967763 28:0.1185653 29:0.095501147 30:0.2219733 31:0.33188999 32:0.45415339 33:0.45415339 34:0.45415339 35:0.4250001 36:0.1160665 37:0.1147838 38:0.40161759 39:0.18081699 40:0.2199598 41:0.54285812 42:0.54285812 43:0.1775945 44:0.12587211 45:0.31977561 46:0.49186271 47:0.49186271 48:0.19545791 49:0.025218939 50:0.35539049 51:0.1347831 52:0.0053203269 53:0.29319561 54:0.49186271 55:0.67302769 56:0.1587213 57:0.086821213 58:0.04835096 59:0.17331921 60:0.054366291 61:0.1382885 62:0.01270104 63:0.67302769 64:0.36897099 65:0.32166329 66:0.36897099 67:0.36897099 68:0.36897099 69:0.36897099 70:0.27305669 71:0.038066939 72:0.36897099 73:0.038826231 74:0.39834961 75:0.39834961 76:0.39834961 77:0.39834961 78:0.39834961 79:0.39834961 80:0.13221321 81:0.1579183 82:0.15512849 83:0.40201631 84:0.40201631 85:0.3862851 86:0.40201631 87:0.40201631 88:0.40201631 89:0.044510901 90:0.1124109 91:0.3863309 92:0.27699921 93:0.3863309 94:0.3863309 95:0.3863309 96:0.3863309 97:0.1235304 98:0.092964873 99:0.3863309 100:0.000439558 101:0 102:0.016841309 103:0.62705952 104:0.62705952 105:0.4549433 106:0.0086426567 107:0 108:0.000439558 109:0.3843137 110:0.18244229 111:0.41862029 112:0.41862029 113:0.41862029 114:0.39993191 115:0.20050479 116:0.0089430138 117:0.29812661 118:0.33277869 119:0.33277869 120:0.33277869 121:0.33277869 122:0.33277869 123:0.33277869 124:0.33277869 125:0.33277869 126:0.33277869 127:0.1120231 128:0.1892409 129:0.2349367 130:0.24414439 131:0.42737561 132:0.42737561 133:0.42737561 134:0.42737561 135:0.31932479 136:0.15774959 137:0.45739159 138:0.33484751 139:0.2728909 140:0.45739159 141:0.45739159 142:0.34493279 143:0.1236273 144:0.1485621 145:0.40559319 146:0.40559319 147:0.40559319 148:0.2014585 149:0.40559319 150:0.2495369 151:0.025823539 152:0.26438189 153:0.40559319 154:0.42813829 155:0.42813829 156:0.26195681 157:0.19789959 158:0.42813829 159:0.2056514 160:0.21218909 161:0.2596364 162:0.42813829 163:0.30300561 164:0.36208341 165:0.36208341 166:0.36208341 167:0.36208341 168:0.36208341 169:0.36208341 170:0.2420848 171:0.2435952 172:0.1599001 173:0.35842499 174:0.35842499 175:0.35842499 176:0.35842499 177:0.35842499 178:0.35842499 179:0.26752859 180:0.35842499 181:0.38506579 182:0.38506579 183:0.38506579 184:0.1503031 185:0.30025849 186:0.36409989 187:0.38506579 188:0.097262472 189:0.38506579 190:0.39849979 191:0.39849979 192:0.39849979 193:0.2500321 194:0.39849979 195:0.203226 196:0.1240205 197:0.28776881 198:0.39849979 199:0.0036240439 200:0 201:0.01309259 202:0.51997572 203:0.65937489 204:0.53562421 205:0.03429649 206:0 207:0.0036240439 208:0.44171429 209:0.00081669242 210:0.086650401 211:0.44171429 212:0.44171429 213:0.44171429 214:0.1118973 215:0 216:0.44171429 217:0.40774539 218:0.024470029 219:0.40774539 220:0.40774539 221:0.40774539 222:0.2660585 223:0.1998525 224:0.23090769 225:0.40774539 226:0.16855989 227:0.15750749 228:0.28197649 229:0.38706341 230:0.38706341 231:0.38706341 232:0.36499929 233:0.36180761 234:0.38706341 235:0.1059293 236:0.084963143 237:0.1726988 238:0.40435839 239:0.40435839 240:0.40435839 241:0.36078691 242:0.40435839 243:0.40435839 244:0.1190329 245:0.3357724 246:0.27606481 247:0.37545621 248:0.37545621 249:0.37545621 250:0.37545621 251:0.29713359 252:0.37545621 253:0.3067534 254:0.32974619 255:0.35425341 256:0.35425341 257:0.35425341 258:0.208159 259:0.3504613 260:0.35425341 261:0.35425341 262:0.37631911 263:0.45146781 264:0.45146781 265:0.45146781 266:0.28440049 267:0.1431838 268:0.3088499 269:0.131199 270:0.1685773 271:0.34174249 272:0.34174249 273:0.34174249 274:0.34174249 275:0.34174249 276:0.34174249 277:0.34174249 278:0.2495638 279:0.34174249 280:0.33987081 281:0.33987081 282:0.33987081 283:0.33987081 284:0.33987081 285:0.33987081 286:0.2692709 287:0.33987081 288:0.33987081 289:0.40335521 290:0.40335521 291:0.30033189 292:0.25652289 293:0.32383701 294:0.054406092 295:0.28522861 296:0.40335521 297:0.40335521 298:0.004264181 299:0 300:0.071426183 301:0.46117979 302:0.837412 303:0.24147969 304:0.1193618 305:0 306:0.004264181 307:0 308:0 309:0.035716239 310:0.63915771 311:0.63915771 312:0.41868609 313:0 314:0 315:0 316:0.0026264719 317:0.02334867 318:0.38257229 319:0.6263653 320:0.6263653 321:0.2489756 322:0.01209249 323:0 324:0.0055404129 325:0.3895148 326:0.070522673 327:0.3895148 328:0.3895148 329:0.3895148 330:0.3895148 331:0.2490802 332:0.1369804 333:0.3895148 334:0.37983009 335:0.1440389 336:0.2471998 337:0.37983009 338:0.37983009 339:0.37983009 340:0.37983009 341:0.2207374 342:0.37983009 343:0.43122959 344:0.21369439 345:0.217447 346:0.25316179 347:0.2430945 348:0.1890029 349:0.43122959 350:0.43122959 351:0.43122959 352:0.37011269 353:0.37011269 354:0.3010906 355:0.37011269 356:0.37011269 357:0.2838251 358:0.056477521 359:0.37011269 360:0.37011269 361:0.2220474 362:0.35253879 363:0.35253879 364:0.35253879 365:0.35253879 366:0.35253879 367:0.35253879 368:0.27782619 369:0.35253879 370:0.1218454 371:0.34702671 372:0.23362 373:0.47855359 374:0.49262929 375:0.49262929 376:0.1673135 377:0.038570128 378:0.24772041 379:0.3746241 380:0.28524941 381:0.3746241 382:0.3746241 383:0.3746241 384:0.3746241 385:0.1088126 386:0.24696331 387:0.3746241 388:0.3587209 389:0.35458609 390:0.3587209 391:0.3587209 392:0.25850421 393:0.34755799 394:0.1991493 395:0.3587209 396:0.3587209 397:0.0044197142 398:0 399:0.080727711 400:0.68977982 401:0.68977982 402:0.1832685 403:0.03712571 404:0 405:0.0044197142 406:0 407:0 408:0.033793941 409:0.69437271 410:0.69437271 411:0.1661911 412:0 413:0 414:0 415:0.064281523 416:0.00023306849 417:0.01742645 418:0.2116459 419:0.8138321 420:0.5192849 421:0.024433071 422:0.0073740589 423:0.1000879 424:0.4097755 425:0.3651287 426:0.248403 427:0.2766743 428:0.4097755 429:0.4097755 430:0.1799413 431:0.1424505 432:0.4097755 433:0.33516541 434:0.33516541 435:0.33516541 436:0.33516541 437:0.33516541 438:0.33516541 439:0.32310241 440:0.3254312 441:0.33516541 442:0.41806459 443:0.29032251 444:0.41806459 445:0.26818281 446:0.16805699 447:0.1106405 448:0.3162562 449:0.41806459 450:0.41806459 451:0.3487854 452:0.3487854 453:0.3487854 454:0.3487854 455:0.3487854 456:0.3487854 457:0.1526594 458:0.3487854 459:0.3487854 460:0.35265821 461:0.35265821 462:0.086789273 463:0.35265821 464:0.35265821 465:0.35265821 466:0.35265821 467:0.35265821 468:0.34404901 469:0.14961781 470:0.1255278 471:0.35007229 472:0.44394109 473:0.44394109 474:0.44394109 475:0.2672101 476:0.21809269 477:0.35306591 478:0.33277869 479:0.33277869 480:0.33277869 481:0.33277869 482:0.33277869 483:0.33277869 484:0.33277869 485:0.33277869 486:0.33277869 487:0.24835519 488:0.1850439 489:0.35866719 490:0.35866719 491:0.35866719 492:0.35866719 493:0.35866719 494:0.35866719 495:0.35866719 496:0.005652254 497:0 498:0.004655323 499:0.58029699 500:0.58139902 501:0.56194311 502:0.059662689 503:0 504:0.005652254 505:0.40297371 506:0.2716516 507:0.40297371 508:0.40297371 509:0.40297371 510:0.29984179 511:0.01801246 512:0.1414597 513:0.40297371 514:0.3797994 515:0.3797994 516:0.3797994 517:0.2023956 518:0.3797994 519:0.3797994 520:0.26303381 521:0.1434207 522:0.3797994 523:0.3529537 524:0.3529537 525:0.323998 526:0.139515 527:0.3529537 528:0.3529537 529:0.3529537 530:0.3529537 531:0.3529537 532:0.33850789 533:0.33850789 534:0.33850789 535:0.33850789 536:0.33850789 537:0.28269619 538:0.33850789 539:0.33850789 540:0.33850789 541:0.36491239 542:0.3005282 543:0.36491239 544:0.35437211 545:0.21426789 546:0.26218581 547:0.36491239 548:0.36491239 549:0.36491239 550:0.36943239 551:0.36943239 552:0.36943239 553:0.36943239 554:0.36943239 555:0.36943239 556:0.19018 557:0.1317503 558:0.35199571 559:0.36922669 560:0.36922669 561:0.2109531 562:0.36922669 563:0.36922669 564:0.32488421 565:0.36922669 566:0.1681964 567:0.36922669 568:0.17054489 569:0.17435931 570:0.1902407 571:0.41762611 572:0.41762611 573:0.41762611 574:0.41762611 575:0.16760731 576:0.41762611 577:0.21041641 578:0.1710631 579:0.36663771 580:0.35201949 581:0.37711599 582:0.37711599 583:0.37711599 584:0.37711599 585:0.3090114 586:0.30263221 587:0.2546196 588:0.3663162 589:0.1865408 590:0.3663162 591:0.3663162 592:0.3663162 593:0.3663162 594:0.3663162 595:0.002922707 596:0.1638072 597:0.49276209 598:0.48817441 599:0.49276209 600:0.49276209 601:0.03834917 602:0 603:0.002922707 604:0.05615687 605:0.47303349 606:0.47303349 607:0.47303349 608:0.47303349 609:0.1088444 610:0.1002716 611:0.240529 612:0.13161729 613:0.351284 614:0.351284 615:0.351284 616:0.29213011 617:0.351284 618:0.2577928 619:0.32294041 620:0.351284 621:0.351284 622:0.3488287 623:0.3488287 624:0.32636029 625:0.3488287 626:0.3488287 627:0.2409849 628:0.31912571 629:0.3488287 630:0.3488287 631:0.35065141 632:0.29485199 633:0.35065141 634:0.35065141 635:0.2210529 636:0.35065141 637:0.35065141 638:0.35065141 639:0.35065141 640:0.53121448 641:0.066839673 642:0.1812579 643:0.21051849 644:0.2800397 645:0.2110205 646:0.3893522 647:0.27226859 648:0.53121448 649:0.39166999 650:0.39166999 651:0.19549 652:0.39166999 653:0.39166999 654:0.39166999 655:0.19189329 656:0.02481105 657:0.39166999 658:0.37104541 659:0.37104541 660:0.34543601 661:0.37104541 662:0.37104541 663:0.37104541 664:0.37104541 665:0.162384 666:0.1566859 667:0.33051041 668:0.37301421 669:0.1149479 670:0.13518 671:0.2022149 672:0.410835 673:0.410835 674:0.410835 675:0.410835 676:0.38277581 677:0.36478171 678:0.2019483 679:0.38277581 680:0.1596695 681:0.25346851 682:0.38277581 683:0.38277581 684:0.38277581 685:0.33861911 686:0.33861911 687:0.28162619 688:0.33861911 689:0.33861911 690:0.33861911 691:0.33861911 692:0.33861911 693:0.33861911 694:0.001575861 695:0.095962018 696:0.1936563 697:0.46506351 698:0.64917648 699:0.5546515 700:0.038078658 701:0 702:0.001575861 703:0.041015729 704:0.38120139 705:0.43359581 706:0.43359581 707:0.43359581 708:0.424963 709:0.2007291 710:0.2446162 711:0.062715448 712:0.2050572 713:0.049330909 714:0.06192828 715:0.39743191 716:0.39743191 717:0.39743191 718:0.39743191 719:0.39743191 720:0.39743191 721:0.19369631 722:0.4019601 723:0.4019601 724:0.4019601 725:0.4019601 726:0.32209441 727:0.29507571 728:0.1893777 729:0.292404 730:0.3435365 731:0.3435365 732:0.3435365 733:0.3435365 734:0.3435365 735:0.3435365 736:0.2422844 737:0.3342824 738:0.3435365 739:0.35808229 740:0.2978307 741:0.35808229 742:0.35808229 743:0.35808229 744:0.35808229 745:0.35808229 746:0.1007912 747:0.35808229 748:0.33840361 749:0.3387953 750:0.34915701 751:0.34915701 752:0.34915701 753:0.34915701 754:0.34915701 755:0.18907259 756:0.34915701 757:0.16926029 758:0.39753199 759:0.39753199 760:0.39753199 761:0.39753199 762:0.39753199 763:0.26121691 764:0.26491281 765:0.1969974 766:0.25585419 767:0.34116161 768:0.34116161 769:0.34116161 770:0.34116161 771:0.34116161 772:0.34116161 773:0.34116161 774:0.34116161 775:0.3205466 776:0.2129111 777:0.30094501 778:0.40516421 779:0.23423579 780:0.2242716 781:0.40516421 782:0.40516421 783:0.39958119 784:0.29832089 785:0.31185481 786:0.34024191 787:0.34024191 788:0.34024191 789:0.34024191 790:0.34024191 791:0.34024191 792:0.34024191 793:0.01371305 794:0.26890171 795:0.515562 796:0.515562 797:0.515562 798:0.3530055 799:0.017531451 800:0 801:0.00470859 802:0.21501391 803:0.43627909 804:0.43627909 805:0.43627909 806:0.43627909 807:0.32890761 808:0.031141151 809:0.1455953 810:0.2402191 811:0.33277869 812:0.33277869 813:0.33277869 814:0.33277869 815:0.33277869 816:0.33277869 817:0.33277869 818:0.33277869 819:0.33277869 820:0.34599161 821:0.34599161 822:0.34599161 823:0.34599161 824:0.34599161 825:0.34599161 826:0.34599161 827:0.19713379 828:0.34599161 829:0.33606479 830:0.3086161 831:0.36963999 832:0.36963999 833:0.36963999 834:0.36963999 835:0.31012931 836:0.093674242 837:0.36963999 838:0.35439709 839:0.35439709 840:0.35439709 841:0.35439709 842:0.35439709 843:0.27285421 844:0.35439709 845:0.2069505 846:0.35439709 847:0.340821 848:0.340821 849:0.340821 850:0.340821 851:0.32946661 852:0.340821 853:0.31178939 854:0.30639881 855:0.340821 856:0.37187329 857:0.37187329 858:0.37187329 859:0.27429089 860:0.37187329 861:0.37187329 862:0.17757639 863:0.24449471 864:0.37187329 865:0.2274245 866:0.30356649 867:0.3461169 868:0.31309009 869:0.36785349 870:0.36785349 871:0.36785349 872:0.30555439 873:0.36785349 874:0.2267011 875:0.02558996 876:0.2347763 877:0.312296 878:0.39782631 879:0.39782631 880:0.39782631 881:0.39782631 882:0.39782631 883:0.38484129 884:0.0083040716 885:0.1876646 886:0.332441 887:0.38484129 888:0.33141741 889:0.38484129 890:0.38484129 891:0.38484129 892:0.0330882 893:0.13562509 894:0.38687599 895:0.4749656 896:0.4749656 897:0.4749656 898:0.38301319 899:0.050361 900:0.0090391524 901:0.32075179 902:0.3529714 903:0.3529714 904:0.3529714 905:0.3529714 906:0.3529714 907:0.3529714 908:0.3529714 909:0.14652599 910:0.27293879 911:0.40707701 912:0.40707701 913:0.40707701 914:0.33027259 915:0.35053551 916:0.36591741 917:0.22081131 918:0.098459966 919:0.1194307 920:0.220129 921:0.37118241 922:0.39732689 923:0.39732689 924:0.39732689 925:0.39732689 926:0.39732689 927:0.078679323 928:0.37722531 929:0.2052485 930:0.36102119 931:0.37722531 932:0.37722531 933:0.37722531 934:0.31921589 935:0.1018559 936:0.37722531 937:0.34485811 938:0.34485811 939:0.27780089 940:0.29477319 941:0.34485811 942:0.34485811 943:0.34485811 944:0.34485811 945:0.34485811 946:0.34179601 947:0.34179601 948:0.2489754 949:0.34179601 950:0.34179601 951:0.34179601 952:0.34179601 953:0.34179601 954:0.34179601 955:0.39644179 956:0.224949 957:0.1330162 958:0.39644179 959:0.39644179 960:0.39644179 961:0.1179878 962:0.35776079 963:0.39644179 964:0.3823311 965:0.1735294 966:0.1520205 967:0.25670049 968:0.3823311 969:0.3823311 970:0.3823311 971:0.3823311 972:0.3823311 973:0.3443329 974:0.31833759 975:0.3443329 976:0.25546971 977:0.3443329 978:0.3443329 979:0.3443329 980:0.3443329 981:0.3443329 982:0.38600171 983:0.1383632 984:0.34751779 985:0.34071761 986:0.2476165 987:0.28781751 988:0.38600171 989:0.38600171 990:0.38600171 991:0.001266781 992:0 993:0.037648682 994:0.65748519 995:0.65748519 996:0.3414863 997:0.098954171 998:0.01492831 999:0.028566031 1000:0.089098632 1001:0.1005143 1002:0.14010321 1003:0.46264541 1004:0.46264541 1005:0.28885281 1006:0.46264541 1007:0.46264541 1008:0.13457111 1009:0.35047439 1010:0.35047439 1011:0.3264766 1012:0.1734511 1013:0.35047439 1014:0.35047439 1015:0.35047439 1016:0.35047439 1017:0.35047439 1018:0.2351705 1019:0.1157233 1020:0.22892749 1021:0.35246441 1022:0.4142234 1023:0.4142234 1024:0.4142234 1025:0.4142234 1026:0.2533806 1027:0.1940138 1028:0.071920052 1029:0.4719469 1030:0.4886651 1031:0.4886651 1032:0.4886651 1033:0.070690133 1034:0.06059384 1035:0.06724757 1036:0.2889455 1037:0.29039431 1038:0.42412451 1039:0.46834499 1040:0.46834499 1041:0.42493469 1042:0.043610942 1043:0.1318676 1044:0.09522301 1045:0.34111369 1046:0.38512671 1047:0.38512671 1048:0.38512671 1049:0.38512671 1050:0.15946379 1051:0.2386362 1052:0.38512671 1053:0.2362311 1054:0.3869966 1055:0.2919682 1056:0.34184521 1057:0.3869966 1058:0.3869966 1059:0.2620388 1060:0.3270157 1061:0.139145 1062:0.3869966 1063:0.33726299 1064:0.33726299 1065:0.33726299 1066:0.33726299 1067:0.33726299 1068:0.32108799 1069:0.33726299 1070:0.3119427 1071:0.33726299 1072:0.35275951 1073:0.35275951 1074:0.35275951 1075:0.35275951 1076:0.35275951 1077:0.1926083 1078:0.35275951 1079:0.29715809 1080:0.35275951 1081:0.35832629 1082:0.31775439 1083:0.35832629 1084:0.35832629 1085:0.1902646 1086:0.29810289 1087:0.35832629 1088:0.35832629 1089:0.35832629 #
-0.0083167332568732204 1:0.34255749 2:0.34255749 3:0.27420399 4:0.34255749 5:0.34255749 6:0.31618029 7:0.34255749 8:0.34255749 9:0.34255749 10:0.4717049 11:0.4717049 12:0.053016849 13:0.31886539 14:0.21573479 15:0.3356505 16:0.1850272 17:0.172766 18:0.4717049 19:0.67511731 20:0.044629291 21:0.081707209 22:0.085524261 23:0.033659831 24:0.040040109 25:0.078184783 26:0.2384581 27:0.67511731 28:0.63748032 29:0.25221559 30:0.12520909 31:0.02916597 32:0.066102147 33:0.002260593 34:0.063462988 35:0.30385941 36:0.63748032 37:0.61234027 38:0.2027804 39:0.17321169 40:0.15128911 41:0.1114594 42:0.0082478896 43:0.01567691 44:0.37042829 45:0.61234027 46:0.3923445 47:0.3923445 48:0.3923445 49:0.36384019 50:0.1969571 51:0.15936381 52:0.1727448 53:0.3923445 54:0.3923445 55:0.42998299 56:0.1342348 57:0.2523095 58:0.2423411 59:0.2022471 60:0.38684219 61:0.42998299 62:0.33179751 63:0.42998299 64:0.36748409 65:0.1760648 66:0.36748409 67:0.1414848 68:0.36748409 69:0.36748409 70:0.36748409 71:0.36748409 72:0.36748409 73:0.36428201 74:0.36428201 75:0.32863891 76:0.17952091 77:0.36428201 78:0.36428201 79:0.36428201 80:0.2447882 81:0.36428201 82:0.36463019 83:0.36463019 84:0.36463019 85:0.091688126 86:0.36463019 87:0.36463019 88:0.2392991 89:0.36463019 90:0.36463019 91:0.38780871 92:0.38780871 93:0.081941813 94:0.38780871 95:0.38780871 96:0.37612271 97:0.089125037 98:0.29668459 99:0.38780871 100:0.1878216 101:0.1997938 102:0.26096961 103:0.52481121 104:0.52481121 105:0.52481121 106:0.15466221 107:0.002296028 108:0.035398219 109:0.45104179 110:0.2423178 111:0.042194251 112:0.45104179 113:0.45104179 114:0.45104179 115:0.1702031 116:0.23589151 117:0.191383 118:0.35751551 119:0.35751551 120:0.35751551 121:0.25920171 122:0.1857993 123:0.35751551 124:0.35751551 125:0.35751551 126:0.35751551 127:0.62782699 128:0.2547777 129:0.1242848 130:0.037929539 131:0.03399628 132:0.023294291 133:0.097165592 134:0.3353529 135:0.62782699 136:0.66850299 137:0.1019171 138:0.040460151 139:0.064966209 140:0.091790371 141:0.01369176 142:0.036737069 143:0.27078891 144:0.66850299 145:0.50189209 146:0.33840939 147:0.25636131 148:0.055497169 149:0.044693049 150:0.023186849 151:0.2311776 152:0.50189209 153:0.50189209 154:0.40478721 155:0.31723699 156:0.40478721 157:0.26207229 158:0.082865372 159:0.02247129 160:0.40478721 161:0.40478721 162:0.40478721 163:0.26656729 164:0.2136147 165:0.35451549 166:0.35451549 167:0.35451549 168:0.35451549 169:0.35451549 170:0.35451549 171:0.35451549 172:0.33994401 173:0.33994401 174:0.26852959 175:0.33994401 176:0.33994401 177:0.33994401 178:0.33994401 179:0.33994401 180:0.33994401 181:0.35253751 182:0.35253751 183:0.35253751 184:0.097267069 185:0.34210879 186:0.35253751 187:0.35253751 188:0.35253751 189:0.35253751 190:0.35174251 191:0.1352309 192:0.33487141 193:0.35174251 194:0.35174251 195:0.35174251 196:0.35174251 197:0.35174251 198:0.35174251 199:0.002748979 200:7.0207207e-005 201:0.056047499 202:0.51878268 203:0.75048012 204:0.39588219 205:0.01009993 206:0.01168153 207:0.006578201 208:0.01512737 209:0.051258251 210:0.0024741851 211:0.32143319 212:0.70280617 213:0.4501678 214:0.2223241 215:0.36839899 216:0.071198173 217:0.2626929 218:0.2447388 219:0.4024348 220:0.47861439 221:0.47861439 222:0.36626089 223:0.077627353 224:0.1336778 225:0.29694229 226:0.51429772 227:0.13118909 228:0.28067869 229:0.055428449 230:0.51429772 231:0.28271639 232:0.03215627 233:0.1460527 234:0.51429772 235:0.53457862 236:0.01270893 237:0.1311615 238:0.1797304 239:0.53457862 240:0.239959 241:0.1423434 242:0.09913972 243:0.53457862 244:0.42651159 245:0.37149861 246:0.1782271 247:0.34169811 248:0.42651159 249:0.2030317 250:0.1905012 251:0.2931838 252:0.42651159 253:0.47607279 254:0.3105638 255:0.087260589 256:0.31613001 257:0.47607279 258:0.1243412 259:0.2090167 260:0.2283809 261:0.47607279 262:0.35165119 263:0.35165119 264:0.084958859 265:0.35165119 266:0.35165119 267:0.35165119 268:0.35165119 269:0.35165119 270:0.35165119 271:0.3819482 272:0.32654461 273:0.097072087 274:0.069447987 275:0.3819482 276:0.3819482 277:0.3819482 278:0.3819482 279:0.3819482 280:0.36777499 281:0.36777499 282:0.35851321 283:0.099163488 284:0.36777499 285:0.36777499 286:0.2154292 287:0.36777499 288:0.36777499 289:0.29515111 290:0.26828259 291:0.231667 292:0.378429 293:0.378429 294:0.378429 295:0.25964871 296:0.378429 297:0.378429 298:0.0028339829 299:0.00039649999 300:0.0087174261 301:0.14872751 302:0.69669229 303:0.69669229 304:0.0060764379 305:0.0048877969 306:0.004491732 307:0 308:0.00056709338 309:0.001696953 310:0.33741379 311:0.88570708 312:0.2856448 313:0.069706827 314:0.076310419 315:0.0236417 316:0.002568074 317:7.6742603e-005 318:0.0026424851 319:0.604756 320:0.68467188 321:0.39620239 322:0.026172049 323:0.02269383 324:0.021673299 325:0.177605 326:0.2054791 327:0.2097075 328:0.43423989 329:0.43423989 330:0.4332408 331:0.212359 332:0.28183869 333:0.43423989 334:0.38212949 335:0.2400019 336:0.33647019 337:0.23618139 338:0.38212949 339:0.38212949 340:0.1986776 341:0.38212949 342:0.38212949 343:0.39246881 344:0.39246881 345:0.39246881 346:0.39246881 347:0.39246881 348:0.27248251 349:0.2145129 350:0.2233101 351:0.2362006 352:0.30551821 353:0.35947481 354:0.37023929 355:0.37023929 356:0.37023929 357:0.37023929 358:0.2167584 359:0.20339011 360:0.37023929 361:0.22998761 362:0.1321529 363:0.34997749 364:0.32142889 365:0.40557161 366:0.40557161 367:0.32189131 368:0.32048389 369:0.40557161 370:0.4808057 371:0.1131677 372:0.03941673 373:0.01876439 374:0.025706129 375:0.4808057 376:0.4808057 377:0.2347929 378:0.4808057 379:0.43333319 380:0.069617927 381:0.02824517 382:0.2164783 383:0.065388121 384:0.43333319 385:0.43333319 386:0.43333319 387:0.43333319 388:0.37305641 389:0.2235059 390:0.1435267 391:0.30115071 392:0.37305641 393:0.37305641 394:0.37305641 395:0.37305641 396:0.37305641 397:0.0044293972 398:0.001792397 399:0.0089528961 400:0.096134342 401:0.73606408 402:0.6643436 403:0.01154875 404:0.0035244459 405:0.0044293972 406:0.0013754549 407:0.01133952 408:0.01625514 409:0.3855367 410:0.87092221 411:0.28818649 412:0.01337478 413:0.022768671 414:0.0047179218 415:0.0042936709 416:0.0048758802 417:0.036124099 418:0.37152591 419:0.8495903 420:0.3562797 421:0.05758426 422:0.0093760006 423:0.00079513411 424:0.34691349 425:0.3276943 426:0.34036481 427:0.37531099 428:0.37531099 429:0.1761637 430:0.37531099 431:0.33352461 432:0.29634821 433:0.3427352 434:0.3427352 435:0.3427352 436:0.23840339 437:0.3427352 438:0.3427352 439:0.3427352 440:0.3427352 441:0.3427352 442:0.29617441 443:0.31009629 444:0.1534791 445:0.1935592 446:0.26004109 447:0.4133248 448:0.4133248 449:0.4133248 450:0.4133248 451:0.05963989 452:0.067705907 453:0.1787248 454:0.40417609 455:0.40417609 456:0.40417609 457:0.40417609 458:0.40417609 459:0.372944 460:0.025146561 461:0.091153502 462:0.17707171 463:0.61783642 464:0.61783642 465:0.42465261 466:0.06622415 467:0.063700557 468:0.036315199 469:0.33333471 470:0.32828829 471:0.33333471 472:0.33333471 473:0.33333471 474:0.33333471 475:0.33333471 476:0.33333471 477:0.33333471 478:0.1745045 479:0.042454239 480:0.098345041 481:0.13991509 482:0.41342521 483:0.28269061 484:0.47710869 485:0.47710869 486:0.47710869 487:0.2297671 488:0.04631798 489:0.068792611 490:0.052279148 491:0.1106605 492:0.1209878 493:0.54931068 494:0.54931068 495:0.54931068 496:0.14972501 497:0.14117549 498:0.02703491 499:0.13035341 500:0.62131071 501:0.62131071 502:0.079472087 503:0.30626741 504:0.2481053 505:0.001451383 506:0.0076110698 507:0.01331011 508:0.33062571 509:0.65409201 510:0.65409201 511:0.1680633 512:0.001081999 513:0.00022420259 514:0.00061397348 515:0.0017056901 516:0.01896612 517:0.2860086 518:0.88284791 519:0.35986659 520:0.01012768 521:0.00020768119 522:4.3033921e-005 523:0.42535621 524:0.26684809 525:0.1602708 526:0.3995752 527:0.42535621 528:0.26535469 529:0.34820721 530:0.068925127 531:0.42535621 532:0.33980471 533:0.33980471 534:0.33980471 535:0.33980471 536:0.33980471 537:0.2871702 538:0.33980471 539:0.3253729 540:0.33980471 541:0.36559549 542:0.3283003 543:0.36559549 544:0.33311111 545:0.18774679 546:0.27212849 547:0.36559549 548:0.36559549 549:0.36559549 550:0.33277869 551:0.33277869 552:0.33277869 553:0.33277869 554:0.33277869 555:0.33277869 556:0.33277869 557:0.33277869 558:0.33277869 559:0.35814631 560:0.35814631 561:0.240693 562:0.35814631 563:0.35814631 564:0.3470442 565:0.2200827 566:0.35814631 567:0.35814631 568:0.2344496 569:0.2140892 570:0.3695839 571:0.3695839 572:0.3695839 573:0.3695839 574:0.3695839 575:0.28704029 576:0.36076781 577:0.28907329 578:0.047433779 579:0.3812823 580:0.3812823 581:0.3812823 582:0.3812823 583:0.3812823 584:0.19634899 585:0.3807146 586:0.38495079 587:0.1384736 588:0.1711604 589:0.38495079 590:0.38495079 591:0.2419932 592:0.38495079 593:0.38495079 594:0.38495079 595:0.28092459 596:0.1857776 597:0.1286469 598:0.3478862 599:0.53355229 600:0.53355229 601:0.2865811 602:0.1428373 603:0.26791319 604:0.0069925259 605:0.003029885 606:0.018246351 607:0.46093851 608:0.62151778 609:0.62151778 610:0.091369621 611:0.002176757 612:0.00414252 613:0.25269821 614:0.0025766711 615:0.01551704 616:0.35631549 617:0.68563288 618:0.4554975 619:0.21811301 620:0.2014517 621:0.1906949 622:0.47730741 623:0.083024777 624:0.062980808 625:0.1002345 626:0.47730741 627:0.43378791 628:0.2130331 629:0.2393828 630:0.47730741 631:0.54217172 632:0.097039849 633:0.35112911 634:0.1857304 635:0.1832799 636:0.1058915 637:0.30714601 638:0.31676191 639:0.54217172 640:0.64323252 641:0.21491461 642:0.027371651 643:0.065075807 644:0.1105051 645:0.038481072 646:0.2487694 647:0.1983209 648:0.64323252 649:0.57540119 650:0.45697439 651:0.1047221 652:0.073855691 653:0.2085861 654:0.13679039 655:0.1426058 656:0.15581401 657:0.57540119 658:0.38201609 659:0.2095101 660:0.042284358 661:0.27364829 662:0.38201609 663:0.38201609 664:0.38201609 665:0.38201609 666:0.38201609 667:0.1136228 668:0.089584641 669:0.1478442 670:0.33187309 671:0.4260385 672:0.4260385 673:0.4260385 674:0.4234345 675:0.34494641 676:0.2323335 677:0.15086479 678:0.40054101 679:0.40054101 680:0.40054101 681:0.40054101 682:0.28518501 683:0.2590979 684:0.35925621 685:0.2341674 686:0.137474 687:0.3630504 688:0.3630504 689:0.3630504 690:0.3630504 691:0.3630504 692:0.3630504 693:0.3630504 694:0.059084099 695:0.034426119 696:0.049210239 697:0.38337371 698:0.86800933 699:0.283995 700:0.0097205853 701:0.02008575 702:0.05171429 703:0.1006383 704:0.052533161 705:0.32091421 706:0.36377171 707:0.79375267 708:0.31509709 709:0.068893053 710:0.0098345177 711:0.098499119 712:0.39890349 713:0.122416 714:0.1308272 715:0.39890349 716:0.39890349 717:0.38061881 718:0.2055518 719:0.37455979 720:0.39890349 721:0.49782199 722:0.019957781 723:0.00348221 724:0.1573018 725:0.49782199 726:0.32970771 727:0.16215821 728:0.3023093 729:0.49782199 730:0.69847792 731:0.070403717 732:0.031854808 733:0.0047277468 734:0.04989554 735:0.035613369 736:0.038218848 737:0.077926368 738:0.69847792 739:0.68573469 740:0.029247841 741:0.14785109 742:0.085248344 743:0.080277883 744:0.053313829 745:0.026542541 746:0.1127662 747:0.68573469 748:0.48613459 749:0.1153757 750:0.068449654 751:0.44610909 752:0.48613459 753:0.1205204 754:0.092219353 755:0.2147653 756:0.48613459 757:0.1624494 758:0.037713941 759:0.05932131 760:0.43789279 761:0.43789279 762:0.40677339 763:0.43789279 764:0.4092133 765:0.23690569 766:0.001585478 767:0.098012 768:0.06134608 769:0.23771191 770:0.4797509 771:0.4797509 772:0.4797509 773:0.4797509 774:0.068449043 775:0.2381974 776:0.066322468 777:0.2026009 778:0.38883579 779:0.43743321 780:0.43743321 781:0.43743321 782:0.30740419 783:0.27150089 784:0.33639979 785:0.33639979 786:0.33639979 787:0.33639979 788:0.33639979 789:0.30219251 790:0.33639979 791:0.33639979 792:0.33639979 793:0.030264679 794:0.01743179 795:0.091597617 796:0.57191169 797:0.57191169 798:0.57191169 799:0.049521189 800:0.01063319 801:0.029406341 802:0.2346624 803:0.057214811 804:0.096401311 805:0.2568472 806:0.42997849 807:0.42997849 808:0.3501071 809:0.42997849 810:0.42997849 811:0.35926649 812:0.1305794 813:0.27541319 814:0.35926649 815:0.35926649 816:0.35926649 817:0.35926649 818:0.35926649 819:0.35926649 820:0.36356941 821:0.020908469 822:0.36356941 823:0.36356941 824:0.36356941 825:0.26580369 826:0.36356941 827:0.36356941 828:0.36356941 829:0.5167625 830:0.0717436 831:0.25434691 832:0.1222987 833:0.024877399 834:0.31963661 835:0.5167625 836:0.078267753 837:0.5167625 838:0.45030281 839:0.435451 840:0.45030281 841:0.2883597 842:0.1118393 843:0.1837575 844:0.1267166 845:0.22821739 846:0.45030281 847:0.50973409 848:0.27788439 849:0.2414106 850:0.50973409 851:0.2567929 852:0.071363978 853:0.065390989 854:0.067914248 855:0.50973409 856:0.37848011 857:0.36249769 858:0.1449165 859:0.37848011 860:0.35589829 861:0.03023147 862:0.37848011 863:0.37848011 864:0.37848011 865:0.33256999 866:0.1133328 867:0.36406419 868:0.36406419 869:0.36406419 870:0.36406419 871:0.36406419 872:0.36406419 873:0.27867359 874:0.1797854 875:0.1788289 876:0.1312788 877:0.43243811 878:0.43243811 879:0.43243811 880:0.43243811 881:0.38631451 882:0.1299765 883:0.34434909 884:0.34434909 885:0.34434909 886:0.34434909 887:0.34434909 888:0.34434909 889:0.21897329 890:0.34434909 891:0.34434909 892:0.1562086 893:0.44891709 894:0.44891709 895:0.44891709 896:0.44891709 897:0.2342473 898:0.19474231 899:0.228026 900:0.14218479 901:0.37972659 902:0.2689451 903:0.2964696 904:0.2098389 905:0.37972659 906:0.26643389 907:0.37972659 908:0.37972659 909:0.37972659 910:0.4820067 911:0.018101251 912:0.1018922 913:0.08502733 914:0.091453582 915:0.19889911 916:0.4820067 917:0.4820067 918:0.4820067 919:0.4164646 920:0.0082455892 921:0.4164646 922:0.4164646 923:0.0496905 924:0.1047497 925:0.40938571 926:0.34779629 927:0.4164646 928:0.51651663 929:0.0068122572 930:0.24723589 931:0.1428348 932:0.0091205873 933:0.33401561 934:0.51651663 935:0.035355259 936:0.51651663 937:0.37651649 938:0.35169351 939:0.37651649 940:0.37651649 941:0.37651649 942:0.37651649 943:0.044315401 944:0.1414153 945:0.37651649 946:0.41169909 947:0.1513162 948:0.35343039 949:0.41169909 950:0.41169909 951:0.41169909 952:0.0024979671 953:0.02430217 954:0.41169909 955:0.66003168 956:0.13299461 957:0.1833504 958:0.051904831 959:0.1417104 960:0.02635063 961:0.074173272 962:0.2045726 963:0.66003168 964:0.35983339 965:0.1037515 966:0.35983339 967:0.28156689 968:0.35983339 969:0.35983339 970:0.35983339 971:0.35983339 972:0.35983339 973:0.2415427 974:0.35855511 975:0.35855511 976:0.35855511 977:0.35855511 978:0.35855511 979:0.35855511 980:0.33515391 981:0.2331863 982:0.3651185 983:0.3651185 984:0.3651185 985:0.3651185 986:0.3651185 987:0.3651185 988:0.1217833 989:0.2198644 990:0.3651185 991:0.037634481 992:0.489941 993:0.489941 994:0.489941 995:0.489941 996:0.1247539 997:0.1327204 998:0.0107944 999:0.01506042 1000:0.39717719 1001:0.3573893 1002:0.4179672 1003:0.2184778 1004:0.4179672 1005:0.149368 1006:0.25555441 1007:0.22562531 1008:0.4179672 1009:0.55412209 1010:0.22106551 1011:0.55412209 1012:0.00046244459 1013:0.033621229 1014:0.01055548 1015:0.0148583 1016:0.1515917 1017:0.55412209 1018:0.53554273 1019:0.1370858 1020:0.27334949 1021:0 1022:0.0595164 1023:0.036980961 1024:0.53554273 1025:0.18923961 1026:0.53554273 1027:0.5395807 1028:0.5395807 1029:0.3015812 1030:0.001405046 1031:0.03134504 1032:0.01459856 1033:0.1491794 1034:0.08225707 1035:0.5395807 1036:0.4295063 1037:0.4295063 1038:0.4295063 1039:0.210379 1040:0.4295063 1041:0.1595007 1042:0.056449879 1043:0.021093599 1044:0.4295063 1045:0.2047058 1046:0.1081882 1047:0.1386444 1048:0.50138283 1049:0.50138283 1050:0.50138283 1051:0.25689149 1052:0.018646309 1053:0.31885111 1054:0.1781088 1055:0.024916099 1056:0.1156984 1057:0.099929221 1058:0.63086742 1059:0.63086742 1060:0.3552669 1061:0.083822437 1062:0.093581773 1063:0.0058595492 1064:0.04257552 1065:0.26827669 1066:0.16436569 1067:0.47145921 1068:0.47145921 1069:0.47145921 1070:0.47145921 1071:0.07321313 1072:0.074241482 1073:0.1092371 1074:0.40241051 1075:0.40241051 1076:0.40241051 1077:0.40241051 1078:0.40241051 1079:0.40241051 1080:0.083248653 1081:0.3571029 1082:0.18084949 1083:0.3571029 1084:0.3571029 1085:0.3571029 1086:0.3571029 1087:0.3571029 1088:0.292382 1089:0.33630869 #
-0.0050745660967111183 1:0.43703151 2:0.43703151 3:0.19436391 4:0.43703151 5:0.43703151 6:0.052762229 7:0.0095176604 8:0.00012384119 9:0.43703151 10:0.63886642 11:0.32946709 12:0.0028359119 13:0.053499509 14:0.25490171 15:0.030201919 16:0.003864001 17:0.00073174661 18:0.63886642 19:0.59491491 20:0.44844961 21:0.0094271395 22:0.078967623 23:0.2806755 24:0.001338497 25:0.00020677529 26:0 27:0.59491491 28:0.70299292 29:0.042619709 30:0 31:0.0087295016 32:0.05182131 33:0.0019659731 34:0.00096113159 35:0.001296046 36:0.70299292 37:0.69786561 38:0 39:0 40:0 41:0.136776 42:0.017096139 43:0 44:0.00085156312 45:0.69786561 46:0.44529539 47:0.0076854099 48:0.18498661 49:0.2073033 50:0.44529539 51:0.34522629 52:0.077234007 53:0.44529539 54:0.44529539 55:0.41081211 56:0.19936 57:0.08900401 58:0.20378441 59:0.4052448 60:0.36357009 61:0.32248351 62:0.41081211 63:0.41081211 64:0.57259637 65:0.2205184 66:0.078417718 67:0.1439161 68:0.33232659 69:0.29125509 70:0.1297224 71:0.2257456 72:0.57259637 73:0.53993249 74:0.4289169 75:0.1071879 76:0.20106959 77:0.17242371 78:0.060251419 79:0.1269682 80:0.35522491 81:0.53993249 82:0.55708247 83:0.1795578 84:0.030398751 85:0.1608768 86:0.1142155 87:0.1186577 88:0.2616758 89:0.46809179 90:0.55708247 91:0.42024851 92:0.1228413 93:0.086993396 94:0.1866203 95:0.40758619 96:0.42024851 97:0.25642759 98:0.42024851 99:0.42024851 100:0.00645361 101:0.0081392583 102:0.0029023041 103:0.70307678 104:0.70307678 105:0.063880593 106:0.0122173 107:0.00028312701 108:0.001214029 109:0.1071257 110:0.1259771 111:0.0058661881 112:0.67400181 113:0.67400181 114:0.237959 115:0.026636571 116:0.0001227606 117:0.00039566631 118:0.06086608 119:0.15941221 120:0.0033695139 121:0.69421297 122:0.69421297 123:0.004744716 124:0.002389652 125:0.0004391149 126:0.007072045 127:0.502033 128:0.06099996 129:0 130:0.47679839 131:0.502033 132:0.041443449 133:0.075855523 134:0.018578749 135:0.502033 136:0.56244791 137:0.064351618 138:0.06004497 139:0.1001584 140:0.56858492 141:0.1166353 142:0.0036703581 143:0.001226572 144:0.56858492 145:0.063412733 146:0.1190052 147:0.2246125 148:0.55407429 149:0.55407429 150:0.55407429 151:0.0042249672 152:0.01121142 153:0.068513587 154:0.3293736 155:0.33802259 156:0.33802259 157:0.33802259 158:0.33802259 159:0.33802259 160:0.33802259 161:0.33802259 162:0.29718801 163:0.1683021 164:0.35305101 165:0.23076069 166:0.36029419 167:0.36488721 168:0.36488721 169:0.36488721 170:0.36488721 171:0.35742271 172:0.2872389 173:0.35984439 174:0.35984439 175:0.35984439 176:0.30889681 177:0.35984439 178:0.35984439 179:0.2038473 180:0.35984439 181:0.18904351 182:0.35191631 183:0.35191631 184:0.35191631 185:0.35191631 186:0.35191631 187:0.35191631 188:0.35191631 189:0.30631861 190:0.081625693 191:0.3565819 192:0.3565819 193:0.3565819 194:0.3565819 195:0.3565819 196:0.3565819 197:0.3565819 198:0.31578481 199:0.0049934871 200:0.0063558109 201:0.01411153 202:0.29888761 203:0.94515008 204:0.085844643 205:0.01577962 206:0.0045386232 207:0.0049934871 208:0.0049771061 209:0.0078851506 210:0.02814473 211:0.69840193 212:0.69840193 213:0.12796199 214:0.01475 215:0.001468826 216:0.0049771061 217:0 218:0.001554728 219:0.0046523199 220:0.70460159 221:0.70460159 222:0 223:0.003752155 224:0.001253907 225:0 226:0.042321209 227:0.038664799 228:0.2255345 229:0.65500122 230:0.65500122 231:0.02073638 232:0.2676371 233:0.086052008 234:0.042321209 235:0.49822709 236:0.229921 237:0.17662039 238:0.15919 239:0.49822709 240:0.092031963 241:0.083450884 242:0.35973659 243:0.49428639 244:0.25665611 245:0.39180851 246:0.39180851 247:0.39180851 248:0.39180851 249:0.39180851 250:0.1160321 251:0.081646249 252:0.37751099 253:0.1893815 254:0.36236551 255:0.3238571 256:0.36236551 257:0.36236551 258:0.36236551 259:0.36236551 260:0.36236551 261:0.2603426 262:0.35089049 263:0.35089049 264:0.29972851 265:0.35089049 266:0.35089049 267:0.35089049 268:0.35089049 269:0.35089049 270:0.211632 271:0.35055709 272:0.35055709 273:0.35055709 274:0.35055709 275:0.35055709 276:0.35055709 277:0.35055709 278:0.1156507 279:0.35055709 280:0.3518185 281:0.3518185 282:0.3518185 283:0.3518185 284:0.3518185 285:0.3518185 286:0.3518185 287:0.079213783 288:0.3518185 289:0.3468059 290:0.3468059 291:0.2679621 292:0.3468059 293:0.28776869 294:0.3468059 295:0.3468059 296:0.3468059 297:0.3468059 298:0.00058229879 299:0 300:0.0037519089 301:0.31090671 302:0.91130698 303:0.25178191 304:0.01850656 305:0.0035913349 306:0.00058229879 307:0.0003148221 308:0 309:0.002293359 310:0.70401198 311:0.70401198 312:0.040918808 313:0.0050753262 314:0.00098490459 315:0.0003148221 316:0.0030037251 317:0.0053366758 318:0.01596931 319:0.70140493 320:0.70140493 321:0.093318097 322:0.006756207 323:0.00225781 324:0.0030037251 325:0.083962142 326:0.047249101 327:0.17191841 328:0.51775068 329:0.51775068 330:0.2723361 331:0.51330912 332:0.26663291 333:0.1054194 334:0.0042946278 335:0.02726672 336:0.1370346 337:0.45706189 338:0.47835091 339:0.47835091 340:0.47835091 341:0.26051921 342:0.1115671 343:0.0093077999 344:0.1550626 345:0.39487711 346:0.39487711 347:0.39487711 348:0.39487711 349:0.39487711 350:0.39487711 351:0.1906738 352:0.13538779 353:0.2636112 354:0.39927399 355:0.31493199 356:0.39927399 357:0.39927399 358:0.39927399 359:0.39927399 360:0.1091314 361:0.34441769 362:0.34441769 363:0.34441769 364:0.34441769 365:0.34441769 366:0.34441769 367:0.34441769 368:0.34441769 369:0.2181064 370:0.3658852 371:0.3658852 372:0.3658852 373:0.3658852 374:0.3408986 375:0.341185 376:0.1127987 377:0.28573099 378:0.3658852 379:0.3526893 380:0.3526893 381:0.26916721 382:0.3526893 383:0.3526893 384:0.3526893 385:0.28589129 386:0.3097629 387:0.3526893 388:0.38209921 389:0.38209921 390:0.2159856 391:0.2065431 392:0.3653076 393:0.20838501 394:0.38209921 395:0.38209921 396:0.38209921 397:0.0001558579 398:0 399:0.0027240971 400:0.70299977 401:0.70299977 402:0.067446157 403:0.0028988631 404:0 405:0.0001558579 406:0 407:0 408:0.002577675 409:0.7020601 410:0.70634669 411:0.03358398 412:0.00071555102 413:0 414:0 415:0.00246784 416:0.0002477518 417:0.00074136478 418:0.69769847 419:0.69769847 420:0.1388617 421:0.01289405 422:0.002692569 423:0.00246784 424:0.1455442 425:0.1506703 426:0.48838651 427:0.48838651 428:0.48838651 429:0.3890191 430:0.234991 431:0.085243009 432:0.1478186 433:0.0025613131 434:0.1002304 435:0.16209701 436:0.4055945 437:0.58923459 438:0.58923459 439:0.31329921 440:0.006441263 441:0.02624229 442:0.041357301 443:0.15527029 444:0.26539531 445:0.45174789 446:0.45174789 447:0.45174789 448:0.20464399 449:0.29981211 450:0.39400369 451:0.092505313 452:0.025541199 453:0.1330355 454:0.43085289 455:0.43085289 456:0.43085289 457:0.43085289 458:0.43085289 459:0.201537 460:0.34393981 461:0.34393981 462:0.22406919 463:0.34393981 464:0.34393981 465:0.34393981 466:0.34393981 467:0.34393981 468:0.34393981 469:0.2992439 470:0.39792091 471:0.39792091 472:0.39792091 473:0.30701101 474:0.350665 475:0.1992867 476:0.1271885 477:0.39792091 478:0.37159309 479:0.37159309 480:0.37159309 481:0.37159309 482:0.37159309 483:0.2282376 484:0.13379019 485:0.3127405 486:0.37159309 487:0.37587991 488:0.37587991 489:0.32904819 490:0.33580261 491:0.37587991 492:0.37587991 493:0.1749355 494:0.19539081 495:0.37587991 496:0.00032166901 497:0 498:0.01446508 499:0.69951731 500:0.69951731 501:0.1189809 502:0.001525703 503:0 504:0.00032166901 505:0 506:0 507:0.0035576851 508:0.64446878 509:0.75215727 510:0.1067671 511:0.00031087859 512:0 513:0 514:0.0066904761 515:0 516:0 517:0.70174479 518:0.70174479 519:0.086628273 520:0.02192417 521:0.005371036 522:0.0066904761 523:0.1380171 524:0.090921164 525:0.43235451 526:0.57669473 527:0.57669473 528:0.20732179 529:0.16864569 530:0.087803133 531:0.188968 532:0.0043552909 533:0.0016873881 534:0.01307398 535:0.62812781 536:0.71266752 537:0.3003718 538:0.00057114818 539:0.00097198668 540:0.0054254532 541:0.05864159 542:0.1714927 543:0.18930499 544:0.54890662 545:0.54890662 546:0.54890662 547:0.063129507 548:0.099023908 549:0.090260901 550:0.074116834 551:0.16605639 552:0.1147113 553:0.39786911 554:0.39786911 555:0.39786911 556:0.39786911 557:0.39786911 558:0.39786911 559:0.1833287 560:0.35896751 561:0.35896751 562:0.2465779 563:0.35896751 564:0.35896751 565:0.35896751 566:0.35896751 567:0.35896751 568:0.3671189 569:0.3671189 570:0.3671189 571:0.23289549 572:0.21891961 573:0.3671189 574:0.3671189 575:0.3671189 576:0.29241809 577:0.35743251 578:0.35743251 579:0.32862011 580:0.2463994 581:0.35743251 582:0.35600331 583:0.32731429 584:0.29416651 585:0.3521992 586:0.4387089 587:0.4387089 588:0.4387089 589:0.2146121 590:0.19597749 591:0.31908739 592:0.1139684 593:0.1627406 594:0.4387089 595:0.00073768158 596:0 597:0.0046445518 598:0.64353961 599:0.75419641 600:0.097438172 601:0 602:0 603:0.00073768158 604:0 605:0 606:0.00077370479 607:0.69947618 608:0.69947618 609:0.1203443 610:0 611:0 612:0 613:0.01585965 614:0.001471989 615:0.0044047362 616:0.69947028 617:0.69947028 618:0.1151702 619:0.02595526 620:0.0061527332 621:0.01585965 622:0.1861272 623:0.082764506 624:0.2754012 625:0.2369104 626:0.55269092 627:0.49321449 628:0.3003715 629:0.1902633 630:0.38192159 631:0.0079519637 632:0.03715064 633:0.166612 634:0.56714272 635:0.56714272 636:0.56714272 637:0.003104331 638:0.0040375991 639:0.01244894 640:0.006019854 641:0.051498249 642:0.23374221 643:0.55173582 644:0.55173582 645:0.55173582 646:0.105151 647:0.1070646 648:0.037547011 649:0.25891039 650:0.29816329 651:0.34653419 652:0.34653419 653:0.34653419 654:0.34653419 655:0.34653419 656:0.34653419 657:0.34653419 658:0.35619509 659:0.35619509 660:0.25512671 661:0.20791151 662:0.35619509 663:0.35619509 664:0.35619509 665:0.35619509 666:0.35619509 667:0.34702519 668:0.34702519 669:0.34702519 670:0.18199129 671:0.34702519 672:0.34702519 673:0.34702519 674:0.34702519 675:0.34702519 676:0.37874091 677:0.37874091 678:0.2382111 679:0.1580797 680:0.32478911 681:0.30293781 682:0.37874091 683:0.37874091 684:0.37874091 685:0.37546909 686:0.32905641 687:0.2302812 688:0.37546909 689:0.30062079 690:0.2494894 691:0.37546909 692:0.34411511 693:0.37546909 694:0.00058863108 695:0 696:0 697:0.28822961 698:0.94771338 699:0.096475847 700:0 701:0 702:0.00058863108 703:0 704:0 705:0 706:0.64596182 707:0.75407988 708:0.081057139 709:0 710:0 711:0 712:0.0082639232 713:0.0035810361 714:0.01071578 715:0.64376062 716:0.64376062 717:0.39487329 718:0.080184117 719:0.043501351 720:0.016580161 721:0.036645669 722:0.0323302 723:0.096743897 724:0.084205583 725:0.74421233 726:0.41983339 727:0.4545908 728:0.184453 729:0.054275051 730:0.00040416751 731:0.038330901 732:0.49736309 733:0.49736309 734:0.49736309 735:0.49736309 736:0.062091868 737:0.01508976 738:0.00040416751 739:0.0548179 740:0.1435007 741:0.44958651 742:0.44958651 743:0.44958651 744:0.44958651 745:0.24763229 746:0.086624458 747:0.307529 748:0.32420421 749:0.3495048 750:0.3495048 751:0.3495048 752:0.3495048 753:0.3495048 754:0.3495048 755:0.3495048 756:0.19058929 757:0.1101084 758:0.24360131 759:0.26186809 760:0.38863301 761:0.38863301 762:0.38863301 763:0.38863301 764:0.38863301 765:0.31764621 766:0.3255367 767:0.22448809 768:0.1105475 769:0.26167089 770:0.38962701 771:0.38962701 772:0.38962701 773:0.38962701 774:0.38962701 775:0.35527131 776:0.35527131 777:0.2110292 778:0.26152149 779:0.35527131 780:0.35527131 781:0.35527131 782:0.35527131 783:0.35527131 784:0.3574506 785:0.33037439 786:0.3574506 787:0.32418951 788:0.3574506 789:0.1247284 790:0.3574506 791:0.3574506 792:0.3574506 793:0.00033312899 794:0 795:0 796:0.551723 797:0.80305839 798:0.2066015 799:0 800:0 801:0.00033312899 802:0 803:0 804:0 805:0.62348312 806:0.77327538 807:0.074808963 808:0 809:0 810:0 811:0.029029191 812:0.0041024592 813:0.0122761 814:0.58527029 815:0.78121758 816:0.17017239 817:0.075686671 818:0.048796099 819:0.035812251 820:0.078054093 821:0.1146033 822:0.51576239 823:0.54748911 824:0.6030907 825:0.031915769 826:0.1612252 827:0.1018925 828:0.088793173 829:0 830:0.0311631 831:0.36901501 832:0.40192789 833:0.64971608 834:0.44897291 835:0.25853279 836:0.065400302 837:0 838:0.052358441 839:0.2033534 840:0.45030791 841:0.45030791 842:0.45030791 843:0.45030791 844:0.2895191 845:0.21506719 846:0.1011124 847:0.34723449 848:0.34723449 849:0.34723449 850:0.34723449 851:0.34723449 852:0.34723449 853:0.31760681 854:0.27429259 855:0.31143141 856:0.35381109 857:0.35381109 858:0.24302649 859:0.2472385 860:0.35381109 861:0.35381109 862:0.35381109 863:0.35381109 864:0.35381109 865:0.38302469 866:0.1838861 867:0.1062096 868:0.2661413 869:0.38302469 870:0.38302469 871:0.38302469 872:0.38302469 873:0.38302469 874:0.39936459 875:0.092888877 876:0.061071161 877:0.1634012 878:0.39936459 879:0.39936459 880:0.39936459 881:0.39936459 882:0.39936459 883:0.52590477 884:0.045001101 885:0.15185951 886:0.069175228 887:0.52590477 888:0.32580739 889:0.1041768 890:0.1347037 891:0.52590477 892:0.001735247 893:0 894:0 895:0.69037831 896:0.69037831 897:0.19948959 898:0.007845493 899:0 900:0.001735247 901:0 902:0 903:0 904:0.70407909 905:0.70407909 906:0.03894664 907:0 908:0 909:0 910:0.047631841 911:0.024973189 912:0.074729152 913:0.68902868 914:0.68902868 915:0.17980631 916:0.02019579 917:0.0084067257 918:0.04811123 919:0.2211417 920:0.1914352 921:0.50682032 922:0.50682032 923:0.50682032 924:0.1715668 925:0.2062836 926:0.116023 927:0.2309484 928:0.001194232 929:0.0095257983 930:0.022062199 931:0.66002119 932:0.66002119 933:0.12520219 934:0.32542059 935:0.00022070399 936:0.001194232 937:0.05515841 938:0.069899403 939:0.070868291 940:0.56752747 941:0.56752747 942:0.47580791 943:0.33127171 944:0.029340761 945:0.01456471 946:0.32737449 947:0.35205099 948:0.25531569 949:0.4620308 950:0.4620308 951:0.46171489 952:0.21832269 953:0.1004376 954:0.03474053 955:0.35206929 956:0.35206929 957:0.2674599 958:0.35206929 959:0.35206929 960:0.35206929 961:0.35206929 962:0.35002509 963:0.2423089 964:0.23403341 965:0.1088732 966:0.087385438 967:0.1563279 968:0.46497059 969:0.46497059 970:0.46497059 971:0.46497059 972:0.178509 973:0.3967973 974:0.064640284 975:0.027563181 976:0.1259173 977:0.40440539 978:0.40440539 979:0.40440539 980:0.40440539 981:0.40440539 982:0.51891458 983:0.02351575 984:0.01529403 985:0.09714365 986:0.51891458 987:0.34889701 988:0.1054991 989:0.20956521 990:0.51891458 991:0.089079008 992:0 993:0 994:0.48762089 995:0.65684313 996:0.45917809 997:0.1873239 998:0.06396392 999:0.2574183 1000:0 1001:0 1002:0 1003:0.70285529 1004:0.70285529 1005:0.070517443 1006:0 1007:0 1008:0 1009:0.03133256 1010:0.039608359 1011:0.118523 1012:0.63563412 1013:0.66994292 1014:0.35005781 1015:0.005413807 1016:0.01205282 1017:0.033830039 1018:0.1362817 1019:0.1709968 1020:0.46400839 1021:0.51833957 1022:0.51833957 1023:0.30261061 1024:0.1933566 1025:0.2031635 1026:0.1553057 1027:0.00069753581 1028:0.0030797811 1029:0.0060500181 1030:0.70395678 1031:0.70395678 1032:0.042542338 1033:0.0023392211 1034:0.0007817286 1035:0.00034909131 1036:0.1571639 1037:0.1143918 1038:0.026570899 1039:0.66510338 1040:0.66510338 1041:0.1350521 1042:0.092691913 1043:0.20390581 1044:0.041647129 1045:0.2469842 1046:0.27074191 1047:0.33179069 1048:0.47724941 1049:0.47724941 1050:0.47724941 1051:0.1492682 1052:0.1986918 1053:0.076062687 1054:0.2009763 1055:0.27612421 1056:0.35452619 1057:0.35452619 1058:0.35452619 1059:0.35452619 1060:0.35452619 1061:0.35452619 1062:0.35452619 1063:0.2170946 1064:0.37920049 1065:0.2834231 1066:0.1167789 1067:0.36898571 1068:0.37920049 1069:0.37920049 1070:0.37920049 1071:0.37920049 1072:0.074598037 1073:0.057120942 1074:0 1075:0.075690567 1076:0.4204433 1077:0.50908649 1078:0.50908649 1079:0.50908649 1080:0.1614902 1081:0.2240003 1082:0.29685649 1083:0.2015958 1084:0.29878879 1085:0.38156849 1086:0.38156849 1087:0.38156849 1088:0.38156849 1089:0.38156849 #
0.0018688139997548227 1:0.135616 2:0.1248795 3:0.26504031 4:0.4124819 5:0.4124819 6:0.4124819 7:0.4124819 8:0.32560369 9:0.32413471 10:0.1283427 11:0.33303031 12:0.2132397 13:0.2201297 14:0.3487564 15:0.2259829 16:0.44777921 17:0.44777921 18:0.44777921 19:0.40591231 20:0.33067119 21:0.105666 22:0.1641925 23:0.1570137 24:0.40591231 25:0.40591231 26:0.40591231 27:0.40591231 28:0.46475309 29:0.46475309 30:0.2028998 31:0.040740989 32:0.083062239 33:0.1628366 34:0.2348038 35:0.46475309 36:0.46475309 37:0.38035759 38:0.38035759 39:0.3338291 40:0.28783059 41:0.38035759 42:0.25156361 43:0.1235648 44:0.38035759 45:0.38035759 46:0.050376952 47:0.077813558 48:0.015747201 49:0.05691503 50:0.68421692 51:0.68421692 52:0.2098489 53:0.0061434698 54:0.02663588 55:0 56:0 57:0.04335916 58:0.27755439 59:0.67576808 60:0.67576808 61:0.03017769 62:0.01008488 63:0 64:0 65:0 66:0.042662241 67:0.47475401 68:0.71743488 69:0.50010473 70:0.026988709 71:0.0090191774 72:0 73:0 74:0 75:0.31229079 76:0.54655367 77:0.54655367 78:0.54655367 79:0.0292136 80:0 81:0 82:0 83:0 84:0.38491541 85:0.35632461 86:0.59330589 87:0.59330589 88:0.1221671 89:0 90:0 91:0.01684645 92:0 93:0.01012033 94:0.38742241 95:0.64785802 96:0.64785802 97:0.055870581 98:0.01430022 99:0.01684645 100:0.3294954 101:0.41032889 102:0.41032889 103:0.41032889 104:0.41032889 105:0.41032889 106:0.097085707 107:0.066972896 108:0.1776903 109:0.2200997 110:0.3219246 111:0.36474511 112:0.40518281 113:0.40518281 114:0.08885695 115:0.2150488 116:0.40518281 117:0.40518281 118:0.066356719 119:0.071781792 120:0.058114421 121:0.047205009 122:0.05771539 123:0.1927212 124:0.4506669 125:0.606305 126:0.606305 127:0.4055697 128:0.110197 129:0.04247174 130:0.0047256579 131:0.037580349 132:0.1685441 133:0.34290761 134:0.57808572 135:0.57808572 136:0.44506919 137:0.028793391 138:0.20757741 139:0.07930778 140:0.44506919 141:0.069595478 142:0.3849121 143:0.44506919 144:0.44506919 145:0.02893733 146:0.072279699 147:0.060742188 148:0.2137419 149:0.66288137 150:0.55149382 151:0.094589323 152:0.41568431 153:0.1124609 154:0.026526069 155:0.0057970118 156:0.01335473 157:0.23797999 158:0.75541228 159:0.60234588 160:0.028030099 161:0.0083196862 162:0.024226449 163:0.034137338 164:0 165:0.0034735019 166:0.44282219 167:0.6295104 168:0.6295104 169:0.051778112 170:0.0020201509 171:0.034555942 172:0 173:0 174:0.27861491 175:0.52960968 176:0.52960968 177:0.52960968 178:0.27387661 179:0.01498847 180:0.01980917 181:0.046691641 182:0 183:0.3641035 184:0.45218521 185:0.45218521 186:0.45218521 187:0.45218521 188:0.1343908 189:0.1574323 190:0.046446621 191:0 192:0.0072782109 193:0.28062379 194:0.67321748 195:0.67321748 196:0.059255119 197:0.01439966 198:0.046446621 199:0.088819623 200:0.05594505 201:0.049317341 202:0.6663518 203:0.6663518 204:0.27733311 205:0.029345339 206:0.065398067 207:0.098972358 208:0.028540481 209:0.1516545 210:0.239617 211:0.64259332 212:0.64259332 213:0.19096839 214:0.001430532 215:0.12773059 216:0.1836188 217:0.050073478 218:0.1354354 219:0.1023316 220:0.21561851 221:0.43398309 222:0.0036489349 223:0.4929195 224:0.4929195 225:0.4929195 226:0.02180282 227:0.0126191 228:0.0003311465 229:0.0002209956 230:0.001479891 231:0 232:0.37290299 233:0.65336949 234:0.65336949 235:0.06013247 236:0.01315061 237:0 238:0 239:0 240:0 241:0.35479 242:0.72190398 243:0.58479369 244:0.33404729 245:0.13557561 246:0.076238081 247:0.44484109 248:0.44484109 249:0.1825798 250:0.1868325 251:0.44484109 252:0.44484109 253:0.13100509 254:0.053087849 255:0.048349358 256:0.31119409 257:0.45241311 258:0.45241311 259:0.45241311 260:0.45241311 261:0.2400215 262:0.19722 263:0.1014305 264:0.17617691 265:0.15716401 266:0.43920091 267:0.43920091 268:0.43920091 269:0.43920091 270:0.34510931 271:0.0081594558 272:0.022273609 273:0.026263731 274:0.058196928 275:0.60252738 276:0.60252738 277:0.51063722 278:0.04108071 279:0.0287751 280:0.0029027241 281:0 282:0.00074192858 283:0.50417238 284:0.50417238 285:0.50417238 286:0.46270031 287:0.13091969 288:0.03398262 289:0.038647559 290:0 291:0 292:0.40225619 293:0.56346607 294:0.56346607 295:0.43483031 296:0.074234582 297:0.038647559 298:0.029116379 299:0.002325271 300:0.0069580688 301:0.6880675 302:0.6880675 303:0.206714 304:0.03026557 305:0.025535701 306:0.032515839 307:0.007492559 308:0.005812719 309:0.005260617 310:0.4994154 311:0.85052252 312:0.1363208 313:0 314:0 315:0.0027349989 316:0.2207718 317:0.21368431 318:0.15576901 319:0.53554159 320:0.54502308 321:0.1109743 322:0.055183109 323:0.4381218 324:0.29107711 325:0.16354071 326:0.054617241 327:0.022544749 328:0.01051257 329:0.01280948 330:0.01404889 331:0.4589524 332:0.61340421 333:0.61340421 334:0.02919323 335:0.0213119 336:0.01058776 337:0.002595538 338:0.0200324 339:0.002170488 340:0.4868319 341:0.80513781 342:0.32385391 343:0.055245951 344:0.0031969009 345:0.0091849212 346:0.021369539 347:0.001238381 348:0.022801559 349:0.47724089 350:0.68635738 351:0.53868169 352:0.1302119 353:0.1310274 354:0.019166959 355:0.01000787 356:0.0028628111 357:0.25100741 358:0.54678929 359:0.54678929 360:0.54678929 361:0.1647017 362:0.1827399 363:0.051408071 364:0.01244622 365:0.088324092 366:0.2427548 367:0.53683943 368:0.53683943 369:0.53683943 370:0.2395829 371:0.1371045 372:0.1484717 373:0.3203668 374:0.39878309 375:0.39878309 376:0.39878309 377:0.39878309 378:0.39878309 379:0.055242199 380:0.02975479 381:0.077355407 382:0.55304867 383:0.57452363 384:0.57452363 385:0.115921 386:0.038234681 387:0.058524989 388:0.0072395392 389:0 390:0.024121311 391:0.54114228 392:0.54114228 393:0.54114228 394:0.32975179 395:0.081658281 396:0.0072395392 397:0.0055882861 398:0.02974269 399:0.094247393 400:0.4243978 401:0.77833378 402:0.42069921 403:0.13303261 404:0.02951237 405:0.03098123 406:0.0080749216 407:0.0038086169 408:0.00357363 409:0.3420231 410:0.92040873 411:0.1626423 412:0.01184195 413:0 414:0.0001914882 415:0.24079511 416:0.293464 417:0.2657789 418:0.24649809 419:0.61186862 420:0.56789583 421:0.08275272 422:0.088997573 423:0.082038693 424:0.4010098 425:0.4010098 426:0.35415909 427:0.14367519 428:0.20168839 429:0.072112814 430:0.4010098 431:0.4010098 432:0.4010098 433:0.4917717 434:0.33914551 435:0.1979548 436:0.13157099 437:0.17559209 438:0.04824898 439:0.2547408 440:0.4917717 441:0.4917717 442:0.069457777 443:0.095754683 444:0.1590099 445:0.070246652 446:0.03445432 447:0.045723122 448:0.6658991 449:0.6658991 450:0.2429384 451:0.018432541 452:0.01469882 453:0.020251291 454:0.0045427252 455:0.02498449 456:0.0369897 457:0.66842908 458:0.66842908 459:0.31105179 460:0.039217841 461:0.01169997 462:0.0039990372 463:0 464:0 465:0.02390811 466:0.57503492 467:0.57503492 468:0.57503492 469:0.16418961 470:0.027911291 471:0.039596099 472:0.08376693 473:0.041701172 474:0.1192584 475:0.56039292 476:0.56039292 477:0.56039292 478:0.38209331 479:0.2836675 480:0.132339 481:0.1990127 482:0.38209331 483:0.38209331 484:0.38209331 485:0.38209331 486:0.3586354 487:0.06066044 488:0.062428501 489:0.016826499 490:0.2365353 491:0.4843533 492:0.4843533 493:0.4843533 494:0.38701031 495:0.2788941 496:0.030249961 497:0.0109139 498:0.022887871 499:0.52470618 500:0.52470618 501:0.52470618 502:0.39393309 503:0.059204679 504:0.092540316 505:0 506:0.005264461 507:0.05539019 508:0.50828958 509:0.84415781 510:0.1319547 511:0.0090309996 512:0.0051001292 513:0 514:0.1076014 515:0.1541312 516:0.45244059 517:0.57036299 518:0.57036299 519:0.1922067 520:0.2042121 521:0.148642 522:0.053844381 523:0.4117128 524:0.4117128 525:0.4117128 526:0.4117128 527:0.31395739 528:0.080476917 529:0.1240498 530:0.1670804 531:0.4117128 532:0.43381751 533:0.43381751 534:0.43381751 535:0.2024107 536:0.17132939 537:0.046602812 538:0.2386646 539:0.33677849 540:0.43381751 541:0.42831561 542:0.42831561 543:0.42831561 544:0.31597069 545:0.093648687 546:0.115522 547:0.1302229 548:0.3507044 549:0.42831561 550:0.4059526 551:0.25365201 552:0.17336319 553:0.21125831 554:0.24513461 555:0.31359249 556:0.42171651 557:0.42171651 558:0.42171651 559:0.191926 560:0.25427169 561:0.075909346 562:0.01354847 563:0.0077744918 564:0.024210731 565:0.4701263 566:0.57668912 567:0.57668912 568:0.1562659 569:0.50444192 570:0.1749914 571:0.057161469 572:0.129775 573:0.2436647 574:0.50444192 575:0.50444192 576:0.3115361 577:0.1693746 578:0.2449246 579:0.14518151 580:0.1634382 581:0.47977191 582:0.28722799 583:0.47977191 584:0.47977191 585:0.2927441 586:0.22765879 587:0.39880189 588:0.25923881 589:0.0086474409 590:0.32725841 591:0.36556539 592:0.39880189 593:0.39880189 594:0.39880189 595:0.138776 596:0.047692079 597:0.1808015 598:0.67004943 599:0.67004943 600:0.1959165 601:0.04592254 602:0.0081051458 603:0.02446096 604:0.02110821 605:0.008244806 606:0.02128935 607:0.39580041 608:0.77820802 609:0.47163981 610:0.044622261 611:0.058069579 612:0.034548011 613:0.39943099 614:0.39943099 615:0.39943099 616:0.39943099 617:0.39943099 618:0.31736919 619:0.1497189 620:0.22586229 621:0.1553421 622:0.39718559 623:0.39563081 624:0.39718559 625:0.39718559 626:0.39718559 627:0.131368 628:0.1547111 629:0.097637631 630:0.39718559 631:0.34211639 632:0.34211639 633:0.34211639 634:0.33013159 635:0.34211639 636:0.26132241 637:0.34211639 638:0.34211639 639:0.34211639 640:0.45825741 641:0.45825741 642:0.18966261 643:0.28250191 644:0.1357408 645:0.02032545 646:0.1442408 647:0.45825741 648:0.45825741 649:0.55221337 650:0.55221337 651:0.52968401 652:0.02689054 653:0.1376344 654:0.0085945688 655:0.029966179 656:0.18194979 657:0.2242706 658:0.61959589 659:0.6971826 660:0.34407899 661:0.0098925456 662:0.017302999 663:0.001215408 664:0.01477544 665:0.03514399 666:0.053247321 667:0.57972503 668:0.57972503 669:0.50310743 670:0.091493763 671:0.048604179 672:0.077741973 673:0.1470464 674:0.15508761 675:0.080497786 676:0.54237223 677:0.54237223 678:0.54237223 679:0.2284523 680:0.1663762 681:0.05318404 682:0.045028679 683:0.1405769 684:0.087129593 685:0.49638411 686:0.49638411 687:0.49638411 688:0.162322 689:0.17323209 690:0.21946371 691:0.18665931 692:0.1364429 693:0.31284189 694:0.17484801 695:0.23545609 696:0.053289458 697:0.58135539 698:0.58135539 699:0.34507209 700:0.31711379 701:0.092967518 702:0.033419359 703:0.003731719 704:0.009127154 705:0.02571601 706:0.35291851 707:0.88376212 708:0.28761891 709:0.032980129 710:0.02737922 711:0.016569709 712:0.4153277 713:0.3871296 714:0.33756661 715:0.27511159 716:0.46913609 717:0.19938681 718:0.14144389 719:0.2344594 720:0.38534269 721:0.52396029 722:0.52396029 723:0.25970581 724:0.085501507 725:0.1549844 726:0.13991641 727:0.16248611 728:0.1625057 729:0.52396029 730:0.65093648 731:0.65093648 732:0.19560809 733:0.01032721 734:0.043109559 735:0.0073949839 736:0.04373705 737:0.1138639 738:0.30150339 739:0.64623702 740:0.73478723 741:0.1362572 742:0 743:0.001384884 744:0 745:0.0047179228 746:0.033475708 747:0.1241789 748:0.65972608 749:0.65972608 750:0.33923811 751:0.01399771 752:0.0096033094 753:0.0091641434 754:0.0020585069 755:0.0045683319 756:0.086354107 757:0.57700998 758:0.57700998 759:0.5673154 760:0.01999722 761:0.001650519 762:0.0051150029 763:0.0052794409 764:0.0038392381 765:0.07771118 766:0.566432 767:0.566432 768:0.566432 769:0.041515671 770:0.047385309 771:0.066654041 772:0.087573707 773:0.065383099 774:0.1070157 775:0.41556159 776:0.41556159 777:0.35777691 778:0.41556159 779:0.41556159 780:0.28210539 781:0.090449281 782:0.27492279 783:0.1171823 784:0.1469509 785:0.1997125 786:0.1684892 787:0.59326589 788:0.59326589 789:0.35625231 790:0.1509259 791:0.15269721 792:0.1651319 793:0.05966261 794:0.075356416 795:0.03232833 796:0.56942677 797:0.56942677 798:0.56942677 799:0.075821951 800:0.053252641 801:0.052011602 802:0.084115699 803:0.095464893 804:0.02815586 805:0.32850379 806:0.73351753 807:0.57151979 808:0.039173178 809:0.033938229 810:0.0203158 811:0.4870685 812:0.4870685 813:0.4870685 814:0.087465443 815:0.4870685 816:0.1779269 817:0.062548473 818:0.038292561 819:0.038802851 820:0.56627339 821:0.56627339 822:0.56627339 823:0.0011875849 824:0.0053743781 825:0.0031132151 826:0.0022672811 827:0.0055579478 828:0.1796459 829:0.69622481 830:0.69622481 831:0.09761259 832:0 833:2.297006e-005 834:0.00027126941 835:0 836:0.002627779 837:0.1185614 838:0.63048369 839:0.63048369 840:0.3674418 841:0.051677991 842:0.089856014 843:0.1619758 844:0.1155635 845:0.0001882604 846:0.1154839 847:0.50617278 848:0.50617278 849:0.50617278 850:0.29749259 851:0.20114359 852:0.26991791 853:0.13218839 854:0.0073829629 855:0.083471239 856:0.55426937 857:0.55426937 858:0.55426937 859:0.098171867 860:0.098236218 861:0.2033022 862:0.0397502 863:0.075565264 864:0.070079252 865:0.4573333 866:0.4573333 867:0.16114829 868:0.1707551 869:0.4573333 870:0.4573333 871:0.2310743 872:0.1062725 873:0.19748861 874:0.041110281 875:0.04515516 876:0.0075891512 877:0.5725376 878:0.5725376 879:0.5725376 880:0.070354417 881:0.042074941 882:0.01944953 883:0.02439547 884:0 885:0.059683479 886:0.57100391 887:0.57100391 888:0.57100391 889:0.1068159 890:0 891:0.02439547 892:0.06610962 893:0.1147078 894:0.1236951 895:0.53736281 896:0.56946272 897:0.56946272 898:0.076578759 899:0.1150902 900:0.070994817 901:0.412967 902:0.412967 903:0.1957491 904:0.064360142 905:0.412967 906:0.412967 907:0.33597001 908:0.26618791 909:0.29583079 910:0.63371718 911:0.63371718 912:0.41528139 913:0.0093742013 914:0.086471297 915:0.05370377 916:0.02981724 917:0.04439434 918:0.068630472 919:0.57379198 920:0.57379198 921:0.57379198 922:0.05700412 923:0.0048778588 924:0.001067998 925:0.01384547 926:0.0063766618 927:0.055243619 928:0.45248631 929:0.45248631 930:0.45248631 931:0.45248631 932:0.36951619 933:0.159466 934:0.086625047 935:0.006603152 936:0.083581023 937:0.4285886 938:0.4285886 939:0.4152064 940:0.19232111 941:0.4285886 942:0.42695579 943:0.19667511 944:0.054389231 945:0.1064879 946:0.2049676 947:0.1600467 948:0.16077811 949:0.42061609 950:0.59498018 951:0.59498018 952:0.1135001 953:0.01782148 954:0.049618222 955:0.18575481 956:0.42872921 957:0.42872921 958:0.42872921 959:0.42872921 960:0.42872921 961:0.187933 962:0.075218193 963:0.034527309 964:0.001891594 965:0.001738925 966:0.0109231 967:0.51959717 968:0.59805089 969:0.59805089 970:0.092619933 971:0.003614343 972:0 973:0 974:0 975:0.054904461 976:0.57408679 977:0.57408679 978:0.57408679 979:0.050259069 980:0 981:0 982:0.036770482 983:0 984:0.041594241 985:0.1884551 986:0.6878348 987:0.6878348 988:0.083369277 989:0 990:0.036770482 991:0.26070511 992:0.40587199 993:0.1188184 994:0.1733254 995:0.42317301 996:0.42317301 997:0.42317301 998:0.05111219 999:0.42317301 1000:0.4902457 1001:0.54885179 1002:0.54885179 1003:0.1573873 1004:0.1679499 1005:0.1337568 1006:0.061017349 1007:0.064602882 1008:0.27006719 1009:0.55985242 1010:0.55985242 1011:0.55985242 1012:0.1459669 1013:0.084011197 1014:0.089338921 1015:0.067931958 1016:0.0089908773 1017:0.1142977 1018:0.43177861 1019:0.43177861 1020:0.43177861 1021:0.2786743 1022:0.43177861 1023:0.26416919 1024:0.24901921 1025:0.086467899 1026:0.18172491 1027:0.1064726 1028:0.065761708 1029:0.1035787 1030:0.4660722 1031:0.59829539 1032:0.59829539 1033:0.1400083 1034:0.069550067 1035:0.100294 1036:0.1078489 1037:0.068992592 1038:0.1500009 1039:0.2906898 1040:0.64422429 1041:0.64422429 1042:0.1077343 1043:0.1106511 1044:0.1275762 1045:0.0072464398 1046:0.0148787 1047:0.052838448 1048:0.17456751 1049:0.73175877 1050:0.65060508 1051:0.01841237 1052:0.007251469 1053:0.0025681951 1054:0.092765637 1055:0.04477971 1056:0.33957109 1057:0.49019381 1058:0.49019381 1059:0.49019381 1060:0.35909659 1061:0.1037261 1062:0.092765637 1063:0.001694496 1064:0 1065:0.008417923 1066:0.19940241 1067:0.69033968 1068:0.69033968 1069:0.01114067 1070:0.0029547671 1071:0.001694496 1072:0 1073:0 1074:0.076107562 1075:0.51905888 1076:0.57753021 1077:0.57753021 1078:0.22674251 1079:0.02289382 1080:0 1081:0.035779901 1082:0 1083:0.01277798 1084:0.4737002 1085:0.61251789 1086:0.61251789 1087:0.12801901 1088:0.0048474679 1089:0.035779901 #
