<?xml version="1.0"?>
<opencv_storage>
<stage14>
  <maxWeakCount>21</maxWeakCount>
  <stageThreshold>-1.1547306776046753e+00</stageThreshold>
  <weakClassifiers>
    <_>
      <internalNodes>
        0 -1 35133 -2.2368232905864716e-01</internalNodes>
      <leafValues>
        -4.8162475228309631e-01 3.6456808447837830e-01</leafValues></_>
    <_>
      <internalNodes>
        0 -1 10736 1.5928272157907486e-02</internalNodes>
      <leafValues>
        -1.6302593052387238e-01 7.1401339769363403e-01</leafValues></_>
    <_>
      <internalNodes>
        0 -1 247613 1.2007575482130051e-02</internalNodes>
      <leafValues>
        -1.1172409355640411e-01 7.0287930965423584e-01</leafValues></_>
    <_>
      <internalNodes>
        0 -1 1 -4.9333251081407070e-04</internalNodes>
      <leafValues>
        -4.9751105904579163e-01 1.7186370491981506e-01</leafValues></_>
    <_>
      <internalNodes>
        0 -1 179208 3.6813942715525627e-03</internalNodes>
      <leafValues>
        1.2593486905097961e-01 -6.5270853042602539e-01</leafValues></_>
    <_>
      <internalNodes>
        0 -1 143594 -3.3901798725128174e-01</internalNodes>
      <leafValues>
        -7.7400368452072144e-01 1.1888888664543629e-02</leafValues></_>
    <_>
      <internalNodes>
        0 -1 1 3.6901808925904334e-04</internalNodes>
      <leafValues>
        1.4434123039245605e-01 -4.7376984357833862e-01</leafValues></_>
    <_>
      <internalNodes>
        0 -1 56051 4.7452241182327271e-02</internalNodes>
      <leafValues>
        -1.5101252496242523e-01 4.9797284603118896e-01</leafValues></_>
    <_>
      <internalNodes>
        0 -1 131446 -6.1930030584335327e-02</internalNodes>
      <leafValues>
        6.1699897050857544e-01 -7.6295807957649231e-02</leafValues></_>
    <_>
      <internalNodes>
        0 -1 258636 -4.0471693500876427e-03</internalNodes>
      <leafValues>
        4.0827056765556335e-01 -1.4503149688243866e-01</leafValues></_>
    <_>
      <internalNodes>
        0 -1 261572 -5.5790151236578822e-04</internalNodes>
      <leafValues>
        -4.3320319056510925e-01 1.3349494338035583e-01</leafValues></_>
    <_>
      <internalNodes>
        0 -1 16774 1.3437551679089665e-03</internalNodes>
      <leafValues>
        1.3331207633018494e-01 -4.6201667189598083e-01</leafValues></_>
    <_>
      <internalNodes>
        0 -1 20589 2.4161573499441147e-02</internalNodes>
      <leafValues>
        -1.0465649515390396e-01 5.7012099027633667e-01</leafValues></_>
    <_>
      <internalNodes>
        0 -1 116078 8.6263585835695267e-03</internalNodes>
      <leafValues>
        -1.2961961328983307e-01 4.4669371843338013e-01</leafValues></_>
    <_>
      <internalNodes>
        0 -1 149631 1.9745536148548126e-02</internalNodes>
      <leafValues>
        8.9755430817604065e-02 -6.3377374410629272e-01</leafValues></_>
    <_>
      <internalNodes>
        0 -1 256466 -6.6315603908151388e-04</internalNodes>
      <leafValues>
        -4.1569057106971741e-01 1.2843048572540283e-01</leafValues></_>
    <_>
      <internalNodes>
        0 -1 189639 3.6353053292259574e-04</internalNodes>
      <leafValues>
        -2.6594740152359009e-01 2.2480583190917969e-01</leafValues></_>
    <_>
      <internalNodes>
        0 -1 40269 -5.0014108419418335e-03</internalNodes>
      <leafValues>
        5.3440690040588379e-01 -1.1132173985242844e-01</leafValues></_>
    <_>
      <internalNodes>
        0 -1 152058 -8.5872951894998550e-03</internalNodes>
      <leafValues>
        -7.0176625251770020e-01 8.5993543267250061e-02</leafValues></_>
    <_>
      <internalNodes>
        0 -1 35505 9.0616028755903244e-03</internalNodes>
      <leafValues>
        -1.2311930209398270e-01 4.7882542014122009e-01</leafValues></_>
    <_>
      <internalNodes>
        0 -1 5365 -1.7973849317058921e-03</internalNodes>
      <leafValues>
        -4.7050669789314270e-01 1.2688119709491730e-01</leafValues></_></weakClassifiers></stage14>
</opencv_storage>
