<?xml version="1.0"?>
<opencv_storage>
<stage0>
  <maxWeakCount>18</maxWeakCount>
  <stageThreshold>-1.2376235723495483e+00</stageThreshold>
  <weakClassifiers>
    <_>
      <internalNodes>
        0 -1 165849 -2.6977080851793289e-03</internalNodes>
      <leafValues>
        6.6419750452041626e-01 -3.3836477994918823e-01</leafValues></_>
    <_>
      <internalNodes>
        0 -1 44865 -5.1711625419557095e-03</internalNodes>
      <leafValues>
        6.5420049428939819e-01 -1.9300423562526703e-01</leafValues></_>
    <_>
      <internalNodes>
        0 -1 177337 -1.5769831836223602e-02</internalNodes>
      <leafValues>
        -8.1988161802291870e-01 1.6187782585620880e-01</leafValues></_>
    <_>
      <internalNodes>
        0 -1 233704 1.1060118675231934e-02</internalNodes>
      <leafValues>
        -1.6476248204708099e-01 6.7589092254638672e-01</leafValues></_>
    <_>
      <internalNodes>
        0 -1 124960 -4.8262230120599270e-03</internalNodes>
      <leafValues>
        -7.2624146938323975e-01 1.4589682221412659e-01</leafValues></_>
    <_>
      <internalNodes>
        0 -1 148956 7.1254465728998184e-03</internalNodes>
      <leafValues>
        1.7314192652702332e-01 -4.5168593525886536e-01</leafValues></_>
    <_>
      <internalNodes>
        0 -1 63106 -9.3288719654083252e-03</internalNodes>
      <leafValues>
        5.6097543239593506e-01 -1.4837189018726349e-01</leafValues></_>
    <_>
      <internalNodes>
        0 -1 96816 9.3067716807126999e-03</internalNodes>
      <leafValues>
        -1.1753869801759720e-01 6.8247705698013306e-01</leafValues></_>
    <_>
      <internalNodes>
        0 -1 79285 -5.6099221110343933e-03</internalNodes>
      <leafValues>
        -6.5599155426025391e-01 1.4104209840297699e-01</leafValues></_>
    <_>
      <internalNodes>
        0 -1 607 1.9329875707626343e-02</internalNodes>
      <leafValues>
        1.2856078147888184e-01 -6.5169435739517212e-01</leafValues></_>
    <_>
      <internalNodes>
        0 -1 143894 1.2830058112740517e-02</internalNodes>
      <leafValues>
        -1.3561138510704041e-01 6.4960253238677979e-01</leafValues></_>
    <_>
      <internalNodes>
        0 -1 19823 6.6429451107978821e-02</internalNodes>
      <leafValues>
        1.6728512942790985e-01 -5.4254823923110962e-01</leafValues></_>
    <_>
      <internalNodes>
        0 -1 38664 -6.7489922046661377e-02</internalNodes>
      <leafValues>
        -7.2307687997817993e-01 8.9533790946006775e-02</leafValues></_>
    <_>
      <internalNodes>
        0 -1 146992 3.6530576180666685e-03</internalNodes>
      <leafValues>
        -1.3654118776321411e-01 5.8290576934814453e-01</leafValues></_>
    <_>
      <internalNodes>
        0 -1 109023 8.2019001245498657e-02</internalNodes>
      <leafValues>
        1.1232445389032364e-01 -7.1231853961944580e-01</leafValues></_>
    <_>
      <internalNodes>
        0 -1 255366 1.3891190756112337e-03</internalNodes>
      <leafValues>
        -1.8193700909614563e-01 4.2192247509956360e-01</leafValues></_>
    <_>
      <internalNodes>
        0 -1 139518 -1.4313755556941032e-02</internalNodes>
      <leafValues>
        -7.8884464502334595e-01 9.4632767140865326e-02</leafValues></_>
    <_>
      <internalNodes>
        0 -1 258917 -8.2413235213607550e-04</internalNodes>
      <leafValues>
        4.6334391832351685e-01 -1.6364921629428864e-01</leafValues></_></weakClassifiers></stage0>
</opencv_storage>
