<?xml version="1.0"?>
<opencv_storage>
<stage4>
  <maxWeakCount>18</maxWeakCount>
  <stageThreshold>-1.0810374021530151e+00</stageThreshold>
  <weakClassifiers>
    <_>
      <internalNodes>
        0 -1 9776 1.5737516805529594e-02</internalNodes>
      <leafValues>
        -1.8756476044654846e-01 7.7021276950836182e-01</leafValues></_>
    <_>
      <internalNodes>
        0 -1 29105 -7.8205689787864685e-03</internalNodes>
      <leafValues>
        6.3143187761306763e-01 -1.2182254344224930e-01</leafValues></_>
    <_>
      <internalNodes>
        0 -1 13872 -6.7220516502857208e-03</internalNodes>
      <leafValues>
        6.7318093776702881e-01 -1.2590764462947845e-01</leafValues></_>
    <_>
      <internalNodes>
        0 -1 137507 1.6724029555916786e-02</internalNodes>
      <leafValues>
        9.4516381621360779e-02 -7.1373832225799561e-01</leafValues></_>
    <_>
      <internalNodes>
        0 -1 211153 4.2262676288373768e-04</internalNodes>
      <leafValues>
        -2.8093427419662476e-01 2.3553538322448730e-01</leafValues></_>
    <_>
      <internalNodes>
        0 -1 256285 -2.2610498126596212e-03</internalNodes>
      <leafValues>
        3.0274611711502075e-01 -2.3725064098834991e-01</leafValues></_>
    <_>
      <internalNodes>
        0 -1 138382 -1.4977468177676201e-02</internalNodes>
      <leafValues>
        -5.7287645339965820e-01 1.1901323497295380e-01</leafValues></_>
    <_>
      <internalNodes>
        0 -1 142762 2.7872048318386078e-02</internalNodes>
      <leafValues>
        -7.4873171746730804e-02 8.6489289999008179e-01</leafValues></_>
    <_>
      <internalNodes>
        0 -1 128210 1.7630774527788162e-02</internalNodes>
      <leafValues>
        -7.3156274855136871e-02 7.9748773574829102e-01</leafValues></_>
    <_>
      <internalNodes>
        0 -1 239903 -5.1952025387436152e-04</internalNodes>
      <leafValues>
        -4.1929870843887329e-01 1.8195834755897522e-01</leafValues></_>
    <_>
      <internalNodes>
        0 -1 116743 1.1176215775776654e-04</internalNodes>
      <leafValues>
        -2.2690956294536591e-01 2.8890502452850342e-01</leafValues></_>
    <_>
      <internalNodes>
        0 -1 84907 -5.5072575807571411e-02</internalNodes>
      <leafValues>
        -6.4504069089889526e-01 1.0906473547220230e-01</leafValues></_>
    <_>
      <internalNodes>
        0 -1 113376 1.4414377510547638e-02</internalNodes>
      <leafValues>
        -1.0263432562351227e-01 6.9490063190460205e-01</leafValues></_>
    <_>
      <internalNodes>
        0 -1 221117 4.8801441153045744e-05</internalNodes>
      <leafValues>
        -2.4236366152763367e-01 2.6754021644592285e-01</leafValues></_>
    <_>
      <internalNodes>
        0 -1 199416 -2.6254087686538696e-02</internalNodes>
      <leafValues>
        -8.8514828681945801e-01 6.3356935977935791e-02</leafValues></_>
    <_>
      <internalNodes>
        0 -1 206862 -2.7592482510954142e-03</internalNodes>
      <leafValues>
        -5.9455502033233643e-01 9.4787262380123138e-02</leafValues></_>
    <_>
      <internalNodes>
        0 -1 247171 1.1140696704387665e-02</internalNodes>
      <leafValues>
        -1.0197450220584869e-01 6.3826918601989746e-01</leafValues></_>
    <_>
      <internalNodes>
        0 -1 29396 -7.9525052569806576e-05</internalNodes>
      <leafValues>
        2.7235576510429382e-01 -2.1737514436244965e-01</leafValues></_></weakClassifiers></stage4>
</opencv_storage>
