<?xml version="1.0"?>
<opencv_storage>
<stage5>
  <maxWeakCount>22</maxWeakCount>
  <stageThreshold>-1.0406173467636108e+00</stageThreshold>
  <weakClassifiers>
    <_>
      <internalNodes>
        0 -1 138702 4.6582249924540520e-03</internalNodes>
      <leafValues>
        -2.4393063783645630e-01 6.2985074520111084e-01</leafValues></_>
    <_>
      <internalNodes>
        0 -1 191162 3.3698896877467632e-03</internalNodes>
      <leafValues>
        -1.1248393356800079e-01 6.0808706283569336e-01</leafValues></_>
    <_>
      <internalNodes>
        0 -1 152854 4.6375202946364880e-03</internalNodes>
      <leafValues>
        9.0175084769725800e-02 -7.1320295333862305e-01</leafValues></_>
    <_>
      <internalNodes>
        0 -1 157945 -7.5621372088789940e-03</internalNodes>
      <leafValues>
        5.2689170837402344e-01 -1.5010406076908112e-01</leafValues></_>
    <_>
      <internalNodes>
        0 -1 45205 2.5632796809077263e-02</internalNodes>
      <leafValues>
        2.0884014666080475e-01 -5.0451958179473877e-01</leafValues></_>
    <_>
      <internalNodes>
        0 -1 201907 2.5398465804755688e-03</internalNodes>
      <leafValues>
        2.1736722439527512e-02 -7.1306556463241577e-01</leafValues></_>
    <_>
      <internalNodes>
        0 -1 30138 -1.1732488870620728e-02</internalNodes>
      <leafValues>
        -4.3400564789772034e-01 1.5696562826633453e-01</leafValues></_>
    <_>
      <internalNodes>
        0 -1 190970 -2.6886004488915205e-03</internalNodes>
      <leafValues>
        -5.1875740289688110e-01 1.4811173081398010e-01</leafValues></_>
    <_>
      <internalNodes>
        0 -1 139890 -1.4111313503235579e-03</internalNodes>
      <leafValues>
        4.7475084662437439e-01 -1.2229211628437042e-01</leafValues></_>
    <_>
      <internalNodes>
        0 -1 46222 9.8397538065910339e-02</internalNodes>
      <leafValues>
        -1.4249862730503082e-01 4.4980937242507935e-01</leafValues></_>
    <_>
      <internalNodes>
        0 -1 221976 -2.9233512468636036e-03</internalNodes>
      <leafValues>
        6.1517256498336792e-01 -8.1000626087188721e-02</leafValues></_>
    <_>
      <internalNodes>
        0 -1 134055 -2.1134726703166962e-02</internalNodes>
      <leafValues>
        -5.3264975547790527e-01 1.2360034883022308e-01</leafValues></_>
    <_>
      <internalNodes>
        0 -1 248100 9.2171123251318932e-03</internalNodes>
      <leafValues>
        -1.2849722802639008e-01 4.8507985472679138e-01</leafValues></_>
    <_>
      <internalNodes>
        0 -1 62749 1.0517569258809090e-02</internalNodes>
      <leafValues>
        -7.0622511208057404e-02 7.2436565160751343e-01</leafValues></_>
    <_>
      <internalNodes>
        0 -1 150505 -1.4101516171649564e-05</internalNodes>
      <leafValues>
        2.5420379638671875e-01 -2.2768904268741608e-01</leafValues></_>
    <_>
      <internalNodes>
        0 -1 1461 5.1917263772338629e-04</internalNodes>
      <leafValues>
        1.4961494505405426e-01 -3.8699093461036682e-01</leafValues></_>
    <_>
      <internalNodes>
        0 -1 161563 1.9105430692434311e-02</internalNodes>
      <leafValues>
        1.1489378660917282e-01 -4.9081981182098389e-01</leafValues></_>
    <_>
      <internalNodes>
        0 -1 118879 8.7109625339508057e-02</internalNodes>
      <leafValues>
        9.4693571329116821e-02 -5.4668164253234863e-01</leafValues></_>
    <_>
      <internalNodes>
        0 -1 78935 8.0899521708488464e-03</internalNodes>
      <leafValues>
        -9.6302531659603119e-02 5.6635046005249023e-01</leafValues></_>
    <_>
      <internalNodes>
        0 -1 84993 -9.2468746006488800e-02</internalNodes>
      <leafValues>
        -4.3494954705238342e-01 1.2959881126880646e-01</leafValues></_>
    <_>
      <internalNodes>
        0 -1 102277 -2.6743892580270767e-02</internalNodes>
      <leafValues>
        -6.0729563236236572e-01 9.0071476995944977e-02</leafValues></_>
    <_>
      <internalNodes>
        0 -1 25690 1.2990792129130568e-05</internalNodes>
      <leafValues>
        -2.5869598984718323e-01 2.2123394906520844e-01</leafValues></_></weakClassifiers></stage5>
</opencv_storage>
