<?xml version="1.0"?>
<opencv_storage>
<stage12>
  <maxWeakCount>23</maxWeakCount>
  <stageThreshold>-1.0339381694793701e+00</stageThreshold>
  <weakClassifiers>
    <_>
      <internalNodes>
        0 -1 191160 1.8469511996954679e-03</internalNodes>
      <leafValues>
        -2.3484013974666595e-01 7.2696244716644287e-01</leafValues></_>
    <_>
      <internalNodes>
        0 -1 201608 -1.7251604003831744e-03</internalNodes>
      <leafValues>
        5.5705386400222778e-01 -1.5835654735565186e-01</leafValues></_>
    <_>
      <internalNodes>
        0 -1 191148 -1.2568861711770296e-03</internalNodes>
      <leafValues>
        6.4916425943374634e-01 -2.2519753873348236e-01</leafValues></_>
    <_>
      <internalNodes>
        0 -1 3 -3.1186285195872188e-04</internalNodes>
      <leafValues>
        -3.2868221402168274e-01 2.3089052736759186e-01</leafValues></_>
    <_>
      <internalNodes>
        0 -1 101933 -1.5726186335086823e-02</internalNodes>
      <leafValues>
        6.4729797840118408e-01 -1.3456261157989502e-01</leafValues></_>
    <_>
      <internalNodes>
        0 -1 101933 2.0416351035237312e-02</internalNodes>
      <leafValues>
        -4.1078303009271622e-02 6.7914938926696777e-01</leafValues></_>
    <_>
      <internalNodes>
        0 -1 64266 1.0537017136812210e-02</internalNodes>
      <leafValues>
        -1.0497440397739410e-01 5.2418744564056396e-01</leafValues></_>
    <_>
      <internalNodes>
        0 -1 198697 1.1226402595639229e-02</internalNodes>
      <leafValues>
        -4.6553753316402435e-02 9.2450976371765137e-01</leafValues></_>
    <_>
      <internalNodes>
        0 -1 242502 -1.5666650142520666e-04</internalNodes>
      <leafValues>
        2.4778103828430176e-01 -2.0396269857883453e-01</leafValues></_>
    <_>
      <internalNodes>
        0 -1 3 3.6044849548488855e-04</internalNodes>
      <leafValues>
        1.7429661750793457e-01 -3.3270034193992615e-01</leafValues></_>
    <_>
      <internalNodes>
        0 -1 224699 1.5739098191261292e-02</internalNodes>
      <leafValues>
        -1.4807638525962830e-01 4.3693909049034119e-01</leafValues></_>
    <_>
      <internalNodes>
        0 -1 246845 -1.2952625751495361e-02</internalNodes>
      <leafValues>
        5.6390905380249023e-01 -7.4268691241741180e-02</leafValues></_>
    <_>
      <internalNodes>
        0 -1 108635 -1.3471122365444899e-03</internalNodes>
      <leafValues>
        3.5542801022529602e-01 -1.2429824471473694e-01</leafValues></_>
    <_>
      <internalNodes>
        0 -1 136485 8.3218310028314590e-03</internalNodes>
      <leafValues>
        -1.5497881174087524e-01 3.2656455039978027e-01</leafValues></_>
    <_>
      <internalNodes>
        0 -1 67472 -2.0482670515775681e-02</internalNodes>
      <leafValues>
        -4.7721976041793823e-01 1.0687330365180969e-01</leafValues></_>
    <_>
      <internalNodes>
        0 -1 173317 -4.7994581982493401e-03</internalNodes>
      <leafValues>
        5.5026221275329590e-01 -7.3695339262485504e-02</leafValues></_>
    <_>
      <internalNodes>
        0 -1 161441 -6.5970461582764983e-04</internalNodes>
      <leafValues>
        -2.8157037496566772e-01 1.5672409534454346e-01</leafValues></_>
    <_>
      <internalNodes>
        0 -1 258877 -1.0281763970851898e-02</internalNodes>
      <leafValues>
        4.2149209976196289e-01 -1.1285855621099472e-01</leafValues></_>
    <_>
      <internalNodes>
        0 -1 260876 8.8003650307655334e-03</internalNodes>
      <leafValues>
        -8.6371965706348419e-02 4.9598464369773865e-01</leafValues></_>
    <_>
      <internalNodes>
        0 -1 216942 -3.5996221005916595e-02</internalNodes>
      <leafValues>
        6.1230874061584473e-01 -6.3152432441711426e-02</leafValues></_>
    <_>
      <internalNodes>
        0 -1 9377 2.0413683727383614e-02</internalNodes>
      <leafValues>
        1.5109707415103912e-01 -3.1278783082962036e-01</leafValues></_>
    <_>
      <internalNodes>
        0 -1 194081 9.4554170966148376e-02</internalNodes>
      <leafValues>
        9.9255867302417755e-02 -4.5236259698867798e-01</leafValues></_>
    <_>
      <internalNodes>
        0 -1 243914 6.2707662582397461e-02</internalNodes>
      <leafValues>
        -8.6979836225509644e-02 6.9367861747741699e-01</leafValues></_></weakClassifiers></stage12>
</opencv_storage>
