SVM-light Version V6.02
0 # kernel type
3 # kernel parameter -d 
1 # kernel parameter -g 
1 # kernel parameter -s 
1 # kernel parameter -r 
empty# kernel parameter -u 
1296 # highest feature index 
889 # number of training documents 
131 # number of support vectors plus 1 
-0.42391832 # threshold b, each following line is a SV (starting with alpha*y)
-0.0042939682208522215 1:0.4183681 2:0.4183681 3:0.4183681 4:0.2255387 5:0.41068989 6:0.3886019 7:0.22719771 8:0.1648739 9:0.14621051 10:0.57311219 11:0.01079892 12:0.037308909 13:0.01021599 14:0.1275119 15:0 16:0.2570518 17:0.57311219 18:0.50340283 19:0.6150164 20:0.4784812 21:0 22:0 23:0.091786154 24:0 25:0 26:0 27:0.6150164 28:0.65580553 29:0.34159571 30:0.077108197 31:0 32:0.1013224 33:0 34:0 35:0.01978394 36:0.65580553 37:0.59800428 38:0.4520278 39:0.2721293 40:0 41:0.020666581 42:0 43:0 44:0 45:0.59800428 46:0.44678631 47:0.44678631 48:0.4036862 49:0.44678631 50:0.1846692 51:0 52:0 53:0 54:0.44678631 55:0.2453053 56:0.45283359 57:0.0617465 58:0 59:0.47432241 60:0.47432241 61:0.048552498 62:0.45823449 63:0.25281841 64:0.49792501 65:0.49792501 66:0.0099710654 67:0 68:0.04110302 69:0 70:0.038998391 71:0.49792501 72:0.49792501 73:0.68364549 74:0.023420621 75:0 76:0 77:0.026645601 78:0 79:0 80:0.2391118 81:0.68364549 82:0.25978759 83:0 84:0 85:0 86:0.059354711 87:0 88:0.2130409 89:0.66218972 90:0.66218972 91:0.001887214 92:0 93:0 94:0 95:0.102441 96:0.001687951 97:0.59077609 98:0.59077609 99:0.5343852 100:0.2484587 101:0 102:0 103:0 104:0.57366508 105:0.57366508 106:0.24342901 107:0.38783491 108:0.2543284 109:0.49148551 110:0.58160138 111:0.58160138 112:0 113:0 114:0 115:0 116:0 117:0.2758877 118:0.4985714 119:0.4985714 120:0.4985714 121:0.02686277 122:0.002274652 123:0 124:0 125:0 126:0.4985714 127:0.41039839 128:0.053746119 129:0.01213216 130:0 131:0 132:0 133:0 134:0.64114588 135:0.64114588 136:0.56674713 137:0.04034096 138:0 139:0 140:0 141:0 142:0.170606 143:0.56674713 144:0.56674713 145:0.55745399 146:0.55745399 147:0.2485431 148:0 149:0 150:0 151:0 152:0.019867171 153:0.55745399 154:0.16020431 155:0.56202191 156:0.56202191 157:0.56202191 158:0.1453159 159:0 160:0 161:0 162:0 163:0.34572071 164:0.022025829 165:0 166:0 167:0.49982181 168:0.49982181 169:0.1847845 170:0.34738359 171:0.46961239 172:0.4811765 173:0.40211269 174:0.089911789 175:0.02330753 176:0 177:0 178:0.36094281 179:0.4811765 180:0.4811765 181:0.48016521 182:0.48016521 183:0.27012911 184:0 185:0 186:0 187:0 188:0.48016521 189:0.48016521 190:0 191:0 192:0 193:0 194:0 195:0 196:0.045935821 197:0.70386922 198:0.70386922 199:0 200:0 201:0 202:0 203:0 204:0.069540642 205:0.69316798 206:0.69316798 207:0.1651686 208:0.32687399 209:0 210:0 211:0 212:0.49313501 213:0.51725399 214:0.31027669 215:0.38337219 216:0.36607099 217:0.62511629 218:0.62511629 219:0.37203419 220:0 221:0 222:0 223:0 224:0.087827407 225:0.25708881 226:0.56132072 227:0.56132072 228:0.44041991 229:0.017124509 230:0 231:0 232:0 233:0 234:0.412274 235:0.56380022 236:0.2010695 237:0 238:0 239:0 240:0 241:0.018146031 242:0.56380022 243:0.56380022 244:0.57192618 245:0.1139746 246:0 247:0 248:0 249:0 250:0 251:0.57192618 252:0.57192618 253:0.49631 254:0.49631 255:0.49631 256:0 257:0 258:0 259:0.049338169 260:0.19472121 261:0.4644585 262:0.33448511 263:0.40765309 264:0.47453019 265:0.47453019 266:0.47453019 267:0.1424077 268:0.029448239 269:0 270:0.14323039 271:0.38245609 272:0.067597091 273:0 274:0 275:0.56472832 276:0.56472832 277:0.058790632 278:0.32246849 279:0.31343281 280:0.44060141 281:0.44060141 282:0.1154247 283:0.024063461 284:0 285:0.1051145 286:0.44060141 287:0.44060141 288:0.44060141 289:0.52506411 290:0.52506411 291:0 292:0 293:0 294:0 295:0 296:0.4094868 297:0.52506411 298:0.031262871 299:0 300:0 301:0 302:0 303:0 304:0.57540619 305:0.57540619 306:0.57540619 307:0 308:0 309:0 310:0 311:0 312:0 313:0.25536859 314:0.68117058 315:0.68117058 316:0.41825831 317:0 318:0 319:0 320:0 321:0.51784158 322:0.51784158 323:0.3295882 324:0.41825831 325:0.47632691 326:0.47632691 327:0.47632691 328:0.4387165 329:0.103285 330:0 331:0 332:0.086665183 333:0.32238129 334:0.47413251 335:0.47413251 336:0.47413251 337:0.19548251 338:0 339:0 340:0.1624807 341:0.1773254 342:0.47413251 343:0.52408463 344:0.52408463 345:0.15270109 346:0 347:0 348:0 349:0.02513548 350:0.3831746 351:0.52408463 352:0.57488418 353:0 354:0 355:0 356:0 357:0 358:0.052762348 359:0.57488418 360:0.57488418 361:0.6014654 362:0.6014654 363:0.01034676 364:0 365:0.022530951 366:0 367:0.0090740211 368:0.040198401 369:0.51784211 370:0.0713173 371:0.37395799 372:0.54934722 373:0.54934722 374:0.4960027 375:0 376:0 377:0 378:0 379:0.42305249 380:0.42305249 381:0.2797364 382:0 383:0.42305249 384:0.42305249 385:0.018644391 386:0.1493552 387:0.42305249 388:0.60792607 389:0.0094910972 390:0.1144244 391:0.01599846 392:0.3187601 393:0.1686952 394:0.33342609 395:0.01019203 396:0.60792607 397:0.63824618 398:0.1865299 399:0.074008003 400:0.083658829 401:0.2979759 402:0.09624292 403:0.062208079 404:0.1723938 405:0.63824618 406:0.57798088 407:0 408:0 409:0 410:0.3846806 411:0.04525901 412:0.31041899 413:0.28234231 414:0.57798088 415:0.38991091 416:0 417:0 418:0 419:0 420:0.34775221 421:0.49062461 422:0.49062461 423:0.49062461 424:0.41586471 425:0.41586471 426:0.38505989 427:0.2472187 428:0.30696359 429:0.41586471 430:0.02138035 431:0 432:0.41586471 433:0.50736779 434:0.50736779 435:0.50736779 436:0.1163635 437:0.0079660201 438:0 439:0 440:0 441:0.45723349 442:0.4296813 443:0.4296813 444:0.18337201 445:0.3750844 446:0.1320067 447:0 448:0.4296813 449:0.25586021 450:0.4296813 451:0.4666267 452:0.4666267 453:0.35267121 454:0 455:0 456:0 457:0 458:0.4666267 459:0.4666267 460:0.53012961 461:0 462:0 463:0 464:0 465:0 466:0.3893505 467:0.53012961 468:0.53012961 469:0.49378401 470:0.49378401 471:0.49378401 472:0 473:0 474:0 475:0 476:0.1406326 477:0.49378401 478:0.3268759 479:0.2090846 480:0.4889729 481:0.1950113 482:0.5890556 483:0.28752321 484:0.2922771 485:0.0093745794 486:0.22640701 487:0.52339119 488:0 489:0 490:0.34809399 491:0.52339119 492:0.2131795 493:0.065450802 494:0.045375369 495:0.52339119 496:0.69630969 497:0.1215791 498:0 499:0 500:0 501:0 502:0.00767894 503:0.092272528 504:0.69630969 505:0.70212138 506:0 507:0 508:0 509:0 510:0 511:0 512:0.083918557 513:0.70212138 514:0.69880682 515:0 516:0 517:0 518:0 519:0 520:0 521:0.12791499 522:0.69880682 523:0.66661829 524:0.1135216 525:0.12806059 526:0 527:0 528:0 529:0.03813396 530:0.27174261 531:0.66661829 532:0.65665138 533:0 534:0 535:0 536:0 537:0.01074121 538:0.2359302 539:0.2743791 540:0.65665138 541:0.39686689 542:0.38835919 543:0.39686689 544:0.39686689 545:0.2401993 546:0 547:0 548:0.39686689 549:0.39686689 550:0.47468221 551:0.1198096 552:0.33457351 553:0 554:0.150942 555:0 556:0.41256759 557:0.47468221 558:0.47468221 559:0.44835091 560:0.17196199 561:0.28465879 562:0.44835091 563:0.20635331 564:0 565:0.44835091 566:0.1956124 567:0.44835091 568:0.2122675 569:0.48482281 570:0.48482281 571:0.47772241 572:0.48482281 573:0 574:0.055874929 575:0.1125763 576:0.030439761 577:0.41632009 578:0.40695861 579:0.16739561 580:0.41632009 581:0.01375524 582:0.41632009 583:0.41632009 584:0.00080030051 585:0.3297351 586:0.24666619 587:0.3909758 588:0.3909758 589:0.3909758 590:0.3909758 591:0.3909758 592:0.2264168 593:0.3082872 594:0.1569521 595:0.35133949 596:0.35133949 597:0.35133949 598:0.35133949 599:0.35133949 600:0.1504782 601:0.35133949 602:0.35133949 603:0.33131471 604:0.17959151 605:0 606:0 607:0 608:0 609:0.090932533 610:0.56386977 611:0.56386977 612:0.56386977 613:0.4987531 614:0 615:0 616:0 617:0 618:0 619:0.4987531 620:0.4987531 621:0.4987531 622:0.032423429 623:0 624:0 625:0 626:0.2045821 627:0.4879092 628:0.4879092 629:0.4879092 630:0.4879092 631:0.127491 632:0 633:0 634:0 635:0.043420859 636:0.47221291 637:0.60322678 638:0.60322678 639:0.15839019 640:0.2333945 641:0 642:0 643:0 644:0.30303389 645:0.60943502 646:0.60943502 647:0.2243153 648:0.2333945 649:0.41738191 650:0.35604259 651:0.41738191 652:0.41501039 653:0.41738191 654:0 655:0 656:0 657:0.41738191 658:0.63084799 659:0 660:0 661:0.06209939 662:0.28556359 663:0 664:0.31791931 665:0.106243 666:0.63084799 667:0.44896999 668:0.2060101 669:0.44896999 670:0.3763465 671:0.44896999 672:0 673:0.0680115 674:0.022728311 675:0.44896999 676:0.48156789 677:0.00067402271 678:0.002016925 679:0.252947 680:0.48156789 681:0.040270571 682:0.044173252 683:0.48156789 684:0.48156789 685:0.072918274 686:0.001586569 687:0.42087629 688:0.033398729 689:0.32198781 690:0.42087629 691:0.42087629 692:0.42087629 693:0.42087629 694:0 695:0.4231424 696:0.42180559 697:0.29127309 698:0.4231424 699:0.4231424 700:0 701:0.4231424 702:0.1296729 703:0.40750939 704:0.039985359 705:0.40786389 706:0.40786389 707:0.25885001 708:0.40786389 709:0.3020615 710:0.067869022 711:0.40786389 712:0 713:0 714:0 715:0 716:0.035321191 717:0.5345639 718:0.59451032 719:0.59451032 720:0.01314589 721:0.2019475 722:0 723:0 724:0 725:0.35443071 726:0.50998539 727:0.50998539 728:0.50998539 729:0.2196527 730:0 731:0 732:0 733:0 734:0.59907103 735:0.49009761 736:0.59907103 737:0.1898697 738:0 739:0 740:0 741:0.088281743 742:0.18057831 743:0.57194263 744:0.54746598 745:0.56328362 746:0.098796777 747:0 748:0.1217229 749:0.1679327 750:0.49181411 751:0.49181411 752:0.49181411 753:0 754:0.43629339 755:0.1458019 756:0.1217229 757:0.57440168 758:0.0053825481 759:0.01610657 760:0.052895281 761:0.57440168 762:0.036958169 763:0 764:0 765:0.57440168 766:0.56140298 767:0.1534767 768:0 769:0 770:0.56140298 771:0.067279108 772:0.13676021 773:0.045702849 774:0.56140298 775:0.40996289 776:0.40996289 777:0.40996289 778:0.2039205 779:0.40996289 780:0 781:0.31016961 782:0.133296 783:0.40996289 784:0.34396181 785:0.087329678 786:0.35518289 787:0.01592668 788:0.46315989 789:0.46315989 790:0.46315989 791:0.038859859 792:0.31299779 793:0.47045249 794:0.02319368 795:0.47045249 796:0.47045249 797:0.1097976 798:0.0062740701 799:0.025256351 800:0.31101161 801:0.47045249 802:0.17517281 803:0.37170151 804:0.01437656 805:0.47564331 806:0.47564331 807:0.37352309 808:0.00032064531 809:0.42326561 810:0.2346244 811:0.19425841 812:0.05061641 813:0.40191549 814:0.40191549 815:0.26644441 816:0.40191549 817:0.40191549 818:0.27751321 819:0.40191549 820:0.4666197 821:0.17087001 822:0.1364488 823:0.45512441 824:0.036400702 825:0.2647059 826:0.1256589 827:0.4666197 828:0.4666197 829:0 830:0.45696229 831:0.47528231 832:0.27654201 833:0.47528231 834:0.47528231 835:0.1796751 836:0 837:0 838:0 839:0.04896966 840:0.40273011 841:0.64380997 842:0.64380997 843:0 844:0 845:0 846:0 847:0.4619627 848:0.48154479 849:0.48154479 850:0.48154479 851:0.089405872 852:0 853:0.1286172 854:0.042981729 855:0.2444203 856:0.27851671 857:0.45384619 858:0.45384619 859:0.45384619 860:0.31268069 861:0.35302299 862:0 863:0 864:0.27851671 865:0.49558571 866:0.49558571 867:0.2710118 868:0 869:0 870:0 871:0.49558571 872:0.2447495 873:0.3533909 874:0.4408958 875:0.4408958 876:0.4408958 877:0.03337251 878:0.139423 879:0 880:0.05565824 881:0.4408958 882:0.4408958 883:0.54707932 884:0.54707932 885:0.54707932 886:0.24905521 887:0 888:0 889:0 890:0 891:0.1860671 892:0.37292349 893:0.34362751 894:0.37292349 895:0 896:0.37292349 897:0.37292349 898:0.30101261 899:0.30368781 900:0.37292349 901:0.3204892 902:0.04389213 903:0 904:0.39489251 905:0.33423719 906:0.39489251 907:0.39489251 908:0.39489251 909:0.39489251 910:0.40702611 911:0 912:0.02460672 913:0.40702611 914:0.40702611 915:0.40702611 916:0.40702611 917:0.036147561 918:0.40702611 919:0.4688133 920:0.091119878 921:0.02379974 922:0.1555476 923:0.4688133 924:0.088922039 925:0.4688133 926:0.2742303 927:0.4688133 928:0 929:0.087077372 930:0.36119619 931:0.5403372 932:0.5403372 933:0.1373096 934:0.502931 935:0.02892456 936:0 937:0.34197059 938:0.1365163 939:0.1095707 940:0 941:0.64959669 942:0.64959669 943:0 944:0 945:0.044457939 946:0.5741083 947:0.5741083 948:0.5741083 949:0.073670477 950:0.0062382179 951:0 952:0 953:0 954:0 955:0.52839041 956:0.52839041 957:0.38306251 958:0.52839041 959:0.08027716 960:0 961:0 962:0 963:0.062869281 964:0.45475131 965:0.4898414 966:0.4898414 967:0.4898414 968:0 969:0 970:0 971:0 972:0.26167741 973:0.4471091 974:0.3902795 975:0.4471091 976:0.4471091 977:0.1390499 978:0 979:0 980:0.1557391 981:0.4471091 982:0.51001072 983:0.51001072 984:0.45234001 985:0 986:0 987:0 988:0.06257619 989:0.077760093 990:0.51001072 991:0.53304958 992:0.53304958 993:0.53304958 994:0.1856243 995:0 996:0 997:0 998:0 999:0.32832089 1000:0.57135248 1001:0.57135248 1002:0 1003:0 1004:0 1005:0 1006:0 1007:0.122325 1008:0.57135248 1009:0.4386481 1010:0.2396539 1011:0.41047299 1012:0 1013:0.0041983589 1014:0.005464376 1015:0.4386481 1016:0.4386481 1017:0.4386481 1018:0.1382257 1019:0.07393229 1020:0.16971099 1021:0.53742927 1022:0.53742927 1023:0.53742927 1024:0.1811966 1025:0.1851012 1026:0.087598443 1027:0.41332179 1028:0.41332179 1029:0.31038669 1030:0.1878318 1031:0.41332179 1032:0.41332179 1033:0.03036906 1034:0.095673203 1035:0.41332179 1036:0.68745399 1037:0.21448369 1038:0 1039:0 1040:0 1041:0 1042:0.02755033 1043:0.034484372 1044:0.68745399 1045:0.52784008 1046:0.40515199 1047:0.1646537 1048:0 1049:0.4911221 1050:0.07098338 1051:0 1052:0 1053:0.52784008 1054:0.53513819 1055:0.53513819 1056:0.2251516 1057:0 1058:0.01403338 1059:0.1657299 1060:0 1061:0.29792991 1062:0.50476837 1063:0.53270233 1064:0.53270233 1065:0.53270233 1066:0.085505366 1067:0 1068:0.15320531 1069:0.3318662 1070:0 1071:0.049463481 1072:0.49336761 1073:0.1144783 1074:0.024233971 1075:0.087940879 1076:0.49336761 1077:0.49336761 1078:0 1079:0 1080:0.49336761 1081:0.47744739 1082:0.47744739 1083:0.34081689 1084:0 1085:0 1086:0 1087:0 1088:0.44182241 1089:0.47744739 1090:0.63621002 1091:0.63621002 1092:0.035822161 1093:0 1094:0 1095:0 1096:0 1097:0 1098:0.42759609 1099:0.57351887 1100:0.57351887 1101:0.57351887 1102:0 1103:0 1104:0 1105:0 1106:0 1107:0.086610988 1108:0.64697713 1109:0.64697713 1110:0 1111:0 1112:0 1113:0 1114:0 1115:0.0195242 1116:0.39496931 1117:0.50207359 1118:0.48862219 1119:0 1120:0 1121:0 1122:0 1123:0 1124:0.50207359 1125:0.50207359 1126:0.1298558 1127:0.00029893691 1128:0 1129:0.03079338 1130:0.57324839 1131:0.57324839 1132:0.493698 1133:0.226726 1134:0.1552261 1135:0.6863634 1136:0.2240542 1137:0 1138:0.023734629 1139:0.0098635126 1140:0 1141:0 1142:0.0098979212 1143:0.6863634 1144:0.70457858 1145:0.00099978887 1146:0 1147:0.004573341 1148:0.003513766 1149:0 1150:0.0063451012 1151:0.0054829381 1152:0.70457858 1153:0.70350403 1154:0 1155:0 1156:0.039215669 1157:0.037347581 1158:0.01298624 1159:0.0063487561 1160:0 1161:0.70350403 1162:0.7042079 1163:0.031762749 1164:0.0034687731 1165:0.0070953192 1166:0.0015059391 1167:0.001322957 1168:0.0071134828 1169:0.0051964782 1170:0.7042079 1171:0.63583988 1172:0.42422399 1173:0.070265621 1174:0 1175:0.0065413588 1176:0.0078324536 1177:0.007456799 1178:0.0020342949 1179:0.63583988 1180:0.66769832 1181:0.28356469 1182:0.14417779 1183:0 1184:0.0006470143 1185:0.021247771 1186:0.0066521079 1187:0 1188:0.66769832 1189:0.48618481 1190:0.006707266 1191:0.02007062 1192:0 1193:0.47980729 1194:0 1195:0.2352747 1196:0.48618481 1197:0.48618481 1198:0.40980139 1199:0.4451867 1200:0.4451867 1201:0.4451867 1202:0.4451867 1203:0 1204:0 1205:0.0048536859 1206:0.1866221 1207:0.48693001 1208:0.48693001 1209:0.48693001 1210:0 1211:0.48693001 1212:0 1213:0.029579019 1214:0.02397362 1215:0.2127993 1216:0.58042049 1217:0.58042049 1218:0.22557899 1219:0 1220:0.33413669 1221:0 1222:0 1223:0 1224:0.39736021 1225:0.042151779 1226:0.050136559 1227:0.0113173 1228:0 1229:0.59586233 1230:0.2648007 1231:0.210824 1232:0.59586233 1233:0.40615481 1234:0.1354703 1235:0.1545537 1236:0.54676372 1237:0.54676372 1238:0.54676372 1239:0 1240:0.0059816651 1241:0.001998967 1242:0.235392 1243:0.41672119 1244:0.15713219 1245:0.053486049 1246:0.25270501 1247:0.41672119 1248:0.1901145 1249:0.41672119 1250:0.41672119 1251:0.41672119 1252:0.52190489 1253:0.00049038418 1254:0 1255:0 1256:0.34836859 1257:0.37261209 1258:0.0274195 1259:0.43481699 1260:0.52190489 1261:0.401979 1262:0 1263:0 1264:0.1626709 1265:0.401979 1266:0.401979 1267:0.401979 1268:0.401979 1269:0.401979 1270:0.48572209 1271:0.00068101258 1272:0 1273:0.01894252 1274:0.2260212 1275:0 1276:0.48572209 1277:0.48572209 1278:0.48572209 1279:0.0072934539 1280:0 1281:0 1282:0.15778659 1283:0.6238929 1284:0.3194584 1285:0.6238929 1286:0.2970677 1287:0.0057806582 1288:0.1893263 1289:0.0040662079 1290:0.0121676 1291:0.039888449 1292:0.49625939 1293:0.49625939 1294:0.49625939 1295:0.1025658 1296:0.4561837 #
-0.0044998672727390426 1:0.54100013 2:0 3:0 4:0.1663487 5:0.3302218 6:0.2104951 7:0.31026149 8:0.36324421 9:0.54100013 10:0.47129741 11:0.47129741 12:0 13:0 14:0.1097297 15:0.1486613 16:0.2695682 17:0.47129741 18:0.47129741 19:0.42026761 20:0.42026761 21:0.3170976 22:0.075851783 23:0.42026761 24:0.2615284 25:0.08697395 26:0.32716459 27:0.42026761 28:0.16930179 29:0.54382938 30:0.54382938 31:0.2302582 32:0.14723051 33:0.023169121 34:0.54382938 35:0.05849934 36:0 37:0.52766502 38:0.058150232 39:0.1463512 40:0.52766502 41:0.3343325 42:0.084150307 43:0.030791059 44:0.1217854 45:0.52766502 46:0.48787811 47:0 48:0.30547991 49:0.1356421 50:0.057341069 51:0.01484129 52:0.541233 53:0.541233 54:0.2355388 55:0.51383382 56:0 57:0.0032605759 58:0.1707553 59:0.063443922 60:0.03018068 61:0.4107174 62:0.51383382 63:0.51383382 64:0.55694032 65:0.55694032 66:0.1548088 67:0 68:0.01026587 69:0 70:0.001098388 71:0.19954631 72:0.55694032 73:0.37723029 74:0.37723029 75:0.01059898 76:0 77:0.37723029 78:0.37723029 79:0.37723029 80:0.37723029 81:0.37723029 82:0.38106221 83:0.41687429 84:0.30510971 85:0.1441447 86:0.41687429 87:0.41687429 88:0 89:0.2040121 90:0.41687429 91:0.2108583 92:0.4117344 93:0.4117344 94:0.4117344 95:0.4117344 96:0.065835603 97:0.2039659 98:0.4117344 99:0.2405477 100:0.35870001 101:0.30879459 102:0.35870001 103:0.1075389 104:0.35870001 105:0.3427878 106:0.35870001 107:0.35870001 108:0.35870001 109:0.071825698 110:0.39043009 111:0.39043009 112:0.39043009 113:0.39043009 114:0 115:0.39043009 116:0.27627271 117:0.39043009 118:0.3970181 119:0.1437249 120:0.16901509 121:0.3970181 122:0.3970181 123:0.052444629 124:0.3970181 125:0.3970181 126:0.39489701 127:0.2761535 128:0.4165369 129:0.4165369 130:0.25487301 131:0.4165369 132:0.4165369 133:0 134:0.35041749 135:0.1944568 136:0.028823329 137:0.3800872 138:0.203299 139:0.45729151 140:0.45729151 141:0.45729151 142:0.3193748 143:0.2636058 144:0.099849358 145:0.0055872039 146:0.1575114 147:0.149087 148:0.42677331 149:0.39465669 150:0.42677331 151:0.42677331 152:0.4154152 153:0.27191681 154:0.22527321 155:0.34678319 156:0.34678319 157:0.34678319 158:0.34678319 159:0.34678319 160:0.32245469 161:0.34678319 162:0.34678319 163:0.41758439 164:0.39530861 165:0.41758439 166:0.41758439 167:0.32437479 168:0.1268249 169:0.13647351 170:0.04608826 171:0.41758439 172:0.1562883 173:0.4343453 174:0.4343453 175:0.2272521 176:0.4343453 177:0.4343453 178:0.23862 179:0.27408171 180:0.1814059 181:0.4506194 182:0.2342632 183:0.4506194 184:0.4506194 185:0.031641621 186:0.01028649 187:0.20913909 188:0.2890366 189:0.4506194 190:0.39370731 191:0.39370731 192:0.02306792 193:0.39370731 194:0.25593349 195:0 196:0.39370731 197:0.39370731 198:0.39370731 199:0.01188553 200:0.4377026 201:0.4377026 202:0.4377026 203:0.1081916 204:0.4377026 205:0.4377026 206:0.1608151 207:0.001343424 208:0.44086 209:0 210:0 211:0.1494903 212:0.44086 213:0.44086 214:0.44086 215:0.038223028 216:0.44086 217:0.37225339 218:0.37225339 219:0.37225339 220:0.37225339 221:0.37225339 222:0.15529381 223:0.37198359 224:0.37225339 225:0.048554331 226:0.33961171 227:0.01881033 228:0.03126087 229:0.2408265 230:0.080262557 231:0.01156841 232:0.52075553 233:0.52075553 234:0.52075553 235:0.32940269 236:0.38389659 237:0.38389659 238:0.38389659 239:0.35346961 240:0.29488501 241:0.1782584 242:0.2334055 243:0.38389659 244:0.1837066 245:0.04351607 246:0.37045479 247:0.37045479 248:0.37045479 249:0.37045479 250:0.37045479 251:0.37045479 252:0.37045479 253:0.53338403 254:0.53338403 255:0.53338403 256:0.248688 257:0.1108757 258:0.1993399 259:0.0078504421 260:0.055658039 261:0.1553804 262:0.4961749 263:0.4961749 264:0.4961749 265:0.00054904958 266:0.059110578 267:0.028912971 268:0.0063570449 269:0.07691364 270:0.4961749 271:0.57344568 272:0.06043724 273:0.021494299 274:0.02154756 275:0.01081107 276:0.04987216 277:0.023894651 278:0.57344568 279:0.57344568 280:0.44050261 281:0.44050261 282:0.25130799 283:0.3866694 284:0 285:0.0028665799 286:0.20684239 287:0.44050261 288:0.39750639 289:0.51845199 290:0.51845199 291:0.42957529 292:0.057127502 293:0.025419811 294:0 295:0 296:0 297:0.51845199 298:0.3769955 299:0.3769955 300:0.3769955 301:0.3769955 302:0.3769955 303:0.023415919 304:0.028389631 305:0.3769955 306:0.3769955 307:0.37293559 308:0.17692579 309:0.37293559 310:0.37293559 311:0.14905889 312:0.32903951 313:0.37293559 314:0.37293559 315:0.37293559 316:0.44814569 317:0.44814569 318:0.1717599 319:0.44814569 320:0.3766613 321:0.1435159 322:0 323:0.01459937 324:0.44814569 325:0.040538318 326:0 327:0 328:0.34348461 329:0.53580898 330:0.53580898 331:0.53580898 332:0.06143393 333:0.099880338 334:0.39994001 335:0.39994001 336:0.36809069 337:0.04864553 338:0.39994001 339:0.19330309 340:0.34328911 341:0.25124839 342:0.39994001 343:0.29088959 344:0.066492222 345:0.040097661 346:0.48048431 347:0.48048431 348:0.48048431 349:0.019709259 350:0.2284364 351:0.39923441 352:0.46292579 353:0.3159515 354:0.03184865 355:0 356:0.46292579 357:0.41918519 358:0.053761639 359:0.46292579 360:0.2702392 361:0.417613 362:0.1146671 363:0.417613 364:0.417613 365:0.26181781 366:0.2049969 367:0.01020832 368:0.417613 369:0.417613 370:0.1279224 371:0.1872329 372:0.47912931 373:0.47912931 374:0.47912931 375:0.47912931 376:0.1307839 377:0.033255812 378:0.085582577 379:0.40381521 380:0.088138573 381:0.098539352 382:0.40381521 383:0.40381521 384:0.40381521 385:0.40381521 386:0.0093309674 387:0.40381521 388:0.19208211 389:0.41299579 390:0.16709889 391:0.23608071 392:0.41299579 393:0.2608918 394:0.35354769 395:0.41299579 396:0.41299579 397:0.1195702 398:0.01814446 399:0.39727429 400:0.39727429 401:0.39727429 402:0.39727429 403:0.1855897 404:0.39727429 405:0.39727429 406:0.023157209 407:0.35983741 408:0.35983741 409:0.35923389 410:0.35983741 411:0.29987019 412:0.35983741 413:0.35983741 414:0.35983741 415:0.37259659 416:0.37259659 417:0.14710601 418:0.053290728 419:0.37259659 420:0.37259659 421:0.37259659 422:0.37259659 423:0.37259659 424:0.4190132 425:0.4190132 426:0.080329306 427:0.05435041 428:0.072350249 429:0.32142279 430:0.4190132 431:0.4190132 432:0.4190132 433:0.0211282 434:0 435:0.06256555 436:0.48916209 437:0.48916209 438:0.1637397 439:0.48916209 440:0.48916209 441:0.082610533 442:0.4557167 443:0.40511009 444:0.4557167 445:0.0230732 446:0 447:0.0091231475 448:0.0027156351 449:0.4557167 450:0.4557167 451:0.38012069 452:0.1189918 453:0.38012069 454:0.36891291 455:0.082323156 456:0.38012069 457:0.34162959 458:0.38012069 459:0.38012069 460:0.16794281 461:0.1407012 462:0.4437336 463:0.1245585 464:0.196449 465:0.44665691 466:0.44665691 467:0.31308621 468:0.44665691 469:0.40301391 470:0.2094232 471:0.041196719 472:0.31670761 473:0.40301391 474:0.40301391 475:0.40301391 476:0.1949717 477:0.40301391 478:0.3383157 479:0.2168189 480:0.37406701 481:0.29102629 482:0.37406701 483:0.37406701 484:0.37406701 485:0.37406701 486:0.2246508 487:0.40664831 488:0.28143519 489:0.04413918 490:0.01004886 491:0 492:0.1852182 493:0.48792189 494:0.48792189 495:0.48792189 496:0.001454705 497:0.37978071 498:0.2790907 499:0.3943536 500:0.01382737 501:0.3943536 502:0.3943536 503:0.3943536 504:0.389465 505:0.052436359 506:0.46900839 507:0.46900839 508:0.46900839 509:0.46900839 510:0.29469609 511:0.1054657 512:0.01206617 513:0.1207313 514:0.39130801 515:0.40115419 516:0.40115419 517:0.082138188 518:0.40115419 519:0.40115419 520:0.40115419 521:0.1774836 522:0 523:0.1402003 524:0.4639599 525:0.4639599 526:0.4639599 527:0.032222379 528:0.1057389 529:0.27965671 530:0.4639599 531:0.1557164 532:0.4321506 533:0.19993719 534:0.4321506 535:0.040460989 536:0.036317099 537:0.38808671 538:0.4321506 539:0.2347858 540:0.4321506 541:0.39072129 542:0.2389688 543:0.39072129 544:0.39072129 545:0.39072129 546:0.14557169 547:0.39072129 548:0.042668998 549:0.39072129 550:0.2064999 551:0.43302941 552:0.43302941 553:0.03945614 554:0.00726566 555:0.40161869 556:0.43302941 557:0.43302941 558:0.20016751 559:0.052317418 560:0.41701841 561:0.39724591 562:0 563:0.41701841 564:0.41701841 565:0.27453741 566:0.41701841 567:0.25358349 568:0.5584808 569:0.5584808 570:0.5584808 571:0.030568819 572:0.0051704338 573:0.17227399 574:0.1674747 575:0 576:0.0057712272 577:0.5335561 578:0.2008512 579:0 580:0.0257836 581:0.1773679 582:0.0054086172 583:0.26101851 584:0.5335561 585:0.5335561 586:0.49429941 587:0.49429941 588:0.49429941 589:0.1279363 590:0 591:0 592:0.00029986681 593:0.036984861 594:0.49429941 595:0.48414329 596:0.1878493 597:0 598:0.1996464 599:0.045877431 600:0 601:0.46338889 602:0.48414329 603:0.48414329 604:0.56088299 605:0.22483879 606:0.0073240912 607:0 608:0 609:0 610:0.0048648599 611:0.56088299 612:0.56088299 613:0.36195499 614:0.36195499 615:0.36195499 616:0.33375809 617:0.36195499 618:0.29644439 619:0.10508 620:0.36195499 621:0.36195499 622:0.2339225 623:0.38172671 624:0.38172671 625:0.31699079 626:0.38172671 627:0.38172671 628:0.38172671 629:0.33250731 630:0.04296761 631:0.46141651 632:0.46141651 633:0.46141651 634:0.041515261 635:0.1144391 636:0.124679 637:0.33532149 638:0.031068049 639:0.46141651 640:0.42255181 641:0.42255181 642:0.42255181 643:0.36001021 644:0.42255181 645:0.28391451 646:0.0101438 647:0 648:0.2669479 649:0.4151997 650:0.041106291 651:0 652:0.002837619 653:0.26196349 654:0.17963681 655:0.48994011 656:0.48994011 657:0.48994011 658:0.43437389 659:0.43437389 660:0.43437389 661:0.43437389 662:0.1006766 663:0.036690351 664:0.088573217 665:0.181467 666:0.43437389 667:0.080860607 668:0.39074141 669:0.25075591 670:0.39074141 671:0.39074141 672:0.39074141 673:0.39074141 674:0.1029878 675:0.39074141 676:0.38117981 677:0.38117981 678:0.38117981 679:0.38117981 680:0.1176319 681:0.1913005 682:0.38117981 683:0.38117981 684:0.27197531 685:0.47667211 686:0.47667211 687:0.05271573 688:0.1599205 689:0.47667211 690:0.23998781 691:0.01698596 692:0.0117352 693:0.47667211 694:0.4422057 695:0.4422057 696:0.4422057 697:0.2122467 698:0.4422057 699:0.1215146 700:0.01206092 701:0.095420226 702:0.37991339 703:0.45072299 704:0.22800881 705:0.031541672 706:0.2032221 707:0.45072299 708:0.45072299 709:0.1259657 710:0.26971021 711:0.45072299 712:0.36570761 713:0.2433906 714:0.088998877 715:0.28412431 716:0.1200617 717:0.41826379 718:0.41826379 719:0.41826379 720:0.41826379 721:0.08614032 722:0.34443149 723:0.33838561 724:0.4098984 725:0.0140434 726:0.4098984 727:0.4098984 728:0.4098984 729:0.28824171 730:0.46079561 731:0.19482701 732:0.29034999 733:0.1148282 734:0.46079561 735:0.46079561 736:0.1018162 737:0.015943181 738:0.46079561 739:0.45123401 740:0.45123401 741:0.45123401 742:0.30782151 743:0.044543549 744:0 745:0 746:0.29035509 747:0.45123401 748:0.63386858 749:0.051638961 750:0.1809833 751:0.2445617 752:0.1754695 753:0 754:0.03415725 755:0.25080761 756:0.63386858 757:0.22657479 758:0.0076609082 759:0 760:0 761:0 762:0.1539461 763:0.28066331 764:0.64794481 765:0.64794481 766:0.45719501 767:0.1714147 768:0.1262874 769:0 770:0.33696759 771:0.45719501 772:0.021108489 773:0.45719501 774:0.45719501 775:0.4452213 776:0.4452213 777:0.064005911 778:0 779:0.01363747 780:0.0126414 781:0.4452213 782:0.4452213 783:0.4452213 784:0.40548211 785:0.34782949 786:0.40548211 787:0.2295437 788:0 789:0.01395936 790:0.40548211 791:0.40548211 792:0.40548211 793:0.4059051 794:0.4059051 795:0.4059051 796:0 797:0.2907927 798:0.4059051 799:0.25090179 800:0.156966 801:0.4059051 802:0.48397529 803:0.0048797568 804:0.05786993 805:0.1402787 806:0.04242764 807:0.48397529 808:0.18272071 809:0.48397529 810:0.48397529 811:0.264979 812:0.32399309 813:0.32707709 814:0.3058545 815:0.3869426 816:0.1467119 817:0.3869426 818:0.3869426 819:0.3869426 820:0.1103237 821:0.098194636 822:0.42385459 823:0.2702637 824:0.42385459 825:0.079658777 826:0.42385459 827:0.4194684 828:0.42385459 829:0.49764439 830:0.49764439 831:0.49764439 832:0.49764439 833:0 834:0.053057089 835:0.03152116 836:0 837:0.02492452 838:0.0052870391 839:0.034706429 840:0.44278991 841:0.44278991 842:0.44278991 843:0.44278991 844:0.44278991 845:0.1162077 846:0.022926791 847:0.4468492 848:0.4468492 849:0.060738418 850:0.2697956 851:0.34003389 852:0.068831563 853:0 854:0.4468492 855:0.4468492 856:0.3653048 857:0.42854869 858:0.058639672 859:0.227891 860:0.42854869 861:0.39418021 862:0.076471597 863:0.3617928 864:0.3840189 865:0.39735219 866:0.051625129 867:0 868:0 869:0.39462259 870:0.41218969 871:0.41218969 872:0.41218969 873:0.41218969 874:0.35534421 875:0.56825578 876:0.56825578 877:0.1950395 878:0.1969832 879:0.049990311 880:0.097721808 881:0.032316592 882:0.36371821 883:0.57334048 884:0.083801173 885:0 886:0.005249402 887:0.029039931 888:0.01495321 889:0 890:0.57334048 891:0.57334048 892:0.099347539 893:0.31910121 894:0.02979403 895:0.069590554 896:0.52323252 897:0.075872652 898:0.52323252 899:0.52323252 900:0.2242216 901:0.26344091 902:0.3517727 903:0.027450651 904:0.076743796 905:0 906:0.4684366 907:0.4684366 908:0.4684366 909:0.3704516 910:0.58370078 911:0.023657 912:0.03414268 913:0.2229965 914:0.129547 915:0.2300085 916:0.07506863 917:0.58370078 918:0.4312585 919:0.40852469 920:0.40852469 921:0.29693681 922:0.26082551 923:0.04810968 924:0.40852469 925:0.054229788 926:0.40852469 927:0.40852469 928:0 929:0.3749181 930:0.3749181 931:0.3749181 932:0.3749181 933:0.3749181 934:0.1109477 935:0.3749181 936:0.3749181 937:0.4072828 938:0.4072828 939:0.0052385991 940:0.4072828 941:0.4072828 942:0.4072828 943:0.4072828 944:0.021639479 945:0.01265483 946:0.35458869 947:0.63485962 948:0.63485962 949:0.039406329 950:0.2345102 951:0.072681859 952:0 953:0 954:0.0021204951 955:0.4377265 956:0.4377265 957:0.4377265 958:0.4377265 959:0.4377265 960:0.1867255 961:0.0066689909 962:0.043057621 963:0.028986741 964:0.43238041 965:0.43238041 966:0.095674276 967:0.1293872 968:0.1377206 969:0.1267093 970:0.43238041 971:0.43238041 972:0.43238041 973:0.4483881 974:0.4483881 975:0.2029599 976:0 977:0.4483881 978:0.1179781 979:0.0459943 980:0.36617851 981:0.4483881 982:0.06207237 983:0.42948431 984:0.2044646 985:0.42948431 986:0.42948431 987:0.42948431 988:0.42948431 989:0.1321324 990:0.1015288 991:0.3689974 992:0.2492836 993:0.02308997 994:0.304735 995:0.33873639 996:0.45861539 997:0 998:0.4102715 999:0.45861539 1000:0 1001:0.00094451237 1002:0.2147865 1003:0.43576571 1004:0.43576571 1005:0.43576571 1006:0.43576571 1007:0.43576571 1008:0.0073505938 1009:0.08426775 1010:0.40380961 1011:0.40380961 1012:0.32347021 1013:0.2008985 1014:0.40380961 1015:0.40380961 1016:0.168999 1017:0.40380961 1018:0.21317209 1019:0.40430239 1020:0.27135521 1021:0.0259308 1022:0.40430239 1023:0.24271481 1024:0.40430239 1025:0.40430239 1026:0.40430239 1027:0.44173819 1028:0.1169343 1029:0.053167071 1030:0.44173819 1031:0.44173819 1032:0.035386559 1033:0.04660197 1034:0.44173819 1035:0.44173819 1036:0.1271745 1037:0.38307849 1038:0.38307849 1039:0.20583209 1040:0.38307849 1041:0.38307849 1042:0.38307849 1043:0.26643521 1044:0.3645533 1045:0.4002569 1046:0.35178289 1047:0.4002569 1048:0.4002569 1049:0.4002569 1050:0.05545171 1051:0.2473986 1052:0.4002569 1053:0.083313562 1054:0.256248 1055:0.51884139 1056:0.51884139 1057:0.3320815 1058:0.1035924 1059:0 1060:0.021225329 1061:0.0103146 1062:0.51884139 1063:0.35118511 1064:0.35118511 1065:0.35118511 1066:0.35118511 1067:0.099213064 1068:0.35118511 1069:0.35118511 1070:0.35118511 1071:0.35118511 1072:0.40680391 1073:0.40680391 1074:0.081296511 1075:0.40680391 1076:9.0807393e-005 1077:0.1241883 1078:0.40680391 1079:0.40680391 1080:0.38269711 1081:0.50155008 1082:0 1083:0 1084:0.1097989 1085:0.45298871 1086:0.50155008 1087:0.12553319 1088:0.085557163 1089:0.50155008 1090:0.52823561 1091:0.02717685 1092:0.03827529 1093:0.050656829 1094:0.01528206 1095:0.1937861 1096:0.52823561 1097:0.52823561 1098:0.33921951 1099:0.69281888 1100:0.15303171 1101:0 1102:0 1103:0 1104:0 1105:0.06467808 1106:0.074066341 1107:0.69281888 1108:0.2223063 1109:0.6615755 1110:0.6615755 1111:0.2281289 1112:0.0043151062 1113:0 1114:0 1115:0 1116:0.12864549 1117:0.00079761841 1118:0.18815009 1119:0.01521885 1120:0.26978189 1121:0.54349411 1122:0.54349411 1123:0.54349411 1124:0 1125:0 1126:0.239491 1127:0.51711702 1128:0.51711702 1129:0.16835859 1130:0.25189719 1131:0.13392019 1132:0.51711702 1133:0 1134:0.15974499 1135:0.40617701 1136:0.3484188 1137:0.31369981 1138:0.31206229 1139:0.40617701 1140:0.40617701 1141:0.13358331 1142:0.03150801 1143:0.40617701 1144:0.050688989 1145:0.0269155 1146:0.1256783 1147:0.069677994 1148:0.4986589 1149:0.4986589 1150:0.4986589 1151:0.4744406 1152:0 1153:0.01434298 1154:0.28674689 1155:0.46604949 1156:0.46604949 1157:0.46604949 1158:0.46604949 1159:0.2088248 1160:0.0091808373 1161:0.02036621 1162:0.2307024 1163:0.0047168252 1164:0.44182521 1165:0.4537265 1166:0.4537265 1167:0.05046222 1168:0.26308039 1169:0.4537265 1170:0.2401077 1171:0.1052219 1172:0.40200779 1173:0.36216941 1174:0.39767501 1175:0.24508201 1176:0.38625151 1177:0.40200779 1178:0.40200779 1179:0.038907941 1180:0.4852494 1181:0.050657 1182:0.0083478214 1183:0.025668001 1184:0.087674402 1185:0.2056791 1186:0.4852494 1187:0.4852494 1188:0.4852494 1189:0.1138956 1190:0.1237193 1191:0 1192:0.063607551 1193:0.47932801 1194:0.29048049 1195:0.47932801 1196:0.47932801 1197:0.43502069 1198:0.42375079 1199:0.067815997 1200:0.058543012 1201:0.2600055 1202:0.42375079 1203:0.42375079 1204:0.1493789 1205:0.42375079 1206:0.42375079 1207:0.02340907 1208:0.43061101 1209:0.43061101 1210:0.151453 1211:0.43061101 1212:0.21232779 1213:0.43061101 1214:0.43061101 1215:0.00064712879 1216:0.018225489 1217:0.40898141 1218:0.2968452 1219:0.4284513 1220:0.4284513 1221:0.4284513 1222:0.4284513 1223:0.027997009 1224:0.070279039 1225:0.085737549 1226:0.099511087 1227:0.3094185 1228:0.42019269 1229:0.42019269 1230:0.42019269 1231:0.42019269 1232:0.42019269 1233:0 1234:0.04531366 1235:0.46356419 1236:0.46356419 1237:0.46356419 1238:0.40473431 1239:0.2262257 1240:0.33998099 1241:0.1118723 1242:0.074502133 1243:0 1244:0.031433161 1245:0.4322983 1246:0.1529724 1247:0.4322983 1248:0.4322983 1249:0.4322983 1250:0.4322983 1251:0.19205201 1252:0.49508461 1253:0.49508461 1254:0.49508461 1255:0.074691653 1256:0.49508461 1257:0.0059852391 1258:0.003996091 1259:0.03561737 1260:0.087869242 1261:0.4027186 1262:0.4027186 1263:0.4027186 1264:0.1096172 1265:0.4027186 1266:0.096759483 1267:0.038791031 1268:0.4027186 1269:0.4027186 1270:0.44267941 1271:0.44267941 1272:0.44267941 1273:0.44267941 1274:0.44267941 1275:0.07779552 1276:0.082938373 1277:0.02300385 1278:0.047884561 1279:0.1672796 1280:0.17195 1281:0.5577957 1282:0.5577957 1283:0.5577957 1284:0.0305805 1285:0.0290174 1286:0.02917002 1287:0.029060191 1288:0.25295699 1289:0.28412029 1290:0.31095621 1291:0.1106237 1292:0.45310169 1293:0.45310169 1294:0.45310169 1295:0.085564993 1296:0.3443926 #
0.0029709830429314383 1:0.087233193 2:0.54173392 3:0.54173392 4:0 5:0.087233193 6:0 7:0.41440311 8:0.4449372 9:0.1507331 10:0.57466459 11:0.1689727 12:0 13:0 14:0.20770641 15:0 16:0.23456161 17:0.4550494 18:0.57466459 19:0.25949699 20:0 21:0 22:0 23:0.075834431 24:0 25:0.49122491 26:0.58300382 27:0.58300382 28:0.55584812 29:0.1270043 30:0 31:0 32:0.034983709 33:0.1654563 34:0.1510579 35:0.55584812 36:0.55584812 37:0.23380481 38:0.30239829 39:0 40:0 41:0.062614501 42:0 43:0.53061938 44:0.53061938 45:0.53061938 46:0.41525301 47:0.167622 48:0.1872633 49:0 50:0.076538123 51:0.1609274 52:0.42187181 53:0.5241347 54:0.5241347 55:0.45178601 56:0 57:0 58:0 59:0.45178601 60:0 61:0.4231368 62:0.45178601 63:0.45178601 64:0.3878929 65:0.37399119 66:0.32217929 67:0.3878929 68:0.1032746 69:0 70:0.3878929 71:0.37409431 72:0.3878929 73:0.55744117 74:0 75:0 76:0 77:0.249422 78:0 79:0 80:0.55744117 81:0.55744117 82:0.053337891 83:0 84:0 85:0 86:0.094450086 87:0 88:0 89:0.70044339 90:0.70044339 91:0 92:0 93:0 94:0 95:0.057729561 96:0.2546261 97:0.58686483 98:0.58686483 99:0.48698291 100:0.49740189 101:0 102:0 103:0 104:0.49740189 105:0 106:0.073468119 107:0.49740189 108:0.49740189 109:0.70335352 110:0.0090657473 111:0.027128071 112:0 113:0.004078961 114:0 115:0 116:0.052266549 117:0.70335352 118:0.68549317 119:0.2154987 120:0.009883889 121:0 122:0 123:0 124:0.078310877 125:0.026170131 126:0.68549317 127:0.37638909 128:0.01167377 129:0.034932218 130:0 131:0.39956111 132:0 133:0.057593498 134:0.58657968 135:0.58657968 136:0.48143339 137:0.1570605 138:0.4699831 139:0 140:0 141:0 142:0.48143339 143:0.2330346 144:0.48143339 145:0.51206487 146:0 147:0 148:0 149:0 150:0 151:0.45634931 152:0.51206487 153:0.51206487 154:0.1312366 155:0.1807218 156:0.2475168 157:0 158:0 159:0 160:0 161:0.51625222 162:0.78390819 163:0.65451002 164:0.08286956 165:0.022234529 166:0 167:0.0090876836 168:0.14118689 169:0.069023959 170:0.32335219 171:0.65451002 172:0.64798957 173:0 174:0 175:0 176:0.0019301981 177:0 178:0.01283722 179:0.39189419 180:0.64798957 181:0.68706489 182:0 183:0 184:0 185:0.01466049 186:0 187:0.17185511 188:0.1388374 189:0.68706489 190:0.55983198 191:0.55983198 192:0 193:0 194:0 195:0 196:0.1432429 197:0.1834539 198:0.55983198 199:0.1211783 200:0 201:0 202:0 203:0.50288051 204:0.41661501 205:0.50288051 206:0.50288051 207:0.2192232 208:0.4376426 209:0.36458191 210:0 211:0 212:0.4700515 213:0.065959312 214:0.060482491 215:0.4700515 216:0.4700515 217:0.69714898 218:0.02469451 219:0.06734626 220:0 221:0 222:0.099981003 223:0.03138845 224:0.069858871 225:0.69714898 226:0.4900682 227:0.03857933 228:0 229:0 230:0 231:0.22468591 232:0.47183961 233:0.4900682 234:0.4900682 235:0 236:0 237:0 238:0.01432818 239:0.4661684 240:0.50191551 241:0.50191551 242:0.50191551 243:0.14734779 244:0.53185141 245:0.36195901 246:0.1151567 247:0.035476711 248:0 249:0 250:0.023597591 251:0.53185141 252:0.53185141 253:0.4329339 254:0.1141807 255:0.4329339 256:0.42194581 257:0.2028221 258:0.26398319 259:0 260:0.3626028 261:0.4329339 262:0.45789739 263:0.66210359 264:0.58765513 265:0 266:0 267:0 268:0 269:0 270:0.00056450331 271:0.1259858 272:0.034778722 273:0 274:0 275:0 276:0 277:0.65549231 278:0.65549231 279:0.3421014 280:0.118507 281:0.27875721 282:0.040711328 283:0.21683639 284:0.018361131 285:0.016041219 286:0.064574338 287:0.65127128 288:0.65127128 289:0.53529233 290:0.53529233 291:0 292:0 293:0.035163991 294:0.1383968 295:0.244192 296:0.2345646 297:0.53529233 298:0.49180681 299:0.0127437 300:0.01226106 301:0 302:0 303:0 304:0.1100672 305:0.60812283 306:0.60812283 307:0.61374468 308:0.61374468 309:0.4136253 310:0 311:0 312:0 313:0 314:0.14817519 315:0.2178646 316:0.41813979 317:0.41813979 318:0.3052941 319:0.083455279 320:0.41813979 321:0.028921271 322:0.41813979 323:0.1435719 324:0.41813979 325:0.70387238 326:0.0086036939 327:0 328:0 329:0 330:0 331:0 332:0.045024101 333:0.70387238 334:0.5298869 335:0.35392091 336:0.19723789 337:0.24124511 338:0.3915036 339:0.1040618 340:0.01009304 341:0.2158245 342:0.5298869 343:0.00370857 344:0.0052752751 345:0 346:0.05089283 347:0.70363182 348:0.70363182 349:0.0062366622 350:0.01016256 351:0.0026154721 352:0.1661267 353:0.51425213 354:0.51425213 355:0.1627939 356:0.4666504 357:0.3440049 358:0.076115273 359:0.25630471 360:0.065315507 361:0.005242452 362:0.70455903 363:0.70455903 364:0.01150505 365:0 366:0 367:0.0004844924 368:0.0001619088 369:0 370:0.52618152 371:0.52618152 372:0.52618152 373:0.3699708 374:0.031327929 375:0 376:0 377:0.084467188 378:0.138382 379:0.2392002 380:0 381:0 382:0.13071731 383:0.078564502 384:0.47821209 385:0.47821209 386:0.47821209 387:0.47821209 388:0 389:0.0072659971 390:0.0037964811 391:0.01477919 392:0.0062771151 393:0.55068898 394:0.82787979 395:0.052628811 396:0 397:0.05630254 398:0 399:0 400:0.1152482 401:0.68550527 402:0.68550527 403:0.1193837 404:0.089577317 405:0.120802 406:0.1235422 407:0.1705472 408:0.4749029 409:0.4749029 410:0.4749029 411:0.4749029 412:0.197179 413:0.099483937 414:0 415:0.1708234 416:0.69236892 417:0.69236892 418:0.071401067 419:0 420:0.00055683352 421:0.007738716 422:0 423:0 424:0.51254481 425:0.51254481 426:0.2117686 427:0 428:0 429:0 430:0.38165611 431:0.12754279 432:0.51254481 433:0.70460641 434:0 435:0 436:0 437:0 438:0 439:0 440:0.0051084338 441:0.70460641 442:0.6689769 443:0 444:0 445:0 446:0 447:0 448:0 449:0.31346661 450:0.6689769 451:0 452:0.001198814 453:0.003073842 454:0.2258485 455:0.47881979 456:0.47881979 457:0.47881979 458:0.47881979 459:0.1646985 460:0.1374965 461:0.68919373 462:0.68919373 463:0 464:0 465:0.03523396 466:0.1396618 467:0.059058461 468:0.002058367 469:0.167991 470:0.57768083 471:0.57768083 472:0.5354526 473:0.0050101131 474:0 475:0 476:0 477:0.1088388 478:0.29131219 479:0.4804959 480:0.4804959 481:0.24689721 482:0.1761072 483:0 484:0.2905288 485:0.4804959 486:0.203298 487:0.02256343 488:0.045327041 489:0.13563579 490:0 491:0.2232049 492:0.50501603 493:0.54259157 494:0.54259157 495:0.28275049 496:0 497:0 498:0 499:0 500:0 501:0.63076627 502:0.63076627 503:0.4449383 504:0 505:0.01023576 506:0.2130027 507:0.082320757 508:0.1385977 509:0.01792522 510:0.44489631 511:0.59769338 512:0.59769338 513:0.099208377 514:0.41522339 515:0.3856667 516:0.57439148 517:0.57439148 518:0.068959743 519:0.01338544 520:0 521:0.0029166639 522:0.091218092 523:0.5587979 524:0.1225343 525:0.1135117 526:0.1677589 527:0.5587979 528:0 529:0.03808035 530:0.01272582 531:0.5587979 532:0.51916462 533:0.51916462 534:0.4315314 535:0 536:0 537:0 538:0 539:0 540:0.51916462 541:0.70461559 542:0 543:0 544:0 545:0 546:0 547:0 548:0 549:0.70461559 550:0.7036525 551:0.048616178 552:0.01770873 553:0.006715036 554:0 555:0 556:0 557:0 558:0.7036525 559:0.440813 560:0.440813 561:0.440813 562:0.440813 563:0.35710219 564:0.054542989 565:0.02553989 566:0.25061831 567:0.1561206 568:0.2492501 569:0.079028293 570:0.37682289 571:0.43881181 572:0.43881181 573:0.43881181 574:0.33071539 575:0.2021503 576:0.2394692 577:0.01553609 578:0.40828189 579:0.40828189 580:0.38761029 581:0.40828189 582:0.1093983 583:0.40828189 584:0.40828189 585:0 586:0.44456851 587:0 588:0 589:0 590:0.44456851 591:0.44456851 592:0.44456851 593:0.085751563 594:0.44456851 595:0.01675448 596:0.027398029 597:0.081985347 598:0 599:0.66195291 600:0 601:0.66195291 602:0.3142722 603:0.1025109 604:0 605:0.002184218 606:0.0065359892 607:0.26315859 608:0.50591987 609:0.50591987 610:0.50591987 611:0.39646319 612:0.02448185 613:0 614:0 615:0 616:0.044546708 617:0.57342142 618:0.57342142 619:0.57342142 620:0.076508559 621:0 622:0 623:0.003016216 624:0.1155909 625:0.69922483 626:0.69922483 627:0 628:0.040450089 629:0.01351774 630:0 631:0.17047369 632:0.48246491 633:0.48246491 634:0.48246491 635:0.48246491 636:0 637:0.016090481 638:0.0517345 639:0.17915089 640:0.2649819 641:0.30967969 642:0.61543602 643:0.61543602 644:0 645:0 646:0 647:0 648:0.2649819 649:0.68387222 650:0.2404387 651:0 652:0 653:0 654:0 655:0 656:0 657:0.68387222 658:0.70454192 659:0 660:0 661:0 662:0 663:0 664:0 665:0.0144442 666:0.70454192 667:0.40013009 668:0.16789161 669:0.055734672 670:0.40013009 671:0.40013009 672:0.06390845 673:0.40013009 674:0.40013009 675:0.40013009 676:0.03700171 677:0 678:0.4730393 679:0.4306863 680:0.1474202 681:0.26575869 682:0.4730393 683:0.4730393 684:0.2115573 685:0 686:0 687:0 688:0 689:0.063745737 690:0.68668789 691:0.68668789 692:0.213486 693:0.02060009 694:0.0097023034 695:0.1706004 696:0.44575429 697:0.44575429 698:0.44575429 699:0.25591701 700:0.44575429 701:0.32528719 702:0.015996439 703:0.33904469 704:0.60991848 705:0.60991848 706:0 707:0.1221385 708:0.3024295 709:0.16259129 710:0.0049253618 711:0.045998938 712:0.1173435 713:0.66727042 714:0.66727042 715:0.29801551 716:0.016014401 717:0 718:0 719:0 720:0 721:0 722:0.1058764 723:0.57244319 724:0.57244319 725:0.57244319 726:0 727:0 728:0 729:0 730:0.19338331 731:0 732:0.3798961 733:0.59331149 734:0.59331149 735:0.26567569 736:0.017482189 737:0.0058422559 738:0.19338331 739:0.41900441 740:0.029413911 741:0.41900441 742:0.41900441 743:0.41900441 744:0 745:0 746:0.34223631 747:0.41900441 748:0.1510644 749:0 750:0.1194143 751:0.65083241 752:0.65083241 753:0.29400021 754:0 755:0 756:0.1510644 757:0.42610061 758:0.42610061 759:0.42610061 760:0.2137658 761:0 762:0.02696982 763:0.42610061 764:0.42610061 765:0.2037439 766:0.15560681 767:0.058044288 768:0 769:0.45518979 770:0.45518979 771:0.45518979 772:0.45518979 773:0.30149391 774:0.2195026 775:0.01211295 776:0.121629 777:0.47417831 778:0.59724742 779:0.59724742 780:0.062942028 781:0.01265298 782:0.05024489 783:0.18492129 784:0.15165401 785:0.05075521 786:0.15279061 787:0.2219346 788:0.59825158 789:0.59825158 790:0.3448219 791:0.2416908 792:0.05220063 793:0.017986439 794:0 795:0 796:0 797:0 798:0.39155549 799:0.64790767 800:0.64790767 801:0.017986439 802:0.53147578 803:0.062241279 804:0 805:0 806:0.0092675053 807:0.001255113 808:0.53312302 809:0.53312302 810:0.37390879 811:0.307183 812:0.67042071 813:0.67042071 814:0.0042302161 815:0 816:0 817:0 818:0 819:0 820:0 821:0.70439231 822:0.70439231 823:0.025129279 824:0 825:0 826:0 827:0 828:0 829:0.33308211 830:0.53105187 831:0.53105187 832:0.02406906 833:0.41058159 834:0.25586081 835:0.088427372 836:0 837:0.2779924 838:0.0027351901 839:0 840:0 841:0 842:0.57271397 843:0.57271397 844:0.57271397 845:0.1013011 846:0.0027351901 847:0 848:0.2303521 849:0.2912215 850:0.25342399 851:0.51118731 852:0.51118731 853:0.51118731 854:0.016240731 855:0.092724197 856:0.4295994 857:0.073118597 858:0.42506111 859:0.1295123 860:0 861:0.2338571 862:0.4295994 863:0.4295994 864:0.4295994 865:0.70432961 866:0.0055881971 867:0.016721951 868:0 869:0.0079923728 870:0.018817769 871:0 872:0.0089549953 873:0.70432961 874:0.6893748 875:0 876:0 877:0 878:0 879:0 880:0 881:0.2065019 882:0.6893748 883:0.50345099 884:0.50345099 885:0.2769888 886:0.26755211 887:0.29362869 888:0.0076520308 889:0 890:0 891:0.50345099 892:0 893:0.002225698 894:0.0066601122 895:0.57567412 896:0.57567412 897:0.57567412 898:0.00035098961 899:0 900:0 901:0 902:0 903:0.0132735 904:0.090825163 905:0.028033139 906:0.1835307 907:0.68928379 908:0.68928379 909:0 910:0.25215131 911:0.1296396 912:0.1445118 913:0.064052626 914:0 915:0.20507079 916:0.634597 917:0.634597 918:0.2020154 919:0.01103644 920:0.70455122 921:0.70455122 922:0.004673013 923:0.006223042 924:0 925:0 926:0 927:0 928:0 929:0.70258027 930:0.70258027 931:0.075816967 932:0 933:0 934:0 935:0 936:0 937:0.39701769 938:0.41506451 939:0.075561419 940:0 941:0.187324 942:0.41506451 943:0.41506451 944:0.41506451 945:0.32911491 946:0 947:0.26041591 948:0.05878355 949:0 950:0.1033256 951:0.55058008 952:0.55058008 953:0.55058008 954:0.056021299 955:0.0058547668 956:0.01021625 957:0.030570799 958:0 959:0 960:0.133699 961:0.69050282 962:0.69050282 963:0.1434229 964:0.51351142 965:0.51351142 966:0.51351142 967:0 968:0 969:0 970:0 971:0.03570956 972:0.4500162 973:0.70461559 974:0 975:0 976:0 977:0 978:0 979:0 980:0 981:0.70461559 982:0.70368779 983:0 984:0 985:0 986:0 987:0 988:0 989:0.051212009 990:0.70368779 991:0.70458889 992:0.0077081472 993:0 994:0 995:0 996:0.001680671 997:0.0036405909 998:0 999:0.70458889 1000:0.53726369 1001:0.53726369 1002:0.01847777 1003:0.2118578 1004:0.199046 1005:0.093497381 1006:0.056750569 1007:0.1785247 1008:0.53726369 1009:0.093939267 1010:0 1011:0.1176727 1012:0.55431801 1013:0.55431801 1014:0.55431801 1015:0.17972711 1016:0.075383022 1017:0.1095595 1018:0.53951317 1019:0.04171275 1020:0 1021:0 1022:0 1023:0 1024:0.34590301 1025:0.53951317 1026:0.53951317 1027:0.51904267 1028:0.58130169 1029:0.58130169 1030:0.1888967 1031:0.0384482 1032:0 1033:0.094069988 1034:0.03143654 1035:0.044373259 1036:0.50268102 1037:0.15493099 1038:0.45886469 1039:0.039733492 1040:0.50268102 1041:0 1042:0.026417309 1043:0.0088282032 1044:0.50268102 1045:0.062342871 1046:0.1271911 1047:0.38060269 1048:0 1049:0.66611761 1050:0 1051:0.53735453 1052:0.29738611 1053:0.086754672 1054:0.0044173719 1055:0.0031295151 1056:0.024337331 1057:0.03062626 1058:0.1662972 1059:0.59231472 1060:0.59231472 1061:0.51058501 1062:0.050007649 1063:0.016325921 1064:0.01191639 1065:0 1066:0 1067:0 1068:0.40798149 1069:0.50697178 1070:0.53422242 1071:0.53422242 1072:0.54421991 1073:0.0077418908 1074:0.024132179 1075:0.0019750639 1076:0 1077:0.1317405 1078:0.29671109 1079:0.54421991 1080:0.54421991 1081:0.66311812 1082:0.082678743 1083:0 1084:0 1085:0 1086:0 1087:0 1088:0.32725069 1089:0.66311812 1090:0.3698191 1091:0.3698191 1092:0.3250941 1093:0.3698191 1094:0.2331163 1095:0.12521499 1096:0.3698191 1097:0.3698191 1098:0.3698191 1099:0.4665688 1100:0.1815864 1101:0 1102:0.02251802 1103:0.27266961 1104:0.4665688 1105:0.4665688 1106:0.1294791 1107:0.4665688 1108:0.39983311 1109:0.39983311 1110:0.39983311 1111:0.39983311 1112:0.3589415 1113:0 1114:0.22900809 1115:0.39983311 1116:0.1240541 1117:0 1118:0 1119:0.005136231 1120:0.53505528 1121:0.53505528 1122:0.53505528 1123:0.3683024 1124:0.01145055 1125:0 1126:0.4982695 1127:0 1128:0 1129:0 1130:0.46724951 1131:0 1132:0.4982695 1133:0.1785605 1134:0.4982695 1135:0.4665373 1136:0.1356283 1137:0.4058516 1138:0 1139:0.4665373 1140:0 1141:0.37849629 1142:0.12648679 1143:0.4665373 1144:0.49237069 1145:0.49237069 1146:0.49237069 1147:0 1148:0.031182591 1149:0 1150:0.1481337 1151:0.049503669 1152:0.49237069 1153:0.57289129 1154:0 1155:0 1156:0 1157:0.57289129 1158:0 1159:0.093246542 1160:0.0311614 1161:0.57289129 1162:0.23644219 1163:0 1164:0 1165:0 1166:0.64336348 1167:0 1168:0.60416311 1169:0.30395681 1170:0.2575894 1171:0.43991259 1172:0.43991259 1173:0.1803893 1174:0.349785 1175:0.1199478 1176:0 1177:0.22855221 1178:0.43991259 1179:0.43991259 1180:0.48956579 1181:0 1182:0 1183:0 1184:0.054326519 1185:0.1829219 1186:0.48956579 1187:0.48956579 1188:0.48956579 1189:0.69913119 1190:0 1191:0 1192:0 1193:0.1243068 1194:0 1195:0 1196:0 1197:0.69913119 1198:0.70448822 1199:0.01878413 1200:0 1201:0 1202:0.002731177 1203:0 1204:0 1205:0 1206:0.70448822 1207:0.70460582 1208:0 1209:0 1210:0 1211:0 1212:0 1213:0 1214:0.0052777329 1215:0.70460582 1216:0.43828809 1217:0.43828809 1218:0.43828809 1219:0.43828809 1220:0.43828809 1221:0.1266108 1222:0.0087976288 1223:0.0115261 1224:0.1374739 1225:0 1226:0 1227:0 1228:0.03811045 1229:0.70405358 1230:0.70405358 1231:0.01108864 1232:0.003705638 1233:0 1234:0.56147969 1235:0 1236:0 1237:0 1238:0.56147969 1239:0 1240:0.2091199 1241:0.069884188 1242:0.56147969 1243:0.54563212 1244:0.067192063 1245:0.20106401 1246:0 1247:0.54563212 1248:0 1249:0.22537491 1250:0.07531634 1251:0.54563212 1252:0.57567191 1253:0.002395364 1254:0.0071678162 1255:0 1256:0.57567191 1257:0 1258:0 1259:0 1260:0.57567191 1261:0.4326995 1262:0.40853059 1263:0.4621596 1264:0 1265:0.4621596 1266:0 1267:0.022532919 1268:0.098415598 1269:0.45153201 1270:0.4772487 1271:0 1272:0.02188527 1273:0.044765949 1274:0.28563091 1275:0.0099886302 1276:0.4772487 1277:0.4772487 1278:0.4772487 1279:0 1280:0.02704367 1281:0.01413033 1282:0.1489875 1283:0.65165132 1284:0.65165132 1285:0.34794691 1286:0 1287:0 1288:0.3777009 1289:0.3777009 1290:0.36770079 1291:0 1292:0.3777009 1293:0.34581739 1294:0.16775911 1295:0.3777009 1296:0.3777009 #
0.0070098422384964635 1:0.57203978 2:0.57203978 3:0 4:0.041198362 5:0.092091776 6:0.048641529 7:0.0074110762 8:0 9:0.57203978 10:0.57559502 11:0.0018535811 12:0 13:0 14:0.01780672 15:0 16:0.00175744 17:0.57559502 18:0.57559502 19:0.61449671 20:0.61449671 21:0.19284619 22:0.01200902 23:0.44103611 24:0.072279483 25:0 26:0 27:0.039762579 28:0.38193449 29:0.0063922689 30:0 31:0 32:0.051400781 33:0.2902604 34:0.2201438 35:0.2369477 36:0.80901831 37:0.46067089 38:0.033393111 39:0 40:0 41:0.05608689 42:0 43:0.50938982 44:0.50938982 45:0.50938982 46:0.47918811 47:0 48:0 49:0 50:0.2265022 51:0.069452293 52:0.48627669 53:0.48627669 54:0.48627669 55:0 56:0.26982719 57:0.65599322 58:0.65599322 59:0.2433351 60:0 61:0 62:0.02222502 63:0.016856089 64:0.62278253 65:0.32460999 66:0.24995179 67:0.1529084 68:0.1021572 69:0 70:0.1271798 71:0.01504845 72:0.62278253 73:0.45840529 74:0 75:0 76:0.25131339 77:0.093014427 78:0.39059529 79:0.45840529 80:0.37502 81:0.45840529 82:0.4406887 83:0.1079 84:0.45715231 85:0.45715231 86:0.2507486 87:0.1202524 88:0 89:0.29203531 90:0.45715231 91:0.47831181 92:0.47831181 93:0.04469803 94:0 95:0.27491 96:0.02365231 97:0.044283848 98:0.47831181 99:0.47831181 100:0.70071977 101:0.0039103311 102:0.097759113 103:0.035930458 104:0.01112279 105:0 106:0.001337275 107:0.00044689511 108:0.70071977 109:0.3925654 110:0.3925654 111:0.3925654 112:0 113:0.26726881 114:0.3925654 115:0.3925654 116:0 117:0.3925654 118:0.4688257 119:0.4688257 120:0.4688257 121:0.098494411 122:0 123:0 124:0.01008169 125:0.32607421 126:0.4688257 127:0.02707508 128:0.078092352 129:0.13642021 130:0 131:0 132:0.41621321 133:0.62750602 134:0.62750602 135:0.086786643 136:0.003191838 137:0.2414165 138:0.1551408 139:0 140:0.22751211 141:0.53013581 142:0.53013581 143:0.53013581 144:0.13210391 145:0.41083279 146:0.1070632 147:0.003381788 148:0.21843401 149:0.49448431 150:0.1080357 151:0.49448431 152:0.49448431 153:0.1479003 154:0 155:0 156:0.23381139 157:0.55919927 158:0.55919927 159:0.52565569 160:0.1889011 161:0.04840127 162:0 163:0 164:0 165:0.1803818 166:0.56605238 167:0.56605238 168:0.56605238 169:0.02371667 170:0.001088295 171:0.0002255065 172:0.39653379 173:0.2660194 174:0.39653379 175:0.39653379 176:0.2206452 177:0.1885376 178:0.39653379 179:0.23419289 180:0.39653379 181:0.4656415 182:0.4656415 183:0.4656415 184:0.0014478459 185:0.2100677 186:0.077157646 187:0.1740972 188:0.2183284 189:0.4656415 190:0.0061598029 191:0 192:0.1159227 193:0.2203216 194:0.4829908 195:0.4829908 196:0.4829908 197:0.4829908 198:0.0061598029 199:0.37388161 200:0.4393633 201:0.4393633 202:0.1806623 203:0.021909609 204:0.081596203 205:0.3685306 206:0.31798071 207:0.4393633 208:0.5361442 209:0.34903109 210:0.045361809 211:0.091725707 212:0 213:0 214:0 215:0.5361442 216:0.5361442 217:0.69424093 218:0 219:0 220:0.01473746 221:0.03394746 222:0.019539431 223:0 224:0.16546109 225:0.69424093 226:0.55075848 227:0.55075848 228:0 229:0.01290051 230:0.001092373 231:0.0053388341 232:0.1124116 233:0.26769951 234:0.55075848 235:0.085950553 236:0.31729171 237:0.48770729 238:0.48770729 239:0.48770729 240:0.1736334 241:0 242:0.35994971 243:0.1173875 244:0.061208159 245:0.01653323 246:0.26247579 247:0.58809012 248:0.58809012 249:0.46209201 250:0.02041875 251:0.017880119 252:0.1234869 253:0.1824289 254:0.44781169 255:0.44781169 256:0.44781169 257:0.44781169 258:0.22071271 259:0.33375359 260:0 261:0 262:0.1574463 263:0.0049433629 264:0.33977219 265:0.42249709 266:0.42249709 267:0.26542869 268:0.2665571 269:0.42249709 270:0.42249709 271:0.01060313 272:0.024892669 273:0.5727222 274:0.5727222 275:0.5727222 276:0.097428858 277:0.001091123 278:0.0048337341 279:0 280:0 281:0.02801428 282:0.076204278 283:0.034574501 284:0.31759229 285:0.4790341 286:0.4945941 287:0.4945941 288:0.40949699 289:0.42407009 290:0.35210949 291:0 292:0.38418171 293:0.039982539 294:0.056980811 295:0.42407009 296:0.42407009 297:0.42407009 298:0.41241789 299:0.092994973 300:0.26546589 301:0.42708021 302:0.42708021 303:0.42708021 304:0.42708021 305:0.1301351 306:0 307:0.4148843 308:0.4148843 309:0.4148843 310:0.36532441 311:0.04141346 312:0.005797992 313:0 314:0.4148843 315:0.4148843 316:0.27057359 317:0.048669361 318:0.043603972 319:0 320:0.19212051 321:0.46928719 322:0.46928719 323:0.46928719 324:0.46928719 325:0.4896681 326:0.12602609 327:0.26717731 328:0.048672311 329:0.054207511 330:0 331:0.42803171 332:0.4896681 333:0.4896681 334:0 335:0 336:0.1239239 337:0.57157779 338:0.57157779 339:0.5554499 340:0.1141297 341:0.062988587 342:0.003871829 343:0.248317 344:0.36164099 345:0.36164099 346:0.3111425 347:0.36164099 348:0.2306738 349:0.36164099 350:0.36164099 351:0.36164099 352:0.4262543 353:0.28182739 354:0.02906882 355:0.04400425 356:0.07120654 357:0.4262543 358:0.4262543 359:0.4262543 360:0.4262543 361:0.41852689 362:0.41852689 363:0.41852689 364:0.38605431 365:0.41852689 366:0.1687184 367:0.02009836 368:0.079404444 369:0.33308771 370:0.57234877 371:0.57234877 372:0.57234877 373:0 374:0 375:0 376:0 377:0.0037486809 378:0.1073366 379:0.4578681 380:0.14820939 381:0.1696649 382:0.01265545 383:0.2458957 384:0.4578681 385:0.4578681 386:0.4578681 387:0.2132529 388:0.55490339 389:0.56307828 390:0.56307828 391:0.05238153 392:0.064740628 393:0.17286371 394:0.1221242 395:0.024609189 396:0.002864582 397:0.32493621 398:0.41455641 399:0.41455641 400:0.41455641 401:0.41455641 402:0.40958309 403:0.071127638 404:0.1036996 405:0.1388382 406:0.42477289 407:0.24360199 408:0.054350261 409:0.1129546 410:0.42477289 411:0.1361692 412:0.42477289 413:0.42477289 414:0.42477289 415:0.36725169 416:0.36725169 417:0.042897839 418:0.25397849 419:0.34748039 420:0.36725169 421:0.36725169 422:0.36725169 423:0.36725169 424:0.46597439 425:0.46597439 426:0 427:0 428:0.0057847812 429:0.034620829 430:0.35438001 431:0.46597439 432:0.46597439 433:0.53709269 434:0.2346741 435:0.1170744 436:0.1561785 437:0 438:0.1243777 439:0.1434944 440:0.53709269 441:0.53709269 442:0.063191362 443:0.1420702 444:0.4176732 445:0.29163799 446:0.2708796 447:0.4176732 448:0.4176732 449:0.4176732 450:0.33973289 451:0.45630711 452:0.05087842 453:0 454:0 455:0 456:0 457:0.085061528 458:0.62279272 459:0.62279272 460:0.49337801 461:0.49337801 462:0.071023174 463:0.070025742 464:0.081533708 465:0.061755128 466:0.031235149 467:0.49337801 468:0.49337801 469:0.2140208 470:0.68410802 471:0.68410802 472:0.069412231 473:0 474:0 475:0 476:0 477:0.080870457 478:0.4819904 479:0.4819904 480:0.4819904 481:0.2198004 482:0 483:0 484:0 485:0.1327204 486:0.4819904 487:0.13071389 488:0 489:0.1150694 490:0.076708578 491:0.16577519 492:0.27937531 493:0.64287013 494:0.64287013 495:0.1589793 496:0.0050375769 497:0 498:0.003228284 499:0.0066034021 500:0 501:0 502:0.70394433 503:0.70394433 504:0.042643558 505:0.4714427 506:0.1262639 507:0.2568922 508:0.052859839 509:0.43590489 510:0.087238073 511:0.2148547 512:0.4714427 513:0.4714427 514:0.4381552 515:0.125893 516:0.30283609 517:0.2085765 518:0.384002 519:0.01379455 520:0.34781101 521:0.4381552 522:0.4381552 523:0.48044389 524:0.1981544 525:0.48044389 526:0.12578399 527:0.004848938 528:0.1134097 529:0.06263952 530:0.48044389 531:0.48044389 532:0.47671431 533:0.0019164 534:0.1363893 535:0.038921058 536:0.007306166 537:0.032648589 538:0.19297171 539:0.59511483 540:0.59511483 541:0.1498723 542:0.041131679 543:0 544:0.093405977 545:0.51483119 546:0.51483119 547:0.51483119 548:0.049784429 549:0.40539891 550:0.53492492 551:0.007193686 552:0.021111131 553:0 554:0.1156318 555:0.095597453 556:0.53492492 557:0.3364774 558:0.53492492 559:0.57421231 560:0.57421231 561:0.57421231 562:0.0088557424 563:0.04810679 564:0.01539121 565:0.03555264 566:0.01086497 567:0.033093799 568:0.01492641 569:0.4529871 570:0.613105 571:0.613105 572:0.187714 573:0.036261611 574:0 575:0.0041135899 576:0.0097184079 577:0 578:0.70307469 579:0.70307469 580:0.064783037 581:0 582:0.0124621 583:0.001236911 584:0 585:0 586:0.1054077 587:0.53976017 588:0.53976017 589:0.53976017 590:0.31935331 591:0 592:0.054635189 593:0.041160379 594:0.053012241 595:0.01806806 596:0.090320408 597:0.26777151 598:0 599:0.05023887 600:0.01503182 601:0.671709 602:0.671709 603:0.08928968 604:0.098739237 605:0 606:0 607:0 608:0.01670363 609:0.090580352 610:0.69134659 611:0.69134659 612:0.1376415 613:0.001177715 614:0.001271193 615:0.003803879 616:0 617:0 618:0.050811481 619:0.57508868 620:0.57508868 621:0.57463402 622:0.1520066 623:0.40119931 624:0.40119931 625:0.067667238 626:0.40119931 627:0.050419152 628:0.40119931 629:0.40119931 630:0.40119931 631:0.52419049 632:0.090706572 633:0.1510185 634:0.1736912 635:0.068106748 636:0.31697261 637:0.064226434 638:0.52419049 639:0.52419049 640:0.64786971 641:0.01529619 642:0 643:0 644:0 645:0.028723801 646:0.002850947 647:0.39114481 648:0.64786971 649:0.021490639 650:0.0131577 651:0.4079023 652:0.63962132 653:0.63962132 654:0.089181013 655:0 656:0 657:0.020268969 658:0.2559801 659:0.36216691 660:0.39300859 661:0 662:0.39300859 663:0.39300859 664:0.39300859 665:0.16463409 666:0.39300859 667:0.014433 668:0.042060349 669:0.4394007 670:0.4394007 671:0.4394007 672:0.4394007 673:0.4394007 674:0.16698229 675:0.01962827 676:0 677:0.1176002 678:0.43971711 679:0.4805375 680:0.4805375 681:0.4805375 682:0.30865911 683:0.00046726339 684:0 685:0.32578811 686:0.3863377 687:0.3863377 688:0.052210379 689:0.3685762 690:0.3863377 691:0.3863377 692:0.3863377 693:0.071722291 694:0.32308 695:0.30973491 696:0.49615529 697:0 698:0.49615529 699:0.25200179 700:0.25774011 701:0.21435671 702:0.35567459 703:0.49847591 704:0 705:0 706:0 707:0.49847591 708:0 709:0.033292461 710:0.49847591 711:0.49847591 712:0.074540623 713:0.39771071 714:0.3720915 715:0.1964981 716:0.39771071 717:0.39771071 718:0.39771071 719:0.39771071 720:0.15012661 721:0 722:0.01442867 723:0.47049391 724:0.47049391 725:0.47049391 726:0.3543565 727:0.35382691 728:0.27149889 729:0.080779113 730:0.3928186 731:0.2597937 732:0.3928186 733:0.3928186 734:0.3549557 735:0.3928186 736:0.1762308 737:0 738:0.3928186 739:0.1245892 740:0.126021 741:0.25116509 742:0.2902658 743:0.45071191 744:0.45071191 745:0.45071191 746:0.45071191 747:0.064739071 748:0.3709324 749:0.17895269 750:0.3709324 751:0.3709324 752:0.3709324 753:0.03367947 754:0.3709324 755:0.3709324 756:0.3709324 757:0.13043439 758:0 759:0.53355902 760:0.53355902 761:0.53355902 762:0.1076118 763:0.1240283 764:0.2821818 765:0.13043439 766:0.1367278 767:0.39841259 768:0.39841259 769:0.39841259 770:0.39841259 771:0.39841259 772:0.1120263 773:0.1112666 774:0.39841259 775:0.33491069 776:0.40241519 777:0.45719159 778:0.36051351 779:0.04938731 780:0.34142229 781:0.15777791 782:0.45719159 783:0.1714928 784:0 785:0 786:0 787:0 788:0.01439882 789:0.2344389 790:0.68301582 791:0.68301582 792:0.070649117 793:0.001737228 794:0 795:0 796:0 797:0 798:0.00035713529 799:0.70085633 800:0.70085633 801:0.1029628 802:0.077367939 803:0.0093816984 804:0.03752986 805:0.1650842 806:0.0059421072 807:0.115366 808:0.62672371 809:0.62672371 810:0.40012211 811:0.061782859 812:0.69369382 813:0.69369382 814:0.1623476 815:0.021885009 816:0 817:0 818:0 819:0 820:0.01628748 821:0.68970418 822:0.68970418 823:0.2036314 824:0 825:0 826:0 827:0 828:0 829:0.016210349 830:0.59957951 831:0.59957951 832:0.50723487 833:0.1320201 834:0 835:0 836:0 837:0.0065532592 838:0.61958653 839:0.61958653 840:0.1621587 841:0.016650889 842:0.0033695591 843:0 844:0 845:0.05874886 846:0.44272259 847:0.51720208 848:0.39633769 849:0.4204368 850:0.3351872 851:0.092586443 852:0.07117144 853:0 854:0 855:0.51720208 856:0.39780611 857:0.39780611 858:0.2156329 859:0 860:0.39780611 861:0.39780611 862:0.39780611 863:0.005476153 864:0.39780611 865:0.41187781 866:0.41187781 867:0.41187781 868:0.41187781 869:0.2130632 870:0.01631812 871:0 872:0.31938481 873:0.41187781 874:0.67041558 875:0.67041558 876:0.25124699 877:0 878:0 879:0 880:0.0024339629 881:0.084475867 882:0.1553251 883:0.52159578 884:0 885:0.33537781 886:0.1209779 887:0.19865841 888:0.063411772 889:0.089465439 890:0.52159578 891:0.52159578 892:0 893:0 894:0.02675361 895:0.24950381 896:0.47308061 897:0.47308061 898:0.47308061 899:0.47308061 900:0.1925773 901:0 902:0.03467102 903:0.3229847 904:0.233199 905:0.018573949 906:0.52601153 907:0.52601153 908:0.52601153 909:0.06659428 910:0.065369993 911:0 912:0.03910071 913:0.079979867 914:0 915:0.02532584 916:0.57616258 917:0.57616258 918:0.5634535 919:0.1703458 920:0.68243361 921:0.68243361 922:0.1635929 923:0 924:0 925:0 926:0 927:0.077302799 928:0.056467481 929:0.68784839 930:0.68784839 931:0.064293288 932:0.064506471 933:0.1652631 934:0.089817964 935:0 936:0 937:0.3642832 938:0.3642832 939:0.3642832 940:0.3642832 941:0.3642832 942:0.1366484 943:0.3642832 944:0.3642832 945:0.2208434 946:0 947:0.42919779 948:0.46840879 949:0.46840879 950:0.33667201 951:0.46840879 952:0.1613134 953:0.082116179 954:0.08232411 955:0.117091 956:0 957:0 958:0.09862981 959:0.49082291 960:0.49082291 961:0.49082291 962:0.49082291 963:0.089618221 964:0.40070429 965:0.40070429 966:0.40070429 967:0.1055536 968:0.40070429 969:0.40070429 970:0.2191277 971:0.04393068 972:0.36344039 973:0.1859241 974:0.18284979 975:0.1477018 976:0 977:0.32320669 978:0.44756261 979:0.44756261 980:0.44756261 981:0.44756261 982:0 983:0.2699559 984:0.40973809 985:0.40973809 986:0.40973809 987:0.40973809 988:0.29799861 989:0.40334389 990:0.0003481475 991:0.47462371 992:0.21290749 993:0.1112441 994:0.01484897 995:0.1019393 996:0.27084631 997:0.4216415 998:0.47462371 999:0.47462371 1000:0 1001:0.23311859 1002:0.51204699 1003:0.51204699 1004:0.26332471 1005:0.47325921 1006:0.23688629 1007:0.25369859 1008:0.048635289 1009:0.58948767 1010:0.32644531 1011:0.052896589 1012:0 1013:0.007243102 1014:0.070243247 1015:0.071343973 1016:0.42388821 1017:0.58948767 1018:0.23419119 1019:0 1020:0 1021:0 1022:0 1023:0.040702209 1024:0.5591405 1025:0.5591405 1026:0.5591405 1027:0.50329733 1028:0.50329733 1029:0.50329733 1030:0.48470661 1031:0 1032:0 1033:0 1034:0 1035:0.01041112 1036:0.53970569 1037:0.53970569 1038:0.3422806 1039:0 1040:0 1041:0.003511396 1042:0.00086865819 1043:0.059954539 1044:0.53970569 1045:0.65759832 1046:0.65759832 1047:0.31298229 1048:0.13971131 1049:0.028829459 1050:0 1051:0 1052:0.017438451 1053:0.099756703 1054:0.044920541 1055:0.1238148 1056:0.3387602 1057:0.26255769 1058:0.50607032 1059:0.50607032 1060:0.45992431 1061:0.23051029 1062:0.130473 1063:0.027209099 1064:0.38975999 1065:0.4512217 1066:0.4512217 1067:0.4512217 1068:0.1443029 1069:0.0584783 1070:0.064750418 1071:0.4512217 1072:0.464555 1073:0.1277184 1074:0 1075:0 1076:0.3192648 1077:0.1177819 1078:0.464555 1079:0.464555 1080:0.464555 1081:0.49311909 1082:0.49311909 1083:0.1146949 1084:0.1200755 1085:0.054081541 1086:0.32187629 1087:0.02126178 1088:0.36196879 1089:0.49311909 1090:0.36732891 1091:0.36732891 1092:0.1245042 1093:0.36732891 1094:0.36732891 1095:0.36732891 1096:0.36732891 1097:0.1905662 1098:0.36732891 1099:0.47337371 1100:0.047383711 1101:0.045214079 1102:0 1103:0 1104:0.34314629 1105:0.1788924 1106:0.55512732 1107:0.55512732 1108:0.36406571 1109:0.275161 1110:0.0056029558 1111:0 1112:0.111935 1113:0.18774121 1114:0.36013389 1115:0.55169243 1116:0.55169243 1117:0.27559349 1118:0.4772689 1119:0.4772689 1120:0.4772689 1121:0.4772689 1122:0.087126464 1123:0.01085 1124:0.020740431 1125:0 1126:0.063619822 1127:0.40258789 1128:0.51272678 1129:0.51272678 1130:0.51272678 1131:0.19627909 1132:0 1133:0.01717495 1134:0.03561268 1135:0.4208084 1136:0.4208084 1137:0.4208084 1138:0.4208084 1139:0.1997741 1140:0.0047384719 1141:0 1142:0.2654539 1143:0.4208084 1144:0.2458 1145:0.40159649 1146:0.25350609 1147:0.02241851 1148:0.0042304932 1149:0 1150:0.022890629 1151:0.59458208 1152:0.59458208 1153:0.49314979 1154:0.49314979 1155:0.2768828 1156:0 1157:0 1158:0 1159:0 1160:0.43453479 1161:0.49314979 1162:0.060654189 1163:0.45802549 1164:0.45802549 1165:0.45802549 1166:0.45802549 1167:0.05888468 1168:0.1615172 1169:0.35007501 1170:0.022114269 1171:0.075165197 1172:0.036971912 1173:0.4064059 1174:0.38944069 1175:0.1069129 1176:0.4064059 1177:0.4064059 1178:0.4064059 1179:0.4064059 1180:0.42524561 1181:0.1082277 1182:0 1183:0 1184:0.42524561 1185:0.42524561 1186:0.28261209 1187:0.42524561 1188:0.42524561 1189:0.03111333 1190:0.43924561 1191:0.43924561 1192:0.28913 1193:0.43924561 1194:0.06362801 1195:0.087638788 1196:0.3571727 1197:0.43924561 1198:0.46602511 1199:0.46602511 1200:0.051389009 1201:0.045578621 1202:0.34696251 1203:0.040071111 1204:0 1205:0.46593979 1206:0.46602511 1207:0.1076434 1208:0.075056583 1209:0 1210:0.04186298 1211:0.4929387 1212:0.4929387 1213:0.4929387 1214:0.4929387 1215:0.06441614 1216:0.50241798 1217:0.03911335 1218:0.016921541 1219:0 1220:0.4167459 1221:0.020906741 1222:0.248556 1223:0.50241798 1224:0.50241798 1225:0.43199599 1226:0.43199599 1227:0.2392612 1228:0.43199599 1229:0.43199599 1230:0.065793462 1231:0 1232:0.03173798 1233:0.43199599 1234:0 1235:0 1236:0 1237:0.3559348 1238:0.61584753 1239:0.61584753 1240:0.3295832 1241:0 1242:0 1243:0.1681471 1244:0.4237538 1245:0.4237538 1246:0.4237538 1247:0.4237538 1248:0.4237538 1249:0.1532165 1250:0.214899 1251:0 1252:0.046203271 1253:0.043671232 1254:0.41903931 1255:0.57430261 1256:0.57430261 1257:0.071981519 1258:0.3870416 1259:0 1260:0 1261:0.33019161 1262:0.082780398 1263:0.23894291 1264:0.044438139 1265:0.38522321 1266:0 1267:0.1231594 1268:0.57261223 1269:0.57261223 1270:0.2177712 1271:0.47073191 1272:0 1273:0 1274:0.47073191 1275:0.02104339 1276:0.47073191 1277:0.47073191 1278:0.2471374 1279:0.1777577 1280:0.59146422 1281:0.59146422 1282:0.03793025 1283:0.4150354 1284:0 1285:0.2210723 1286:0.2006751 1287:0 1288:0.31008431 1289:0.01105017 1290:0 1291:0.1035571 1292:0.46104479 1293:0.1953129 1294:0.46104479 1295:0.46104479 1296:0.46104479 #
0.0070272297229244845 1:0.43144619 2:0.43144619 3:0.43144619 4:0.2376406 5:0.43144619 6:0.38430071 7:0.18650129 8:0.0046821372 9:0.1101925 10:0 11:0.13759071 12:0.41968921 13:0.61065978 14:0.61065978 15:0.1121036 16:0.1994511 17:0.01103623 18:0.023493599 19:0.44892099 20:0.094536103 21:0.44892099 22:0.2326998 23:0.1963055 24:0.09751983 25:0.27975541 26:0.44892099 27:0.44892099 28:0.40643451 29:0.00055661361 30:0 31:0.39337859 32:0.40643451 33:0.1234814 34:0.40643451 35:0.40643451 36:0.40643451 37:0.38328031 38:0.43765989 39:0.040923368 40:0.43765989 41:0.43765989 42:0.43765989 43:0.1811045 44:0.219054 45:0.0090135513 46:0.5619238 47:0.5619238 48:0.5619238 49:0.07098835 50:0.1473413 51:0.037926409 52:0 53:0.018311821 54:0.1363491 55:0.1069091 56:0.179024 57:0.085463211 58:0.1633537 59:0.092536993 60:0.03341249 61:0.54995787 62:0.54995787 63:0.54995787 64:0.44173601 65:0.44173601 66:0.44173601 67:0.1662246 68:0.090211026 69:0.050858971 70:0.0076810881 71:0.42029801 72:0.44173601 73:0 74:0.40677619 75:0.40677619 76:0.08220198 77:0.1687426 78:0.36519939 79:0.40677619 80:0.40677619 81:0.40677619 82:0 83:0 84:0.4263539 85:0.4263539 86:0.4263539 87:0.037064519 88:0.29236749 89:0.4263539 90:0.4263539 91:0.40978771 92:0.40978771 93:0.40978771 94:0.22505771 95:0.40978771 96:0.40978771 97:0.1119707 98:0.0037839951 99:0.3050797 100:0.2267005 101:0 102:0 103:0.0039276108 104:0.53193402 105:0.55238569 106:0.55238569 107:0 108:0.2232967 109:0.053074479 110:0.2454644 111:0.1290573 112:0.002889053 113:0.522403 114:0.522403 115:0.522403 116:0.30580619 117:0.053074479 118:0.12892 119:0.18054201 120:0.025243189 121:0 122:0.4520219 123:0.4520219 124:0.35824081 125:0.4520219 126:0.4520219 127:0.40562049 128:0.40562049 129:0.087135501 130:0.32360181 131:0.40562049 132:0.2376413 133:0.40562049 134:0.40562049 135:0.06725882 136:0.3558141 137:0.33959761 138:0.32342601 139:0.35099009 140:0.3519783 141:0.3558141 142:0.1517131 143:0.3558141 144:0.3558141 145:0.4492805 146:0.098012961 147:0.15398011 148:0 149:0.1146315 150:0.4492805 151:0.4492805 152:0.37635559 153:0.4492805 154:0.27563789 155:0.01421077 156:0.47672689 157:0.088091388 158:0 159:0 160:0.47750169 161:0.47750169 162:0.47750169 163:0 164:0.024409819 165:0.42499179 166:0.42499179 167:0.42499179 168:0.262979 169:0.42499179 170:0.42499179 171:0.1513624 172:0.1358587 173:0.48598561 174:0.48598561 175:0.32305729 176:0.43876141 177:0.29454151 178:0.3471455 179:0.01287142 180:0.0040735719 181:0.2846621 182:0.03951215 183:0.37652361 184:0.37652361 185:0.37652361 186:0.2510463 187:0.37652361 188:0.37652361 189:0.37652361 190:0.1175207 191:0.2151846 192:0.44149661 193:0.44149661 194:0.44149661 195:0.44149661 196:0.3403855 197:0.1993009 198:0.01463977 199:0.095615283 200:0.023413779 201:0.0067216 202:0.091042519 203:0 204:0.086296208 205:0.68859708 206:0.68859708 207:0.1390049 208:0.42186201 209:0.42186201 210:0.42186201 211:0.42186201 212:0.32169881 213:0.049502969 214:0 215:0.002768642 216:0.42186201 217:0.2263564 218:0.16692071 219:0.53480262 220:0.53480262 221:0.53480262 222:0.1427803 223:0.1118064 224:0 225:0.15694299 226:0.39712769 227:0.39712769 228:0.39712769 229:0.39712769 230:0.39712769 231:0.39712769 232:0.223093 233:0 234:0 235:0.41614559 236:0.41614559 237:0.41614559 238:0.034026731 239:0.1396964 240:0.1912128 241:0.41614559 242:0.26966971 243:0.41614559 244:0.38705409 245:0.38705409 246:0.1865385 247:0.3553822 248:0.38705409 249:0.0076676109 250:0.29313251 251:0.38705409 252:0.38705409 253:0.55385828 254:0.55385828 255:0.55385828 256:0.0083496096 257:0.032900538 258:0.18294179 259:0.089624837 260:0 261:0.1775939 262:0.0052913972 263:0.65629888 264:0.65629888 265:0.2784766 266:0.17711779 267:0.01030807 268:0.086077407 269:0.034106839 270:0.119852 271:0.2910544 272:0.44925261 273:0.1484347 274:0 275:0.01853911 276:0.21039321 277:0.52317989 278:0.52317989 279:0.30685231 280:0.00043855869 281:0.0087605547 282:0.2793014 283:0.4503282 284:0.23897921 285:0.22163659 286:0.4503282 287:0.4503282 288:0.4503282 289:0.2324506 290:0.059411041 291:0.53577298 292:0.53577298 293:0.05312511 294:0.19465961 295:0.48406801 296:0.094925798 297:0.28095159 298:0.32530129 299:0.40334499 300:0.05284119 301:0.41454169 302:0.41454169 303:0.41454169 304:0.41454169 305:0.1919129 306:0.018671131 307:0.40513399 308:0.40513399 309:0.27981421 310:0.2366215 311:0.2897571 312:0.40513399 313:0.35941261 314:0.37823021 315:0.114331 316:0.39495701 317:0.39495701 318:0.27361619 319:0.34822321 320:0.39495701 321:0.33292961 322:0.39495701 323:0.048783511 324:0.2504853 325:0.41534281 326:0.41534281 327:0.1210088 328:0 329:0.077634782 330:0.3356075 331:0.41534281 332:0.41534281 333:0.41534281 334:0 335:0.097167537 336:0.1749215 337:0.4442333 338:0.4442333 339:0.4442333 340:0.4442333 341:0.4075942 342:0.0042061098 343:0.31536639 344:0.46026549 345:0.46026549 346:0.16657969 347:0.2920264 348:0.38390821 349:0.46026549 350:0 351:0 352:0.47471511 353:0.47471511 354:0.47471511 355:0.2315938 356:0.1985193 357:0.1860003 358:0.05144963 359:0.42196211 360:0.1041835 361:0.2303569 362:0.68555957 363:0.68555957 364:0.0089073014 365:0 366:0 367:0 368:0 369:0.0053563952 370:0.42513281 371:0.4355008 372:0.4355008 373:0.2248655 374:0.067025483 375:0 376:0.4355008 377:0.4355008 378:0.034804668 379:0.3911922 380:0.43229839 381:0.1064436 382:0 383:0.075601421 384:0.27942279 385:0.43229839 386:0.43229839 387:0.43229839 388:0.04967827 389:0.0073446082 390:0 391:0 392:0.0050630849 393:0.089454897 394:0.69999832 395:0.69999832 396:0.049674511 397:0.21882901 398:0.22417641 399:0.058741119 400:0.13061041 401:0.37495169 402:0.42909041 403:0.42909041 404:0.42909041 405:0.42909041 406:0.42503709 407:0.42503709 408:0.42503709 409:0.1472379 410:0.025767921 411:0.093052574 412:0.2479313 413:0.42503709 414:0.42503709 415:0.46206331 416:0.070639603 417:0.1932883 418:0.48230389 419:0.20276929 420:0.01084042 421:0.01568518 422:0.48230389 423:0.48230389 424:0.56528682 425:0.56528682 426:0.03880094 427:0 428:0 429:0.1123188 430:0.1347822 431:0.058482721 432:0.56528682 433:0.53993291 434:0.53993291 435:0.174429 436:0 437:0.080334909 438:0.1548342 439:0.39000019 440:0.3249521 441:0.3049688 442:0 443:0.073429354 444:0.29670301 445:0.5437156 446:0.5437156 447:0.5437156 448:0.1188863 449:0.01148808 450:0 451:0.099967457 452:0.39207831 453:0.39207831 454:0.2039021 455:0.39207831 456:0.39207831 457:0.39207831 458:0.34158149 459:0.2433289 460:0.48544249 461:0.61138499 462:0.61138499 463:0 464:0 465:0.093131751 466:0.023482781 467:0.017037051 468:0.033803161 469:0.27722979 470:0.37281841 471:0.43857801 472:0.43857801 473:0.14842869 474:0.28829691 475:0.43857801 476:0.2800611 477:0.1383357 478:0.0105087 479:0.69870561 480:0.69870561 481:0.12674759 482:0 483:0 484:0 485:0.00078324933 486:0.021681661 487:0.1057949 488:0.098409973 489:0.040768109 490:0.0072066751 491:0.02498471 492:0.3653318 493:0.53233778 494:0.53233778 495:0.52080131 496:0 497:0 498:0.029293779 499:0.05991995 500:0.022734519 501:0.68805742 502:0.68805742 503:0.2024512 504:0.0182568 505:0 506:0 507:0 508:0 509:0 510:0.67052162 511:0.67052162 512:0.30285841 513:0.048830599 514:0.43306381 515:0.43306381 516:0.39302841 517:0.4095473 518:0.32490119 519:0.02858777 520:0.032068182 521:0.05860357 522:0.43306381 523:0.43952 524:0.38526851 525:0.066375703 526:0.046079349 527:0.3242256 528:0.1013037 529:0.43952 530:0.43952 531:0.38174671 532:0.33183989 533:0.51587081 534:0.51587081 535:0.51587081 536:0.1540511 537:0.1157825 538:0 539:0 540:0.22186659 541:0.47593731 542:0.038755439 543:0.2738058 544:0.0048535778 545:0.02567941 546:0.1096658 547:0.47593731 548:0.47593731 549:0.47593731 550:0.44233161 551:0.01601414 552:0.01121759 553:0.1127302 554:0.0648458 555:0.44233161 556:0.44233161 557:0.44233161 558:0.44233161 559:0.040529121 560:0.53362632 561:0.71593797 562:0.43783829 563:0.04673893 564:0 565:0 566:0 567:0 568:0.074993372 569:0.1616734 570:0.57757097 571:0.57757097 572:0.49671611 573:0.1185228 574:0.02950201 575:0.139235 576:0.119426 577:0.25954199 578:0.60759747 579:0.60759747 580:0.34311071 581:0.0056552379 582:0.030219389 583:0.0049031312 584:0.1038753 585:0.2423586 586:0.3692961 587:0.42866009 588:0.14859051 589:0.006946716 590:0 591:0.42866009 592:0.42866009 593:0.42866009 594:0.31970781 595:0.52103168 596:0.082133859 597:0.20619281 598:0 599:0.37672761 600:0.075564787 601:0.46304089 602:0.2013609 603:0.52103168 604:0.0038832929 605:0 606:0 607:0 608:0.024476539 609:0.47262171 610:0.62013 611:0.62013 612:0.02646751 613:0.2314374 614:0 615:0.01238865 616:0.1082241 617:0.43918759 618:0.43918759 619:0.43918759 620:0.3982971 621:0.43918759 622:0 623:0 624:0.2392123 625:0.45405689 626:0.45405689 627:0.33687779 628:0.45405689 629:0.45405689 630:0.0092097856 631:0.004757585 632:0.46554479 633:0.1480649 634:0.46554479 635:0.46554479 636:0.46554479 637:0.037373211 638:0.14048269 639:0.29213759 640:0.47519779 641:0.45612389 642:0.1311205 643:0.1045946 644:0.46333009 645:0.1451665 646:0.029183939 647:0.2661697 648:0.47519779 649:0.3524276 650:0.3524276 651:0.3524276 652:0.3524276 653:0.3524276 654:0.3524276 655:0.05326578 656:0.3524276 657:0.3524276 658:0.005258549 659:0.1460271 660:0.47970101 661:0.13279229 662:0.47970101 663:0.1089673 664:0.47970101 665:0.47970101 666:0.1545886 667:0.25977159 668:0.1340569 669:0.0119575 670:0.063901573 671:0.1607127 672:0.51431572 673:0.67865038 674:0.39015499 675:0.02024048 676:0 677:0.098448798 678:0.037627541 679:0.38327289 680:0.52487242 681:0.52487242 682:0.52487242 683:0.1013799 684:0.001168463 685:0.062842287 686:0.04611497 687:0.069529727 688:0.16104101 689:0.24116801 690:0.51455051 691:0.51455051 692:0.3249127 693:0.51455051 694:0.4174422 695:0.132009 696:0.0098266238 697:0.32077679 698:0.4174422 699:0.40541619 700:0.118385 701:0.4174422 702:0.4174422 703:0.2292463 704:0.0009991437 705:0.002989819 706:0 707:0.079315208 708:0 709:0.60382479 710:0.60382479 711:0.45377031 712:0.23280279 713:0.4444389 714:0.4444389 715:0.4444389 716:0.22121499 717:0 718:0.1355802 719:0.2897265 720:0.4444389 721:0.36519551 722:0.24331941 723:0.3633568 724:0.36519551 725:0.36519551 726:0.36519551 727:0.070088141 728:0.36519551 729:0.36519551 730:0.0097371833 731:0.4742758 732:0.4742758 733:0.3705256 734:0.28266811 735:0.28013489 736:0.4742758 737:0.1551763 738:0.02469017 739:0.41916239 740:0.41916239 741:0.28359279 742:0.41916239 743:0.41916239 744:0.045639008 745:0.035610951 746:0.1831702 747:0.41916239 748:0.57113802 749:0 750:0 751:0.081843391 752:0.094769903 753:0 754:0.004617197 755:0.57113802 756:0.57113802 757:0.089763403 758:0.0047068442 759:0 760:0.0089097274 761:0.164682 762:0.57234389 763:0.57234389 764:0.54419702 765:0.087751821 766:0.19655579 767:0.37325001 768:0.37325001 769:0.37325001 770:0.37325001 771:0.37325001 772:0.1254736 773:0.37325001 774:0.32557619 775:0.47132689 776:0.2595765 777:0.231021 778:0.01159469 779:0.01052032 780:0.085466139 781:0.44782221 782:0.47132689 783:0.47132689 784:0.04657894 785:0.003265314 786:0 787:0 788:0.0320559 789:0.34793419 790:0.65894061 791:0.65894061 792:0.02738904 793:0.05738068 794:0.0040225461 795:0 796:0 797:0.136957 798:0.56670189 799:0.57056361 800:0.57056361 801:0 802:0.30641791 803:0.068939067 804:0.1683227 805:0 806:0.43538591 807:0.43538591 808:0.43538591 809:0.3757917 810:0.3984617 811:0.1738449 812:0.42164579 813:0.42164579 814:0.42164579 815:0.42164579 816:0 817:0.2152146 818:0.39015901 819:0.2363973 820:0.53387898 821:0.53387898 822:0.53387898 823:0.3727093 824:0.025868731 825:0 826:0 827:0.0001823428 828:0.0026010999 829:0.1366635 830:0.54747891 831:0.54747891 832:0.2808246 833:0.40060651 834:0.058767121 835:0.01005049 836:0.063839063 837:0.3597382 838:0.1554599 839:0.53538948 840:0.53538948 841:0.53538948 842:0.076817393 843:0 844:0 845:0 846:0.32351029 847:0.01403119 848:0.084915407 849:0.3665981 850:0.41855559 851:0.34673351 852:0.50716072 853:0.50716072 854:0.20807789 855:0 856:0.36205271 857:0.36205271 858:0.18465181 859:0.2114505 860:0.36205271 861:0.36205271 862:0.36205271 863:0.36205271 864:0.36205271 865:0.2147084 866:0.46974531 867:0.46974531 868:0.3164894 869:0.059598479 870:0.2468845 871:0.064842708 872:0.34402359 873:0.46974531 874:0.01091044 875:0.092486493 876:0.098348662 877:0.090932719 878:0.05847254 879:0.50706422 880:0.50706422 881:0.50706422 882:0.43995509 883:0.124717 884:0.2231708 885:0.28504449 886:0.1079843 887:0.080562487 888:0.50930709 889:0.50930709 890:0.45028761 891:0.32955441 892:0.1058086 893:0.01502075 894:0.1249529 895:0 896:0.027704099 897:0.52167231 898:0.62183672 899:0.54489869 900:0.1012533 901:0.098191202 902:0.030584469 903:0.1982242 904:0.01271426 905:0 906:0.32645321 907:0.5285573 908:0.5285573 909:0.5285573 910:0 911:0 912:0 913:0 914:0.2336759 915:0.48612481 916:0.48612481 917:0.48612481 918:0.4812364 919:0.46211699 920:0.46211699 921:0.46211699 922:0.028677421 923:0.46211699 924:0.2194203 925:0.29260099 926:0.081196159 927:0 928:0.2125209 929:0.67379332 930:0.67379332 931:0.038367212 932:0.1959344 933:0 934:0 935:0.0093435533 936:0.01280103 937:0.41795591 938:0.41795591 939:0.41795591 940:0.30852941 941:0.337699 942:0.1439597 943:0 944:0.25907731 945:0.41795591 946:0.5438183 947:0.5438183 948:0.001972334 949:0.027615249 950:0.1650959 951:0.27024209 952:0.044866301 953:0.065476708 954:0.5438183 955:0.2121685 956:0.3370342 957:0.15310431 958:0.12609459 959:0.179864 960:0.3803193 961:0.45479491 962:0.45479491 963:0.45479491 964:0.67843688 965:0.01532675 966:0 967:0 968:0.034036011 969:0.1528367 970:0.13213231 971:0.1745352 972:0.67843688 973:0.42157 974:0.1063773 975:0.066369757 976:0.2090278 977:0.46810859 978:0.084025353 979:0.3061901 980:0.46810859 981:0.46810859 982:0.35602471 983:0.35602471 984:0.2309908 985:0.2362434 986:0.35602471 987:0.35602471 988:0.35602471 989:0.35602471 990:0.35602471 991:0 992:0 993:0.1084947 994:0.21673021 995:0.27324861 996:0.3146272 997:0.54167432 998:0.54167432 999:0.41877279 1000:0.25378099 1001:0.41539651 1002:0.08741577 1003:0.34517309 1004:0.270192 1005:0.01665209 1006:0 1007:0.5280627 1008:0.5280627 1009:0.41479999 1010:0 1011:0 1012:0.18950941 1013:0.31566969 1014:0.41479999 1015:0.41479999 1016:0.41479999 1017:0.41479999 1018:0.034292798 1019:0 1020:0 1021:0 1022:0.001159689 1023:0.22427841 1024:0.66836047 1025:0.66836047 1026:0.2200861 1027:0.2028686 1028:0.61688989 1029:0.61688989 1030:0.202712 1031:0.2349686 1032:0.039401419 1033:0.016880579 1034:0.29239199 1035:0.089139678 1036:0.0002512825 1037:0.57502413 1038:0.57502413 1039:0.57502413 1040:0.04795685 1041:0 1042:0 1043:0 1044:0 1045:0.02527306 1046:0.05173593 1047:0.27394491 1048:0.47837251 1049:0.47837251 1050:0.47837251 1051:0.45943469 1052:0.02214654 1053:0.1370022 1054:0.062698677 1055:0.37234011 1056:0.37234011 1057:0.21472269 1058:0.37234011 1059:0.37234011 1060:0.37234011 1061:0.3382608 1062:0.37234011 1063:0.46465129 1064:0.46465129 1065:0.46465129 1066:0.46465129 1067:0.35234979 1068:0.0093939034 1069:0 1070:0 1071:0.086700663 1072:0.70369393 1073:0.041451499 1074:0 1075:0 1076:0.0043217889 1077:0.01235183 1078:0.026756121 1079:0 1080:0.70369393 1081:0.1421393 1082:0.55885798 1083:0.55885798 1084:0.55885798 1085:0.0076812198 1086:0.1828744 1087:0.053874001 1088:0 1089:0.029061301 1090:0.47095871 1091:0.47095871 1092:0.21979579 1093:0.21168961 1094:0.077970922 1095:0.27314439 1096:0.17322791 1097:0.35506591 1098:0.47095871 1099:0.083640479 1100:0.27227789 1101:0.44617999 1102:0.44617999 1103:0.44617999 1104:0.44617999 1105:0.27818909 1106:0.0053478829 1107:0.20171291 1108:0.26601669 1109:0.39125401 1110:0.39125401 1111:0.33011931 1112:0.08082445 1113:0.21075229 1114:0.39125401 1115:0.39125401 1116:0.39125401 1117:0.1519122 1118:0.4584215 1119:0.4584215 1120:0.4584215 1121:0.4584215 1122:0.35613251 1123:0.066018738 1124:0.02342261 1125:0.0022416599 1126:0.43121761 1127:0.30868089 1128:0 1129:0.1197786 1130:0.4276225 1131:0.35833341 1132:0.43121761 1133:0.43121761 1134:0.13019919 1135:0.1159201 1136:0.37951919 1137:0.37951919 1138:0.031716369 1139:0.37951919 1140:0.37951919 1141:0.37951919 1142:0.37951919 1143:0.34286469 1144:0.39661801 1145:0.031777859 1146:0.35219619 1147:0.39661801 1148:0.39661801 1149:0.39661801 1150:0.29061389 1151:0 1152:0.39661801 1153:0.1563399 1154:0.2140151 1155:0.51265872 1156:0.51700091 1157:0.51700091 1158:0.0097971419 1159:0 1160:0.065204687 1161:0.35049349 1162:0.44391191 1163:0.44391191 1164:0.44391191 1165:0.1761101 1166:0.078752138 1167:0.016658871 1168:0.35355169 1169:0.21175911 1170:0.44391191 1171:0.2969116 1172:0.058300439 1173:0.067922041 1174:0.38960421 1175:0.38960421 1176:0.3754757 1177:0.38960421 1178:0.38960421 1179:0.38960421 1180:0.40225539 1181:0.01323251 1182:0.049811479 1183:0.40225539 1184:0.40225539 1185:0.40225539 1186:0.14989661 1187:0.40225539 1188:0.40225539 1189:0.1703134 1190:0.044203401 1191:0.0073536122 1192:0.020905901 1193:0.28002489 1194:0.1247757 1195:0.37797049 1196:0.60236591 1197:0.60236591 1198:0.5468356 1199:0.1990277 1200:0.016345 1201:0.028642621 1202:0.2467441 1203:0.1730798 1204:0.42597541 1205:0.28894091 1206:0.5468356 1207:0.44772139 1208:0.44772139 1209:0.3817344 1210:0 1211:0.44772139 1212:0.44772139 1213:0.117771 1214:0.062876672 1215:0.1736818 1216:0.43931779 1217:0.4455581 1218:0.1651473 1219:0.0041136998 1220:0.4455581 1221:0.1204641 1222:0.2153744 1223:0.4455581 1224:0.34466639 1225:0.12884399 1226:0.096133403 1227:0.0051336382 1228:0.033991341 1229:0.47186139 1230:0.47186139 1231:0.47186139 1232:0.3750273 1233:0.39957201 1234:0.3347095 1235:0.01295214 1236:0.29046389 1237:0.48155689 1238:0.48155689 1239:0.23471759 1240:0.2048296 1241:0.48155689 1242:0.076709159 1243:0.25616381 1244:0.4814662 1245:0.4814662 1246:0.45827779 1247:0.4814662 1248:0.13133711 1249:0.076240562 1250:0.0058738259 1251:0.03204716 1252:0 1253:0.087074786 1254:0.30373919 1255:0.43183351 1256:0.54720718 1257:0.31076619 1258:0.041901879 1259:0.54720718 1260:0.1049423 1261:0.01326269 1262:0 1263:0 1264:0.089723863 1265:0.69528532 1266:0.69528532 1267:0.1340919 1268:0 1269:0.0029713111 1270:0.43558919 1271:0.062960707 1272:0.096708886 1273:0.1833684 1274:0.43558919 1275:0.43558919 1276:0.43558919 1277:0.0043053529 1278:0.43558919 1279:0.1227265 1280:0.47095451 1281:0.47095451 1282:0.049667809 1283:0.47095451 1284:0.030810259 1285:0.27310309 1286:0.2461893 1287:0.41979691 1288:0.41849381 1289:0.43230841 1290:0.3742505 1291:0 1292:0.43230841 1293:0.30207321 1294:0.067889653 1295:0.15476459 1296:0.43230841 #
