SVM-light Version V6.02
0 # kernel type
3 # kernel parameter -d 
1 # kernel parameter -g 
1 # kernel parameter -s 
1 # kernel parameter -r 
empty# kernel parameter -u 
1296 # highest feature index 
880 # number of training documents 
126 # number of support vectors plus 1 
-0.38579703 # threshold b, each following line is a SV (starting with alpha*y)
-0.0029367340724989846 1:0.4323318 2:0.1341207 3:0.40134031 4:0 5:0.4323318 6:0 7:0.4323318 8:0.2626327 9:0.4323318 10:0.2213992 11:0 12:0 13:0 14:0.1248086 15:0 16:0.61740631 17:0.61740631 18:0.40848449 19:0.49089259 20:0 21:0 22:0 23:0.17662071 24:0 25:0.49089259 26:0.49089259 27:0.49089259 28:0.51557922 29:0 30:0 31:0 32:0.13565721 33:0 34:0.51557922 35:0.4230628 36:0.51557922 37:0.48352271 38:0 39:0 40:0 41:0.40924799 42:0 43:0.48352271 44:0.3553929 45:0.48352271 46:0.4489744 47:0 48:0 49:0 50:0.4641735 51:0 52:0.4641735 53:0.40161389 54:0.4489744 55:0.47297019 56:0 57:0 58:0 59:0.47297019 60:0 61:0.47297019 62:0.3169741 63:0.47297019 64:0.1035316 65:0 66:0 67:0 68:0.48740029 69:0.48740029 70:0.48740029 71:0.48740029 72:0.1848703 73:0.20300061 74:0 75:0 76:0 77:0.55174589 78:0 79:0.55174589 80:0.55065852 81:0.20300061 82:0.1079574 83:0 84:0 85:0 86:0.59501791 87:0 88:0.59501791 89:0.51250029 90:0.1079574 91:0.1602537 92:0 93:0 94:0 95:0.56193572 96:0 97:0.56193572 98:0.55810648 99:0.1602537 100:0.53114188 101:0 102:0 103:0 104:0.53114188 105:0 106:0.36531651 107:0.1220827 108:0.53114188 109:0.52571738 110:0.1059489 111:0.3170394 112:0 113:0.57425523 114:0 115:0 116:0 117:0.52571738 118:0.1182681 119:0 120:0 121:0 122:0.53015572 123:0 124:0.53015572 125:0.53015572 126:0.370841 127:0.41948459 128:0.1049344 129:0.31400269 130:0 131:0.52506381 132:0 133:0.082510807 134:0.41950309 135:0.50069672 136:0.48864281 137:0 138:0 139:0 140:0.6894359 141:0 142:0.1902854 143:0.063590214 144:0.48864281 145:0.57105148 146:0.028347511 147:0.084826551 148:0 149:0.57105148 150:0 151:0.084826469 152:0.028347589 153:0.57105148 154:0.19255561 155:0 156:0 157:0 158:0.65376961 159:0 160:0.65376961 161:0.25394559 162:0.19255561 163:0.067393243 164:0.097565867 165:0.29195401 166:0 167:0.5612011 168:0.42336899 169:0.5612011 170:0.28534421 171:0.067393243 172:0.0034818631 173:0 174:0 175:0 176:0.62901801 177:0 178:0.62901801 179:0.4498536 180:0.0034818631 181:0.03621747 182:0 183:0 184:0 185:0.57826972 186:0 187:0.57826972 188:0.56816423 189:0.03621747 190:0.078175113 191:0 192:0 193:0 194:0.59881949 195:0 196:0.59881949 197:0.51442039 198:0.078175113 199:0.42091531 200:0 201:0 202:0 203:0.36490861 204:0 205:0.50372201 206:0.50372201 207:0.42091531 208:0.56237358 209:0 210:0 211:0 212:0.56237358 213:0 214:0.2025131 215:0.067676507 216:0.56237358 217:0.2657786 218:0.2390548 219:0.63058722 220:0 221:0.63058722 222:0 223:0 224:0 225:0.2657786 226:0.0225619 227:0.17730141 228:0.52815479 229:0 230:0.52815479 231:0 232:0.52815479 233:0.3541598 234:0.0225619 235:0.14325079 236:0.1420821 237:0.4251622 238:0 239:0.56060898 240:0 241:0.56060898 242:0.3519159 243:0.14325079 244:0.3769426 245:0 246:0 247:0 248:0.51753223 249:0 250:0.51753223 251:0.41830689 252:0.3769426 253:0.44352651 254:0 255:0 256:0 257:0.12810171 258:0 259:0.61400199 260:0.45500481 261:0.44352651 262:0.24492121 263:0 264:0 265:0 266:0.68781883 267:0 268:0.59989661 269:0.20047539 270:0.24492121 271:0.48242381 272:0 273:0 274:0 275:0.48242381 276:0 277:0.48242381 278:0.25347701 279:0.48242381 280:0.34727761 281:0 282:0 283:0 284:0.572465 285:0 286:0.572465 287:0.31248641 288:0.34727761 289:0 290:0.01537535 291:0.046008721 292:0 293:0.56636041 294:0 295:0.56636041 296:0.56636041 297:0.1723344 298:0.3411392 299:0 300:0.094024427 301:0.1923248 302:0.52865243 303:0 304:0.52865243 305:0.39647529 306:0.3411392 307:0 308:0 309:0 310:0 311:0.77967399 312:0 313:0.58797759 314:0.1964923 315:0 316:0.55405557 317:0 318:0 319:0 320:0.061237011 321:0 322:0.55405557 323:0.2641671 324:0.55405557 325:0.06694714 326:0 327:0 328:0 329:0.99053282 330:0 331:0 332:0 333:0.06694714 334:0 335:0.021200281 336:0.063439071 337:0 338:0.71388388 339:0 340:0.65625679 341:0.2193101 342:0 343:0 344:0 345:0 346:0 347:0.75304472 348:0 349:0.61860442 350:0.2067273 351:0 352:0 353:0 354:0 355:0 356:0.99278939 357:0 358:0 359:0 360:0 361:0.0309591 362:0.198908 363:0.54333782 364:0 365:0.54333782 366:0 367:0.54333782 368:0.25970179 369:0.0309591 370:0.28106651 371:0.1945063 372:0.58203459 373:0 374:0.67723358 375:0 376:0 377:0 378:0.28106651 379:0.0047867219 380:0 381:0 382:0 383:0.86329877 384:0 385:0.47046399 386:0.1572212 387:0.0047867219 388:0.1621729 389:0 390:0 391:0 392:0.85480559 393:0 394:0.4327403 395:0.14461461 396:0.1621729 397:0.027453311 398:0 399:0 400:0 401:0.56040388 402:0.071125247 403:0.56040388 404:0.56040388 405:0.2154849 406:0 407:0.02200998 408:0.065862007 409:0 410:0.68179721 411:0 412:0.68179721 413:0.24223229 414:0 415:0 416:0 417:0 418:0 419:0.99389398 420:0 421:0.045091432 422:0.0150688 423:0 424:0.03263294 425:0.1831744 426:0.54812551 427:0 428:0.2847555 429:0 430:0.59000891 431:0.47831821 432:0.03263294 433:0.37100661 434:0 435:0 436:0 437:0.84632301 438:0 439:0 440:0 441:0.37100661 442:0.513354 443:0 444:0 445:0 446:0.55890548 447:0 448:0.37337619 449:0.1247761 450:0.513354 451:0.3431958 452:0 453:0 454:0 455:0.7967273 456:0 457:0.33087909 458:0.1105743 459:0.3431958 460:0.45592731 461:0 462:0 463:0 464:0.64195079 465:0 466:0.38613409 467:0.1290396 468:0.45592731 469:0.1085518 470:0 471:0 472:0 473:0.67293781 474:0 475:0.67293781 476:0.25303069 477:0.1085518 478:0.110078 479:0 480:0 481:0 482:0.65898389 483:0.073775686 484:0.65898389 485:0.308584 486:0.110078 487:0.44066301 488:0.44066301 489:0 490:0 491:0.44066301 492:0 493:0.44066301 494:0.15709519 495:0.44066301 496:0 497:0 498:0 499:0 500:0.59875423 501:0 502:0.59875423 503:0.52631593 504:0 505:0.29547119 506:0.1824183 507:0.54586297 508:0 509:0.69798499 510:0 511:0 512:0 513:0.29547119 514:0 515:0 516:0 517:0 518:0.63184261 519:0.01061699 520:0.63184261 521:0.44173381 522:0 523:0.1857654 524:0.12657361 525:0.37875491 526:0 527:0.6652711 528:0 529:0.53842652 530:0.1799331 531:0.1857654 532:0.63695753 533:0.129623 534:0.38788149 535:0 536:0.096156053 537:0 538:0.071672767 539:0.02395184 540:0.63695753 541:0.067962132 542:0 543:0 544:0 545:0.99039519 546:0 547:0 548:0 549:0.067962132 550:0.53285939 551:0 552:0 553:0 554:0.65238672 555:0 556:0 557:0 558:0.53285939 559:0.1793844 560:0.046752449 561:0.13990059 562:0 563:0.63983399 564:0 565:0.63983399 566:0.2978614 567:0.1793844 568:0.51679778 569:0.054420151 570:0.16284519 571:0 572:0.5235135 573:0 574:0.3758809 575:0.12561309 576:0.51679778 577:0.44234779 578:0.15928251 579:0.47418261 580:0 581:0.47418261 582:0 583:0.34045151 584:0.1137732 585:0.44234779 586:0.41742411 587:0 588:0 589:0.1969669 590:0.76143521 591:0 592:0.206284 593:0.068936653 594:0.39022109 595:0.4713392 596:0.007577355 597:0 598:0.06126304 599:0.4713392 600:0.4713392 601:0.0010295541 602:0.3206833 603:0.4713392 604:0.075739332 605:0.43542069 606:0.2091735 607:0 608:0.86658508 609:0 610:0 611:0.03533395 612:0.0073215738 613:0.0244563 614:0.42353281 615:0.62477762 616:0 617:0.62477762 618:0 619:0.1709612 620:0.057132371 621:0.0244563 622:0.071271293 623:0.1165478 624:0.34875411 625:0 626:0.52997428 627:0.52997428 628:0.52997428 629:0.08195626 630:0.071271293 631:0 632:0.026637901 633:0.079710446 634:0 635:0.99148679 636:0 637:0 638:0 639:0 640:0.5721401 641:0.035086099 642:0.1049906 643:0 644:0.5721401 645:0 646:0 647:0 648:0.5721401 649:0.44922069 650:0.31147251 651:0.49266699 652:0 653:0.49266699 654:0 655:0.09009859 656:0.030109441 657:0.44922069 658:0.4062531 659:0.1217996 660:0.3644695 661:0 662:0.71769053 663:0 664:0 665:0 666:0.4062531 667:0 668:0.036926851 669:0.1104992 670:0 671:0.83988738 672:0 673:0.49522269 674:0.1654951 675:0 676:0.47468561 677:0.17173889 678:0.47956109 679:0 680:0.47956109 681:0 682:0.22264279 683:0.074403487 684:0.47468561 685:0.1506172 686:0.35185689 687:0.64091653 688:0 689:0.64091653 690:0 691:0.050890211 692:0.01700666 693:0.1506172 694:0.4808571 695:0.26211691 696:0.4808571 697:0 698:0.4808571 699:0 700:0.03791083 701:0.01266917 702:0.4808571 703:0.43296871 704:0.43296871 705:0.3350904 706:0.36543369 707:0.43296871 708:0 709:0 710:0 711:0.43296871 712:0.2044228 713:0.09482678 714:0.28375679 715:0 716:0.90437227 717:0 718:0 719:0 720:0.2044228 721:0 722:0.5740363 723:0.57438701 724:0 725:0.57438701 726:0 727:0.066431068 728:0.02220015 729:0 730:0.030794799 731:0.34692889 732:0.59342593 733:0 734:0.72065538 735:0 736:0 737:0 738:0 739:0 740:0.037645631 741:0.1126497 742:0 743:0.98791379 744:0 745:0.007597927 746:0.0025390999 747:0 748:0.25026721 749:0 750:0 751:0 752:0.83420533 753:0 754:0.39163801 755:0.1308789 756:0.25026721 757:0.53559899 758:0 759:0 760:0 761:0.53559899 762:0 763:0.34725419 764:0.1160465 765:0.53559899 766:0.4469254 767:0 768:0 769:0 770:0.7677263 771:0 772:0 773:0 774:0.4469254 775:0 776:0.50818229 777:0.60650432 778:0 779:0.60650432 780:0 781:0 782:0 783:0 784:0.32088849 785:0.40747851 786:0.55787611 787:0 788:0.55787611 789:0 790:0 791:0 792:0.32088849 793:0 794:0.26724151 795:0.67889792 796:0 797:0.67889792 798:0 799:0 800:0 801:0 802:0.164655 803:0.2104331 804:0.62969393 805:0 806:0.70564657 807:0 808:0 809:0 810:0.164655 811:0.2412557 812:0.043144699 813:0.1291049 814:0 815:0.56724679 816:0 817:0.56724679 818:0.46460691 819:0.2412557 820:0.02642177 821:0.1383137 822:0.41388559 823:0 824:0.61519653 825:0 826:0.61519653 827:0.2123578 828:0.02642177 829:0.39943799 830:0.2906628 831:0.54359227 832:0 833:0.54359227 834:0 835:0 836:0 837:0.39943799 838:0.075230964 839:0.1933101 840:0.48444599 841:0 842:0.48444599 843:0.48444599 844:0.48444599 845:0.087873541 846:0.075230964 847:0 848:0.34018749 849:0.66244209 850:0 851:0.66244209 852:0 853:0 854:0 855:0 856:0.54838783 857:0.09631221 858:0.28820169 859:0 860:0.54838783 861:0 862:0 863:0 864:0.54838783 865:0.43816659 866:0.2977151 867:0.51101959 868:0 869:0.51101959 870:0 871:0 872:0 873:0.43816659 874:0.20436759 875:0.6744386 876:0.6744386 877:0 878:0 879:0 880:0 881:0 882:0.20436759 883:0.56248009 884:0.038064949 885:0.1139044 886:0 887:0.58900583 888:0 889:0 890:0 891:0.56248009 892:0.027581381 893:0.3512167 894:0.65899402 895:0 896:0.65899402 897:0 898:0 899:0 900:0.027581381 901:0.15648811 902:0.68708217 903:0.68708217 904:0 905:0 906:0 907:0 908:0 909:0.15648811 910:0.47241151 911:0.4021188 912:0.47241151 913:0 914:0.4050481 915:0 916:0 917:0 918:0.47241151 919:0.50066853 920:0.48685899 921:0.50652897 922:0 923:0 924:0 925:0 926:0 927:0.50066853 928:0.3082335 929:0.58146709 930:0.58146709 931:0.2481544 932:0.2576614 933:0 934:0 935:0 936:0.3082335 937:0.14707559 938:0.43117651 939:0.61739498 940:0 941:0.61739498 942:0 943:0.04555288 944:0.01522301 945:0.14707559 946:0 947:0.59296399 948:0.59296399 949:0 950:0.53932059 951:0 952:0 953:0 954:0 955:0.01504089 956:0.4223887 957:0.52115268 958:0.52115268 959:0.52115268 960:0 961:0.031886231 962:0.01065584 963:0.01504089 964:0.2009632 965:0.67072308 966:0.67072308 967:0 968:0.113104 969:0 970:0 971:0 972:0.2009632 973:0.23313241 974:0.4323912 975:0.50927907 976:0.42487609 977:0.50927907 978:0 979:0 980:0 981:0.23313241 982:0.1240835 983:0.40098819 984:0.63328212 985:0 986:0.63328212 987:0 988:0 989:0 990:0.1240835 991:0.49175671 992:0.15924449 993:0.49175671 994:0.49175671 995:0 996:0 997:0.046764031 998:0.015627719 999:0.49175671 1000:0 1001:0.70461559 1002:0.70461559 1003:0 1004:0 1005:0 1006:0 1007:0 1008:0 1009:0.18648709 1010:0.61189091 1011:0.64072472 1012:0 1013:0.37297431 1014:0 1015:0 1016:0 1017:0.18648709 1018:0.28459269 1019:0.63358438 1020:0.63358438 1021:0.29262501 1022:0 1023:0 1024:0.1475227 1025:0.04929949 1026:0 1027:0.46075031 1028:0.1763429 1029:0.46075031 1030:0.2349714 1031:0.46075031 1032:0 1033:0.2321766 1034:0.077589341 1035:0.46075031 1036:0.29164809 1037:0.47466299 1038:0.54731709 1039:0 1040:0.54731709 1041:0 1042:0 1043:0 1044:0.29164809 1045:0.39694819 1046:0.2447191 1047:0.55651557 1048:0 1049:0.55651557 1050:0 1051:0 1052:0 1053:0.39694819 1054:0.03700909 1055:0.49005941 1056:0.61277407 1057:0 1058:0.61277407 1059:0 1060:0 1061:0 1062:0.03700909 1063:0 1064:0.4621889 1065:0.62341231 1066:0.05358563 1067:0.62341231 1068:0 1069:0 1070:0 1071:0 1072:0.57458103 1073:0.019621599 1074:0.058715079 1075:0 1076:0.57458103 1077:0 1078:0 1079:0 1080:0.57458103 1081:0.4898507 1082:0.1878638 1083:0.4898507 1084:0 1085:0.4898507 1086:0 1087:0 1088:0 1089:0.4898507 1090:0.2296897 1091:0.45527849 1092:0.58368582 1093:0 1094:0.58368582 1095:0 1096:0 1097:0 1098:0.2296897 1099:0.29488981 1100:0.59601098 1101:0.67734158 1102:0 1103:0.072782271 1104:0 1105:0 1106:0 1107:0.29488981 1108:0.4140394 1109:0.37795931 1110:0.50460368 1111:0 1112:0.50460368 1113:0 1114:0 1115:0 1116:0.4140394 1117:0.49991101 1118:0.49991101 1119:0.41535479 1120:0 1121:0.26973039 1122:0 1123:0 1124:0 1125:0.49991101 1126:0.016991541 1127:0.50221509 1128:0.60558683 1129:0 1130:0.60558683 1131:0 1132:0.083145261 1133:0.027785759 1134:0.016991541 1135:0.17439459 1136:0.44495979 1137:0.60627162 1138:0 1139:0.60627162 1140:0 1141:0 1142:0 1143:0.17439459 1144:0.48253149 1145:0.25265369 1146:0.48253149 1147:0 1148:0.48253149 1149:0 1150:0 1151:0 1152:0.48253149 1153:0.075350218 1154:0.4988648 1155:0.51797879 1156:0 1157:0.51797879 1158:0 1159:0.42203131 1160:0.1410358 1161:0.075350218 1162:0.1712275 1163:0.63866758 1164:0.63866758 1165:0.04379119 1166:0.34245509 1167:0 1168:0 1169:0 1170:0.1712275 1171:0.015842389 1172:0.3037726 1173:0.54825342 1174:0.54825342 1175:0.54825342 1176:0 1177:0 1178:0 1179:0.015842389 1180:0.1185951 1181:0.56179512 1182:0.5703339 1183:0 1184:0.5703339 1185:0 1186:0 1187:0 1188:0.1185951 1189:0.54368562 1190:0.2191796 1191:0.54368562 1192:0 1193:0.2444361 1194:0 1195:0 1196:0 1197:0.54368562 1198:0.46122971 1199:0.38008091 1200:0.46122971 1201:0 1202:0.46122971 1203:0 1204:0 1205:0 1206:0.46122971 1207:0.2789585 1208:0.48812041 1209:0.54801011 1210:0 1211:0.54801011 1212:0 1213:0 1214:0 1215:0.2789585 1216:0.27141061 1217:0.4948827 1218:0.54804868 1219:0 1220:0.54804868 1221:0 1222:0.03765196 1223:0.01258262 1224:0.27141061 1225:0.48945069 1226:0.18081219 1227:0.48945069 1228:0.064578786 1229:0.48945069 1230:0 1231:0 1232:0 1233:0.48945069 1234:0.38195229 1235:0.58950597 1236:0.59561759 1237:0 1238:0 1239:0 1240:0 1241:0 1242:0.38195229 1243:0.026700379 1244:0.3590664 1245:0.65691978 1246:0 1247:0.65691978 1248:0 1249:0 1250:0 1251:0.026700379 1252:0.02827182 1253:0.46507379 1254:0.50892872 1255:0.50892872 1256:0.50892872 1257:0 1258:0 1259:0 1260:0.02827182 1261:0.36719301 1262:0.52101159 1263:0.52101159 1264:0 1265:0.52101159 1266:0 1267:0 1268:0 1269:0.2135569 1270:0.40004939 1271:0.4474448 1272:0.49768901 1273:0 1274:0.47649679 1275:0 1276:0 1277:0 1278:0.40004939 1279:0 1280:0.16008949 1281:0.51158792 1282:0.066561617 1283:0.8365826 1284:0 1285:0 1286:0 1287:0 1288:0.49240819 1289:0.0025262029 1290:0.007559333 1291:0 1292:0.49240819 1293:0 1294:0.4906486 1295:0.1639661 1296:0.49240819 #
0.0070491553928097176 1:0.4446373 2:0.4446373 3:0.4446373 4:0.4446373 5:0.4446373 6:0 7:0 8:0 9:0.083945237 10:0.30018491 11:0.08522363 12:0.031564072 13:0.53187442 14:0.53187442 15:0.53187442 16:0.05403468 17:0.2114885 18:0 19:0 20:0 21:0 22:0 23:0.13773289 24:0.56623852 25:0.57184583 26:0.57184583 27:0.026042489 28:0.26868781 29:0 30:0 31:0 32:0.0051140701 33:0 34:0 35:0.5856598 36:0.75973701 37:0.55255771 38:0.56237721 39:0.56237721 40:0.2241621 41:0.065281399 42:0 43:0 44:0 45:0.044918109 46:0.021860139 47:0 48:0 49:0.56026828 50:0.56026828 51:0.56026828 52:0.2088428 53:0.051269639 54:0.077341087 55:0 56:0 57:0.053942129 58:0.193483 59:0.6902045 60:0.6902045 61:0 62:0 63:0 64:0.039251991 65:0 66:0 67:0.036439739 68:0.70337009 69:0.70337009 70:0.01118376 71:0 72:0.022935789 73:0.02383841 74:0.1488993 75:0.1013084 76:0 77:0.4370746 78:0.48549259 79:0.48549259 80:0.48549259 81:0.25299191 82:0.065054372 83:0.36836511 84:0.1103347 85:0.1280624 86:0.44923031 87:0.44923031 88:0.44923031 89:0.44923031 90:0.1406502 91:0.16197909 92:0.4069795 93:0.44803709 94:0 95:0.44803709 96:0.44803709 97:0.44803709 98:0.02657461 99:0 100:0.497008 101:0.497008 102:0.497008 103:0.07968048 104:0.021110561 105:0 106:0.0084527535 107:0.01010634 108:0.497008 109:0.4198817 110:0.4198817 111:0.4198817 112:0 113:0 114:0.2167941 115:0.4198817 116:0.29944849 117:0.39234409 118:0.44256771 119:0.44256771 120:0.44256771 121:0.1742691 122:0.02900989 123:0.42355561 124:0.037698489 125:0.0090876725 126:0.44256771 127:0.3929947 128:0.01092654 129:0.2447044 130:0.3929947 131:0.3929947 132:0.3929947 133:0.14331239 134:0.37856501 135:0.3929947 136:0.42358401 137:0.3241733 138:0.1616673 139:0.083108217 140:0.42358401 141:0.42358401 142:0.01565971 143:0.3737624 144:0.42358401 145:0.39910221 146:0.1665896 147:0.41973519 148:0.15676209 149:0 150:0.41973519 151:0.41973519 152:0.28193569 153:0.41973519 154:0.45721489 155:0.46501589 156:0.46501589 157:0.0073622852 158:0.0155322 159:0.14206471 160:0.27814779 161:0.46459749 162:0.2003386 163:0.03052655 164:0.055329021 165:0.2205632 166:0.48405579 167:0.48405579 168:0.48405579 169:0.48405579 170:0 171:0.072688967 172:0.14008769 173:0 174:0.001792337 175:0.258367 176:0.47232589 177:0.47232589 178:0.47232589 179:0.47232589 180:0.1285858 181:0.02049903 182:0 183:0 184:0.032432631 185:0.39547241 186:0.80198908 187:0.42709109 188:0.092142329 189:0.0064846799 190:0.33801299 191:0.01238649 192:0.01256988 193:0.04041497 194:0.147984 195:0.46294689 196:0.46294689 197:0.46294689 198:0.46294689 199:0.82225418 200:0.36255991 201:0.027675319 202:0.0079475632 203:0 204:0 205:0 206:0.015888309 207:0.42797321 208:0.2913312 209:0.62920928 210:0.62920928 211:0.30428901 212:0 213:0 214:0 215:0 216:0.1563444 217:0.7010175 218:0.090584613 219:0.02151008 220:0.02185321 221:0.02391294 222:0.018999949 223:0 224:0.0085162483 225:0.7010175 226:0.58420289 227:0.3089641 228:0.01422028 229:0.048789121 230:0.01515548 231:0 232:0.057966489 233:0.45820221 234:0.58420289 235:0.43486339 236:0.43486339 237:0.43486339 238:0.43486339 239:0.2182674 240:0 241:0.047273409 242:0.015797939 243:0.43486339 244:0.48173931 245:0.099023543 246:0 247:0 248:0.12698141 249:0.2222672 250:0.53243262 251:0.40624759 252:0.48862669 253:0.40371701 254:0 255:0.01942968 256:0.4405607 257:0.2478541 258:0.2382161 259:0.36300761 260:0.4405607 261:0.4405607 262:0.50981033 263:0.50981033 264:0.03030487 265:0 266:0.00058311399 267:0.1095965 268:0.067939937 269:0.4445703 270:0.50981033 271:0.39782369 272:0.36437961 273:0 274:0 275:0.39782369 276:0.2682071 277:0.39782369 278:0.39782369 279:0.39782369 280:0.1860604 281:0 282:0 283:0 284:0.00064366963 285:0.0048425491 286:0.039370351 287:0.69170183 288:0.69170183 289:0.46723801 290:0.46723801 291:0.1588811 292:0.31224409 293:0.0099487416 294:0.057168111 295:0.087041147 296:0.45466021 297:0.46723801 298:0.30835429 299:0.02103696 300:0.45638099 301:0.45638099 302:0.45638099 303:0.42319891 304:0.23426349 305:0.1818092 306:0.089633778 307:0.44621581 308:0.44621581 309:0 310:0 311:0 312:0 313:0.44621581 314:0.44621581 315:0.44621581 316:0.64247137 317:0.067315564 318:0 319:0 320:0.40437001 321:0 322:0 323:0 324:0.64247137 325:0.166655 326:0 327:0 328:0 329:0.035926182 330:0.057975281 331:0.56625068 332:0.56625068 333:0.56625068 334:0.4413397 335:0.62073833 336:0.62073833 337:0.1684902 338:0 339:0.00030979651 340:0.00067106681 341:0 342:0 343:0.45969811 344:0.085656486 345:0.1058674 346:0.3610197 347:0 348:0.035197169 349:0.45969811 350:0.45969811 351:0.45969811 352:0 353:0.42525709 354:0.57036388 355:0.57036388 356:0.2954267 357:0.1520061 358:0.1249082 359:0.1832023 360:0.057298489 361:0.4616524 362:0.4616524 363:0.4616524 364:0.4616524 365:0.2408862 366:0 367:0.19406091 368:0.164213 369:0.1422855 370:0.5089401 371:0.5089401 372:0.3834897 373:0.1657538 374:0.061897609 375:0.090197988 376:0.5089401 377:0.1310343 378:0.1190857 379:0.40680391 380:0 381:0.024054511 382:0.049202949 383:0.40680391 384:0.40680391 385:0.40680391 386:0.40680391 387:0.40680391 388:0.45989791 389:0 390:0.042160541 391:0.36061069 392:0.042741399 393:0.1498948 394:0.45989791 395:0.45989791 396:0.45252091 397:0.1005465 398:0.1975843 399:0.001931658 400:0 401:0.25449991 402:0.54122579 403:0.54122579 404:0.54122579 405:0.04354436 406:0.45653129 407:0.25283879 408:0.1194778 409:0.38597029 410:0.26423809 411:0.090883687 412:0.34732181 413:0.39077991 414:0.45653129 415:0.57283372 416:0.099319354 417:0 418:0 419:0 420:0 421:0 422:0.57283372 423:0.57283372 424:0.67431152 425:0.28231651 426:0.064590007 427:0 428:0 429:0 430:0 431:0.001295868 432:0.67431152 433:0.127707 434:0.038505439 435:0.41653481 436:0.63048762 437:0.63048762 438:0.01429823 439:0 440:0 441:0.084725007 442:0.4643333 443:0.28453359 444:0.0079466151 445:0.4643333 446:0.4643333 447:0.29402861 448:0.14374571 449:0 450:0.40050939 451:0 452:0.68393701 453:0.68393701 454:0.2400682 455:0 456:0 457:0 458:0 459:0 460:0.43087181 461:0.63455719 462:0.63455719 463:0.01449161 464:0 465:0 466:0.047216851 467:0.015779041 468:0 469:0.0020836999 470:0.003057495 471:0 472:0.54327482 473:0.58017409 474:0.58017409 475:0.1607523 476:0 477:0 478:0.1031615 479:0.32491219 480:0.2438955 481:0.49705729 482:0.49705729 483:0.1946339 484:0.49705729 485:0.1593575 486:0.1219233 487:0.2679584 488:0.45647529 489:0.18629649 490:0.03011276 491:0.03298362 492:0.097216949 493:0.52840108 494:0.52840108 495:0.33163849 496:0.1849411 497:0.54783982 498:0.54783982 499:0.54783982 500:0.19433799 501:0.14039209 502:0.034101099 503:0.021262661 504:0.029130651 505:0.034655482 506:0.1672475 507:0 508:0.1772193 509:0.2127991 510:0.01555857 511:0.65489602 512:0.65489602 513:0.1719868 514:0.2965678 515:0.1076561 516:0.01887672 517:0.023421019 518:0.00072720798 519:0.443387 520:0.58257759 521:0.58257759 522:0.13546079 523:0 524:0.045628421 525:0.50668502 526:0.50668502 527:0.4718267 528:0.50668502 529:0 530:0.0068620141 531:0.001090873 532:0.7013554 533:0.043696091 534:0 535:0 536:0.051017031 537:0 538:0 539:0.068469927 540:0.7013554 541:0.53384668 542:0.53384668 543:0.53384668 544:0.02958438 545:0.037086759 546:0 547:0 548:0 549:0.37073061 550:0.097250544 551:0.49638301 552:0.49638301 553:0.49638301 554:0.49638301 555:0 556:0 557:0 558:0 559:0 560:0 561:0.215149 562:0.68803459 563:0.68803459 564:0 565:0.0072998712 566:0.0024394949 567:0 568:0.086263627 569:0.0059077721 570:0.055122718 571:0.062052809 572:0.48701659 573:0.48701659 574:0.48701659 575:0.48701659 576:0.17896789 577:0.04298009 578:0.19990049 579:0 580:0.61329383 581:0.61329383 582:0.42006081 583:0 584:0.0091309156 585:0.1525643 586:0.48403731 587:0.48403731 588:0.022901639 589:0.054317418 590:0.2175606 591:0.04402234 592:0.072467551 593:0.48403731 594:0.48403731 595:0.62785327 596:0.017948071 597:0.01375484 598:0.0078565432 599:0 600:0.048781361 601:0.44959509 602:0.01560001 603:0.62785327 604:0.01492939 605:0.1594536 606:0.39193299 607:0.2208332 608:0.39193299 609:0.39193299 610:0.39193299 611:0.39193299 612:0.39193299 613:0.089830518 614:0.26356569 615:0.4765743 616:0.03378718 617:0.4765743 618:0.4765743 619:0.4765743 620:0 621:0.089830518 622:0 623:0 624:0.002108545 625:0.049830381 626:0.57019043 627:0.57019043 628:0.57019043 629:0.1283256 630:0 631:0.02630504 632:0.1269477 633:0 634:0.048525449 635:0.37578329 636:0.5941959 637:0.5941959 638:0.2497547 639:0.2552968 640:0.69959348 641:0.031551082 642:0.064720564 643:0.093563482 644:0 645:0 646:0 647:0.01469497 648:0.69959348 649:0.0020164209 650:0 651:0.00096547132 652:0.69601631 653:0.69601631 654:0.15545291 655:0 656:0 657:0.0020164209 658:0.23657119 659:0.38643351 660:0.38643351 661:0.38643351 662:0.042933781 663:0.38643351 664:0.38643351 665:0.38643351 666:0.2057797 667:0.0065507852 668:0.024896709 669:0.01402865 670:0.70430863 671:0.70430863 672:0.001583948 673:0.00077436608 674:0 675:0.0023633521 676:0.20264991 677:0.55907738 678:0.55907738 679:0.1324293 680:0.51924032 681:0 682:0 683:0 684:0.20264991 685:0.0059227739 686:0.41586941 687:0.51441538 688:0.51441538 689:0.51441538 690:0.1562662 691:0.0451717 692:0 693:0.039381079 694:0.51181692 695:0.1575397 696:0.35398221 697:0.001434373 698:0.002343307 699:0 700:0.242671 701:0.51181692 702:0.51181692 703:0.4432804 704:0.08618243 705:0.4432804 706:0.4432804 707:0.04191222 708:0.02907652 709:0.05527341 710:0.4432804 711:0.4432804 712:0.018246289 713:0.04163941 714:0.1121743 715:0.097836621 716:0.51915717 717:0.5917539 718:0.5917539 719:0 720:0 721:0.056242712 722:0.1097535 723:0.35422271 724:0.08542683 725:0.51468819 726:0.51468819 727:0.16692591 728:0.51468819 729:0.15589461 730:0 731:0.001287119 732:0.0054696938 733:0.57419229 734:0.81323183 735:0.028456731 736:0 737:0 738:0 739:0.37628931 740:0.1323261 741:0.3518306 742:0.37628931 743:0.37628931 744:0.37628931 745:0.37628931 746:0.37628931 747:0.073375434 748:0.4542124 749:0.3887741 750:0.1264604 751:0.01417568 752:0 753:0.053748969 754:0.4542124 755:0.4542124 756:0.4542124 757:0.43400201 758:0.43400201 759:0 760:0.0142532 761:0.041185789 762:0.34437549 763:0.3489123 764:0.43400201 765:0.43400201 766:0 767:0 768:0 769:0 770:0.055499639 771:0.60428238 772:0.60428238 773:0.51046228 774:0 775:0 776:0 777:0 778:0 779:0.3850109 780:0.64990473 781:0.64990473 782:0.02286447 783:0.001780621 784:0.1152128 785:0.001788335 786:0.021963971 787:0.033980671 788:0.56064802 789:0.1113096 790:0.56064802 791:0.56064802 792:0.15530211 793:0 794:0.1370782 795:0.3192583 796:0.068300873 797:0.31200659 798:0.50860971 799:0.50860971 800:0.5048005 801:0 802:0.4162766 803:0.1708654 804:0.4162766 805:0.4162766 806:0.4162766 807:0.4162766 808:0.1873486 809:0.066307813 810:0.24641301 811:0.3710084 812:0.3710084 813:0.3710084 814:0.3710084 815:0.3710084 816:0.1491439 817:0.1025626 818:0.3710084 819:0.3710084 820:0.046899479 821:0.32532099 822:0.54482758 823:0.54482758 824:0.53395319 825:0.084933229 826:0 827:0.0003568769 828:0.02306214 829:0.2181399 830:0 831:0.1962962 832:0.40151939 833:0.47655401 834:0.47655401 835:0.47655401 836:0.1378727 837:0.2181399 838:0.0017334101 839:0 840:0.1147412 841:0.69969308 842:0.69969308 843:0.026457811 844:0.001555128 845:0.00051969639 846:0.0017334101 847:0.42451701 848:0.42451701 849:0.42451701 850:0.42451701 851:0.28968281 852:0.0052115479 853:0.0113722 854:0.1030215 855:0.42451701 856:0.67340559 857:0 858:0 859:0 860:0 861:0 862:0.00061617402 863:0.29381409 864:0.67340559 865:0.50345039 866:0.077439956 867:0.01347107 868:0 869:0 870:0 871:0.0079498319 872:0.6059069 873:0.6059069 874:0.7041052 875:0.0004943689 876:0.028385781 877:0.0068951468 878:0 879:0 880:0 881:0.02428454 882:0.7041052 883:0.18943579 884:0.196495 885:0.361018 886:0.1168816 887:0.39435229 888:0.39435229 889:0.39435229 890:0.39435229 891:0.39435229 892:0.0080859996 893:0.0020454221 894:0 895:0.0025305499 896:0.046969511 897:0.19180609 898:0.71799439 899:0.66200101 900:0 901:0.2059813 902:0.144301 903:0.15788589 904:0.58023328 905:0.58023328 906:0.48237509 907:0 908:0 909:0 910:0.04341406 911:0.097569503 912:0.54530859 913:0.54530859 914:0.54530859 915:0.22806861 916:0.13803791 917:0.1254344 918:0.065282747 919:0.4913345 920:0.4913345 921:0.4913345 922:0 923:0.055813361 924:0.069494292 925:0.025988599 926:0.45833689 927:0.2284102 928:0.3097277 929:0.41513631 930:0.41513631 931:0.41513631 932:0.41513631 933:0.41513631 934:0.19552711 935:0 936:0 937:0.071575738 938:0.67746961 939:0.67746961 940:0.2319299 941:0.12754939 942:0.0065645562 943:0.007671719 944:0.001491265 945:0.0043710019 946:0.51277608 947:0.51277608 948:0.51277608 949:0.3333987 950:0.1606196 951:0 952:0 953:0 954:0.26288339 955:0.20639341 956:0.50065899 957:0.50065899 958:0.50065899 959:0.3404367 960:0 961:0.093282722 962:0.2491769 963:0.1171976 964:0.50851113 965:0.2301705 966:0.062402651 967:0.1239826 968:0.50851113 969:0.006343035 970:0.50851113 971:0.036773659 972:0.38148931 973:0.69327903 974:0.0092594493 975:0 976:0 977:0 978:0 979:0 980:0.1781068 981:0.69327903 982:0.57487148 983:0.09823212 984:0.51385611 985:0.1542753 986:0.006139861 987:0.185095 988:0.038791832 989:0.001943334 990:0.57487148 991:0.13855571 992:0.4123559 993:0.31872731 994:0.43332139 995:0.43332139 996:0.3854264 997:0.25950941 998:0.31799951 999:0.1108707 1000:0.020789791 1001:0 1002:0 1003:0 1004:0 1005:0.22019731 1006:0.68506223 1007:0.68506223 1008:0.074977353 1009:0.48007891 1010:0.001449677 1011:0.1750157 1012:0.039325058 1013:0 1014:0.2027877 1015:0.48007891 1016:0.48007891 1017:0.48007891 1018:0.44780949 1019:0.44780949 1020:0.26790929 1021:0.086065508 1022:0.045201048 1023:0 1024:0.33491451 1025:0.44780949 1026:0.44780949 1027:0.1869193 1028:0.1326721 1029:0.49851599 1030:0.44023269 1031:0 1032:0.0066412468 1033:0.05546958 1034:0.49851599 1035:0.49851599 1036:0.57316649 1037:0.57316649 1038:0.57316649 1039:0.02606112 1040:0 1041:0 1042:0.0050115208 1043:0.001674762 1044:0.08949919 1045:0.1528661 1046:0.58952129 1047:0.58952129 1048:0.5250473 1049:0 1050:0 1051:0 1052:0 1053:0 1054:0.1342259 1055:0.47874221 1056:0.47874221 1057:0.47874221 1058:0.47874221 1059:0.02827267 1060:0 1061:0.1600766 1062:0.1843946 1063:0.64154333 1064:0.5166477 1065:0.0083257221 1066:0.1044063 1067:0.1072102 1068:0.063554391 1069:0.01041576 1070:0.1118011 1071:0.52533913 1072:0.4748829 1073:0.39001819 1074:0 1075:0 1076:0 1077:0 1078:0.40816799 1079:0.4748829 1080:0.4748829 1081:0.64059991 1082:0.097566754 1083:0 1084:0 1085:0 1086:0.0035806231 1087:0.01418787 1088:0.4038991 1089:0.64059991 1090:0.49875239 1091:0.49875239 1092:0.49875239 1093:0.0016200501 1094:0 1095:0 1096:0 1097:0 1098:0.49875239 1099:0.3812319 1100:0.3812319 1101:0.2898286 1102:0.3812319 1103:0.3812319 1104:0.1746258 1105:0.098335907 1106:0.3812319 1107:0.3812319 1108:0.3084273 1109:0.41957471 1110:0.0572902 1111:0.25984621 1112:0 1113:0.3270483 1114:0.51080781 1115:0.51080781 1116:0.1552943 1117:0.01510987 1118:0.02022961 1119:0.02424586 1120:0 1121:0 1122:0.3046152 1123:0.55092788 1124:0.55092788 1125:0.54170048 1126:0.51805252 1127:0.51805252 1128:0.039813429 1129:0.27402681 1130:0.30610159 1131:0.0095448261 1132:0.018141329 1133:0.13746651 1134:0.51805252 1135:0.57449049 1136:0.57449049 1137:0.054537341 1138:0 1139:0 1140:0 1141:0 1142:0.03421773 1143:0.57449049 1144:0.59441668 1145:0.33137071 1146:0.4290365 1147:0.016149821 1148:0 1149:0 1150:0 1151:0.01671089 1152:0.588485 1153:0.030662561 1154:0.57541692 1155:0.57541692 1156:0.57541692 1157:0 1158:0 1159:0 1160:0 1161:0 1162:0.42915899 1163:0.42915899 1164:0.42915899 1165:0.30162901 1166:0.022336069 1167:0 1168:0.26781219 1169:0.42915899 1170:0.30951759 1171:0.43165919 1172:0.08920458 1173:0.020644519 1174:0.02760577 1175:0.091179989 1176:0.46374539 1177:0.46374539 1178:0.38262159 1179:0.46374539 1180:0.38601911 1181:0.0020804559 1182:0 1183:0 1184:0.41155159 1185:0.41155159 1186:0.41155159 1187:0.41155159 1188:0.41155159 1189:0.44885981 1190:0 1191:0 1192:0 1193:0.4281725 1194:0.098521173 1195:0.44503149 1196:0.44885981 1197:0.44885981 1198:0.30587539 1199:0.44900489 1200:0.30689889 1201:0.44900489 1202:0.44900489 1203:0.44900489 1204:0.031810649 1205:0.01292015 1206:0.01295287 1207:0.21154401 1208:0.22601651 1209:0.46069539 1210:0.46069539 1211:0.46069539 1212:0.46069539 1213:0.035240121 1214:0.117606 1215:0.18849429 1216:0 1217:0 1218:0.56964773 1219:0.56964773 1220:0.56964773 1221:0.1416513 1222:0.02196754 1223:0.016381949 1224:0 1225:0.49156511 1226:0.1195003 1227:0.1140634 1228:0.032491799 1229:0.49156511 1230:0 1231:0.01410706 1232:0.49156511 1233:0.49156511 1234:0.4107599 1235:0.32508299 1236:0.094810814 1237:0.19393329 1238:0.4107599 1239:0.4107599 1240:0.4107599 1241:0 1242:0.4107599 1243:0.032555681 1244:0.0485496 1245:0.12535059 1246:0.1838488 1247:0.56020099 1248:0.56020099 1249:0.56020099 1250:0 1251:0.00059609499 1252:0.0079405475 1253:0.43215331 1254:0.43215331 1255:0.43215331 1256:0.43215331 1257:0 1258:0.02639363 1259:0.39015841 1260:0.30931231 1261:0.085350439 1262:0.017156949 1263:0.039734989 1264:0.2269817 1265:0.67794651 1266:0.67794651 1267:0.089259632 1268:0.061339851 1269:0.040010039 1270:0 1271:0.0020902241 1272:0.006254748 1273:0.4046399 1274:0.4922857 1275:0.4922857 1276:0.4651086 1277:0.36077169 1278:0.01156895 1279:0.04815162 1280:0.05611828 1281:0.3888166 1282:0.28909841 1283:0.3888166 1284:0.3888166 1285:0.3888166 1286:0.3888166 1287:0.3888166 1288:0.51746088 1289:0.1389482 1290:0 1291:0.041262679 1292:0.3077991 1293:0.0090978229 1294:0.51746088 1295:0.27514091 1296:0.51746088 #
-0.0039102294532635268 1:0.57541412 2:0.57541412 3:0 4:0 5:0.020500859 6:0 7:0 8:0.02302042 9:0.57541412 10:0.56052947 11:0.56052947 12:0.1309883 13:0 14:0.13119771 15:0 16:0.02908848 17:0.1288635 18:0.56052947 19:0.48657531 20:0.48657531 21:0.1741851 22:0.48657531 23:0.1272577 24:0.01667605 25:0.036122881 26:0 27:0.48657531 28:0.43470001 29:0.43470001 30:0.1164314 31:0.16534691 32:0.045511689 33:0.2051959 34:0.393356 35:0.43470001 36:0.43470001 37:0.43199509 38:0.00046391221 39:0.48572949 40:0.48572949 41:0.079352617 42:0.01743353 43:0.072638683 44:0.29808059 45:0.48572949 46:0.51046139 47:0.2083661 48:0.084718503 49:0.2469354 50:0.51046139 51:0.51046139 52:0.2213975 53:0.073987328 54:0.2170893 55:0.33045959 56:0.0274029 57:0.1980193 58:0.52816552 59:0.08702337 60:0.01427401 61:0.38727099 62:0.31330001 63:0.55713481 64:0 65:0 66:0.38755319 67:0.55794519 68:0.55794519 69:0.45229679 70:0.1305857 71:0 72:0 73:0.40710041 74:0.40710041 75:0.40710041 76:0.02866785 77:0.40710041 78:0 79:0.0269581 80:0.40710041 81:0.40710041 82:0.46230891 83:0.46230891 84:0 85:0.1861736 86:0.2870703 87:0.46230891 88:0.1525411 89:0.01119828 90:0.46230891 91:0.54465377 92:0.53697401 93:0.064769842 94:0 95:0.08977814 96:0 97:0.094668262 98:0.30283159 99:0.54465377 100:0.54870462 101:0.2520912 102:0 103:0 104:0.15024289 105:0.02443295 106:0.067605503 107:0.54870462 108:0.54870462 109:0.45808619 110:0.45808619 111:0.33483341 112:0.04343456 113:0.38475949 114:0.17974649 115:0.01129255 116:0.37757051 117:0.3724283 118:0.51721501 119:0.1164912 120:0.036469031 121:0.01502072 122:0.44221899 123:0.45210299 124:0.076784872 125:0.1970671 126:0.51721501 127:0.054448709 128:0.059431732 129:0.098299749 130:0.56619418 131:0.69219577 132:0.41896799 133:0.0005208379 134:0.003527804 135:0.040897541 136:0.39318019 137:0.063054807 138:0.3525553 139:0.2058101 140:0.3273842 141:0.31606999 142:0.39318019 143:0.39318019 144:0.39318019 145:0.4087272 146:0.20293351 147:0.14628281 148:0.1107754 149:0.46450251 150:0.3217788 151:0.46450251 152:0.05119846 153:0.46450251 154:0.3800675 155:0.3091433 156:0 157:0.35502011 158:0.3800675 159:0.3800675 160:0.2287741 161:0.3800675 162:0.3800675 163:0.3615554 164:0.087614231 165:0.0109948 166:0.42974079 167:0.470265 168:0.041098371 169:0.083485156 170:0.470265 171:0.470265 172:0.44590589 173:0.44590589 174:0.40452871 175:0.038563721 176:0.01374215 177:0.0055783391 178:0.18672679 179:0.44590589 180:0.44590589 181:0.26877949 182:0.39990169 183:0.36743331 184:0.39990169 185:0.1151027 186:0.39990169 187:0.36290279 188:0.39990169 189:0.064210258 190:0.45291221 191:0.15392651 192:0.45291221 193:0.37503281 194:0.0216073 195:0 196:0.1007397 197:0.45291221 198:0.45291221 199:0.4493967 200:0.058795322 201:0.33163649 202:0.023863111 203:0.061440758 204:0.43558979 205:0.4493967 206:0.4493967 207:0.28655949 208:0.39221421 209:0.001052198 210:0.033699349 211:0.048393849 212:0.45867729 213:0 214:0.34437209 215:0.58765697 216:0.4031173 217:0.3801291 218:0.3801291 219:0.3801291 220:0.35901719 221:0.01790148 222:0 223:0.3801291 224:0.3801291 225:0.3801291 226:0.1327724 227:0.3874155 228:0.3874155 229:0.3874155 230:0.3874155 231:0.3874155 232:0.1621958 233:0.3446492 234:0.28802201 235:0.38263091 236:0.2220446 237:0.41018009 238:0.41018009 239:0.41018009 240:0.41018009 241:0.019619299 242:0.2118765 243:0.28622529 244:0.4288846 245:0.2329312 246:0.21353009 247:0.2107338 248:0.46475741 249:0.46475741 250:0.03397835 251:0.1341726 252:0.46475741 253:0 254:0.02444163 255:0.04105892 256:0.49212679 257:0.61395591 258:0.61003339 259:0 260:0.0064990721 261:0.01652847 262:0.4243685 263:0.0042521162 264:0.4243685 265:0.4243685 266:0.0922122 267:0.4243685 268:0.26887509 269:0.1204269 270:0.4243685 271:0.0907159 272:0.3949663 273:0.0044240952 274:0.27770171 275:0.3949663 276:0.36151811 277:0.3949663 278:0.3949663 279:0.3949663 280:0.45460039 281:0.02706112 282:0.1096935 283:0.0126114 284:0.01981739 285:0.40991509 286:0.45460039 287:0.44059879 288:0.45460039 289:0.52293563 290:0.1677153 291:0.01700528 292:0.017755879 293:0.001089093 294:0 295:0.52293563 296:0.3816523 297:0.52293563 298:0.5521307 299:0.1867175 300:0 301:0 302:0 303:0 304:0.2123155 305:0.5521307 306:0.5521307 307:0.43293771 308:0.018396201 309:0.038137838 310:0.0070928279 311:0.46962801 312:0.46962801 313:0.2683 314:0.26906261 315:0.46962801 316:0.4036698 317:0.4036698 318:0.4036698 319:0.4036698 320:0.25717461 321:0.27381039 322:0 323:0.2002749 324:0.4036698 325:0.36979339 326:0.36979339 327:0.2169434 328:0.36979339 329:0.36979339 330:0.33276111 331:0.3573446 332:0.16456071 333:0.36979339 334:0.076181524 335:0.42259061 336:0.42259061 337:0.42259061 338:0.41081131 339:0 340:0 341:0.3269214 342:0.42259061 343:0.2891365 344:0.42806911 345:0.55848151 346:0.55848151 347:0.156234 348:0.071724817 349:0 350:0.26677239 351:0.0552781 352:0.40854669 353:0.40854669 354:0.3947418 355:0.1258032 356:0.004261611 357:0.33442551 358:0.3919965 359:0.2408734 360:0.40854669 361:0.0022721491 362:0.15218 363:0.52370131 364:0.52370131 365:0.52370131 366:0.3848677 367:0.02542248 368:0.0064953761 369:0.0022721491 370:0.40450501 371:0.034818891 372:0.40450501 373:0.40450501 374:0.40450501 375:0.40450501 376:0.1045259 377:0.045553789 378:0.40450501 379:0.31067851 380:0.36046869 381:0.31941879 382:0.36046869 383:0.3330026 384:0.36046869 385:0.19305369 386:0.36046869 387:0.36046869 388:0.38679609 389:0.38679609 390:0.38679609 391:0.38679609 392:0.38679609 393:0.38679609 394:0.00051772158 395:0.039562829 396:0.31129271 397:0.41911709 398:0.074909121 399:0.41911709 400:0.41911709 401:0.089431994 402:0.1794851 403:0.41911709 404:0.41911709 405:0.26775599 406:0.082281612 407:0.1207274 408:0.28099301 409:0.027027059 410:0.46681541 411:0.47398299 412:0.47398299 413:0.47398299 414:0.04833689 415:0.4501465 416:0.3255772 417:0.37106991 418:0.1498678 419:0 420:0.050429389 421:0.34483489 422:0.4501465 423:0.4501465 424:0.59010291 425:0.070177414 426:0.25691521 427:0 428:0.16932499 429:0.28620449 430:0.2652688 431:0.21397039 432:0.59010291 433:0.084517747 434:0 435:0 436:0.47686169 437:0.47686169 438:0.47686169 439:0.26211619 440:0.47686169 441:0.098997429 442:0 443:0.39308891 444:0.39308891 445:0.39308891 446:0.38313389 447:0.39308891 448:0.39308891 449:0.2761789 450:0.020301299 451:0.019729851 452:0.056346219 453:0.108273 454:0.56898671 455:0.56898671 456:0.098219477 457:0.020545989 458:0.1482342 459:0.54726279 460:0.5030039 461:0.2998552 462:0.085379109 463:0.5030039 464:0.5030039 465:0.1806321 466:0.1417533 467:0.27090219 468:0.1123614 469:0.01216963 470:0.04477407 471:0.13429341 472:0.50256532 473:0.50256532 474:0.50256532 475:0.46555221 476:0 477:0.01840264 478:0.42391431 479:0.42391431 480:0.42391431 481:0.20470341 482:0.039270889 483:0.2018172 484:0.32369879 485:0.29663989 486:0.42391431 487:0.016758669 488:0.067132562 489:0.30861661 490:0.63912201 491:0.63912201 492:0.1124362 493:0.060791381 494:0.23472279 495:0.07211829 496:0.51772487 497:0.114999 498:0.37456381 499:0 500:0.074199893 501:0.02970393 502:0.51772487 503:0.1755036 504:0.51772487 505:0.230289 506:0.1003226 507:0.1967921 508:0.033432249 509:0.03845958 510:0.54071498 511:0.54071498 512:0.54071498 513:0.1142812 514:0.43190661 515:0.43190661 516:0.053854141 517:0.073375411 518:0.43135411 519:0.43190661 520:0.43190661 521:0.22384819 522:0.071089841 523:0.42781049 524:0 525:9.7522847e-005 526:0.20206819 527:0.42781049 528:0.23574039 529:0.42781049 530:0.4089427 531:0.42781049 532:0.6289739 533:0.00066055992 534:0.0019766469 535:0 536:0 537:0 538:0 539:0.4499993 540:0.6289739 541:0.3975715 542:0.3975715 543:0.34287089 544:0.3975715 545:0.3975715 546:0 547:0.3975715 548:0.27180591 549:0.1194741 550:0.17888591 551:0.35173771 552:0.32458529 553:0.35173771 554:0.35173771 555:0.35173771 556:0.35173771 557:0.35173771 558:0.34177959 559:0.38235921 560:0.26814419 561:0.38235921 562:0.38235921 563:0.38235921 564:0.3530868 565:0.38235921 566:0.1226594 567:0.23145241 568:0.25464949 569:0.38040429 570:0.051821809 571:0.36915371 572:0.38040429 573:0.38040429 574:0.32302791 575:0.3304795 576:0.38040429 577:0.0041818959 578:0.053697322 579:0.1861475 580:0.48253611 581:0.48253611 582:0.1506176 583:0.48253611 584:0.48253611 585:0.059823431 586:0.15921269 587:0.53893858 588:0.1388334 589:0.1393059 590:0.53893858 591:0.093704447 592:0.017525529 593:0.2239113 594:0.53893858 595:0.48505571 596:0.05998496 597:0.054630619 598:0.555897 599:0.555897 600:0.3362323 601:0.063479252 602:0.132145 603:0 604:0.03069154 605:0.30828089 606:0.3984836 607:0.32572141 608:0.3984836 609:0.3984836 610:0 611:0.3984836 612:0.3984836 613:0.035126649 614:0.041545831 615:0.1713355 616:0.32133669 617:0.65385127 618:0.65385127 619:0.050017212 620:0.001188869 621:0.01878671 622:0.1590057 623:0.18102691 624:0.05313899 625:0.39604631 626:0.46313679 627:0.4472726 628:0.03606464 629:0.3837958 630:0.46313679 631:0.1436362 632:0.088297039 633:0.29499429 634:0.27549449 635:0.61757302 636:0.2406844 637:0.40727049 638:0.3840189 639:0.22320899 640:0 641:0.03087369 642:0.2400957 643:0.30213809 644:0.90338391 645:0 646:0.1499542 647:0.05011205 648:0 649:0.37066129 650:0.37066129 651:0.37066129 652:0.006519611 653:0.26010251 654:0.32289651 655:0.37066129 656:0.37066129 657:0.37066129 658:0.34070101 659:0.41087931 660:0.1866187 661:0.41087931 662:0.41087931 663:0.41087931 664:0 665:0.02971196 666:0.41087931 667:0.41519329 668:0.41519329 669:0.2389054 670:0.41519329 671:0.41519329 672:0.099839158 673:0.41519329 674:0.2376198 675:0.1020696 676:0.45817751 677:0.45817751 678:0.45817751 679:0.2279949 680:0.31347331 681:0.040593971 682:0.0061013112 683:0.061518811 684:0.45817751 685:0.22171099 686:0.39483389 687:0.2472752 688:0.4047904 689:0.02400394 690:0.27159581 691:0.4047904 692:0.4047904 693:0.4047904 694:0.36995119 695:0.36995119 696:0.30675301 697:0.36995119 698:0.36995119 699:0.01845731 700:0.28404719 701:0.36995119 702:0.36995119 703:0 704:0.12887301 705:0.3935847 706:0.2424628 707:0.38226569 708:0.3935847 709:0.3935847 710:0.3935847 711:0.3935847 712:0.037695669 713:0.4465872 714:0.41853461 715:0.4465872 716:0.4465872 717:0.4465872 718:0.092244513 719:0.1102509 720:0.02284525 721:0 722:0.0072391359 723:0.01064549 724:0.098239899 725:0.70113528 726:0.70113528 727:0.001541564 728:0.00051516498 729:0 730:0.4200795 731:0.074495398 732:0.01832776 733:0.44435161 734:0.60110003 735:0.16446631 736:0 737:0.04078133 738:0.47345951 739:0 740:0 741:0 742:0 743:0.99472141 744:0.02463638 745:0 746:0 747:0 748:0.53855699 749:0.53855699 750:0.021847529 751:0 752:0.35067591 753:0 754:0.03058653 755:0.01022148 756:0.53855699 757:0.12755629 758:0.039626401 759:0 760:0.58034003 761:0.58034003 762:0.037004281 763:0.54295009 764:0.068982683 765:0.043039419 766:0.47838521 767:0.13644309 768:0.0140738 769:0.06017594 770:0.47838521 771:0.47838521 772:0.08654213 773:0.22335321 774:0.47838521 775:0.2771883 776:0.46166 777:0.22405531 778:0.056724641 779:0.46166 780:0.46166 781:0.4387325 782:0 783:0.18237621 784:0.1186066 785:0.38643 786:0.38643 787:0.38643 788:0.2744619 789:0.36766759 790:0.38643 791:0.1578684 792:0.38643 793:0.368936 794:0.368936 795:0 796:0.368936 797:0.368936 798:0.20860849 799:0.368936 800:0.368936 801:0.368936 802:0.25085211 803:0.41934419 804:0.41934419 805:0.41934419 806:0.29328659 807:0.14095061 808:0.17131209 809:0.307008 810:0.41934419 811:0.37251529 812:0.37251529 813:0.37251529 814:0.37251529 815:0.37251529 816:0.37251529 817:0.2477271 818:0.1678582 819:0.27226371 820:0.0108547 821:0.052384838 822:0.077783771 823:0.62211019 824:0.67332977 825:0.28687021 826:0.07892248 827:0.2317428 828:0.041758321 829:0.0041491371 830:0.01541486 831:0.0092154648 832:0.2697435 833:0.67744058 834:0.67744058 835:0.004599297 836:0.047570448 837:8.0506921e-005 838:0.2209224 839:0.0188968 840:0.00069866498 841:0.48921859 842:0.48921859 843:0.48921859 844:0.2885347 845:0.04112421 846:0.3781555 847:0 848:0 849:0 850:0.63990301 851:0.74795902 852:0.1536746 853:0 854:0 855:0 856:0.38656041 857:0.38656041 858:0.31482399 859:0.38656041 860:0.021225849 861:0.38656041 862:0.38656041 863:0 864:0.38656041 865:0.53669918 866:0.53669918 867:0.098051593 868:0.53669918 869:0.3062335 870:0 871:0.031062551 872:0.001968957 873:0.1616797 874:0.40240371 875:0.40240371 876:0.40240371 877:0.0067977849 878:0.062535822 879:0.40240371 880:0.143005 881:0.40240371 882:0.40240371 883:0.044468749 884:0.38306269 885:0.38306269 886:0 887:0.38306269 888:0.38306269 889:0.38306269 890:0.33730319 891:0.38306269 892:0.42180109 893:0.42180109 894:0.42180109 895:0.02210243 896:0.31015441 897:0.092798792 898:0.030158229 899:0.42180109 900:0.42180109 901:0.18999019 902:0.2385083 903:0.01494737 904:0 905:0.26234531 906:0.52514368 907:0.073463768 908:0.52514368 909:0.52514368 910:0.4242081 911:0.26125249 912:0.33746001 913:0.4242081 914:0.22345971 915:0.2006166 916:0.06032357 917:0.4242081 918:0.4242081 919:0.4057076 920:0.31674999 921:0.2694518 922:0.4057076 923:0.4057076 924:0.4057076 925:0 926:0.0043544248 927:0.4057076 928:0.0058834478 929:0.4632296 930:0.4632296 931:0.4632296 932:0.4632296 933:0.1216621 934:0.2255726 935:0.027472859 936:0.26565489 937:0 938:0.041043401 939:0.4156239 940:0.52284348 941:0.52284348 942:0.52284348 943:0.01528714 944:0.004579009 945:0 946:0.21933299 947:0.098967217 948:0.38882029 949:0.38882029 950:0.38882029 951:0.38882029 952:0.318878 953:0.3337799 954:0.34698281 955:0.43340999 956:0.2575632 957:0.2377436 958:0.00040535079 959:0 960:0.43340999 961:0.3484717 962:0.43340999 963:0.43340999 964:0.59101188 965:0.3535997 966:0.1492044 967:0.01152135 968:0.042313881 969:0.1449537 970:0 971:0.35394779 972:0.59101188 973:0.41004261 974:0.1179945 975:0.007194771 976:0.47633079 977:0.47633079 978:0.3267943 979:0.027853711 980:0.41004619 981:0.28921071 982:0.4794409 983:0.4794409 984:0.14529219 985:0.057318222 986:0.1790901 987:0.0052257641 988:0.4794409 989:0.13878471 990:0.4794409 991:0.47674009 992:0.32975939 993:0.007481751 994:0.47674009 995:0.120057 996:0.40607539 997:0.0088809635 998:0.1587704 999:0.47674009 1000:0.36268029 1001:0.29210231 1002:0.20225661 1003:0.083659276 1004:0.3824687 1005:0.3824687 1006:0.3824687 1007:0.3824687 1008:0.3824687 1009:0.40854141 1010:0.27286941 1011:0.28038421 1012:0.078790382 1013:0.092614599 1014:0.40854141 1015:0.40854141 1016:0.40854141 1017:0.4005447 1018:0.32247341 1019:0.50057328 1020:0.50057328 1021:0.1274856 1022:0.1347468 1023:0.2190901 1024:0.50057328 1025:0.1785952 1026:0.1580648 1027:0.1235496 1028:0.03419549 1029:0.4390679 1030:0.4390679 1031:0.34340221 1032:0.4390679 1033:0.4390679 1034:0.071879722 1035:0.29148921 1036:0.22672459 1037:0.31035319 1038:0.17750651 1039:0.4484711 1040:0.060046781 1041:0.4484711 1042:0.4484711 1043:0.090431526 1044:0.4484711 1045:0 1046:0.13598379 1047:0.178524 1048:0.4198696 1049:0.56169993 1050:0.56169993 1051:0.025561981 1052:0.36808011 1053:0.024247499 1054:0.3398329 1055:0.39712799 1056:0.51749837 1057:0.51749837 1058:0.42900369 1059:0.04416927 1060:0 1061:0 1062:0.0055245929 1063:0.4519318 1064:0.262328 1065:0.3041392 1066:0.01177992 1067:0.3751606 1068:0.25193521 1069:0.130715 1070:0.4519318 1071:0.4519318 1072:0.61225432 1073:0.42549241 1074:0.095011704 1075:0.017927861 1076:0.1531406 1077:0.038847201 1078:0.1216464 1079:0.1184263 1080:0.61225432 1081:0.45744899 1082:0.065599658 1083:0.001841734 1084:0.45744899 1085:0.45744899 1086:0.3925164 1087:0.0038831071 1088:0.001297666 1089:0.45744899 1090:0.45574179 1091:0.45574179 1092:0.45574179 1093:0 1094:0.2466898 1095:0.00027226671 1096:0.0045784288 1097:0.32213119 1098:0.45574179 1099:0.088424213 1100:0.39296219 1101:0.28743941 1102:0.39296219 1103:0.39296219 1104:0.39296219 1105:0.39296219 1106:0.32360971 1107:0.16974869 1108:0.1923756 1109:0.3696405 1110:0.40284759 1111:0.40284759 1112:0.020373421 1113:0.31436509 1114:0.40284759 1115:0.27193311 1116:0.40284759 1117:0.40140051 1118:0.40140051 1119:0.40140051 1120:0.40140051 1121:0.2113419 1122:0.19462369 1123:0.40140051 1124:0.31900629 1125:0.077905118 1126:0.2223776 1127:0.37111789 1128:0.37111789 1129:0.37111789 1130:0.34380099 1131:0.047648892 1132:0.37111789 1133:0.37111789 1134:0.37111789 1135:0.05341211 1136:0.4893108 1137:0.4893108 1138:0.4893108 1139:0.033745151 1140:0.1816255 1141:0.4893108 1142:0.02018116 1143:0.005110783 1144:0.42133039 1145:0 1146:0.0050971932 1147:0.28352141 1148:0.42133039 1149:0.42133039 1150:0.30373511 1151:0.336227 1152:0.42133039 1153:0.49454209 1154:0.1268709 1155:0.023484049 1156:0.49454209 1157:0.49454209 1158:0 1159:0.0049364069 1160:0.01005359 1161:0.49454209 1162:0.4778946 1163:0.4778946 1164:0.4778946 1165:0.102547 1166:0.094658107 1167:0.076148383 1168:0.1544863 1169:0.1804245 1170:0.4778946 1171:0.4507249 1172:0.4507249 1173:0.094056383 1174:0.1799597 1175:0.093193144 1176:0 1177:0.4507249 1178:0.36464921 1179:0.4507249 1180:0.4185054 1181:0.4185054 1182:0.26382849 1183:0.4185054 1184:0.197641 1185:0 1186:0.1068541 1187:0.4185054 1188:0.4185054 1189:0.49800089 1190:0 1191:0 1192:0 1193:0.092793487 1194:0 1195:0 1196:0.60717458 1197:0.60717458 1198:0.57542068 1199:0.29916129 1200:0.57542068 1201:0.2092299 1202:0.12539861 1203:0 1204:0.074183866 1205:0.1523819 1206:0.39282721 1207:0.64424169 1208:0.3759912 1209:0 1210:0 1211:0.1485204 1212:0.0043392018 1213:0 1214:0.00517576 1215:0.64424169 1216:0.66616219 1217:0.1217293 1218:0 1219:0 1220:0.30125809 1221:0 1222:0 1223:0.01519707 1224:0.66616219 1225:0.49071151 1226:0.49071151 1227:0.17862611 1228:0 1229:0.49071151 1230:0 1231:0 1232:0.00049002719 1233:0.49071151 1234:0.67531049 1235:0.25434351 1236:0.01352601 1237:0 1238:0.1276567 1239:0 1240:0 1241:0 1242:0.67531049 1243:0.4997479 1244:0.4997479 1245:0.1854627 1246:0.44185701 1247:0.4997479 1248:0.107558 1249:0 1250:0.059848621 1251:0.031309269 1252:0.091097593 1253:0.27705041 1254:0.1677839 1255:0.32984319 1256:0.75778192 1257:0.43643129 1258:0 1259:0 1260:0.075677574 1261:0.40197521 1262:0.097482324 1263:0.2917043 1264:0 1265:0.30572799 1266:0.40197521 1267:0.40197521 1268:0.40197521 1269:0.40197521 1270:0.55438322 1271:0.2325215 1272:0.038373079 1273:0.1285785 1274:0.55438322 1275:0.019250659 1276:0 1277:0 1278:0.55438322 1279:0.50075883 1280:0.50075883 1281:0.025603579 1282:0 1283:0.181817 1284:0.1373774 1285:0.39869791 1286:0.17656431 1287:0.50075883 1288:0.4656328 1289:0.058628049 1290:0.048965018 1291:0.323479 1292:0.4656328 1293:0.1248931 1294:0.4656328 1295:0.04496406 1296:0.4656328 #
-0.0026105262499174524 1:0.001100981 2:0.032181241 3:0.2374189 4:0.04172904 5:0.48374099 6:0.48374099 7:0.48374099 8:0.48374099 9:0.001100981 10:0.19554719 11:0.45035771 12:0.45035771 13:0.23628891 14:0.081782296 15:0.2062472 16:0.2022763 17:0.45035771 18:0.45035771 19:0.4591091 20:0.4591091 21:0.4591091 22:0.4591091 23:0.3278715 24:0.210958 25:0.01692915 26:0 27:0 28:0.52995181 29:0.52995181 30:0.52995181 31:0.36289719 32:0.1430618 33:0 34:0 35:0 36:0 37:0.40310931 38:0.40310931 39:0.082510583 40:0 41:0.40310931 42:0.40310931 43:0.40310931 44:0.40310931 45:0.1190904 46:0.32338151 47:0 48:0 49:0 50:0.42218649 51:0.42218649 52:0.42218649 53:0.42218649 54:0.42218649 55:0.7030589 56:0 57:0 58:0 59:0.0099562975 60:0 61:0 62:0.065567657 63:0.7030589 64:0.64390928 65:0.071079142 66:0.0033630109 67:0.1732824 68:0.027479559 69:0.3094165 70:0.1254693 71:0.13040841 72:0.64390928 73:0.68808579 74:0.016344519 75:0 76:0 77:0.024236489 78:0 79:0.039887559 80:0.20919169 81:0.68808579 82:0.69776559 83:0.1407485 84:0 85:0 86:0.2992861 87:0.3405357 88:0.072639853 89:0.079963177 90:0.51878732 91:0.29348791 92:0.25375029 93:0.3977519 94:0.58450061 95:0.58450061 96:0 97:0 98:0 99:0.04637602 100:0.28700691 101:0.54164171 102:0.54164171 103:0.13935579 104:0.086102128 105:0.022563539 106:0.068904698 107:0 108:0.54164171 109:0.0011728239 110:0 111:0 112:0.60656017 113:0.60656017 114:0.50804561 115:0.0004340882 116:0 117:0.0011728239 118:0.2339789 119:0.39387891 120:0.39387891 121:0.39387891 122:0.3155728 123:0.2509234 124:0.39387891 125:0.055381831 126:0.39387891 127:0.037044559 128:0.1771881 129:0.86696023 130:0.4545573 131:0.018411441 132:0 133:0 134:0 135:0 136:0 137:0.57313079 138:0.57313079 139:0.57313079 140:0.094022349 141:0 142:0 143:0 144:0 145:0.41793379 146:0.41793379 147:0.41793379 148:0.41793379 149:0.1449233 150:0 151:0.2119664 152:0.41793379 153:0.2378009 154:0.4527767 155:0.4527767 156:0.4020417 157:0.41450319 158:0.02565288 159:0.20733871 160:0 161:0.057959009 162:0.4527767 163:0.34821019 164:0.4255397 165:0.4255397 166:0.4255397 167:0.34409881 168:0 169:0.074378707 170:0.16194589 171:0.4255397 172:0.2163367 173:0.44439679 174:0.26827759 175:0.26022011 176:0.44439679 177:0.44439679 178:0.1347232 179:0.03110534 180:0.44439679 181:0.099306747 182:0 183:0.02746298 184:0.27578589 185:0.25768831 186:0.47489449 187:0.47489449 188:0.40694609 189:0.47489449 190:0.43522629 191:0 192:0 193:0.2025782 194:0.43522629 195:0.2584244 196:0.3607547 197:0.43522629 198:0.43522629 199:0.0058333809 200:0.0024691441 201:0.2497896 202:0.65798491 203:0.69781458 204:0.102412 205:0.0049923169 206:0.01372745 207:0.002844485 208:0.5320282 209:0.064743027 210:0.036649361 211:0.02245629 212:0.101266 213:0.33002669 214:0.5320282 215:0.5320282 216:0.1425246 217:0.025517249 218:0.53235388 219:0.53235388 220:0.53235388 221:0.36564681 222:0.097374283 223:0 224:0 225:0.025517249 226:0.2310525 227:0.1686081 228:0.63722521 229:0.61348993 230:0.35810521 231:0 232:0.0077396659 233:0.020926179 234:0.02571434 235:0 236:0.2130018 237:0.73097003 238:0.64266378 239:0 240:0 241:0 242:0 243:0 244:0.041342478 245:0.42619061 246:0.52223033 247:0.52223033 248:0.47575679 249:0.1985469 250:0 251:0 252:0.01491525 253:0.019207541 254:0.1055177 255:0.47466159 256:0.61510623 257:0.61510623 258:0 259:0 260:0 261:0.018454939 262:0.66400331 263:0.66400331 264:0.2853668 265:0 266:0 267:0 268:0 269:0.042257201 270:0.16837581 271:0.2279577 272:0.51626408 273:0.51626408 274:0.51626408 275:0.3769204 276:0 277:0 278:0 279:0.034991901 280:0.49865019 281:0.49865019 282:0.49865019 283:0.49865019 284:0.0202918 285:0 286:0 287:0 288:0 289:0.49317771 290:0.49317771 291:0.49317771 292:0.49317771 293:0.066159941 294:0.084087558 295:0.041109022 296:0 297:0.095076032 298:0.1001785 299:0.4774892 300:0.3662571 301:0.4774892 302:0.4774892 303:0.2075341 304:0.0082539152 305:0.34613511 306:0.064146169 307:0 308:0.40052441 309:0.40052441 310:0.34978369 311:0.40052441 312:0.027277891 313:0.40052441 314:0.40052441 315:0.26609549 316:0.43667299 317:0.043257929 318:0.43667299 319:0.31252789 320:0.22939511 321:0.074881323 322:0.27409929 323:0.43667299 324:0.43667299 325:0.46638551 326:0.46638551 327:0.46638551 328:0.46638551 329:0.32924229 330:0 331:0 332:0.01526048 333:0.12902179 334:0.034491342 335:0.044175219 336:0.41167319 337:0.41167319 338:0.41167319 339:0.38127729 340:0.41167319 341:0.41167319 342:0 343:0.2310053 344:0.074040823 345:0.0237165 346:0.0089753103 347:0.002003541 348:0.01441745 349:0.55818921 350:0.55818921 351:0.55818921 352:0.57118529 353:0.44725209 354:0.57118529 355:0.001495103 356:0.00033029 357:0.002522608 358:0.1059967 359:0.077975728 360:0.35274979 361:0.57360119 362:0.57360119 363:0.084954038 364:0 365:0 366:0 367:0.0001091736 368:3.6483911e-005 369:0.57360119 370:0.70227611 371:0.076157503 372:0.00092441472 373:0 374:0 375:0 376:0 377:0.028379541 378:0.70227611 379:0.69382888 380:0.1697256 381:0.034404021 382:0.0083324052 383:0 384:0 385:0 386:0.01472759 387:0.69382888 388:0.70265162 389:0.071343243 390:0.01270554 391:0.004810934 392:0 393:0 394:0.015675079 395:0.0052383509 396:0.70265162 397:0.69687939 398:0.1474162 399:0.0045917942 400:0.00079061382 401:0.0028809779 402:0 403:0 404:0 405:0.69687939 406:0.4821437 407:0.34442419 408:0.4821437 409:0.039688539 410:0.42134511 411:0 412:0.0034875721 413:0.0070340382 414:0.4821437 415:0.14148539 416:0.55644202 417:0.55644202 418:0.55644202 419:0.1357674 420:0.1478432 421:0.072470032 422:0 423:0 424:0.42029989 425:0.38428181 426:0.057489742 427:0.2139665 428:0.42029989 429:0.42029989 430:0.2581335 431:0.1606282 432:0.42029989 433:0.2310407 434:0.26729751 435:0.3900941 436:0.3900941 437:0.3900941 438:0.00076910801 439:0.3900941 440:0.33227649 441:0.3900941 442:0.40156791 443:0.048762251 444:0.017131429 445:0.02962607 446:0.044780001 447:0.091462612 448:0.25356781 449:0.61416399 450:0.61416399 451:0.058173161 452:0.65161031 453:0.65161031 454:0.033026781 455:0.02363761 456:0.006866185 457:0.067124493 458:0.2185035 459:0.29491061 460:0.052241791 461:0.67265469 462:0.67265469 463:0.1057441 464:0.029833419 465:0.1056045 466:0.042570882 467:0.079160377 468:0.2330754 469:0.05331257 470:0.184824 471:0.46952191 472:0.46952191 473:0.46952191 474:0.46952191 475:0.27647641 476:0.008118446 477:0 478:0.45296699 479:0.110173 480:0.45296699 481:0.109144 482:0.45296699 483:0.45296699 484:0.1086898 485:0 486:0.37268609 487:0.43962529 488:0.43962529 489:0.43962529 490:0.30919611 491:0.1427262 492:0.1513232 493:0.2330312 494:0.171323 495:0.43962529 496:0.64762968 497:0.33865979 498:0.04844721 499:0 500:0.01394374 501:0.1646713 502:0.03993918 503:0.093497247 504:0.64762968 505:0.53472757 506:0.01249894 507:0 508:0 509:0 510:0 511:0.36973369 512:0.53472757 513:0.53472757 514:0.1490026 515:0 516:0.01839585 517:0.422333 518:0.422333 519:0.422333 520:0.2853336 521:0.422333 522:0.422333 523:0.1508678 524:0.39667371 525:0.39667371 526:0.081537083 527:0.39667371 528:0.39667371 529:0.1500919 530:0.39667371 531:0.39667371 532:0.36832231 533:0.36832231 534:0 535:0.36832231 536:0.36832231 537:0.36832231 538:0.36832231 539:0.21608029 540:0.36832231 541:0.68502808 542:0.1880897 543:0.087294832 544:0.066243507 545:0.077551238 546:0.035128031 547:0 548:0 549:0.68502808 550:0.48892251 551:0.38251629 552:0.48892251 553:0.001532939 554:0.0030487541 555:0.0084534157 556:0.31218499 557:0.18471511 558:0.48892251 559:0.158335 560:0.56114799 561:0.56114799 562:0.56114799 563:0.1570518 564:0 565:0 566:0 567:0 568:0.213898 569:0.31647411 570:0.64889449 571:0.64889449 572:0.037928239 573:0.06361451 574:0 575:0 576:0 577:0.055892192 578:0.24200679 579:0.53537673 580:0.53537673 581:0.27032819 582:0 583:0 584:0 585:0.53537673 586:0.60905141 587:0.37022641 588:0.095363587 589:0 590:0 591:0 592:0 593:0.32537639 594:0.60905141 595:0.56549048 596:0.56549048 597:0.02433438 598:0 599:0 600:0 601:0 602:0.1855325 603:0.56549048 604:0.4421002 605:0 606:0.0066152439 607:0.1862388 608:0.4421002 609:0.41507211 610:0.082219191 611:0.4421002 612:0.4421002 613:0.44413811 614:0.081151754 615:0.0033709649 616:0.44413811 617:0.44413811 618:0.44413811 619:0.051509239 620:0.004482375 621:0.44413811 622:0.29056749 623:0.1345553 624:0.0042665908 625:0.41676211 626:0.47183689 627:0.47183689 628:0.4626599 629:0.02779559 630:0.2428105 631:0.066775039 632:0.42649209 633:0.42649209 634:0.26280889 635:0.3401657 636:0.27971771 637:0.42649209 638:0.42649209 639:0.025988281 640:0.36693591 641:0.36693591 642:0 643:0.36693591 644:0.36693591 645:0.36693591 646:0.2320348 647:0.36693591 648:0.36693591 649:0.47969869 650:0.37498611 651:0.63292259 652:0 653:0 654:0.14386161 655:0.1987842 656:0.1677947 657:0.3660574 658:0.018877471 659:0.69317538 660:0.69317538 661:0.040550169 662:0.06603469 663:0.023662999 664:0 665:0.1256185 666:0.096927218 667:0.041287139 668:0.44892871 669:0.44892871 670:0.44892871 671:0.44892871 672:0.4332011 673:0 674:0 675:0 676:0 677:0.01202837 678:0.70147252 679:0.70147252 680:0 681:0.054766029 682:0.075674281 683:0 684:0 685:0.1442039 686:0.41053569 687:0.41053569 688:0.41053569 689:0.41053569 690:0.41053569 691:0.36349499 692:0.01631669 693:0.0033809929 694:0.1894611 695:0.42313921 696:0.42313921 697:0.1938813 698:0.42313921 699:0.42313921 700:0.04692407 701:0.1576443 702:0.42313921 703:0.43245369 704:0.43245369 705:0.031293549 706:0.43245369 707:0.37824711 708:0.046846248 709:0.0383301 710:0.31607211 711:0.43245369 712:0.34414631 713:0.1148017 714:0.38191941 715:0 716:0.38191941 717:0.38191941 718:0.38191941 719:0.3677718 720:0.38191941 721:0.55341548 722:0.0021331329 723:0.044417959 724:0.2787753 725:0.42690969 726:0.1735961 727:0.24431901 728:0.17367721 729:0.55341548 730:0.39207771 731:0.39207771 732:0.1319259 733:0.3118099 734:0.39207771 735:0.30408701 736:0.14268731 737:0.39207771 738:0.39207771 739:0.023403671 740:0.01169897 741:0.001955711 742:0.1656826 743:0.61777228 744:0.36772019 745:0.61777228 746:0.1309121 747:0.22372121 748:0.56124932 749:0.56124932 750:0.0071936878 751:0 752:0.0048582512 753:0.02065686 754:0 755:0.2211134 756:0.56124932 757:0.2774564 758:0.60669541 759:0.60669541 760:0.39934379 761:0 762:0 763:0 764:0 765:0.14603481 766:0.49241981 767:0.50710207 768:0.50710207 769:0.3364076 770:0.12974881 771:0.2526381 772:0.1149795 773:0.1113881 774:0.1367289 775:0 776:0.01142633 777:0.70456952 778:0.70456952 779:0 780:0 781:0 782:0 783:0 784:0 785:0.033358611 786:0.4373295 787:0.4373295 788:0.1955331 789:0.4373295 790:0.4373295 791:0.4373295 792:0 793:0.56767619 794:0.56767619 795:0.069801092 796:0 797:0.048863988 798:0.051896099 799:0.1730704 800:0.1093975 801:0.54584289 802:0.67287421 803:0.27720171 804:0.030467769 805:0.03074591 806:0.003359593 807:0 808:0.0094879745 809:0.094591923 810:0.67287421 811:0.39034131 812:0.051917441 813:0.053002201 814:0 815:0 816:0.080429137 817:0.031619608 818:0.64351982 819:0.64351982 820:0.3862389 821:0.3929165 822:0.3929165 823:0.3929165 824:0.3929165 825:0.29736349 826:0.038247611 827:0.045675039 828:0.37065679 829:0.60467261 830:0 831:0.0036937881 832:0.115966 833:0.1931373 834:0 835:0 836:0.46037021 837:0.60467261 838:0.55465078 839:0 840:0.059840519 841:0.1711081 842:0.060123969 843:0.049633231 844:0.18058559 845:0.55465078 846:0.55465078 847:0.1479779 848:0 849:0 850:0 851:0.49815711 852:0.43119049 853:0.49815711 854:0.49815711 855:0.2066893 856:0.1011523 857:0.01412746 858:0.029599581 859:0.037027258 860:0.49299231 861:0.49299231 862:0.49299231 863:0.49299231 864:0.1011523 865:0.3164846 866:0.64271218 867:0.64271218 868:0.049223371 869:0 870:0.1106307 871:0.1341287 872:0.060236041 873:0.17601641 874:0 875:0.043242231 876:0.59719843 877:0.59719843 878:0.52808642 879:0 880:0 881:0 882:0 883:0 884:0 885:0.70461559 886:0.70461559 887:0 888:0 889:0 890:0 891:0 892:0 893:0 894:0.70063549 895:0.70063549 896:0.1059517 897:0 898:0 899:0 900:0 901:0 902:0 903:0.61796403 904:0.61796403 905:0.3966755 906:0.1041795 907:0.05476765 908:0.2426244 909:0 910:0.03314675 911:0.38285381 912:0.53066802 913:0.53066802 914:0.53066802 915:0.042274751 916:0 917:0 918:0.020300619 919:0.028499391 920:0.041032881 921:0.2252987 922:0.2096874 923:0.49728921 924:0.39383671 925:0.49728921 926:0.49728921 927:0.028499391 928:0.0047146338 929:0.24327929 930:0.39864251 931:0.39864251 932:0.39864251 933:0.39864251 934:0.39864251 935:0.3769353 936:0.01228367 937:0.033300519 938:0.0086790211 939:0.025970841 940:0 941:0.43671331 942:0.57640451 943:0.57640451 944:0.36888221 945:0.033300519 946:0 947:0 948:0 949:0 950:0.40543371 951:0.52338147 952:0.52338147 953:0.52338147 954:0.09280052 955:0.0027255481 956:0 957:0 958:0.34383401 959:0.47360441 960:0.47360441 961:0.47360441 962:0.4518072 963:0.0027255481 964:0.1024512 965:0 966:0 967:0.29327199 968:0.53542632 969:0.37379169 970:0.53542632 971:0.4178147 972:0.1024512 973:0.1378933 974:0.1177624 975:0.68602282 976:0.68602282 977:0 978:0 979:0 980:0 981:0.1378933 982:0 983:0.081050768 984:0.70228928 985:0.70228928 986:0 987:0 988:0 989:0 990:0 991:0 992:0 993:0.57568842 994:0.57568842 995:0.57568842 996:0 997:0 998:0 999:0 1000:0 1001:0 1002:0.50973368 1003:0.60585558 1004:0.60585558 1005:0 1006:0 1007:0 1008:0 1009:0 1010:0.098342873 1011:0.46048981 1012:0.3716453 1013:0.4958787 1014:0.4958787 1015:0.35917479 1016:0.1200299 1017:0 1018:0.066981487 1019:0.40421939 1020:0.46160501 1021:0.31342229 1022:0.2778379 1023:0.46160501 1024:0.46160501 1025:0.1090566 1026:0.03083905 1027:0.4619118 1028:0.4619118 1029:0.4619118 1030:0.335215 1031:0.2088106 1032:0 1033:0 1034:0 1035:0.4464612 1036:0.37179869 1037:0.61460268 1038:0.61460268 1039:0.2224808 1040:0.01692841 1041:0.03985738 1042:0.15260281 1043:0.1558314 1044:0.034817152 1045:0.17325629 1046:0.1170894 1047:0.2584267 1048:0.05255498 1049:0.60802358 1050:0.60802358 1051:0.3375324 1052:0.0089651272 1053:0.16511001 1054:0.3993493 1055:0.3993493 1056:0.1045595 1057:0.3993493 1058:0.3993493 1059:0.044374239 1060:0.3993493 1061:0.1619553 1062:0.3993493 1063:0.47166741 1064:0.078110807 1065:0.00086138363 1066:0.3120254 1067:0.47166741 1068:0.47166741 1069:0 1070:0.04411776 1071:0.47166741 1072:0.40159851 1073:0 1074:0.26329419 1075:0.2318303 1076:0.40159851 1077:0.25789961 1078:0.40159851 1079:0.40159851 1080:0.40159851 1081:0.038375929 1082:0 1083:0.39418739 1084:0.80946648 1085:0.42232281 1086:0 1087:0 1088:0 1089:0.038375929 1090:0 1091:0 1092:0.70451158 1093:0.70451158 1094:0.01714474 1095:0 1096:0 1097:0 1098:0 1099:0.4609099 1100:0.01244975 1101:0.4609099 1102:0.4512085 1103:0.2195603 1104:0.32531279 1105:0.01271394 1106:0.0118932 1107:0.4609099 1108:0.46527651 1109:0 1110:0.0025917329 1111:0.20359799 1112:0.59329093 1113:0.032782789 1114:0.1762723 1115:0 1116:0.59329093 1117:0.42813841 1118:0.050256781 1119:0.4057312 1120:0.46135041 1121:0.46135041 1122:0.01483478 1123:0.0072524641 1124:0.078360938 1125:0.46135041 1126:0.47476441 1127:0.47476441 1128:0.47476441 1129:0.47476441 1130:0.061394852 1131:0.086304054 1132:0 1133:0.0042840592 1134:0.28708321 1135:0.44590431 1136:0.44590431 1137:0.44590431 1138:0.44590431 1139:0.02968291 1140:0 1141:0.01123694 1142:0.019625651 1143:0.44590431 1144:0.36836889 1145:0.36836889 1146:0.1813302 1147:0.36836889 1148:0.22241651 1149:0.36836889 1150:0.36836889 1151:0.3595171 1152:0.32594389 1153:0.2243609 1154:0.5609076 1155:0.2853215 1156:0.30986631 1157:0.5609076 1158:0.3648403 1159:0.059195761 1160:0.028025391 1161:0.00170807 1162:0.21787509 1163:0.32203299 1164:0.32633829 1165:0.1833259 1166:0.4942193 1167:0.1417654 1168:0.050251581 1169:0.43892589 1170:0.4942193 1171:0.4887968 1172:0.092467323 1173:0 1174:0.4887968 1175:0.1183455 1176:0.036597051 1177:0.1246337 1178:0.4887968 1179:0.4887968 1180:0.4260931 1181:0.095668212 1182:0.3355298 1183:0.1007504 1184:0.34315059 1185:0.27582851 1186:0.4260931 1187:0.35406339 1188:0.4260931 1189:0.003934822 1190:0 1191:0.57567948 1192:0.57567948 1193:0.57567948 1194:0 1195:0 1196:0 1197:0.003934822 1198:0.02054647 1199:0.50230432 1200:0.50230432 1201:0.48183209 1202:0.50230432 1203:0.071051247 1204:0 1205:0 1206:0.02054647 1207:0.39326009 1208:0.39326009 1209:0.39326009 1210:0.1769127 1211:0.39326009 1212:0 1213:0.1922145 1214:0.39314041 1215:0.39326009 1216:0.43363851 1217:0.43363851 1218:0 1219:0 1220:0.30012149 1221:0 1222:0.3916961 1223:0.43363851 1224:0.43363851 1225:0.51530027 1226:0.36054409 1227:0.2069779 1228:0 1229:0.51530027 1230:0 1231:0.05070281 1232:0.1511544 1233:0.51530027 1234:0.47216019 1235:0.47216019 1236:0.30356219 1237:0 1238:0.47216019 1239:0 1240:0 1241:0.1067373 1242:0.47216019 1243:0.41477439 1244:0.003459726 1245:0 1246:0 1247:0.41477439 1248:0.36831471 1249:0.41477439 1250:0.41477439 1251:0.41477439 1252:0.034395762 1253:0.092734568 1254:0.2774961 1255:0.231462 1256:0.64955157 1257:0.64955157 1258:0.062817663 1259:0.061604839 1260:0.039721761 1261:0.28577459 1262:0.47879201 1263:0.47879201 1264:0.4620885 1265:0.47879201 1266:0 1267:0.036711998 1268:0.05117863 1269:0.091282167 1270:0.40117991 1271:0.40117991 1272:0.40117991 1273:0.1999044 1274:0.40117991 1275:0.40117991 1276:0.1016804 1277:0 1278:0.3754535 1279:0.53667158 1280:0.075508587 1281:0.032069139 1282:0.45071959 1283:0.61972582 1284:0.037001781 1285:0.037161261 1286:0.01272723 1287:0.33006921 1288:0.18087929 1289:0 1290:0.068530977 1291:0.25322309 1292:0.55906028 1293:0.47716299 1294:0.085924119 1295:0.55906028 1296:0.18087929 #
-0.004788321265192466 1:0.41213861 2:0.41213861 3:0 4:0 5:0.41213861 6:0.41213861 7:0.2599467 8:0.41213861 9:0.2811043 10:0.27342871 11:0.4718478 12:0.4718478 13:0.4718478 14:0.2553938 15:0.19550949 16:0 17:0.067004293 18:0.3803463 19:0.17464671 20:0.25297421 21:0.42027709 22:0.42702079 23:0.42702079 24:0.30571479 25:0.413497 26:0.2409775 27:0.1933891 28:0.3990753 29:0.3990753 30:0.149681 31:0.018486571 32:0.3990753 33:0.3990753 34:0.26649591 35:0.32548681 36:0.3990753 37:0 38:0 39:0 40:0 41:0.046274159 42:0.20784371 43:0.67920512 44:0.67920512 45:0.1588712 46:0.03550794 47:0.32442999 48:0.39099431 49:0.15141711 50:0.39099431 51:0.39099431 52:0.39099431 53:0.31979471 54:0.39099431 55:0.040474441 56:0 57:0.39500901 58:0.41991431 59:0.41991431 60:0.27681181 61:0.41991431 62:0.41991431 63:0.2370616 64:0.3772516 65:0.3772516 66:0.3772516 67:0 68:0.3772516 69:0.3772516 70:0.3772516 71:0 72:0.3772516 73:0.45384711 74:0.2025301 75:0.45384711 76:0.45384711 77:0.091168001 78:0.2408303 79:0.252343 80:0.023489401 81:0.45384711 82:0.3634533 83:0.38525939 84:0.3019537 85:0.3017984 86:0.1235461 87:0.39681789 88:0.07985232 89:0.32350951 90:0.49847481 91:0.372655 92:0.25561509 93:0.4331744 94:0.1353713 95:0.3437832 96:0.4331744 97:0.4331744 98:0.2702961 99:0.13773081 100:0.38936019 101:0.38936019 102:0.2980307 103:0.38936019 104:0.38936019 105:0.1247449 106:0.30763951 107:0.1976814 108:0.38936019 109:0.446031 110:0.446031 111:0.27349651 112:0.446031 113:0.2936925 114:0.446031 115:0.044382472 116:0.083058372 117:0.1727594 118:0.32018691 119:0.2105352 120:0.30692169 121:0.13701171 122:0.1713272 123:0.1971986 124:0.47160411 125:0.47160411 126:0.47160411 127:0.0092858309 128:0.0055615311 129:0.34649321 130:0.46643099 131:0.46643099 132:0.30128789 133:0.46643099 134:0.36291531 135:0.003283527 136:0.32883981 137:0.2414019 138:0.49053529 139:0.27712139 140:0.49053529 141:0.49053529 142:0.01439775 143:0.090791114 144:0.1468631 145:0.32637879 146:0.32769409 147:0.039040171 148:0.39216569 149:0.39216569 150:0.1080835 151:0.39216569 152:0.39216569 153:0.39216569 154:0.43157649 155:0.43157649 156:0.43157649 157:0 158:0.056689229 159:0.1193803 160:0.2166387 161:0.43157649 162:0.43157649 163:0.39649889 164:0.39649889 165:0.2026207 166:0.39649889 167:0.39649889 168:0.39649889 169:0.1082383 170:0 171:0.39649889 172:0.49359721 173:0.49359721 174:0.070693024 175:0.024816761 176:0.098053917 177:0.056212541 178:0.046148591 179:0.49359721 180:0.49359721 181:0.40240729 182:0 183:0.2256494 184:0.31275481 185:0.40240729 186:0.366124 187:0.40240729 188:0.25587761 189:0.40240729 190:0.3951802 191:0.3951802 192:0.2028193 193:0.0086191138 194:0.3951802 195:0.3951802 196:0.3951802 197:0.133559 198:0.3951802 199:0.42673361 200:0.14087281 201:0.20936389 202:0.14680161 203:0 204:0.42673361 205:0.42673361 206:0.42673361 207:0.42673361 208:0.37398449 209:0.085821442 210:0.099232636 211:0.37398449 212:0.37398449 213:0.37398449 214:0.37398449 215:0.37398449 216:0.37398449 217:0.3725563 218:0.3725563 219:0.3725563 220:0.3725563 221:0.18793979 222:0.3725563 223:0.046646859 224:0.35495281 225:0.3725563 226:0.55339599 227:0.55339599 228:0.2256303 229:0.04656123 230:0.070573948 231:0.1233816 232:0.0077283969 233:0.04890598 234:0.55339599 235:0.081589058 236:0.4254795 237:0.15521289 238:0.44247311 239:0.44247311 240:0.44247311 241:0.44247311 242:0.025577979 243:0.0039358381 244:0.362178 245:0.23330081 246:0.44322321 247:0.35091281 248:0.44322321 249:0.07084918 250:0.44322321 251:0.23924799 252:0.18769941 253:0.02106284 254:0.13428479 255:0.3270627 256:0.38095239 257:0.38095239 258:0.38095239 259:0.38095239 260:0.38095239 261:0.38095239 262:0.065016821 263:0.42366549 264:0.42366549 265:0.07791575 266:0.090403132 267:0.42366549 268:0.2825509 269:0.42366549 270:0.42366549 271:0.4377906 272:0.17019521 273:0.4377906 274:0.36749119 275:0 276:0.1387604 277:0.2138073 278:0.4377906 279:0.4377906 280:0.1585421 281:0 282:0 283:0.44956169 284:0.44956169 285:0.37106121 286:0.1557717 287:0.44956169 288:0.44956169 289:0.48903719 290:0.1689449 291:0.0150843 292:0.034075029 293:0.085932508 294:0.0342158 295:0.48903719 296:0.48903719 297:0.48903719 298:0.4945868 299:0.1157948 300:0.0019973761 301:0.0164083 302:0.00494604 303:0.05375452 304:0.4945868 305:0.4945868 306:0.4945868 307:0.4870064 308:0.4870064 309:0.002477214 310:0.18203101 311:0.067710914 312:0.093089119 313:0.006575597 314:0.4870064 315:0.4870064 316:0.62631923 317:0.099044718 318:0.076477639 319:0.002587006 320:0.00065730902 321:0.063167483 322:0.43528911 323:0.0079060635 324:0.62631923 325:0.38193581 326:0.38193581 327:0.38193581 328:0.1233551 329:0.38193581 330:0.32473111 331:0.016369579 332:0.38193581 333:0.38193581 334:0.28705421 335:0.04169172 336:0.088408917 337:0.42360589 338:0.1045893 339:0.3343074 340:0.44774649 341:0.44774649 342:0.44774649 343:0.01136134 344:0.17141481 345:0.4283841 346:0.4283841 347:0.4283841 348:0.4283841 349:0.35156539 350:0.32944301 351:0.005096382 352:0 353:0.41030011 354:0.41030011 355:0.040881582 356:0.092745617 357:0.37933829 358:0.41030011 359:0.41030011 360:0.41030011 361:0.070092179 362:0.45669061 363:0.13203479 364:0.1015717 365:0.45669061 366:0.1862181 367:0.30632141 368:0.45669061 369:0.45669061 370:0 371:0 372:0 373:0 374:0 375:0 376:0.1420722 377:0.69744289 378:0.69744289 379:0 380:0 381:0 382:0 383:0 384:0.0115872 385:0.1218818 386:0.699296 387:0.699296 388:0.51374269 389:0 390:0 391:0 392:0.1184479 393:0.1324487 394:0.41412801 395:0.51374269 396:0.51374269 397:0.36433119 398:0.1179386 399:0.0091130165 400:0 401:0.071171701 402:0.4592433 403:0.4592433 404:0.4592433 405:0.4592433 406:0.26288521 407:0.48586941 408:0.48586941 409:0.48586941 410:0.12614711 411:0.09448605 412:0.25303769 413:0.35712469 414:0.037742712 415:0.05618095 416:0.37558541 417:0.37558541 418:0.32553461 419:0.37558541 420:0.37558541 421:0.37558541 422:0.37558541 423:0.2018223 424:0.3986932 425:0.018185901 426:0.1552781 427:0.39091331 428:0.2805247 429:0.32286659 430:0.3986932 431:0.3986932 432:0.3986932 433:0.26712111 434:0.042565309 435:0 436:0.41233569 437:0.4102619 438:0.42340159 439:0.21555211 440:0.42340159 441:0.42340159 442:0.1076645 443:0.36861491 444:0.3956055 445:0.3956055 446:0.3956055 447:0.3956055 448:0.3956055 449:0.25667581 450:0.01334213 451:0.45740649 452:0.2777077 453:0.45740649 454:0.2371503 455:0.05646586 456:0.45740649 457:0.45740649 458:0.069167353 459:0.1312027 460:0.3708367 461:0 462:0.1230876 463:0.39800179 464:0.2265539 465:0.39800179 466:0.39800179 467:0.39800179 468:0.39800179 469:0 470:0.1224543 471:0.03545735 472:0.069283418 473:0.493462 474:0.493462 475:0.493462 476:0.493462 477:0.0001104929 478:0.37990159 479:0.37990159 480:0.37990159 481:0.27093819 482:0.37990159 483:0.04477869 484:0.2745409 485:0.37990159 486:0.3518424 487:8.09454e-005 488:0 489:0 490:0 491:0 492:0 493:0.6534217 494:0.6534217 495:0.3735728 496:0 497:0 498:0 499:0 500:0 501:0 502:0.28147769 503:0.67602569 504:0.67602569 505:0.02081085 506:0 507:0.047060721 508:0.003386284 509:0 510:0.0043829479 511:0.1096475 512:0.69939882 513:0.69939882 514:0.14381871 515:0.059667129 516:0.034501601 517:0.086048461 518:0.0042106751 519:0.02447094 520:0.2841942 521:0.66300797 522:0.66300797 523:0.18724629 524:0.01959634 525:0.00071401929 526:0.0047277431 527:0 528:0.49348629 529:0.49348629 530:0.49348629 531:0.4785572 532:0.45747921 533:0.45747921 534:0.41034159 535:0.45747921 536:0.1178933 537:0.27348089 538:0.09272819 539:0.044069599 540:0.31616011 541:0.086736672 542:0.16399591 543:0.4233869 544:0.084978722 545:0.45718619 546:0.326011 547:0.45718619 548:0.2347829 549:0.44169319 550:0.41635379 551:0.41635379 552:0.41635379 553:0.41635379 554:0.33870739 555:0.0107745 556:0.066997647 557:0.098798797 558:0.41635379 559:0.038713891 560:0.018188169 561:0.072340198 562:0.44455701 563:0.44455701 564:0.018488999 565:0.44455701 566:0.44455701 567:0.44455701 568:0.44971341 569:0.1034252 570:0.15191349 571:0.44971341 572:0.44971341 573:0.33611119 574:0.19930691 575:0.0084134899 576:0.44971341 577:0.054699041 578:0.208722 579:0.37351909 580:0.37351909 581:0.37351909 582:0.37351909 583:0.37351909 584:0.37351909 585:0.33557799 586:0.66589671 587:0 588:0.001764092 589:0.0073351669 590:0.085912362 591:0.086015657 592:0.066764899 593:0.2953327 594:0.66589671 595:0.62771243 596:0.062304281 597:0.26482841 598:0.017979439 599:0 600:0.31223419 601:0.1801118 602:0.03764632 603:0.62771243 604:0.43244961 605:0.1742975 606:0.082338013 607:0.0497672 608:0.43244961 609:0.43244961 610:0.43244961 611:0.43244961 612:0.1448476 613:0.070754997 614:0 615:0 616:0 617:0 618:0 619:0.0049874508 620:0.70283449 621:0.70283449 622:0.2262409 623:0 624:0 625:0 626:0 627:0 628:0 629:0.68628132 630:0.68628132 631:0.036811151 632:0 633:0.017081279 634:0.1262408 635:0.1175588 636:0.042652741 637:0.1769589 638:0.68141758 639:0.68141758 640:0.44200349 641:0 642:0 643:0.006777423 644:0.1367605 645:0.44200349 646:0.44200349 647:0.44200349 648:0.44200349 649:0.41172051 650:0.087837256 651:0.43442181 652:0.27675971 653:0.27680781 654:0.43442181 655:0.3139407 656:0.022070169 657:0.43442181 658:0 659:0.338714 660:0.53802282 661:0.53802282 662:0.53802282 663:0.093969837 664:0.032107949 665:0.01940267 666:0.03544664 667:0.38254249 668:0.38254249 669:0.38254249 670:0.30757701 671:0.38254249 672:0.38254249 673:0.1983061 674:0.311977 675:0.1822802 676:0.40377691 677:0.40377691 678:0.40377691 679:0.40377691 680:0.40377691 681:0 682:0.34460121 683:0.1970219 684:0.15238041 685:0.1263046 686:0.2877501 687:0.5044207 688:0.5044207 689:0.5044207 690:0.36342061 691:0.02706226 692:0.0090437299 693:0 694:0.19054151 695:0.0060111908 696:0.1024628 697:0.04730152 698:0.48662639 699:0.48662639 700:0.45768559 701:0.48662639 702:0.1617706 703:0.44327199 704:0.1961658 705:0 706:0.15744931 707:0.2013295 708:0.44327199 709:0.44327199 710:0.32528031 711:0.44327199 712:0 713:0.1976243 714:0.53565538 715:0.53565538 716:0.53565538 717:0.28563771 718:0.1150062 719:0 720:0 721:0.47869021 722:0.47869021 723:0.2030194 724:0.47869021 725:0.47869021 726:0.02934657 727:0.01434705 728:0 729:0.19067711 730:0.0085912365 731:0.2152041 732:0.4902792 733:0.4441545 734:0.4902792 735:0.4902792 736:0.1182738 737:0.001120272 738:0.1277979 739:0 740:0.15734351 741:0.49665451 742:0.49665451 743:0.49665451 744:0.46647471 745:0.10721 746:0.03454075 747:0 748:0.1467458 749:0 750:0 751:0.59350032 752:0.59350032 753:0.45018241 754:0.2094171 755:0 756:0.1467458 757:0.1012639 758:0 759:0 760:0.66277349 761:0.66277349 762:0.086346649 763:0 764:0.0069409208 765:0.31158841 766:0.45632839 767:0.45632839 768:0.45632839 769:0.37358451 770:0.03094957 771:0.4125191 772:0.06230161 773:0.1193632 774:0.2047216 775:0.38214931 776:0.38214931 777:0.38214931 778:0.38214931 779:0.048478879 780:0.1071719 781:0.38214931 782:0.38214931 783:0.325757 784:0.43785411 785:0.099007867 786:0.1158149 787:0.43785411 788:0.43785411 789:0.43785411 790:0.43785411 791:0.05461492 792:0.1041493 793:0.068743467 794:0.46138829 795:0.29320061 796:0.1669423 797:0.3292197 798:0.2408095 799:0.26798719 800:0.46138829 801:0.46138829 802:0.43059689 803:0.1248666 804:0.29843941 805:0.43059689 806:0 807:0.0034771641 808:0.43059689 809:0.38648969 810:0.43059689 811:0.44720539 812:0.071081653 813:0.02863998 814:0.3011868 815:0.44720539 816:0.44720539 817:0.44720539 818:0 819:0.31460449 820:0.0082753506 821:0.1353205 822:0.2905024 823:0.47076479 824:0.47076479 825:0.47076479 826:0.47076479 827:0.077328026 828:0.0082753506 829:0.4962588 830:0.4962588 831:0.4962588 832:0.4962588 833:0 834:0.017957671 835:0.047357529 836:0 837:0.085947677 838:0.1081661 839:0.59763229 840:0.59763229 841:0.45765951 842:0 843:0 844:0 845:0 846:0.24197461 847:0 848:0.65899462 849:0.65899462 850:0.34667289 851:0.068493441 852:0 853:0 854:0 855:0 856:0.49645731 857:0.2448767 858:0.49645731 859:0.49645731 860:0 861:0 862:0 863:0 864:0.44234309 865:0.077543803 866:0 867:0 868:0.3315008 869:0.52113068 870:0.52113068 871:0.52113068 872:0.1978634 873:0.1581405 874:0.01086717 875:0 876:0.1180582 877:0.47131091 878:0.20076729 879:0.46590981 880:0.47131091 881:0.47131091 882:0.2396979 883:0.037703861 884:0.4893584 885:0.1797678 886:0.42615569 887:0.23994049 888:0.4893584 889:0.4893584 890:0.061476871 891:0 892:0.0093335146 893:0.003405585 894:0.1129534 895:0.054288398 896:0.4928709 897:0.4928709 898:0.4928709 899:0.4928709 900:0.087098733 901:0.1673716 902:0.13500831 903:0.41190001 904:0.41190001 905:0.41190001 906:0.41190001 907:0.41190001 908:0.08434958 909:0.3069557 910:0.4334093 911:0.4334093 912:0.4334093 913:0.1822568 914:0.4334093 915:0.41567439 916:0.1498237 917:0.1158364 918:0.049276799 919:0.4105061 920:0.0048985411 921:0.037938312 922:0.2055029 923:0.4105061 924:0.4105061 925:0.33110139 926:0.4105061 927:0.4105061 928:0.1414219 929:0.089889593 930:0.079273097 931:0.2115849 932:0.1838284 933:0.14331961 934:0.6494931 935:0.6494931 936:0.1279337 937:0.54574561 938:0.54574561 939:0.28807199 940:0.02738582 941:0 942:0.01877735 943:0.12822761 944:0.02247485 945:0.54574561 946:0.57098639 947:0.57098639 948:0.1100484 949:0.41988569 950:0.231849 951:0.31011379 952:0.02076176 953:0.057741251 954:0.01196461 955:0.45568699 956:0.45568699 957:0.45568699 958:0.45568699 959:0.1190204 960:0.03667587 961:0.045421511 962:0.38367891 963:0.0078979917 964:0.41652009 965:0.491 966:0.491 967:0.01538918 968:0.0063211611 969:0.008227325 970:0.1404164 971:0.491 972:0.27982631 973:0.075071208 974:0.033678759 975:0.37513229 976:0.4464131 977:0.4464131 978:0.4464131 979:0.4464131 980:0.218887 981:0.054738179 982:0.04855584 983:0.46891409 984:0.1674796 985:0.46891409 986:0.46891409 987:0.46891409 988:0.29036221 989:0.032820608 990:0 991:0.3428621 992:0.23207121 993:0.1039403 994:0.2825852 995:0.058935709 996:0.4403086 997:0.4403086 998:0.4403086 999:0.3852843 1000:0.37751919 1001:0.37751919 1002:0.37751919 1003:0.19519921 1004:0.2863031 1005:0.37751919 1006:0.37751919 1007:0.1450229 1008:0.37751919 1009:0.43271691 1010:0.3184219 1011:0.27420989 1012:0.084838361 1013:0.0554934 1014:0.35118479 1015:0.43271691 1016:0.35178739 1017:0.43271691 1018:0.41420871 1019:0.4099533 1020:0.25537831 1021:0 1022:0.25954279 1023:0.41420871 1024:0.094576307 1025:0.41420871 1026:0.41420871 1027:0.22234081 1028:0.099453308 1029:0.47461051 1030:0.47461051 1031:0.47461051 1032:0.1860517 1033:0.47461051 1034:0.011849 1035:0.01252602 1036:0.1833905 1037:0.1672951 1038:0.21750569 1039:0.04125433 1040:0.41181621 1041:0.44406521 1042:0.35179511 1043:0.44406521 1044:0.44406521 1045:0.14711601 1046:0.3466191 1047:0.43317601 1048:0.2660934 1049:0.43317601 1050:0.1784085 1051:0.43317601 1052:0.43317601 1053:0.02615403 1054:0.36278951 1055:0.1099527 1056:0.03695745 1057:0.46885061 1058:0.46885061 1059:0.27652851 1060:0.46885061 1061:0.1603871 1062:0.2976419 1063:0.25296989 1064:0.1251979 1065:0.45138389 1066:0.45138389 1067:0.2391236 1068:0.15272281 1069:0.1425795 1070:0.45138389 1071:0.45138389 1072:0.410009 1073:0.30116171 1074:0.410009 1075:0.185343 1076:0.32721791 1077:0.410009 1078:0.1160831 1079:0.27906531 1080:0.410009 1081:0.51776677 1082:0.1405084 1083:0.199799 1084:0.2232382 1085:0.51776677 1086:0.2736364 1087:0 1088:0.078786969 1089:0.51776677 1090:0 1091:0.23615339 1092:0.50607371 1093:0.50607371 1094:0.3986333 1095:0.50607371 1096:0.06454055 1097:0.088129327 1098:0.002137132 1099:0.038697861 1100:0.001389472 1101:0.60629398 1102:0.60629398 1103:0.40201789 1104:0.056104328 1105:0.0022891271 1106:0.1522918 1107:0.26324531 1108:0.3386924 1109:0.3386924 1110:0.3386924 1111:0.3386924 1112:0.3386924 1113:0.28091961 1114:0.3386924 1115:0.3386924 1116:0.3386924 1117:0.1632763 1118:0.034311891 1119:0.00028745961 1120:0 1121:0.54007638 1122:0.2843504 1123:0.54007638 1124:0.54007638 1125:0.1042476 1126:0.27143601 1127:0.3860389 1128:0.3860389 1129:0.3860389 1130:0.35863081 1131:0.2032768 1132:0.3860389 1133:0.086013503 1134:0.3860389 1135:0.40546519 1136:0.22476339 1137:0 1138:0.1086269 1139:0.33409739 1140:0.40546519 1141:0.40546519 1142:0.40546519 1143:0.40546519 1144:0.43939051 1145:0.43939051 1146:0.43939051 1147:0.43939051 1148:0.43939051 1149:0.15806779 1150:0.022947241 1151:0.069124989 1152:0.00061711122 1153:0.37803301 1154:0.3718802 1155:0.37803301 1156:0.25641039 1157:0.37228119 1158:0.37803301 1159:0.27766901 1160:0.069663607 1161:0.37803301 1162:0.375007 1163:0.0065798801 1164:0.1086208 1165:0.375007 1166:0.375007 1167:0.375007 1168:0.375007 1169:0.375007 1170:0.375007 1171:0.2016833 1172:0.03178421 1173:0.41958731 1174:0.098669127 1175:0.41958731 1176:0.41958731 1177:0.41958731 1178:0.41958731 1179:0.25321749 1180:0.41654709 1181:0.1600218 1182:0.021807769 1183:0.41654709 1184:0.41654709 1185:0.3160021 1186:0.41654709 1187:0.04838651 1188:0.41654709 1189:0.33796161 1190:0.005130501 1191:0 1192:0 1193:0.2412598 1194:0 1195:0.52355218 1196:0.52355218 1197:0.52355218 1198:0.051613979 1199:0 1200:0 1201:0 1202:0.68944359 1203:0.68944359 1204:0.0063062022 1205:0.0020253561 1206:0.1993603 1207:0 1208:0.056152511 1209:0.37665519 1210:0.37665519 1211:0.37665519 1212:0.37665519 1213:0.37665519 1214:0.37665519 1215:0.37665519 1216:0.02897484 1217:0.1576108 1218:0.34701589 1219:0.50142348 1220:0.50142348 1221:0.070154227 1222:0.29017439 1223:0.50142348 1224:0.074108467 1225:0 1226:0 1227:0.0085433582 1228:0.04480578 1229:0.51423091 1230:0.51423091 1231:0.51423091 1232:0.25428101 1233:0.36718491 1234:0.26960009 1235:0.39087781 1236:0.27565071 1237:0.28085691 1238:0.39087781 1239:0.31966859 1240:0.39087781 1241:0.39087781 1242:0.2349827 1243:0.415784 1244:0.415784 1245:0 1246:0.12935621 1247:0.415784 1248:0.060679991 1249:0.33324131 1250:0.415784 1251:0.415784 1252:0.19037721 1253:0.42092389 1254:0.21392541 1255:0.42092389 1256:0.42092389 1257:0.0075627258 1258:0.1668703 1259:0.42092389 1260:0.42092389 1261:0.47029099 1262:0.47029099 1263:0.47029099 1264:0.3077822 1265:0.4588159 1266:0.023752891 1267:0.041194659 1268:0 1269:0.155816 1270:0.44014931 1271:0.016480271 1272:0.274643 1273:0.15804771 1274:0.44014931 1275:0.39387491 1276:0.44014931 1277:0.32391801 1278:0.2316664 1279:0.38135731 1280:0 1281:0.39292151 1282:0.39292151 1283:0.39292151 1284:0.39292151 1285:0.052560329 1286:0.27557659 1287:0.39292151 1288:0.4060666 1289:0.2231762 1290:0.4060666 1291:0.32948181 1292:0.4060666 1293:0.1145744 1294:0.4060666 1295:0 1296:0.4060666 #
