SVM-light Version V6.02
0 # kernel type
3 # kernel parameter -d 
1 # kernel parameter -g 
1 # kernel parameter -s 
1 # kernel parameter -r 
empty# kernel parameter -u 
1296 # highest feature index 
885 # number of training documents 
156 # number of support vectors plus 1 
-0.20428411 # threshold b, each following line is a SV (starting with alpha*y)
-0.0056079260362651229 1:0.4597778 2:0.4597778 3:0.4482635 4:0 5:0.088940538 6:0 7:0.3670103 8:0.4597778 9:0.13294201 10:0.54610229 11:0.20562831 12:0 13:0.02706434 14:0.35428029 15:0.001704654 16:0.057782128 17:0.47562531 18:0.54610229 19:0.41174391 20:0.22223841 21:0.41174391 22:0.25345269 23:0.18599311 24:0.41174391 25:0.41174391 26:0 27:0.41174391 28:0.4456529 29:0.01210214 30:0.044006079 31:0.02080523 32:0.4456529 33:0.4456529 34:0 35:0.4456529 36:0.4456529 37:0.4933264 38:0.3585712 39:0.036824889 40:0.4933264 41:0.1137227 42:0.02025976 43:0.26204029 44:0.2302653 45:0.4933264 46:0.58637798 47:0.4611198 48:0.2661109 49:0.034027699 50:0.049694959 51:0 52:0 53:0.1392566 54:0.58637798 55:0.43112361 56:0.42747289 57:0.089012168 58:0 59:0.37307349 60:0.43112361 61:0 62:0.32901481 63:0.43112361 64:0.5695591 65:0.2181862 66:0 67:0.3269631 68:0.4278748 69:0 70:0 71:0.08905232 72:0.5695591 73:0.3818388 74:0.3818388 75:0.3818388 76:0.3818388 77:0.1362254 78:0.30134201 79:0.1096169 80:0.3818388 81:0.3818388 82:0.4522447 83:0.4522447 84:0.02560888 85:0.026835971 86:0.1671038 87:0.4522447 88:0.4522447 89:0.28961021 90:0.25339279 91:0.35911599 92:0.35911599 93:0.23724981 94:0.35911599 95:0.35911599 96:0.35911599 97:0.35911599 98:0.1933243 99:0.35911599 100:0.42218381 101:0 102:0 103:0 104:0.42218381 105:0.42218381 106:0.32339901 107:0.42218381 108:0.42218381 109:0.39848629 110:0.38318309 111:0.40752161 112:0.40752161 113:0.40752161 114:0.28994691 115:0.098424211 116:0 117:0.31357649 118:0.41193351 119:0.16132841 120:0.41193351 121:0.41193351 122:0.24880929 123:0.41193351 124:0.2222449 125:0.30112651 126:0.29853851 127:0.44816709 128:0.2182615 129:0.073196746 130:0.17479201 131:0.44816709 132:0.44816709 133:0.3465361 134:0.00026182341 135:0.43511689 136:0.072454207 137:0 138:0 139:0.0060667568 140:0.44503221 141:0.44503221 142:0.44503221 143:0.44503221 144:0.44503221 145:0.49575019 146:0.33050671 147:0.0384476 148:0.1619219 149:0.49575019 150:0.27815169 151:0.02328055 152:0.2071276 153:0.49575019 154:0.4339585 155:0.31348541 156:0.4339585 157:0.37722009 158:0 159:0.050215252 160:0.17665911 161:0.3954834 162:0.4339585 163:0.26003009 164:0.1353707 165:0.029384051 166:0.0991733 167:0.4690679 168:0.4690679 169:0.4690679 170:0.13629469 171:0.4690679 172:0.4653123 173:0.4653123 174:0.29322791 175:0.4653123 176:0.4653123 177:0.1414261 178:0.023731809 179:0.1054658 180:0.1077964 181:0.35827509 182:0.0100169 183:0.0087165693 184:0 185:0.454725 186:0.454725 187:0.4120222 188:0.27718869 189:0.454725 190:0.4099158 191:0.4099158 192:0.4099158 193:0.35370839 194:0.38674411 195:0.2102605 196:0.03550081 197:0.060254171 198:0.4099158 199:0.47286171 200:0.035132769 201:0.096004568 202:0.47286171 203:0.47286171 204:0.47286171 205:0.068776362 206:0.056931019 207:0.28716111 208:0.4330079 209:0.1413337 210:0 211:0.3328566 212:0.4330079 213:0.3373903 214:0.4330079 215:0.033021688 216:0.4330079 217:0.055677969 218:0.38854471 219:0.38854471 220:0.38854471 221:0.2316315 222:0.38854471 223:0.38854471 224:0.38854471 225:0.1832031 226:0.1535304 227:0.46748409 228:0.46748409 229:0.38495311 230:0.21973141 231:0.1512455 232:0.46748409 233:0.1391432 234:0.27825889 235:0.44285461 236:0.44285461 237:0.44285461 238:0.1222788 239:0.0048053209 240:0 241:0 242:0.44285461 243:0.44285461 244:0.56203967 245:0.56203967 246:0.1674065 247:0.1236237 248:0 249:0.036807422 250:0.045377381 251:0.00025132371 252:0.56203967 253:0.58462071 254:0.4831768 255:0.024597039 256:0 257:0 258:0 259:0.0076465691 260:0.27654371 261:0.58462071 262:0.69248849 263:0.084597386 264:0.01795014 265:0.05662135 266:0.0055460669 267:0.098030828 268:0.020701921 269:0.115118 270:0.69248849 271:0.46570161 272:0.084890321 273:0.071605921 274:0.46570161 275:0.2714394 276:0.1053741 277:0.46570161 278:0.1752705 279:0.46570161 280:0.6922279 281:0.06160064 282:0.1523279 283:0.065008737 284:0 285:0 286:0.05420367 287:0.02383746 288:0.6922279 289:0.60532051 290:0.41613081 291:0.0091598723 292:0 293:0.229975 294:0.1345195 295:0.0028154519 296:0.1299597 297:0.60532051 298:0.63498402 299:0.39097399 300:0.00217402 301:0.01466413 302:0.0062282528 303:0.1257282 304:0.01138114 305:0.1348878 306:0.63498402 307:0.6037969 308:0.1516941 309:0.31444469 310:0.2251942 311:0.085427172 312:0.01084884 313:0 314:0.29123059 315:0.6037969 316:0.56031013 317:0.05679075 318:0 319:0 320:0.1335088 321:0.1380356 322:0.1116205 323:0.56031013 324:0.56031013 325:0.1450077 326:0.045239929 327:0.23577569 328:0.074900702 329:0.45491651 330:0.45491651 331:0.45491651 332:0.45491651 333:0.28876609 334:0.45000589 335:0.46944749 336:0.46944749 337:0.30954841 338:0.058937822 339:0.1798276 340:0.0055754152 341:0 342:0.46944749 343:0.51214367 344:0.0058082589 345:0.056541011 346:0 347:0.35037279 348:0.0087522026 349:0.28625739 350:0.51214367 351:0.51214367 352:0.4122729 353:0.4122729 354:0.40333039 355:0.21265811 356:0.090082593 357:0.2840113 358:0.13903099 359:0.4122729 360:0.4122729 361:0.45385301 362:0.45385301 363:0.383187 364:0 365:0 366:0.1336426 367:0.082727261 368:0.45385301 369:0.45385301 370:0.44830301 371:0.1553198 372:0 373:0 374:0 375:0.44830301 376:0.44830301 377:0.40926221 378:0.44830301 379:0.41525289 380:0.072328217 381:0.01444357 382:0.3619895 383:0.2970722 384:0.28527829 385:0.41525289 386:0.41525289 387:0.41525289 388:0.28804651 389:0.29615679 390:0.1415751 391:0.03719797 392:0.35926771 393:0.4736467 394:0.4736467 395:0.4736467 396:0.032640919 397:0.4639771 398:0.4639771 399:0 400:0 401:0.068115354 402:0.4639771 403:0.20818789 404:0.2937426 405:0.4639771 406:0.42819691 407:0.42819691 408:0.42819691 409:0.25068581 410:0.1047842 411:0.060569558 412:0.03831264 413:0.42819691 414:0.42819691 415:0.3297846 416:0.4142071 417:0.34968811 418:0.27656621 419:0 420:0.3955043 421:0.1311772 422:0.4142071 423:0.4142071 424:0.44518939 425:0.001389347 426:0.03912729 427:0.053478129 428:0.01385854 429:0.44518939 430:0.44518939 431:0.44518939 432:0.44518939 433:0.26842451 434:0.1323515 435:0.34474909 436:0.39665681 437:0.39665681 438:0.39665681 439:0.39665681 440:0.39665681 441:0.03055693 442:0.0023826109 443:0.2655451 444:0.54524487 445:0.54524487 446:0.54524487 447:0.1157678 448:0.1369554 449:0 450:0 451:0 452:0 453:0 454:0.70461559 455:0.70461559 456:0 457:0 458:0 459:0 460:0.027645661 461:0.004510168 462:0.40081149 463:0.40081149 464:0.40081149 465:0.40081149 466:0.40081149 467:0.40081149 468:0.17695241 469:0.62116373 470:0.067963868 471:0.14402831 472:0.02265024 473:0 474:0.001024298 475:0.4388766 476:0.060160629 477:0.62116373 478:0.605829 479:0.006928761 480:0.01518337 481:0 482:0.0153467 483:0.1274893 484:0.40520969 485:0.28094661 486:0.605829 487:0.05010841 488:0.40325239 489:0.40325239 490:0.1151317 491:0.31118709 492:0.40325239 493:0.26515231 494:0.40325239 495:0.40325239 496:0.4100185 497:0.4100185 498:0 499:0 500:0 501:0.4100185 502:0.4100185 503:0.4100185 504:0.394117 505:0.42291689 506:0.22809631 507:0.017974289 508:0.047855061 509:0.2164274 510:0.42291689 511:0.42291689 512:0.42291689 513:0.42291689 514:0.33941549 515:0.29583389 516:0.33941549 517:0.3204228 518:0.33941549 519:0.33941549 520:0.33941549 521:0.33941549 522:0.33941549 523:0.40551221 524:0.40551221 525:0.40551221 526:0.40551221 527:0.3290253 528:0.1941459 529:0.1200315 530:0.1157179 531:0.40551221 532:0.41003451 533:0.1357245 534:0.15744799 535:0.17856219 536:0.41003451 537:0.41003451 538:0.2831375 539:0.41003451 540:0.41003451 541:0.076740257 542:0.052471429 543:0.1976651 544:0.2140076 545:0.5120315 546:0.5120315 547:0.30798551 548:0.5120315 549:0.14138401 550:0 551:0 552:0.31882799 553:0.66447091 554:0.66447091 555:0.093123771 556:0 557:0 558:0 559:0 560:0 561:0.063048728 562:0.70320868 563:0.70320868 564:0 565:0 566:0 567:0 568:0 569:0.26068649 570:0.1091492 571:0.003194866 572:0.62911743 573:0.62911743 574:0.33913329 575:0.045505598 576:0.071956888 577:0.47923791 578:0.20172121 579:0.06095688 580:0.48981139 581:0.48981139 582:0.01174406 583:0.01361127 584:0.03103287 585:0.48981139 586:0.41395211 587:0.41395211 588:0.36376119 589:0.0063101528 590:0.24839599 591:0.34114069 592:0 593:0.41395211 594:0.41395211 595:0.3933596 596:0.2155325 597:0.3204436 598:0.2390721 599:0.48521551 600:0.04261246 601:0.24816009 602:0.31600749 603:0.48521551 604:0.3884334 605:0.45144451 606:0.45144451 607:0.45144451 608:0.1024253 609:0.01005015 610:0.065238319 611:0.1206381 612:0.45144451 613:0.2476387 614:0.2385924 615:0.03285772 616:0.1278345 617:0.4094362 618:0.41609281 619:0.41609281 620:0.41609281 621:0.41609281 622:0.58713388 623:0.1258774 624:0.001601669 625:0 626:0.173627 627:0.2533454 628:0.1479999 629:0.4154551 630:0.58713388 631:0.093416028 632:0.03466348 633:0.46967739 634:0.46967739 635:0.3143647 636:0.031672381 637:0.46967739 638:0.46967739 639:0.056257691 640:0.43829641 641:0.099175453 642:0.43829641 643:0.43829641 644:0.43829641 645:0.06214669 646:0.14623719 647:0.0044391719 648:0.43829641 649:0.087208897 650:0.2297484 651:0.1789131 652:0.4698742 653:0.4698742 654:0.4698742 655:0.4295015 656:0.048508711 657:0.2318126 658:0 659:0.019440981 660:0.3246024 661:0.41570401 662:0.77704948 663:0.18962871 664:0.2718918 665:0 666:0 667:0 668:0 669:0 670:0.27099589 671:0.95719922 672:0.02795816 673:0 674:0 675:0 676:0.1600275 677:0.1065329 678:0.44928601 679:0.5016908 680:0.5016908 681:0.5016908 682:0.028120911 683:0.017375009 684:0 685:0.64162707 686:0.15669119 687:0.075516596 688:0.1450593 689:0.21838599 690:0.261848 691:0.042291012 692:0.029681889 693:0.64162707 694:0 695:0.04913567 696:0.094517127 697:0.65831453 698:0.65831453 699:0.33070499 700:0.073230878 701:0.02440512 702:0 703:0.33500081 704:0.08708895 705:0.02375992 706:0.39866331 707:0.39866331 708:0.39866331 709:0.39866331 710:0.28457159 711:0.39866331 712:0.0023994059 713:0.041158929 714:0.31264791 715:0.4194473 716:0.4194473 717:0.4194473 718:0.1291548 719:0.4194473 720:0.4194473 721:0.54939729 722:0.0075502619 723:0.0022608221 724:0.006172013 725:0.21120369 726:0.29221639 727:0.098863609 728:0.50096619 729:0.54939729 730:0.03547113 731:0.1301467 732:0.32713071 733:0.36162251 734:0.30591199 735:0.28303489 736:0.49027979 737:0.49027979 738:0.29100159 739:0.063024826 740:0.01179937 741:0.61902702 742:0.61902702 743:0.417909 744:0.18869659 745:0.060179301 746:0.094384387 747:0.02312701 748:0.38180241 749:0.29128289 750:0.022945881 751:0.20021591 752:0.38180241 753:0.38180241 754:0.37664509 755:0.38180241 756:0.38180241 757:0.03296721 758:0 759:0.03456644 760:0.48946679 761:0.48946679 762:0.48946679 763:0.045339189 764:0.48946679 765:0.1801752 766:0.17748611 767:0.084650859 768:0.227852 769:0.029074419 770:0.81551713 771:0.23303001 772:0.3866978 773:0.0049822992 774:0.17748611 775:0.1524089 776:0 777:0 778:0.64826638 779:0.72445428 780:0.035047349 781:0 782:0 783:0.1524089 784:0.13055681 785:0.0153333 786:0.0053322129 787:0.4977856 788:0.4977856 789:0.1267304 790:0.1346979 791:0.4977856 792:0.4473747 793:0.36927551 794:0.36235559 795:0.23252051 796:0.007739699 797:0.35925129 798:0.36927551 799:0.36927551 800:0.36927551 801:0.36927551 802:0.39198861 803:0.0068614511 804:0.39198861 805:0.2721931 806:0.0041841781 807:0.39198861 808:0.39198861 809:0.39198861 810:0.39198861 811:0.39070189 812:0.27881849 813:0.26664549 814:0.39070189 815:0.39070189 816:0.1951265 817:0.2143425 818:0.39070189 819:0.39070189 820:0.4543491 821:0.45714691 822:0.1565773 823:0.27894419 824:0.1947099 825:0.1263326 826:0.076502092 827:0.45714691 828:0.45714691 829:0.33772811 830:0.41759071 831:0.080221877 832:0.1299825 833:0.39287639 834:0.41759071 835:0.41759071 836:0.080977529 837:0.41759071 838:0.4158394 839:0.4158394 840:0.00948558 841:0.4158394 842:0.4158394 843:0.053972751 844:0.02599369 845:0.35714889 846:0.4158394 847:0.4520787 848:0.30601081 849:0.3678174 850:0.34833959 851:0.4520787 852:0.4520787 853:0.075770378 854:0.1024643 855:0.12588181 856:0.47445491 857:0.01195846 858:0.47445491 859:0.27664331 860:0.072861813 861:0.066338331 862:0.091907941 863:0.47445491 864:0.47445491 865:0.01479373 866:0.1235677 867:0.45251951 868:0.45251951 869:0.45251951 870:0.10905 871:0.2912288 872:0.45251951 873:0.2533581 874:0.45859021 875:0.45859021 876:0.45859021 877:0.1568682 878:0.089146629 879:0.1233827 880:0.45859021 881:0.30851859 882:0.1060092 883:0.019458519 884:0.43071491 885:0.43071491 886:0.43071491 887:0.35558781 888:0.20822141 889:0.097136527 890:0.27207181 891:0.43071491 892:0.37820739 893:0.2683515 894:0.42521939 895:0.31902409 896:0.30319631 897:0.42521939 898:0.42521939 899:0.1347101 900:0.1625213 901:0.3752543 902:0.3752543 903:0.3752543 904:0.1026612 905:0.3752543 906:0.3752543 907:0.001052711 908:0.3752543 909:0.3752543 910:0.2242184 911:0.41688481 912:0.41688481 913:0.003898554 914:0.41688481 915:0.41688481 916:0.41688481 917:0.1069978 918:0.25521219 919:0.54151058 920:0.15007889 921:0.069550283 922:0.001248542 923:0.00095927401 924:0 925:0.024010221 926:0.38929591 927:0.72116327 928:0.4308736 929:0.4308736 930:0.2289291 931:0.1022499 932:0.4308736 933:0.1047717 934:0.4308736 935:0.4069514 936:0.1167806 937:0.19717599 938:0.3728433 939:0.3728433 940:0.3728433 941:0.3728433 942:0.3728433 943:0.34017661 944:0.3728433 945:0.087200433 946:0.39410219 947:0.1891274 948:0.069702297 949:0.15341569 950:0.39410219 951:0.39410219 952:0.39410219 953:0.39410219 954:0.39410219 955:0.39250809 956:0.037418589 957:0.36548501 958:0.39250809 959:0.39250809 960:0.39250809 961:0.025152599 962:0.30025569 963:0.39250809 964:0.37718421 965:0.37718421 966:0.37718421 967:0.37718421 968:0.37718421 969:0.37718421 970:0 971:0.01887711 972:0.37718421 973:0.097026274 974:0.090526588 975:0.4750044 976:0.4750044 977:0.4750044 978:0.4750044 979:0.082146123 980:0.058457591 981:0.25488111 982:0.342116 983:0.19577301 984:0.37436381 985:0.37436381 986:0.37436381 987:0.37436381 988:0 989:0.37436381 990:0.37436381 991:0.42397529 992:0.34125429 993:0.086193189 994:0.36095589 995:0.42397529 996:0.42397529 997:0.14756121 998:0.028233491 999:0.42397529 1000:0.4072696 1001:0.4072696 1002:0.4072696 1003:0.33728141 1004:0.4072696 1005:0.4072696 1006:0.1266977 1007:0.16955671 1008:0.089599729 1009:0.54721558 1010:0.1401578 1011:0.1359235 1012:0 1013:0 1014:0 1015:0.54721558 1016:0.24100059 1017:0.54721558 1018:0.1448836 1019:0.059370581 1020:0.036034338 1021:0.1436616 1022:0.1076609 1023:0.08234559 1024:0.67615032 1025:0.67615032 1026:0.1186033 1027:0.57322812 1028:0.57322812 1029:0 1030:0 1031:0.02086789 1032:0.070182689 1033:0.015531 1034:0.053872328 1035:0.57322812 1036:0.42191729 1037:0.42191729 1038:0.083531648 1039:0.0054200329 1040:0.032660961 1041:0.312475 1042:0.42191729 1043:0.42191729 1044:0.42191729 1045:0.1200068 1046:0.091808751 1047:0.385158 1048:0.385158 1049:0.385158 1050:0.385158 1051:0.28851631 1052:0.385158 1053:0.385158 1054:0.40473059 1055:0.40473059 1056:0.017027101 1057:0.25662601 1058:0.40473059 1059:0.40473059 1060:0.179039 1061:0.2805725 1062:0.40473059 1063:0.45927209 1064:0.36786911 1065:0.22779509 1066:0.37823141 1067:0.30426809 1068:0.3417924 1069:0 1070:0.1840442 1071:0.45927209 1072:0.3017714 1073:0.080637299 1074:0.4564507 1075:0.42571241 1076:0.1991993 1077:0.4564507 1078:0.4564507 1079:0.02267384 1080:0.2267271 1081:0.1564784 1082:0.42607209 1083:0.28380921 1084:0.249357 1085:0.42607209 1086:0.29669651 1087:0.1198051 1088:0.42607209 1089:0.42607209 1090:0.4201462 1091:0.4201462 1092:0.08802814 1093:0.30319759 1094:0.4201462 1095:0.4201462 1096:0.40338379 1097:0.02350601 1098:0.16359331 1099:0.48139861 1100:0.48139861 1101:0.055163112 1102:0 1103:0 1104:0.059727121 1105:0.24819949 1106:0.48139861 1107:0.48139861 1108:0.58304429 1109:0.03670666 1110:0 1111:0 1112:0.06222222 1113:0.069052547 1114:0.2127509 1115:0.50896633 1116:0.58304429 1117:0.47253281 1118:0.33372441 1119:0.191502 1120:0.053756539 1121:0.19070449 1122:0 1123:0.036681719 1124:0.45645609 1125:0.61123568 1126:0.51625812 1127:0.1468685 1128:0.0065663061 1129:0 1130:0 1131:0 1132:0.51625812 1133:0.4167293 1134:0.51625812 1135:0.62637538 1136:0.43998739 1137:0.1005232 1138:0 1139:0 1140:0 1141:0.01311475 1142:0.072027922 1143:0.62637538 1144:0.61099052 1145:0.46343991 1146:0 1147:0 1148:0.002978455 1149:0 1150:0 1151:0.1802642 1152:0.61099052 1153:0.65942198 1154:0.2453922 1155:0.021599829 1156:0.00094716199 1157:0 1158:0 1159:0.038289752 1160:0.2481755 1161:0.65942198 1162:0.56375909 1163:0.078848347 1164:0.4197337 1165:0.056563091 1166:0.1022267 1167:0.2347386 1168:0.22172309 1169:0.24169201 1170:0.56375909 1171:0.5201112 1172:0.36610529 1173:0.069476917 1174:0.5201112 1175:0.17770471 1176:0 1177:0.0070570949 1178:0.1130035 1179:0.5201112 1180:0.55706632 1181:0.55706632 1182:0.1689848 1183:0 1184:0 1185:0 1186:0.1049633 1187:0.15458161 1188:0.55706632 1189:0.43905219 1190:0.1273053 1191:0.43905219 1192:0.42831841 1193:0.43905219 1194:0.26849559 1195:0.02785508 1196:0.047579572 1197:0.37751949 1198:0.51059687 1199:0.1167947 1200:0.25348771 1201:0.082991928 1202:0.3577238 1203:0.00085665903 1204:0.0046062358 1205:0.51059687 1206:0.51059687 1207:0.56814033 1208:0.1825949 1209:0 1210:0.001774046 1211:0.54080778 1212:0.027229309 1213:0 1214:0.1490007 1215:0.56814033 1216:0.57499462 1217:0 1218:0 1219:0.01126849 1220:0.57499462 1221:0.02130948 1222:0.018624989 1223:0.038392778 1224:0.57499462 1225:0.4945311 1226:0 1227:0 1228:0.4945311 1229:0.4945311 1230:0.12884159 1231:0.01278802 1232:0.0072860182 1233:0.4945311 1234:0.073905751 1235:0.069864377 1236:0.08443097 1237:0.2064009 1238:0.44825849 1239:0.36291391 1240:0.44825849 1241:0.44825849 1242:0.44825849 1243:0.51041633 1244:0.065438174 1245:0.40815461 1246:0 1247:0.51041633 1248:0.1376663 1249:0.09654092 1250:0.1190935 1251:0.51041633 1252:0.38908321 1253:0.38908321 1254:0.38908321 1255:0.38908321 1256:0.38908321 1257:0 1258:0.2207308 1259:0.3172631 1260:0.2996771 1261:0.1313846 1262:0.2042762 1263:0.169434 1264:0 1265:0.4497084 1266:0.32760289 1267:0.4497084 1268:0.4497084 1269:0.44019639 1270:0.02094724 1271:0.31445259 1272:0.46836749 1273:0.46836749 1274:0.46836749 1275:0.46836749 1276:0.1118895 1277:0.07752917 1278:0 1279:0.45134029 1280:0.45134029 1281:0 1282:0.22774661 1283:0.45134029 1284:0.31074321 1285:0.32603401 1286:0.2270775 1287:0.27941921 1288:0.69070667 1289:0.1167131 1290:0.054641601 1291:0 1292:0.1404525 1293:0 1294:0 1295:0.051176079 1296:0.69070667 #
-0.005889437309389736 1:0.284796 2:0.46148971 3:0.46148971 4:0.082951501 5:0.073484458 6:0 7:0.46148971 8:0.46148971 9:0.2238521 10:0.4365589 11:0.4365589 12:0.41969961 13:0.051754121 14:0.072106257 15:0 16:0.2219886 17:0.4365589 18:0.4365589 19:0.44051969 20:0.44051969 21:0.44051969 22:0.03382561 23:0.1554589 24:0 25:0 26:0.44051969 27:0.44051969 28:0.59974688 29:0.02231889 30:0.058703732 31:0.066780567 32:0.59974688 33:0.30489361 34:0.031301599 35:0.13866819 36:0.39121091 37:0.51800382 38:0.25649139 39:0.25460571 40:0 41:0.1463732 42:0.1935039 43:0.0190253 44:0.51800382 45:0.51800382 46:0.64509678 47:0.065447018 48:0.1692981 49:0 50:0.02109774 51:0.07224872 52:0.2099641 53:0.2802937 54:0.64509678 55:0.6892761 56:0.06986957 57:0.1251383 58:0.1484053 59:0.01872215 60:0 61:0 62:0 63:0.6892761 64:0.51473188 65:0 66:0.1636342 67:0.36733559 68:0.45556569 69:0.30937001 70:0 71:0 72:0.51473188 73:0.68039519 74:0.2150335 75:0.01056813 76:0.1245855 77:0.073831819 78:0 79:0 80:0.002912147 81:0.68039519 82:0.65592921 83:0.022097221 84:0.2063265 85:0 86:0.22976211 87:0.1183778 88:0.089486808 89:0.1228598 90:0.65592921 91:0.53824371 92:0.2557762 93:0 94:0.1068201 95:0.41081151 96:0.2248655 97:0.088402577 98:0.33351871 99:0.53824371 100:0.4380922 101:0.05462544 102:0.1693128 103:0.4380922 104:0.4380922 105:0.033261079 106:0.056945659 107:0.4380922 108:0.4380922 109:0.44168031 110:0.44168031 111:0.1929172 112:0.44168031 113:0.44168031 114:0.1747247 115:0.23636959 116:0.046507731 117:0.29913709 118:0.14574561 119:0.30576739 120:0.083758377 121:0.25371519 122:0.41499731 123:0.41499731 124:0.41499731 125:0.3476215 126:0.41499731 127:0.50157589 128:0.3975628 129:0.17989521 130:0.0047602798 131:0 132:0.070665747 133:0.21170869 134:0.50157589 135:0.50157589 136:0.43586531 137:0.43586531 138:0.050757989 139:0.1997294 140:0.43586531 141:0.43586531 142:0.02961698 143:0.04907237 144:0.43586531 145:0.457645 146:0.2460576 147:0.03765092 148:0.020195309 149:0.457645 150:0.03418608 151:0.457645 152:0.457645 153:0.30681351 154:0.47677809 155:0.47677809 156:0.1791658 157:0.47677809 158:0.47677809 159:0 160:0.043758329 161:0.070336439 162:0.2168089 163:0.4216029 164:0.1677064 165:0 166:0 167:0.4216029 168:0.4216029 169:0.4140158 170:0.29198951 171:0.4216029 172:0.53547019 173:0.1824272 174:0.2364815 175:0.53547019 176:0.074030302 177:0.1621345 178:0.058335841 179:0.1004653 180:0.53547019 181:0 182:0.2974464 183:0.45948601 184:0.45948601 185:0.45948601 186:0.3290875 187:0.1029458 188:0.18249141 189:0.34835961 190:0.46621159 191:0.032831442 192:0.02091606 193:0.34810099 194:0.46621159 195:0.2378642 196:0.036652759 197:0.4033252 198:0.46621159 199:0.45956171 200:0.45956171 201:0.45956171 202:0.45956171 203:0.38736719 204:0.017552961 205:0.0091538401 206:0.01178871 207:0.0061364248 208:0.4407298 209:0 210:0.03020619 211:0.1469128 212:0.4407298 213:0.4407298 214:0.4352541 215:0.081760772 216:0.4407298 217:0.39922261 218:0.39922261 219:0.39922261 220:0.030612679 221:0.1988219 222:0.32980269 223:0.39922261 224:0.39922261 225:0.2233405 226:0.41811901 227:0.2307419 228:0.41811901 229:0.1952344 230:0.16094141 231:0.41811901 232:0.41811901 233:0.066674843 234:0.41811901 235:0.49675491 236:0.40216771 237:0.2002939 238:0.14525209 239:0.05673226 240:0.1110473 241:0.49675491 242:0.12742651 243:0.49675491 244:0.42047209 245:0.03464124 246:0.42047209 247:0.42047209 248:0.20547961 249:0.42047209 250:0 251:0.26152241 252:0.42047209 253:0.46638241 254:0.1245223 255:0.17681929 256:0.27297989 257:0.063235052 258:0.001928882 259:0.46638241 260:0.46638241 261:0.46638241 262:0.4973689 263:0.069484077 264:0.15136459 265:0.4973689 266:0.25515321 267:0.1485897 268:0.36622229 269:0.0621695 270:0.4973689 271:0.48238039 272:0.48238039 273:0.48238039 274:0.001855509 275:0.1653401 276:0.1866871 277:0.030997921 278:0.03556338 279:0.48238039 280:0.69080591 281:0 282:0.0049502468 283:0.072358973 284:0.03716949 285:0.00062441663 286:0.1105571 287:0.1407593 288:0.69080591 289:0.70224261 290:0.0295371 291:0.076169893 292:0 293:0 294:0 295:0 296:0.0051220879 297:0.70224261 298:0.69360203 299:0.04289576 300:0 301:0 302:0.003024529 303:0.099405423 304:0.02184812 305:0.1367498 306:0.69360203 307:0.56343722 308:0.56343722 309:0 310:0 311:0 312:0 313:0.1387306 314:0.1508086 315:0.56343722 316:0.43677539 317:0.0078949081 318:0.1911689 319:0.43677539 320:0.43677539 321:0.058322579 322:0.04200159 323:0.43677539 324:0.43677539 325:0.54180878 326:0.374899 327:0 328:0 329:0 330:0 331:0.1276489 332:0.50063193 333:0.54180878 334:0.40519539 335:0.40519539 336:0.40519539 337:0.258775 338:0.40519539 339:0.40519539 340:0.3279494 341:0.02280724 342:0 343:0.49545029 344:0.49545029 345:0.47553921 346:0.01088507 347:0.179249 348:0 349:0.0141856 350:0.007157105 351:0.49545029 352:0.45543 353:0.13517781 354:0.1343659 355:0.01514423 356:0.45543 357:0.2293991 358:0.45543 359:0.45543 360:0.27677521 361:0.38680729 362:0.38081491 363:0.38680729 364:0.38680729 365:0 366:0.247757 367:0.38680729 368:0.204041 369:0.38680729 370:0.55832309 371:0.1230519 372:0.05273173 373:0.050042219 374:0.13786741 375:0.1268207 376:0.061098091 377:0.55832309 378:0.55832309 379:0.36050221 380:0.2518031 381:0.1687846 382:0 383:0.4303315 384:0.4303315 385:0.18194979 386:0.4303315 387:0.4303315 388:0.29622519 389:0.33587509 390:0 391:0.31903449 392:0.37254089 393:0.37254089 394:0.37254089 395:0.37254089 396:0.37254089 397:0.30550671 398:0.1560493 399:0.023011919 400:0.06725429 401:0.2682052 402:0.4944315 403:0.4944315 404:0.4944315 405:0.2588475 406:0.39281911 407:0.38067311 408:0.20799281 409:0.2124369 410:0.39281911 411:0.33680069 412:0.17919581 413:0.39281911 414:0.39281911 415:0.41734859 416:0.2442566 417:0.3853597 418:0.41734859 419:0.17248949 420:0.41734859 421:0.1304556 422:0.2101825 423:0.41734859 424:0.48162639 425:0.31275761 426:0.48162639 427:0.02054444 428:0.30756149 429:0.32614449 430:0.0087485705 431:0.004140784 432:0.48162639 433:0.4603785 434:0.4603785 435:0 436:0.24156959 437:0.4603785 438:0.37119809 439:0.2483138 440:0.0070983139 441:0.3189083 442:0 443:0.042461149 444:0.44580531 445:0.44580531 446:0.44580531 447:0.44580531 448:0.44580531 449:0.0054572821 450:0.001460385 451:0 452:0.25065601 453:0.68204212 454:0 455:0.68204212 456:0 457:0 458:0 459:0 460:0.001241416 461:0 462:0 463:0.1662589 464:0.68720841 465:0.68720841 466:0.00064166827 467:0.049932439 468:0.1359839 469:0.29108229 470:0.14302699 471:0.4209691 472:0.4209691 473:0.029727221 474:0.06042099 475:0.4209691 476:0.4209691 477:0.4209691 478:0.53002161 479:0.35015959 480:0.048608739 481:0 482:0.0042077452 483:0 484:0.1641514 485:0.53002161 486:0.53002161 487:0.086723857 488:0.1320385 489:0 490:0.062307909 491:0.057361841 492:0.51646948 493:0.51646948 494:0.51646948 495:0.40310279 496:0.40750811 497:0.033116471 498:0.1571697 499:0.40750811 500:0.40750811 501:0.40750811 502:0.40750811 503:0.3515172 504:0.12748121 505:0.48683551 506:0.48683551 507:0.048107099 508:0.166007 509:0.074081808 510:0.069778413 511:0.082901157 512:0.48683551 513:0.48683551 514:0.023975071 515:0.01260629 516:0.4588967 517:0.4588967 518:0.36652201 519:0.0024955589 520:0.1915167 521:0.4588967 522:0.4380649 523:0.106194 524:0.45261261 525:0.32568821 526:0.45261261 527:0.45261261 528:0.1321537 529:0.1387632 530:0.45261261 531:0.1482451 532:0.43781149 533:0.076375738 534:0.43781149 535:0 536:0.43781149 537:0.4252553 538:0.042433079 539:0.20108449 540:0.43781149 541:0.41478151 542:0.41478151 543:0.34956411 544:0.29549289 545:0.41478151 546:0.41478151 547:0.086733483 548:0 549:0.30107781 550:0.025814841 551:0.001780846 552:0.0020104281 553:0.63043851 554:0.63043851 555:0.42951429 556:0.1162184 557:0.01146894 558:0.0024032251 559:0.26602909 560:0 561:0 562:0 563:0.90183002 564:0 565:0.1803578 566:0.060272399 567:0.26602909 568:0 569:0 570:0.057971042 571:0.56700033 572:0.56700033 573:0.56700033 574:0.018475531 575:0.058892749 576:0.1506643 577:0.001578634 578:0.031783279 579:0.1007637 580:0.4864521 581:0.4864521 582:0.4864521 583:0.4864521 584:0.1934762 585:0 586:0.43617019 587:0.16423281 588:0.307713 589:0.43617019 590:0.22480521 591:0.42751521 592:0.26269031 593:0.030613819 594:0.43617019 595:0.40490651 596:0.40490651 597:0.40490651 598:0.40490651 599:0.1297475 600:0.1066985 601:0.3810508 602:0.052820422 603:0.40490651 604:0.092906229 605:0.2285684 606:0.38971961 607:0.38971961 608:0.1547372 609:0.38971961 610:0.38971961 611:0.38971961 612:0.38971961 613:0.37589899 614:0.37589899 615:0.37589899 616:0.37589899 617:0.034050722 618:0.37589899 619:0.1765452 620:0.37589899 621:0.3407585 622:0.3687475 623:0.3687475 624:0.1873467 625:0.33390981 626:0.2001031 627:0.3687475 628:0.3687475 629:0.36028701 630:0.3687475 631:0.38746801 632:0.38746801 633:0.38746801 634:0.38746801 635:0.1992518 636:0.093698412 637:0.38746801 638:0.38746801 639:0.2164712 640:0.2964398 641:0.42731911 642:0.42731911 643:0.2417284 644:0.42731911 645:0.42731911 646:0.2217672 647:0.24611209 648:0.09624733 649:0.23979039 650:0.083220251 651:0.37604839 652:0.37604839 653:0.37604839 654:0.37604839 655:0.34332761 656:0.3269285 657:0.37604839 658:0 659:0.0509758 660:0.57487202 661:0.57487202 662:0.57487202 663:0.01501229 664:0.001135114 665:0.0010054871 666:0 667:0 668:0.078075901 669:0.23363291 670:0 671:0.62824517 672:0 673:0.62824517 674:0.37902951 675:0 676:0.033410169 677:0 678:0 679:0.68453252 680:0.68453252 681:0.1027605 682:0.042393561 683:0.2004571 684:0.048381399 685:0 686:0.45495501 687:0.45495501 688:0.45495501 689:0.45495501 690:0.40020531 691:0.01179518 692:0.05999114 693:0.060143288 694:0.14488479 695:0.1498604 696:0.32851821 697:0.3767412 698:0.3767412 699:0.3767412 700:0.3767412 701:0.36768541 702:0.3767412 703:0.0103333 704:0 705:0.2314833 706:0.37791231 707:0.41583559 708:0.41583559 709:0.41583559 710:0.41583559 711:0.3281157 712:0.085193537 713:0.39957929 714:0.39957929 715:0.39957929 716:0.19423871 717:0.39957929 718:0.39957929 719:0.38966009 720:0.02947253 721:0.41986269 722:0.41986269 723:0.16125721 724:0.094717316 725:0.36316669 726:0.3518548 727:0 728:0.41986269 729:0.41986269 730:0.38204089 731:0.42578989 732:0 733:0.26009119 734:0.1907758 735:0.14338849 736:0.42578989 737:0.42578989 738:0.42578989 739:0.21174289 740:0.2429079 741:0.086686648 742:0.38401601 743:0.38401601 744:0.38401601 745:0.38401601 746:0.38401601 747:0.38401601 748:0.4743956 749:0.1797079 750:0.28936461 751:0.46698499 752:0.62198353 753:0.097682633 754:0 755:0 756:0.1955286 757:0.067964658 758:0.041834392 759:0.1930498 760:0.27131411 761:0.41918111 762:0.41918111 763:0.41918111 764:0.41918111 765:0.41918111 766:0.0042231898 767:0.23052239 768:0.42677361 769:0.42677361 770:0.42677361 771:0.42622229 772:0.42677361 773:0.17934769 774:0.01429766 775:0.69837248 776:0.01939591 777:0.058039978 778:0 779:0.079134703 780:0 781:0.082537062 782:0.027582429 783:0.69837248 784:0 785:0 786:0.056778658 787:0.52962458 788:0.52962458 789:0.52962458 790:0.01431082 791:0.2289733 792:0.3120046 793:0.2668637 794:0.066221289 795:0 796:0.32207039 797:0.50944018 798:0.1320373 799:0.1398553 800:0.50944018 801:0.50944018 802:0.43808469 803:0.43808469 804:0.43808469 805:0.1095825 806:0.046888299 807:0.085725144 808:0.1203224 809:0.43808469 810:0.43808469 811:0.39166641 812:0.39166641 813:0.39166641 814:0.2325803 815:0.39166641 816:0.39166641 817:0.39166641 818:0 819:0.14689501 820:0.22421999 821:0.1312657 822:0.41685519 823:0.18275329 824:0.41685519 825:0.41685519 826:0.1615247 827:0.41685519 828:0.41685519 829:0.46342301 830:0.25999731 831:0.242808 832:0.081548899 833:0.0099413414 834:0.1696316 835:0.46342301 836:0.43475309 837:0.46342301 838:0 839:0 840:0.05820391 841:0.30135059 842:0.43106699 843:0.43106699 844:0.43106699 845:0.39776781 846:0.43106699 847:0.04434767 848:0.2467608 849:0.39437771 850:0.39437771 851:0.39437771 852:0.39437771 853:0.39437771 854:0.39437771 855:0 856:0.41858301 857:0.41858301 858:0.41858301 859:0.29239151 860:0.1806833 861:0.33779621 862:0.1021007 863:0.2286956 864:0.41858301 865:0.39119181 866:0.39119181 867:0.1706389 868:0.22088 869:0.39119181 870:0.39119181 871:0 872:0.39119181 873:0.39119181 874:0.072334044 875:0.1105226 876:0.45224071 877:0.1983162 878:0.45224071 879:0.45224071 880:0.45224071 881:0.34347579 882:0.051420081 883:0.40155429 884:0.1495866 885:0.40155429 886:0.29384449 887:0.40155429 888:0.40155429 889:0.40155429 890:0.1952538 891:0.20715819 892:0.41713551 893:0.41713551 894:0.41713551 895:0.41713551 896:0.41713551 897:0.02348399 898:0 899:0.1421791 900:0.32412431 901:0.44109461 902:0.44109461 903:0.41052461 904:0.263661 905:0.1528949 906:0.44109461 907:0.33694959 908:0.056313261 909:0.18376569 910:0.50920773 911:0.50920773 912:0.03083043 913:0.037263069 914:0.2227598 915:0.39701009 916:0.1725187 917:0.39680311 918:0.28202131 919:0.34594181 920:0.34594181 921:0.2452891 922:0.34594181 923:0.31408101 924:0.34594181 925:0.34594181 926:0.34594181 927:0.34594181 928:0.57567167 929:0.060879361 930:0.017503301 931:0 932:0.025998769 933:0.070522532 934:0.55418283 935:0.1211407 936:0.57567167 937:0 938:0 939:0.1306788 940:0.53662509 941:0.2112471 942:0.186168 943:0.1854196 944:0.53662509 945:0.53662509 946:0.4814786 947:0.4814786 948:0.1226556 949:0.0067538628 950:0 951:0 952:0.2298138 953:0.4814786 954:0.4814786 955:0.1981246 956:0.1546112 957:0.022511199 958:0.4567011 959:0.4567011 960:0.4567011 961:0.4567011 962:0.26199889 963:0.1697838 964:0.44220999 965:0.2987043 966:0.059324499 967:0.0091660302 968:0.28992951 969:0.19104271 970:0.44220999 971:0.44220999 972:0.44220999 973:0.14375921 974:0.124758 975:0.06259951 976:0.41986361 977:0.41986361 978:0.41986361 979:0.41986361 980:0.27244949 981:0.41986361 982:0.31866309 983:0.30169171 984:0.31623819 985:0.1031961 986:0.2431557 987:0.4219096 988:0.4219096 989:0.31530559 990:0.4219096 991:0.1503038 992:0.164551 993:0.39278141 994:0.39278141 995:0.1440295 996:0.39278141 997:0.39278141 998:0.39278141 999:0.39278141 1000:0.3933019 1001:0.2930502 1002:0.32958469 1003:0.032549638 1004:0.3933019 1005:0.3933019 1006:0.3933019 1007:0.3933019 1008:0.1645447 1009:0.3529295 1010:0.3529295 1011:0.3529295 1012:0.3529295 1013:0.3529295 1014:0.3529295 1015:0 1016:0.3529295 1017:0.3529295 1018:0.38452059 1019:0.38452059 1020:0.38452059 1021:0.38452059 1022:0.38452059 1023:0.31173751 1024:0.097581223 1025:0.048162881 1026:0.38452059 1027:0.4256472 1028:0.026836051 1029:0.39541781 1030:0.18975361 1031:0 1032:0 1033:0.3425191 1034:0.36317411 1035:0.60864681 1036:0.3295117 1037:0.37126619 1038:0.37126619 1039:0.2485545 1040:0 1041:0.37126619 1042:0.36978459 1043:0.37126619 1044:0.37126619 1045:0.3590014 1046:0.3590014 1047:0.3590014 1048:0.3590014 1049:0.1123251 1050:0.2856963 1051:0.3590014 1052:0.3590014 1053:0.3590014 1054:0.2291943 1055:0.41561121 1056:0.16582461 1057:0.41561121 1058:0.41561121 1059:0.41561121 1060:0.41561121 1061:0.0341505 1062:0.225811 1063:0.33001629 1064:0.31486529 1065:0.39155579 1066:0.39155579 1067:0.39155579 1068:0.1376911 1069:0.39155579 1070:0.39155579 1071:0.049987141 1072:0.40076801 1073:0.28681409 1074:0.188044 1075:0.074400172 1076:0.40076801 1077:0.36626399 1078:0.31020769 1079:0.40076801 1080:0.40076801 1081:0.41951799 1082:0.25012439 1083:0.41951799 1084:0.081393257 1085:0.28550109 1086:0.41951799 1087:0.41951799 1088:0.042155638 1089:0.37329999 1090:0.25313169 1091:0.51598412 1092:0.113572 1093:0.51598412 1094:0.51598412 1095:0.097166277 1096:0.1296555 1097:0.26724929 1098:0.14656 1099:0.62592268 1100:0.076547638 1101:0.077702388 1102:0.24039949 1103:0.049481381 1104:0.033387318 1105:0.060245771 1106:0.36511689 1107:0.62592268 1108:0.6880967 1109:0.2089788 1110:0.00051060441 1111:0 1112:0 1113:0.01428399 1114:0.045757879 1115:0.01437607 1116:0.6880967 1117:0.54907292 1118:0.1231804 1119:0.15166651 1120:0.001801627 1121:0.1030149 1122:0.2138083 1123:0.01670878 1124:0.4571605 1125:0.62331003 1126:0.48524439 1127:0.48524439 1128:0.20705239 1129:0 1130:0 1131:0.04322809 1132:0.092549451 1133:0.48524439 1134:0.48524439 1135:0.45467049 1136:0.45467049 1137:0 1138:0 1139:0.1509205 1140:0.45467049 1141:0.27896771 1142:0.2606869 1143:0.45467049 1144:0.69269413 1145:0.1249385 1146:0.071408637 1147:0.005138312 1148:0 1149:0 1150:0.03620493 1151:0.1067183 1152:0.69269413 1153:0.58642232 1154:0.50553209 1155:0.01789934 1156:0 1157:0 1158:0 1159:0 1160:0.224676 1161:0.58642232 1162:0.39341551 1163:0.42748469 1164:0.1023452 1165:0.076271303 1166:0.049845569 1167:0 1168:0.46155331 1169:0.46155331 1170:0.46155331 1171:0.57251447 1172:0 1173:0.002716603 1174:0.003895143 1175:0 1176:0.01279203 1177:0.1038196 1178:0.57251447 1179:0.57251447 1180:0.70072103 1181:0.1047739 1182:0.0027654341 1183:0 1184:0 1185:0 1186:0 1187:0 1188:0.70072103 1189:0.35615671 1190:0.1021401 1191:0.15758909 1192:0.088978693 1193:0.12850329 1194:0.04465707 1195:0.51842183 1196:0.51842183 1197:0.51842183 1198:0.1422956 1199:0.0072162412 1200:0.4103764 1201:0.42569131 1202:0.42569131 1203:0 1204:0.42569131 1205:0.42569131 1206:0.28668171 1207:0.65185171 1208:0 1209:0.078502811 1210:0.082644857 1211:0.2985709 1212:0.093163311 1213:0.09994369 1214:0.064456612 1215:0.66594362 1216:0.4986946 1217:0.4986946 1218:0.01082665 1219:0 1220:0.4986946 1221:0.0042202552 1222:0.0069122412 1223:0.0071616638 1224:0.4986946 1225:0.4605999 1226:0.4605999 1227:0.0069964398 1228:0.24269889 1229:0.4605999 1230:0.053984988 1231:0.1964296 1232:0.2152663 1233:0.4605999 1234:0.41343939 1235:0.092573173 1236:0.3480131 1237:0.41343939 1238:0.41343939 1239:0.1073598 1240:0 1241:0.41343939 1242:0.41343939 1243:0.42029259 1244:0.0038443899 1245:0.0064339791 1246:0.075389437 1247:0.42029259 1248:0.42029259 1249:0.42029259 1250:0.32685229 1251:0.42029259 1252:0.48830381 1253:0.1769421 1254:0.48830381 1255:0.48830381 1256:0.48830381 1257:0 1258:0.02466983 1259:0.05728554 1260:0.078497037 1261:0.38302991 1262:0.2926217 1263:0.38302991 1264:0.27345461 1265:0.38302991 1266:0.30465931 1267:0.2049619 1268:0.3377783 1269:0.38302991 1270:0.2917023 1271:0.017520821 1272:0 1273:0.45443869 1274:0.45443869 1275:0.02945984 1276:0.28833601 1277:0.45443869 1278:0.45443869 1279:0.30297729 1280:0.37401661 1281:0.27169171 1282:0.37401661 1283:0.37401661 1284:0.37401661 1285:0.28845811 1286:0.21909329 1287:0.37401661 1288:0.44472289 1289:0.00264033 1290:0.1828696 1291:0.1383446 1292:0.44472289 1293:0.20026091 1294:0.33429331 1295:0.44472289 1296:0.44472289 #
-0.0030623330420557608 1:0 2:0 3:0 4:0 5:0 6:0 7:0 8:0 9:0 10:0 11:0 12:0 13:0 14:0.57766879 15:0.57766879 16:0.57168978 17:0 18:0 19:0.43168461 20:0 21:0.033318881 22:0.093643911 23:0.40811661 24:0.2717405 25:0.43168461 26:0.43168461 27:0.43168461 28:0.4255296 29:0.45726281 30:0.27141309 31:0.045144718 32:0.45726281 33:0.3145566 34:0.053418081 35:0.097912058 36:0.45726281 37:0.301792 38:0.39135179 39:0.39135179 40:0.39135179 41:0.39135179 42:0.34058809 43:0.1524148 44:0.39135179 45:0 46:0.083814092 47:0.074033603 48:0.4156962 49:0.038949609 50:0.4156962 51:0.4156962 52:0.3432315 53:0.4156962 54:0.4156962 55:0.38524821 56:0.1701587 57:0.17764591 58:0.36071819 59:0.38524821 60:0.38524821 61:0.25187421 62:0.38524821 63:0.38524821 64:0.38974991 65:0.16270021 66:0 67:0.098612547 68:0.42808709 69:0.42808709 70:0.42808709 71:0.42808709 72:0.27310911 73:0 74:0.1835089 75:0.060919039 76:0.3673045 77:0.4732762 78:0.4732762 79:0.4732762 80:0.3733561 81:0.1077391 82:0.087122276 83:0.39960271 84:0.4463301 85:0 86:0.4463301 87:0.1297278 88:0.4463301 89:0.4463301 90:0.1208201 91:0.193481 92:0.025561631 93:0 94:0.37063959 95:0.47887179 96:0.47887179 97:0.47887179 98:0.26090521 99:0.25244561 100:0.3787463 101:0.31451049 102:0.3787463 103:0.26960731 104:0.3787463 105:0.32560009 106:0.036769181 107:0.3787463 108:0.3787463 109:0 110:0 111:0 112:0 113:0 114:0 115:0 116:0 117:0 118:0 119:0 120:0 121:0 122:0 123:0 124:0 125:0 126:0 127:0.002176763 128:0 129:0 130:0.1124686 131:0.67035598 132:0.67035598 133:0.28617281 134:0 135:0.002176763 136:0.3427729 137:0.38347149 138:0.01317193 139:0.22043639 140:0.4475491 141:0.4475491 142:0.29353651 143:0.43536291 144:0.076910228 145:0.39133069 146:0.3561689 147:0.39133069 148:0.2720919 149:0.39133069 150:0.1028717 151:0.39133069 152:0.39133069 153:0.13754711 154:0.105289 155:0.43220609 156:0.43220609 157:0.43220609 158:0.063455768 159:0.35976961 160:0.43220609 161:0.30490839 162:0.1046826 163:0.047165919 164:0.44322211 165:0.1824888 166:0.44322211 167:0.25945199 168:0.1730345 169:0.44322211 170:0.44322211 171:0.27749979 172:0.36673921 173:0.46572661 174:0.46572661 175:0.25378901 176:0.1603245 177:0.46572661 178:0.34554109 179:0.02520654 180:0 181:0.0052112401 182:0.020019069 183:0 184:0.3978985 185:0.44489601 186:0.44489601 187:0.44489601 188:0.44489601 189:0.21230879 190:0.1516383 191:0.13123029 192:0.184422 193:0.2236931 194:0.05948358 195:0.17699809 196:0.60603952 197:0.60603952 198:0.31662101 199:0.029743381 200:0.080920063 201:0 202:0.1244039 203:0.54509848 204:0.2550295 205:0.54509848 206:0.54509848 207:0.1233299 208:0.3776547 209:0.3776547 210:0.3776547 211:0.3776547 212:0.1212699 213:0.2879951 214:0.3776547 215:0.206981 216:0.3776547 217:0 218:0 219:0 220:0 221:0 222:0 223:0 224:0 225:0 226:0 227:0 228:0 229:0 230:0 231:0 232:0 233:0 234:0 235:0 236:0 237:0 238:0 239:0.96730298 240:0.2338274 241:0 242:0 243:0 244:0.033063091 245:0.047969799 246:0.08859513 247:0.47533271 248:0.47533271 249:0.47533271 250:0.47533271 251:0.2832742 252:0 253:0.41984111 254:0.41973129 255:0.065359399 256:0.41984111 257:0.3247672 258:0.069378123 259:0.41984111 260:0.41984111 261:0.0025699469 262:0.064663298 263:0.38219151 264:0.3285996 265:0.3075929 266:0.29670829 267:0.42297551 268:0.42297551 269:0.42297551 270:0.1348016 271:0.2080939 272:0.41767141 273:0.29224899 274:0.41767141 275:0.054500259 276:0.4077211 277:0.41767141 278:0.41767141 279:0.01052998 280:0.3980566 281:0.3980566 282:0.1010757 283:0.1054785 284:0.3980566 285:0.3980566 286:0.236958 287:0.39594111 288:0.3577244 289:0.0089475606 290:0.1916087 291:0.088071488 292:0.43669909 293:0.43669909 294:0.41176751 295:0.43669909 296:0.43669909 297:0.1367864 298:0.034130879 299:0.2014899 300:0.090234339 301:0.1074592 302:0.44642419 303:0.44642419 304:0.44642419 305:0.4299621 306:0.3890202 307:0.37549949 308:0.37549949 309:0.2091727 310:0.37549949 311:0.37549949 312:0.37549949 313:0.37549949 314:0.2832011 315:0.1621529 316:0.039304659 317:0.025564689 318:0.0092672324 319:0.0091453688 320:0.047184341 321:0.57393283 322:0.57393283 323:0.57393283 324:0.038449239 325:0 326:0 327:0 328:0 329:0 330:0 331:0 332:0 333:0 334:0 335:0 336:0 337:0 338:0 339:0 340:0 341:0 342:0 343:0 344:0 345:0 346:0.05534352 347:0.97729093 348:0.179138 349:0 350:0 351:0 352:0 353:0.02932715 354:0.038300939 355:0.4978514 356:0.4978514 357:0.4978514 358:0.4978514 359:0.035731889 360:0 361:0.1824373 362:0.41508311 363:0.41508311 364:0 365:0.068221793 366:0.41508311 367:0.41508311 368:0.41508311 369:0.3105574 370:0.01655269 371:0.2857227 372:0.38702941 373:0.38702941 374:0.16572671 375:0.38702941 376:0.38702941 377:0.38702941 378:0.37121141 379:0.4596231 380:0.4596231 381:0.4596231 382:0.1352129 383:0.0451621 384:0 385:0.072593734 386:0.3532756 387:0.4596231 388:0.40135941 389:0.1630898 390:0.40135941 391:0.40135941 392:0.0049313041 393:0.075257227 394:0.40135941 395:0.39781591 396:0.40135941 397:0.4808248 398:0.4808248 399:0.2015495 400:0.041311249 401:0.019882269 402:0.4808248 403:0.1059584 404:0.1283602 405:0.4808248 406:0 407:0.14367311 408:0.2141726 409:0.43108749 410:0.43108749 411:0.43108749 412:0.43108749 413:0.43108749 414:0 415:0 416:0 417:0.0408182 418:0.002937099 419:0.088425219 420:0.39297041 421:0.49533841 422:0.54097962 423:0.54097962 424:0.38682479 425:0.25674969 426:0.2107321 427:0.38682479 428:0.38682479 429:0.1236504 430:0.38682479 431:0.34978661 432:0.38682479 433:0 434:0 435:0 436:0 437:0 438:0 439:0 440:0 441:0 442:0 443:0 444:0 445:0 446:0 447:0 448:0 449:0 450:0 451:0 452:0.1486931 453:0.67448848 454:0.2475628 455:0.67448848 456:0 457:0 458:0 459:0 460:0.1007423 461:0.46689031 462:0.46689031 463:0.44461891 464:0.46689031 465:0.26180169 466:0.1419031 467:0.2107199 468:0.021503931 469:0 470:0.1668416 471:0.38006991 472:0.38006991 473:0.37442091 474:0.38006991 475:0.38006991 476:0.38006991 477:0.32543871 478:0.41541511 479:0.40939251 480:0.41541511 481:0.41541511 482:0.1730381 483:3.2117488e-005 484:0.23581921 485:0.2289456 486:0.41541511 487:0.1928747 488:0.4303292 489:0.4303292 490:0.4303292 491:0.4303292 492:0.1762718 493:0.4303292 494:0.003176339 495:0.038764231 496:0.1019346 497:0.1397479 498:0.42644811 499:0.42644811 500:0.42644811 501:0.42644811 502:0.1731993 503:0.1628865 504:0.42644811 505:0.01743003 506:0.1331293 507:0.52037817 508:0.57576209 509:0.57576209 510:0.1298669 511:0.1152752 512:0.110564 513:0.0069215982 514:0.062759466 515:0.1190403 516:0.40459991 517:0.40459991 518:0.40459991 519:0.40459991 520:0.30274981 521:0.26016521 522:0.40459991 523:0 524:0 525:0 526:0.16981339 527:0.55828959 528:0.3760379 529:0.55828959 530:0.44769979 531:0.019342471 532:0.46751511 533:0.02296959 534:0.46751511 535:0.46751511 536:0.1702767 537:0.2487864 538:0.1606793 539:0.0617644 540:0.46751511 541:0 542:0 543:0 544:0 545:0 546:0 547:0 548:0 549:0 550:0 551:0 552:0 553:0 554:0 555:0 556:0 557:0 558:0 559:0 560:0 561:0 562:0.075972237 563:0.63162148 564:0.005649128 565:0.63162148 566:0.43588841 567:0 568:0 569:0.20916811 570:0.1510548 571:0.481538 572:0.481538 573:0.481538 574:0.481538 575:0.032568589 576:0.0067485631 577:0.1563293 578:0.3904677 579:0.38011 580:0.3904677 581:0.3904677 582:0.3904677 583:0.3904677 584:0.2388908 585:0.088220477 586:0.00089475058 587:0.1010185 588:0.42629379 589:0.42629379 590:0.42629379 591:0.27702051 592:0.01278813 593:0.42629379 594:0.42629379 595:0.3156957 596:0.4209767 597:0.4209767 598:0.28956369 599:0.4209767 600:0.2185854 601:0.02352548 602:0.4209767 603:0.23465981 604:0.42751279 605:0.21139351 606:0.1211149 607:0.030989381 608:0.42751279 609:0.42751279 610:0.1468918 611:0.42751279 612:0.42751279 613:0.4084906 614:0.28043091 615:0.1657746 616:0.4084906 617:0.1537713 618:0.1784043 619:0.4084906 620:0.4084906 621:0.4084906 622:0.35054991 623:0.057664629 624:0.41069701 625:0.41069701 626:0.1565412 627:0.042683281 628:0.41069701 629:0.41069701 630:0.41069701 631:0.01174622 632:0 633:0 634:0.28235829 635:0.52040547 636:0.52040547 637:0.52040547 638:0.32010779 639:0.0019725829 640:0.46331409 641:0.46331409 642:0.32710671 643:0.12892491 644:0.015845209 645:0.018787639 646:0.1118396 647:0.46331409 648:0.46331409 649:0 650:0 651:0 652:0 653:0 654:0 655:0 656:0 657:0 658:0 659:0 660:0 661:0 662:0 663:0 664:0 665:0 666:0 667:0 668:0 669:0.57568842 670:0.57568842 671:0.57568842 672:0 673:0 674:0 675:0 676:0.26173219 677:0.45522189 678:0.45522189 679:0.45522189 680:0.2985149 681:0.050148331 682:0.45522189 683:0.080094807 684:0 685:0.40105101 686:0.40105101 687:0.40105101 688:0.40105101 689:0.40105101 690:0.3901082 691:0.01291598 692:0.0043163062 693:0.19852971 694:0.1620114 695:0.1758471 696:0.1620035 697:0.1161493 698:0.14786831 699:0.48942351 700:0.48942351 701:0.3971585 702:0.48942351 703:0.36811611 704:0.36811611 705:0.36811611 706:0.36811611 707:0.1456272 708:0.1850694 709:0.35750169 710:0.36811611 711:0.36811611 712:0.41310051 713:0.41310051 714:0.3994453 715:0.056846131 716:0.2812714 717:0.2516638 718:0.41310051 719:0.089606017 720:0.41310051 721:0.4024367 722:0.1431772 723:0.027965199 724:0.4024367 725:0.4024367 726:0.4024367 727:0.4024367 728:0.054460589 729:0.4024367 730:0.1211849 731:0.3945511 732:0.1762775 733:0.1275748 734:0.3945511 735:0.3945511 736:0.3945511 737:0.3945511 738:0.3945511 739:0.053998418 740:0.0019742751 741:0 742:0.3223694 743:0.53019452 744:0.15899269 745:0.53019452 746:0.53019452 747:0.1388015 748:0.46099719 749:0.091171853 750:0.34314221 751:0.46099719 752:0.46099719 753:0.1208767 754:0.03456825 755:0.058793399 756:0.46099719 757:0 758:0 759:0 760:0 761:0 762:0 763:0 764:0 765:0 766:0 767:0 768:0 769:0 770:0 771:0 772:0 773:0 774:0 775:0 776:0 777:0.57568842 778:0.57568842 779:0.57568842 780:0 781:0 782:0 783:0 784:0.01364718 785:0.0358187 786:0.38823199 787:0.4591352 788:0.4591352 789:0.4591352 790:0.4591352 791:0 792:0 793:0.01116429 794:0.49707699 795:0.49707699 796:0.1136108 797:0.37941131 798:0.49707699 799:0.07709147 800:0.24451169 801:0.17625239 802:0.36425671 803:0.36425671 804:0.36425671 805:0.2074582 806:0.30953979 807:0.36425671 808:0.36425671 809:0.36425671 810:0.2478091 811:0.3056916 812:0.43083939 813:0.43083939 814:0.01355114 815:0.1568269 816:0.1121778 817:0.3498522 818:0.43083939 819:0.43083939 820:0.38080639 821:0.090631597 822:0.25826499 823:0.40533519 824:0.40533519 825:0.40533519 826:0.40533519 827:0.32535261 828:0.1139359 829:0.42807719 830:0.40884131 831:0.35024279 832:0.01263891 833:0.1054655 834:0.33333561 835:0.42807719 836:0.1837305 837:0.42807719 838:0 839:0.065350622 840:0.44513449 841:0.44513449 842:0.44513449 843:0.44513449 844:0.44513449 845:0.023653651 846:0 847:0.40008411 848:0.40008411 849:0.40008411 850:0.23477089 851:0.40008411 852:0.1663301 853:0.40008411 854:0.33393171 855:0.037058208 856:0.40570241 857:0 858:0.2755031 859:0.40570241 860:0.40570241 861:0.22287489 862:0.40570241 863:0.21771529 864:0.40570241 865:0 866:0 867:0 868:0 869:0 870:0 871:0 872:0 873:0 874:0 875:0 876:0 877:0 878:0 879:0 880:0 881:0 882:0 883:0 884:0 885:0.2477258 886:0.68257523 887:0.68257523 888:0 889:0 890:0 891:0 892:0 893:0.047494989 894:0.40029931 895:0.41868901 896:0.41868901 897:0.41868901 898:0.41868901 899:0.18246999 900:0.3143644 901:0.4954859 902:0.34190801 903:0.4954859 904:0.4954859 905:0.0464141 906:0 907:0.1647139 908:0.090403087 909:0.32275939 910:0.38346481 911:0.38346481 912:0.30372971 913:0.38346481 914:0.38346481 915:0.38346481 916:0.24031059 917:0.33293021 918:0.0099787898 919:0.45251641 920:0.45251641 921:0.45251641 922:0.45251641 923:0.087636411 924:0.308112 925:0.094495483 926:0.084339902 927:0.240291 928:0.41439119 929:0.41439119 930:0.41439119 931:0.2830787 932:0.32359621 933:0.12516759 934:0.41439119 935:0.28751889 936:0.1606171 937:0.087805472 938:0.36368161 939:0.36368161 940:0.36368161 941:0.36368161 942:0.36368161 943:0.36368161 944:0.36368161 945:0.25061259 946:0.1054846 947:0.267176 948:0.065808117 949:0.47457081 950:0.47457081 951:0.47457081 952:0.47457081 953:0.085081011 954:0.017629759 955:0.39272901 956:0.033597991 957:0.138855 958:0.39272901 959:0.39272901 960:0.22416671 961:0.39272901 962:0.39272901 963:0.39272901 964:0.02483356 965:0.002094897 966:0.01453487 967:0.0082690008 968:0.49218899 969:0.50966442 970:0.50966442 971:0.48127621 972:0.02483356 973:0 974:0 975:0 976:0 977:0 978:0 979:0 980:0 981:0 982:0.065925352 983:0 984:0 985:0 986:0.67392868 987:0 988:0 989:0.283842 990:0.67392868 991:0.00023369231 992:0 993:0.0019587581 994:0.55681747 995:0.58480382 996:0.58480382 997:0.0066454611 998:0.0087064849 999:0.00023369231 1000:0.02823185 1001:0.0262067 1002:0.4019776 1003:0.4019776 1004:0.4019776 1005:0.4019776 1006:0.4019776 1007:0.4019776 1008:0.15806501 1009:0.4116306 1010:0.4116306 1011:0.1706071 1012:0.4116306 1013:0.4116306 1014:0.4116306 1015:0.13087881 1016:0.3184008 1017:0.032768611 1018:0.2079955 1019:0.4086369 1020:0.4086369 1021:0.4086369 1022:0.217447 1023:0.1478878 1024:0.22041181 1025:0.4086369 1026:0.4086369 1027:0.37388021 1028:0.37388021 1029:0.37388021 1030:0.37388021 1031:0.231519 1032:0.35556731 1033:0.111582 1034:0.37388021 1035:0.32380971 1036:0.37802011 1037:0.37802011 1038:0.37802011 1039:0.37802011 1040:0.37802011 1041:0.35670581 1042:0.098560333 1043:0.043300759 1044:0.37802011 1045:0.41068119 1046:0.27553919 1047:0.13372371 1048:0.1093598 1049:0.41068119 1050:0.3037791 1051:0.3510218 1052:0.41068119 1053:0.41068119 1054:0.3916443 1055:0.3916443 1056:0.00155167 1057:0 1058:0.3916443 1059:0.3916443 1060:0.37752581 1061:0.38702929 1062:0.3003771 1063:0.2790511 1064:0.44973499 1065:0.44973499 1066:0.029921129 1067:0.077280439 1068:0.4229058 1069:0.1142267 1070:0.33479661 1071:0.44973499 1072:0.48215169 1073:0.052493591 1074:0.01424642 1075:0.074792452 1076:0.1506422 1077:0.48215169 1078:0.4719353 1079:0.2092967 1080:0.48215169 1081:0 1082:0 1083:0 1084:0 1085:0 1086:0 1087:0 1088:0 1089:0 1090:0 1091:0 1092:0 1093:0 1094:0 1095:0 1096:0 1097:0 1098:0 1099:0 1100:0 1101:0.0089791436 1102:0.1714897 1103:0.94875139 1104:0.24681249 1105:0 1106:0 1107:0 1108:0.02006031 1109:0.027087759 1110:0.29994589 1111:0.57233608 1112:0.57233608 1113:0.43855739 1114:0.1165902 1115:0.1525168 1116:0.13731989 1117:0.01605932 1118:0.00952789 1119:0.32417861 1120:0.53306937 1121:0.53306937 1122:0.53306937 1123:0.160335 1124:0.077139109 1125:0.071339361 1126:0.084336333 1127:0.1735252 1128:0.51959628 1129:0.51959628 1130:0.15246589 1131:0.3635169 1132:0.1928518 1133:0.25895831 1134:0.39747331 1135:0.01509867 1136:0.42518601 1137:0.42518601 1138:0.080266044 1139:0.1622996 1140:0.3248311 1141:0.36618721 1142:0.42518601 1143:0.42518601 1144:0.41558889 1145:0.2870079 1146:0.019831389 1147:0.41558889 1148:0.41558889 1149:0.21857309 1150:0.041677181 1151:0.41558889 1152:0.41558889 1153:0.35428169 1154:0.1274813 1155:0.13500699 1156:0.40458849 1157:0.1323061 1158:0.40458849 1159:0.40458849 1160:0.40458849 1161:0.40458849 1162:0.41233501 1163:0.41233501 1164:0.13050801 1165:0.41233501 1166:0.41233501 1167:0.0064929789 1168:0.1049552 1169:0.3430599 1170:0.41233501 1171:0.3989085 1172:0.3989085 1173:0.1942852 1174:0.3989085 1175:0.3989085 1176:0.1505287 1177:0.3239198 1178:0.18720379 1179:0.3989085 1180:0.402722 1181:0.1679298 1182:0.402722 1183:0.23442671 1184:0.38559791 1185:0.402722 1186:0.402722 1187:0.01672902 1188:0.3392857 1189:0 1190:0 1191:0 1192:0 1193:0 1194:0 1195:0 1196:0 1197:0 1198:0 1199:0 1200:0 1201:0 1202:0.99278939 1203:0 1204:0 1205:0 1206:0 1207:0 1208:0 1209:0.00055185851 1210:0.68115008 1211:0.72431082 1212:0.064638592 1213:0 1214:0 1215:0 1216:0.024493281 1217:0.2769165 1218:0.27162099 1219:0.4594427 1220:0.4594427 1221:0.4594427 1222:0.4594427 1223:0 1224:0 1225:0.30205739 1226:0 1227:0.36352789 1228:0.36352789 1229:0.36352789 1230:0.36352789 1231:0.33498421 1232:0.36352789 1233:0.36352789 1234:0.41228029 1235:0.41228029 1236:0.083824039 1237:0.030344451 1238:0.41228029 1239:0.28358611 1240:0.41228029 1241:0.41228029 1242:0.2400787 1243:0.42292729 1244:0.42292729 1245:0.42292729 1246:0.42292729 1247:0.42292729 1248:0.2142144 1249:0.02250706 1250:0.107163 1251:0.2087083 1252:0.47481701 1253:0.47481701 1254:0.093014479 1255:0.039427549 1256:0.47481701 1257:0.26013529 1258:0 1259:0.1248045 1260:0.47481701 1261:0.043426812 1262:0.058910061 1263:0.38372329 1264:0.52635121 1265:0.52635121 1266:0.095588952 1267:0.32636201 1268:0.34832779 1269:0.2259883 1270:0.38696539 1271:0.38696539 1272:0.38696539 1273:0.2129758 1274:0.38696539 1275:0.38696539 1276:0.38696539 1277:0.1374018 1278:0.1828744 1279:0.0365858 1280:0.4112246 1281:0.4112246 1282:0.1540599 1283:0.4112246 1284:0.4112246 1285:0.1899258 1286:0.4112246 1287:0.29869509 1288:0.59742981 1289:0.4149836 1290:0.05644583 1291:0.01431752 1292:0.32339999 1293:0 1294:0 1295:0 1296:0.59742981 #
-0.0070352617729799284 1:0.45641911 2:0.45641911 3:0.45641911 4:0.03261802 5:0.2334397 6:0.45641911 7:0.176157 8:0 9:0.27491459 10:0.38023281 11:0.38023281 12:0.38023281 13:0.054258931 14:0.35156691 15:0.38023281 16:0.046860348 17:0.38023281 18:0.38023281 19:0.23963951 20:0.049192 21:0.4438169 22:0.58028501 23:0.58028501 24:0.025124051 25:0.1139694 26:0.063916147 27:0.2149848 28:0.092129134 29:0.022137409 30:0 31:0.3550328 32:0.4149287 33:0.4149287 34:0.4149287 35:0.4149287 36:0.4149287 37:0.43350619 38:0.28381059 39:0.43350619 40:0.43350619 41:0.43350619 42:0.05911066 43:0.33803061 44:0.21344671 45:0.0096056554 46:0 47:0.40209469 48:0.40209469 49:0.40209469 50:0.40209469 51:0.40209469 52:0.40209469 53:0.1575938 54:0.032655232 55:0.04548125 56:0.082331978 57:0.44569001 58:0.37214941 59:0.44569001 60:0.1827818 61:0.44569001 62:0.44569001 63:0.1422621 64:0.037982449 65:0.1880469 66:0.39645159 67:0.39645159 68:0.39645159 69:0.39645159 70:0.12724771 71:0.39645159 72:0.39645159 73:0.089580163 74:0.39906541 75:0.52441901 76:0.52441901 77:0.52441901 78:0 79:0 80:0.02573779 81:0.042150948 82:0.3911455 83:0.25742719 84:0.39713639 85:0.39713639 86:0.39713639 87:0.39713639 88:0.1784085 89:0.2111779 90:0.26357901 91:0.075563163 92:0.40489331 93:0.032323319 94:0.077914611 95:0.75289851 96:0.38152689 97:0 98:0.29718879 99:0.1223975 100:0.40363449 101:0.40363449 102:0.40363449 103:0.40363449 104:0.2899214 105:0 106:0.2721487 107:0.1524616 108:0.40363449 109:0.42615721 110:0.42615721 111:0.1841899 112:0.42615721 113:0.42615721 114:0.053713419 115:0.1051969 116:0.19953839 117:0.42615721 118:0.51560092 119:0.51560092 120:0.47640461 121:0.1024724 122:0.077244326 123:0.1118263 124:0.1786456 125:0.1477854 126:0.3917568 127:0.21365529 128:0.41853201 129:0.41853201 130:0.41853201 131:0.41853201 132:0.1433596 133:0.41853201 134:0.042953521 135:0.22787841 136:0.126367 137:0.39652881 138:0.39652881 139:0.39652881 140:0.39652881 141:0.36271241 142:0.03725991 143:0.39652881 144:0.24687301 145:0.40897551 146:0.060911551 147:0.40897551 148:0.38239849 149:0.24079759 150:0.34475929 151:0.0094404016 152:0.40897551 153:0.40897551 154:0.1759425 155:0.26140919 156:0.4079935 157:0.1670001 158:0.43310869 159:0.43310869 160:0.43310869 161:0.21720681 162:0.30349201 163:0.4065181 164:0.34248239 165:0.02215087 166:0.4065181 167:0.4065181 168:0.4065181 169:0.4065181 170:0.22774871 171:0 172:0.40348169 173:0.40348169 174:0.40348169 175:0.40348169 176:0.40348169 177:0.40348169 178:0.1313659 179:0.043900289 180:0 181:0.218573 182:0.31034511 183:0.33875349 184:0.067017332 185:0.4409501 186:0.70279622 187:0.1996638 188:0.035403229 189:0.01313128 190:0.4022091 191:0.4022091 192:0.094545543 193:0.34517109 194:0.069561481 195:0.4022091 196:0.2328099 197:0.4022091 198:0.4022091 199:0.39812061 200:0.1858701 201:0.39812061 202:0.087376319 203:0.39812061 204:0.053294979 205:0.39812061 206:0.39812061 207:0.39812061 208:0.3222577 209:0 210:0.0070879571 211:0.071412437 212:0.1907168 213:0.4609834 214:0.4609834 215:0.4609834 216:0.4609834 217:0.40925789 218:0.1218143 219:0.40925789 220:0.40925789 221:0.40925789 222:0.2886295 223:0.021032579 224:0.40925789 225:0.24467 226:0.39886469 227:0.39886469 228:0.39886469 229:0.39886469 230:0.39886469 231:0.087616853 232:0 233:0.18379401 234:0.39886469 235:0.1734935 236:0.049757238 237:0 238:0.079496659 239:0.47979081 240:0.47979081 241:0.47979081 242:0.47979081 243:0.18845551 244:0.4103474 245:0.38901529 246:0 247:0.034202501 248:0.40154439 249:0.4103474 250:0.092844777 251:0.4103474 252:0.4103474 253:0.36514109 254:0.01300494 255:0.36514109 256:0.36514109 257:0.36514109 258:0.36514109 259:0.250772 260:0.36514109 261:0.36514109 262:0.25356501 263:0.46667251 264:0.13400871 265:0.12526169 266:0.46667251 267:0.4089669 268:0.2321268 269:0.46667251 270:0.1513551 271:0.067739457 272:0.2018794 273:0.19210289 274:0.23286361 275:0.51905203 276:0.51905203 277:0.51905203 278:0.2234671 279:0.01268764 280:0.44630581 281:0.13252909 282:0.27728799 283:0.44630581 284:0.44630581 285:0.44630581 286:0.033702549 287:0.093162186 288:0.30743971 289:0.36612919 290:0.36612919 291:0.36612919 292:0.32296801 293:0.36612919 294:0.29587251 295:0.01377962 296:0.36612919 297:0.36612919 298:0.0098887514 299:0.0097565856 300:0.02919543 301:0.45817211 302:0.52462542 303:0.52462542 304:0.463925 305:0.073697813 306:0.1125706 307:0.1409919 308:0 309:0 310:0.038489979 311:0.48264089 312:0.48264089 313:0.48264089 314:0.2050617 315:0.48264089 316:0.15825491 317:0.04322695 318:0.24836659 319:0.43292111 320:0.43292111 321:0.3956053 322:0.43292111 323:0.39783549 324:0.1733139 325:0.35841531 326:0.086734228 327:0.35841531 328:0.35841531 329:0.35841531 330:0.2994422 331:0.35841531 332:0.35841531 333:0.35841531 334:0.48635989 335:0.1282755 336:0.054031741 337:0.1679225 338:0.48635989 339:0.46410689 340:0.48635989 341:0.01204431 342:0.1496401 343:0.40696731 344:0.046906371 345:0 346:0 347:0.40696731 348:0.40696731 349:0.40696731 350:0.40696731 351:0.40696731 352:0.33621499 353:0.38417229 354:0.38417229 355:0.15666001 356:0.0302717 357:0.38417229 358:0.3460069 359:0.38417229 360:0.38417229 361:0.01039213 362:0.035057541 363:0.40037239 364:0.1127823 365:0.081779227 366:0.49353391 367:0.49353391 368:0.49353391 369:0.28861859 370:0.43449539 371:0.034174342 372:0.38231099 373:0.02276036 374:0.27058959 375:0.34126869 376:0.43449539 377:0.43449539 378:0.30293611 379:0.1588138 380:0.0068851942 381:0.37226161 382:0.42359799 383:0.42359799 384:0.42359799 385:0.42359799 386:0.31874281 387:0.1121725 388:0.41929331 389:0.031469051 390:0.16192511 391:0.43881661 392:0.086245388 393:0.2015688 394:0.4084748 395:0.43881661 396:0.43881661 397:0.01293374 398:0 399:0.38411909 400:0.3471415 401:0.41389951 402:0.41389951 403:0.41389951 404:0.41389951 405:0.2058934 406:0 407:0.082379103 408:0.13979509 409:0.018376891 410:0.28768751 411:0.54317713 412:0.54317713 413:0.54317713 414:0.004587458 415:0.49049971 416:0.29514989 417:0.080476418 418:0.155076 419:0.088111967 420:0.32231849 421:0.49049971 422:0.49049971 423:0.2098565 424:0.1163085 425:0.2803348 426:0.2453464 427:0.57041478 428:0.57041478 429:0.37122029 430:0.2237272 431:0 432:0.058220141 433:0.54299933 434:0.54299933 435:0.54299933 436:0.30940101 437:0.034377258 438:0.056576941 439:0 440:0 441:0.099603839 442:0.45901081 443:0.45901081 444:0.31162959 445:0.41575491 446:0.2865757 447:0.1059568 448:0 449:0.0049645868 450:0.45901081 451:0.44586411 452:0.1582374 453:0.44586411 454:0.44586411 455:0.2068357 456:0.065623537 457:0.01181063 458:0.3579123 459:0.44586411 460:0.37261581 461:0.37261581 462:0.062876597 463:0.32183179 464:0.37261581 465:0.2359933 466:0.37261581 467:0.37261581 468:0.37261581 469:0.37481689 470:0.37481689 471:0.37481689 472:0.2751725 473:0.37481689 474:0.37481689 475:0.27857709 476:0.001999838 477:0.37481689 478:0.1717591 479:0.38023961 480:0.02839121 481:0.03916882 482:0.2267902 483:0.43811139 484:0.43811139 485:0.43811139 486:0.43811139 487:0.1126237 488:0.40938851 489:0.40938851 490:0.074277461 491:0.40938851 492:0.18621559 493:0.40938851 494:0.3240954 495:0.40938851 496:0.021114429 497:0.1004633 498:0.067835487 499:0.12839431 500:0.28621969 501:0.227551 502:0.64288932 503:0.64288932 504:0.04051505 505:0.1514364 506:0.2277548 507:0.47934249 508:0.47934249 509:0.02892963 510:0 511:0.02221347 512:0.47934249 513:0.47934249 514:0.34517661 515:0.02220921 516:0.016421391 517:0.2153589 518:0.51069742 519:0.51835197 520:0.51835197 521:0.088960104 522:0.1497685 523:0.56488162 524:0.077824198 525:0.049069941 526:0.01411919 527:0 528:0 529:0.16858681 530:0.56488162 531:0.56488162 532:0.44976771 533:0.0062134648 534:0.4590528 535:0.4590528 536:0.4217447 537:0.020254221 538:0 539:0 540:0.43971321 541:0.45035511 542:0.45035511 543:0.45035511 544:0.298278 545:0.45035511 546:0.2206502 547:0.196955 548:0 549:0.088175982 550:0.43813121 551:0.43813121 552:0.43813121 553:0.4343234 554:0 555:0 556:0.1910882 557:0.051343951 558:0.43813121 559:0.40549481 560:0.15149599 561:0.40549481 562:0.40549481 563:0.36477011 564:0.40549481 565:0.1224664 566:0.053034581 567:0.40549481 568:0.42298001 569:0.42298001 570:0.42298001 571:0.42298001 572:0.36202019 573:0.096488498 574:0.029330499 575:0.01618618 576:0.37233791 577:0.41639739 578:0.54094517 579:0.54094517 580:0.4839808 581:0.02888985 582:0.01187334 583:0 584:0.0082718125 585:0.02619544 586:0.40891021 587:0.40891021 588:0.1855983 589:0.40891021 590:0.40891021 591:0.1642178 592:0.024153341 593:0.31285751 594:0.40891021 595:0.2557463 596:0.3888427 597:0.32213399 598:0.3888427 599:0.201783 600:0.3888427 601:0.3888427 602:0.1738656 603:0.3888427 604:0.098235749 605:0.0064858752 606:0.01940814 607:0.1442952 608:0.088787533 609:0.1465473 610:0.68203038 611:0.68203038 612:0.05109496 613:0.3982577 614:0.0609264 615:0.1228567 616:0.1598762 617:0.3982577 618:0.3982577 619:0.3982577 620:0.3982577 621:0.3982577 622:0.001919088 623:0.3448135 624:0.48338661 625:0.40404779 626:0.090365343 627:0 628:0.062159412 629:0.48338661 630:0.48338661 631:0.042694401 632:0.001775766 633:0 634:0.38373101 635:0.4887464 636:0.4887464 637:0.4887464 638:0.3586888 639:0.027683251 640:0.41997579 641:0.03083998 642:0.41997579 643:0.3480095 644:0.41997579 645:0.4101516 646:0 647:0.00044695349 648:0.41997579 649:0.37360191 650:0.37360191 651:0.27270851 652:0.3074109 653:0.32927799 654:0.37360191 655:0.37360191 656:0.37360191 657:0.1451911 658:0.38852519 659:0.23662899 660:0.38852519 661:0.1378402 662:0.37230289 663:0.26983371 664:0.32542029 665:0.38852519 666:0.38852519 667:0.4308832 668:0.41656041 669:0.4308832 670:0.4137446 671:0.03792201 672:0.00053970132 673:0.35108039 674:0.29214409 675:0.2638638 676:0.28748021 677:0.028008221 678:0.063713387 679:0.48800471 680:0.48800471 681:0.0033486499 682:0.30269781 683:0.48800471 684:0.31867611 685:0.38181531 686:0.41920429 687:0.41920429 688:0.41920429 689:0.1099998 690:0.2102062 691:0.41920429 692:0.30092791 693:0.016004359 694:0.036476191 695:0.45829141 696:0.58791357 697:0.58791357 698:0.1965967 699:0 700:0 701:0.2162572 702:0.077882826 703:0.147338 704:0.2386049 705:0.18678831 706:0.4096539 707:0.4096539 708:0.2699897 709:0.3717759 710:0.4096539 711:0.4096539 712:0.2656998 713:0.45040399 714:0.45040399 715:0.25466219 716:0.16989949 717:0.13455731 718:0.45040399 719:0.45040399 720:0.040314458 721:0.4739373 722:0 723:0.04888184 724:0.036131348 725:0.34548619 726:0.35811049 727:0.4739373 728:0.26479751 729:0.4739373 730:0.429483 731:0.2794393 732:0 733:0 734:0.3329908 735:0.26252219 736:0.429483 737:0.429483 738:0.429483 739:0.3681992 740:0.3681992 741:0.3681992 742:0.3681992 743:0.3681992 744:0.25693339 745:0.3681992 746:0.3153719 747:0.1319977 748:0.39912191 749:0.39912191 750:0.39912191 751:0.39912191 752:0.093157344 753:0.39912191 754:0.1704988 755:0.049749251 756:0.39912191 757:0.3460559 758:0.3460559 759:0.3460559 760:0.34109759 761:0.204724 762:0.3460559 763:0.3460559 764:0.3460559 765:0.3460559 766:0.4237071 767:0.16100261 768:0.043833401 769:0.31678009 770:0.4237071 771:0.4237071 772:0.2349095 773:0.42352349 774:0.3073059 775:0.42198169 776:0.42198169 777:0.0357759 778:0.42198169 779:0.42198169 780:0.42198169 781:0.2830728 782:0.053723201 783:0.1454145 784:0.4044534 785:0.4044534 786:0.4044534 787:0.4044534 788:0.022216691 789:0.1169827 790:0.4044534 791:0.4044534 792:0.016909139 793:0.44071811 794:0.1559756 795:0.2475459 796:0.03170298 797:0.1888157 798:0.44071811 799:0.44071811 800:0.36802 801:0.39395151 802:0.45034471 803:0.3464205 804:0.45034471 805:0.1115804 806:0.069832161 807:0.1028395 808:0.190658 809:0.45034471 810:0.45034471 811:0.1859469 812:0.412974 813:0.412974 814:0.412974 815:0.18082321 816:0.412974 817:0.412974 818:0.03971079 819:0.27255541 820:0.44136941 821:0.44136941 822:0.44136941 823:0.4022485 824:0.1861674 825:0.09708149 826:0.44136941 827:0.093082733 828:0.04256976 829:0.39030981 830:0.19345219 831:0.1330708 832:0.16406889 833:0.39030981 834:0.39030981 835:0.39030981 836:0.39030981 837:0.39030981 838:0.43616089 839:0.14252201 840:0.43616089 841:0.130906 842:0.033304751 843:0.43616089 844:0.43616089 845:0.076832771 846:0.43616089 847:0.2469451 848:0.4910863 849:0.2070024 850:0.27484891 851:0.4910863 852:0.4910863 853:0.199432 854:0.003578091 855:0.228994 856:0.42220309 857:0.42220309 858:0.26892281 859:0.1467554 860:0.42220309 861:0.1188053 862:0.42220309 863:0.1860065 864:0.37442061 865:0.4081963 866:0.4081963 867:0.29010171 868:0.4081963 869:0.4081963 870:0.4081963 871:0.02042939 872:0.059950441 873:0.27318659 874:0.02938058 875:0.14783651 876:0.30727369 877:0.1520794 878:0.30335999 879:0.5040037 880:0.5040037 881:0.5040037 882:0.024815381 883:0.25683799 884:0.35310131 885:0.35310131 886:0.35310131 887:0.35310131 888:0.2426905 889:0.35310131 890:0.3514609 891:0.35310131 892:0.45238331 893:0.45238331 894:0.016196789 895:0.052122708 896:0.35820329 897:0 898:0.45238331 899:0.21351831 900:0.45238331 901:0.43515211 902:0.25088799 903:0.1195622 904:0.1897486 905:0.1240261 906:0.43515211 907:0.43515211 908:0.43515211 909:0.33105421 910:0.31637341 911:0.42891109 912:0.4593977 913:0.4593977 914:0.1835849 915:0.146218 916:0.1281383 917:0.081933104 918:0.4593977 919:0.47915369 920:0.47915369 921:0 922:0.18781289 923:0.47915369 924:0.2033356 925:0 926:0.01556127 927:0.47915369 928:0.4481464 929:0.4481464 930:0.1404687 931:0.090202749 932:0.4481464 933:0.2454008 934:0 935:0.32263479 936:0.4481464 937:0.38765731 938:0.38765731 939:0.38765731 940:0.077484593 941:0.3217144 942:0.38765731 943:0.080990382 944:0.38582319 945:0.36068201 946:0.44010541 947:0.1317537 948:0.44010541 949:0.44010541 950:0.44010541 951:0.060944501 952:0 953:0.077889651 954:0.44010541 955:0.024203731 956:0.41885921 957:0.50396562 958:0.50396562 959:0.50396562 960:0.219584 961:0.01481306 962:0.091822334 963:0.01123003 964:0.41255429 965:0.41255429 966:0.1593357 967:0.02982861 968:0.41255429 969:0.19127201 970:0.41255429 971:0.28637511 972:0.41255429 973:0.46278909 974:0.085801393 975:0 976:0.049197249 977:0.46278909 978:0.46278909 979:0.31129169 980:0.46278909 981:0.1788794 982:0.4456169 983:0.30250329 984:0.4705117 985:0.4705117 986:0.3623485 987:0.1388444 988:0.093938589 989:0.28355041 990:0.1505184 991:0.1080609 992:0.21993691 993:0.41421741 994:0.1945439 995:0.35241359 996:0.41421741 997:0.41421741 998:0.41421741 999:0.29574609 1000:0.4554067 1001:0.21844479 1002:0.4554067 1003:0.090338454 1004:0.082483239 1005:0.1003352 1006:0.3367855 1007:0.43254009 1008:0.4554067 1009:0.049398631 1010:0.47388619 1011:0.47388619 1012:0.47388619 1013:0.25050759 1014:0.061742991 1015:0.24513289 1016:0.19987421 1017:0.39053309 1018:0.48847401 1019:0.48847401 1020:0.48847401 1021:0.024317009 1022:0.01019503 1023:0.01241911 1024:0.019385541 1025:0.1986665 1026:0.48847401 1027:0.54182023 1028:0.54182023 1029:0.2829771 1030:0.077029482 1031:0 1032:0 1033:0.005174689 1034:0.16686919 1035:0.54182023 1036:0.4967964 1037:0.4967964 1038:0.4967964 1039:0.021832069 1040:0 1041:0 1042:0 1043:0.085643187 1044:0.4967964 1045:0.1991273 1046:0.37246889 1047:0.47724169 1048:0.1042818 1049:0.3502472 1050:0 1051:0.0046715969 1052:0.47724169 1053:0.47724169 1054:0.2097598 1055:0.043158751 1056:0.3817398 1057:0.3817398 1058:0.3817398 1059:0.3566764 1060:0.32190129 1061:0.3817398 1062:0.3695735 1063:0.24092311 1064:0.4383328 1065:0.1893606 1066:0.31788111 1067:0.4383328 1068:0.4383328 1069:0.4383328 1070:0.0060362578 1071:0.1791444 1072:0.40243289 1073:0 1074:0.1122189 1075:0.40243289 1076:0.40243289 1077:0.40243289 1078:0.1080417 1079:0.40243289 1080:0.40243289 1081:0.3567555 1082:0.3247945 1083:0.3567555 1084:0.3567555 1085:0.3567555 1086:0.3567555 1087:0.3567555 1088:0.004791643 1089:0.3567555 1090:0.39980549 1091:0.39980549 1092:0.3150228 1093:0.19505 1094:0.39980549 1095:0.20287821 1096:0.1354268 1097:0.39980549 1098:0.39980549 1099:0.35768709 1100:0.4199352 1101:0 1102:0.0224845 1103:0.4724533 1104:0.4724533 1105:0.4724533 1106:0.064386517 1107:0.12925901 1108:0.37304619 1109:0.052792732 1110:0.37304619 1111:0.37304619 1112:0.29837179 1113:0.37304619 1114:0.26358989 1115:0.37304619 1116:0.37304619 1117:0.4959285 1118:0.4959285 1119:0.4959285 1120:0.4898929 1121:0.052099179 1122:0.01514417 1123:0.043677699 1124:0.023194609 1125:0.1087527 1126:0.2503376 1127:0.43030259 1128:0.43030259 1129:0.43030259 1130:0.43030259 1131:0.0093580503 1132:0.0202711 1133:0.082053334 1134:0.43030259 1135:0.44308311 1136:0.44308311 1137:0.44308311 1138:0.024097649 1139:0 1140:0 1141:0.1156723 1142:0.44308311 1143:0.44308311 1144:0.54169887 1145:0.17955519 1146:0.001205194 1147:0.00055637292 1148:0.1186159 1149:0.2472389 1150:0.082695283 1151:0.54169887 1152:0.54169887 1153:0.002429571 1154:0.4437314 1155:0.33362889 1156:0.1632463 1157:0.16055471 1158:0.2103236 1159:0.4437314 1160:0.4437314 1161:0.4437314 1162:0 1163:0.4324109 1164:0.44953999 1165:0.44953999 1166:0.44953999 1167:0.44953999 1168:0.01332463 1169:0.001199487 1170:0.002553432 1171:0.38481179 1172:0.38481179 1173:0.38481179 1174:0.38481179 1175:0.38481179 1176:0.3280963 1177:0.005224166 1178:0 1179:0.38481179 1180:0.50037467 1181:0.45295191 1182:0.1057794 1183:0.157461 1184:0.50037467 1185:0.039404429 1186:0.03170659 1187:0.01308616 1188:0.50037467 1189:0.2903007 1190:0.23169839 1191:0.48559949 1192:0.48559949 1193:0.48559949 1194:0 1195:0.1246586 1196:0.01054562 1197:0.36622339 1198:0.0033023781 1199:0.37432951 1200:0.4983066 1201:0.30255061 1202:0.4983066 1203:0.4983066 1204:0 1205:0.059760481 1206:0.121873 1207:0 1208:0.1131216 1209:0.43723419 1210:0.43723419 1211:0.43723419 1212:0.23320369 1213:0.40466881 1214:0.43723419 1215:0 1216:0.46537009 1217:0.46537009 1218:0.46537009 1219:0.46537009 1220:0.3530772 1221:0.01080774 1222:0 1223:0.0053116488 1224:0.065312877 1225:0.43506071 1226:0.033379622 1227:0.43506071 1228:0.43506071 1229:0.43506071 1230:0.091973133 1231:0.1992279 1232:0 1233:0.43506071 1234:0.4128511 1235:0.397508 1236:0.4423309 1237:0.4423309 1238:0.4423309 1239:0.085962042 1240:0.02018355 1241:0.050906699 1242:0.26413009 1243:0.44582549 1244:0.44582549 1245:0.44582549 1246:0.1045854 1247:0.27545059 1248:0 1249:0.44582549 1250:0.067626879 1251:0.33033419 1252:0.43674299 1253:0.1658321 1254:0.38399819 1255:0.45216289 1256:0.45216289 1257:0.1150591 1258:0.05625052 1259:0.005241123 1260:0.45216289 1261:0.47053951 1262:0.47053951 1263:0.064577296 1264:0.252197 1265:0.47053951 1266:0.2032949 1267:0 1268:0.023837769 1269:0.47053951 1270:0 1271:0.58191597 1272:0.36438361 1273:0.29363239 1274:0.58191597 1275:0.31230801 1276:0.019091209 1277:0.0063799629 1278:0 1279:0.37412781 1280:0 1281:0.12829991 1282:0.37412781 1283:0.37412781 1284:0.37412781 1285:0.37412781 1286:0.37412781 1287:0.37412781 1288:0.39510259 1289:0.39510259 1290:0.39510259 1291:0.39510259 1292:0.39510259 1293:0.06815546 1294:0.081075937 1295:0.21954089 1296:0.39510259 #
-0.0052666783102154066 1:0.1640937 2:0.49360201 3:0.49360201 4:0.20407601 5:0.3677893 6:0.0097590601 7:0.1447513 8:0.49360201 9:0.19811679 10:0.4434633 11:0.4434633 12:0.4434633 13:0.022909731 14:0.4434633 15:0.4434633 16:0.04711204 17:0.04105505 18:0.088554122 19:0.39765859 20:0.20893569 21:0.059710369 22:0.39765859 23:0.39765859 24:0.39765859 25:0.0036626989 26:0.39765859 27:0.39765859 28:0.37230319 29:0.4016951 30:0.4016951 31:0.4016951 32:0.4016951 33:0.4016951 34:0 35:0.15696029 36:0.1610786 37:0.39563271 38:0.30058649 39:0.01493999 40:0.39563271 41:0.39563271 42:0.3452529 43:0.060386509 44:0.39563271 45:0.39563271 46:0.39055979 47:0.36947939 48:0.39055979 49:0.39055979 50:0.0302069 51:0.28949869 52:0.39055979 53:0.39055979 54:0.1103487 55:0.3950631 56:0.3950631 57:0.37387249 58:0.061255429 59:0.3950631 60:0.3950631 61:0.1616672 62:0.2144998 63:0.3950631 64:0.072166957 65:0.31476381 66:0.36162099 67:0.36162099 68:0.36162099 69:0.36162099 70:0.36162099 71:0.36162099 72:0.3278482 73:0.42979491 74:0.42979491 75:0.42979491 76:0.2403615 77:0.42979491 78:0.067582957 79:0 80:0.098728567 81:0.42979491 82:0.31681779 83:0.122537 84:0.40614411 85:0.40614411 86:0.40614411 87:0.40614411 88:0.088735469 89:0.21889409 90:0.40614411 91:0.082241639 92:0.20322791 93:0.29082921 94:0.41879311 95:0.41879311 96:0.35675079 97:0.41879311 98:0.41879311 99:0.18533181 100:0.42713219 101:0.42713219 102:0.0075758458 103:0.1044088 104:0.42713219 105:0.18977959 106:0.191177 107:0.42713219 108:0.42713219 109:0.48164031 110:0.48164031 111:0.018249379 112:0.48164031 113:0.48164031 114:0 115:0.018113241 116:0.03036762 117:0.25631309 118:0 119:0.4255532 120:0.4255532 121:0.3004508 122:0.4255532 123:0.4255532 124:0.4255532 125:0.00081168121 126:0 127:0.38429949 128:0.38429949 129:0.38429949 130:0.24672531 131:0.38429949 132:0 133:0.3072035 134:0.3588568 135:0.34841189 136:0.2348485 137:0.407536 138:0.29792681 139:0 140:0.1469243 141:0.407536 142:0.407536 143:0.407536 144:0.407536 145:0.25100759 146:0.39537179 147:0.39537179 148:0.39537179 149:0.39537179 150:0.076710559 151:0.39537179 152:0.1807051 153:0.3360244 154:0.1631082 155:0.37891001 156:0.31619209 157:0.37891001 158:0.37891001 159:0.37891001 160:0.37891001 161:0.37891001 162:0.09053123 163:0.38320401 164:0.38320401 165:0.1866508 166:0.02480668 167:0.3528004 168:0.38320401 169:0.38320401 170:0.31941059 171:0.38320401 172:0.38782221 173:0.36168799 174:0.38457251 175:0.38782221 176:0.25518811 177:0.2280525 178:0.34360981 179:0.1760589 180:0.38782221 181:0.14354309 182:0.40279841 183:0.32308981 184:0 185:0.4261013 186:0.34626549 187:0.4261013 188:0.4261013 189:0.2095678 190:0.45575091 191:0.2026373 192:0.048010241 193:0.30381641 194:0.16114099 195:0.45575091 196:0.054541141 197:0.45575091 198:0.45575091 199:0.41263321 200:0.055316299 201:0.3608014 202:0.33412221 203:0.41263321 204:0.2401507 205:0.195751 206:0.37975419 207:0.41263321 208:0.37261519 209:0.37261519 210:0.37261519 211:0.2067951 212:0.37261519 213:0.37261519 214:0.3190394 215:0.13665479 216:0.37261519 217:0.38128319 218:0.38128319 219:0.38128319 220:0.38128319 221:0.1004315 222:0.38128319 223:0.38072109 224:0.14516909 225:0.30528241 226:0.38204339 227:0.3231037 228:0.3573415 229:0.38204339 230:0.38204339 231:0.38204339 232:0.38204339 233:0.16019779 234:0.092979766 235:0.35395619 236:0.01302291 237:0.1231018 238:0.4220545 239:0.34186891 240:0.4220545 241:0.4220545 242:0.4220545 243:0.16056371 244:0.36455861 245:0.36455861 246:0.36455861 247:0.36455861 248:0.36455861 249:0.1577926 250:0.36455861 251:0.36455861 252:0.20282529 253:0.387137 254:0.43032661 255:0.063912421 256:0.090330981 257:0.071492709 258:0.43032661 259:0.43032661 260:0.43032661 261:0.29622111 262:0.29170239 263:0.38716909 264:0.38716909 265:0.3652809 266:0.16301399 267:0.38716909 268:0.38716909 269:0.03922737 270:0.38716909 271:0.097202912 272:0.030194459 273:0.075042777 274:0.5657171 275:0.5657171 276:0.05509498 277:0 278:0.1233546 279:0.5657171 280:0.44547239 281:0.073665507 282:0.0094546676 283:0.27824581 284:0.1339546 285:0.1780927 286:0.47055179 287:0.47055179 288:0.47055179 289:0.49196491 290:0.03146024 291:0.2354984 292:0.35186401 293:0.1949272 294:0 295:0.22526389 296:0.49196491 297:0.49196491 298:0.41079319 299:0.41079319 300:0.1286522 301:0.29809001 302:0.095736697 303:0.41079319 304:0.41079319 305:0.193821 306:0.41079319 307:0.52254832 308:0.26152271 309:0.41052279 310:0.098910391 311:0.005151832 312:0.05227755 313:0.1011911 314:0.52254832 315:0.4346981 316:0.41396189 317:0.41396189 318:0.41396189 319:0.1311546 320:0.0003915407 321:0.41396189 322:0.34905711 323:0 324:0.41396189 325:0.25548509 326:0.67695779 327:0.67695779 328:0.055185352 329:0.03143638 330:0.040916119 331:0 332:0 333:0.075614803 334:0.52060902 335:0.52060902 336:0.52060902 337:0.31160781 338:0.2264092 339:0.1283713 340:0.086031757 341:0.08139535 342:0.053225711 343:0.02958028 344:0.3764517 345:0.3764517 346:0.3764517 347:0.3764517 348:0.3764517 349:0.0579057 350:0.3764517 351:0.3764517 352:0.18758491 353:0.00043495279 354:0 355:0.019188831 356:0.48879361 357:0.48879361 358:0.48879361 359:0.48879361 360:0.06232769 361:0.4282836 362:0.4282836 363:0.28476301 364:0 365:0.2890133 366:0.026342779 367:0.310969 368:0.4282836 369:0.4282836 370:0.4349142 371:0.2303573 372:0.1994614 373:0.4349142 374:0.2153884 375:0.4349142 376:0.37119529 377:0.2121647 378:0.32582709 379:0.3980121 380:0.085295133 381:0.1528632 382:0.3980121 383:0.3980121 384:0.24845991 385:0.3340371 386:0.3980121 387:0.3980121 388:0.40935391 389:0.40935391 390:0.40935391 391:0.40935391 392:0.25753629 393:0.25731659 394:0.40935391 395:0.043147851 396:0.1538153 397:0.51567578 398:0.42474589 399:0.51567578 400:0.25083771 401:0.32377011 402:0.054358128 403:0.1535403 404:0 405:0.2971898 406:0.44041291 407:0.066122212 408:0.0099372091 409:0.071292207 410:0.1273949 411:0.44041291 412:0.44041291 413:0.44041291 414:0.44041291 415:0.0067921709 416:0.37717661 417:0.37717661 418:0.37717661 419:0.37717661 420:0.37717661 421:0.018712839 422:0.37717661 423:0.37717661 424:0.46512151 425:0.3458716 426:0.032216478 427:0.1068717 428:0.077260427 429:0.0094513269 430:0.30070239 431:0.52433687 432:0.52433687 433:0.1645564 434:0.4760201 435:0.4760201 436:0.4760201 437:0.049364291 438:0 439:0 440:0.4760201 441:0.2436175 442:0.37889501 443:0.33489019 444:0.2800163 445:0.37889501 446:0.12738951 447:0.26761761 448:0.37889501 449:0.37889501 450:0.37889501 451:0.43564299 452:0.43564299 453:0.43564299 454:0.062958337 455:0.02564894 456:0.075241707 457:0.43564299 458:0.43564299 459:0.1908952 460:0.62002963 461:0.37454119 462:0.28897941 463:0.016328581 464:0.0021168781 465:0.0043610591 466:0.023449309 467:0.01748601 468:0.62002963 469:0.32697749 470:0.37249321 471:0.37249321 472:0.37249321 473:0.37249321 474:0.37249321 475:0.120995 476:0.37249321 477:0.2054684 478:0.59158492 479:0.33243021 480:0.2052878 481:0.01538901 482:0 483:0.071542747 484:0.2172066 485:0.59158492 486:0.29826289 487:0.37593791 488:0.37593791 489:0.37593791 490:0.37593791 491:0.36549121 492:0.1211786 493:0.00035983161 494:0.37593791 495:0.37593791 496:0.1034954 497:0.31665969 498:0.003791169 499:0.4067789 500:0.4067789 501:0.32995379 502:0.4067789 503:0.4067789 504:0.33792251 505:0.45483509 506:0.2200283 507:0.45483509 508:0.03096351 509:0.1515948 510:0.25236291 511:0.17865551 512:0.45483509 513:0.45483509 514:0.38475651 515:0.29263899 516:0 517:0.38475651 518:0.1493091 519:0.38475651 520:0.38475651 521:0.38475651 522:0.38475651 523:0.4062697 524:0.042236902 525:0.036505051 526:0.049945738 527:0.4062697 528:0.4062697 529:0.4062697 530:0.4062697 531:0.4062697 532:0.2955578 533:0 534:0.038740899 535:0.01355123 536:0.05757989 537:0.19890741 538:0.53626049 539:0.53626049 540:0.53626049 541:0.39563069 542:0.39563069 543:0.39563069 544:0.2217121 545:0.058711931 546:0.06559287 547:0.39563069 548:0.39563069 549:0.39563069 550:0.063118868 551:0.39055961 552:0.39055961 553:0.36140969 554:0.03312638 555:0.39055961 556:0.39055961 557:0.31259531 558:0.39055961 559:0.084045433 560:0.060726911 561:0.065244861 562:0.0074435142 563:0.4915995 564:0.4915995 565:0.4915995 566:0.4915995 567:0.1155263 568:0.18394721 569:0.4120574 570:0.3373276 571:0.31807181 572:0.4120574 573:0.4120574 574:0.17024609 575:0.4120574 576:0.1973287 577:0.4216575 578:0.30725551 579:0.28759921 580:0.4216575 581:0.4216575 582:0.1225844 583:0.095804729 584:0.28858781 585:0.4216575 586:0.20704 587:0.42220449 588:0.1861622 589:0.42220449 590:0.077787563 591:0.42220449 592:0.42220449 593:0.42220449 594:0.14466 595:0.068317421 596:0.42494911 597:0.4421649 598:0.1090878 599:0.08855398 600:0.4421649 601:0.092482738 602:0.4421649 603:0.4421649 604:0.093075126 605:0.44130501 606:0.44130501 607:0.44130501 608:0.09212739 609:0.068490528 610:0.44130501 611:0.44130501 612:0 613:0.3725948 614:0.25860801 615:0.3725948 616:0.3725948 617:0.23927701 618:0.3725948 619:0.3725948 620:0.3725948 621:0.19795071 622:0.40532461 623:0.40532461 624:0.40532461 625:0.063218057 626:0.40532461 627:0.078036383 628:0.40532461 629:0.40532461 630:0.01168307 631:0.41697559 632:0.41697559 633:0.41697559 634:0.031593889 635:0.39496911 636:0.40506959 637:0.130587 638:0.1169146 639:0.34989521 640:0.418789 641:0.37122601 642:0.418789 643:0.37891981 644:0.006914102 645:0.039086439 646:0.1063725 647:0.418789 648:0.418789 649:0.48559389 650:0.045522422 651:0.2429471 652:0.40911031 653:0.1487087 654:0.1887348 655:0.03929244 656:0.48559389 657:0.48559389 658:0.20265999 659:0.2068571 660:0.4318932 661:0.4318932 662:0.4318932 663:0 664:0.099487454 665:0.4318932 666:0.3947151 667:0.37693369 668:0.34571111 669:0.37693369 670:0.37693369 671:0.37693369 672:0.37693369 673:0.1145458 674:0.1054665 675:0.37693369 676:0.211969 677:0.40536889 678:0.40536889 679:0.2515257 680:0.22907279 681:0.40536889 682:0.40536889 683:0.1168771 684:0.40536889 685:0.28982469 686:0.24920949 687:0.2486771 688:0 689:0.39701131 690:0.39701131 691:0.39701131 692:0.39701131 693:0.39701131 694:0.2787196 695:0 696:0.1254489 697:0.40044141 698:0.40044141 699:0.40044141 700:0.40044141 701:0.31750751 702:0.40044141 703:0.085330382 704:0.2121439 705:0.437839 706:0.437839 707:0.437839 708:0.3049764 709:0.437839 710:0.0297607 711:0.2874577 712:0.59553778 713:0.27790189 714:0.32277089 715:0.074937843 716:0.59553778 717:0.28611141 718:0 719:0.0087618651 720:0.1255396 721:0.40915751 722:0.40915751 723:0.40915751 724:0.38453251 725:0.36260399 726:0 727:0.1732064 728:0.13009889 729:0.40915751 730:0.42920771 731:0.42920771 732:0.040562321 733:0.016882719 734:0.076500706 735:0.40829009 736:0.2904346 737:0.42920771 738:0.42920771 739:0.44784129 740:0.44784129 741:0.44784129 742:0.44784129 743:0.369589 744:0 745:0.071511254 746:0.1049275 747:0.2013946 748:0.4706552 749:0.39366069 750:0.15770151 751:0.44607681 752:0.41611549 753:0.0108586 754:0.01316497 755:0 756:0.4706552 757:0.42156211 758:0.42156211 759:0.42156211 760:0 761:0.3706831 762:0.42156211 763:0.078212596 764:0.0080039958 765:0.3759563 766:0.15757249 767:0.42524841 768:0.42524841 769:0.1922273 770:0.01793693 771:0.1716648 772:0.42524841 773:0.42524841 774:0.42524841 775:0.27429101 776:0.41176209 777:0.3135522 778:0 779:0.039836939 780:0.44986969 781:0.32940859 782:0.37087089 783:0.44986969 784:0.4445833 785:0.4445833 786:0.4445833 787:0.4445833 788:0.0288598 789:0.0097951125 790:0.02243997 791:0.076518908 792:0.4445833 793:0.3999612 794:0.28638929 795:0.1914937 796:0.033351131 797:0.3999612 798:0.3999612 799:0.3999612 800:0.27632999 801:0.3999612 802:0.405213 803:0.405213 804:0.35591581 805:0.037872098 806:0.1025299 807:0.405213 808:0.405213 809:0.1906343 810:0.405213 811:0.57410067 812:0.51648349 813:0 814:0.074814081 815:0.02294055 816:0 817:0.096899368 818:0.2298166 819:0.57410067 820:0.50057811 821:0.50057811 822:0 823:0 824:0 825:0 826:0.3212356 827:0.37426311 828:0.50057811 829:0.50208068 830:0.50208068 831:0 832:0 833:0 834:0.001144766 835:0.4784435 836:0.099100821 837:0.50208068 838:0.48496121 839:0.2014235 840:0.096876852 841:0 842:0 843:0.070288621 844:0.4844557 845:0.48496121 846:0.48496121 847:0.50213951 848:0.50213951 849:0.159335 850:0.1863544 851:0.26683769 852:0.017295931 853:0.043175679 854:0.32414711 855:0.50213951 856:0.44420701 857:0.44420701 858:0.01525796 859:0.041788679 860:0.44420701 861:0.44420701 862:0.082965732 863:0.01006463 864:0.44420701 865:0.58613878 866:0.55396491 867:0 868:0 869:0.00077976042 870:0.01139041 871:0.0047258781 872:0 873:0.58613878 874:0.57224357 875:0.57224357 876:0.091274157 877:0 878:0 879:0 880:0 881:0.059723429 882:0.57224357 883:0.70415872 884:0.02148781 885:0 886:0 887:0 888:0 889:0 890:0.028810751 891:0.70415872 892:0.69442892 893:0.1691303 894:0 895:0 896:0 897:0 898:0 899:0 900:0.69442892 901:0.70370251 902:0.05080241 903:0 904:0 905:0 906:0 907:0 908:0 909:0.70370251 910:0.70460999 911:0 912:0 913:0 914:0 915:0 916:0 917:0.0039749062 918:0.70460999 919:0.70461559 920:0 921:0 922:0 923:0 924:0 925:0 926:0 927:0.70461559 928:0.67734742 929:0.27502221 930:0 931:0 932:0 933:0 934:0 935:0.0013446721 936:0.67734742 937:0.62458152 938:0.40894419 939:0.08191257 940:0 941:0 942:0 943:0.147691 944:0.1334258 945:0.62458152 946:0.70401299 947:5.5587629e-005 948:0 949:0 950:0 951:0 952:0 953:0.04127625 954:0.70401299 955:0.70444697 956:0 957:0 958:0 959:0 960:0 961:0.001031011 962:0.021815689 963:0.70444697 964:0.70236981 965:0.031766299 966:0 967:0 968:0 969:0 970:0 971:0.073025674 972:0.70236981 973:0.54424781 974:0.54424781 975:0.080872104 976:0 977:0 978:0 979:0.1751837 980:0.2621415 981:0.54424781 982:0.51579553 983:0.31479609 984:0.071059197 985:0 986:0.03218738 987:0.21664651 988:0.21117771 989:0.51579553 990:0.51579553 991:0.42325619 992:0.42325619 993:0.3417865 994:0.056153558 995:0 996:0.39277649 997:0.42325619 998:0.39256519 999:0.1731545 1000:0 1001:0.26270849 1002:0.4447726 1003:0.4447726 1004:0.33570421 1005:0.093732163 1006:0.37152559 1007:0.4447726 1008:0.27121779 1009:0.34098521 1010:0.4632715 1011:0.2620945 1012:0.4632715 1013:0.20335659 1014:0.1260884 1015:0.1862312 1016:0.2731531 1017:0.4632715 1018:0.2779007 1019:0.32313481 1020:0.05922227 1021:0 1022:0.14705069 1023:0.1913062 1024:0.52615678 1025:0.52615678 1026:0.4446227 1027:0.42440799 1028:0.42440799 1029:0.42440799 1030:0 1031:0.083643854 1032:0.22146749 1033:0.1977514 1034:0.42440799 1035:0.42440799 1036:0.54255402 1037:0.23417389 1038:0.02121293 1039:0.01894849 1040:0 1041:0 1042:0.23630691 1043:0.54255402 1044:0.54255402 1045:0.57468718 1046:0.57468718 1047:0.035399821 1048:0 1049:0.040453538 1050:0 1051:0 1052:0.02398601 1053:0.57468718 1054:0.59426618 1055:0.1999574 1056:0.017795861 1057:0 1058:0 1059:0 1060:0.0091919368 1061:0.49737051 1062:0.59426618 1063:0.4618392 1064:0.4618392 1065:0.0089767911 1066:0 1067:0.066868924 1068:0.020303929 1069:0.37046009 1070:0.4618392 1071:0.4618392 1072:0.55056858 1073:0.55056858 1074:0.016813479 1075:0 1076:0.100843 1077:0.25706959 1078:0.0096007409 1079:0.092172101 1080:0.55056858 1081:0.3120808 1082:0.04383092 1083:0.1928357 1084:0.1261591 1085:0 1086:0.0092472956 1087:0.034222551 1088:0.60992628 1089:0.68373251 1090:0.3065227 1091:0.083788179 1092:0 1093:0 1094:0 1095:0.2331257 1096:0.30324721 1097:0.61098951 1098:0.61098951 1099:0.6482144 1100:0.38630289 1101:0 1102:0 1103:0 1104:0 1105:0 1106:0.062727541 1107:0.6482144 1108:0.30641931 1109:0.56246853 1110:0.56246853 1111:0.39880121 1112:0.06751097 1113:0.1779304 1114:0.2157228 1115:0.086937621 1116:0.13562889 1117:0.4964197 1118:0.4964197 1119:0.4964197 1120:0 1121:0.02332985 1122:0.065164559 1123:0 1124:0.067240886 1125:0.4964197 1126:0.63191569 1127:0 1128:0 1129:0 1130:0 1131:0 1132:0.039658561 1133:0.43986699 1134:0.63191569 1135:0.69845539 1136:0.12942231 1137:0.02347468 1138:0.001545908 1139:0.002423418 1140:0.0057058549 1141:0.0001231389 1142:0.002442084 1143:0.69845539 1144:0.71161568 1145:0.67340457 1146:0.04930266 1147:0.057907399 1148:0.002206824 1149:0 1150:0 1151:0 1152:0.1650366 1153:0.69009823 1154:0.1854067 1155:0 1156:0 1157:0 1158:0.002819261 1159:0.0061069499 1160:0.07886178 1161:0.69009823 1162:0.67597097 1163:0.28173971 1164:0 1165:0 1166:0 1167:0 1168:0 1169:0.00091226352 1170:0.67597097 1171:0.69546109 1172:0.022087861 1173:0 1174:0 1175:0 1176:0 1177:0.089419208 1178:0.13130739 1179:0.69546109 1180:0.67814261 1181:0.003690633 1182:0 1183:0 1184:0 1185:0 1186:0 1187:0.2710382 1188:0.67814261 1189:0.45385051 1190:0.25598329 1191:0.39726231 1192:0.39758801 1193:0.42194101 1194:0 1195:0 1196:0.155084 1197:0.45385051 1198:0.28555739 1199:0.072198279 1200:0.2160448 1201:0.0566996 1202:0.34686601 1203:0.1005556 1204:0.4926143 1205:0.4926143 1206:0.4926143 1207:0.1406019 1208:0 1209:0 1210:0 1211:0.31018859 1212:0 1213:0.002591372 1214:0.66234243 1215:0.66234243 1216:0.1887338 1217:0.1720029 1218:0.40884769 1219:0.43446249 1220:0.45848781 1221:0.45848781 1222:0.28850731 1223:0.08487545 1224:0.25186911 1225:0.39832881 1226:0.32818609 1227:0.07496465 1228:0.39315319 1229:0.39832881 1230:0.39832881 1231:0.068987317 1232:0.3596625 1233:0.34352821 1234:0.54634488 1235:0.1732628 1236:0.017910389 1237:0 1238:0.2037314 1239:0 1240:0.16498069 1241:0.54634488 1242:0.54634488 1243:0 1244:0 1245:0 1246:0 1247:0.38740689 1248:0.01503563 1249:0.38820291 1250:0.58868933 1251:0.58868933 1252:0.0084418356 1253:0.0027424239 1254:0.0082063451 1255:0 1256:0.41587171 1257:0.003259249 1258:0.1509358 1259:0.63158792 1260:0.63158792 1261:0.46980241 1262:0.46980241 1263:0.46980241 1264:0.066758901 1265:0.3231813 1266:0 1267:0 1268:0.059559889 1269:0.46980241 1270:0.69143248 1271:0 1272:0 1273:0 1274:0.19200251 1275:0 1276:0 1277:0.0086497059 1278:0.69143248 1279:0.68778461 1280:0.68778461 1281:0 1282:0 1283:0.19069409 1284:0 1285:0 1286:0 1287:0.1033178 1288:0.56415141 1289:0.56415141 1290:0.063862257 1291:0 1292:0.1883819 1293:0 1294:0 1295:0 1296:0.56415141 #
